2405 128
1397 -0.2966455 0.25683755 -0.081791446 0.51046324 -0.22328807 0.00028561134 0.008084666 0.21476133 0.2730662 0.12318795 -0.13365941 0.3341026 -0.120018356 0.20362164 0.15069966 -0.38398448 0.12382189 -0.04782152 0.3166456 -0.30851427 -0.3867611 -0.16458333 -0.4937192 -0.37376267 -0.23580696 -0.05388551 0.153514 -0.37761304 -0.23389211 0.036304697 -0.18244782 -0.059963625 0.05842289 -0.064941235 0.35325578 -0.2929802 -0.037764948 0.6110716 0.38845408 0.34556475 -0.14949062 -0.21698068 -0.12557441 -0.14466955 0.2749307 0.104331225 0.2158078 -0.053115685 0.34821713 -0.20944247 -0.25276965 -0.1495085 0.10877852 0.09368511 0.19158086 0.12220412 -0.016245157 0.3366632 -0.009178206 0.2715982 -0.28941178 0.062373728 0.086181164 0.18249515 -0.011886757 -0.07840787 -0.18147296 0.14296302 -0.013016785 0.25797403 -0.070706606 -0.16803925 -0.07399169 -0.14197652 -0.3527607 0.15943289 -0.17358981 0.34181315 -0.2442996 0.14196047 0.41483375 0.1047638 0.005762884 -0.25048417 0.005467311 -0.21005423 0.24988738 -0.20474574 0.0764292 -0.04639281 0.039065428 -0.2669114 0.17983742 -0.115584925 0.2645987 0.0839399 0.3548419 -0.39280334 -0.12698823 0.18380906 0.14127038 0.3459885 0.13313438 -0.04005595 0.0592741 -0.15799499 0.021924792 0.13270363 -0.36774385 0.13492002 -0.011584206 0.2952291 0.44610113 0.07116699 -0.10605821 0.50581086 -0.2651102 0.012856571 0.14500262 0.03832903 0.097893156 0.2900357 -0.09773107 -0.018916601 0.0098864585 -0.26184088 -0.0016339578 0.19291838
1470 -0.30697235 0.051031332 0.19682011 0.385625 -0.44872078 -0.036620066 -0.04514879 0.05890936 0.40053248 0.31701976 0.16263065 0.38714024 -0.14701092 0.2854053 0.12873521 -0.40126094 -0.01826957 -0.41479856 0.11921093 -0.31515685 -0.2563972 -0.045504224 -0.4113555 0.08291146 -0.38815418 0.06837707 -0.10644226 -0.49104202 -0.3383777 -0.26052374 -0.16850486 -0.16931611 0.06782684 -0.2826253 0.37437922 -0.30608013 -0.007598665 0.5198861 -0.13949613 0.31359378 -0.10459056 0.16680978 -0.19725956 -0.15342312 0.18363205 -0.02199681 0.07539231 0.019927872 0.12482039 -0.21726952 -0.07315042 -0.2781808 0.3186421 0.10665126 0.19090858 0.26572275 0.0019261171 0.2436373 0.19912712 0.38242483 -0.19131744 0.14446566 -0.08399203 0.1832024 -0.07666601 0.19698048 -0.057116743 0.25178358 0.07391021 0.2675835 -0.1602529 -0.024801718 -0.35332295 -0.014668149 -0.22863595 0.3027956 -0.19377373 0.45500934 -0.40517098 -0.08698469 0.1581064 -0.24345699 0.034722526 -0.10025041 -0.12013126 -0.24445125 0.042759698 0.19988163 0.019143963 0.16605297 -0.13265872 -0.038588047 0.1466939 0.07025594 0.24818991 0.09581472 0.31397521 -0.4252815 -0.14988758 0.09935883 0.16396883 0.09274189 0.2655879 0.49465203 0.21009217 0.30873826 0.01584101 0.17950454 -0.0417598 -0.355125 -0.042387847 0.24666707 0.09762779 0.28576377 0.35682178 0.44773105 -0.22897352 0.061740723 0.19984196 0.054199684 0.06110273 0.3091053 -0.21521054 0.08960398 -0.38764787 -0.2835279 -0.13055106 0.3045125
362 -0.19261949 0.42876366 -0.09155729 0.45431995 -0.010429787 -0.007639741 -0.05966121 0.101241864 0.44009233 -0.037568472 -0.576161 -0.060578883 0.10145577 0.32254487 -0.010104557 -0.33049765 -0.063742585 -0.21886963 0.22746052 -0.19694917 -0.46199384 -0.43890345 -0.48204693 -0.55228925 -0.044889048 -0.20683585 0.58698153 -0.2697284 -0.29271653 -0.07121291 -0.31874683 -0.122676075 -0.026164168 -0.21364117 0.20881426 -0.09340392 0.08416669 0.74520373 0.7235588 0.40074903 -0.07701237 -0.2498497 0.02101493 -0.4269094 0.24613845 0.25991693 0.186763 -0.22977874 0.45134372 0.08994245 0.07097189 0.24694622 0.07316374 0.397035 0.2903418 -0.0901248 0.15238681 0.19001812 0.13684236 0.4281814 -0.0018698088 0.043243088 0.27036482 0.3319311 0.00924008 0.22549315 -0.22738902 0.3831067 -0.5623795 0.6270524 -0.12161992 -0.52006435 -0.27272066 0.12341236 -0.52529055 0.1341739 -0.33239514 0.06892537 -0.47195166 0.19435513 0.55404544 -0.096879974 -0.05918117 -0.3945334 -0.061902333 -0.17458819 0.2726013 -0.5564141 0.38433388 -0.043096777 0.14357388 -0.17705244 0.18801 -0.43844903 0.5640208 0.039595805 0.4661918 -0.6151337 0.009030962 0.12574571 0.25783244 0.7446466 0.07695947 -0.27786034 -0.010249778 -0.45717648 0.1604941 0.08066899 -0.6418163 0.049058113 -0.12029206 0.3251599 0.8735237 -0.05167519 -0.2516368 0.8387843 -0.10019247 0.47027755 -0.040588558 -0.2804588 -0.13223448 0.40773287 -0.065443836 -0.0039058083 0.16811663 -0.06279594 0.21930984 0.26148596
226 0.09983185 0.1411332 -0.032308433 0.16801353 0.13705419 0.040780306 -0.16254787 0.0736677 -0.126867 0.12933242 0.15807576 0.10142834 -0.18284243 -0.17495438 0.13822764 -0.2297418 0.2123142 -0.15641762 0.1752279 0.08687406 -0.16614158 -0.043140724 -0.42931685 -0.048234038 -0.18133669 0.21592838 0.09246345 0.0004929326 -0.10595087 -0.11939734 0.008063183 -0.1856916 -0.11278052 -0.1871992 0.21712968 -0.1114277 -0.35586393 0.08424629 0.082104474 0.1831728 -0.03237858 0.29103228 -0.09315076 0.038688406 0.27532563 -0.09029239 0.107866056 -0.31218892 0.7083595 -0.5911142 0.18335894 -0.27030313 0.111203685 -0.13633399 -0.19597109 -0.17404488 -0.12408546 0.30681908 -0.3240544 0.032908164 0.27581927 -0.2620646 0.14853473 -0.050115768 -0.10443963 -0.14636037 0.06547557 -0.09873658 -0.5383147 -0.20355046 -0.057768393 -0.02494922 -0.19035825 -0.017853517 0.08261383 0.09032223 -0.03956181 0.17734219 -0.14364734 -0.17149055 0.035938203 0.21897891 0.052706175 0.2283735 0.22912735 0.0100417435 -0.0153353335 -0.2198979 -0.12187047 0.07393609 0.2691019 0.077759124 0.12814464 -0.022003809 0.34086725 -0.2098118 0.049794756 -0.20319875 0.066664115 -0.31034917 0.112089135 0.19814868 0.11347351 -0.18084851 0.22507128 -0.14931053 0.040817667 0.022714084 0.06085015 -0.08080302 -0.0691634 0.16575286 0.13839293 0.14304088 0.022226224 0.41016057 -0.1255187 -0.13905823 0.107121535 -0.23778032 0.107973635 -0.18968746 0.1685602 -0.32666746 -0.116308674 0.110227846 0.15215766 -0.008403506
750 -0.41046488 0.17203704 -0.004652205 0.42536944 -0.19469859 0.044644825 -0.023436759 0.07678106 0.011615179 0.09826484 0.24869113 0.15972169 -0.0702901 0.46658143 0.27454138 -0.33299085 0.030367963 -0.056079973 0.3214665 -0.4135823 -0.11090583 -0.51452005 -0.49886513 -0.21273369 -0.38554698 -0.049546245 0.12845346 -0.08069487 -0.20519818 -0.15129855 -0.021472113 0.013438558 0.0040739304 -0.3457545 0.47182098 -0.35291716 0.17853768 0.18495075 -0.03955597 0.09992204 -0.4190078 -0.15902221 -0.08656302 -0.20196292 0.18871847 0.1615982 0.23891756 -0.011831887 -0.009070972 -0.1015454 -0.4928399 -0.10877774 0.090746045 0.05597538 0.4949463 0.18923935 0.037998356 0.4774114 -0.3773348 0.052146427 -0.3088688 0.17593864 -0.13392103 -0.004946918 -0.0535793 0.08008173 -0.1117053 -0.24217348 0.27552566 0.3152467 -0.44942737 0.09950107 -0.3092605 -0.086570345 -0.30871964 0.08971419 -0.07291025 0.7165251 -0.19971448 0.14765692 0.08300308 0.028219147 0.005713292 -0.22721899 0.14284839 0.039331906 0.4792257 0.07346159 -0.10199963 -0.06781695 -0.31616774 -0.036228713 0.07304312 -0.026299166 0.45963964 0.13445564 0.4013305 -0.25120524 -0.14749989 0.41727036 -0.045631126 0.08482489 0.056348808 0.084068716 0.055278406 -0.012787218 0.073609024 0.012927993 -0.30382505 -0.34118402 -0.1265649 0.06802273 0.04060655 0.23553924 -0.025983028 0.33805016 -0.3476475 0.026419366 0.11550984 0.3746013 0.42465875 0.22141708 -0.11656113 0.19182877 -0.15291071 -0.21270964 0.102455094 0.030852878
489 -0.25112978 0.086158894 -0.11534078 0.12016933 0.19504632 -0.048817188 -0.043122042 0.23049538 -0.16050385 -0.25695795 0.028152667 0.25562254 -0.15430407 0.063178524 -0.23717454 -0.25722423 -0.19664335 0.12599799 -0.13065442 -0.09016494 -0.2655406 0.05689928 0.08612938 -0.050283227 0.02125429 -0.159732 0.071343265 0.06517361 -0.018514752 0.12391379 -0.07732365 0.011734608 -0.17665605 -0.16076326 0.08974156 0.08597306 -0.1035704 -0.06378941 0.06928767 -0.09828338 -0.040417425 -0.06606542 -0.23874825 -0.031723198 0.29246423 0.11518004 0.16805264 0.077481605 0.29150805 -0.22492541 -0.11919285 -0.072965026 0.20999736 0.29742813 0.1591463 -0.4217172 0.04540561 -0.026710523 0.09595435 0.14418061 -0.13850608 -0.13592629 -0.129814 -0.21795526 0.012939677 -0.082195036 0.32376936 0.10672054 -0.05864228 0.07304897 -0.076434985 -0.037406657 0.049403746 -0.041368246 -0.0953491 -0.03753479 0.06283808 0.112144575 -0.07645227 -0.3234584 0.08780927 -0.13672751 -0.08724408 -0.05205827 -0.00029515533 0.33696663 0.197969 0.12882745 -0.046333272 -0.17630182 -0.1023986 -0.056387305 0.22755247 -0.05755228 0.18569365 -0.04495136 0.21386911 -0.12292564 -0.13869156 0.08917433 -0.003447504 -0.17293948 -0.08580074 -0.14722012 -0.030462319 -0.2029835 0.07726946 -0.21981947 0.050873682 -0.076117836 0.09700215 0.21647596 0.19826297 0.31371617 -0.082836516 -0.07203615 -0.047795787 -0.03340437 0.019782575 0.15556227 0.2449588 0.15240794 0.059883483 -0.016647778 0.118351705 -0.21166348 0.17567083 0.19042003
1462 -0.35176244 0.38488317 0.024730464 0.605809 -0.06633321 0.07854888 -0.093954265 0.0039571244 -0.14976382 0.0861766 -0.15115057 0.2770101 -0.09985938 -0.10022115 0.17478812 -0.2315666 0.3818351 -0.017684704 0.389117 -0.05474567 -0.15860493 0.044730704 -0.27537978 0.021125305 -0.15565294 0.08837671 -0.07131219 -0.013463955 -0.21825902 0.19760321 -0.18240584 -0.26536217 -0.04831558 -0.12380467 0.2942279 -0.109220244 0.053375375 0.33810037 0.31298542 0.24844684 -0.05476708 0.07067408 -0.4535646 0.1609607 -0.07270753 -0.24523218 0.21270362 -0.2557614 0.6071299 -0.5977449 -0.208977 -0.038641848 0.1052939 -0.14290199 -0.600841 0.053787936 -0.34320983 0.5241143 -0.30427343 0.21060035 -0.061604723 0.2863241 0.23077548 -0.041537378 0.1788041 0.09953504 0.0071327058 -0.28167892 -0.40693742 -0.20727691 -0.02265036 -0.29521707 -0.2804687 0.055852473 -0.047393363 0.18016249 0.19292517 0.3108754 -0.19319952 -0.016913839 0.2155161 0.31399217 0.2890312 -0.048368197 0.06388822 -0.17234138 0.0227093 0.0045690225 0.057166066 -0.2349042 0.045004204 0.07379529 0.12792246 0.1087434 -0.022834694 -0.032378104 0.26069823 0.08627286 0.20354833 -0.2825605 0.16435677 0.1792831 0.105218545 -0.2506935 0.11788008 -0.13579682 0.083719835 -0.03689047 -0.0898027 0.27424285 -0.05728349 0.28914213 0.1826445 0.2688583 -0.05401963 0.4227267 -0.023072852 -0.15540093 0.21979456 -0.37490898 -0.12557855 -0.14445826 -0.04771182 -0.30769658 0.23910834 0.011303381 0.032761298 0.06212884
1713 -0.09319323 0.39905357 -0.1048951 -0.2535778 0.21913825 0.10115907 0.16342053 0.08341271 0.120810285 -0.24018954 -0.38280278 -0.3860825 0.19421501 -0.30698693 0.12841056 -0.2831993 0.22524133 -0.13964263 -0.28648245 0.04736255 0.21398494 -0.4500364 -0.1258565 0.04184956 0.13685517 0.07209721 0.1819299 0.034183238 -0.29869947 0.044237975 -0.6564536 -0.54828364 0.226808 0.17764223 0.015944146 0.5325161 0.15245278 0.0008195839 0.21004292 -0.29323798 -0.07327609 -0.37160674 0.1573442 -0.39462647 0.1956426 0.16387282 0.17840141 -0.2758061 -0.26740655 -0.49976933 0.30733314 0.12690546 0.05862857 -0.17418271 0.38893586 0.010170826 -0.5400204 0.12580842 -0.57120806 0.3648118 -0.16099727 0.18499497 -0.0050402423 -0.29762626 0.12618473 -0.11770209 0.01248092 -0.34906846 -0.2342494 -0.0020303777 -0.1619102 0.0695586 0.062279638 -0.35097307 0.022281025 0.49122658 0.18052648 0.12774001 0.045717176 -0.41081524 -0.24741349 -0.3979754 -0.09748993 -0.051068515 -0.11724322 -0.19400883 -0.20775189 -0.06409188 0.15336245 0.2020935 0.10295999 0.09866578 0.31872225 0.08876959 0.19936126 0.07868736 0.38265654 0.13131438 0.020542955 0.33840764 -0.31880182 -0.079109125 -0.13301235 -0.40882966 0.12401574 0.96004015 0.34496427 -0.1759363 -0.003342471 0.06776865 0.04003087 -0.26385158 -0.14942007 0.048611864 -0.027229654 0.24034937 -0.12129018 0.40497082 -0.0018792141 0.11365414 0.13294259 -0.21756475 0.06067348 0.20563293 -0.014853865 -0.35025558 -0.21346456 0.27757862
393 -0.039577834 0.27640092 0.111911304 -0.13721165 0.18192346 -0.017964618 0.3237634 0.07290146 0.056218598 -0.34544915 0.081378676 0.12244458 -0.1580588 0.08410263 0.16406143 -0.06822571 0.17192984 -0.20180096 -0.2445716 -0.01941714 0.121738225 0.012220616 -0.1445397 0.015272726 0.18195373 0.19399329 0.059563544 0.0720326 -0.012017407 0.077549726 -0.104825474 0.0084416075 0.19868742 0.08001058 -0.124057874 0.06243921 -0.08101189 0.12019123 0.09216531 0.03914292 -0.25001118 -0.09801631 -0.23264867 -0.24616401 0.096412264 0.17434752 0.0154342875 -0.19278906 -0.035434306 0.0031916262 0.19945142 -0.06277939 -0.048881743 -0.116274334 0.28028357 0.10452265 -0.011518655 0.17688316 0.04735242 -0.100981876 -0.10514884 0.15140562 0.07301297 -0.07311603 0.22873968 0.033735454 0.13439319 -0.016247772 -0.06289114 0.058761764 -0.069612466 0.17858218 0.09733895 -0.031176362 0.052220717 -0.019808099 0.015446878 -0.24865493 -0.16880937 -0.0014100085 -0.20667706 -0.07107799 -0.1339263 0.21547803 0.060588904 0.006816162 -0.027408041 0.06952669 0.09869785 -0.14874536 0.088239335 0.08566274 0.20323908 0.029540768 0.102290474 -0.17666854 0.1275853 0.11924733 0.20930928 0.26483807 0.048515834 0.08343858 0.0659275 -0.24645439 0.03200697 0.21475422 -0.18049675 -0.16311145 0.049834445 0.026053179 0.0026451428 -0.01405308 -0.07553391 0.28556192 -0.048723124 -0.036022153 0.0019174431 0.023624092 -0.066963136 -0.12117032 -0.09973146 -0.25377288 0.29764608 -0.002942431 -0.21343003 -0.16268802 -0.19506055 0.10839499
445 0.012404562 0.042597372 0.07668962 0.008731211 0.073602654 0.16356765 -0.09702123 -0.006813549 -0.083986305 -0.093099795 0.20952277 -0.19338876 -0.09059982 -0.096929766 0.23614508 -0.36115095 -0.039592993 -0.04394611 0.008247873 0.13340585 -0.040906798 -0.017461188 -0.08826553 0.095622115 -0.25181744 0.18142039 0.130127 0.032894447 -0.17333573 -0.092458114 -0.32053205 -0.19270566 0.021692691 0.09145971 -0.04184853 0.2406662 0.18734926 -0.075746685 0.046105795 0.2374223 -0.09888388 -0.23712404 0.022791814 -0.15652663 -0.06738864 0.26065168 0.09055703 -0.109705985 -0.031569533 -0.14815035 0.11873622 0.07306552 0.1802433 0.118859924 0.1540516 -0.12870446 -0.024757976 -0.10846557 -0.2860951 -0.046528578 0.07759928 0.3684922 0.041560043 0.017162537 -0.03436075 -0.077377655 0.23619126 -0.14419822 0.04575495 0.19523586 -0.17627408 -0.18404922 -0.13687783 0.011054749 0.088952 0.02149523 0.22940063 0.05410614 -0.10439349 -0.05271738 -0.23170549 -0.13290082 0.021733424 0.14000174 -0.03389375 0.20130496 0.085517295 0.22995234 0.17365019 -0.050812043 0.100279294 -0.037235837 0.17624652 0.015044776 0.1275473 0.11705977 0.10096873 -0.15718761 -0.2141326 0.018012727 -0.3018426 0.0048986673 -0.083139226 -0.22749935 -0.05431931 0.26617053 0.13126373 0.027670983 0.2672555 -0.029918266 -0.07396852 0.09089824 -0.06266799 -0.113136254 -0.0036170587 0.079806365 0.11957879 -0.112093434 0.030827172 0.17595129 -0.08031172 -0.09431013 0.0672209 0.13225187 -0.07938538 0.10376375 0.09070203 -0.06456182
696 -0.14613374 -0.062049776 -0.10243858 0.23189457 0.044984307 0.32589144 0.009839215 -0.06861381 -0.24614668 0.073381595 0.3270718 0.26240486 0.013631801 -0.1647157 0.16158333 -0.24976884 0.04972564 -0.03836781 -0.2687901 -0.18121898 0.15343608 0.17651677 -0.06636817 -0.052541107 -0.21417834 -0.03682318 -0.10463758 0.21191913 -0.121825956 -0.17785606 -0.29776633 -0.0034117314 -0.099873744 -0.3544013 0.14392248 0.4056982 0.32771125 0.0808429 0.015647057 -0.025962383 -0.09824008 -0.35132813 0.18248609 0.11984412 0.13188604 -0.2752566 0.18298058 0.07981302 0.15512836 -0.1269082 -0.3436118 0.029219542 0.074326664 -0.2309978 -0.64740264 0.16167441 -0.10095067 0.3575125 0.09852341 -0.01369852 -0.35278612 0.5242036 0.006770861 0.04626162 0.33778244 0.0006102639 0.038916185 -0.08860492 -0.1780207 -0.16701134 -0.06480209 -0.2467467 0.042374875 -0.10277387 0.0025129188 0.023406051 0.090075575 0.26487467 -0.16901642 0.17374618 0.43037447 0.41036633 -0.13221331 0.2788541 -0.1780592 -0.3959617 -0.49500448 0.4343538 -0.024534542 0.017608983 -0.004890639 0.07778245 0.32419208 0.16225754 0.16830455 0.0015840167 0.06764142 -0.20996231 0.054013982 -0.1898229 -0.09502948 -0.045836885 0.111450635 -0.26101395 0.035767615 -0.3146855 0.07296563 -0.11462428 0.1267884 0.59488386 -0.3132499 0.028696205 0.15310551 0.11755392 0.23655537 0.17237213 -0.25157732 -0.23164842 -0.1554531 -0.039346956 -0.15742622 -0.105793454 0.20001227 0.18285818 0.014818709 -0.14557056 -0.035085272 0.12618266
1610 -0.06455486 -0.124061406 -0.02760654 0.34919006 0.08941387 0.0815418 0.1195959 0.13429682 -0.27605292 0.21812463 0.105750225 0.2895229 -0.020628523 -0.074669205 0.2555882 -0.15731408 -0.12417212 0.25622812 0.072621286 0.09144229 0.05490147 0.21594118 0.0034996434 -0.0034154905 -0.44742474 0.120839186 -0.4182111 0.09988387 -0.27726611 -0.28396836 -0.27264038 0.115860015 -0.3231263 -0.3367419 0.13693155 0.23535633 0.4352607 0.29585525 0.20354183 0.13721862 0.08053515 -0.46390727 0.04717109 -0.03952558 0.23218521 -0.4793202 0.27128255 0.07270761 0.45687866 -0.08358696 -0.59059083 -0.13893606 0.19188447 -0.27634513 -0.7867622 0.14684208 -0.14645506 0.6031057 0.2057413 0.10067319 -0.34326664 0.70082456 0.13181151 0.012746635 0.13633005 -0.21989702 0.008940626 -0.205674 -0.11841753 -0.45681617 0.04464551 -0.148593 0.1262084 -0.15423712 -0.13874313 -0.08866865 0.2507639 0.13291602 -0.34240764 0.0017370173 0.3106737 0.73910445 -0.085102856 0.33008623 -0.09602978 -0.71152693 -0.4628519 0.40866277 -0.061507843 0.07151843 0.23300791 -0.00070475764 0.2595844 0.2522807 -0.07590434 -0.06490628 0.06223942 -0.14913446 0.13700582 0.08487252 -0.16000049 0.098300606 0.124966085 -0.69934773 -0.018554613 -0.3160285 0.17439514 0.046159066 -0.0008394248 0.4778603 -0.4227034 0.24503705 0.24530503 0.14463189 0.0754012 0.64323336 -0.23041503 -0.6359026 -0.07891695 0.07497051 -0.38772804 -0.15734197 0.01993901 0.09759671 0.09782514 -0.3066835 -0.061724056 -0.0060356613
889 -0.29387566 -0.18083853 -0.054210223 0.19847547 0.44638142 0.0274635 -0.015130502 -0.3945817 -0.3187902 0.030117938 0.47590432 5.4564127e-05 -0.26593217 0.017705724 -0.18202923 -0.14327157 0.2591576 0.38898635 -0.073217794 0.03729018 0.09716764 0.1626352 -0.051079914 -0.39141917 -0.59475505 -0.37543622 -0.2720185 -0.1290521 0.054558724 -0.34909976 -0.3233926 0.32494316 -0.14838172 -0.010293795 -0.2679939 0.19246897 0.24082652 0.10840345 -0.085675284 -0.22798578 -0.2579841 -0.51018536 0.0045103314 0.47186396 -0.11630934 -0.17818625 0.3576526 -0.03840422 -0.19246925 0.18012601 0.042871516 0.24731877 0.12285912 -0.45417824 -0.27597454 0.035391595 -0.09468594 0.15990198 0.3484214 0.43958548 -0.14644955 0.418047 -0.35250345 0.22519337 0.80054265 -0.13088906 0.020727789 -0.0956294 -0.45441237 0.006602058 0.068085976 -0.3192421 0.13880245 0.04021966 -0.49488768 0.057274807 0.114119425 0.106010884 -0.42175978 -0.15413342 0.2778394 0.565295 -0.19909894 0.5410357 0.106348366 -0.257881 -0.24566667 0.6048048 -0.1282617 0.11147376 0.09945024 0.2614118 0.5998553 0.15054129 0.27700728 -0.099855356 -0.23699881 -0.038727984 -0.27425143 -0.1564945 0.001456295 -0.25711632 0.036609765 -0.40820295 -0.004141289 0.011197723 0.15151198 0.17158598 -0.14277752 0.29942715 -0.5758243 -0.059945084 0.35652474 0.47918266 0.070432656 0.22832263 0.37786508 -0.642123 -0.12046345 0.14763375 -0.2725901 -0.41886774 0.5202984 -0.21156338 -0.10513411 -0.12601411 0.04818072 -0.008039087
1615 -0.42287382 0.09123015 -0.41425744 0.50861794 -0.16062327 0.36212227 0.0117854895 0.026864897 0.042456906 -0.16203734 0.37705246 -0.40061873 0.11642972 -0.028720219 0.22088622 -0.20805447 -0.40075636 0.06729121 -0.011449467 -0.03038059 0.16202278 -0.018030092 -0.15684403 0.19353896 -0.3245309 0.38896945 -0.2865091 -0.3422507 -0.5368803 0.36714807 -0.18530643 -0.27375904 -0.07355498 -0.15014474 0.72730666 0.42762652 0.27834576 0.17185299 0.42210683 -0.30087566 -0.4322758 -0.40338075 0.081274986 0.21189016 -0.25728554 0.082334734 -0.21324661 -0.081184454 -0.09986467 -0.28243908 -0.25545272 0.22791523 0.315702 -0.012282309 -0.2993633 0.29559085 -0.029970493 0.30095407 0.11822329 -0.5557293 -0.052607812 0.2290886 -0.35994658 -0.03882984 0.17920025 0.010744929 0.3044593 0.09189531 -0.30532178 0.24182832 0.38249356 -0.17830853 -0.17508769 -0.22848932 0.05765453 0.42856762 -0.24458157 0.2424337 -0.3271578 -0.013391026 0.06663697 0.16491292 -0.35326692 -0.062593386 0.085096136 -0.16803809 -0.3523671 0.6338742 0.3327956 -0.26001984 0.028787015 0.5900076 0.45050547 0.24182482 -0.09847131 0.3441799 0.19048859 -0.030051189 -0.09271146 0.0546281 0.10187841 -0.32655 -0.0438883 -0.32898915 0.24082185 -0.20249984 -0.11010619 0.010716389 0.22793573 0.44357625 -0.46641195 0.40467674 0.053514216 -0.10385082 -0.08684925 0.069857605 0.10024113 -0.16140726 -0.26838008 -0.050605055 -0.3205992 -0.24915542 0.24199347 0.1397871 0.61467403 0.1968814 0.32361665 0.14013676
708 0.20024621 -0.01225556 -0.1381563 0.103074715 -0.0076773306 0.02833899 0.1541974 -0.24312788 0.04164781 -0.33131397 -0.03676301 0.06895417 -0.08188462 0.06508522 0.19781914 -0.02016428 -0.17658147 0.028542472 0.0677678 0.17685905 0.1315704 0.099918105 0.09017172 0.020424167 -0.15064515 0.059894145 0.22773421 0.10494797 -0.25300938 -0.069373295 0.10067634 0.15812112 -0.18508117 -0.092514455 0.44226277 0.08147401 0.082991995 0.35970834 -0.04322538 0.26782992 -0.025382338 -0.21907322 -0.22144681 0.10853487 -0.15253243 -0.1246901 0.09555025 0.1434044 0.085570045 -0.15642741 0.25251445 -0.06968077 0.013823268 0.11667727 0.17278925 -0.07319775 -0.13774759 -0.3482959 0.15812176 -0.20486669 -0.0020930592 0.16906236 -0.032905653 0.15132561 -0.018530121 -0.011709929 0.034044776 -0.06648798 -0.15455027 0.22039732 -0.22261432 0.08547799 -0.20969409 -0.09035137 -0.017230071 -0.02919382 0.03876555 0.2511829 -0.039603103 -0.063613564 0.07584562 0.12464087 0.06733195 -0.055947766 0.19181468 0.05030831 0.22534412 0.28488687 -0.14004828 0.021794809 0.07627972 0.18843168 0.26972824 0.038924467 0.25927162 -0.35779235 0.19781442 0.13603482 0.03405252 0.14750147 -0.24232621 -0.082891405 0.5249198 0.07587033 0.13653965 0.092770725 -0.116576776 -0.22696932 -0.029737202 0.41155374 0.013131692 -0.26028144 0.13805051 -0.13129795 0.17091604 -0.23355511 -0.28758967 0.006307766 -0.19023961 0.110420056 -0.046510987 0.14303662 0.22233844 0.13640536 0.009048375 -0.05858072 -0.22630127 -0.1416145
713 0.16437134 0.07814171 -0.009655823 0.3011189 0.022554668 0.27195165 -0.15611568 0.19498955 0.23942478 -0.14150853 0.22467935 -0.14228636 -0.12458423 0.08892687 0.04177572 -0.078870624 -0.67133284 0.18907662 0.009684497 0.08229308 -0.1464403 -0.06959104 -0.077182926 0.1997416 0.051334444 -0.0054516345 -0.06113915 -0.16334946 -0.4080581 -0.058778115 0.039183244 -0.20897308 -0.089107044 -0.057393484 0.40189916 0.56579334 0.16126694 0.21921088 -0.16985437 -0.17892823 -0.2656544 -0.21390167 0.16234824 0.3295366 -0.052794658 -0.05659148 -0.14805605 0.073596746 -0.25835255 -0.07460769 0.1432117 0.35481748 0.09057354 -0.233105 -0.10487868 0.2891258 -0.12422466 0.18209013 -0.4058882 -0.31964567 0.1998018 -0.09711629 -0.28542534 -0.08370229 0.35262913 -0.058970958 0.29174578 -0.10565171 -0.2007645 -0.05284945 -0.0017465998 -0.15630409 -0.34527007 0.12933004 0.05472035 0.22517733 -0.045215186 0.2141291 -0.44250855 0.1250926 0.21319555 0.2755888 -0.30844572 -0.3646367 0.38493532 0.16927384 -0.1862461 0.70745856 0.36986557 -0.4025664 0.113071464 0.061836988 0.38616368 -0.00957888 0.22401057 0.19516331 0.07334411 -0.32769582 0.06397639 0.33915338 -0.0969265 0.13149512 0.17490043 0.030421907 0.11654694 -0.41750708 -0.19135436 -0.2796766 0.023166671 0.23326236 -0.053853076 0.042706005 -0.027536899 0.010088481 -0.18099672 -0.065808386 -0.19105165 -0.18979737 -0.4015965 0.22705843 -0.33521295 -0.25750488 0.1755518 0.28825077 0.24949785 -0.02438318 0.16299173 -0.14230706
718 0.1526527 -0.29496223 0.07544812 0.13488907 0.18245123 0.19883962 0.1617202 -0.22677897 0.24151464 -0.40557635 0.008688298 0.14465073 -0.39312607 -0.597104 0.4819455 0.017028902 -0.25491512 -0.20108005 0.14299095 0.04770995 0.14507367 0.19363941 -0.16964038 0.15435459 0.08474899 -0.011184928 -0.15391046 -0.18294337 -0.36004794 -0.14917593 -0.19222414 0.16809039 -0.21423505 -0.14700632 0.9124199 0.5342285 0.053039495 0.19819851 0.12948853 0.3402907 0.023844685 -0.4939453 0.17099693 0.5810872 -0.1981997 0.065740995 0.10299135 0.04394616 -0.079082 -0.052088775 -0.060490824 0.33043376 0.12283265 -0.10790781 -0.27980858 -0.133291 -0.079264574 0.31658432 0.048358742 -0.08285442 0.3200967 0.09996174 0.12460995 0.105433814 0.30376983 0.035605103 0.26089203 -0.042294387 -0.13913532 0.1707948 -0.1782933 -0.06376278 0.20160086 -0.0015688041 0.03909852 -0.023776948 0.29412547 0.23705463 -0.52423394 -0.12479447 0.109841 0.2361058 -0.18463315 -0.20685303 0.16354965 -0.2542969 -0.26269206 0.44380656 -0.2963793 -0.071999095 0.058945537 -0.07407205 0.090762824 0.2979838 0.51127374 -0.050147995 -0.19430836 -0.16792694 -0.040667396 0.266336 -0.15834145 0.10594005 0.2206864 -0.36390543 0.24624798 -0.26983902 -0.30311936 -0.3935616 0.0006507203 0.4846229 0.015626129 -0.15145135 0.37463048 -0.06565538 -0.04716535 -0.39658704 -0.3614264 -0.23619328 -0.06680495 -0.0047058985 -0.06702735 -0.24661005 -0.09308865 0.28194985 0.037819568 -0.5086512 -0.026015477 0.08411839
1630 -0.24872729 -0.058531016 -0.1225234 0.44752192 -0.15061276 0.2815219 -0.09667201 0.1770765 0.22688785 -0.06687141 0.48637795 -0.3102122 -0.008251268 0.32446244 -0.05442999 -0.04016618 -0.33240002 0.03434586 0.012200793 0.12333605 0.04607769 -0.22226693 -0.058467396 0.20458254 -0.058355957 0.29305193 -0.24515377 -0.24142788 -0.45933 0.25656345 -0.2833123 -0.0977685 -0.143053 0.061182637 0.77491933 0.36930662 0.22469357 0.14422731 0.25357047 -0.21084848 -0.3725451 -0.44889373 0.09086924 0.40872929 -0.31515375 0.031473927 -0.21514034 0.014844742 -0.30307233 -0.07992508 -0.16735463 0.33114251 0.32107413 -0.24433625 -0.28822944 0.45877942 -0.11520947 0.25846037 -0.11683246 -0.5366545 0.01656298 0.037684258 -0.2705194 -0.058596846 0.39041945 -0.0795108 0.16635022 0.037527528 -0.21428472 0.039656855 0.15950285 0.037199907 -0.05593482 -0.22873907 0.1227896 0.46214417 -0.32835004 0.36233476 -0.43407458 0.04960059 0.16069305 0.29980394 -0.292444 -0.06062518 0.28965035 -0.081745066 -0.16932735 0.717323 0.514018 -0.28049117 0.09977646 0.41824517 0.5254108 0.11247972 0.07791987 0.35980314 0.26199037 -0.17338254 -0.18013592 0.10546412 -0.011669307 -0.15361738 0.16130745 -0.06367208 0.044858795 -0.30448622 -0.1820343 -0.15236005 0.303627 0.4172326 -0.18465246 0.27278316 0.07849209 0.2250536 -0.25472575 0.2048092 0.027791591 -0.1254914 -0.4094958 0.29373726 -0.32239735 -0.5028123 0.44312373 0.10554717 0.5282041 0.22045432 0.34439096 0.18558496
734 -0.012555104 -0.16111349 0.045409907 0.20886064 0.29292485 0.20646681 0.14866674 0.10089381 0.18917377 -0.25016904 -0.020481328 0.3768297 -0.19501644 -0.34456173 0.082194164 0.019585948 -0.2523914 -0.08385185 0.31122226 0.026601726 -0.03154752 0.5063539 -0.42486253 0.2589246 0.18155026 -0.017257273 -0.16343318 -0.07715844 -0.44782403 -0.4180039 0.0016285783 0.06921214 -0.012391383 -0.4374968 0.63055485 0.02750677 0.122828394 0.377332 0.29108974 0.19011939 -0.23831755 -0.5911752 0.2514666 -0.03052678 -0.34414086 -0.014917996 0.17085204 0.354095 -0.16241184 -0.014986357 0.014117084 -0.09935456 0.016214034 -0.27309874 -0.57363063 -0.2736037 -0.34345275 0.19688457 -0.37612003 0.047450896 0.12408458 0.0066156317 0.27588305 0.15458462 0.088896364 0.016808659 -0.16304749 -0.10103562 -0.4762617 -0.09454377 0.00079070573 -0.34093753 0.08942935 0.18726628 -0.10926085 0.15465295 0.095734455 0.22794607 -0.08157442 0.26895595 -0.03326121 0.31644747 -0.292785 -0.02241564 0.27227622 -0.42154217 -0.42508528 0.44808897 -0.06489859 -0.08992842 0.33264333 0.06268459 0.41991517 0.3548196 0.16060464 -0.13686548 -0.049874727 -0.2872436 0.14272915 0.09733073 -0.35881233 0.2934017 0.14927864 -0.33519456 -0.012014 -0.276815 -0.24642684 -0.20349133 0.11423809 0.10867663 -0.08590025 -0.35610965 0.19626725 -0.024045786 -0.03549857 -0.12396331 -0.29222164 -0.37216192 0.29286322 0.11113615 -0.10402272 -0.33366796 0.06678006 -0.037573624 0.45964336 -0.22550306 0.0059815496 0.0675397
776 0.080687046 -0.2575402 0.04168676 0.20038071 0.30442324 0.3531809 0.26615018 -0.117818564 0.3042822 -0.21915795 0.004119194 0.37326452 -0.31033316 -0.21523473 0.33464223 0.070736766 -0.06394306 -0.34765944 0.35399786 0.13551916 -0.07403425 0.66789657 -0.10160733 0.3948638 0.3439254 0.010797908 -0.17668746 0.19480042 -0.33663112 -0.32687008 -0.26400492 0.20928518 -0.1787238 -0.3465834 0.9997136 0.07042481 0.2995051 0.31068045 0.08248838 0.4432622 -0.27763304 -0.5463159 0.28322652 0.12108176 -0.059156403 0.021017086 -0.07738421 0.29503557 -0.29369283 -0.064999804 -0.066904455 0.09589424 0.08074089 -0.1426781 -0.36222747 -0.065779716 -0.25698632 0.19977006 -0.32272524 0.12128574 0.081184335 0.02379254 -0.0062495833 -0.03538565 0.22760972 -0.056728724 -0.061245758 -0.017241267 -0.4221275 0.023816839 0.117073365 -0.19875152 0.24016722 0.25460368 -0.14606783 0.29194787 0.36268082 0.3114317 -0.17025599 -0.11075757 -0.19017465 0.18416941 -0.19697432 -0.12567984 0.29314044 -0.27070037 -0.24368024 0.65905046 0.17331994 0.08094738 0.07107329 -0.018160427 0.27002516 0.14409497 0.2504608 -0.17933658 -0.006920867 -0.22548579 0.10311327 0.05671611 -0.18650287 0.32683083 0.26469564 -0.2375001 0.09895999 -0.2910887 -0.1318792 -0.13896103 0.003412005 0.19205292 -0.124838784 -0.19435965 0.3785952 0.0010692531 0.10120432 -0.2764319 -0.23234372 0.08095225 0.3700414 0.121824965 0.05634687 -0.24645755 -0.17869548 0.09514578 0.24924037 -0.22615138 0.19229269 0.13287923
814 -0.1157127 -0.19839029 -0.02806362 0.14116448 0.3449343 0.060050692 0.12019886 -0.08512131 0.2425536 -0.100105576 -0.049135637 0.31953523 -0.16265249 -0.23928015 0.2221093 0.031799674 -0.1496006 -0.106997624 0.28178662 0.104699045 0.0022552188 0.38716215 -0.3512364 0.22763382 0.075005084 -0.038353864 -0.21016255 0.036374833 -0.343832 -0.4269256 -0.17882791 0.32905772 -0.2365409 -0.07820481 0.93686223 0.13933559 0.3015552 0.22467902 0.2894954 0.19594009 -0.14188573 -0.66448236 0.23866314 0.3001703 -0.2831086 -0.08636611 0.0423381 0.33477834 -0.5442333 0.05161852 -0.016087262 0.09842001 0.24375981 -0.24412718 -0.38151658 -0.21486305 -0.1759943 0.27903566 -0.29088292 0.04908771 0.23503052 -0.0042507043 0.10702688 0.15998423 0.1757665 -0.09846766 0.103201404 -0.032798022 -0.42724913 -0.01929303 -0.04554587 -0.2302032 0.18089232 0.22186576 -0.24573588 0.3213409 0.35199565 0.2644768 -0.35284084 -0.015185023 0.01789895 0.2883475 -0.2516236 -0.11620186 0.3491231 -0.32108462 -0.1826539 0.6874999 0.12199699 -0.054769285 0.2739523 0.18546475 0.34332398 0.35975263 0.18917969 0.09333269 -0.09800713 -0.17891206 0.008638515 0.15499394 -0.1841175 0.36028802 0.23102562 -0.31454986 -0.0075458228 -0.29904544 -0.30146274 -0.22724067 -0.0103824595 0.07771623 -0.064297274 -0.122218035 0.44224897 0.08055098 -0.10663526 -0.25924873 -0.4520644 -0.1817172 0.12444578 0.13205947 -0.07361126 -0.42260122 0.05945143 -0.10221196 0.35493383 -0.027266141 0.15804498 0.16750017
818 -0.12800993 -0.079540566 -0.09552207 0.1162745 0.47188684 0.24246359 0.0074960245 0.090277545 0.24163531 -0.29655504 0.007289872 0.4881364 -0.16793354 -0.016945265 0.12518965 0.06295026 -0.30964655 -0.07816157 0.31015047 0.07196413 0.060909037 0.34862658 -0.34454423 0.070523396 0.06029204 -0.1652076 -0.14350797 0.13632597 -0.28132612 -0.39640996 -0.14029846 -0.012864543 -0.16472249 -0.26732716 0.5173397 0.13027127 0.22695792 0.36487207 0.24833217 0.14375095 -0.2105824 -0.485961 0.2953178 0.19933599 -0.2533231 0.062341575 0.20177391 0.44706473 -0.47478405 0.27908814 0.085730396 0.047781713 -0.002091931 -0.22895403 -0.47283226 -0.29529038 -0.37151188 0.11976186 -0.3389873 0.032783054 0.08099902 0.06818928 0.14833511 0.15330333 0.24471864 -0.2171503 -0.006270029 0.069724604 -0.3592371 -0.060413066 -0.03849516 -0.31154257 0.16136025 0.26151252 -0.15659136 0.12057235 0.14228314 0.3319058 -0.066899836 0.22163309 -0.34428275 0.3515867 -0.2925006 -0.04236387 0.081072785 -0.29485092 -0.2285532 0.72490185 0.15463166 -0.05487571 0.47125375 0.068678126 0.52142674 0.2177997 0.18527475 -0.2193325 -0.1550063 -0.24655004 0.09218806 0.17406392 -0.20776662 0.32797718 0.09522876 -0.22642852 -0.24408704 -0.24784583 -0.14928864 -0.14979084 0.09373283 0.05659823 0.030292045 -0.47722042 0.22570452 -0.05921809 -0.17665838 -0.1396059 -0.17990428 -0.4254186 0.2036568 0.2853939 -0.04333684 -0.26323095 0.060760684 0.03338332 0.28437194 -0.13525024 0.12105786 0.18202104
1401 0.2113905 0.199464 -0.17006274 0.49448228 -0.07100488 0.21034572 -0.22530542 0.2578272 -0.3420766 -0.1381664 0.3051696 0.39703834 -0.20700279 -0.0656029 0.19051173 -0.15723957 0.15611504 -0.14408095 -0.009286697 0.12424245 0.02820085 0.061853416 -0.14446421 -0.07296183 -0.1312226 0.19132484 -0.019923361 0.22630642 -0.10148555 -0.13459046 -0.19216432 -0.30771753 -0.17164099 -0.18826276 0.2238236 -0.2519941 -0.33187217 0.2169296 0.091113456 -0.11530933 0.15890981 0.2536497 0.08488591 -0.13312513 -0.06421158 -0.072521865 0.22688557 0.0034124206 0.34237877 -0.68286824 0.3510771 -0.15199491 0.048318837 -0.24916315 -0.04007598 -0.00658823 -0.27629584 0.4218738 -0.33740747 0.38324425 0.4824368 -0.35154268 0.1832997 -0.2660923 -0.038333632 -0.33041146 0.21505055 -0.08860044 -0.043970842 -0.17771432 0.071201354 0.14472383 -0.20335217 -0.06858758 0.05535029 0.04104153 -0.13788658 0.06666588 -0.10741791 -0.12244704 0.18107922 -0.060187392 0.00865502 -0.082432516 0.105079934 0.022814065 0.062416825 0.18662272 0.07189688 0.25787926 0.27591914 0.027025413 0.12900205 0.032477032 0.17807552 -0.30481336 -0.12773289 -0.20065998 -0.04186214 -0.4158469 0.08070874 0.16546784 0.09724421 -0.2675447 0.19669195 0.28449267 0.0456389 -0.04009971 0.095414184 -0.024317442 0.23345456 0.3927804 0.04502476 0.25577345 -0.1533005 0.40217966 0.057828303 -0.21294767 -0.022297643 -0.6501594 0.013819175 -0.41028637 0.2852431 -0.17629537 -0.06698967 0.25365037 0.21475765 0.006764695
220 0.40389156 0.102087714 -0.16286446 0.20897493 0.2829758 -0.0013329382 -0.024461577 0.117967404 0.15688288 -0.313513 0.37356174 -0.07899622 -0.265784 -0.3205186 0.012582328 -0.23428576 -0.0960567 -0.1646046 0.13780811 0.17085052 0.21347882 0.099172786 -0.25569966 0.21265402 -0.19878212 0.2943209 -0.16511405 0.16255224 -0.0757351 -0.31453237 0.079614386 -0.17504667 -0.027866174 0.16933824 0.4319931 -0.16812997 -0.24861318 0.18010993 -0.15105578 0.16533193 -0.18842664 0.2837286 0.15265541 0.0775561 -0.16746047 -0.008260515 0.14179444 -0.06434425 0.58501905 -0.55804247 0.37601635 -0.46550947 0.15760846 -0.062852584 -0.2762951 0.2594489 0.048586205 0.335141 -0.2743072 0.36154792 0.37570432 -0.29250133 0.20445554 -0.074023396 -0.17347075 0.06430162 0.08338341 0.17503667 -0.018415669 -0.3504437 0.18355021 -0.30243936 -0.5047456 -0.39009616 -0.0015325481 -0.35493442 0.04572651 0.20503962 -0.15082785 -0.13850835 -0.08368804 0.16257085 0.3403983 0.33136958 0.25610906 0.05454817 -0.20457803 0.1770497 -0.11644181 -0.024936285 -0.061403174 0.095940754 0.0041040434 0.27031747 0.20631446 -0.16886133 0.04211606 -0.19187549 0.16263793 -0.340871 0.18226255 0.20104268 0.35485515 -0.3938006 -0.02974542 0.28952524 0.1562436 0.19516547 -0.17773165 0.11855447 0.10237956 0.15375239 0.6059282 0.19922735 -0.017430518 0.13169996 -0.085362434 -0.11686869 -0.032526083 -0.38718477 -0.3815417 -0.078441784 0.12981452 -0.13769005 -0.06151763 0.13276164 0.07695081 0.14435081
1412 -0.021609118 0.51826483 -0.114259824 0.44428417 0.040461432 0.15117675 0.061836362 0.08660786 -0.038613964 0.102354564 0.02335984 0.1709224 -0.26557943 -0.08879004 -0.0010624744 -0.06830841 0.42766953 -0.064804144 0.24309742 -0.06406404 -0.081711635 0.10034598 -0.26732972 0.003272669 0.039835297 0.11054698 -0.09417127 -0.3574611 0.04740579 0.14378622 -0.23544517 -0.09443275 0.21601361 -0.23793462 0.13342196 0.055662353 -0.07649425 0.26236543 -0.2271683 0.11664553 -0.036378566 0.048700362 -0.5735073 -0.063971855 0.08670203 -0.46429002 0.22424711 -0.16623242 0.36754268 -0.45327938 -0.08103655 0.10824339 0.030472236 -0.08175007 -0.13906199 -0.20682144 -0.3089412 0.102281965 -0.20787136 -0.11116104 0.18067305 0.05154248 0.094503425 -0.038938865 -0.13511069 0.026816227 0.024797056 0.019279514 -0.32399905 -0.4288826 0.1116642 -0.05479476 -0.10692461 0.1804019 -0.025216322 0.017687032 0.10335093 0.29482836 -0.19662946 -0.07542392 0.12773323 0.1996385 0.08673237 0.07073089 0.04306739 0.008463627 0.08469137 -0.025515929 -0.01762255 0.008887924 0.2775838 0.19949093 0.3322689 -0.013954037 -0.06813141 -0.13463485 -0.10315926 0.043895204 0.036164045 -0.13073157 -0.05018792 0.32958254 -0.22593886 -0.16426069 -0.0034946117 0.09590924 -0.06601494 0.1409237 -0.2253158 0.16951431 -0.16203007 0.09278303 0.12728924 0.023746802 0.065997735 0.26641464 0.113942586 -0.10136649 0.24372272 -0.1757519 0.12954077 -0.081227124 0.07566174 -0.17510684 0.01168351 0.09440299 0.043078832 0.12184625
1413 0.038551714 0.1923109 -0.1719453 0.113282114 0.058556166 0.29479676 -0.16971172 0.10440077 -0.40098953 -0.059232302 0.23950666 0.14568482 -0.26445326 -0.15501228 0.07292144 -0.16738701 0.13547894 -0.29629117 0.07770988 0.058595613 -0.17343268 -0.112192675 -0.19440511 0.16556507 -0.118002154 0.32179457 -0.09773187 0.16668583 0.06626996 0.0782992 -0.16377087 -0.17514189 0.010104636 -0.28999394 0.18478611 -0.06328073 -0.48901615 0.030105622 0.022308253 -0.047082633 -0.018666713 0.36301678 0.06536074 0.0400936 0.008964154 -0.15412055 0.18936747 -0.09440346 0.46587127 -0.65544266 0.38475004 -0.27431828 0.0072161076 -0.18905655 -0.24527879 -0.058351714 -0.16557372 0.2593233 -0.21450162 0.19073488 0.141346 -0.15047856 0.19474407 -0.06905478 -0.14235978 -0.21254861 0.070670664 -0.21032958 -0.5800609 -0.2727315 0.08596348 -0.049310558 -0.33056447 0.23923273 0.20595457 0.20440346 -0.12386595 0.20101647 -0.25054199 -0.13296263 0.14393228 0.11740412 -2.1082684e-05 0.04392891 0.11671881 -0.026986694 -0.021236565 -0.030571492 -0.34189683 0.19506246 0.38921505 0.051702812 0.21382426 0.2424445 0.3453115 -0.1009907 -0.26089752 -0.14177385 0.040765602 -0.28774863 0.16664755 0.0076121795 0.13975984 -0.19648165 0.21895008 0.1873925 0.18105292 0.11465988 0.084158316 -0.113430016 -0.032700155 0.45068276 0.1991545 0.17928198 -0.08349521 0.44401133 0.0008857149 -0.03791181 -0.01226741 -0.30478528 0.18043698 -0.32125977 0.3627531 -0.07715129 -0.26160213 0.3275439 0.10643491 0.0042543784
228 0.10173063 -0.07463196 -0.1028256 0.3470902 0.06809625 0.23282653 -0.1996523 0.09732113 -0.0019477247 0.25896966 0.116166 0.054361008 -0.13771746 -0.116732284 0.12611498 -0.2553405 0.2482904 -0.282926 0.032653462 0.1592307 -0.17497697 -0.055217385 -0.2810483 0.14385575 -0.19792773 0.31203866 -0.022348017 0.09799274 -0.18852468 -0.10893873 0.03378968 -0.1775637 -0.096446104 -0.2770036 0.22860952 -0.056814354 -0.20638694 0.25627685 0.018979097 0.21209206 -0.047183122 0.08916959 -0.30658153 0.08451257 0.08255743 -0.09871579 0.22620334 -0.28068066 0.51622015 -0.53504634 0.2061475 -0.36590093 -0.067412354 -0.2331486 -0.29160437 -0.10517664 -0.022547003 0.23909988 -0.38783702 0.22012664 0.20211613 -0.14622596 0.1881245 -0.058507234 -0.24279834 -0.13074999 -0.004546253 -0.10717221 -0.36769426 -0.23934165 0.005593944 -0.11671369 -0.25834745 0.030645488 -0.06526311 -0.057486176 -0.007109071 -0.10237222 -0.1591972 -0.2361826 -0.19002713 0.10107796 0.07824783 0.13082784 0.009218365 -0.09719368 -0.067595065 0.12741654 -0.16671075 0.25796098 0.080570325 0.3162597 0.09769565 0.061420094 0.119368464 -0.025215494 -0.054699767 -0.0862411 0.24120545 -0.31337413 0.09294208 0.22917917 0.27446127 -0.12560989 0.09492694 0.16089451 0.03368108 -0.022571273 -0.123510346 -0.11387056 -0.19596277 0.22301075 0.10964419 0.12777545 0.0073078447 0.47356454 -0.09497687 -0.22131652 -0.22285433 -0.37102726 0.01874216 -0.2683116 0.16797845 -0.022050275 -0.16829367 0.27337107 0.12946622 0.03241573
233 0.25399238 0.124129675 -0.023087818 0.091863684 0.12476373 0.09292652 -0.1996346 0.25213164 -0.17165601 -0.095465876 0.4261033 0.1494472 -0.11811657 0.04100578 0.13778482 -0.47175577 -0.0034236556 -0.29834324 0.19871679 0.2160376 0.039919764 -0.10489809 -0.40651494 -0.08413037 -0.16629645 0.36232996 -0.01643622 -0.022574192 -0.174619 -0.1643803 -0.072238326 -0.11312146 0.044029374 -0.3630989 0.10364135 -0.08421994 -0.3879462 -0.077307686 0.037903357 0.057122752 -0.062927626 0.3549595 -0.11882255 -0.03338292 0.02106977 -0.11595949 0.13066162 -0.18479645 0.62051815 -0.5730427 0.40812156 -0.36117852 0.16040379 -0.20282845 -0.194798 -0.052335996 -0.12586915 0.15331489 -0.44748208 0.12459102 0.21829388 -0.37902236 0.16873644 0.032247316 -0.22272818 -0.13264845 0.10796533 0.064684816 -0.67948765 -0.20149381 -0.11466701 0.18461852 -0.071271576 0.10929767 0.14935015 0.21080387 -0.21236785 0.25695556 -0.20463404 -0.17637734 0.10698882 0.23536307 0.093140885 0.13791256 0.16667126 -0.11165886 -0.1452406 -0.056766424 -0.1979339 0.13766403 0.2096889 0.054507047 0.080924064 0.1509381 0.30027872 -0.10083007 -0.14675117 -0.3322684 0.09470146 -0.11737653 0.081326924 0.022086214 0.14492595 -0.20762789 0.17278145 0.079786845 -0.10584605 0.13316144 -0.022288773 -0.08196361 0.018809833 0.2800942 0.24488288 -0.024586072 0.0026413982 0.32144323 -0.13913755 -0.015289881 0.113498226 -0.51601493 0.0016978116 -0.34391922 0.032581206 -0.15251124 -0.37140632 0.3142583 0.26696754 0.07090008
235 0.12081699 -0.060502544 -0.12953046 0.28443885 0.12641619 0.1315459 -0.20787309 0.13106777 0.0033024212 0.14918363 0.1343419 0.053307977 -0.31836724 -0.13742639 0.046674352 -0.13503054 -0.023245016 -0.23406345 -0.006302469 0.03512583 -0.2636321 0.009051486 -0.012988043 0.26887563 -0.24965347 0.13581166 -0.14853238 0.03804242 -0.3085467 -0.09653107 -0.003960025 -0.087485775 -0.08177435 -0.47845808 0.12773308 -0.0126667805 -0.15439913 0.07980993 0.09542765 0.06443614 -0.18312797 0.029952714 -0.117195226 0.05914777 0.24289708 -0.009512646 0.42429462 -0.2514755 0.61733854 -0.47757107 0.2656432 -0.32483295 0.06559314 -0.1986351 -0.19283648 -0.18002656 -0.32108885 0.21386223 -0.24270496 0.303976 0.18355949 -0.23236668 0.15443987 0.027286915 -0.04246521 -0.08501343 -0.017445516 0.02699266 -0.2174121 -0.14394103 -0.016256183 -0.09612018 -0.1326906 0.28750053 -0.013820363 0.060924977 -0.04779179 0.06790302 -0.16354173 -0.21149834 0.03554401 0.14465453 -0.103343315 0.28408986 0.09560042 -0.033234604 -0.17475644 -0.09677191 -0.11398806 0.16082563 -0.030638745 0.044157803 0.09130934 -0.02221228 0.26821414 -0.10386912 -0.17284742 0.06023644 0.20121363 -0.04937553 0.13318352 0.30016884 0.2474058 -0.017557846 -0.03202259 0.0063252077 0.076514296 0.015738323 0.07574818 -0.15678316 -0.15624006 0.15327914 0.07171461 0.1818613 0.08379011 0.52618945 0.011300395 -0.3081791 -0.24324365 -0.26182404 0.007326278 -0.30316204 0.085810564 -0.1720038 -0.25613952 0.31733334 -0.068887174 0.031413104
1450 0.13812317 0.19217177 -0.14182323 0.23851283 -0.06792876 0.31812263 -0.39003506 0.20502953 -0.23875402 -0.029218653 0.16870119 0.27861178 -0.1292696 -0.30136904 0.018175386 -0.354826 0.043913785 -0.52976495 0.10866131 0.0034416725 0.002708583 -0.054610822 -0.31449503 0.19154058 -0.14987051 0.09393587 -0.11786779 0.31832188 0.02741128 0.02131802 -0.113119096 -0.02787752 0.047437612 -0.3472079 0.17135172 0.19498236 -0.46100596 0.15777227 0.1028462 -0.16478543 0.2013408 0.16546512 -0.019020276 0.022491932 0.06705271 -0.069627754 0.2621829 0.09525995 0.3154178 -0.66829103 0.45822182 -0.29613796 0.12567802 -0.08482063 -0.38503855 -0.13039687 -0.21879642 0.39576873 -0.5133646 0.25909844 0.334385 -0.23914735 0.16771434 -0.35605484 0.1495588 -0.12733279 -0.023003932 -0.103577144 -0.5426915 -0.20331542 -0.0026144062 0.007725647 -0.40013936 0.1870008 -0.07366713 0.26904365 0.23406583 0.1266795 -0.15088485 0.033353176 0.01967184 0.1292658 0.26150087 0.076910816 0.004434095 0.07684452 0.085489675 -0.111985914 -0.1340499 0.030470802 0.43018317 0.18927702 0.14471002 0.14468707 0.012531749 -0.14421715 -0.3418929 -0.09499809 0.21396838 -0.63614804 0.25086966 0.031922366 0.31555715 -0.30181205 0.4349275 0.14732367 0.21782449 -0.103132516 0.17777368 -0.08924773 -0.10310899 0.49482813 -0.10123412 0.189365 -0.36691967 0.42893046 -0.057939984 -0.1711766 -0.19708318 -0.3895103 -0.07930426 -0.46422386 0.17206599 -0.19280234 -0.2807123 0.034856874 -0.12575676 0.12279677
236 0.23140949 0.09048045 0.08957199 -0.089430206 -0.05515454 0.053772517 -0.10539889 0.20752688 -0.28120685 -0.0121870525 0.38093755 0.06685445 -0.13897152 0.032371018 0.26153713 -0.4997521 -0.0897913 -0.37282106 0.013389814 0.16349664 -0.031632524 -0.003889318 -0.34875157 -0.029145919 -0.16421632 0.23348068 -0.024487542 -0.08539486 -0.13539171 -0.27595836 -0.16440506 0.105414614 0.0027457867 -0.27273345 0.41098362 -0.09587283 -0.4807035 0.047801793 0.08013006 0.0008572719 -0.06899286 0.47835645 -0.15018393 -0.059165347 0.16355957 -0.0016613824 0.014143159 -0.15651591 0.52001333 -0.5185213 0.42502415 -0.26010075 0.31499287 -0.033582047 -0.2825742 -0.036265586 0.17495334 0.28011256 -0.40050226 0.28187636 0.23225127 -0.25670722 0.10956946 0.25093257 -0.3610654 0.008735337 0.09257751 0.05693023 -0.56224394 -0.2905606 -0.07880902 0.24171618 -0.11739493 0.12410053 0.0389579 0.12739109 -0.4551193 0.121461086 -0.26695538 -0.24735591 0.03295824 0.2717226 -0.016737388 0.18076357 0.13934842 -0.18896224 -0.113925084 0.01272843 -0.20691277 0.22602233 -0.08814717 -0.11194193 0.14527816 0.084436536 0.38001233 0.015419886 -0.043870628 -0.2510458 -0.007836461 -0.18227601 0.15843411 0.035214406 0.015014063 -0.3827418 0.2533012 0.016121008 0.093816735 0.14293091 0.008592626 -0.4147852 -0.004306791 0.16400118 0.2609682 -0.032782033 0.21483374 0.2897703 0.04344932 0.15447283 -0.0365356 -0.19099794 -0.17579031 -0.09204997 0.15503107 0.17646518 -0.37340274 0.3842716 0.17764375 0.12098335
1455 0.11342035 0.062700294 -0.11211989 0.09338427 -0.12984638 0.1287058 -0.1734007 0.24551398 -0.33688095 -0.23630701 0.14431515 0.45543057 -0.20300412 -0.31229913 -0.017913178 -0.2400656 0.1923089 -0.26138628 0.049842127 -0.052261885 -0.25290567 0.028778993 -0.28265885 -0.20491602 -0.15558054 -0.21587245 -0.008822736 0.4214125 -0.013579022 -0.1377726 0.018599108 -0.5773402 -0.074041285 -0.1702615 0.45075908 0.35371843 0.04304857 0.0016821366 0.46322915 -0.38380566 0.3229067 0.087306805 0.011131856 -0.53025967 -0.36380333 -0.11973788 0.08603384 0.21997382 0.19787286 -0.4355168 0.5400573 -0.28169137 0.09842024 0.098005384 -0.06314527 -0.08578571 -0.43522856 0.39980766 -0.23622467 0.8681178 0.17242493 -0.5135029 0.07918908 -0.41096714 -0.15386058 -0.47630617 0.35859865 -0.057526648 -0.312975 0.32260114 -0.25334266 -0.051616944 -0.52869856 0.13006346 0.09498426 0.29055586 -0.2007787 -0.0063845585 -0.12781784 -0.114022955 0.38397437 -0.055278346 0.21578424 -0.27671847 0.0019283938 0.09036843 0.018871248 -0.09382909 -0.0701833 0.3822277 0.56536704 0.28906763 0.27642003 0.41090903 0.2734339 -0.17020945 -0.3272856 -0.26030555 -0.16917619 -0.51883864 0.3834537 -0.011252304 0.1954444 -0.33178204 0.8240477 0.687209 0.31455505 -0.11813357 0.35659826 0.002665842 -0.13795727 0.4785373 0.00685579 -0.011261811 -0.2969116 0.5032812 0.18791303 -0.11734383 0.02285963 -0.31486294 -0.20764935 -0.22982284 0.51855296 0.26103604 -0.04126734 0.14221078 -0.24246095 -0.030427193
1465 0.02920396 0.38956854 0.15784365 0.42062864 0.099367484 0.15899724 -0.0077657606 0.17761745 -0.23536251 0.07222295 0.06927594 0.04965878 -0.28391877 -0.26041302 -0.035680793 -0.16995102 0.27008337 0.03723917 0.29191473 0.10284114 -0.18372451 0.07107666 -0.16481745 0.17647189 -0.092174925 0.038220424 0.09459116 0.00051083957 -0.24111977 0.023762107 -0.2055165 0.042357687 0.018515728 -0.09920991 0.15347886 -0.086535275 -0.13103287 0.40101427 -0.07123922 0.19190992 0.049539067 0.035188217 -0.24180257 0.0023267542 -0.04281028 -0.43500155 0.2209188 -0.30262315 0.57404524 -0.40348607 -0.05971781 0.0864814 0.15121782 -0.20062977 -0.3596924 -0.118227325 -0.30421498 0.37447527 -0.20294805 0.19530708 0.3619076 -0.10155238 0.11942432 -0.13711427 0.08149242 -0.041885618 0.113288894 -0.10816966 -0.58699363 -0.22414634 0.11036665 -0.15967052 -0.27387396 0.008596012 -0.03193326 0.035152566 0.21110664 0.22091135 -0.045751143 -0.010107615 -0.06400637 0.2663316 0.22027248 0.002926691 0.11017534 -0.09684349 0.0901443 -0.15019289 -0.11614664 -0.13749342 0.21947439 0.26591393 0.43906376 0.045441836 -0.1243 -0.24573928 -0.061931416 0.07095829 -0.018509805 -0.23467027 0.043952793 0.40221497 -0.041504834 -0.26184016 0.03689337 -0.07778306 -0.1334189 -0.14531219 -0.04203576 0.0020090083 -0.15205158 0.2934844 -0.13245615 0.019624602 -0.1290391 0.24328533 -0.103421845 -0.21115 0.12934567 -0.42218766 -0.0256399 -0.34522858 -0.096132115 -0.22576497 -0.02886609 0.19430076 0.0017074565 -0.10037588
1466 -0.06856255 0.3640921 0.10771182 0.3459457 -0.025575707 -0.04228621 -0.14079832 -0.03543374 -0.21535073 -0.003752324 0.23617156 0.062195085 -0.23604092 -0.28673175 0.03465371 -0.041781288 0.24772166 0.028664118 0.236881 0.092342585 -0.1598189 0.12400301 -0.30622682 0.29298368 -0.11974371 0.09717856 0.052827023 0.019043677 -0.08856474 -0.03430928 -0.1442371 -0.11955257 -0.16202833 -0.19957103 0.175373 -0.006224752 -0.021832734 0.18805854 -0.09269577 0.1808118 -0.015305405 0.1512318 -0.22956242 0.06052439 0.08500415 -0.31250024 0.17503054 -0.30372316 0.46294245 -0.40047634 -0.04754132 -0.05510523 0.06865455 -0.082527906 -0.44408122 -0.08538895 -0.141192 0.42106402 -0.3198257 -0.003229186 0.17551643 0.10297903 0.32479373 -0.18889464 0.09113221 -0.04422223 -0.0810166 -0.16081154 -0.2745584 -0.34478953 0.09265395 -0.12986019 -0.4002628 -0.13260372 -0.014484762 0.059355587 0.37529698 0.3195515 -0.18628949 -0.13554302 0.06568344 0.19446303 0.078395195 -0.07908179 0.14838114 -0.05070386 0.1249287 -0.23394689 -0.14361502 -0.19463205 0.22181314 0.24964315 0.24246745 0.13642387 -0.13982749 -0.0801915 0.07231849 -0.1503927 0.25008965 -0.37565938 -0.023050407 0.19748247 -0.011280675 -0.19411698 0.24592388 -0.022105327 0.018959187 -0.12535016 0.12941673 -0.01289443 -0.012921403 0.2724708 0.059232652 0.1742506 -0.1386113 0.5677862 0.085206 -0.1744873 0.10535851 -0.43817723 -0.13471913 -0.2289305 0.16822706 -0.24727851 -0.012148243 0.04792958 -0.031411476 -0.07589179
1468 0.06387898 0.30392185 -0.13767329 0.39329895 -0.14571893 0.112570696 -0.20648827 0.18254733 -0.22840893 -0.12512268 0.21205486 0.12920289 -0.29287395 -0.1752397 0.33703685 -0.27249625 0.1871056 -0.35315406 0.12545896 0.12863341 -0.20657487 0.10452057 -0.3623587 0.16722298 0.009754204 0.31996733 -0.0072662085 0.12446364 -0.05745034 0.058868453 -0.15341419 0.003873412 0.042502914 -0.19821243 -0.053151924 -0.11946193 -0.31728196 0.31827015 -0.0074483072 0.2888687 -0.2105404 0.381201 -0.023186674 0.29314476 0.07508096 -0.14120768 0.2698486 -0.07652966 0.46851218 -0.48552158 0.41943866 -0.108895674 0.08908855 -0.3017451 -0.4767455 -0.08652003 -0.25350434 0.40899563 -0.30637473 0.29563385 0.2236094 -0.2988643 0.17832486 -0.23766325 -0.1350869 0.17346793 -0.14780186 -0.13802367 -0.35508445 -0.27470598 0.20383072 -0.06343046 -0.4097455 -0.07773932 0.18739143 -0.17010827 0.14708452 0.058995437 -0.16647792 -0.026670866 0.025225913 0.02143661 0.41189918 -0.02552639 0.23840559 -0.01681819 0.06877221 -0.065110154 0.047887247 0.13477592 0.2674519 0.12475208 0.23434931 0.28444856 0.09893041 -0.086712025 0.078413084 -0.1648279 0.1391928 -0.27980942 0.22582112 0.306141 0.2556594 -0.513908 0.14257868 -0.09874864 0.010154473 0.10558616 -0.17604803 -0.07486186 0.17304589 0.32636762 -0.099460036 0.14528029 0.019356783 0.49066114 0.16950709 -0.068915226 0.0967764 -0.28462183 -0.08458163 -0.38008547 0.21564205 -0.3570344 0.16638272 0.09586037 0.016671635 0.20554368
243 0.24277015 0.18538396 -0.10124739 0.027846754 0.16676256 0.09784709 -0.14568028 0.20701191 -0.10225278 -0.03625243 0.3883415 0.13520591 -0.18574052 0.023470333 0.24156387 -0.46729958 0.098259754 -0.31532407 0.12721752 0.31786752 -0.053946294 -0.021419084 -0.49987912 -0.0054046446 -0.19283241 0.277038 -0.03419827 0.0781681 0.049760707 0.0018838346 0.08012024 -0.09710876 -0.03740798 -0.2891518 0.2438224 -0.044927787 -0.46464753 0.10817119 -0.027626043 0.01818012 -0.065318435 0.40420014 0.00889067 0.08285673 0.04412296 -0.16897538 0.18773825 -0.12912682 0.491502 -0.6803138 0.51684064 -0.45348522 0.13680069 -0.1935081 -0.17456415 -0.110757485 0.016803218 0.16063315 -0.442554 0.07733683 0.31796312 -0.33847433 0.24413411 0.13642453 -0.27838045 -0.21473928 0.06697576 0.107590035 -0.5562029 -0.19052944 -0.04639744 0.034197804 -0.18873176 0.14652435 -0.05000858 0.27435896 -0.36641574 0.22932342 -0.17489533 -0.3187301 0.14174268 0.07162851 -0.11218023 0.24850892 0.016371954 -0.067713246 -0.16164982 -0.018710846 -0.19199416 0.19758919 0.20172879 -0.13292895 0.24695435 0.26277274 0.33769116 -0.12898076 -0.16857757 -0.1867758 0.05110342 -0.111570835 0.3205347 0.009974595 0.16173609 -0.39241597 0.04887991 0.15999582 0.034906525 0.21800599 -0.10404356 -0.08987561 0.013429164 0.27808914 0.2710491 0.09869624 0.13064115 0.38611174 -0.08713469 -0.0025303254 -0.11998101 -0.38334444 -0.015805624 -0.5102727 0.21188565 0.054392528 -0.35579136 0.31684303 0.26450127 0.15442704
245 0.3817366 0.2809109 0.08603199 0.040470943 -0.15096793 0.15902056 -0.078610204 0.12642519 -0.23663114 -0.13607042 0.31931326 0.12231651 -0.16424826 -0.036065344 0.14611042 -0.42975554 0.17884992 -0.24994776 0.18396088 0.27149308 -0.054453265 0.006435172 -0.3362768 -0.02640157 -0.112348504 0.048237223 -0.025666269 -0.02818132 -0.049107086 0.026068974 -0.05167747 -0.027065888 0.093607895 -0.06698306 0.2214467 -0.1367819 -0.36621928 0.015190562 0.054167032 0.1828255 -0.19675633 0.38807622 -0.2387786 0.26344934 0.03559477 -0.22901262 0.124804184 -0.05484028 0.5073032 -0.62703884 0.30668372 -0.17647044 0.1451274 -0.05669306 -0.20153306 -0.10614739 -0.24293573 0.04661798 -0.4536553 0.25097272 0.16538374 -0.21913806 0.17411382 0.023716452 -0.1960975 -0.16660662 0.035622265 0.23535527 -0.7306048 -0.1708369 0.13438347 0.055633795 -0.13047646 -0.003735844 0.109604664 0.11917261 -0.13288635 0.19145079 -0.19275345 -0.18125695 0.04576015 0.16399372 -0.044743758 0.2399092 0.066745445 -0.00580968 -0.03499971 0.0056642205 -0.10303515 0.143526 0.07626538 -0.016608788 0.11240391 0.25863123 0.2291795 -0.23018315 -0.10302378 -0.2171218 -0.15192167 -0.17596154 0.4322761 0.15524997 0.16582756 -0.34586796 0.119619876 0.1225223 -0.04466225 0.13227627 0.056736887 0.01610825 -0.12375452 0.34689495 0.010644012 0.056742243 0.017205872 0.2922947 -0.04424427 -0.0033965576 0.04054913 -0.3919103 0.030785691 -0.5259594 -0.111220516 -0.17769589 -0.28094503 0.25956905 0.046894837 0.05928158
1535 -0.1323602 -0.07141937 0.6199448 0.30222037 0.21239103 0.49274585 0.23757549 -0.273993 -0.45323142 0.15981853 0.6461629 0.39510652 -0.12653948 0.3228525 0.57669646 -0.27155957 0.24061641 0.06431764 -0.18405002 -0.14859793 -0.45065376 0.4320356 -0.06675942 -0.4466856 -0.23693293 0.5034478 0.04745166 0.54808515 -0.07310271 -0.49201843 -0.52555925 -0.42829278 -0.12801075 0.06611908 0.21525843 0.36455977 0.3779111 -0.02424358 -0.13906239 0.24775964 -0.24358489 -0.07476051 0.35652992 0.25263566 -0.03169634 0.05220332 0.04737127 -0.07437485 0.3874727 -0.30840215 -0.42649406 0.12529704 0.23996705 0.047872182 0.29473504 0.31144863 0.26484063 0.07288706 -0.6390412 -0.049323417 -0.24321939 0.86830467 -0.071530014 0.19798806 0.26295847 -0.21405482 0.2804018 -0.09592968 0.34176975 0.025353752 -0.45410922 -0.067890204 -0.4154386 0.14740357 -0.042173017 -0.07088826 0.33570617 0.37620538 -0.08010146 -0.12051787 0.034746245 0.43178827 0.22585624 0.12563063 0.3206527 -0.15815781 -0.33058876 0.3673149 -0.08603241 0.0384315 0.0422598 -0.5655494 0.40652722 -0.11573091 0.35860175 0.22260854 0.26708984 -0.16011125 -0.037012625 -0.00811309 -0.25977138 -0.4125479 0.088166885 -0.08335779 -0.280065 0.34459895 0.4021282 0.26385275 -0.15675613 0.5575053 -0.3681778 0.08446954 -0.31991985 -0.17298089 0.13470967 0.11986705 -0.3194256 -0.10251275 -0.49426097 0.41519436 0.012842281 -0.04100686 0.10310241 -0.09178015 -0.4020412 -0.0050013703 -0.026374219 -0.21829417
780 -0.046254832 -0.118355796 1.1907324 0.60986793 0.46173966 0.9389891 0.14033234 -0.19827038 -0.7466927 0.04857257 0.82651794 0.5059041 -0.2704806 0.388059 0.7873397 -0.25872502 0.45949665 0.1413017 -0.64125633 -0.25255287 -0.70835966 0.6991793 -0.20255658 -0.900073 -0.24678314 0.6783923 0.028446395 0.8168695 -0.0789521 -0.579154 -0.90004015 -0.7538439 -0.16882588 -0.024162976 0.1336364 0.28220788 0.15797156 0.10069129 -0.10836531 0.3379019 -0.32218167 -0.28627318 0.25733438 0.44197813 -0.25349528 -0.08160161 -0.15539323 0.029678196 0.43900424 -0.27092582 -0.4629845 0.24560289 0.18823238 0.20397787 0.5970124 0.22697175 0.5945565 -0.03487373 -1.0612767 -0.20396823 -0.4294888 1.079406 -0.19604763 0.23686609 0.7160867 -0.2965184 0.4167946 0.11719615 0.34119138 -0.17275566 -0.4108847 -0.07596453 -0.31073433 0.13809833 -0.087063186 0.038497612 0.43566453 0.5260548 0.1799034 -0.26199162 0.1459556 0.48844603 0.3540768 0.012291293 0.48755807 -0.23559585 -0.451066 0.5599523 -0.05391777 0.038317498 -0.03280219 -1.0862052 0.40184957 -0.057608068 0.5964921 0.41566476 0.1171753 -0.15430231 0.09747453 0.12609036 -0.15153058 -0.83603907 0.26738262 0.14844489 -0.3761716 0.101662606 0.34723327 0.2525425 -0.055061787 0.5459106 -0.44113097 0.25722787 -0.26088962 -0.13836978 0.21180815 0.44381553 -0.41515493 -0.14602774 -0.6575616 0.44760317 -0.033338103 -0.06348676 0.29354247 0.17308071 -0.34729123 -0.19326168 0.019189008 -0.2993797
1550 0.06073673 -0.056303144 0.47448888 0.16835655 0.19051628 0.3927965 0.08326417 -0.20826238 -0.3084245 0.020322261 0.58503556 0.16730654 -0.11114063 0.050405104 0.3755355 -0.4219738 0.33302364 0.05661864 -0.22639383 -0.25604397 -0.23695827 0.2762711 -0.15022798 -0.15552111 -0.23202682 0.3107571 0.27449065 0.31850135 -0.07757702 -0.47878146 -0.7242097 -0.3875189 -0.11829579 0.100811206 0.08210575 0.3960231 0.22208142 -0.0949785 -0.022781912 0.31729525 -0.20089196 -0.1600626 0.18342799 0.024951415 -0.06426135 0.2829103 0.25393587 0.04648633 0.16390204 -0.3844822 -0.1407007 0.14035727 0.18754798 0.16212055 0.24219343 0.01673545 0.24598637 -0.13661636 -0.6518499 -0.03158152 -0.12360779 0.6186481 0.10969542 0.11756414 0.22659218 -0.31127304 0.31244788 -0.016871555 0.29929394 0.09394776 -0.25070062 -0.13701043 -0.30230248 0.07014867 0.036430214 0.092429735 0.2198217 0.073456265 0.026387716 -0.15579487 -0.06514579 0.25878003 0.2097316 -0.048969347 0.12648092 0.078798816 0.0015697958 0.2896026 0.12278089 0.018108448 0.08688345 -0.4292745 0.22768974 -0.035833657 0.19493917 0.23124616 0.24076235 -0.13465376 -0.21623848 0.19302532 -0.28952947 -0.20566285 0.09909217 -0.18466626 -0.2544482 0.353064 0.29869696 0.16788962 0.027888246 0.3424279 -0.335518 0.19970867 -0.2777692 -0.09082397 0.095901996 0.093211986 -0.16120641 -0.0685571 -0.1283337 0.34719145 0.028225908 -0.12026261 0.22742859 0.09018096 -0.3174463 0.03502059 0.1539939 -0.19871998
2273 -0.181572 -0.20098826 0.2001916 0.30301842 0.19225562 0.54542077 0.3682044 -0.3586171 -0.18927234 -0.110578395 0.345479 0.24428353 0.079421744 0.32872283 0.35870954 -0.29312217 0.40253106 0.032065146 0.086835116 0.13151497 -0.2562508 0.024512867 -0.19568278 -0.21324207 -0.53500235 0.10413906 0.39077267 0.33654734 -0.20558712 -0.108391315 -0.46540725 -0.1043823 0.2684481 -0.13676268 0.43052438 0.32792035 -0.19745332 -0.098675475 -0.05459984 -0.2626166 -0.44371882 0.042517368 0.26399934 -0.39278778 0.39989457 0.725257 -0.2857774 -0.14484657 -0.02294699 -0.08026822 -0.13414878 -0.024490595 0.04827321 -0.08086706 0.40662682 -0.046569005 0.032983515 0.22102915 -0.4925278 -0.18691613 0.51614326 -0.05604572 0.0819805 0.17786828 -0.17517693 -0.054763723 -0.09682275 -0.26481745 0.31053472 0.107693896 -0.35321543 0.37926364 -0.6492689 0.20511465 -0.40736935 -0.05245231 0.488389 0.5416948 -0.11115591 0.21190472 0.04299851 0.19458644 -0.27271563 -0.19304293 -0.05265873 0.15813582 0.17802438 0.5291676 -0.28293917 -0.005423812 0.03313374 -0.26548922 0.5753727 -0.1691844 0.38038987 -0.19611746 0.32944813 -0.060268786 -0.02257562 -0.12996233 -0.16462114 -0.37239102 0.07745302 -0.2416393 -0.4762895 0.0007342923 0.19560787 0.22981168 -0.028515426 -0.28726393 -0.12564392 -0.19533446 0.032122336 0.23593572 -0.13084805 0.19581251 -0.14188614 -0.013188702 0.04477555 0.5826141 -0.14460632 -0.22048762 0.04586065 -0.3442858 -0.22952227 0.35479814 -0.40667552 0.037740942
1616 -0.39249763 0.14092906 -0.15279792 0.6101569 -0.14717034 0.43141195 0.011764421 0.28120345 0.17032993 -0.1378601 0.47544068 -0.45363998 -0.06634985 0.38859993 0.0054243063 -0.16214368 -0.5448767 0.12599899 0.015067388 0.14450638 0.0012285064 -0.35814762 -0.0057572112 0.2488308 -0.10787173 0.26743546 -0.19412655 -0.32890072 -0.32204184 0.32876584 -0.31612027 -0.23005496 -0.12493708 0.0755587 0.8115277 0.50066054 0.2441293 0.191402 0.13466673 -0.3955474 -0.49764484 -0.45445046 0.09966168 0.4898528 -0.30315295 0.2880351 -0.19780034 0.169124 -0.2562116 -0.3993138 -0.18125793 0.46970344 0.25366777 -0.1350134 -0.10709952 0.4144097 -0.07371982 0.22195986 -0.19438075 -0.64232033 0.25001734 -0.089297 -0.42226943 0.07564078 0.39175802 -0.019910991 0.2390041 0.1875574 -0.30524108 0.19263883 0.41593975 0.13285878 -0.15615839 -0.2510225 0.17920172 0.5278938 -0.42416462 0.32709664 -0.51775146 -0.02185841 0.17254958 0.17669207 -0.33730525 -0.2509618 0.19760107 0.034368776 -0.27308553 0.63383836 0.5671267 -0.40899777 0.10742923 0.3380077 0.49312818 0.12949505 0.021115042 0.3188726 0.22484851 -0.024518095 -0.17885274 0.2425052 0.035409935 -0.12201693 0.20372173 -0.11353481 0.12321913 -0.13074346 -0.2534272 -0.20704588 0.23887357 0.41899255 -0.26075056 0.36766124 -0.19127078 0.08486778 -0.29120597 0.09501374 0.13131945 -0.3327829 -0.5068344 0.35570672 -0.40465003 -0.39390603 0.48900783 0.10892364 0.32227072 0.31378806 0.43834 0.06629951
2158 -0.5759251 0.3969781 -0.28830606 0.6286206 -0.39476648 0.7401743 0.025070991 -0.015226813 -0.01214444 -0.046897605 0.33013424 -0.4625713 0.19775768 0.30988872 0.060050916 -0.43174088 -0.5825879 0.07006463 -0.10675009 -0.05792828 -0.12151217 -0.034637894 -0.22365634 0.14712206 -0.29303074 0.37100008 -0.58564335 -0.18544462 -0.5953315 0.5261001 -0.004465986 -0.41486612 -0.04792835 -0.2481108 0.7045589 0.50465184 0.4367852 0.21230352 0.3707678 -0.19024557 -0.29351163 -0.2984644 0.35398933 0.45791745 -0.18309674 0.055529993 -0.19140653 -0.13246779 -0.16990957 -0.39371526 -0.093537234 0.45927963 0.36172324 0.23950124 -0.32390642 0.3346684 -0.046300817 -0.06794496 0.13487422 -0.97900265 -0.13671198 0.11205009 -0.2809874 -0.064756714 0.28046215 0.01709513 0.3212531 0.12368165 -0.40637168 0.34731296 0.31899422 -0.027302073 -0.18109748 -0.15160654 0.04155504 0.38815966 -0.35396326 0.37823832 -0.4849596 0.28704005 0.2071044 0.009062351 -0.48422545 0.16306038 0.09202051 -0.17588006 -0.38546202 0.6876855 0.52881455 -0.21849206 0.10439191 0.78079313 0.7041102 0.063488 0.13766491 0.44367188 0.30603233 -0.16901344 0.0029520895 -0.077902764 0.13519503 -0.24420194 0.06746847 -0.25079054 0.29577753 -0.34398952 -0.06266354 0.07529073 0.18757349 0.43172458 -0.40294573 0.39687347 0.318559 0.05306656 0.074533544 0.00066111446 0.09915896 -0.16508801 -0.3930095 0.105558105 -0.4451929 -0.39779985 0.39637125 0.17874548 0.73699284 0.21459423 0.19204348 0.0337046
1624 -0.5691538 0.24717495 -0.4617808 0.42785293 -0.34360403 0.62351775 -0.12151276 0.08475918 0.22056758 -0.083526865 0.20220484 -0.3390499 -0.0070740706 0.25161377 -0.090318605 -0.34843796 -0.48839837 -0.18460147 0.035734575 0.21114329 0.11532751 -0.48252642 -0.22969066 0.13656625 -0.117564596 0.22051835 -0.32011995 -0.31385472 -0.46847764 0.319331 -0.2321539 -0.16622397 -0.10936682 -0.113696106 0.4478989 0.529332 0.36365983 0.15114912 0.33441612 -0.2379537 -0.46956447 -0.29966402 0.01539853 0.31088874 -0.2809835 0.085285805 -0.31776902 -0.0118713565 -0.13483422 -0.2509286 -0.01660596 0.32785988 -0.052581508 -0.021454617 -0.30794507 0.30705774 -0.024721352 -0.05039623 0.0044290177 -0.5813688 0.13393137 0.11816981 -0.08532003 -0.03209398 0.03927416 0.077213965 0.28624418 0.19115816 -0.097450934 0.2188652 0.35692373 -0.00013823417 -0.37236622 -0.16470236 0.046448376 0.4137524 -0.28943318 0.098571554 -0.38894352 -0.18696347 -0.0927785 0.25324538 -0.28969792 -0.16652033 0.0010868106 0.18627664 -0.28293818 0.56924087 0.49262026 -0.34479538 -0.07362853 0.47344863 0.36815405 0.067582265 -0.10892048 0.049184956 0.1528279 -0.011616384 0.033948865 0.16101201 -0.0172899 -0.0031695215 -0.13367054 -0.1607964 0.17274424 0.13805333 -0.21013638 -0.21481098 0.20881377 0.3509323 -0.29777256 0.35274988 -0.08598154 -0.13642643 -0.3330231 0.07975844 0.1445526 -0.2305175 -0.6705578 0.3270472 -0.15120035 -0.3449453 0.55778116 0.11577111 0.34041694 0.36189473 0.3274216 0.077307455
2165 -0.5434527 0.41021255 -0.27861738 0.3398638 -0.21637724 0.7495199 0.095959224 -0.015570972 0.106014274 -0.03527673 0.21950285 0.10284522 0.15186657 0.119339325 0.52396667 -0.40126523 -0.32738483 0.18612814 -0.26183644 -0.13964349 -0.0063574365 0.30637693 -0.070581116 -0.3227785 -0.36710212 0.8055366 -0.7206153 -0.4806675 -0.49226987 0.1791456 -0.11452058 -0.51214015 -0.03452004 -0.48753205 0.52239877 0.6362065 0.42981395 0.22836013 0.30075204 -0.47309968 -0.19352211 -0.071686365 0.3785009 0.4158026 0.096135505 -0.022728743 -0.095089056 0.0380818 0.22085963 -0.3334068 -0.14321235 0.47840813 0.29922447 -0.010211718 -0.15533651 -0.047676153 0.20877668 0.33493918 0.47148886 -0.56666696 -0.519812 0.43498707 -0.37028784 0.19364804 0.16707885 0.12429671 0.3606414 0.24464454 -0.43452507 0.2799795 0.633861 -0.16181916 -0.05167001 -0.24924698 -0.13474244 0.4140935 -0.16479047 0.51971763 -0.44493434 0.26979312 -0.078900985 0.17121454 -0.47448722 0.27675033 -0.14940275 -0.3861285 -0.45723173 0.6304295 -0.02916565 -0.17591451 0.051301476 0.5605322 0.6299676 -0.011657287 -0.27027893 0.33894035 0.36086684 -0.12526792 0.11000583 -0.33090544 0.06267205 -0.4180039 0.15647 -0.36470956 0.43331382 -0.3880085 -0.012267369 0.22453089 0.33168826 0.2721734 -0.7404124 0.34715495 0.63753706 -0.026857957 0.42808682 0.04001793 -0.238558 -0.17916149 -0.06855515 0.066148005 -0.40651095 -0.29391 -0.2197875 -0.053798713 0.89659125 -0.017536933 0.15088977 0.031692438
2167 -0.67310846 0.4254246 -0.2783603 0.4736049 -0.23022662 0.7710271 0.1591773 -0.16404495 -0.07332269 -0.10230286 0.35331085 0.08869381 0.24698348 0.0015341673 0.44270667 -0.3809409 -0.32650405 -0.06995531 -0.15620852 -0.26522896 0.055717718 0.29789504 -0.025032533 -0.043656208 -0.3885464 0.72806907 -0.8225856 -0.2258779 -0.41771668 0.37796676 -0.17809187 -0.26563212 -0.015745334 -0.3526563 0.62826693 0.47673458 0.5060996 0.11487214 0.39665186 -0.2510123 -0.26750427 -0.33363506 0.51362514 0.5232962 0.08155653 -0.11055828 0.007601298 0.051192682 0.082498 -0.40146995 -0.22573708 0.23403198 0.25100648 0.14411172 -0.52837294 0.25798038 0.010666675 0.2738749 0.3974326 -0.7055262 -0.6435406 0.5613965 -0.31569782 -0.0016499554 0.23991627 0.10262721 0.2786952 -0.055810843 -0.3290273 0.13945523 0.3532207 0.07999714 0.03700421 -0.26079404 -0.035813797 0.2880743 -0.38656443 0.4294802 -0.2901884 0.18826322 0.06763925 0.22017458 -0.39017004 0.32670352 -0.08212873 -0.28272408 -0.6232583 0.82535076 0.34354335 -0.08617804 -0.12467027 0.659452 0.7232164 -0.04001948 0.06594458 0.15819323 0.32820594 -0.19154108 0.16423292 -0.20101213 0.040558726 -0.39824343 -0.076885924 -0.37105757 0.3742917 -0.5471308 0.23071562 0.10712616 0.26417372 0.49955392 -0.745418 0.3721079 0.450341 -0.107465975 0.17155153 0.077788845 0.09089022 -0.20732823 -0.37558645 -0.10968165 -0.20868087 -0.34287855 0.11957378 0.05258437 0.71492153 0.24708301 0.2701555 0.07546329
1631 -0.5033658 0.11059643 -0.33283934 0.62252223 -0.19817849 0.29034027 0.051029384 0.1142223 0.045798257 -0.031182287 0.45141056 -0.6065704 -0.07925342 0.33205184 -0.116039805 -0.13569623 -0.6414094 0.0725005 -0.0940112 0.0052199666 -0.1258863 -0.391379 -0.14207008 0.12473998 -0.12575929 0.26002878 -0.27540657 -0.43806654 -0.4268404 0.44738153 -0.05585909 -0.07465231 -0.2041819 0.06938898 0.6054912 0.46162 0.3707201 0.32641622 0.34337842 -0.38732803 -0.4588722 -0.48856798 0.09117474 0.3855711 -0.26341408 0.14417212 -0.14686015 -0.011236622 -0.400604 -0.16390164 -0.08377442 0.4466362 0.16185664 -0.087705754 -0.16471615 0.42233968 -0.22812401 0.23639402 -0.0355782 -0.44768646 0.2593315 0.01460558 -0.40145668 0.080520324 0.3510374 0.11082486 0.33322358 0.16168371 -0.42903665 0.12492705 0.26831818 0.031314764 -0.12001014 -0.06805196 0.123856954 0.561222 -0.10608818 0.2873813 -0.63017267 -0.023315137 0.03163225 0.28533426 -0.2643499 -0.23513003 0.18809374 0.0036419702 -0.1495398 0.73600847 0.39119393 -0.27221692 0.18667214 0.55362606 0.5091988 0.06999016 -0.14702086 0.3851626 -0.015837118 -0.20884943 -0.100752965 0.13409287 0.12259309 -0.15257396 0.0398249 -0.16718246 0.18024829 -0.11335107 -0.22004844 -0.094368 0.161656 0.31128466 -0.25657034 0.31549153 -0.004963241 0.13364252 -0.24390148 -0.06071835 0.26238993 -0.4153796 -0.5187849 0.3507307 -0.45717058 -0.31880066 0.58683044 0.01273502 0.3199079 0.24401128 0.43324533 -0.038259063
1640 -0.48596588 0.19863945 -0.28601408 0.7040254 -0.20271757 0.2783318 -0.072949536 -0.038366813 0.18614534 -0.0832175 0.27852222 -0.6793835 0.12014639 0.45039478 0.02461595 -0.07249747 -0.47288665 -0.11240779 0.14484648 0.25815627 -0.029438043 -0.47923043 -0.042219255 0.17795043 0.028584052 0.18395339 -0.32381758 -0.19805464 -0.3083376 0.24417871 -0.15628414 -0.3337434 -0.23300615 -0.18252903 0.7052066 0.5984999 0.48169547 0.2513047 0.20173454 -0.32724956 -0.5441051 -0.41640615 0.0921767 0.3647849 -0.29756957 0.06796946 -0.0060520675 -0.09535609 -0.32104266 -0.31014985 -0.15553898 0.37515584 0.37040526 0.1552793 -0.28882593 0.47310567 -0.222534 0.32079294 -0.13778464 -0.4649332 0.3182153 -0.07683527 -0.44151813 -0.09251419 0.21604714 0.1192943 0.24752218 0.08253218 -0.3538587 0.26696423 0.3477463 0.07928258 -0.08417228 -0.20866407 0.24176034 0.4998192 -0.44463846 0.20264676 -0.3418479 0.06624484 -0.0042029605 -0.07839429 -0.23853329 -0.03776693 0.14741127 0.21054429 -0.19273752 0.692183 0.43679225 -0.33462542 0.26688382 0.35785684 0.3856427 0.07303308 -0.010242238 0.154767 0.3590483 0.06957916 -0.044215605 0.19073536 0.19164269 -0.26864755 0.08441419 -0.09007767 0.17725174 -0.19182791 -0.21088001 -0.11772715 0.23746566 0.37704414 -0.3000645 0.40056837 -0.17199059 0.07908344 -0.23798972 0.018225681 0.24745293 -0.1683963 -0.37039477 0.38609535 -0.120638974 -0.2899889 0.35732344 -0.091653824 0.3248166 0.18335667 0.43124002 0.30417398
1659 -0.38709044 0.057823997 -0.1699908 0.5118109 -0.11761977 0.34494144 0.004835222 0.04988471 0.23089832 -0.20502658 0.5569423 -0.45195147 0.032656696 0.28397322 0.11002254 0.008874984 -0.6002456 0.1715333 -0.12477578 0.095157474 0.010349989 -0.44316757 -0.033759385 0.100571044 -0.00952093 0.40665206 -0.034562383 -0.3732877 -0.24661969 0.35186028 -0.16446878 -0.16872485 -0.15744102 0.10648713 0.65987986 0.50829786 0.29104254 0.21002337 0.19794135 -0.46644622 -0.5062337 -0.37671882 -0.01870257 0.46479276 -0.19670953 0.07887071 0.0014259125 -0.0053837416 -0.1256288 -0.18933044 -0.10895251 0.43969664 0.22532722 -0.00749369 -0.23626283 0.55855566 -0.117016725 0.24432245 -0.33644664 -0.4360635 0.21768734 -0.16865455 -0.49809214 -0.044091135 0.39182648 -0.09929751 0.16459882 0.12533617 -0.14373861 0.097505234 0.29890856 0.22180426 -0.21642862 -0.17147927 0.24799389 0.6016639 -0.2372142 0.28639817 -0.7031622 0.02632647 0.052838463 0.29968786 -0.14181401 -0.34092122 0.238281 0.034393832 -0.103397615 0.7791118 0.6094025 -0.44677052 0.16038553 0.14877135 0.48978904 0.14105242 -0.0017409411 0.49980366 0.21148857 -0.13727315 -0.13634926 0.15101208 0.026472779 0.046275638 0.059580345 -0.04904962 0.031311147 -0.21847634 -0.3578871 -0.24639443 0.37282342 0.32982948 -0.2119604 0.23104165 -0.2118342 0.109163955 -0.25552335 -0.050357565 0.091668576 -0.13654743 -0.52722955 0.4306581 -0.5325875 -0.45123035 0.38090864 0.144507 0.3103103 0.23319575 0.5550088 0.008484638
1662 -0.40863934 -0.049126253 -0.173096 0.4488179 -0.29773265 0.20728742 -0.10897552 0.18482389 0.092180476 -0.20385286 0.32220787 -0.44613492 -0.083499745 0.3385673 -0.0044181454 -0.1127375 -0.44708306 -0.009075118 -0.04857003 0.13194685 0.10343529 -0.33237642 -0.10108742 0.20910518 -0.06579599 0.27877697 -0.021410583 -0.42730722 -0.37231803 0.25096664 -0.18678218 -0.04403429 -0.19764219 0.119333625 0.7461734 0.4111799 0.35114324 0.10738809 0.11308177 -0.28037027 -0.39889583 -0.50277364 0.0002927981 0.26876524 -0.35307378 0.15641017 -0.15432525 -0.059972856 -0.25266972 -0.2988459 -0.047276787 0.34420055 0.1406578 -0.082283504 -0.18638833 0.4415479 -0.13205674 0.2043828 -0.03331538 -0.5112193 0.12811396 0.06909884 -0.19286115 -0.14553005 0.21783945 0.006262531 0.13869731 0.15091705 -0.17200492 0.08937449 0.24124348 0.09685852 -0.19276476 -0.1379405 0.23353326 0.49089202 -0.21698654 0.31557134 -0.31858045 0.048390903 -0.05324665 0.04134928 -0.25902787 0.007956372 0.1791817 0.08650703 -0.09723731 0.46069235 0.539929 -0.41762853 0.020425288 0.28136653 0.48448223 0.08773302 0.02360731 0.42305398 0.26136282 -0.07250351 -0.12823343 0.1980712 -0.061539546 -0.2964671 0.02544058 -0.16313301 0.05156518 -0.16895877 -0.024955926 -0.1535694 0.3711768 0.16807182 -0.31111446 0.38921466 -0.16926678 0.014167562 -0.33767393 0.10743057 0.36885703 -0.16976967 -0.3591628 0.20076329 -0.2723418 -0.263167 0.48294485 0.049186546 0.29363585 0.3069708 0.3467096 0.08626719
2280 -0.79429364 0.559437 -0.38381398 0.49276793 -0.3085932 0.97549486 0.12440772 0.15352842 -0.001184704 -0.15429127 0.16445203 -0.13481848 0.27959475 0.1464256 0.30252767 -0.40833268 -0.49391583 -0.018961942 -0.1182157 -0.12722124 -0.0372203 0.1833618 -0.2929185 0.021300549 -0.38115388 0.6776836 -0.63919705 -0.3444865 -0.64727294 0.3230545 -0.10546713 -0.39663383 -0.029188989 -0.31528437 0.642539 0.5849152 0.5612116 0.22209752 0.43075815 -0.3873158 -0.33575627 -0.29978812 0.39563885 0.5014297 -0.08073561 0.14679742 -0.14573947 -0.09421128 -0.009271115 -0.35772482 -0.061674014 0.25059995 0.22034466 0.21500504 -0.28594375 0.2676382 0.004163556 -2.1375743e-05 0.3349348 -0.8508254 -0.4572216 0.38618067 -0.2691853 -0.03477453 0.08066913 0.040210906 0.42643493 0.23343723 -0.38204738 0.2635625 0.6959047 -0.07052901 -0.091031745 -0.2047425 -0.061126348 0.39556938 -0.39494503 0.48714128 -0.46741346 0.070291914 0.026954858 0.08728586 -0.4972898 0.12393772 -0.10069384 -0.25190946 -0.5109061 0.7369006 0.31053314 -0.18920095 -0.068467 0.7477594 0.53803545 0.108066194 -0.074237965 0.26382336 0.26820529 0.04585694 0.07730384 -0.2683978 0.11774247 -0.37592053 -0.095556654 -0.24289446 0.3943992 -0.27623737 0.047142364 0.07639735 0.25423837 0.38304478 -0.62015533 0.3986937 0.37918964 -0.20834945 0.14445461 0.10144334 0.06471754 -0.23670766 -0.39133814 -0.024027452 -0.49182865 -0.37091005 0.23051919 0.10476058 0.80381775 0.34233284 0.32789624 0.06703543
2307 -0.6823891 0.46755463 -0.3463387 0.4499242 -0.24448612 0.8731589 0.17311962 0.09293771 0.06941683 -0.12566292 0.29150844 -0.029034348 0.22319356 0.17047098 0.40768623 -0.3430894 -0.5768375 0.15112813 -0.2037996 -0.31237328 0.055994917 0.22574612 -0.25738212 0.014352114 -0.41778922 0.69959176 -0.7850859 -0.4894611 -0.6545395 0.36413255 -0.091503225 -0.46782535 -0.11347591 -0.37570462 0.71334136 0.6360456 0.49314365 0.3367397 0.5547195 -0.2692621 -0.2322604 -0.23535667 0.38276696 0.523128 0.08066406 -0.050763387 -0.18512303 -0.046944983 -0.068024926 -0.31424582 -0.15326573 0.3347012 0.33620292 0.23578025 -0.27266982 0.1874139 0.16083086 0.1573644 0.3575725 -0.88951564 -0.5006053 0.38587365 -0.36334094 0.053603444 0.13693272 0.15338469 0.455233 0.15265672 -0.4800015 0.36450845 0.59313893 -0.036851782 -0.06331201 -0.18260069 -0.09249028 0.439808 -0.406337 0.45760006 -0.44660783 0.14776914 0.0689167 0.211324 -0.41743743 0.28469348 -0.07075312 -0.3402044 -0.47798857 0.7620381 0.2938289 -0.21538194 -0.12791948 0.7668626 0.66860956 0.0038591805 -0.05155541 0.35511482 0.379818 -0.058096234 0.14196251 -0.27464014 0.14841795 -0.4596836 -0.12019044 -0.44674265 0.37571904 -0.41310552 -0.016263241 0.22964558 0.2688006 0.44350195 -0.68724746 0.44136095 0.48658127 -0.115403526 0.29361832 0.07768314 0.027851373 -0.2977836 -0.30430916 0.0047445823 -0.47637418 -0.44526312 0.04190849 0.0712392 0.88821936 0.28735772 0.32928583 0.07607077
16 -0.13205658 -0.33841366 0.028461726 -0.020442998 0.48262888 -0.30963063 -0.09024453 0.06177246 -0.09254942 -0.22344932 0.30562752 -0.24873729 -0.37947947 0.18470417 0.28993806 -0.17972545 0.055004366 -0.22114822 -0.1951656 -0.29076907 -0.21673013 -0.15289271 0.37636948 -0.2547354 -0.22806785 0.41834772 -0.4297084 -0.069241405 -0.43273315 -0.1890052 -0.26468006 0.25721413 0.46893197 -0.07545611 0.19133419 -0.027750516 -0.18577914 -0.29727688 -0.01669813 -0.22994591 -0.39147517 -0.1299293 -0.1244472 -0.585131 -0.1633187 -0.23286024 0.56244254 -0.08741236 0.09919479 0.14937694 0.24575745 0.20846601 -0.036360275 0.025487922 -0.02935337 -0.19178829 -0.73123634 0.116417326 -0.40646002 -0.09115755 0.012673706 0.09947336 0.16117531 0.01956324 -0.07506787 -0.050582103 0.031295326 0.11125932 -0.06363778 0.14767344 -0.21588759 -0.21913183 0.0019985018 0.15638359 0.4755344 -0.30654827 0.14739288 -0.030873215 -0.18765363 -0.006978681 0.14627764 -0.14457354 -0.058990236 0.3133692 -0.31777683 0.24215575 -0.13267559 0.074145 0.26682663 -0.096054256 -0.49576357 0.14099574 0.18871658 0.4944098 -0.13794842 -0.24973258 0.17027335 0.33238575 -0.054773055 0.20137313 0.123571165 0.17169844 -0.09240625 0.123365864 0.109693624 0.020805884 0.13918819 -0.099549 0.047009513 -0.17541936 0.01849276 -0.28488678 0.4019845 -0.049669344 -0.06536368 0.5781861 -0.29009664 -0.36915427 0.25651523 0.069922805 0.016751664 -0.29750612 0.051593345 0.14321226 -0.1386743 -0.2209332 -0.21853954 -0.1448736
11 -0.060413226 -0.2362654 -0.029488051 -0.19519466 0.3579683 -0.23327908 -0.052305907 0.22246161 -0.22813126 -0.079004124 0.3856869 -0.2174716 -0.08295074 0.18382299 0.1900129 -0.0064494163 0.06931284 -0.15111487 -0.26044238 -0.05909529 -0.31461647 -0.02210685 0.5321293 -0.4184452 0.05774412 0.5692 -0.28775054 -0.28433916 -0.3636437 -0.08510018 -0.25748882 0.40928516 0.5865302 -0.08743382 0.44374523 -0.016533485 0.05362143 -0.28665864 -0.15188009 -0.17372489 -0.02881438 -0.08336687 0.04432576 -0.51941216 0.0149319805 -0.25645727 0.64508826 0.21699171 -0.03569052 -0.09026133 0.20690122 0.5065598 0.16322379 0.0417345 0.014115493 -0.33351454 -0.73442864 0.059252996 -0.5346573 -0.26878065 -0.13318376 0.040409233 -0.030710539 0.031820122 0.006060229 -0.0122084115 0.1993033 0.07087433 -0.23594543 0.14078383 -0.13608627 0.17979906 -0.038976286 0.21839483 0.34801507 -0.22726305 0.023710907 -0.18105823 -0.12307236 0.12171798 0.14437173 -0.16597785 0.073746465 0.19022976 -0.14464279 0.092704654 0.28765875 0.0027913596 0.17988487 -0.04036672 -0.17114359 0.24914676 0.049899563 0.5539641 -0.14065759 -0.071103685 0.07733247 0.21340562 -0.03979891 0.072002955 0.05555749 -0.04010385 0.029001864 0.03820857 0.09807549 0.012689539 0.23596302 -0.2719444 -0.16036907 -0.28953233 0.023243679 -0.20520802 0.43503198 -0.125597 -0.07600527 0.7429323 -0.23840079 -0.37693128 0.07074435 -0.12996301 0.11366295 -0.30255073 -0.18156748 -0.15350462 0.014148126 -0.37063462 -0.05507868 -0.023257013
48 -0.107243024 -0.408074 0.031508073 0.27013934 0.39474702 -0.30032402 0.011187095 0.28159386 0.04727199 -0.122950085 0.310075 -0.23640013 -0.80515295 -0.021467768 0.14173388 -0.13579279 0.38169134 -0.29092616 -0.35238978 -0.2069126 -0.31262565 0.226409 0.41994932 -0.3362455 -0.39201996 0.09692833 -0.18374145 -0.26065186 -0.19554535 -0.27634415 -0.30853513 0.13763733 0.34582812 -0.3068702 0.2759063 0.06110987 -0.10195726 -0.22352806 -0.13420698 -0.3358604 -0.4417586 -0.14460546 0.06176367 -0.57457906 -0.06142639 -0.43193233 0.7061065 0.019804029 0.134668 -0.07192716 0.29098698 0.35889632 -0.06209376 0.38057506 -0.09872544 -0.17942229 -0.4664832 0.17379527 -0.47156474 -0.06275431 -0.09723299 0.33194694 0.21732077 -0.114202514 0.0033630326 -0.2622004 0.15837644 0.44138882 0.14666097 -0.082959384 -0.22337055 -0.13603745 -0.08010838 0.17701977 0.43235892 -0.12525523 0.049142558 -0.12520468 -0.2936074 -0.29864946 0.06141086 -0.41672426 -0.15642498 0.2896148 -0.2375406 0.45265946 -0.028961552 0.13336486 0.45270965 -0.1771743 -0.4946983 -0.031135866 0.16757312 0.67129177 -0.27347654 -0.2395408 0.13541628 -0.036277805 -0.20449641 0.29707605 0.0010890375 0.21965913 0.047329187 0.08681146 0.30958208 0.0060892934 0.29362065 0.085339 0.3069926 -0.011874365 -0.013980557 -0.42993492 0.25814325 -0.38397843 0.23068962 0.6871651 -0.29143593 -0.35239026 0.37644976 -0.12261646 0.24598694 -0.3846597 0.087946795 0.07448504 -0.10593851 -0.037244905 -0.5787411 -0.20467553
68 0.025776418 -0.18592513 -0.1638454 -0.10899594 0.12650189 -0.058891997 -0.06600036 0.25562096 -0.18481678 -0.17956775 0.21457033 -0.31774953 -0.6387359 0.13759753 0.05598583 -0.30127925 0.4005172 -0.028230915 -0.064882524 0.15568931 -0.37124205 0.04856749 0.2504142 -0.49042657 0.065408856 0.106770895 -0.24605717 -0.34967896 -0.08067518 -0.004429076 -0.073986 0.37485725 0.5226455 -0.19592778 0.2524137 -0.025812069 -0.12899436 0.07475201 -0.21429974 -0.0035953817 -0.30356744 -0.11406711 -0.21385917 -0.2829894 -0.0707292 -0.21860783 0.61778337 -0.05104144 0.25344142 0.025473442 0.104040705 0.13711981 -0.060297865 0.22444986 -0.1002514 -0.24974795 -0.34013847 0.1321949 -0.5064791 -0.106479704 -0.073818915 0.2689863 0.094157115 -0.120618895 -0.080317274 -0.03809055 0.109587744 0.25845054 -0.051806793 0.02309567 -0.11957701 -0.040033866 -0.18954955 0.2349 0.44279793 -0.1500362 0.07992573 0.009716215 -0.10597646 -0.030086493 0.233398 -0.14594302 -0.26331374 0.3764714 -0.07451631 0.21860081 -0.034982193 0.18878487 0.23350577 -0.025300615 -0.20960498 0.16079544 0.40582398 0.37005886 -0.25775588 -0.07133809 -0.031265028 0.14291127 -0.17205702 -0.09523631 0.1047151 0.2475381 -0.13685015 0.22221489 0.1451361 -0.14381097 0.028540343 0.16429336 0.043799236 -0.042752605 -0.10917167 -0.29426894 0.3074921 -0.33031085 0.1282258 0.6350888 -0.26114205 -0.31755394 0.12939095 -0.24188893 0.16321886 -0.4457332 0.041940983 -0.012638436 0.019581206 -0.19516824 -0.1354599 -0.09536276
67 -0.05389628 -0.34411857 0.0015244514 0.08788125 0.25839746 -0.22283675 -0.15251876 0.14996867 -0.15006913 -0.15481597 0.26244727 -0.4881663 -0.6981417 -0.004484595 0.3870177 -0.2753792 0.27810225 -0.09726917 -0.23923701 -0.20287873 -0.15065433 0.0729846 0.24942423 -0.25250274 -0.3113378 0.1839876 -0.1421525 -0.3531564 -0.37984523 -0.3195325 -0.33240986 0.09883422 0.40289095 -0.081715934 0.15592441 0.25960925 -0.23128822 -0.27291974 -0.13283455 -0.19655795 -0.42617887 -0.14957607 -0.07069169 -0.55249023 -0.104525335 -0.21669233 0.4917405 -0.037440438 0.10268551 -0.03799432 0.3240377 0.3821973 0.11561564 0.20697057 0.06297726 -0.26381811 -0.4404185 0.11834705 -0.5186663 -0.05768196 0.005108438 0.45763123 0.31063804 -0.14179268 -0.16363606 -0.18193458 0.16779517 0.347561 0.18066953 0.13516718 -0.26059213 -0.31249636 -0.18840481 0.18671592 0.43416306 -0.070778534 0.09743906 -0.013525184 -0.24973784 -0.066983365 0.05544606 -0.36650518 -0.0939684 0.31452835 -0.18793558 0.4233297 0.024765879 0.14948015 0.36585867 -0.015244795 -0.44058868 0.11304297 0.19276112 0.5248972 -0.17874512 -0.12736689 0.06607931 0.11399996 -0.14846787 0.14253391 0.03557315 0.19270132 -0.05494384 -0.0047313445 -0.023271604 0.15658095 0.36635068 0.12049306 0.4087801 0.032418896 -0.08525466 -0.2695426 0.18233843 -0.4714506 -0.05043312 0.5313044 -0.23534231 -0.20685236 0.35363647 -0.056287643 0.018143231 -0.31193185 0.04795918 0.106597975 0.0057704328 -0.12981826 -0.321325 -0.14921454
88 -0.092254266 -0.10220726 -0.08513904 0.079109676 0.51133114 0.17054781 -0.2254524 -0.06617562 0.114577055 -0.28092614 0.105801664 -0.008209049 -0.03575703 0.12759706 0.14204676 -0.06218955 0.12289457 -0.1685165 -0.1310596 -0.21028 -0.17411296 -0.15783839 0.19705348 -0.05210612 -0.13431057 0.2571297 0.20595789 -0.24117807 -0.14211051 -0.17005743 -0.09993123 0.25411305 0.12483891 -0.4232026 0.15638928 0.25772798 -0.043793384 -0.13447504 -0.4122205 0.14890793 -0.3067115 -0.1271906 -0.015437843 -0.2942546 -0.035987698 -0.13650227 0.32734483 -0.09745385 0.03398262 0.55814517 0.4093117 0.023701005 0.13997161 -0.08187248 0.027138008 -0.19273733 -0.6918867 -0.40637937 -0.15826151 0.2540714 -0.035593983 0.009890524 0.06455498 0.040167548 -0.015309373 0.088635065 -0.27368632 0.027338961 -0.40242124 0.32823336 -0.0017597973 0.19859436 0.03168977 0.15809166 0.40119913 -0.24820997 0.0064806114 -0.053639136 -0.062342197 -0.0062603066 0.16685414 0.13737713 -0.12135468 0.11929074 -0.20257215 -0.099012375 -0.08096085 0.095461115 0.2786944 -0.35473263 -0.40940535 0.17591427 0.1684906 0.1728664 -0.11850809 -0.599816 -0.25860396 0.44064412 -0.2353466 -0.18172304 0.2521861 0.1608579 0.005754645 0.023621768 0.13588548 0.15694463 -0.07489522 0.0059667006 -0.14162003 -0.10709364 0.121256046 0.37006736 -0.097666204 0.18411325 0.14536595 0.333052 0.0076535568 -0.46415347 -0.45162964 0.12249645 -0.026031101 -0.07763008 0.14356026 0.083502375 -0.23216671 -0.27819338 -0.22709502 0.29608193
116 -0.21032746 -0.008313528 0.11076627 -0.25796455 0.37169543 0.07317321 -0.08705965 0.050737187 -0.083880246 -0.059614956 0.17659548 -0.19463679 -0.3866821 0.29502043 0.34074008 -0.1825519 0.17965843 -0.42496875 -0.049328152 0.17003265 -0.41678894 0.1990102 0.74116987 -0.10091585 -0.06429183 0.028659534 -0.5310773 0.20546813 -0.5031454 0.023458991 -0.0778821 0.4831558 0.33163008 -0.20371279 0.26421833 0.043558564 -0.5130063 -0.22747335 -0.11541959 -0.052866027 -0.41697142 -0.09088806 -0.20456725 -0.55445164 -0.17680955 0.041930698 0.8403109 -0.3529471 0.12077879 -0.109929964 0.1360717 0.017639872 -0.11715061 -0.13154002 0.011465539 -0.12991343 -0.8101958 -0.05818939 -0.35992515 -0.1565811 -0.037653767 0.018890752 0.11350004 0.016542716 0.22945486 0.09165117 0.31860554 0.031335723 0.13615227 0.3277303 -0.12659433 -0.07768245 -0.096272 0.06690289 0.40964338 -0.25073642 0.2086214 0.1352979 -0.2754548 -0.3141905 0.18956333 -0.09704977 -0.6220309 0.27188724 -0.12643076 0.01397978 0.13157673 -0.07265125 0.450961 -0.019365916 -0.15231362 0.14607933 0.24785838 0.06372468 -0.3636529 -0.051207706 -0.1637421 0.23661909 -0.078687996 0.046327528 0.2673105 0.10245237 -0.12737493 0.35198626 0.35203442 -0.093010135 0.24329923 -0.17641106 0.033110686 -0.0456592 -0.04457772 -0.41675547 0.30807382 0.121328235 -0.119906195 0.3740505 -0.12931682 -0.51701665 0.25838095 0.2710315 0.008933229 -0.13927907 -0.23986197 0.1349111 -0.23366275 -0.11058206 -0.032924037 -0.1362156
119 0.13134852 -0.015820382 0.064213015 0.12280302 0.16106708 -0.0021168473 -0.2895957 -0.104719095 -0.06321198 -0.46226978 0.1319229 -0.09535379 -0.019514872 0.16767903 0.167046 0.044405553 -0.2443292 0.048382852 0.12462812 -0.4473391 -0.045465205 -0.19545938 -0.19921407 0.23074326 -0.027354559 0.3681079 0.013819331 0.16716827 -0.39053255 -0.31152448 -0.28189984 -0.09988721 0.09414444 0.14772819 -0.025158701 0.14265774 -0.12913029 0.08835181 -0.12137693 0.021417376 0.11630948 -0.28083602 -0.24558857 -0.05179832 -0.19909146 -0.07121066 0.36288446 0.28500938 -0.023929683 0.19578609 0.097707674 0.07277175 -0.3879505 -0.24611425 -0.3743424 -0.082247466 -0.24408242 -0.042507146 -0.024243431 -0.23235156 -0.23892772 0.19797745 0.21207653 0.20733579 -0.026132494 0.3423963 0.06502763 0.19499941 -0.055149857 -0.15621196 -0.3851208 -0.34820017 -0.20528956 0.1268015 0.3976597 0.019928299 -0.08936624 0.092927925 -0.15694481 0.10746375 0.007818153 -0.01978679 0.08260155 0.307147 -0.35683486 -0.26624548 -0.31569114 0.5362502 -0.004436906 0.07288071 -0.0133186 -0.07976372 0.2548208 0.13455547 0.35032806 -0.52803564 -0.12960863 -0.09999623 -0.010825125 0.018590946 -0.14056212 -0.05511258 -0.23448044 -0.16132951 0.0046744198 -0.20949164 -0.07130011 -0.035928752 0.21899845 0.15529585 0.20260759 -0.31747416 0.40266025 0.27056608 -0.35844123 0.07132941 0.19147778 -0.17294401 -0.19423573 0.12870541 -0.22216631 0.03320834 -0.14243847 -0.038599756 0.12639442 -0.23886879 -0.05914557 -0.04786477
493 -0.34596363 -0.11327717 0.30155084 -0.047763202 0.08622722 -0.42934802 0.050593764 -0.020802038 0.062263962 0.04455297 0.15030316 0.055452038 0.4147573 0.3687673 0.36055833 -0.13740082 -0.29290143 -0.10454746 -0.30227372 -0.009085064 -0.055028096 -0.04026613 0.32487005 -0.23962915 0.09496824 0.45649743 -0.16236171 0.012738001 -0.16366021 -0.21349713 -0.20920162 0.16374159 0.16104941 -0.026772097 0.22523797 -0.078222066 0.29833227 -0.24891308 0.17798732 0.19513203 0.15438701 -0.010743809 -0.19501679 -0.40700895 0.0025060303 -0.025147662 0.11907857 0.106246784 0.036379717 -0.097317524 0.1292385 0.5693726 0.21577741 0.16839537 0.034613732 -0.28797552 -0.37895605 -0.016779207 -0.2525856 -0.08010757 0.04551719 -0.18374078 -0.19083902 0.034894653 0.035269644 0.02227276 0.18735869 0.08593228 -0.37255755 0.071651556 -0.051809587 -0.10107807 0.119502045 0.18268292 -0.17550574 -0.1643895 0.04447228 -0.18743823 -0.04663253 -0.12516229 -0.10221997 -0.16224745 0.44926724 -0.19889516 -0.20344728 0.0028862471 0.25970185 -0.11951699 -0.15445949 -0.057683077 0.16887735 0.3187463 -0.17200832 0.28698844 0.024496537 -0.16472435 0.22008577 0.030902538 0.18920018 0.107319154 -0.06334696 -0.08308086 0.028590146 -0.3058111 -0.014179846 -0.15374768 0.110509306 -0.31490293 0.03423753 -0.46489358 -0.26996776 0.15256268 0.65838784 0.03740665 0.13832872 0.48610818 -0.023047782 -0.3106389 -0.041797534 0.1696087 -0.0337335 0.055564206 0.110917315 0.3353767 -0.12609437 -0.32035646 -0.032489527 -0.051551957
167 -0.13548239 -0.26092845 -0.017481554 0.14906386 0.3344264 -0.015695805 -0.14127466 0.20862485 -0.008110955 -0.08835119 0.28373483 -0.4528463 -0.70958865 -0.07505992 0.20263858 -0.31168342 0.2593063 -0.20554349 -0.2524717 -0.100071624 -0.267464 0.11634514 0.34023875 -0.20352206 -0.32207125 0.17099544 -0.17094783 -0.3413982 -0.3716903 -0.31199586 -0.18635121 0.18847966 0.5376434 -0.14771995 0.23272067 0.16526213 -0.18026438 -0.27872655 -0.22581151 -0.2022598 -0.36711344 -0.18445684 0.03807672 -0.5765533 -0.012570331 -0.015331687 0.6322555 -0.17944707 0.16778989 0.12634309 0.31133363 0.16455168 0.13988288 0.33274737 -0.04413564 -0.28170636 -0.5536043 0.016759159 -0.5143159 -0.02012176 -0.0679681 0.20809038 0.23787595 -0.021190044 0.028045353 -0.13144693 0.19356619 0.038367093 0.17294356 0.17432413 -0.14932384 -0.17794752 -0.28796312 0.24810837 0.5015298 -0.178891 0.2620687 -0.08647165 -0.18103014 -0.19859761 0.24292734 -0.34752953 -0.19600302 0.46594998 -0.14216545 0.33519855 -0.068902045 0.106081605 0.39677006 -0.138469 -0.5483658 0.0665288 0.2324944 0.44317615 -0.41164118 -0.22724959 0.1368902 0.15085056 -0.15888792 0.05093157 0.059739634 0.27977997 -0.13548306 0.1789565 0.07291922 -0.05316305 0.2327863 -0.14173482 0.3485822 -0.02333433 0.013800283 -0.4140792 0.3179555 -0.34159118 0.1270687 0.56894094 -0.38034797 -0.31449625 0.36589667 0.051670246 0.16610709 -0.4233496 0.035346698 0.24329898 0.0040749563 0.0052764616 -0.29549047 -0.18717355
181 0.043652758 -0.24643911 -0.011982178 -0.02453572 0.05748821 -0.0935881 -0.19080397 0.21060991 -0.17575239 -0.09647524 0.23636426 -0.24136162 -0.85637873 0.19039242 0.23079303 -0.21871534 0.3802598 -0.16664836 -0.11699857 -0.0012196017 -0.42381766 -0.07940728 0.27282038 -0.21652822 -0.17850924 0.115538634 -0.31298205 -0.08040516 -0.5127456 -0.09165123 0.03374153 0.28738013 0.55974686 -0.10763084 0.40445042 -0.055215042 -0.09673299 -0.019224243 -0.06444299 -0.25409532 -0.20468386 -0.14043185 -0.17191344 -0.44301605 -0.009857041 -0.08029913 0.77129346 -0.2049621 0.20367526 -0.05236148 0.2415346 0.17917323 -0.03379084 0.3917731 0.025600731 -0.26213488 -0.4871753 -0.20258124 -0.41130233 0.033875186 -0.1131317 -0.21223453 0.19723512 -0.22024463 -0.046024404 0.065685 0.059685376 0.09131819 -0.024594875 0.029852096 -0.2544139 -0.08524498 -0.048715893 0.27019486 0.4160675 -0.2285541 -0.013020693 -0.018208116 -0.23126666 -0.19574103 0.19156772 -0.22650154 -0.5509269 0.38108268 -0.1867762 0.33817267 -0.11862451 0.057965375 0.29727784 -0.19224076 -0.41845402 -0.028296683 0.29612252 0.42230117 -0.20989637 -0.010796919 -0.024498979 0.12896647 -0.1668834 -0.04382874 -0.0005680504 0.2157242 -0.14343108 0.13217166 0.21078753 -0.05073758 0.11416138 -0.0794738 -0.041522022 -0.069286056 -0.03095077 -0.3631662 0.3599281 -0.0701038 0.01058694 0.47309652 -0.27713218 -0.29708728 0.25559735 0.17361134 0.16275604 -0.32367486 -0.11718451 0.14066504 0.18664482 0.09638427 -0.18282874 -0.20486817
15 -0.2155263 -0.029616015 -0.10785669 -0.13196965 0.2835987 -0.10335015 -0.17768987 0.14387707 -0.21309455 -0.1586221 0.29593816 -0.23833537 -0.6533816 0.29494038 0.083937645 -0.175296 0.23144425 -0.17883869 -0.16103922 0.0528851 -0.4759893 0.05477966 0.46263438 -0.25837067 -0.12482127 0.09140077 -0.45327187 0.12103559 -0.44753656 -0.024672732 -0.028490217 0.5104287 0.3921109 -0.1589287 0.30111718 0.11197334 -0.28616118 -0.23332138 -0.059471354 -0.23700069 -0.39991084 0.050307337 -0.18195677 -0.56505126 0.022072408 -0.083767824 0.75030464 -0.23588867 0.24824436 -0.02353771 0.06181713 0.079367496 0.09593187 0.2652885 -0.0028057932 -0.24853562 -0.64083207 -0.113756135 -0.45487756 0.062943436 -0.1309733 0.075292766 0.13475233 -0.18214859 0.11967342 0.092030436 0.278861 0.07225155 0.14739616 0.2602154 -0.16001104 -0.29272115 -0.00046879644 0.20432188 0.4771448 -0.25512436 0.06870898 0.008001393 -0.2669217 -0.25343174 0.25342742 -0.08046265 -0.52593803 0.22935069 -0.04582075 0.28634176 -0.058122512 0.0032544425 0.3604356 -0.2131917 -0.44174746 0.08538665 0.24549682 0.30554196 -0.41575056 0.0465193 -0.041666582 0.21133894 -0.29302862 0.12702478 0.033384413 0.19438025 -0.07761867 0.20290972 0.24057934 -0.17144495 0.22597235 -0.19604017 -0.0028725057 -0.09970339 0.029824877 -0.3062252 0.4172439 0.01590304 -0.14655411 0.38404477 -0.29456645 -0.41841367 0.25355136 0.22595848 0.0977059 -0.24307369 -0.12853555 0.03268257 0.16691841 -0.12802444 0.006114051 -0.18153548
64 -0.22131938 -0.079280324 -0.0318855 -0.07107021 0.38064727 0.022399243 -0.06651829 0.09150444 -0.03585566 -0.023521796 0.37954396 -0.37085235 -0.69743466 0.20124303 0.23038796 -0.30168065 0.35804474 -0.28149617 -0.105489545 0.016394988 -0.42537493 0.16974376 0.37828228 -0.26013136 -0.27274764 -0.023572449 -0.37049598 -0.116177775 -0.34031254 -0.077328295 0.031545255 0.5809654 0.47062558 -0.2755587 0.3529953 0.0815712 -0.28660712 -0.14962868 -0.26267874 -0.10824523 -0.34671175 -0.024849419 -0.035284445 -0.60784864 -0.11721294 -0.17463996 0.79168653 -0.27235916 0.16749336 0.28941357 0.25689837 -0.046330377 0.025211986 0.20961754 -0.15186924 -0.19752376 -0.6951903 -0.15304238 -0.40679392 0.28355137 0.025151854 0.15393169 0.16602047 -0.052224744 0.07841522 0.11600194 0.11710296 0.053465676 0.116679706 0.32924485 -0.15204833 -0.13245258 0.049917024 0.12195842 0.5198282 -0.3159525 0.10103096 0.07395788 -0.3371614 -0.30213958 0.22893399 -0.05911292 -0.67074955 0.38719255 -0.12279935 0.2502266 0.006649892 -0.024455147 0.43372488 -0.3104257 -0.4987441 0.10113767 0.37060502 0.14244428 -0.46215498 -0.13600491 -0.06313261 0.26315027 -0.26083732 -0.038586788 0.115835465 0.31407133 -0.15611666 0.2729064 0.18792035 -0.11206253 0.14891034 -0.09927267 -0.016448189 -0.04110686 0.058659755 -0.1597975 0.3423787 0.0230747 -0.023416225 0.46630922 -0.2822197 -0.4832841 0.10280929 0.24085343 0.13048258 -0.38049546 -0.019046564 0.20805039 -0.04073153 -0.21882354 -0.003476015 -0.07015136
66 0.011880509 -0.24397552 0.004482996 -0.2160173 0.22539836 -0.21856661 0.012120289 0.28005838 -0.24833198 0.14704494 0.4549301 -0.061856464 -0.19700466 0.24230361 0.059097875 -0.019441009 0.21561329 -0.10281053 -0.029552167 0.21548149 -0.41372332 -0.09008149 0.5378656 -0.11546164 -0.09668434 0.35249776 -0.40645862 -0.1403401 -0.42666966 0.046433136 -0.13198778 0.31236354 0.5975502 -0.13172077 0.4017775 -0.16496383 -0.006141597 -0.1883285 -0.0653039 -0.20326081 -0.23916088 -0.23326938 0.060063533 -0.58704484 0.01909996 -0.14376378 0.6910002 -0.0029031246 -0.029808745 -0.055600822 0.23985785 0.5976065 0.035977785 0.2221402 -0.02021164 -0.22258775 -0.6548508 0.050161928 -0.3993632 -0.22268671 -0.20262727 0.07122879 0.09144927 -0.06815664 0.08725033 -0.020868631 0.20128931 0.09006618 -0.056930594 0.11961617 -0.058993682 0.14812914 -0.024051538 0.09765859 0.44357255 -0.3053462 0.115820006 0.016576925 -0.23031893 -0.0055443114 0.095955335 -0.3208462 -0.21423447 0.3000608 -0.15593314 0.18246776 0.19169675 0.12886943 0.27233776 -0.13981551 -0.24824645 0.18704647 0.24035296 0.46293828 -0.20857087 -0.085714154 0.0030451315 0.03882985 -0.11680727 -0.054632794 0.015047104 -0.04033708 -0.022262806 0.06678878 0.18833278 0.08682982 0.27735588 -0.14337814 -0.20522006 -0.32986915 0.03377545 -0.36038855 0.54458106 -0.15739612 -0.09603489 0.67337215 -0.19630308 -0.49229065 0.14044596 0.042968873 0.23025465 -0.2463043 -0.23724174 -0.09272272 0.09980284 -0.082253836 0.06769308 -0.09850284
73 -0.27954382 -0.08095477 -0.18867469 -0.007173909 0.1663645 0.09984236 -0.010135371 0.07550628 -0.062802166 0.122237585 0.28440925 -0.18353148 -0.82943934 0.17936355 0.20077743 -0.17126295 0.3039241 -0.32327887 -0.2760627 0.22750787 -0.37557074 -0.02457702 0.44123033 -0.124769785 -0.0808818 0.052370843 -0.35311484 -0.12828086 -0.24554205 -0.015454189 0.046813145 0.16349393 0.3873278 -0.2238588 0.34071553 0.029585455 -0.080403864 0.08993737 -0.13002004 0.040996425 -0.32455572 -0.0997255 0.0169076 -0.56150216 -0.061214693 0.16783476 0.69566274 -0.2576824 0.23776509 0.15722667 0.19351476 0.081045724 0.2354475 -0.070603326 -0.108606964 -0.19930507 -0.5021458 -0.10667428 -0.53039306 0.07369048 -0.113338165 0.012199127 0.16577962 0.15185583 0.051891305 -0.011123074 0.04545067 0.08792284 0.096883565 0.15777656 -0.15727301 -0.1697343 -0.29601905 0.1794927 0.47233102 -0.22208688 0.16133049 0.067879684 -0.34336254 -0.44399372 0.0067740222 -0.10811709 -0.5881284 0.43740386 -0.13532647 0.19648464 -0.0033439607 -0.1245616 0.31244585 -0.037572153 -0.33594778 0.089933224 0.24729013 0.27103662 -0.3894138 -0.027999567 -0.09781489 -0.028514259 -0.120242424 -0.15509784 0.06383941 0.2861533 -0.07653879 0.31480843 0.19068198 -0.038021516 0.1354571 -0.054128647 0.08347376 0.00059627544 0.056280587 -0.33587846 0.2690251 -0.059568156 0.1662177 0.33962005 -0.113837026 -0.3830964 0.20211618 0.20482825 0.057290398 -0.36704615 0.007927303 0.08871298 -0.0153335165 0.19366185 0.10415026 -0.31529167
