2405 16
1397 0.028261628 -0.21294533 0.51292914 -0.5316192 -0.18086357 0.83097404 0.9668552 -0.3409607 -0.3034674 -0.49322906 0.28609622 -0.05238598 -0.2541591 0.638673 -0.13360174 1.1126418
1470 -0.21813835 0.016346755 0.5817608 -0.30977046 0.5129012 1.0930201 1.0679632 0.041173313 -0.03561804 0.22638045 0.28916317 -0.10468521 -0.49969554 0.57411647 -0.02475903 1.1025087
362 -0.44225335 -0.057044026 0.5024578 -0.6862115 -0.6130903 0.95833 1.1782718 -0.7894469 -0.42981842 -0.8418071 0.6364542 -0.027049918 -0.4258765 0.82071793 -0.027790358 0.9150653
226 0.44685307 -0.1494095 0.6555072 -0.4408555 -0.31291294 0.993618 0.6529291 0.103100196 0.20629527 -0.26398098 0.17014492 1.211586 -0.17789271 0.2268644 -0.17663251 0.7132346
750 0.10131562 0.30133003 0.3503163 -0.27501824 0.12854177 0.6738443 1.139953 -0.3817799 -0.18634833 0.31684133 0.2910384 -0.4747658 -0.56114227 1.2008364 0.3818317 0.6048501
489 -0.43343207 0.37981582 0.71939284 -0.30017528 -0.1735845 -0.5129822 0.86768526 -0.28217688 0.3200371 -0.30164438 0.21399814 0.046770122 -0.07462574 -0.041611865 0.23164384 0.28604224
1462 0.9674086 -0.3525142 0.43907145 -0.5575616 -0.16253185 1.0651857 0.6194454 0.17672145 0.42199785 -0.62698025 0.06308555 0.67829865 -0.56974727 0.22984806 0.30348334 1.2739792
1713 0.5594573 0.7774832 0.45288986 0.1158964 0.27411112 -0.7313841 0.88887155 1.1053209 0.3777249 0.17177159 -0.10509928 0.62932587 0.2361519 -0.011564619 -0.06295085 0.07948765
393 0.17863123 0.5338123 1.091543 -0.011751027 0.097680815 0.11994034 -0.06573832 0.78626066 -0.057120714 -0.10176874 -0.17693363 0.13924454 0.16198544 0.36837125 -0.117576204 -0.3914696
445 0.4326182 0.6913634 0.08794051 0.18877064 0.17517592 0.11899638 0.73784 0.18939798 0.28896186 0.049670536 -0.18353961 0.22561733 -0.25929448 0.55894774 0.15744977 -0.034507684
696 0.9413028 0.009188043 0.37668332 -0.25269294 0.13583289 0.21350601 0.7903412 0.48372555 0.5677178 -0.049594574 -0.700348 -0.22960763 -0.5537537 -0.24484721 0.29907808 1.0311607
1610 1.5737306 -0.1616946 0.36259413 -0.042823594 -0.36444694 0.62016255 0.7620252 0.51105607 1.0290924 -0.2175078 -0.3815994 -0.027847998 -0.9800344 -0.36886278 0.101859406 1.2917571
889 0.54129964 0.011732785 0.080118544 -0.5887493 0.09751262 -0.31500748 1.1102649 0.5829801 0.97666234 -0.11143802 -1.0840302 0.18710087 -1.247102 -0.484273 0.48085868 0.29535624
1615 1.4232835 0.72733635 0.21327926 -0.5188135 0.21026415 0.5126068 0.39276597 0.66031003 0.7852731 0.07179711 -0.35563016 -0.16779722 -0.2866745 -0.22987053 1.3335638 0.4952419
708 0.3515639 0.064580105 0.2745826 -0.85207 -0.5111961 -0.12452627 0.6933226 0.67296237 -0.0044724736 -0.14328276 -0.2124005 -0.772428 0.02415795 0.52741027 0.11289794 -0.20393068
713 1.0358083 0.49085236 -0.016974466 -0.48811248 -0.14864998 0.7528833 0.5135138 0.38050842 0.35732916 -0.37823683 -0.4188397 -0.7721218 -0.769555 -0.27260032 1.2137858 -0.057417445
718 1.3828303 -0.27550754 0.73233575 -0.7887549 -0.92529 -0.116147436 0.57505393 0.50505084 0.61074746 -0.03391638 -0.88852113 -0.46908182 -0.2080631 0.17312355 0.81286085 0.039424356
1630 1.5848281 0.89232653 0.25654334 -0.39494434 0.29277545 0.41428417 0.46353495 0.4441807 0.4912972 -0.17837037 -0.3972443 -0.42398992 -0.61925113 -0.3990349 1.2028388 0.06376874
734 1.3369237 0.1724153 0.14651293 -0.97696793 -0.8654285 0.40693197 0.39718273 0.05461036 0.13095924 -0.37080142 -1.0761532 -0.18071406 -0.7482503 0.19839124 0.45955414 0.5859132
776 1.4686389 -0.12194823 0.44214776 -0.8781978 -0.63219017 -0.188235 0.3545906 0.36978775 -0.18589583 -0.297214 -0.71646744 -0.33080065 -0.68622106 0.42639437 0.6380717 0.54926044
814 1.5171062 -0.05157462 0.23876467 -0.98557067 -0.71501154 0.006273563 0.55339855 0.11473176 0.34409368 -0.404406 -0.77499306 -0.26600236 -0.6554434 0.030304812 0.7986126 0.23955444
818 1.073721 0.36607847 0.32208204 -1.0298474 -0.7943307 -0.15011 0.29344353 0.07775005 0.08175589 -0.25882658 -1.0433168 -0.4872763 -0.88980466 0.057763077 0.43854463 0.38902763
1401 0.16137682 -0.08072226 0.5460007 -0.73223907 -0.22244869 0.87039346 0.9227942 -0.061523017 -0.039343946 -0.018305644 -0.3524268 1.3081635 -0.53019166 0.0741753 0.2501643 0.84241456
220 0.5764621 -0.6391782 0.64682055 -0.8467664 -0.3733388 1.1016141 0.98083955 0.5488779 -0.185695 0.070352465 -0.12493063 0.86654526 0.25998425 0.35948154 0.2435622 0.32659402
1412 0.45556295 -0.1977485 0.91568166 -0.22208601 -0.44508868 0.52318764 0.07206219 0.23963164 -0.08234323 -0.58724564 0.011740515 0.9256008 -0.6173328 -0.12367094 -0.120886795 0.8665055
1413 0.27858666 0.10801565 0.6523348 -0.5333774 -0.3403491 1.2119423 0.6344784 0.20560136 0.39971605 -0.009553743 -0.15933053 1.403254 -0.11788156 0.007986602 0.022651913 0.84790367
228 0.38620093 -0.12129936 0.55871177 -0.5011851 -0.32103866 1.0134811 0.44582194 0.4897381 0.43247262 0.21680407 0.054305937 1.3017855 -0.46738508 0.16095778 -0.04522992 0.5854839
233 0.23874538 0.20247479 0.6081627 -0.7608347 -0.39818722 1.0890431 0.6345726 0.14045289 -0.20927708 0.014173526 -0.27064738 1.2830999 -0.12939155 0.15954934 -0.11507859 0.63239104
235 0.07422858 -0.08887241 0.41016272 -0.5999796 -0.16876262 0.7621008 0.74753153 0.50639194 0.2807426 0.23818013 -0.15921111 1.2605826 -0.66568667 0.20909981 -0.3226718 0.57262415
1450 0.4004802 -0.18675785 0.7649711 -0.93899703 -0.32894158 1.0399872 0.6508553 0.14899895 0.31877923 0.020069031 -0.4513292 1.3885376 -0.2789513 -0.07406211 0.35314286 0.7273529
236 0.015850974 0.24317273 0.58613414 -0.39659512 -0.4437911 1.0859774 0.86780804 0.16831928 0.044457585 0.17939477 -0.007175442 0.9648066 0.21397707 0.54115605 -0.439885 0.98271966
1455 0.04281601 0.12718497 0.20236298 -0.8834872 -0.6728011 0.28065857 1.102925 0.26062557 0.609123 0.20223422 -0.35232297 1.5778347 -0.17621823 -0.30148664 0.9582714 0.98570716
1465 0.79165745 -0.14180914 0.44221804 -0.5932411 -0.5411841 0.8023682 0.32124007 0.16108994 0.14177088 -0.5769827 0.026222816 1.0309829 -0.71918994 0.07694148 0.06253882 0.86424446
1466 0.9423738 -0.33123314 0.63369155 -0.29404274 -0.26889658 0.92794085 0.5646866 0.24372838 0.1654236 -0.3826486 0.1802254 0.9788401 -0.37986892 0.08237123 0.22294155 0.8302197
1468 0.46331832 -0.6097319 1.1433498 -0.58225155 -0.09990922 1.0686209 0.29591906 0.22397165 0.5243637 -0.35340127 -0.4100552 0.90899897 -0.53144497 0.35461813 -0.13862595 0.9266263
243 0.32051995 -0.082739234 0.714877 -0.7012527 -0.54959756 1.0576488 0.87003267 0.18298377 0.05765539 0.24413113 -0.17257875 1.2251415 -0.028401 0.16868466 -0.23228604 0.6565225
245 0.3483331 -0.21289007 0.68158674 -0.71675026 -0.47266147 0.6303575 0.8466061 0.24943972 -0.43681854 -0.29955667 -0.025562383 1.2192404 -0.1613443 0.11778968 -0.30503765 0.7121291
1535 0.99856395 0.21844584 -0.14097749 -0.081716634 0.50647914 0.75723237 1.5376242 0.52831143 0.46582428 0.052969854 -0.2518049 -0.4238807 -0.35268682 1.2505258 0.25465217 0.3240142
780 0.9564779 0.7879214 -0.031298418 -0.039591804 0.47410735 1.8330467 2.1092756 0.8730032 0.9273774 0.5173739 -0.5447675 -0.71700114 -0.22082803 1.4382565 0.6175349 0.561187
1550 0.75780123 0.44014373 -0.21877564 0.07635735 0.49108595 0.37403423 1.4377036 0.48405835 0.41018462 0.1317299 -0.3788979 0.008581306 -0.38488182 1.1986526 0.2978817 0.30177003
2273 1.207063 0.7631063 0.010773546 -0.64446175 0.3400458 0.44699597 1.1004387 -0.16267774 0.14116181 0.2486705 0.17404386 0.15445378 -0.35425735 1.5070765 -0.01960124 -0.20538867
1616 1.4681755 1.2495133 0.12214135 -0.6656104 0.43293557 0.5104242 0.4618853 0.6407271 0.49674302 -0.20470542 -0.351023 -0.36456642 -0.56147414 -0.44190973 1.3569698 0.086406246
2158 1.7171425 1.2253658 -0.050165266 -0.54407775 0.53458464 0.60640633 0.9224678 0.6889289 0.72794974 -0.2579904 -0.36739326 -0.46999013 -0.43846402 -0.36592135 1.1799092 0.50744754
1624 1.3418504 1.4308045 0.18989283 -0.34966558 0.43282247 0.47534677 0.064096384 1.143599 0.32796198 0.19323091 -0.21180305 -0.17623244 -0.43869337 -0.38535434 1.0460912 0.33594775
2165 1.0588597 0.9540422 0.4318596 -0.4421545 0.75281745 1.009898 0.7880198 0.27372128 1.0846695 -0.11718317 -0.21785873 -0.6148293 -0.3593405 -0.45552135 1.0168077 1.1114055
2167 1.6808442 0.8422234 0.371787 -0.24676272 0.55201936 0.83200157 1.0744181 0.5201054 0.80755424 0.17619495 -0.5280153 -0.49491253 -0.4211817 -0.30606195 0.87875843 0.9851488
1631 1.2189373 1.2418936 0.13138859 -0.49010482 0.27292857 0.2980743 0.5954403 0.68671346 0.7214946 -0.10517805 -0.5826307 -0.38674715 -0.6686549 -0.6871873 1.4030279 0.15975718
1640 1.3107544 0.93385553 0.3053235 -0.6832991 0.644243 0.10629205 0.3852081 0.77003413 0.44129077 0.099276744 0.14455289 -0.35688478 -0.9155474 -0.6527592 1.3341095 0.31838867
1659 1.216359 1.2033846 0.1374991 -0.23269515 0.34302533 0.5876264 0.5940761 0.4897372 0.54006845 -0.085381515 -0.3589814 -0.5360594 -0.6234826 -0.32812825 1.5279192 0.026297117
1662 1.2183449 1.3251106 0.078184485 -0.16107592 0.511395 0.29916662 0.46021697 0.48980433 0.3591908 -0.1901907 -0.24993898 -0.5516296 -0.63852084 -0.26915506 0.945681 0.03431327
2280 1.6152412 1.1882601 0.38214254 -0.3512919 0.69465256 0.79656214 0.6650774 0.8569016 0.8405782 0.027825972 -0.3934814 -0.45907506 -0.3353148 -0.32512182 1.1699365 0.87830454
2307 1.7112117 1.1258398 0.22522022 -0.32542157 0.5257468 0.8455426 0.8696015 0.68629956 0.96415263 -0.03723144 -0.28969255 -0.38332832 -0.30317312 -0.4007537 1.2078701 0.802858
16 0.19750246 0.74416083 0.65040636 0.5927671 -0.2258492 -0.020375092 0.7917465 0.44460142 0.13132574 0.09301989 -0.12359767 0.38510343 -1.0168303 0.16381206 -1.2493131 -0.03570336
11 0.16858539 1.0604926 0.7905126 0.5887309 -0.018552758 0.25353518 0.46320045 0.22459306 0.12755796 -0.2094346 0.21338621 0.3204841 -1.3290251 -0.13722277 -1.322279 0.03312939
48 0.2656263 0.6764325 0.5820119 0.6221769 0.09796777 -0.018214995 1.3848437 0.64431065 -0.14097424 0.0051987595 -0.26810724 0.6010023 -1.0427899 -0.084599465 -1.2582209 0.58460957
68 0.50012076 0.49867973 0.55432814 0.29239976 -0.16779257 0.05804334 0.7768729 0.19476582 -0.12659195 -0.53473717 -0.13108894 0.74353164 -1.0378805 0.005629525 -1.2693765 0.56211257
67 0.5205784 0.76859033 0.30658484 0.7464621 0.06948884 0.037703436 1.1465342 0.38686126 -0.009537243 -0.031915806 -0.14420024 0.48882943 -1.0858479 0.24208944 -0.98541397 0.2536561
88 0.014413068 0.26726258 0.7411841 -0.46135187 -0.06206724 -0.30278125 0.85540783 0.39616776 0.3205594 0.38331705 -0.3378565 0.39293173 -0.98714113 0.22525957 -1.2816348 0.120811574
116 0.4379375 0.7424479 0.74728996 0.24515048 -0.30010855 -0.11867448 0.58339244 0.46069983 -0.29592395 0.5229491 -0.03318999 0.54987586 -1.4857203 0.18252069 -1.0845731 0.06892111
119 0.4229845 0.5605279 0.23657402 -0.07003579 -0.8356931 0.3226834 0.3911514 0.4411584 0.39523327 -0.039751377 -1.1928873 -0.51607513 -0.5870158 0.40140995 -0.33821192 0.049557645
493 -0.311516 1.1774396 0.53804445 0.3318856 -0.29068682 0.37342954 0.3760712 -0.06328921 0.7282275 0.0014876571 0.9663432 -0.13685082 -0.6600655 0.1831193 -0.61424834 -0.14051984
167 0.33153117 0.8053506 0.4051738 0.5979832 0.077476494 0.045720328 1.1539295 0.33461535 -0.030619787 0.014023198 -0.21955216 0.8113063 -1.3149894 0.23215595 -1.1170578 0.18751208
181 0.09586209 0.8082128 0.553504 0.63852274 -0.38558826 -0.07444912 1.0325772 0.37943155 -0.121539265 0.0882202 -0.19614008 0.8801023 -1.1145078 -0.19844767 -1.006301 0.289696
15 0.058813006 0.8342309 0.64886445 0.43881172 -0.15556553 -0.34465393 0.98244447 0.23570527 -0.097475216 0.07386057 0.079859786 0.75104886 -1.1542231 0.03406921 -1.1064847 0.23992467
64 0.21046309 0.7207058 0.7859042 0.42802513 -0.14492662 -0.25736472 0.98768264 0.33482787 -0.05509817 0.19612432 -0.11992219 0.8414539 -1.2618982 0.060842842 -1.2472156 0.23069508
66 0.23349865 0.92798877 0.62596726 0.5331304 -0.07987234 0.025614722 0.6900937 0.4243765 -0.017018657 -0.036544126 0.14966346 0.3613713 -1.4607574 -0.16825287 -1.2475945 0.09103569
73 0.19548512 0.75848776 0.51953596 0.3731945 -0.037287768 0.06070963 0.8647564 0.5437299 -0.06180032 0.3150018 -0.061560337 0.9910921 -1.1992861 0.03831021 -1.0290253 0.27793822
92 0.16881917 0.73359114 0.69503623 0.36274546 -0.09767408 -0.40404496 1.0875795 0.23123163 -0.0067788386 0.12243166 -0.08183247 0.796936 -1.2023338 0.0808467 -1.2462254 0.2765703
172 0.44844246 0.8401854 0.56002456 0.41463542 0.07682607 -0.15513423 0.9149394 0.27238065 -0.069193915 0.1418445 -0.12632088 0.547981 -1.176492 0.14472729 -1.1572212 0.047740523
186 0.4505622 -0.14563105 0.27500463 -0.13050526 -0.25678545 0.3368688 0.10047109 1.3451712 -0.15325692 0.2982491 0.12399602 0.16219497 -1.3127116 0.40143514 -0.06940002 0.6997787
63 -0.24681117 0.18883502 0.5760514 -0.27633488 0.21171378 -0.011110737 0.87882906 1.2194706 -0.061227925 0.18471116 -0.4755407 0.04811688 -0.38261712 -0.1431556 -0.37181625 1.1209548
436 -0.088259466 -0.12089985 -0.029489232 0.65991205 -0.5355855 0.13292016 0.61963195 1.605484 -0.07422289 -0.5952746 0.4127725 -0.17004797 -1.0665946 0.7570066 -0.3076766 0.21967348
100 0.10842858 0.5620793 0.49322397 -0.31221253 0.12515804 0.6694327 0.36385858 1.2175797 -0.102472864 0.6568375 -0.4399506 0.15669051 -0.8527903 -0.09985716 0.15800112 1.2415012
101 0.021232756 0.19632727 0.57789344 -0.23647176 0.30603212 0.09121673 0.68447316 1.3664987 0.15237926 0.58443815 -0.50816214 0.20543538 -1.0902376 0.07781615 -0.22123656 1.2847047
107 -0.45088625 0.5591277 0.6409523 -0.663422 -0.24315391 0.73119515 0.08911416 0.92107326 0.012149134 0.8735033 -0.25206527 0.6259046 -0.7570992 0.29447836 0.010590365 0.63187045
458 0.908094 0.29612762 0.49689668 -0.66039413 -0.2534848 -0.08118021 0.09804408 0.48959714 -0.2558858 0.44484246 0.0917973 -0.3992152 -0.94941133 0.6182846 -0.11843451 -0.35390213
1443 0.7860168 -0.13916737 0.26127827 -0.2432984 -0.28774616 0.59500766 0.37388313 0.58420146 -0.23663191 -0.58298004 0.14132781 0.8884918 -0.9101661 0.09674862 -0.030828077 0.78163123
1445 0.90022117 -0.24024603 0.49394092 -0.40687084 -0.67381555 0.91845995 0.38545296 0.02816162 0.2988127 -0.3995105 -0.15259416 0.45735857 -0.73983985 -0.092809536 0.05395337 0.93945557
133 0.23950234 0.3711993 -0.0065729446 -0.13765953 0.19119412 0.24037531 0.84115124 1.6074529 0.12139259 0.1757692 -0.59980965 -0.04548015 -0.8404048 0.068716004 -0.2445376 1.1303526
1567 -0.5355358 0.20898484 0.66660506 -0.8768467 -0.6029949 1.747228 0.17833562 1.5954709 0.74377704 -1.4075534 -1.0905845 -1.0354195 -0.43485066 0.5231656 1.074224 0.30204204
890 -0.4007873 0.2015144 0.24672477 -0.33772466 -0.5442276 1.0727847 0.17256817 1.6478565 1.1619468 -1.5903043 -0.88421035 -0.4685157 -0.7099141 0.5360941 0.6034688 -0.21256244
1592 -0.6640529 0.12645644 0.6907379 -0.9699642 -0.64517796 1.4784049 0.12460495 1.7404661 0.6105699 -1.6743324 -0.9839242 -0.9541097 -0.61995715 0.651002 1.2155466 0.1894224
1597 -0.5821038 0.17275904 0.50837606 -0.9017167 -0.7192246 1.8884068 0.26405144 1.6294903 0.8784045 -1.4315567 -0.56610817 -0.9332071 -0.391645 0.41346323 1.1608267 0.019833758
1601 -0.4865913 0.3310603 0.5492029 -0.7631081 -0.94149894 1.6558087 0.022296216 1.8552378 0.9811897 -1.4187406 -1.1528755 -0.6437371 -0.30019495 0.83023477 1.066821 0.04964466
1398 0.95490867 -0.2087289 0.31661895 -0.2536475 -0.38316113 0.93267894 0.6928222 0.30796212 0.08271516 -0.7186873 0.17340532 1.0855523 -1.174533 0.067453615 -0.39992788 0.8169119
1005 0.38824642 0.78541106 0.088080905 -0.7542629 -0.29609093 0.68498963 0.19588628 -0.25300753 0.60884166 -0.16718194 -0.7122713 -0.05456926 -0.7424606 -0.096970014 0.67748666 0.8960397
695 0.31777063 1.2168221 0.28376877 -0.41020533 -0.034831356 1.2071056 0.48213673 0.006497413 0.4655155 -0.16283087 -0.8601328 -0.41812715 -0.47789332 -0.52338415 1.1192585 0.7952212
700 0.4217263 1.10477 0.10746098 -0.8721052 -0.13821891 0.71313673 0.5591151 0.0008410097 0.16216028 -0.074999586 -0.61149454 -0.57562804 -0.57641906 -0.6827293 0.8504298 0.60388714
714 -0.3172321 0.87173605 1.0345355 -1.121229 -0.22486752 0.26367113 -0.18545313 -0.4480548 0.5212558 -0.30065665 -0.51928025 -0.43435013 -0.528431 -0.0990672 -0.22750589 0.38632652
722 0.07314552 1.1299065 0.10844836 -0.84402233 0.03518751 1.3614058 0.36217472 0.40542912 0.43688017 -0.57772654 -0.9403353 -0.58594763 -0.37602675 -0.3501162 1.0170637 0.94820845
663 0.013565134 1.1808262 0.09652694 -0.7707061 -0.0036533084 0.9017166 0.20278406 0.6189458 0.10996923 0.22685848 -0.40207398 0.0015911165 -0.32429534 -0.25880355 1.1443404 0.8952378
788 0.24498655 1.1423247 -0.10369147 -0.9502124 -0.08699105 1.2145149 0.54331017 0.12884387 0.65272933 -0.33385 -0.53981876 -0.16715024 -0.5154964 -0.5532619 0.8475758 1.1930287
1018 0.07098995 0.96986336 -0.026208915 -0.7789768 -0.48298055 0.99768263 0.072087176 0.031062711 0.5721083 0.6079634 -0.5918967 0.5359633 -1.4277085 0.36669692 0.6707089 0.8757426
509 0.087396435 0.5191732 0.77274 -0.34961793 -0.7206344 -0.42002 0.239581 -0.22836597 0.561996 -0.28487828 -0.19330977 -0.4684102 0.117119715 0.5608927 0.07377733 0.6039666
811 0.12064697 1.4502039 -0.10750103 -0.47301352 0.06182984 0.9774327 0.42590782 -0.05295072 0.58249867 -0.2236823 -0.3457769 -0.28955677 -0.44397315 -0.12172022 0.7987621 0.8462155
1481 1.098578 0.22599494 0.18791245 -1.1908897 -0.8120561 0.34043127 0.25315917 -0.18892193 0.4091846 -0.4579784 -0.9360056 0.110725835 -0.96835035 -0.14759181 0.67385745 0.5782202
1891 -0.10656064 1.3664573 1.0989612 -0.26994574 -0.21601625 -0.23381191 0.46096662 -0.9783331 -0.1466292 0.58846194 -0.14097632 0.6404917 -0.9031515 0.088041835 0.6371225 0.0520709
390 0.49228004 0.8969909 0.39682448 -0.44315377 -0.28958482 -0.14515537 0.4224128 -0.05567969 0.8926256 0.28968632 0.56677896 -0.12377532 -0.15312466 -0.41946796 0.46602654 0.28334838
277 0.44211587 0.85140175 0.48215583 -0.38712674 -0.6196675 0.042540215 0.22472548 -0.082542256 0.5885089 0.4042801 0.22644067 -0.5825538 -0.2984739 0.0869847 0.3382188 -0.23765571
434 0.30947897 0.7270052 0.897441 -0.4586427 -1.0330354 -0.2767994 0.20376804 -0.003721988 0.107481614 0.22264394 0.7228779 -0.3211933 0.056130096 -0.48456576 0.33354923 0.4605606
960 -0.19341548 0.6649246 0.55963796 -0.843002 0.53359973 -0.455908 0.4597091 0.35470545 0.86503303 0.18922423 0.7014949 0.06087087 -0.8033111 -0.49537864 0.67785656 0.12139697
475 0.24520405 1.0351461 0.7150888 -0.074622296 -0.63638914 -0.1794615 -0.15963295 -0.29369375 0.9690639 -0.1580854 0.76988125 -0.104448654 -0.2912578 0.03482927 0.31887072 0.49418455
346 0.7298342 0.92999834 0.6042053 -0.1309261 -0.70616233 0.44537187 0.6203391 -0.36159992 0.4363114 -0.34135887 0.27425334 -0.0075774547 -0.012452096 -1.2288941 -0.03275413 0.66475254
1716 0.30498412 1.7358772 0.16828804 0.34196523 -0.93475646 0.13987076 0.7656403 0.5363962 -0.065468706 -0.54810715 -1.1883978 0.20614232 0.23916489 0.55028474 0.2813263 -0.2107145
1717 0.097946644 1.1797585 0.4502839 0.7415655 -1.0386707 0.08810513 0.77347696 0.4639244 0.01900409 -0.22792092 -0.57209903 -0.15043946 -0.060776185 -0.25737384 0.04332914 -0.35005888
1718 0.12532762 1.4533347 0.4324825 0.68457264 -1.330319 0.54447466 0.562136 0.7972198 0.14809927 -0.17960209 -1.0546883 0.047251895 0.12920447 0.54328376 0.060337786 -0.03236659
400 0.3435515 1.2442266 0.13922565 -0.0014975474 0.042143006 -0.3968131 0.38407403 0.4590553 -0.1376504 -0.34190783 0.027080337 -0.53720605 -0.53429073 0.45919517 -0.049122706 -0.19387105
410 0.43504345 1.1559782 0.29927802 -0.24621859 -0.5783962 -0.00072236394 0.53101146 0.33460197 -0.45386755 0.45128033 -0.433294 -0.24237604 -0.24364607 0.39100835 -0.09528269 -0.29625982
2159 0.88529843 0.81976765 -0.008686991 -0.74390954 0.08580746 0.009310897 0.7917121 -0.21133845 -0.26533678 -0.776686 -0.28995603 0.24777754 0.12856373 0.5900361 0.782262 -0.3778519
1745 0.40244934 1.5903068 0.33892468 0.62003154 -0.909954 0.3604472 0.81905186 0.5537876 0.22338563 -0.3592013 -1.1613209 -0.044245284 0.15141198 0.3908437 0.0057323785 -0.24587508
1765 0.40153906 1.7259 0.24075341 0.7926506 -0.7299049 0.3192682 0.67671704 0.9800997 0.13724045 -0.045025855 -0.96583456 0.38669974 0.057985574 0.32589698 0.2568397 -0.06345692
1799 0.26285875 1.9173045 0.20887049 0.7842027 -1.3072926 0.5591428 0.7066221 0.51220906 0.19383454 -0.5241388 -0.9253272 0.3409159 0.110284 0.4143289 0.14383404 -0.26256028
1805 0.64172053 1.6725291 0.35905325 0.930907 -1.2118295 0.5925858 0.53375524 1.0694702 0.16566135 -0.493429 -0.9065085 0.11365756 0.1660771 0.46155235 -0.05216518 -0.15928876
1815 0.19074172 1.5284982 0.28482088 0.69678026 -1.1641101 0.23759489 0.61574346 0.7384416 0.023258414 -0.18329568 -0.9317415 0.08133575 -0.08772852 0.44778222 0.21720895 -0.32040343
1829 0.30482754 1.70656 0.5321312 0.7515173 -1.0909681 0.3335736 0.58474255 0.7365475 0.14900357 -0.41473547 -0.99462914 0.33162388 0.31023195 0.4042706 0.111505814 -0.20943896
1840 0.25509804 1.3780587 0.4175939 0.94597983 -1.2009486 0.40248284 0.4504856 0.8340983 0.27561358 -0.39602768 -1.0909977 0.049753178 -0.20240982 0.5396617 0.17854592 -0.35373682
1855 0.32946548 1.7806258 0.48009044 0.81834793 -1.2571127 0.4780429 0.7821594 0.63168657 0.13441637 -0.39701647 -1.1510257 0.32432625 0.3286886 0.32976916 0.12316576 -0.10503631
1865 0.3597945 1.7797974 0.43190882 0.9130691 -1.2421707 0.50809187 0.76101524 0.70853513 0.2268828 -0.4353825 -1.031323 0.2260673 0.19771369 0.29896402 0.19482687 -0.17706946
1783 0.50886375 1.5608572 0.5385224 0.85319436 -0.7293025 0.4129214 0.827602 0.2633589 0.15547882 -0.407426 -1.2246941 -0.102608144 -0.104458794 0.18841428 0.19663483 -0.31704313
902 -0.17442851 0.60707885 0.39894253 -0.7240669 -0.6089206 -0.8482967 0.928471 0.2467178 -0.53503627 0.17655322 0.2625856 0.39070237 -0.5292489 -0.48472124 0.8213469 0.15520331
1247 0.15494391 1.3925074 0.13610698 -0.816864 -0.7855756 -0.7585347 0.2788833 0.01553237 -0.05320235 -0.16600761 0.757836 0.5707853 -0.2296848 0.43369737 0.40920356 0.55771863
933 -0.012927681 0.5112491 0.033873174 -1.0068886 -0.8098165 -0.48432317 0.74308056 0.32967627 0.52759206 -0.19773054 0.078104 0.7714587 -0.03300738 -0.47277278 1.2309436 0.43176386
682 -0.71685654 0.38050902 0.64761704 -0.91441685 0.26554435 0.39528844 0.34660006 0.6154778 -0.05221188 0.41178694 0.1910978 -0.26623598 -0.4893662 -0.09913087 0.84268135 0.17462866
23 0.34606117 0.7517934 0.86977273 -0.4616354 0.31428847 0.17328857 -0.46573526 0.9808752 0.39058 -0.33550194 -0.07586234 0.44564524 -0.75514555 -0.38826427 -0.6045249 -0.30323437
391 0.672344 0.36986676 0.54923993 -0.9250095 -0.1404903 0.19190344 0.14233768 0.8789635 -0.3570421 -0.5472278 -0.099792294 0.09286896 -0.107026204 -0.3879783 -0.69605213 0.3739893
25 0.37711006 0.7135639 0.7872117 -0.80137753 0.37525287 -0.12112313 0.4146574 0.54631656 0.49620682 0.13586654 -0.39182726 0.2737911 -0.93170553 -0.21385233 -1.1605363 -0.27535155
89 -0.021254988 0.3927943 1.0833253 -0.69348836 0.08234273 0.8736915 -0.108164296 0.86158484 -0.19987324 0.6857885 -0.053415023 0.5949347 -0.7521998 -0.30135092 -0.00044659767 0.508732
980 -0.09810072 0.5132414 1.0735332 -0.02758714 1.0426197 0.4394391 0.09509143 0.3704158 0.41205513 -0.07804016 0.11554064 -0.27458146 -0.5818522 0.14060666 0.39171326 -0.18672965
1394 -0.52938694 -0.26988342 0.40025386 -1.3335251 0.5249523 -0.13583975 0.98481953 1.3415715 1.1988873 0.21908322 0.33607727 0.45416957 -1.1361748 0.11008247 0.9795798 -0.092060514
1545 -0.37575978 -0.27697214 0.24130706 -1.5210885 0.52434075 0.12939057 1.1540045 1.4373431 0.98255545 0.14362623 0.1632698 0.548539 -0.8213731 0.34916905 0.95233554 -0.50673574
887 -0.43391818 -0.46279958 0.24510075 -1.3128173 0.35306588 -0.2146541 1.5889782 1.225459 0.95873773 0.24491104 0.08567222 0.6862174 -0.9893239 -0.0033792977 0.75647324 -0.14202362
893 -0.6035251 -0.41257843 0.32818773 -1.0261172 0.38511488 -0.26025838 1.3522148 1.4195995 0.9483555 0.16247563 -0.2621688 0.70358026 -1.0591604 0.23965712 0.6718251 -0.28385267
289 -0.3380255 -0.32625926 0.41520926 -1.4334192 0.59067136 -0.23778199 1.1527094 1.420566 1.0718296 0.1753583 0.03313578 0.7546398 -0.9611957 0.07635118 0.8281036 -0.18016537
931 -0.54000413 -0.6133431 0.44828165 -1.3105214 0.52975476 -0.026492603 1.2127088 1.2844658 0.87021977 0.19573894 0.1205818 0.87375623 -0.9386661 0.20834008 0.6361935 -0.011816172
950 -0.6186206 -0.3939424 0.60438436 -1.4948229 0.62404954 0.080801986 0.9426494 1.2277352 0.8637069 0.38428056 0.20955804 0.26095185 -0.98575336 0.20955475 0.9954036 -0.040905084
975 0.06760473 -0.14977203 0.26669353 -1.4161712 0.5559799 -0.42996114 0.61743015 1.2395031 0.8074233 0.3173796 0.39704362 0.527645 -1.0176375 0.3558779 0.51096267 -0.26646987
999 -0.5802901 -0.20807472 0.41446847 -1.3095069 0.5666486 -0.19040518 1.1427171 1.0818849 0.9944393 0.25119734 0.10968228 0.65920943 -0.74448335 0.16236505 0.9748279 -0.032983836
955 -0.30770457 -0.26873916 0.32477123 -1.1102371 0.48870876 -0.46181896 1.2017028 1.5668433 1.0780064 0.28067264 -0.15859313 0.7934055 -0.99542755 0.17176262 0.7641081 -0.013773534
341 -0.28145763 -0.4254111 0.3341924 -1.2423683 0.5898495 -0.24106842 1.2515053 1.3080932 1.0591431 0.08247224 -0.07518323 0.8697832 -0.95326746 0.1988441 0.7326008 -0.17577638
1555 -0.5367986 0.2217219 0.35482308 -0.9457274 -0.68703616 1.3510543 -0.019199278 1.5305132 0.47851387 -1.4923002 -0.58005685 -0.8565176 -0.6816138 0.6727886 0.9521549 -0.22576177
1619 -0.5368149 0.23423775 0.5891825 -0.68222624 -0.77138305 1.2153907 -0.022721991 2.018777 1.1723648 -1.8984666 -1.1950259 -0.5471557 -0.8406478 0.94147974 1.079276 -0.1936683
1575 -0.59182775 0.014274703 0.4872355 -0.7769737 -0.5922519 1.0164583 -0.07429745 2.0573947 0.9770654 -1.6325005 -0.9005701 -0.4148405 -0.6938983 0.85226804 0.9747195 0.07725192
1600 -0.55350417 0.22693923 0.7352641 -1.213387 -0.4969218 1.6706592 0.08946443 1.503429 0.4822823 -1.3310999 -0.748129 -1.29298 -0.64088786 0.26059484 1.3065886 0.056186665
1585 -0.6535255 0.15665129 0.6489782 -0.9780277 -0.61193717 1.3620499 0.0010670519 1.70089 0.6180339 -1.612733 -0.7615173 -0.90396446 -0.75892794 0.5910148 1.3149981 0.07125407
1565 -0.24799766 0.15744749 0.27167135 -1.1182985 -0.5080683 1.136471 0.070989594 1.2209599 0.017741758 -0.9184833 -0.13094991 -0.9909361 -0.8107683 0.047864154 1.3503894 -0.14783958
27 0.35463458 0.8897051 0.39720532 0.21487823 0.3534595 0.08301946 0.5026317 1.029514 0.27927497 0.14711408 -0.30887935 0.31191748 -1.1253864 0.027766317 -1.0029773 0.54435945
43 0.11017081 0.69243807 0.8031585 -0.35816902 0.07024359 0.15071355 0.0146830985 0.5805671 0.22167008 0.085019894 -0.47310996 0.19300887 -1.1152784 -0.12670389 -0.921756 -0.14153448
60 0.45200107 0.90443975 0.30204338 0.50042444 0.23603906 0.022233833 0.871046 0.4938356 0.1458196 0.005657348 -0.17643444 0.43189576 -1.0234889 0.10968742 -0.95076865 0.28253424
85 0.22133498 0.9257417 1.0618974 -0.4513406 0.26265597 0.1619078 -0.05681037 0.49609664 0.27401137 -0.16038708 -0.625131 -0.046509836 -1.1832583 -0.120857365 -1.0978651 -0.39426333
160 0.5838983 0.44958097 0.7673695 -0.6600338 0.38012484 0.37798527 -0.10288311 0.95075494 0.458116 -0.2903053 -0.21561666 0.12651241 -0.55836034 0.12049872 -1.1498097 0.0382875
216 -0.09391994 0.5823809 0.81112766 -0.62556416 -0.25185925 1.3093486 0.2778608 0.5043694 -0.22630899 0.6632839 -0.4166244 1.0714178 -0.4477558 -0.09708711 0.03516942 0.3990138
31 -0.085711256 0.5249973 0.54419154 -0.54498094 -0.47266266 0.6182936 0.10033421 0.6776218 0.14189003 0.7669968 0.030389568 0.66492975 -0.82660276 0.08243793 -0.34945157 0.6307057
69 -0.029010868 0.5554245 1.0533814 -0.532295 -0.10993623 0.5274913 0.10228829 0.1116764 -0.4139557 0.40714034 -0.48055086 0.570133 -0.8356504 -0.41462198 -0.18204239 0.08412753
70 -0.24690354 0.697728 0.823779 -0.3986367 -0.35857472 0.92077607 0.12943321 0.74529177 -0.25445944 0.8767066 -0.24137087 0.9506177 -0.8852407 0.047279134 -0.0472897 0.62366444
221 -0.015165172 0.74691427 0.6737565 -0.5799058 -0.39412957 0.97412354 -0.2070098 0.8244529 0.018746085 0.7347157 -0.18491767 0.86803335 -0.8106052 0.11275359 -0.00088310475 0.76994354
222 -0.04574929 0.78335404 0.6663445 -0.52566624 -0.044690173 0.69455653 0.40880463 0.8413677 -0.06841395 0.8815762 -0.001561904 1.4942694 -0.3157468 0.21322526 0.03199712 0.56924486
223 -0.09380471 0.496095 0.75802964 -0.6594689 -0.20149444 0.9684085 0.35012072 0.4573628 -0.123838276 0.66768986 -0.29762143 1.3565139 -0.6767826 0.037919827 0.04204087 0.52237386
666 -0.43146357 0.7486863 0.39799494 -0.4162805 -0.2320223 1.1967242 0.63187253 0.2191675 -0.72081643 0.24491896 -0.51472044 0.30854204 -0.13283992 0.27295756 0.2910336 0.5069215
124 -0.036520183 0.85115784 0.5183528 -0.2718224 -0.11507142 0.27978718 0.38992566 0.8122152 -0.21601202 0.4885411 -0.19987445 1.2072119 -0.7805655 -0.14161502 -0.36257613 0.81137365
234 0.014666422 0.51623476 0.8022839 -0.54372495 -0.2721365 0.9435639 0.15879613 0.7764179 0.011746774 0.79798657 -0.18559685 1.0586578 -0.5940917 -0.053159688 -0.08996981 0.59526867
142 -0.14580369 0.67741877 0.76797754 -0.50969553 -0.35755056 1.1752704 0.070177235 0.7940835 -0.18662916 0.8446995 -0.043619126 0.9440523 -0.9407478 0.13617752 -0.13339202 0.69640374
247 -0.092165954 0.12269502 0.65472233 -0.85859865 -0.5392107 0.8012676 0.5057174 0.54196537 0.3080748 0.4659199 -0.22490981 0.98803425 0.09475481 0.06453151 -0.36792246 0.38532665
399 0.73129195 0.49153057 0.43612316 -0.10720364 -0.23201534 0.06871974 1.5119083 0.105379455 -0.38084173 0.80137604 0.3582527 -0.17851788 -0.19157009 0.15863875 -0.0032536003 -0.2562031
416 0.33747673 1.112089 0.45321697 -0.27606827 -0.501491 -0.5640726 0.7425348 0.036777906 -0.539381 0.4484312 -0.25759426 -0.22454724 -0.6230144 -0.08682325 0.11213891 -0.06007112
1497 0.5714688 0.6906467 0.22344247 0.7438 -0.018759955 0.04181495 0.39223137 0.8678567 0.6634112 -0.5737008 -0.54587847 -0.6485772 -0.90491563 0.1901465 -0.08456274 -0.13932706
1498 0.055655673 0.42213017 -0.18841627 0.573804 -0.04840695 0.30618405 0.82901454 0.9979944 0.5479812 -0.54208434 0.07244199 -0.66012037 -0.72476935 0.76086026 -0.29342687 0.3172681
1509 0.08056517 0.35038078 0.67204404 -0.6701424 0.5078534 -0.11289745 0.98598206 0.08734147 0.04906628 -0.28080592 0.08139791 -1.0925688 -0.38733834 0.3240631 -0.11004535 0.041200016
885 0.54959995 1.9744502 -0.11802104 -0.03431305 0.31603402 -0.38901076 0.47981292 0.9815767 -0.4523246 -0.6736694 -0.21688284 -0.7737119 -0.7568254 0.61810386 -0.03386993 0.29909155
525 0.560882 0.721812 0.55526274 0.0012762413 0.06390184 0.5110978 0.6585808 -0.2458968 -0.08097202 -0.10283436 -0.53748745 -0.5692007 -0.5373353 -0.08346153 0.25713852 -0.32918286
2312 0.27745232 0.5206292 0.86294305 -0.3332845 0.5875959 -0.09533731 0.7434302 0.8297556 -0.5831729 -0.2740459 -0.16921012 -0.8201421 -0.092161834 1.0916319 0.3196588 -0.36473107
14 0.46298462 0.8343943 0.6011283 -0.98617285 0.14168881 0.0294015 0.0047620633 0.924532 -0.09345322 -0.5404159 -0.6405936 0.112328716 -0.4875969 -0.58722633 -0.709871 -0.057643484
30 0.19114652 0.72286814 1.6141716 -0.58670866 0.27257743 0.24373876 0.08881434 0.45034745 -0.3807942 0.21708982 -0.67936236 0.24053924 -0.88070273 -0.09723924 -0.7980981 -0.8990635
41 0.25045642 0.69960666 0.64579755 -0.33423007 -0.049638685 0.28843752 -0.13446645 0.5753054 0.17585437 0.19907047 -0.60136676 -0.10586764 -1.2614502 -0.022192273 -0.32201222 -0.6467021
49 -0.36948252 0.7057973 1.2539241 -0.98889977 0.047846593 0.10719764 0.09723331 0.0041539767 0.5314957 -0.06784738 -0.8082909 -0.16464835 -1.0187882 -0.17189655 -0.9503468 0.1840257
51 0.21744353 0.23941159 0.9174831 -0.38713706 -0.2151609 0.20994082 0.39708754 0.9451769 0.6372735 0.75883955 -0.51325154 0.24227844 -0.51690906 0.024129512 -0.8912978 -0.08469149
52 -0.24280049 0.87518764 0.67600596 -0.37633172 -0.25647458 0.8407951 0.0045098006 1.0225978 -0.1261455 0.74683833 -0.15048979 0.71044517 -0.93300915 -0.13006507 -0.27360857 0.57357275
654 -0.45211875 0.6568631 0.35845625 -0.40865397 -0.01539897 0.2128917 0.7561932 0.8668292 0.13681874 0.40457562 -0.42510507 1.0641108 -1.1071014 0.18074256 -0.9221193 0.4442421
58 -0.65110016 0.81886506 0.69507563 -0.83016664 0.23660822 -0.015436036 0.06939265 0.34374058 0.74871296 -0.007085078 -0.538009 0.083596624 -1.2493845 -0.311083 -0.36570555 -0.26848158
76 0.31124997 0.6175609 0.6372304 -0.9245758 -0.48147038 0.50860274 -0.25736657 1.2124513 -0.4576282 -0.32238814 -0.06544686 0.5317537 -0.41772357 -0.5049512 -0.75607646 0.15528716
77 0.26824495 0.57689023 1.375222 0.0338672 0.76017576 0.14155973 0.22200826 0.36217922 -0.07484455 -0.49315754 -0.5762754 0.4137956 -0.91012734 -0.3117834 -0.629054 -0.6812049
1467 0.8156029 -0.05469736 0.45889917 -0.7822652 -0.47887754 0.48485827 0.35150537 0.022223966 0.30913678 -0.47839317 -0.09723058 0.8809311 -0.5772357 -0.042742766 -0.080688246 0.94191366
397 0.1796709 0.27983057 0.4740835 -0.15049171 -1.1551121 0.18680449 0.39338082 0.32351577 0.048297245 0.7018996 0.08638343 -0.3437602 -0.5987249 0.219228 0.32872662 -0.49894902
841 0.37797952 0.24996555 0.9628101 -0.45727098 -1.3444877 0.3720935 0.3090647 0.1872462 0.26579186 1.0926601 -0.0020965966 -0.5502075 -0.8449182 0.48997167 1.0474862 -0.7816353
1746 -0.45230976 0.5694241 0.4729641 0.6500637 -0.4290834 0.13431048 0.6213781 0.18977177 0.58621675 0.32244813 -0.31785774 -0.025892263 -1.1298711 -0.24784899 1.2424966 0.12076799
435 0.37501684 0.29089296 0.7716526 -0.49468952 -0.93416905 -0.11007911 0.5088956 -0.012976905 0.46463627 0.7473133 -0.114772886 -0.6330097 -0.4061467 0.26070362 0.75502956 -0.3341373
464 0.41151986 -0.13571616 0.95849544 -0.2793543 -0.9251019 -0.45183963 0.8908984 0.6136398 0.86424327 0.65161777 -0.16139115 -0.29351646 0.10620158 0.03767242 0.28190452 -0.47891006
1663 -0.09061135 0.19720332 -0.14045915 -0.37414032 -0.3305471 0.5359671 0.89152646 1.3497903 -0.018761091 -0.68324524 0.24608271 -0.5444068 -0.3309339 0.3467764 0.35201177 -0.5594412
485 0.69681215 0.39812234 0.77914065 -0.4674957 -0.28961447 0.23581256 0.23057626 0.64920986 -0.42290595 -0.032152984 0.22140865 -0.7096528 -0.012236347 0.60354 -0.19195764 -0.5210118
984 0.11811793 0.2898642 0.4880543 -0.8239721 -1.5466212 -0.66117936 0.73702973 0.5323802 0.8205785 0.5859495 0.08041386 -0.10499057 -0.1986685 -0.37881684 0.97978455 -0.279272
623 0.30117574 0.18764271 0.7638725 -0.9186923 -1.5389477 0.21901107 -0.017187359 -0.3437009 0.72598153 -0.32024497 0.74928814 0.22070032 -0.45704097 0.025766728 -0.21567412 -0.22303782
624 0.34021106 0.15065242 0.93117553 -0.5039247 -1.0537314 0.18960592 0.12952748 -0.27253968 0.7145616 -0.38832158 1.2521876 0.22424541 -1.1765504 0.27933362 -0.1147279 -0.9118692
531 0.37321767 -0.33269235 1.0090681 -0.29187453 -1.184954 -0.311915 0.92233396 0.3656737 0.82522815 0.61217797 -0.33675015 -0.5201462 -0.32129025 -0.070768945 0.23027684 -0.36019477
856 1.0809752 0.25812313 0.21535358 0.19677685 -0.40848994 0.5728752 2.0506985 0.49993083 -0.028307537 0.5829218 1.1052628 -0.8579881 -0.39007527 -0.12944031 0.22402124 0.21782409
2393 1.2238414 0.004994658 0.39211127 0.5230212 -0.35044864 0.68783087 2.4441009 0.53309345 -0.16843277 0.6654922 0.6759506 -0.36821413 -0.25287056 0.5315159 0.34132987 -0.06042188
1311 1.4194403 0.3877757 0.40322566 0.35304672 -0.612177 0.7259361 2.3009367 0.596408 -0.48247042 0.7737253 1.1082835 -0.4592146 -0.06016592 0.057602633 0.5010094 0.027511787
0 1.1878977 0.2201987 0.6767232 0.269211 -0.48158038 0.69014174 2.1556222 0.5320888 -0.69592315 0.87001085 0.94780385 -0.21552368 0.02835829 0.24512735 0.55118734 -0.19225642
496 0.6201415 0.40627632 0.65142643 -1.0710212 0.34828794 -0.03888219 0.6378052 0.103600815 0.23241179 -0.124960616 -0.3101849 -0.11841801 -0.34784245 -0.102077514 -0.8180753 0.009731677
1036 -0.095777474 0.13769536 1.0177734 0.4243314 -0.48163113 -0.7732253 0.2608179 0.21314105 -0.03987149 -0.4339644 -0.10831602 0.38260412 -1.3599895 -0.14874436 1.0001541 1.0103443
1064 0.15940516 -0.026842719 0.59840924 0.16219231 -0.5019879 -0.85599256 0.62990755 0.25269058 -0.10955373 -0.18418925 0.32487756 0.5678671 -1.2027321 0.05191054 0.5567178 0.7992279
2047 -0.3865176 0.78385705 0.90505743 -0.117597006 0.24762368 -0.9430036 0.2145005 0.2819846 -0.17314212 -0.74436283 -0.502596 0.3952007 -1.0403582 0.6279911 1.3639466 1.2702256
1174 -0.26563174 -0.11790295 1.2102346 0.1394483 -0.6544631 -1.1242747 0.68785095 0.11974408 -0.18117239 -0.75505257 -0.037171222 0.3745423 -1.4455426 -0.26708603 0.45481482 1.1192682
1176 0.002152284 -0.17662592 0.88221496 0.26240686 -0.13166134 -0.9469507 0.80509716 0.33081347 -0.45638347 -1.2111918 0.22143954 0.22705483 -1.4696985 -0.24866702 0.31092402 0.22568671
1177 0.10493324 -0.15877917 1.1575508 0.20625196 0.2865829 -0.8001086 0.8483591 0.09707984 -0.27291065 -1.0767977 0.09854389 0.34770092 -1.2076015 -0.26854315 0.6795492 0.17181273
2113 -0.73989075 1.0629408 -0.20938818 -0.28566563 -0.18428813 -0.0038282652 0.83595383 1.5004973 -0.078838244 -1.2094722 0.296083 0.01963088 -0.59534746 0.59557736 1.0577785 -1.0035057
2109 -0.24041753 1.1716682 -0.30369782 -0.22402364 0.21056513 0.25439858 0.68110317 1.1288507 0.017196136 -1.4683828 -0.033051703 0.31544203 -0.7953672 0.7295842 1.3589746 -1.0831614
1157 -1.1780522 1.4027263 -0.25617447 -0.280312 -0.25397006 -0.23596743 0.8643782 1.3407011 -0.15615185 -1.3220077 0.17743362 0.5509657 -0.418255 0.60813296 1.2922918 -0.3770795
1673 -0.46419984 0.542269 -0.1603508 -0.3169644 -0.109366 0.5636792 0.9171231 1.1956562 0.029434804 -0.6495662 -0.06445113 -0.38203633 -0.8220665 0.24378699 0.29321858 -0.9670577
895 0.5262077 0.97467536 0.4606137 0.14661725 -0.108081214 -1.2137674 0.85945004 0.69565296 0.19605078 -0.82275105 0.41632944 0.5587373 0.16386972 -0.3917642 0.3733863 0.95362824
1722 0.0106867505 1.2101976 1.3335865 0.6138942 -0.45361057 0.36757708 0.17605352 0.16878897 0.75005335 -0.034981743 0.38170794 -0.25029707 0.36230236 -0.54472595 0.35387763 -0.16773616
1848 -0.13258716 1.6261694 1.4081411 0.048542205 -1.030358 -0.14844283 0.38436607 -0.25418648 0.46187806 0.009296432 0.61235577 -0.14699808 0.61410034 -0.46515343 0.69995284 0.19792937
1832 -0.08278375 0.8115113 1.0589595 0.5922279 -0.8442687 0.17335838 0.5939018 0.29360253 -0.088078186 0.33258063 -0.35167158 -0.6160168 0.03505926 -0.18391883 0.8357995 0.014871081
1867 -0.3618012 1.1257608 1.0018694 -0.05242195 -0.76641166 0.684513 0.14118683 -0.089082174 0.4500375 -0.4862679 0.8306607 -0.2080731 0.20481753 -0.58968246 0.10999028 -0.50627273
2330 -0.51375437 0.35456172 0.5217568 -0.38206416 0.086616226 0.36316374 0.96076715 1.0119023 -0.33043638 -0.62336755 -0.29562518 -0.39493805 0.2937896 0.45052487 0.12940367 -0.30521223
1607 -0.22679307 0.432581 0.4377116 -0.38620716 -0.059543874 0.85014015 1.2232898 0.85946256 -0.35584953 -0.6362249 -0.22426063 -0.83428174 0.23718156 -0.0024849342 0.32970345 -0.31077254
433 0.30694416 -0.15010414 0.6532431 -0.41645506 -0.8983586 0.087737694 0.89755875 0.44351053 0.4888188 0.37351897 -0.41889322 -0.5129661 0.10115989 0.34570515 0.29706293 -0.47279784
437 -1.0117881 -0.037833855 0.6143157 -0.52624184 0.22903797 0.38409346 0.78636146 0.949316 -0.7658934 -0.8296312 -0.5118084 -0.27201274 -0.6148041 0.34819406 0.59200937 0.27540118
1638 -0.3245771 0.32456467 0.10264826 -0.5185496 0.03328453 0.76424706 0.93358916 0.8900541 -0.08367851 -0.4796443 0.20062156 -0.6812731 0.012155212 0.6284891 0.3862965 -0.14785232
1637 -0.18421662 0.5441962 0.119362555 -0.5681693 -0.30208007 0.4782371 0.8789656 1.2295547 0.12671208 -0.69035906 0.042851645 -0.71107775 0.3645237 0.08475856 0.27943355 -0.46577558
1658 -0.61873436 0.19987246 0.4089572 -0.2654331 -0.14231181 0.75122625 1.1099485 0.87263954 -0.48813397 -0.34319794 -0.20951606 -0.49673414 0.0631727 0.39502499 0.1748294 -0.004537987
1645 -0.65405756 0.3358157 -0.11468339 -0.5877335 0.1190275 0.78491753 1.2058208 0.9729962 0.22754742 -0.48014486 0.107606076 -0.14604309 -0.14092834 -0.038469847 0.44830588 -0.2333237
1646 -0.46240014 0.25049996 -0.26009262 -0.7646223 -0.052127816 0.36261493 1.2124804 1.2264924 0.28678647 -0.36709663 -0.07492274 -0.19632062 -0.20015256 0.55640095 0.6793535 -0.5243766
1648 -0.351812 0.14325732 0.40198103 -0.29085305 -0.07221188 0.7971121 0.9922124 0.9959778 -0.35954276 -0.44884035 -0.17438276 -0.6332737 -0.053315062 0.34801844 0.27050135 -0.41646478
1647 -0.23546667 0.3242829 0.5113445 -0.3823005 -0.1651314 0.45219758 0.98729163 0.9894737 -0.27841917 -0.74502885 -0.19445989 -0.5897303 0.3932401 0.021073682 0.028222594 -0.47043088
1653 -0.17681812 0.41669703 -0.078525804 -0.5940477 -0.4160004 0.67717284 0.52217555 0.8979913 -0.3159002 -0.911735 0.07672948 -0.38160983 -0.541662 0.2535221 0.46331778 -0.84804034
1660 -0.40390342 0.24782278 0.34575745 -0.6610587 -0.02159295 1.0225677 1.034842 0.94827855 -0.22802393 -0.4663863 -0.42184052 -0.4278234 0.20899732 0.13422522 0.242142 -0.12223633
2112 0.59886205 0.92206323 -0.9726285 -0.55772954 -0.40413108 0.08244313 1.8076196 0.5405769 0.13439116 -1.4881241 -0.03792182 -0.22015026 -0.35836866 0.56374794 0.48931074 -0.4250428
2130 0.74826854 1.0597132 -0.6274028 -0.4545138 -0.08413053 -0.12870102 1.0686617 0.438072 -0.112059 -1.3182684 -0.011055869 -0.09387942 -0.37276193 0.6997623 0.32165772 -0.5293152
2134 0.6317228 0.8281022 -0.88053715 -0.56493723 -0.47701952 -0.018991215 1.4724567 0.90779716 0.21235195 -1.637994 0.14408454 0.10712425 -0.16041069 0.8281251 0.51550835 -0.6440328
2148 0.40406764 0.62746346 1.0616019 -0.32439262 0.20232756 0.41593075 0.898786 -0.18465915 0.28621483 -0.9560525 0.27203345 -0.4921301 0.62056834 0.91656786 -0.5357697 -0.37382588
2126 0.7164463 0.664979 1.4601439 -0.4294119 0.35578123 0.6373202 0.70531106 -0.24229999 -0.034953427 -0.107607566 0.6371678 -0.6588795 0.28120324 0.9259009 -0.3990716 -0.35348675
2139 0.8591037 0.7050693 1.4166427 -0.3224062 0.38935712 0.46179998 0.6269215 0.081625886 -0.13568486 -0.15632698 0.72254485 -0.5940268 0.3861262 0.8718451 -0.23383522 -0.43785152
2153 0.5285991 0.44025826 1.2568225 -0.64125466 -0.487027 0.8546557 1.0845935 -0.32133994 0.7513644 -1.6122746 0.11349759 -0.7280221 1.1073844 0.9980364 -0.17311382 -0.6309192
2174 0.32749736 0.4417959 1.0457411 -0.65728295 0.002934322 0.46169135 0.93947977 -0.24423815 0.29045463 -1.2658124 -0.057811327 -0.66551256 0.75713927 0.6783466 -0.1606828 -0.47336718
457 -0.17947647 0.762064 0.6729138 -0.72228724 -0.90079516 0.20932114 0.16806224 -0.5410934 0.55050117 -0.3404756 0.68967 -0.07010678 0.30930126 0.37357867 0.5661786 0.094206974
2197 0.6126281 0.7258053 1.2889202 -0.5699 0.29467297 0.4061784 0.49874768 -0.1621971 0.26451975 -0.45479116 0.29794928 -0.71755356 0.5110715 1.0689497 -0.2578915 -0.213002
2199 0.5125357 0.7468887 1.3179325 -0.6007731 0.058797844 0.4824649 0.5680255 -0.57436925 0.15448737 -1.1234825 0.62446296 -0.82343477 0.25851634 0.82106245 -0.4569111 -0.21426427
2200 0.9061869 0.69073296 0.8942048 -1.0898616 0.39135692 0.28036 0.86354256 -0.48481232 0.33228722 -0.7713531 -0.37761438 -0.28900918 0.4619155 0.6655209 -0.34217638 -0.38050428
2252 0.43901098 0.6750517 1.0513215 -0.66218656 0.13340248 0.28521836 0.86881185 -0.5094474 0.34783965 -1.3037573 -0.36891618 -0.45908704 0.58399326 0.889663 -0.28570497 -0.46047714
2293 0.3046344 0.63969177 0.94530654 -0.5332326 -0.032234445 0.27417678 0.56323 -0.682728 0.06724119 -0.93952405 0.42954904 -0.5883062 0.22067632 0.8585977 -0.05535173 0.22381961
2296 0.3455774 0.5379665 1.2151333 -0.35657802 0.048870258 0.28103527 0.31736603 -0.08959189 0.096122734 -0.7761042 0.23352413 -0.87825704 0.3352823 1.1220471 -0.14333913 0.022093402
2297 0.43190983 0.7551181 1.2495846 -0.43207973 -0.0056811296 0.46380848 0.6250283 -0.54681206 0.1922043 -0.7796928 0.4536025 -0.95031357 0.22587788 1.0299462 -0.40059546 0.21506159
2303 0.47860157 0.6787224 1.1514412 -0.6135654 0.064302236 0.23811468 0.6009987 -0.64979357 0.20219183 -0.9158632 0.14492337 -0.69127727 0.19101706 0.3873797 -0.43250895 -0.2137721
2288 0.36580706 0.6676973 1.2632258 0.11205673 0.09038532 0.4974518 0.11217377 -0.18671213 -0.17336904 -0.41482434 0.8781196 -0.5273671 0.07220351 0.7048675 0.032216933 0.16669798
2315 0.70934504 0.59171754 1.305764 -0.7844665 0.31710988 0.29459924 0.7738306 -0.51034844 0.29259306 -0.91296935 0.14408793 -0.95310956 0.2618264 0.8466207 -0.296958 -0.24527982
1016 -0.14082116 0.2907982 0.08595494 -0.7254106 0.5613509 0.3328032 0.5746529 0.23037572 0.66253704 -0.12670337 -0.74177337 0.009449112 -1.3670081 0.29176283 1.1729126 0.17676608
1574 0.13775471 0.28224522 0.34342554 -0.20814687 0.29219782 -0.082217194 0.34793422 0.30350587 1.22629 -0.8022648 -1.1087863 -0.5519225 -1.3811537 0.4500311 1.1219398 -0.11140438
1576 0.46299502 0.5560055 0.21461198 -0.66605306 0.38290218 0.4533011 0.35707292 0.21065643 0.98630774 -0.7241678 -0.94396347 -0.5710344 -1.2240342 -0.29728347 1.2383782 0.29737008
1583 -0.07074051 0.6912534 -0.22465722 -0.13561477 0.3529504 0.39391765 0.9559106 0.34811804 0.83241475 -0.54460055 -0.74898857 -0.36091068 -1.1932126 0.44453448 1.1986678 -0.50959265
982 0.6948105 0.8764449 0.4517925 -0.36510003 -0.35902685 -0.7558599 0.37907207 0.37094253 0.7291558 -0.635491 0.60673857 1.1054264 0.15674165 -0.5196513 -0.21586539 0.37494862
42 -0.1552027 -0.063424684 0.01915841 -0.13909408 -0.42407218 0.67095464 0.4948944 1.2454109 0.17275707 -0.5036744 -0.45994416 -0.3299089 -1.0609447 0.04426661 -0.5783617 0.745931
47 -0.21898192 0.37513298 0.8377586 -0.43575245 -0.699621 0.34167463 0.17477939 0.07788249 0.7690558 -0.00046377676 -0.3397208 -0.49305916 -1.0996554 0.24857998 -1.1222616 0.46707103
1641 -0.3507918 0.22468434 -0.15123835 -0.8682745 -0.4496961 0.5955528 0.48817873 1.0389022 -0.06990386 -0.9236945 0.078148946 -0.478034 -0.61296517 0.22609892 0.18423177 -0.3936365
497 -0.23494689 0.36862475 0.06579108 0.45946926 -0.33660644 0.45433155 0.42714095 1.2127005 0.33917803 -0.93450594 -0.4238499 -0.4413323 -0.74245715 0.16707467 0.10663062 -0.16694807
32 -0.27026963 0.45401058 1.0682671 -0.5971265 -0.35414258 0.05847237 0.2786334 0.015918478 0.78849447 0.12647668 -0.320134 -0.47198948 -0.88638204 0.30950436 -1.1232257 0.52593005
136 -0.0731297 0.48983654 0.536238 -0.52072006 -0.26418084 0.1738496 -0.16620126 0.49625635 0.50880533 -0.4299449 -0.27455696 -0.19717748 -1.1568463 0.23290658 -0.94595563 -0.20027356
146 -0.2858152 0.4858596 0.80958384 -0.44674468 -0.73886836 0.35752863 0.44579092 0.17126818 0.5308412 0.65969473 -0.42340094 -0.37134415 -0.7630767 0.1277947 -0.8748741 0.130942
1896 0.2971047 0.20549522 1.2325107 0.04782239 -0.5324652 0.8372714 0.4848269 -0.39361367 0.21082059 0.6131534 0.26835498 -0.1474897 0.2782923 0.76036483 0.56674314 0.53905517
2101 0.55135196 0.795476 1.2889742 0.003384364 0.2770933 0.5228954 0.55746806 0.040871035 0.061619457 0.27961168 0.3988428 -0.56622475 0.37774387 0.75265723 0.054962333 -0.010384959
1517 -0.19621202 0.70810366 0.8440944 -0.03601444 -0.5695825 0.55052847 0.9296799 -0.55364454 -0.044364624 0.32240608 0.27783528 -0.4573691 0.03994162 0.24303903 0.514028 1.0192854
510 -0.022013454 0.6285475 0.90900207 -0.095571525 -0.390367 -0.00903213 -0.14636385 0.13867803 0.59649265 -0.081079215 0.72639763 -0.24876532 0.079072885 0.658326 0.2634878 0.8355128
2147 -0.2091127 0.34863043 0.96076936 -0.5040399 0.21270247 -0.47054505 1.5376835 0.19181399 -0.63874143 -0.39892504 -0.40848213 -0.96076316 -0.31897706 0.8682648 0.3073995 -0.64726365
1621 -0.416685 0.22593483 -0.18981133 -0.45958492 -0.20318718 0.59834075 1.1123031 0.9095944 0.0585759 -1.1300104 0.2210032 -0.07810841 -0.36097062 0.02911164 0.24725541 -0.6617635
419 0.752302 0.00552757 1.2288669 -0.41921428 -0.97381485 -0.44726095 0.41750202 0.52821726 0.7164935 0.3858192 -0.31313044 -0.33894935 0.25847942 0.02498394 0.5685374 -0.4910664
1525 -0.2511369 0.35150066 0.6867829 -0.43503183 -0.09579638 0.18144244 0.9458313 -0.31519598 0.088442735 0.07143899 0.39701748 -0.682549 -0.26302266 0.60064113 -0.34467092 0.4331594
721 -0.13940053 -0.19300622 -0.081486404 -0.82054526 -0.3104924 0.21719187 0.9188107 0.9691758 0.29873222 -1.0999455 -0.033842266 -0.3742059 -0.5874986 0.4666845 0.12204648 -0.7597167
793 0.1572418 0.26241463 0.2780797 -0.81335473 -0.5992027 0.28204817 0.35147917 0.32349628 -0.35733452 -0.59587324 0.48938328 -0.751526 -0.26565662 0.26821032 0.4343489 -0.50105774
918 0.030959299 0.30302498 0.04584637 -1.3770317 -0.5569917 0.4064486 0.30426294 0.81191754 -0.12021818 -0.9593169 0.4373811 -0.48429942 -0.1669378 0.20522505 -0.02809566 -0.47303045
1530 0.45493627 0.41965333 -0.12096764 -0.013824209 -0.37246612 0.38138288 0.59395456 1.5612649 0.6213883 -0.7957254 0.13780129 -0.6679998 -0.28759205 -0.18674675 -0.65433556 -0.082198896
1684 -0.23270884 0.30958804 -0.40423262 -0.7785374 -0.41480827 0.5103078 1.0363557 0.7490156 0.24382989 -0.99088573 0.19002284 -0.14673972 -0.2947113 0.23946789 0.19582255 -0.6561891
46 0.63222194 0.8827818 0.6097172 -0.464988 -0.19533285 0.03140205 0.38350847 0.6056962 -0.20482326 -0.026456749 0.10263016 -0.12133511 -0.44680023 -0.704122 -0.92423946 0.54234385
323 0.3059113 0.9735624 0.37433273 -0.0495977 -0.76468885 0.3197166 0.9570823 0.12764795 0.2574018 0.33373716 0.8172319 -0.49427155 -0.158945 -0.91756094 -0.026018143 0.50671893
84 1.2150021 1.2587805 0.6253585 -0.88964796 -0.25132295 0.35001004 -0.18816645 1.2461833 -0.22535463 -0.18812421 0.16026112 -0.22068076 -0.50663847 -0.42473912 -0.9627871 0.8196678
99 -0.10379319 0.58937967 0.40924132 0.28499383 -0.62934965 -0.097439185 0.60588026 0.61700994 -0.051026586 0.37583593 -0.09101586 -0.23109469 -1.034596 -0.33610284 -0.402071 0.72812045
104 0.9536802 0.68036884 0.87377024 -0.5905605 -0.21554388 0.16320759 -0.36690038 1.182654 -0.0726098 -0.0022815284 0.23233934 -0.05970521 -0.28143886 -0.24616294 -0.7704382 0.45185822
113 0.947429 0.97798854 0.29847312 -0.72238636 -0.19883247 0.37648237 -0.18148352 1.0815407 0.36172834 -0.058180027 -0.17624934 -0.5714271 -0.4373966 -0.07925818 -0.72630143 0.49386588
117 0.848669 0.9797746 0.6579526 -0.8090237 -0.13789386 0.43455124 -0.35077855 1.2012749 -0.23798321 -0.045173913 -0.12505458 0.21330002 -0.4504631 -0.27597854 -0.7884808 0.36230794
153 1.0283637 1.0758419 0.660109 -0.78892297 -0.16816804 0.193389 -0.031418797 1.3497269 -0.27255073 -0.44457877 0.12014291 -0.21276267 -0.2181725 -0.5494599 -1.0054296 0.6913589
161 1.1653925 1.2552215 0.75182414 -0.72600484 -0.14325123 0.2637 -0.14854838 1.2547867 -0.11138672 -0.06638286 0.10730201 -0.1912161 -0.39206517 -0.41929236 -1.0111959 0.73630637
1730 0.4487094 1.1440663 0.7138478 -0.008488264 0.5588998 0.43958232 0.12828492 1.0339438 1.2878474 0.07301803 -0.3512313 0.975099 0.327354 1.2654586 -0.08678476 -0.27518407
1842 0.4838497 1.103018 0.38856077 0.108085535 0.43721786 0.4132868 0.36315167 0.718703 1.1324037 0.17852406 -0.28662035 0.8482315 0.16537742 1.2594821 0.039178807 -0.18817747
1731 0.3474009 1.0518409 0.96290845 -0.14429012 0.6025782 0.43030366 0.049981464 0.9746627 1.0894799 -0.0072918395 -0.41701669 0.7641239 0.50584435 0.9651915 -0.15013167 -0.4746777
1785 0.3300498 1.3039566 0.49188408 0.18135236 0.48407406 0.17395318 0.14314805 0.9548613 1.1782179 0.2311113 -0.1245492 1.0540749 0.10841417 1.3633175 0.29274592 0.03152244
2404 0.4431536 0.50454235 1.1541083 0.24330975 0.39749548 0.64584786 1.2301822 0.129751 -0.19550598 0.13153194 1.0734179 -0.44651654 0.3821291 0.05723081 -0.0067696315 -0.0076457323
1007 0.037523944 0.3787584 0.6788948 0.17913623 0.53783387 -0.3987037 1.3178376 -0.045551285 0.89387816 0.8044595 0.508602 0.57518965 -0.9732088 0.349633 -0.008364447 0.27935112
1770 -0.5499767 0.84384674 0.68631005 0.72404736 -0.42698792 -0.025710577 0.6919956 0.023566041 0.66062266 0.36711526 -0.5075705 -0.05785026 -1.3760799 -0.10064315 1.4667983 0.16941413
1879 -0.4990932 0.59361696 0.24382909 -0.35987687 -0.08358699 0.21792892 0.6128104 -0.47810924 0.5377418 0.00017805365 0.5038591 -0.11221198 -1.1549166 -0.08092302 0.89840055 0.0736878
427 -0.12521882 0.44643864 0.9964648 -0.3590483 -0.5831625 0.66207 0.08546937 0.35334468 0.57000035 0.020986082 0.34583494 -0.5555028 -0.09843395 0.5160655 -1.0030597 0.8917567
544 0.1892837 0.40714607 0.7373894 -0.6003569 -0.6621984 0.4699411 -0.16096884 0.581714 0.8848122 0.086077385 0.6145036 -0.19018221 -0.23178114 0.3872167 -0.84759 1.0586433
449 -0.257355 0.023320353 1.1535714 -0.74112 -0.57101876 0.4381134 -0.044269945 0.052299425 0.43011314 -0.2687609 -0.29353428 -0.53356725 -0.98791134 0.34020212 -0.9701672 0.5356445
359 -0.14245045 0.32594088 0.741667 -0.4436234 -0.08067651 1.2862048 0.9637213 -0.056076843 -0.06768395 0.20585606 0.33233133 -0.11440022 -0.012495384 0.7385229 -0.6568815 1.2483509
481 -0.24596523 -0.020796143 1.2521559 -0.7378268 -0.7379613 0.3781371 -0.07113268 0.71298206 0.8508398 0.15797505 0.3652048 -0.45749667 -0.11823911 0.56620425 -0.98070544 0.7956553
536 -0.37463498 0.12267472 1.0531439 -0.8328805 -0.8608091 0.35118943 -0.08872921 0.104081176 0.5460024 0.07999781 0.079124995 -0.1852118 -1.1075033 -0.18469396 -0.6920225 0.86350006
668 -0.2669822 1.0176224 0.20685603 -0.81463706 -0.09171434 0.40324184 0.27431884 0.78216964 -0.30816093 0.75437814 0.26880082 0.27825272 -0.5334624 -0.0762415 0.54382575 0.4302818
2344 0.07686493 0.38674012 0.21454385 -0.8303046 0.81322736 -0.56995016 0.95786715 0.7973813 1.0022138 0.529628 0.53866494 0.4420543 -0.8493413 0.37369218 0.6266903 -0.2466774
425 0.3827395 0.7203506 0.5219068 -0.50368017 -0.54800874 -0.3317017 0.40152577 -0.15552396 1.1586772 0.29072243 0.33593857 0.41269407 0.22840923 0.24571326 -0.017848033 0.4257285
396 0.8786961 -0.27241838 1.1001236 -0.22633882 -0.8326797 -0.48874408 0.7560892 0.34520954 0.8464956 0.36377847 -0.26240712 -0.33513677 0.040795524 0.26048383 0.4896727 -0.27089635
405 -0.019891353 1.0826558 0.61953974 -0.8512616 -0.016667558 -0.06985803 -0.10014804 0.19938551 0.47078463 -0.47056058 0.60638225 -0.01747748 0.30017337 -0.23062438 0.87696147 0.30858853
406 0.7011291 1.0643482 -0.0038247136 0.11677328 -0.36489907 -0.21455562 1.3818117 -0.13362 0.021539131 0.014794561 -0.10499208 -0.39497352 -0.06559215 0.2789888 0.0933666 -0.060687788
476 0.08384238 0.92074496 0.31507117 -0.2671342 -0.49514696 -0.057002936 0.06272121 0.10307188 0.8400339 -0.09143733 1.1200284 -0.17494601 -0.4886521 0.4316826 -0.35893205 0.67882204
140 0.28992242 0.61827296 0.71904325 -0.3899786 -0.62535673 0.036836244 0.5967519 0.9299671 0.8876697 1.2736294 0.21378271 0.2176096 -0.38072535 -0.7421119 -0.43432915 0.4142489
680 0.2584231 1.1962276 -0.126153 0.1041786 0.18132919 0.42451826 0.6647103 1.6664528 0.29880583 0.6747194 -0.2879809 1.0665336 -0.573491 -0.3245518 0.734397 0.44360426
1493 -0.49285647 0.22693352 0.5787976 -0.74172115 -0.08918518 0.089160666 0.96644765 -0.0044168676 0.3209057 0.07592899 0.762739 -0.75053304 -0.6292216 -0.029098349 -0.37011772 0.42104724
1482 -0.35155675 0.904622 0.27990115 -0.7902631 0.027210532 0.46902284 0.6771543 -0.24997844 0.69691074 -0.28202122 1.1103791 -0.73050344 -0.7951038 0.10814774 -0.17404321 0.92978615
1504 -0.40168017 0.69752896 0.5773119 -0.98758835 -0.21347567 0.36025715 0.43800256 -0.19002356 0.41837278 0.058053546 0.52351815 -0.5881523 -0.48085156 -0.06850126 -0.14542654 0.9200585
1492 -0.46155697 0.8665703 0.38364616 -1.1526403 0.24439766 0.025401333 0.47605097 -0.03685208 0.30668253 -0.273487 0.85098624 -0.8183709 -0.69271016 0.23837557 0.09221506 0.52326846
1540 0.078361005 0.5795667 0.6514318 -0.32658044 0.12520996 0.7842272 0.6383945 -0.3838492 -0.009059802 -0.04313154 0.4929888 -0.8875141 -0.32387945 0.8444708 0.15399717 0.6130567
602 -0.74169296 0.43182316 0.9869883 0.020699065 -0.8796448 -0.02442015 0.48360407 -0.15605451 0.23316811 -0.17416547 1.2397493 0.50338984 -0.62275076 0.10178714 -0.025831098 -0.45968366
694 -0.79221565 0.20900545 0.43857512 -1.0805846 0.046116654 -0.08213391 0.70917374 0.43390855 0.6133323 0.0033152408 0.600905 -0.5280697 -0.22664367 0.30526024 0.28978267 0.2750505
1515 -0.56241703 0.5185236 0.38439825 -1.079658 0.37800035 0.46599624 0.8621531 -0.14601962 0.13235621 -0.25008282 0.47816572 -0.7097845 -0.55499697 0.49301118 -0.05707528 0.6581715
526 -0.3636076 0.7593812 0.40931094 -0.8645438 -0.32762733 0.56075156 0.37154165 -0.369352 0.10071601 -0.6690696 0.9144986 -0.028680103 -0.48197296 -0.004624725 -0.24250452 -0.4213059
1505 -0.503505 0.90591073 0.20812221 -0.979261 0.15776385 0.38133177 0.6323014 0.080786794 0.2228245 0.011512844 1.0630733 -0.3972964 -0.44846165 0.29267165 -0.062385563 0.7571768
26 0.10013219 0.33283377 0.6271169 -0.41119257 -0.27383903 1.0018891 0.23409389 0.9961059 -0.11908281 0.6809083 -0.077516325 0.9724019 -0.9705748 -0.03387436 -0.013890642 0.90040463
90 -0.27066588 0.71168166 0.642053 0.02403393 0.001745285 0.34684524 0.23250775 1.0222657 -0.33391982 0.50415367 -0.2817653 0.37129277 -1.0813284 -0.23431715 -0.14813946 0.67313987
670 -0.93322825 0.80120564 0.2185493 -0.44443142 -0.058144957 0.60015017 0.46209633 1.0829706 -0.009360026 0.74173397 -0.07491647 0.5143766 -0.88176084 0.32833678 0.15600935 0.5454338
1748 -0.29736844 1.3828892 0.7297674 0.9353221 -0.6775741 0.5697508 1.111984 -0.1420441 0.98759127 -0.1567256 0.31406945 -0.05793415 0.24496944 -0.6171377 0.19052601 -0.18474418
1981 0.45331892 0.6221173 1.9097579 0.376154 0.6545054 0.35501042 0.47006267 -0.3432962 -0.020928817 -0.7186103 -0.6826792 1.2321215 -1.020652 -0.67372817 0.38125497 -0.041978657
1980 0.5027541 0.5359174 1.8026775 0.7348847 0.6656658 0.066408895 0.911333 -0.22517268 0.22766997 -1.1645542 -0.4850703 1.3393413 -1.2202142 -0.7016558 0.56926024 0.042273626
1995 0.5159568 0.17353317 1.6973915 0.39584553 0.63026196 0.09336833 0.36095673 0.009764969 0.38056037 -1.2686306 -0.2794462 1.134476 -0.84722054 -0.55018276 0.63764423 -0.10740489
2001 -0.042450357 0.47129858 1.615419 0.302557 0.67193455 0.23612127 0.6716028 -0.54641 0.3176049 -1.1199315 -0.2850651 1.0149772 -0.71285427 -0.4283846 0.5667954 -0.1001248
2005 0.83905745 0.2578651 1.6940552 0.6585009 0.62744147 0.15994877 0.4154582 -0.13252494 0.32751215 -1.1140302 -0.7766765 0.8946706 -0.75500846 0.10918441 0.52204543 -0.052480396
2066 0.8349713 0.30135632 1.1769959 0.9518415 0.36872333 -0.15610574 0.7929689 0.10144729 -0.01614225 -1.0534763 -0.023391422 0.93868935 -0.87575346 -0.45152023 0.46726137 0.10290452
2073 0.3654492 0.6588401 1.9017947 0.54609203 0.9346785 0.24198423 0.76606977 -0.33662808 0.24578257 -1.3467906 -0.561022 1.1574125 -1.0789686 -0.5696427 0.42673978 -0.14322102
899 2.3855166e-05 1.1685958 0.7607886 -1.11663 -0.0019377017 -0.14039779 -0.19205858 0.34157163 0.4084363 -0.7146595 0.677414 0.07525183 0.32283562 -0.40876922 1.0310276 0.5266412
50 0.46954745 0.68616736 1.3599803 -0.933527 0.3260415 -0.28771266 0.39968836 0.7143393 0.12484621 0.36700454 -0.21877055 0.35581416 -0.7662168 -0.31626296 -1.3047044 -0.64383256
1626 -0.41623122 0.21716706 0.74732614 -0.42810535 -0.5419008 1.305196 -0.026140204 1.8449266 1.3685585 -1.8804315 -1.3316171 -0.71921766 -1.1127316 0.9422502 1.1131366 -0.2728809
1639 -0.44203565 0.3971508 0.55084574 -0.51548827 -0.5025807 1.2815344 0.06100446 1.9085618 1.376608 -1.8842185 -1.2515821 -0.75620997 -0.92911595 0.9999528 0.9354951 -0.3575215
1651 -0.69544554 0.036118288 0.5178414 -0.31110874 -0.8381447 0.8622045 0.054729875 1.9381217 1.307342 -1.5517538 -1.1828609 -0.31871837 -0.89061767 0.8938157 0.7203981 -0.07775988
1664 -0.44078806 0.07847658 0.5527183 -0.310745 -0.4338472 0.9304478 0.17138226 1.7116617 0.8954009 -1.5639087 -1.2276539 -0.5230761 -0.8759591 0.8750475 0.5941985 -0.31261006
1666 -0.68464476 0.38719052 0.82984304 -0.46361184 -0.653995 1.3421814 -0.07569246 2.0330837 1.458111 -1.962493 -1.3150687 -0.61506826 -0.8504497 1.0172031 1.0342677 -0.2740406
1686 -0.43661535 0.21081628 0.6716807 -0.39685237 -0.89562315 1.30183 0.15206388 1.7934921 1.0894746 -1.8417819 -1.596393 -0.74309254 -0.93005466 1.1527351 0.92382836 -0.072131425
1407 0.8603303 -0.20872097 0.3755516 -0.4992083 -0.70195293 0.79493856 0.8382145 0.2031905 0.1924934 -0.46856275 -0.092601605 1.3990006 -0.9864529 -0.018691672 -0.39303237 0.7461937
1400 0.81091183 -0.2413416 0.45423493 -0.47537223 -0.65485144 0.9946392 0.6929366 0.36317068 -0.00394267 -0.5642257 0.19136772 1.3831424 -0.66565305 0.039579853 -0.20657295 0.71429914
1403 0.8898014 -0.18231453 0.32790792 -0.4743366 -0.57836646 0.6517863 0.48430386 0.3030345 0.24883647 -0.53598565 0.19564337 1.2684039 -0.8479439 0.0062713656 -0.036538377 0.7251371
560 0.78006697 0.15209429 0.23352896 -0.41013154 -0.5353067 0.396765 1.3211893 -0.08098486 0.31291088 -0.28652844 -0.61998063 1.18699 -1.1081456 -0.20952247 -1.0772084 0.4287583
1406 0.8355821 -0.07573219 0.37551585 -0.53021723 -0.38686755 0.9605578 0.57129014 0.14505689 0.22189383 -0.36755905 -0.09685487 1.1763233 -0.8023503 0.23449214 0.0047295974 0.920154
1417 0.8960728 -0.28957477 0.3699942 -0.5070533 -0.57414645 0.8006982 0.5031549 0.5455777 0.031003725 -0.53412384 0.19905047 1.1732082 -0.8283477 -0.0047770743 -0.13232161 0.77675974
1423 1.0541089 -0.25646356 0.3019942 -0.6177888 -0.48588905 0.65373534 0.4274435 0.47030485 0.06284283 -0.3929314 0.25279382 1.1385188 -0.82323205 0.2419601 -0.016807906 0.57261074
1430 0.65379673 -0.33651495 0.623159 -0.5769408 -0.44152018 1.0247254 0.547164 -0.019366238 0.103068665 -0.7143821 0.174305 1.1733034 -0.7176128 0.33389255 0.07779769 1.0201085
1433 0.9653029 -0.26441887 0.30503398 -0.54297984 -0.5354026 0.83515155 0.5164467 0.3716341 0.2323019 -0.7347662 0.1456346 1.1947352 -0.85935 -0.025789782 0.013436587 0.6452917
1434 0.98236126 -0.42409232 0.71524215 -0.30441624 -0.55476195 0.6860433 0.5198247 0.22794926 0.18212946 -0.5803564 -0.20289169 1.2146157 -0.63191956 -0.100862466 -0.17707004 0.34568465
1435 0.9701233 -0.31452164 0.4475553 -0.40927595 -0.5605393 0.8583298 0.5288977 0.40942016 0.22728626 -0.6569831 0.22333528 1.2880673 -0.8522407 0.13057289 -0.1204581 0.7416926
1440 0.7848568 -0.3103706 0.335663 -0.49493584 -0.7797415 1.0447477 0.4988132 0.40820155 0.31831008 -0.52851987 0.30806348 1.2586864 -0.9532496 0.010873113 -0.14139953 0.5737316
1446 0.84574604 -0.31085297 0.45926192 -0.5032214 -0.60559994 0.9928045 0.6487462 0.37929064 -0.030787094 -0.4884701 0.2486616 1.1814098 -0.5533045 0.11307825 -0.18785056 0.66731274
1457 0.8897519 -0.31558016 0.3572749 -0.520816 -0.64533854 0.90072995 0.56478626 0.36130473 0.20212117 -0.6660641 0.30902734 1.1903907 -0.97875625 0.10436517 -0.20751595 0.7448211
1479 1.0395072 -0.3459371 0.5306007 -0.36006203 -0.72969925 0.8823431 0.4087449 0.4699649 0.13053757 -0.70484483 0.28993258 1.271918 -0.9603307 0.049985144 -0.038334608 0.7533284
218 0.02940468 1.1525515 0.40945718 -0.7351464 -0.14882147 -0.053940106 0.6592952 0.46882883 -0.14055793 0.5988342 -0.10349648 1.174513 0.13591187 0.2956887 -0.18282333 0.92744684
217 -0.00054385845 0.6865889 0.36923566 -0.5647783 0.022410242 0.5208013 0.44261062 1.0343823 -0.047247943 0.61785823 0.02530047 1.2258292 0.03840889 0.14200939 0.16255225 0.2895881
662 -0.1836468 0.7398274 0.26902542 -0.5585017 -0.1471086 -0.36816022 0.9004003 1.4683911 0.50280285 0.90026015 -0.27039656 0.7986866 -0.44982868 -0.17358945 -0.17593886 0.94317865
655 -0.65897065 0.4058844 0.6588964 -0.7500977 -0.3737739 0.20485666 0.9150121 0.8785214 0.028454915 0.6592162 -0.54967946 -0.09838713 -0.36643094 -0.1961458 -0.6194295 0.55699396
1208 0.33870816 0.9770194 0.8824938 -0.23662022 -0.22827728 -1.0348207 0.21860957 0.19581391 0.11785592 -0.3728894 0.69144684 1.1383518 0.039317098 0.86046433 0.5787568 -0.11404915
2094 0.69035894 0.59641373 0.5258834 -0.57506734 0.10635555 0.09576023 0.6306023 -0.0072732978 0.20904602 -0.58043337 -0.5417667 -0.026520409 0.50123817 0.8378619 0.048995893 -0.42581877
828 0.3366378 0.7020952 -0.30357668 -0.49888256 0.29819205 0.41868624 0.91061187 0.18975888 0.30631527 -0.8434861 -0.432379 -0.17332564 -0.6972534 0.6850589 1.0819067 -0.83805823
1369 0.27571216 0.5713634 0.17070985 -0.7451193 0.17913136 -0.75370514 0.9242214 -0.08941801 -0.15463583 -0.85889775 -0.40807137 0.61704 -0.22578606 0.3718251 1.1032205 0.48885566
848 0.2821619 0.022682445 0.29724726 -1.0478868 0.7916069 -0.5913421 1.1376146 -0.09763114 0.53146327 -0.7282972 -0.40926522 -0.02759926 -0.8679672 0.32980594 0.3962226 -0.24198155
373 1.4441137 0.39491114 0.21767189 -1.0927528 -0.7360675 0.47009 0.32896945 -0.35240737 -0.011637092 -0.4602133 -0.8895161 0.06939928 -0.73413974 0.1787088 0.63708174 0.24878207
1405 1.0029535 -0.09906042 0.5604475 -0.5701277 -0.3503835 0.9971665 0.36267033 0.030197734 0.21593668 -0.6540177 -0.21917172 1.147326 -0.60268784 0.3546572 0.10476586 0.89027625
1421 0.6632174 -0.40055656 1.0565034 -0.39001593 0.10268633 0.88449025 0.25635847 -0.082867324 0.4927409 -0.6462759 -0.23537509 1.0602044 -0.62537694 0.20156573 0.4419401 0.85749614
1425 0.6614375 -0.26944774 0.94145584 -0.5624369 -0.24602501 1.0660113 0.3182841 0.1928921 0.36092743 -0.60447955 -0.12215326 1.3468679 -0.6591116 0.39013717 0.19644684 1.1954522
1439 1.0053978 -0.25541446 0.4041183 -0.44315776 -0.39407063 0.9036474 0.535746 0.3993851 0.22479323 -0.6322063 0.17688327 1.2575936 -0.98034954 0.1841436 -0.06806961 0.95642877
1449 0.960371 -0.20445609 0.35866132 -0.37839526 -0.39357528 0.78391665 0.6717756 0.32991037 0.16913898 -0.66996026 0.17140408 1.2132547 -0.9722864 0.1806153 -0.30244315 0.8816432
1460 0.8764833 -0.27893543 0.44741976 -0.47276732 -0.6296166 0.9286352 0.32613206 0.16953756 0.3309278 -0.62204975 0.37675545 1.242204 -0.8823543 0.14789361 -0.0016469064 0.50137615
1464 1.3704216 0.1888104 0.5709544 -0.7014148 -0.32802796 0.8490901 0.16365978 -0.363659 0.16672589 -0.6086212 -0.6925512 0.5233365 -0.58901745 0.35533178 0.06263389 0.62822694
1627 -0.17381719 0.28156957 -0.17490384 -0.34538066 -0.09722303 0.9258729 0.6983231 1.174141 0.4255992 -0.94344187 -0.095014684 -0.4448004 -0.3296753 0.3645084 0.38414636 -0.46395344
1629 -0.09112359 0.37711355 -0.22448473 -0.4100711 -0.072673455 1.1244113 0.8490409 1.1995199 0.5044752 -0.95026654 0.033247553 -0.42952925 0.009741917 0.40088168 0.5616148 -0.32292414
1654 -0.27092308 0.21350287 -0.22152328 -0.5078824 -0.16543813 0.34216478 1.1146694 0.7898824 0.01937136 -1.371652 0.14420712 -0.20297304 -0.4181658 0.03839461 0.5637572 -0.47178853
1661 -0.32188955 0.3587 -0.20895837 -0.58830076 -0.32764423 0.741775 1.0059084 0.8506872 0.12517543 -0.9646856 0.3361673 -0.39630643 -0.29258832 0.20982711 0.35383603 -0.7444624
1753 -0.098182976 0.38131726 1.119968 0.42334422 -1.2865902 0.061031096 0.5021079 0.68932736 0.55943507 0.65863866 -0.7093221 -0.23364124 -0.13937666 0.22257623 0.011102396 -0.5775878
1772 0.39331028 -0.061995722 1.397923 0.098025285 -1.0487208 -0.18026431 0.28620353 1.2470031 0.8511754 0.42750365 -0.28376114 -0.1829618 0.17306301 0.2507763 0.3411522 -0.82517886
1767 0.42280385 1.2859645 0.7199652 0.94985247 -0.95543325 0.1133772 0.8969862 0.3491951 0.305137 -0.24561854 -1.0925556 0.19050437 0.15456386 0.09300869 0.16813043 -0.20874971
1850 -0.24733348 0.90800184 1.2928274 0.6027581 -0.83266014 0.02203518 0.7243738 0.8112316 0.40748924 -0.067870356 -1.0653313 0.15964864 0.30034798 0.14103882 -0.2504448 -0.82236946
250 0.21946765 0.37538573 0.54313433 0.033030298 0.5691362 -0.017232435 1.3860193 0.032987352 0.79946965 0.82484746 -0.06558986 0.62255317 -1.1213363 0.67791975 -0.50703055 0.2480558
185 -0.26721525 0.618044 0.584633 -0.5134807 -0.26083297 0.7875626 0.1703911 0.70478237 -0.11471398 0.7584146 -0.15691791 0.3555584 -0.78062296 0.21605928 -0.2078577 0.8500663
1009 0.17618226 0.06967574 0.53962916 -0.18472119 0.48337066 0.6542156 1.3952998 -0.23557666 0.80157286 0.9167448 0.09051018 0.8874666 -1.3521876 0.9403359 0.025203824 0.8020987
2221 0.34599507 1.4590292 0.3985638 -0.2542701 -0.13586546 -0.69942194 0.78880876 0.307428 -0.5952062 0.21960735 -0.20067796 -0.5099539 -0.60619026 0.15867677 0.03446647 -0.2540569
240 0.8184709 0.057949446 0.8732895 -0.68182874 -0.13405028 0.5447635 1.2953442 -0.19438508 -0.539199 0.5217799 -0.10414777 1.007214 0.19395435 -0.13537908 0.09556801 0.025056172
242 0.6481173 -0.030797455 0.65046304 -0.38525936 -0.4294195 0.81413156 0.78849244 0.036150325 0.31188717 0.2722369 -0.04283252 0.9242569 0.30206645 0.27544722 0.05090571 0.42591885
1480 0.6578293 -0.4458699 0.8069098 -0.7061439 -0.25388142 1.1224121 0.5908125 0.14293183 0.29404047 -0.3742639 -0.11979353 1.1665924 -0.5663716 0.3149823 0.15479675 1.0902028
659 0.31210774 1.3867444 0.19852233 0.1524495 0.28285512 0.74427867 0.19465968 1.3558016 0.71704644 0.98769855 0.056303777 0.98747265 -0.5899602 0.7332932 0.2309066 0.3741806
98 0.251584 0.7764617 0.83259535 0.29969358 -0.04232426 -0.02362701 0.62453383 0.52150583 -0.04485726 -0.033523038 -0.26082584 0.49435034 -1.1941602 -0.09457237 -1.4002504 0.0047027273
106 0.32874265 0.55181676 0.4155431 0.59066904 0.13067941 0.2216346 0.5638813 0.56139576 -0.31259242 -0.3118329 -0.062421743 0.5603039 -1.26362 0.15704386 -0.76248056 0.16306472
229 0.36722398 0.3050947 0.44366977 -0.53024447 -0.20332962 0.7737715 1.0519418 0.051525038 -0.1625549 0.052049857 -0.3647177 1.4205576 -0.23086287 0.13467036 -0.5002817 0.34608874
1095 0.30060488 0.5014547 0.61169094 0.7652329 -0.59233177 -0.64410394 0.77796793 0.2136277 -0.17307365 -0.38450918 0.37424847 0.54874974 -1.6220323 -0.39223576 -0.6578818 0.22386053
121 0.08260725 0.45433944 0.5726016 0.028808985 0.09016575 0.19664381 0.8828945 0.56923115 0.034718778 0.18647933 -0.36093023 0.8864217 -1.2610382 0.14013703 -1.2279443 0.32547462
122 -0.09198611 0.8591983 0.4063173 -0.42171243 -0.03151837 0.321188 0.4366324 -0.08989734 -0.18313606 -0.5893203 0.33450234 0.44227657 -1.1343638 -0.12792033 -1.1700823 -0.23950027
143 0.4358324 0.7234106 0.39510348 0.35881016 0.23026888 -0.04950465 0.82764196 0.27559757 0.027444273 -0.10031068 -0.28767753 0.5711948 -0.98258275 0.31464002 -0.9782446 -0.08374573
175 0.18006124 0.7364655 0.7204659 0.11832379 -0.01840186 0.25075874 0.99760526 0.43161142 -0.21018669 0.20100754 -0.33979645 1.3581115 -0.9480232 -0.055177383 -1.1888484 0.2444719
179 0.45275587 0.6899772 0.7898742 0.703023 0.12422881 -0.19683103 1.0159625 0.22220713 -0.20553501 -0.17119478 -0.30808625 0.88118696 -1.2511927 0.039658193 -1.0146369 0.14403795
183 0.09748346 0.93454045 0.6276418 0.48058736 -0.17618036 -0.19955069 0.7274682 0.28924647 -0.122550935 -0.0028946023 -0.15672503 0.5288068 -1.0665941 -0.5147082 -0.7837034 0.4045232
667 -0.59039265 0.9653259 -0.029233573 -0.6090513 0.030159157 0.05529762 0.5750332 1.3643081 0.14493407 0.577223 0.092559926 1.0097272 -0.47363773 -0.017063156 0.68322456 0.45603836
12 -0.8543258 0.94013566 0.52822345 -0.5229498 -0.09649131 -0.15104279 0.46360812 1.0410076 0.11954653 0.50678563 -0.16054446 1.1273892 -0.89949864 -0.010908441 -0.45145774 0.69891447
651 -0.3359479 1.1999282 0.24098405 0.075594865 0.188573 0.5961561 0.6181933 1.6882048 0.08693474 0.53440326 -3.65045e-05 1.4205823 -0.83170587 -0.34097776 0.26801726 0.78812015
930 -0.54248226 0.9687357 0.02501015 -0.90326595 -0.004644509 -0.2990775 0.7309487 0.78369397 0.6553647 -0.010121811 0.4076891 0.6714556 0.008125916 -0.29460755 0.87509227 0.12039445
1392 -0.1550329 1.2416822 -0.08975641 0.026933031 0.10729449 0.37074 0.49303463 1.8757704 0.10753642 0.45831284 0.044519205 1.3784571 -0.82975733 -0.2555248 0.6744888 0.56221235
932 -0.34012952 -0.034210365 0.09893326 -0.9991094 0.640257 -0.13969496 1.0310996 1.3316416 0.21612862 -0.12961382 0.2707499 0.42226166 -0.9528044 -0.24461219 0.7914616 -0.121252134
239 -0.1557255 0.5478612 0.44517776 0.10099824 -0.066166386 0.61568755 0.5069916 1.4827484 -0.015648277 0.5824754 0.6210374 1.395258 -0.41122058 -0.2457492 0.28365526 0.6285454
322 -0.32769644 0.936336 0.264121 -0.2885724 -0.16022488 0.34035155 1.5861077 0.07071102 0.93612885 -0.23260687 0.4517647 -0.44289505 0.07903191 -1.19004 0.4143882 0.2936241
1548 -0.55684143 1.1608402 -0.08768191 -0.7265834 0.21862453 0.4295204 0.9286971 0.5987957 0.94783765 -0.15457973 0.5282408 -0.58824515 -0.081188686 -0.2496112 0.35618848 0.61085975
325 0.40318567 0.7354274 0.13046 -0.24380358 -0.24842712 0.3027514 1.1889642 -0.08954533 0.56344974 0.12109739 0.36166114 -0.72574085 -0.5037672 -0.8707227 0.37424085 0.052217137
326 0.21308528 1.3965173 0.6879341 0.136701 -0.11334759 0.57775235 1.1706023 0.34319392 1.1811781 -0.20391601 0.15415911 -0.6887759 0.2657099 -1.3736796 1.1060293 -0.010268043
342 -0.22078933 1.1375065 0.7641789 -0.09658554 -0.13476747 0.51564807 1.474765 0.29818198 1.0956597 -0.18878756 0.2494599 -0.703836 0.15553464 -1.6013566 0.76289827 0.19628261
1346 -0.14106402 0.8009642 0.18388276 -0.9893655 -0.41678187 -0.28504345 0.7635394 0.16130371 -0.9564915 -0.08306529 -0.2427101 0.38196683 -0.5938693 -0.34978327 0.13279974 -0.002443875
1298 -0.4937892 1.1980922 0.48602912 -0.7407677 -0.24458353 -0.47630355 -0.26936322 0.22224194 -0.18848863 -0.7011007 -0.70367855 0.29796368 -1.0366944 0.38857478 -0.23961273 0.015373745
401 0.9425157 0.8080719 0.39267296 0.40851268 -0.03787013 0.51681244 0.5928197 -0.112728745 0.4363316 -0.04768456 -0.10932884 -0.64801127 -0.5181464 -0.03558357 0.87932736 -0.12805092
1566 1.6317099 1.0985354 0.15075225 -0.49702325 0.40063155 0.3677601 0.4386982 0.80829734 0.6184004 -0.037138537 -0.13221928 -0.39816898 -0.8301331 -0.4734294 1.5307668 0.2853812
1742 0.58623254 1.2550762 0.4872012 0.004420626 -0.15449296 0.78507507 0.7998561 0.30347005 0.51162887 0.029450746 -0.5901904 -0.78148437 -0.18144229 -0.90500414 1.5246146 0.31267032
962 0.3083408 0.5933089 0.06289551 -0.8511916 -0.25813368 -0.40200296 0.56353134 0.31533337 0.77583754 -0.1943299 -0.8635937 -0.092196435 -1.061447 -0.74090624 0.6407692 -0.36268222
334 0.63326466 0.9941115 0.61580515 -0.602309 -0.6193041 0.40359774 0.5993452 0.040787023 -0.2832045 0.18108071 0.34649825 -0.2506011 0.08757727 -0.8937619 0.098084554 1.1478324
1860 0.036334682 1.1561407 1.4439268 0.7218979 -0.51822156 0.19160959 -0.056135133 0.6265711 -0.06632108 -0.5761638 0.7752811 -0.82106817 -0.021799397 -0.53187966 0.6473967 0.728719
276 -0.8706294 0.6446408 0.87412864 -0.24014863 -0.65194446 0.32658678 -0.10797762 0.15538202 0.17717709 -0.8066438 0.85962516 -0.31806493 -0.36527455 0.27076247 -0.35139477 0.8065533
1143 -1.0921607 0.85862714 0.88488156 0.100883916 -0.21384004 -0.29350632 0.11828645 0.26316208 0.021709938 -0.8900196 0.64124215 -0.07995486 -0.8083452 -0.10825027 0.2994218 0.967949
1055 -0.25979137 -0.61593044 1.3349361 0.5502406 -0.8792621 0.28159255 0.3548978 0.48360652 -0.81988734 -0.78615063 -0.83436173 0.43873245 -0.8616364 0.5012491 0.89186835 0.43531388
392 -0.4230063 0.16559362 0.5983712 0.75449336 -1.0643753 0.33858743 0.74976635 0.9346511 -0.3517389 -0.3010703 -0.7258224 -0.101960875 -0.6757764 1.0022486 1.1275299 -0.5056927
1061 -0.101918355 -0.17214783 1.5031545 0.3810888 -0.647513 0.2131111 0.35722214 0.5867138 -1.2808328 -0.64689547 -0.733188 0.27632114 -0.24980165 0.49903548 0.49852628 -0.005308448
1062 -0.23521423 -0.1051471 1.5915219 0.48090664 -0.85849345 -0.3687782 0.49853757 0.78533494 -0.9622402 -0.94080186 -0.8072492 0.12724517 -0.4713861 0.05003495 0.9588911 1.1697155
2013 0.35652158 -0.64176923 2.0535192 0.5600547 0.3055135 0.15587658 0.19862387 0.20062728 0.419967 -0.9420039 -0.8633097 0.08321914 -1.083171 0.4427832 0.9883612 0.46676192
1128 -0.3515954 -0.14542928 0.8111633 0.32005006 -1.0422093 -0.10801732 1.1000166 0.15815938 -1.133982 -0.6270593 -0.41548276 0.22967282 -0.38621923 0.30134732 0.61833227 0.12051536
1185 -0.18682519 -0.28232276 1.5470053 0.4446783 -0.9511682 -0.02266339 0.617413 0.44957614 -1.347938 -0.930824 -0.82074505 0.29148358 -0.76517653 0.33548522 0.9572595 0.4867114
1178 -0.5307393 0.031237423 1.2216812 0.15868281 -0.74955356 -0.37680772 0.4274071 0.04349916 -0.89384294 -0.9407705 -0.51256377 0.41613463 -0.8371804 0.036889806 0.99463564 0.24071385
355 -0.19230378 1.2738636 1.1461655 -0.2805091 -0.21633844 0.04747809 1.0437169 -0.36593822 -0.13330603 0.85596496 -0.35432443 0.43662652 0.1519098 -0.009960687 -0.046527274 1.1582882
1404 1.0641342 -0.18207829 0.18065855 -0.23699059 -0.44369823 0.82930493 0.53864896 0.32071188 0.20037413 -0.66215146 0.18142028 1.0803252 -0.74051577 0.42881295 -1.3983619e-05 0.6501648
1411 1.0178124 -0.2997938 0.3999431 -0.5643932 -0.57210994 0.780626 0.51402754 0.43936482 0.08602061 -0.82326996 0.25962287 1.2641549 -0.9234534 -0.04127365 -0.028268434 0.7592027
1416 1.1542901 -0.27275467 0.39900777 -0.45891678 -0.47197846 0.96619374 0.5338101 0.3432467 0.11175769 -0.7064921 0.33835772 1.1756253 -0.98792654 0.06214285 -0.032856375 0.7535707
1428 1.0290719 -0.31510353 0.51969403 -0.52190465 -0.5000564 0.85946363 0.48691192 0.32059774 0.08753669 -0.65205216 0.26900664 1.1729574 -0.99619013 0.07509355 -0.08802706 0.7959549
1442 1.0445949 -0.32603464 0.43062818 -0.6088345 -0.55208194 0.8507583 0.54948056 0.3155823 0.15825434 -0.6947033 0.26606518 1.1827111 -0.98261917 0.048571855 -0.080307655 0.7949192
1444 0.9861768 -0.18992956 0.55721056 -0.83170664 0.0007503445 0.74989593 0.42645386 0.19138777 0.29417932 -0.65924376 0.24883984 1.1417247 -0.7631013 -0.03289842 -0.007688513 0.84384394
1451 0.64007586 -0.118080236 0.6261694 -0.42509544 -0.3846267 0.9815372 0.2608131 0.41923362 -0.036148176 -0.30443263 0.07836553 1.17602 -0.95564336 0.104417756 -0.12060895 0.91201955
1458 0.9308586 -0.29175135 0.40529662 -0.40545437 -0.6921073 0.9213245 0.40374547 0.35089523 0.22715507 -0.71500814 0.2989487 1.1499996 -0.9952327 0.059708767 -0.10241309 0.6866235
1459 0.8962607 -0.36588937 0.4547601 -0.47518227 -0.7238426 0.8269677 0.5049729 0.29745787 0.1073462 -0.71827626 0.3298113 1.1264893 -0.87324613 -0.038528103 -0.06432188 0.6414458
1461 0.9795227 -0.2622859 0.37983558 -0.4561404 -0.63625836 0.9317229 0.48721224 0.38341665 0.073913455 -0.62241405 0.28900886 1.1591989 -0.9711558 0.05027743 0.0202066 0.7742705
244 -0.08036723 0.19274418 0.58699995 -0.39141375 -0.2775615 1.1566536 0.63222563 0.15791507 -0.21097423 0.032595076 -0.034722265 0.8069566 -0.21610713 0.35418472 -0.44130623 0.73079914
1476 0.6952771 -0.30356807 0.19024757 -0.38391995 -0.35667998 0.7237095 0.5767275 0.4698208 0.104175426 -0.56883085 0.3068606 0.9650684 -0.42280114 0.5086841 -0.1091645 0.7216308
1478 0.8344519 -0.3513736 0.29933786 -0.4078406 -0.5038686 0.8502497 0.30968064 0.15753521 0.42473468 -0.5096336 0.19345753 1.0141466 -1.0828706 0.26419747 0.3222775 0.54116917
231 -0.18783496 0.6355123 0.6323229 -0.5611952 -0.056130424 1.0134085 0.29480827 0.6231232 -0.076974556 0.74059993 -0.16925476 1.0566 -0.45183676 0.029731281 0.20513031 0.49383453
940 -0.78422767 0.91103745 0.4364441 -1.18723 0.29599985 -0.17529473 0.5416742 0.5240858 0.8613324 0.057443555 0.7085641 -0.22260886 -0.46566936 -0.3355989 0.7092425 0.49817744
917 -0.8347804 0.4729253 0.80784905 -0.9611953 0.41044575 -0.28130382 0.6416218 0.4073807 0.7609392 0.12142069 0.5601098 -0.04342769 -0.5742532 -0.49553004 0.73080146 0.32425135
967 -0.563084 0.48896217 0.4269204 -0.74844974 0.025448902 -0.42158794 0.16961612 0.58816284 0.7634572 -0.30303648 0.41743478 0.11650838 -1.0564361 -0.6967588 0.6796843 0.38385028
344 -0.19101733 0.8424529 0.7342638 -0.08456116 0.53600097 0.7323103 0.77005035 -0.44020495 0.70880944 -0.07987518 0.9181113 -0.44850028 -0.214213 -0.043458678 0.573501 0.36432108
961 -0.83322656 0.3923914 0.76020956 -0.9682949 0.25673747 -0.3488346 0.54193395 0.41654313 0.6118599 0.071425065 0.57576823 -0.08543564 -0.62790745 -0.33516148 0.98439443 0.30813256
1002 -0.378856 0.88321114 -0.111039504 -1.1067466 -0.74332905 -0.6759406 0.76871073 0.6062256 0.9473946 -0.2675463 0.13239886 0.23217908 -0.28728592 -0.7770992 0.8532392 0.03288073
866 0.40746754 0.42970797 -0.10660576 0.02943285 -0.3637321 0.24426633 1.1271479 0.5883297 0.4587007 -0.072929956 0.79788226 -1.0287952 -0.43573135 -0.29551792 0.37446052 0.48169792
1541 0.38107035 0.42764172 0.4080215 -0.15810123 0.11333459 -0.028057314 0.5465581 0.8499604 0.0044916384 -0.30452386 0.06094849 -1.1596205 -0.5344832 0.86229175 -0.37267292 -0.017978525
1547 0.08731907 0.88423204 0.07807095 -0.23331264 -0.021431157 0.07885804 0.30041823 0.9337417 0.73016804 0.02744861 0.35394952 -0.6714785 -0.14557292 0.68570805 -0.26515895 0.32638618
1418 0.8814751 -0.335726 0.61560243 -0.43850315 -0.3828211 1.0136194 0.4603873 0.40404025 0.29243836 -0.6917657 -0.09395915 1.1795952 -0.6428766 0.24612176 -0.056855112 0.936213
1402 0.8802344 -0.29762754 0.8388292 -0.6818447 -0.2239035 1.0290761 0.22036955 0.26544648 0.3641747 -0.68127555 -0.0605748 1.2822968 -0.7269195 0.4949464 0.12047915 1.148357
1410 1.0059817 -0.34179494 0.50354797 -0.5442613 -0.4918276 0.91308707 0.4521174 0.493334 0.20166585 -0.6224231 0.26194766 1.240907 -0.7649663 0.2266213 -0.122861646 0.8185244
1441 0.6321038 -0.37108672 0.74382925 -0.606498 -0.1577878 1.0983478 0.51481134 0.34864995 0.40853807 -0.558861 -0.07444875 1.142998 -0.64262676 0.36361185 -0.026680488 1.2512566
1501 -0.50651306 0.32579666 0.6152604 -0.7560852 0.6726214 -0.2152286 0.8320087 0.2549836 0.4033445 0.31153932 -0.13513283 0.1543322 -0.41198212 0.4246368 0.9914967 0.115130164
755 0.013569163 0.55509293 0.6315937 -0.4623327 0.67193466 -0.5368834 0.6665674 0.09278154 -0.051061347 -0.1696848 -0.6108516 0.21164945 -0.4696884 0.6680495 1.439249 0.613681
1635 -0.10496806 0.3474691 -0.20806003 -0.50853395 -0.010691414 0.9417645 1.0842675 0.8625242 0.19922616 -0.85295343 -0.1901126 -0.21578261 -0.48534897 0.28358373 0.43244615 -1.0094925
1636 -0.3988822 0.14391455 -0.12264586 -0.90007997 -0.5863373 0.7159795 0.5144834 1.2347587 0.031440575 -0.829039 0.20290573 -0.73028964 -0.5179544 0.35047102 0.6890678 -0.27841476
1580 0.28291997 0.27474123 -0.1869565 -0.9433098 -0.59813 0.9605617 0.46817353 1.1024804 -0.091696195 -0.8016025 0.24488264 -1.0056878 -0.86576366 -0.10836931 1.1233876 -0.3850873
1558 0.03589931 0.058226436 -0.048423734 -1.03686 -0.74613637 0.99335176 0.36061555 1.1603736 -0.19432873 -0.9957705 0.23313664 -0.90561825 -0.82343376 0.12536983 0.96785086 -0.28248885
1013 0.49386728 0.08528964 0.8972995 -0.30130312 0.7418682 1.1069516 1.9108479 -0.25361833 1.2756352 1.2900566 0.41456524 1.1298976 -1.995998 0.98965764 0.08372365 0.98204315
471 -0.4206653 0.25088307 0.5277928 0.43934292 -1.0261215 0.14399424 0.6823915 0.75638604 0.24042033 -0.24331237 -0.8404058 0.25083792 -0.02244666 0.420768 0.7759817 -0.40040198
1819 0.13107298 1.3972846 0.7188827 1.028867 -1.2205069 0.45086083 0.62039906 0.58924353 0.45227438 -0.33241504 -0.73576427 0.0107729 0.31573483 0.07772926 0.39302444 -0.29866293
1385 -0.19147608 1.1713526 0.50421697 -0.18542302 -0.706778 -1.0176612 0.8184962 0.45606443 -0.40714365 0.18490198 0.90524906 1.3492857 -0.19647563 0.52138126 0.23798238 0.63023657
348 -0.109184235 -0.06897026 0.73897016 -0.10683772 -0.45745036 -0.8662291 1.4097059 0.30596855 -1.1175938 -0.48092678 0.29463091 0.83688015 -0.6404086 0.1030548 -0.024185978 0.41377503
1254 -0.31417876 1.2672802 0.5891145 -0.2084612 -1.0148989 -1.0539986 0.9940077 0.61139154 -0.7000576 0.19493756 1.057199 1.7210627 -0.17796414 0.49737728 0.45971495 0.70540565
1255 -1.0714924 0.8327045 1.0389398 0.037880953 -0.6490057 -0.8797112 0.6373402 0.19599022 0.4599835 -0.17462195 0.5293021 1.1011972 -0.14998358 1.3270694 0.55693674 0.14291815
224 0.03585845 0.20289885 0.5760398 -0.70986736 -0.4410118 1.1900979 0.68689525 0.009337218 -0.057469048 -0.100347586 0.22992143 1.2413961 -0.082532555 -0.04456455 -0.26668665 0.3488207
225 0.4988595 0.21785204 0.42763513 -0.49296972 -0.5314946 0.99384767 0.8443566 0.23683304 -0.07429179 0.044684276 0.10841119 0.9714324 0.15915115 -0.078329064 -0.15907378 0.8183594
232 0.22591749 -0.0054589035 0.76411945 -0.60519 -0.22025494 0.83565134 0.61188006 0.35890162 0.14121675 0.07447036 -0.13522872 1.3763596 0.16956495 0.1357108 -0.12352312 0.26978314
241 0.09967092 0.033286646 0.6907308 -0.6264825 -0.409254 1.0924863 0.7167084 0.3205615 -0.043977007 0.28191552 -0.043185793 1.1932034 -0.22786233 0.13044392 -0.2262701 0.7067442
246 0.27091527 -0.19690934 0.8116602 -0.6871315 -0.36705428 1.0849533 0.8082116 0.3017107 0.09315851 0.056051113 -0.089672945 1.3080655 0.10618468 0.16194507 -0.11390052 0.619907
1999 0.3129343 0.65484595 1.4853966 0.5326031 0.9713599 0.18615457 0.6283027 -0.18667433 0.2969324 -1.0938687 -0.6302384 0.9262169 -0.8962541 -0.25657922 0.36552528 -0.39317295
1996 0.22325076 0.5000953 1.8554778 0.6236247 0.8222859 0.3990977 0.60231525 -0.32528514 0.51508486 -1.3250399 -0.59539026 1.1953561 -0.9808043 -0.2841019 0.4980219 -0.08787427
1997 0.009175882 0.7286887 1.5283539 0.66624045 0.71602184 0.13474025 0.30009398 -0.086595304 0.3628134 -1.7651784 -0.13280235 1.1583055 -0.7761007 -0.1881785 0.6038404 0.1947754
1998 0.20524636 0.46691182 1.8375392 0.5317688 0.8195397 0.3527967 0.699914 -0.36459848 0.50729793 -1.398944 -0.31619188 1.2197152 -0.8719714 -0.4105382 0.65613425 -0.22688003
2000 0.16825885 0.42658675 1.8396493 0.4953943 0.80739623 0.2701363 0.5487879 -0.17428699 0.2663187 -1.3185017 -0.50841945 0.95317566 -0.9909064 -0.45013532 0.28752816 -0.26814732
2002 0.32230374 0.14423788 1.9016539 0.6766455 0.69617516 0.09837686 0.6877389 -0.105087735 0.67205656 -1.2481432 -0.29470596 0.82793444 -0.80899084 -0.5133845 0.53004825 -0.059024345
2003 0.13874799 0.6070386 1.4006741 0.42977524 0.64737606 0.19658884 0.8043687 -0.63055676 0.33773986 -1.0470606 -0.43615663 0.68313557 -0.6264494 -0.39454734 0.629462 -0.30841085
1573 0.47278842 -0.0058408123 0.19051193 -0.6184372 0.093287505 0.30704767 0.21774122 0.44389662 0.69462925 -0.69671494 0.13893244 0.9709478 -0.4764623 -0.3105354 0.8013759 -0.039962392
2020 0.24834505 0.20056999 1.7875024 0.4580887 0.38809326 0.5049495 0.6901228 -0.45473158 0.22945432 -1.3394315 -0.54187673 1.39385 -0.80277693 -0.42906305 0.58902246 -0.14161181
2030 0.17666267 0.21679242 1.462194 0.7782434 0.93381405 0.19279574 0.8678242 0.059989184 0.76159227 -1.0237353 -0.4412604 0.77715623 -0.96997184 -0.42369717 0.68132246 -0.039082572
2046 0.973637 0.40314898 1.4996887 0.7123488 0.020183023 -0.7183898 0.43910643 0.21115375 -0.29885852 -0.7985519 -0.11523214 0.6470637 -0.67813665 -0.28027028 0.67843133 -0.15498628
2049 0.47650817 -0.2753991 1.8056868 0.33328623 0.5655275 -0.24949126 0.59730315 0.600573 0.41600162 -1.0647608 0.080721036 0.32173154 -0.30245924 -0.7822263 0.31095928 0.46883902
2074 0.9769974 0.07329312 1.6377654 0.96123403 0.36756977 -0.4321499 0.69723195 -0.049141675 0.47622257 -1.016399 0.1740212 0.59126973 -0.7442367 -0.08610235 0.3032631 0.20353347
194 -0.52820843 0.36487383 1.0848107 -0.33313707 0.10319489 0.4870868 0.6403679 -0.2875238 0.43107408 0.70751435 0.39386865 -0.56652033 -0.94438654 0.5773653 -0.37687835 0.58336216
2215 -0.4062661 0.9255428 0.42026892 -0.7721697 0.2217433 0.76896805 0.64707494 -0.51519126 0.55426383 -0.43275374 0.94823074 -0.7329035 -0.5987584 0.25528187 0.103163674 0.53034425
673 -0.25528795 0.34170383 0.57639664 -0.28825128 0.11048836 0.41571885 0.70694876 0.3277718 0.10722753 0.9632036 0.3211515 0.013050042 -1.0800651 0.29203016 0.2459781 1.1114136
304 -0.02696571 0.33771268 0.12891464 -0.015972245 -0.7964605 -0.16284966 0.86438066 0.87519354 -0.04385033 0.2981304 0.7445266 -0.9995856 -0.5722405 0.7688955 -0.05715307 0.38719666
2182 -0.3903536 0.7580492 0.47199193 -0.66115415 0.07804213 0.393966 0.74063015 -0.45480692 0.42888337 -0.34594563 1.0129579 -0.6907461 -0.67788875 0.16883007 -0.07574908 0.5743404
1484 -0.18770458 0.18218812 0.7387336 0.043406926 -0.090858065 1.0529677 0.70522004 -0.5421064 -0.41077572 -0.13763358 0.3578444 -0.44666913 -0.62627804 0.78254765 0.3008272 0.4974131
1749 0.07566847 1.2665905 0.42787772 0.7065632 -1.4798498 0.16373278 0.56768036 0.865555 0.01768063 -0.45652747 -0.988959 0.28538668 0.11430228 0.6410306 0.4775095 -0.3283016
1813 0.19224393 2.0267377 0.07005425 0.7130667 -1.3342371 0.6263504 0.53896683 0.56055933 0.4086121 -0.43313974 -0.65985173 0.26005334 -0.11650365 0.4450967 -0.16579644 -0.55988294
1853 0.2739585 1.4221683 0.52931803 0.8419654 -1.0103455 0.38441703 0.57665116 0.58297414 0.3854975 -0.2107476 -1.0679559 -0.045589462 0.077287346 0.31572723 0.22648261 -0.16625217
1419 0.46406245 -0.40272915 0.6074638 -0.3118086 0.17661074 0.95903856 0.82409674 0.41145238 0.10593354 -0.31117386 0.13826263 0.6679763 -0.84692097 0.20144603 -0.16301852 1.3438351
2175 0.581801 0.6446379 0.7107764 0.28108758 0.030156435 0.98656046 0.4353483 -0.25638875 -0.05229713 0.19328617 0.19391623 -0.1979752 -0.20671754 0.5627093 0.3688468 -0.037043516
2178 -0.02828536 0.24439585 1.0172435 -0.9574908 0.7810073 -0.5875692 1.3342417 -0.054983407 -0.08872659 -0.8022845 -0.4639524 -0.80932784 -0.2675224 0.8814101 0.1354096 -0.51980996
196 0.9276109 -0.24412513 0.81576943 -0.3038974 -0.9323335 0.119307175 1.0674664 0.24422666 0.6787564 0.65164506 -0.5168811 -0.052066807 0.0118248295 0.27846235 0.22663647 -0.3898838
2395 0.7635437 0.2799551 0.019989245 0.57269675 0.0808536 0.52139217 1.6926845 0.47291672 0.22629373 0.2941231 0.18254194 -0.5324169 -0.4426042 1.3537942 0.12408533 0.3281812
292 1.0733414 0.7050393 0.36446154 -0.47114876 -0.38952813 0.52041256 0.35423577 -0.1998058 -0.073118426 0.08530597 -0.8674706 -0.26847172 -0.95951974 -0.2187217 0.545703 -0.10717453
772 0.33101264 1.0773054 0.42192352 -0.00043832487 -0.0011100811 0.54524714 0.7426018 -0.37559777 -0.51640224 0.07788676 -0.14929159 -0.87572044 -0.66731703 0.8881423 0.5782705 0.82327056
1170 0.3859419 -0.13590413 0.38646922 -0.5159184 -0.39675003 -1.0448887 1.4603428 0.12818822 0.19772978 -0.25966942 0.4936767 -0.11958313 -0.37038475 -0.18282858 0.16026004 0.072076924
851 0.84197104 0.6999803 -0.007078593 0.083244726 -0.20912412 0.15293492 0.6957214 0.48681813 0.71190906 -0.10241971 -0.3363211 -0.66260445 -0.7305545 -0.3134168 0.40136263 -0.40525782
826 0.9605469 0.38991427 0.08978615 0.8957243 0.031508174 0.33839723 1.6775917 0.39288223 0.46966052 0.22179388 0.0193004 0.023013702 -0.5371514 1.684271 0.44712424 0.3527782
1261 -0.16384761 1.2665911 0.8968046 -0.14811166 -0.42403305 -0.88793397 -0.31292552 0.19447726 0.4007523 -0.84611446 0.50100774 0.34478483 -0.25281614 0.9366488 0.30897948 0.6012107
1424 0.8601115 -0.33595845 0.91546637 -0.84693307 -0.12893096 0.90041316 0.4223619 -0.22980121 0.34688562 0.07116028 -0.2650521 1.0444909 -1.1145624 0.25588113 0.4821063 0.9942276
1432 1.1773456 -0.22452568 0.82802814 -0.6136307 -0.33429262 0.88598984 0.27208266 -0.11637297 0.2709112 -0.5698434 -0.16931091 0.90451354 -0.6747468 0.20506603 0.3002623 1.0118399
1456 0.7983618 -0.4156746 0.9762226 -0.8793382 -0.018398158 0.70865464 0.6072337 -0.05617236 0.13171649 -0.49222738 -0.050403822 1.3468115 -0.40285283 0.43400425 0.36778423 1.0407292
1006 0.16556947 0.47930256 -0.07714984 -0.06989877 0.16327071 0.19155937 1.4725804 -0.016188808 0.948468 0.7471751 -0.31184575 0.97303647 -0.8200157 0.7286745 0.6922742 0.39373556
1391 -0.047254845 0.24830121 0.013082176 -0.18391167 -0.22148897 -0.094874725 1.7408558 0.6696461 1.0181999 0.7471443 -0.5239183 1.5429649 -0.735234 0.11753264 0.8863543 0.98923093
732 -0.36753887 1.3350486 -0.3358911 -1.0809109 0.16765855 0.86418796 0.9690138 0.41052526 1.2300334 -0.47686285 0.056268703 -0.4476596 -0.29882985 -0.4690228 0.6960241 1.2493039
1408 0.39913628 -0.50391746 1.019138 -0.7167974 -0.41393515 1.0873023 0.31219578 0.07207171 0.42502016 -0.48392135 -0.18530312 1.0708696 -0.66009116 0.29278105 -0.13250351 0.9647728
1427 0.38702837 -0.2409112 0.8250801 -0.673736 -0.12488037 1.1313126 0.5949389 0.15089692 0.43044803 -0.33625486 -0.17683482 1.4264438 -0.51641333 0.24266633 0.04528076 1.0229319
1429 0.6938602 -0.49193045 0.9719951 -0.5259228 -0.20933609 0.96114165 0.52541035 0.052690577 0.38862678 -0.44952896 -0.11249932 1.0443617 -0.51681733 0.19164306 0.26856908 1.1271311
1572 -0.34135538 -0.1108865 0.066264 -0.56122345 0.30839854 0.0052536177 1.255385 0.76235473 -0.025591204 -1.6601603 0.023606397 -0.1869316 -1.1798021 -0.21508503 0.53244346 -0.63263255
227 -0.17971997 -0.013914787 0.7007722 -0.8753705 -0.06676708 1.1520599 1.0213569 0.4505029 0.19780658 0.46437606 -0.4305468 1.4705548 -0.123506464 0.04950758 -0.084869094 0.17914885
375 0.32702413 0.25030175 0.21644044 -0.5860956 -0.37421417 0.68593687 0.9948157 0.03258619 1.3614953 0.050092284 0.060758997 0.98166174 0.53382236 0.86568093 -0.29073557 0.14578635
922 -0.33007988 -0.21711262 0.06738779 -0.45677975 -0.9124715 0.045837082 1.0414977 0.4410257 -0.5519786 -0.8898444 0.062996164 0.4032164 -0.5894874 -0.5073909 0.99458694 0.12622663
1611 -0.0711544 0.4243161 -0.40694845 -0.8284725 -0.41170153 0.5346966 1.1154491 0.6225873 -0.52019995 -1.2301707 0.123128474 -0.021781921 -0.37779936 0.18890604 0.6412015 -0.56991637
1082 -0.7213092 0.31132787 0.7381765 -0.41436505 -0.40690228 -0.65057546 0.83864504 0.014540554 -0.457364 -0.7364015 0.26944634 0.12011573 -0.58932585 -0.4611967 0.90422416 0.39365068
1559 0.25993225 0.09355053 -0.15622868 -0.8453166 -0.8385157 0.7074634 0.55744296 0.7675207 -0.27152276 -0.8414779 0.37659246 -0.7982784 -0.64399743 -0.031175599 1.1330972 -0.103605255
972 0.050121944 -0.32246307 0.42735034 -0.99050796 -0.45129856 -0.78833485 0.9992366 0.17053503 -0.45279318 -0.40839273 -0.19451874 0.5278143 -0.8560215 -0.21698394 0.9533859 0.42014897
916 -0.24306825 0.10216768 -0.058948245 -0.054874316 -0.90721923 0.21840909 1.0631332 0.9569211 -0.08209132 -1.3308477 1.0439129 0.3612262 -0.1261088 -0.53270775 1.1749023 0.16208
1603 0.11243449 0.14002386 -0.01660433 -1.0604093 -0.799278 1.0679113 0.22892219 1.2046912 -0.14013694 -1.0056428 0.16491185 -0.98275363 -1.0141861 -0.013033042 1.3482548 -0.18813686
1909 0.8856087 0.4159612 0.83986783 -0.24841674 -0.43380073 0.15524042 -0.01396747 0.7081062 -0.4909605 0.18192868 -0.7874617 -0.6185014 -0.86468554 1.113322 -0.23902671 -0.3769403
1910 0.6861107 0.51975775 1.0380731 -0.12503587 -0.10927429 0.031371847 -0.1679441 0.9263497 -0.26532373 0.037182365 -0.77250767 -0.27112862 -0.43432972 0.93749493 -0.26345938 -0.5082283
2348 -0.7792955 0.5329382 0.81057245 -1.20292 -0.43442473 0.5564582 0.07198216 0.008525469 0.30255124 0.19655012 0.6091716 -0.22078426 0.040010095 0.21370903 1.0144225 0.061259534
1330 -0.2786012 1.152278 0.72383004 -0.056027997 -0.39283675 -0.84308493 -0.022169422 0.22159646 0.665998 -0.52291775 0.29372552 0.72740406 -0.10800553 0.95496446 0.62649536 0.45875403
372 -0.3797085 -0.0015616354 0.51577 -0.49511504 -0.6268652 0.8159245 1.0635625 -0.90546894 -0.3912606 -0.68748885 0.43539396 0.08799094 -0.30455706 0.65710217 0.35098043 0.8759053
628 -0.17710824 0.2574212 0.95084304 -0.71200365 -1.0941225 0.34605306 0.32576784 -0.64595324 0.69034433 -0.5689776 1.2077544 0.28431854 -0.7276591 0.11656116 0.19797866 -0.6825024
1264 -0.006095259 0.89842236 1.1894557 -0.06096185 -0.2251603 -0.88774097 -0.07169683 0.1307596 0.2878564 0.013132133 0.41037267 0.7285823 -0.36161786 1.2773974 0.98181564 0.380386
1211 -0.12146105 0.96196294 1.2568208 0.13602503 -0.20899789 -0.83916 -0.07663524 0.17481522 0.51056904 -0.28489286 0.6457407 0.52887136 -0.12789683 1.0056251 0.53816915 0.20021023
1213 0.33899635 1.3886274 1.1282655 0.62327534 -0.2832811 -0.9056235 0.15868382 -0.06976604 -0.37525862 -0.07178498 0.5565239 0.91448843 -1.3686762 1.076205 0.96667784 0.8682269
1250 0.17146258 1.5920637 1.2266002 0.362049 -0.43964565 -0.8851234 0.033407852 -0.24326234 -0.05328445 0.045178454 0.85861784 0.7208979 -1.0360972 1.2909296 0.75084734 0.6405293
1296 0.1681383 1.0261542 0.9206103 0.4376572 -0.065806694 -0.85384876 -0.013263259 0.6882341 0.26537532 -0.23614395 0.8271436 0.60687673 -0.2896632 1.1767426 0.6952034 0.3581158
1300 0.25331566 1.2319845 1.6198466 0.38926533 -0.27536473 -1.0192404 0.13529488 0.0595201 0.30345201 0.09274432 0.8849407 1.2683548 -0.5528979 1.15631 0.98809814 0.44581047
1299 0.3685341 1.4364458 1.4665283 0.41728184 -0.33227125 -0.93678 0.04043291 -0.061243273 0.26158297 -0.078065254 0.8278096 0.8020305 -0.27117035 0.75722146 1.091838 0.47434816
1316 -0.6437764 0.98581564 1.2216952 -0.033842575 -0.32051867 -0.8839449 -0.017599283 0.4652718 0.4618859 -0.7314391 0.37095416 0.64004356 0.12831295 1.0517405 0.45236176 0.80400455
1333 0.25916776 1.2348247 1.0361395 0.47419503 -0.30320862 -0.75133324 0.013380073 0.07693215 0.0276034 0.06911355 0.58055705 0.71012974 -0.8882188 1.1007438 0.8566868 0.7660005
1340 -0.01389446 1.3765798 1.1334262 0.040313527 -0.39349452 -0.80233663 -0.06866274 0.20182562 0.78911674 -0.073684685 0.6641002 0.7941437 0.1820966 0.59088564 0.80511856 0.37242833
1350 0.19110501 1.3918154 0.94021475 0.49260348 -0.12740669 -0.9972258 0.16673687 0.20911524 -0.06344787 -0.01507308 0.60406256 0.67218345 -0.79681885 1.072212 0.7805403 0.3915196
1373 -0.03845782 1.1842592 1.5510396 0.38744125 -0.072113074 -0.9986585 -0.10946979 0.028660022 0.5849462 -0.14959753 0.79603034 0.8884221 -0.68906236 1.0715299 0.72378254 0.121810175
1598 0.6809564 0.013884374 0.90059006 -0.54070115 0.72365177 -0.23236893 0.2492817 0.7225866 -0.2888126 -0.05007791 0.22276546 0.009015959 -1.2220521 -0.6003466 0.7838191 0.22141878
454 0.25427067 0.1266076 0.73740554 -0.32952777 -1.056704 -0.28477922 0.61184514 0.20905757 0.6714043 0.23145804 -0.38297895 -0.4657719 0.14408265 0.30134615 0.5556364 -0.2489024
472 0.79320985 -0.28632918 1.0799943 -0.63057756 -1.2787818 -0.23009835 0.8725614 0.3845824 0.72650987 0.48469356 -0.6171213 -0.3384601 0.08874178 0.25757396 0.55644405 -0.3843561
2322 1.2163211 0.5292828 0.44852298 -0.40873823 -0.86650956 0.12967964 -0.04210992 0.578081 -0.12123118 0.19503008 -0.48288447 -0.7846674 -1.3521845 1.1316739 -0.3991462 -0.29657945
482 0.62324846 -0.15221184 0.7207603 -1.3764677 -0.032012932 -0.39701444 0.32373422 0.9839171 0.6095437 0.43516055 0.013290342 -0.010922365 -0.5663357 0.10735951 -0.63766307 -0.14836012
213 0.2973449 0.4649825 0.5522647 -0.44176582 -0.29995373 0.8018624 0.54542106 0.67334306 0.22425614 0.91241586 -0.01320268 1.0179312 -0.37117198 -0.19638453 -0.20609978 0.35662162
658 -0.49116418 0.14336815 0.77925444 -0.91280645 -0.0069962055 1.0305074 0.2700365 0.77606297 -0.16382684 0.70956457 0.13749953 0.6283019 -0.8080341 0.01889163 0.05073895 0.4972106
137 -0.363763 0.8540738 0.48957625 -0.82658625 -0.43072012 0.7422371 0.09480533 0.9554353 -0.21313708 0.9878384 0.063921936 0.4639976 -0.9908986 -0.028065516 0.0054935087 0.65246814
155 -0.2549991 0.6750054 0.81338876 -0.5533166 -0.367147 1.1450562 0.025069745 0.9513972 -0.22907063 1.0169117 0.001161297 0.7093517 -1.0985328 0.1464494 -0.10024588 0.6459684
929 -0.23449118 0.9491426 -0.053544883 -1.4222375 -0.5185437 -0.49224588 0.71294767 0.45001838 0.71372646 -0.019709794 -0.17071491 0.4637398 -0.4323453 -0.7837732 1.007986 -0.19961655
1436 1.1954309 -0.0799328 0.38457462 -0.45655274 -0.507135 0.53878444 0.11862542 0.25636396 0.17839694 -0.5388576 -0.09556276 0.76452225 -0.51471764 0.5810348 0.2143593 0.91246295
1474 0.8630447 -0.12749857 0.44724002 -0.07500995 -0.65137345 0.8773906 0.41586468 0.6457736 0.004112879 -0.6342891 -0.8372998 0.6899529 -0.2733664 0.007345293 0.041923262 0.7551638
990 -0.31950325 0.39303502 0.54139495 -0.027823705 0.8704895 -0.29425022 1.0958763 0.26494947 0.97759473 -0.32537565 -0.4586052 0.09377884 -0.8543509 -0.12939958 0.06266586 -0.42638078
978 -0.29275623 0.4015972 -0.10011707 -0.32338974 0.19845346 0.19734074 0.854164 0.54685974 0.83814526 -0.603857 -0.41446766 -0.19040017 -0.9040801 -0.04775731 -0.07855925 -0.6394172
1108 -0.55067974 1.0871973 0.5929215 0.19173291 0.33066705 -0.83603704 1.100549 -0.115248166 1.4320675 -0.77133447 0.07579773 -0.25449312 -0.87677914 0.016060613 -0.18337537 -0.5510523
374 0.03652208 0.9054737 0.3633943 -0.12390468 0.6092264 -0.7595569 0.9002895 0.5179564 0.6357656 -0.32115877 -0.47570562 -0.7168121 -0.7422161 0.34066814 0.042835947 -0.37053818
315 0.44252327 0.5326881 -0.4420474 -0.22269143 -0.4913182 0.6516531 0.8126632 0.5187948 0.15594244 -0.1876638 0.5259111 -0.5778498 -0.47908047 0.16958703 0.83941615 0.20487934
973 -1.5389674 0.35596606 0.44412494 0.11636778 -0.22171158 0.3350045 1.0536524 1.2883788 0.5641768 0.4773881 -0.80670124 0.42495495 -0.8798009 0.55606246 0.5040019 -0.09663151
