2405 128
1397 0.12517244 -0.14074722 0.04863059 -0.09428854 0.031205071 0.04908603 0.061198298 0.03454121 0.06470014 0.07339963 0.020709645 -0.15899587 -0.12921688 0.02141988 0.041960064 0.06565099 -0.017281203 -0.040160332 0.081928566 -0.057070427 -0.026653621 0.023008559 0.05783414 -0.010873365 0.026318794 -0.07962706 0.15932828 0.10246761 0.0010774692 -0.07958385 -0.018043792 0.06775814 0.08018448 0.08705898 0.02717871 0.1327882 0.029471245 0.030903015 0.04010363 0.09123776 -0.045910135 -0.16273762 -0.039037585 -0.05586043 -0.11146368 0.14770336 -0.04201172 -0.05986077 0.034432534 0.049271517 0.042384587 -0.10309575 -0.0804083 -0.03507764 0.063800775 -0.054036826 0.0021687741 -0.06599945 -0.013828438 0.035387747 -0.008458906 -0.021147197 -0.007211796 0.11532212 -0.09317158 -0.21787718 0.06498657 -0.27736285 -0.26532385 0.18755963 -0.11040052 -0.14327388 0.07150563 -0.017713558 -0.24400382 -0.28484854 0.17099209 0.2359826 0.11826289 0.08418579 0.12931088 0.059203316 0.10273361 0.14481498 0.23845759 0.14834785 0.060382508 -0.17618714 -0.04395591 -0.22413963 -0.1189523 -0.15904985 -0.093741424 0.11350276 0.08732417 -0.24209356 0.19583267 0.121726036 -0.14610437 0.14027005 -0.08541577 -0.06034567 -0.19023405 -0.23479453 0.06152432 -0.12530851 -0.25840795 -0.22222695 0.022749262 0.043252993 -0.19850112 0.23515412 0.016446074 -0.13412029 0.10979345 0.03913899 -0.18063799 0.1990076 -0.23668236 -0.028504744 0.23108089 0.11341399 0.21618216 0.027527576 0.122274734 -0.06431415 -0.29345876 -0.1765813
1470 0.20535906 -0.10352717 0.04838561 -0.07714402 0.010955561 0.0020235928 0.02997759 0.06553047 0.030735334 -0.020255731 0.11613426 -0.06734856 -0.09115952 0.010216905 0.037237953 0.16856349 0.007837642 -0.007938385 0.055251643 -0.01987202 0.036375474 -0.037081774 0.076039225 -0.11611367 -0.025365416 -0.1172105 0.06553208 0.12912872 -0.048511866 -0.11570885 0.06081081 -0.05659424 -0.042604223 0.027222771 0.06204408 0.07394961 -0.112795725 0.010958905 0.04573048 0.04646711 -0.05970057 -0.014215943 0.012342282 -0.017242352 -0.023068067 -0.017774304 0.004012959 0.080436535 -0.096577644 0.06696304 0.07309191 0.046550304 -0.03445897 -0.0571528 0.059567228 -0.14133835 -0.07019484 -0.06560559 0.0010422056 -0.05613694 -0.019027313 0.0025693588 0.0073128827 0.0760518 -0.13524671 -0.1422264 0.06853628 -0.11486356 -0.17726679 0.101704545 -0.1322275 -0.111281686 0.12172728 -0.12514974 -0.23738827 -0.23784879 0.20988187 0.28128275 0.22461425 0.106027365 0.04244983 0.02892324 0.13391404 0.12521243 0.25591582 0.1278088 -0.008142338 -0.16598631 -0.100476235 -0.19590442 0.015485667 -0.061770868 -0.0069641005 0.16691619 0.030319508 -0.18867819 0.20730338 0.13714087 -0.08001727 0.14029598 -0.097335644 -0.07304809 -0.0667468 -0.1499693 0.11238223 -0.16523694 -0.18972072 -0.17868167 0.011167252 0.14785558 -0.20678438 0.23433132 -0.094120815 -0.12835969 0.027782565 0.044350527 -0.14040478 0.11325124 -0.19368115 -0.14137816 0.107554 0.13412443 0.19847311 0.005218832 0.071879186 -0.0637357 -0.22926243 -0.14260484
362 0.062522866 -0.005658485 -0.017660152 -0.04504747 -0.04905115 0.044740226 0.09261792 -0.022848966 -0.0116918925 0.049965538 0.010156185 -0.05333816 -0.058175247 -0.03247637 0.10241737 -0.039628427 0.011200194 -0.034263603 0.1271358 -0.0014736311 -0.008380342 0.0892206 0.048237402 -0.027010195 -0.022275364 -0.0012262122 -0.005143774 0.0028263817 -0.074257605 -0.110946074 -0.08239885 -0.05693201 0.010321399 -0.0038196752 0.04157609 0.12126932 0.03579571 -0.04283966 -0.039708372 0.02703313 0.03322425 -0.020524887 0.095938124 -0.072900645 -0.045215826 0.03889252 0.01452894 -0.08054199 0.027999718 0.0026304289 0.073548235 -0.06782513 -0.06528996 -0.09272646 0.09910663 -0.05724095 -0.0027290834 -0.076379895 0.015594309 0.06277006 -0.09491415 -0.079885535 0.01964196 0.13097622 -0.09106976 -0.09909005 0.094827816 -0.1869269 -0.038060058 0.1011209 -0.12973946 -0.09361353 0.031452652 0.013593541 -0.09948726 -0.19734704 0.09376308 0.12548773 0.04505906 0.12118002 0.16862069 -0.027727513 0.09613818 0.09078831 0.11854217 0.08753906 0.14827225 -0.103349395 -0.064896025 -0.09717327 -0.098069176 -0.1712515 -0.054680265 0.19564919 -0.0016092365 -0.08997229 0.17365053 0.025015926 -0.106535725 0.107616656 -0.08830534 0.003512159 -0.18546855 -0.19079193 0.14026654 -0.04348869 -0.16070217 -0.15529227 0.008301078 0.057127424 -0.10239875 0.14447716 -0.13898931 -0.10458745 0.07142335 0.02919605 -0.05572536 0.10992582 -0.09191084 0.04244317 0.16013941 0.06771034 0.16005577 0.020661715 0.12219152 -0.07907435 -0.17362201 -0.089792505
226 0.107237756 0.14535297 0.043831903 0.11844715 0.009085281 -0.09252415 0.24679443 -0.10155177 0.19321768 -0.11172354 0.17071861 -0.2033144 0.20633584 -0.13683587 -0.11910463 0.019064229 -0.19344619 -0.111713454 0.10751012 -0.26742283 -0.013340586 0.13247095 0.219184 -0.21147949 0.06494004 -0.05492959 -0.14491966 -0.13144541 0.084962144 -0.036416784 0.20519044 0.038733598 0.09220408 -0.19201715 0.08384647 0.066652045 0.08344381 -0.2031106 0.12216818 0.08791663 0.25926593 -0.12260249 0.014110535 -0.101938844 -0.027017862 0.14146884 0.18764904 0.17213996 0.21496707 -0.07173103 0.019570332 0.0013541819 -0.07916858 -0.13683262 -0.1238257 -0.2425035 -0.168924 -0.19409247 -0.11548326 0.11973621 0.012411732 -0.20095557 -0.04517896 0.15259926 0.06377084 -0.2641717 0.071628526 -0.47992122 -0.36902884 -0.037139203 -0.026297403 -0.28128138 0.10503294 -0.01814101 -0.23101622 -0.14565383 0.25020522 0.22407977 0.052502893 -0.13889742 0.35084456 -0.080571234 0.20329908 0.2816778 0.2836912 0.37963465 -0.050063428 -0.23609263 -0.24240488 -0.20371617 -0.013815692 -0.34467468 -0.063020244 0.13952567 0.26766455 -0.32141724 0.34929493 0.09442748 -0.27640763 0.28045142 -0.051724795 0.0049417377 -0.16788037 -0.30177617 0.13620032 -0.25039703 -0.16516432 -0.22097264 -0.007901503 0.024195505 -0.34676751 0.28699392 -0.10124711 -0.23333557 -0.02362178 -0.09029809 -0.3045226 0.20130199 -0.24745564 0.08018669 0.41281784 0.01988233 0.35733908 -0.10279426 0.30422682 0.19369675 -0.19713458 -0.15630159
750 0.21599883 -0.12776358 -0.015580401 -0.14154407 -0.06842835 0.10861219 -0.005573958 -0.07706051 0.0043589673 -0.08634195 -0.084137864 -0.07623412 -0.13650528 0.028017865 0.14407839 0.09890363 0.11280716 0.03469457 -0.04348272 0.0065701744 -0.056812733 0.0038171948 0.046895474 -0.06836387 0.10825375 -0.08738313 0.02427087 0.072014086 0.038397826 0.0135938125 -0.09711514 0.041660856 -0.05537349 0.0043695862 -0.008171393 0.010756413 -0.08834147 0.1723501 -0.09705652 0.0354642 -0.19735374 -0.14683136 0.021982912 0.02805711 -0.19814506 0.007417084 0.0026421591 -0.13954327 -0.033030648 0.08897085 0.14083359 -0.083811365 -0.019145997 -0.045299813 0.0323202 -0.06972545 -0.15028182 -0.013770624 -0.041559067 -0.17710383 -0.0488596 -0.009781317 0.03149803 0.042295303 -0.15228066 -0.19652724 0.15561144 -0.0829343 -0.14766233 0.11295098 -0.15171911 -0.17827074 0.15133238 -0.033728626 -0.22538725 -0.291303 0.15620944 0.1820954 0.27260914 0.17544676 0.09889177 0.017123204 0.06273855 0.07643068 0.24855205 0.19078942 0.0636749 -0.19532202 -0.018465474 -0.2596974 -0.124762364 -0.09990953 -0.069029026 0.20262435 0.029410958 -0.20195435 0.214852 0.06296306 -0.15261444 0.15787749 -0.20164648 -0.07919353 -0.062114347 -0.13704498 0.07632973 -0.092076585 -0.23805012 -0.20098968 0.053033717 0.13110188 -0.2324271 0.27272737 -0.06349486 -0.07770071 0.12447531 0.033088304 -0.06154144 0.17912105 -0.20919324 -0.10763046 0.23377714 0.17006618 0.25837663 -0.0026885998 0.03763484 -0.059091315 -0.13208169 -0.14678602
489 0.1763186 -0.26611653 -0.18434425 -0.12469393 -0.19274786 0.2592814 -0.15811016 -0.19763245 -0.16924511 -0.10162355 -0.25672463 0.06210357 -0.27515575 0.17299631 0.13264067 -0.046925895 0.26230386 0.001289523 -0.10772602 0.076256976 0.19025731 0.16973239 0.060380206 -0.072939225 0.20991953 0.06568458 0.055677794 0.20113172 0.09543464 0.032245576 -0.23310658 -0.11121298 -0.15985352 0.077116296 0.020402417 -0.10873594 -0.13017157 -0.2230605 0.024566146 0.20246209 -0.037662216 -0.14011078 -0.066946656 0.054318406 -0.18477404 -0.049201097 -0.051680956 -0.15837829 -0.021500122 -0.18818133 0.18269071 -0.20853823 -0.13441797 -0.14207134 -0.06595725 -0.068279214 -0.07631505 0.29750374 0.00074556575 -0.00681027 -0.26487628 0.17088945 -0.118750796 0.14084947 -0.2871779 -0.3384363 0.08037588 -0.2029851 -0.18109426 0.18649004 -0.25508934 -0.14002573 0.16146249 -0.0047550974 -0.3612451 -0.34935117 0.28215528 0.2947165 0.26186213 0.22280869 0.095959455 0.106392205 0.34220555 0.23579925 0.39919668 0.28385654 -0.03840439 -0.12255469 -0.017256958 -0.38224864 -0.15058532 -0.22997467 -0.21819434 0.24567242 0.13594976 -0.1150358 0.3350753 -0.0541259 -0.16416585 0.2936204 -0.33677697 -0.12989396 -0.12803237 -0.16612375 0.192726 -0.08231118 -0.41162527 -0.34573105 0.08690783 0.014949458 -0.24379954 0.40479004 0.11659176 -0.17369723 0.19312795 0.12751865 -0.14477172 0.26327035 -0.2854109 -0.08675979 0.29430124 0.3566058 0.3411192 -0.07076552 0.29332373 -0.23407324 -0.29510865 -0.25920758
1462 -0.049568024 0.0073454957 -0.048386004 0.088923514 0.13016011 -0.0029161894 0.05472899 0.0075259167 0.23761883 0.069997445 -0.118609615 -0.16251734 0.042653438 0.02431482 0.12573184 0.022322377 -0.08849042 -0.17432146 0.17475232 -0.17311211 -0.100149155 -0.04985081 0.1601217 -0.051016957 0.044983227 0.032242116 0.029104386 -0.13351701 0.10741468 -0.13799013 0.19197014 0.06247848 0.044662446 -0.20334543 0.09616054 0.12468369 0.0070648068 -0.10850166 0.13099667 0.005357248 0.03931181 -0.056509543 -0.20342152 -0.13489486 0.108855695 0.22230326 0.12653741 0.08656283 0.15315774 0.009481476 -0.12870428 -0.06485013 -0.2174005 -0.14617175 -0.023547985 -0.005542841 -0.0075068967 0.034389798 -0.08381847 0.19348326 0.046365008 -0.013175735 -0.062303144 0.11715575 0.0143359145 -0.2504727 0.04662543 -0.41326892 -0.3103605 -0.007871625 0.07673684 -0.27675268 0.12190885 -0.14983356 -0.2385235 -0.07874022 0.20479932 0.31869918 0.1026536 -0.1364723 0.27678326 0.07760886 0.14258952 0.19315726 0.21482506 0.25472844 -0.041616574 -0.15467331 -0.196348 -0.115003675 -0.065198645 -0.37680846 -0.12837172 0.1249191 0.23688239 -0.12339653 0.18950355 0.2036807 -0.22689302 0.27194571 -0.036365654 0.0660748 -0.27921736 -0.2099605 0.08536233 -0.25779992 -0.1916477 -0.30987936 -0.012383236 0.01808664 -0.20852543 0.20977996 -0.028040277 -0.19039616 0.068245 -0.032909587 -0.28936553 0.124677524 -0.3304422 -0.065123595 0.34373164 -0.07823747 0.30930117 -0.28272793 0.2378296 0.09103228 -0.2802064 -0.26883906
1713 0.043586314 -0.106255054 -0.08965948 -0.006530725 0.051966637 0.009478543 -0.032439668 0.05173142 0.030935246 0.05290239 -0.051053654 0.08301588 0.029770162 -0.023520693 0.04179329 -0.07889305 0.04443799 0.024894347 0.016051356 -0.09804665 0.05845892 -0.10000094 0.08166941 -0.047363956 -0.10585776 -0.073176056 0.047129545 -0.026756229 -0.054027762 0.07523566 -0.08361628 -0.038620822 -0.0397045 0.05659992 0.015964786 0.06426858 -0.0016999114 0.06237662 -0.0032783994 -0.08228411 0.06746421 0.038590558 0.0073084086 0.044785243 0.07003298 -0.006049586 -0.019302746 -0.011794494 -0.112977564 0.034277897 0.039875105 -0.071158275 0.02099366 -0.02873413 -0.08158881 0.061251577 -0.023034811 0.027365558 0.10873357 -0.08130704 0.052040547 -0.019241728 -0.03639545 -0.07223674 -0.12444974 -0.14505921 0.018091192 -0.07542372 0.0675566 0.045301996 -0.07160348 -0.10335576 0.25303024 -0.038310982 -0.13574874 -0.1928462 0.102517396 0.22713794 0.12663978 0.09202335 0.09436689 0.06430081 0.08167402 0.13788444 0.13757509 0.2264876 0.10447028 -0.21881786 0.03098692 -0.24227616 -0.016740523 -0.117169544 -0.035845656 0.21436629 0.07990595 -0.08202701 0.1652008 0.023532229 -0.11292322 0.09098673 -0.14985383 0.054805223 -0.052372765 -0.089397475 0.21626514 -0.085724846 -0.13299482 -0.17998211 0.03253797 -0.020847986 -0.14672157 0.12213878 -0.13224034 -0.09372218 0.17380367 -0.06305797 -0.13091587 0.14839478 -0.12340729 -0.082095094 0.11997191 0.055709247 0.22216302 -0.087872565 0.07081057 -0.09121095 -0.14721718 -0.11857408
393 -0.19764344 -0.12602796 0.04739467 0.20880929 -0.1267436 -0.1971069 0.13186973 0.13973266 -0.1710221 0.08550715 0.07922128 0.050596055 -0.047481854 -0.10997781 -0.024792036 0.076928236 -0.07481424 -0.03270661 -0.1657865 0.011842336 0.12738644 0.0059608934 -0.021769857 0.029384369 0.03034232 -0.13548331 0.031748846 0.07545801 0.060188517 -0.015574322 -0.27709812 0.20401463 -0.21813253 0.16586237 -0.22212586 0.1756507 -0.10247345 0.21675077 -0.15215644 -0.17973453 -0.08859829 0.24815643 -0.04304425 0.18191531 0.1289185 -0.23993023 -0.044682827 0.1528305 -0.05720174 0.064042106 0.16550797 -0.12849887 0.17278282 0.015780922 -0.053429823 0.1855748 -0.08033713 -0.15103762 0.11583674 -0.0047248383 -0.0060162637 0.029048435 -0.06578406 0.06657258 -0.15319464 -0.23370928 -0.056365997 -0.26197794 0.03857195 -0.008975271 -0.16363414 -0.25175536 0.35945082 -0.26023868 -0.25641546 -0.25151986 0.2833446 0.39500827 0.2852772 0.17083465 0.04700202 0.20471719 0.30039743 0.35705906 0.31238997 0.33552063 0.037881102 -0.24637368 0.08332242 -0.33909565 -0.06313733 -0.2429457 -0.14259055 0.22115162 0.07190299 -0.25032005 0.2857583 0.16453324 -0.10995894 0.29121763 -0.23569421 0.062361997 -0.04800187 -0.26124617 0.23998806 -0.31440678 -0.39629886 -0.32302016 0.18351145 0.28600204 -0.19697364 0.27803984 -0.0831173 -0.31114072 0.21463892 -0.008567642 -0.2075994 0.18886188 -0.34756878 -0.014039208 0.2239565 0.17437468 0.3398807 -0.032814194 0.14983384 -0.0851464 -0.3007293 -0.121449344
445 0.03178449 -0.122896746 -0.12860174 -0.0844752 -0.008516945 -0.04252032 -0.14126636 -0.20998701 0.002790716 -0.1239292 0.042538404 0.052077286 -0.12067954 0.010373643 -0.0032220413 -0.058254562 0.015163496 0.05661008 0.083244935 -0.19978513 0.028786492 -0.18509294 0.023139397 0.11571008 -0.18506004 0.0002932945 -0.019422725 -0.0048315814 0.041538008 0.11328629 0.028044218 0.0995812 -0.18754862 0.0694834 -0.06858609 0.006631666 -0.2016426 0.18355618 -0.2581899 -0.038616687 0.094281584 0.07156874 -0.015656454 0.042143453 -0.12225617 -0.00026687756 0.14353597 -0.19229044 -0.1765151 0.19807291 0.01857464 0.14221585 -0.21755616 -0.14386673 -0.1647872 -0.04077267 -0.08173019 0.13031179 0.08134034 -0.19007052 0.021522436 -0.16586949 -0.08840497 -0.07133198 -0.15815942 -0.2937026 0.159393 -0.119799964 0.022303235 -0.02368726 -0.18770456 -0.117840715 0.26865885 -0.027933897 -0.25263986 -0.3832117 0.28187117 0.35061288 0.21702783 0.19349596 0.18584062 0.059409406 0.35161304 0.33141288 0.29188824 0.36727646 0.2205212 -0.20608301 -0.1757226 -0.33037153 -0.11065933 -0.22894123 -0.13269669 0.21549767 0.25062057 -0.11236586 0.3690284 0.12188477 -0.107190214 0.32629117 -0.20406254 -0.07481496 -0.16389781 -0.27266088 0.3348739 -0.21074623 -0.38803247 -0.388765 -0.092436425 0.04282661 -0.19998871 0.35721904 -0.11514765 -0.22829162 0.1635238 0.07829798 -0.27227944 0.3338195 -0.3320971 0.0407155 0.29743707 0.21051738 0.3312309 -0.0045646597 0.16313799 -0.113158934 -0.20191185 -0.09281535
696 -0.036478914 0.085278176 0.03307874 0.109193854 -0.0475172 -0.040530253 0.051233437 -0.046620548 0.06865688 0.053851567 0.036018804 0.006001468 -0.06637183 0.11739973 0.075595595 0.03548194 0.11115923 -0.054038074 0.07898147 0.119222894 0.082447134 0.17370337 0.1786742 0.12799394 -0.055398975 0.007158486 0.0206509 -0.028375056 -0.12851058 -0.09852533 -0.014428887 0.17247553 0.02287844 -0.10688254 -0.0891927 -0.10580331 0.15491566 -0.059636883 -0.055703864 -0.01190385 -0.094062656 -0.036124755 -0.116254956 0.0829334 -0.07423599 -0.046467386 -0.0017499793 0.03706488 -0.03446898 0.049691323 -0.09374064 0.06237827 -0.040797945 0.06656393 0.092821866 -0.049274925 -0.037591763 0.07396375 -0.054110758 0.04221839 0.14097632 -0.080394216 0.1552816 0.13036165 -0.012164815 -0.17336175 0.14123861 -0.23404567 -0.003857333 0.04438044 -0.01806704 -0.17012838 0.2212787 -0.17941573 -0.27301645 -0.18595925 0.34459424 0.3289978 0.22709502 -0.06267062 0.14532126 0.11717626 0.30950475 0.23063774 0.29924285 0.2657143 0.05835773 -0.17501843 0.005733915 -0.2362447 -0.05875709 -0.34366542 -0.16654205 0.19171727 0.22922726 -0.1855965 0.24274614 0.1692483 -0.086413674 0.25814974 -0.19217718 -0.006109423 -0.24385962 -0.23651816 0.30533332 -0.20582643 -0.2578069 -0.19402315 0.13439299 0.11111513 -0.03221774 0.23955269 0.0785573 -0.16796334 0.11488679 0.11283438 -0.2137404 0.25203907 -0.3664941 -0.24428353 0.22232938 0.040406477 0.26896957 -0.1121629 0.30610526 -0.039053235 -0.123418175 -0.18450384
1610 -0.070555076 0.08569558 -0.05694748 0.16207023 0.079500146 -0.08224128 -0.011707099 -0.077600025 0.049564593 0.08557192 0.04261307 -0.12342114 0.017260673 -0.00029595644 0.08219216 -0.04176811 0.054377515 -0.12665239 0.07533297 -0.07314779 0.032512918 0.012264221 0.09237485 0.021051891 0.046248123 -0.08463747 -0.08507464 -0.049635462 -0.06402564 -0.07313301 0.051333103 0.14310305 0.046153106 -0.094534636 -0.026178772 -0.019975483 0.046424355 -0.067598805 -0.054201193 -0.0067119147 -0.0013596737 -0.02359504 -0.0956261 -0.032526676 -0.02082204 -0.006406991 -0.070675395 0.08333664 -0.023013188 -0.020520894 -0.029704269 0.06278777 -0.07210573 0.011773713 -0.001308332 -0.048805933 -0.06344033 -0.021910878 -0.05401532 0.13154174 -0.0061566494 -0.08645827 -0.0055732713 0.015218016 -0.03200652 -0.032112278 -0.016546432 -0.09000893 0.008099362 0.07667939 -0.030508887 -0.17948069 0.09108527 -0.041457172 -0.10628552 -0.101981536 0.113451 0.15498617 0.14817828 -0.009953801 0.13852228 0.20711982 0.06804452 0.07510999 0.08716814 0.1312353 0.027107239 -0.12914044 -0.08396943 -0.15058015 -0.0766177 -0.08639928 -0.22047324 0.007422388 0.16638628 -0.13915189 0.18297786 0.13277204 -0.044169746 0.18417081 -0.07863202 0.036696747 -0.06528596 -0.22918206 0.100759335 -0.0778896 -0.01988798 -0.079539225 0.042210456 0.06155305 -0.077165395 0.16364256 0.049686536 -0.0567408 0.15381327 0.10288108 -0.066130646 0.12727667 -0.21558434 -0.13111365 0.14612818 0.028824827 0.14065614 -0.09568611 0.015509695 -0.016397767 -0.13684607 -0.18543257
889 -0.08761843 0.09155597 0.11100475 0.019283006 0.039857116 -0.029012194 0.017593903 0.063653536 -0.0127765825 0.034380313 -0.047643475 -0.040585935 -0.10643582 0.025462981 -0.04460715 -0.13355394 0.08446676 -0.08229346 0.011786512 -0.04766921 0.03394562 0.054939616 -0.07730493 0.08816492 -0.06330476 0.03853966 0.03490614 -0.07390935 -0.11071794 -0.09688773 -0.03768788 0.15869108 -0.056931354 0.09213998 -0.053911187 0.03566542 -0.06328801 -0.0027293707 -0.0625654 -0.1007977 -0.003237206 0.0069218716 0.033207946 0.03446965 -0.068126686 0.010315848 0.058582395 0.06649527 0.06570849 0.09419363 0.052230995 -0.060130935 0.00026565322 0.18232337 0.08352252 0.08410625 0.06775096 -0.02476606 0.021064151 0.094517045 0.10100573 0.061197754 0.08084817 -0.0015107285 -0.035019703 -0.09440892 0.04335908 -0.17344268 -0.051833462 0.077715866 0.014453322 -0.059566088 0.22240351 -0.14316116 -0.1371703 -0.094875395 0.18673149 0.12391055 0.17463678 -0.000532483 0.09827842 0.10030165 0.14837584 0.13802409 0.16286527 0.041751787 0.10500541 -0.16249806 0.056269385 -0.12762813 0.043383367 -0.24141817 -0.16309805 0.048618734 0.09526795 -0.14340271 0.06301101 -0.021276716 -0.12082207 0.18055674 -0.10577269 -0.015617033 -0.17148642 -0.1734686 0.110045604 -0.14655107 -0.1607965 -0.0846647 0.07510968 0.13913096 -0.026828716 0.12110937 0.06992601 -0.06958971 0.18537723 0.13554867 -0.07375772 0.07286865 -0.17237946 -0.034876753 0.14655297 0.06879613 0.12521301 0.008250177 0.12262122 0.018449944 -0.112617485 -0.10208789
1615 -0.0060952464 0.021635728 0.04430295 -0.121006615 -0.041648895 0.01863494 0.010145384 -0.007439868 -0.03685366 -0.053113155 0.16017368 0.0042771273 -0.13504432 0.050421946 -0.026390476 -0.022650396 0.081506416 0.19642188 0.15699036 0.13614368 0.011436534 0.120547675 0.150783 0.031122442 -0.12426876 0.12062904 -0.048873212 -0.09959582 -0.104039915 0.041229393 -0.09045136 0.12338933 -0.049888607 0.11984406 -0.13459906 -0.15397239 0.05311421 0.011209361 0.0023947447 -0.0892754 0.09738579 -0.032408156 -0.017460173 0.13361289 -0.2192803 -0.051782604 0.057794314 -0.24258985 -0.18497789 0.189726 -0.058721073 0.15305458 -0.07876428 -0.024182452 0.013374379 0.0618191 0.05888903 0.171798 0.028882658 -0.13201718 0.06611553 -0.0016529638 -0.05048556 -0.02053217 -0.04531242 -0.09810948 0.027200384 -0.088846356 0.17173427 -0.021636313 -0.077003755 -0.10897362 0.30516416 -0.18607558 -0.22231865 -0.16533065 0.27302563 0.2280551 0.16685946 0.1393773 0.10638128 0.16115738 0.2981197 0.1805209 0.20720336 0.2110307 -0.00030972782 -0.25764826 -0.008283418 -0.25051075 -0.09220295 -0.1444068 -0.20565842 0.1602959 0.20493494 -0.24532396 0.2170433 0.14366084 -0.035027258 0.22723705 -0.18480745 -0.041171115 -0.04010811 -0.1362761 0.28347686 -0.2417709 -0.20541802 -0.15232545 -0.036246635 0.0958008 -0.16828014 0.15678814 0.15221003 -0.18589309 0.066450894 0.15566123 -0.20933035 0.34586093 -0.31763124 -0.18757679 0.17275679 0.09969689 0.27430102 -0.1737179 0.30384347 -0.047896225 -0.037290424 -0.036194377
708 -0.10654594 0.022696361 0.096237056 0.19189638 -0.014408604 -0.17090593 -0.02124214 -0.080407366 -0.17068249 0.07019342 -0.2256193 0.21520132 0.012982729 0.105600856 0.024787884 -0.054157667 0.2584319 0.025015416 0.0947388 0.30736077 -0.13790074 -0.18101986 -0.037115805 0.08263773 -0.0628627 -0.21671644 0.012701294 -0.043172162 0.054250944 -0.09654026 -0.23888713 -0.024207046 -0.07675606 -0.14637719 -0.16018724 -0.02842153 0.08183174 0.10035296 0.006014346 -0.03594232 -0.11857815 0.12703694 -0.028613597 0.16318454 -0.1462607 -0.02153987 -0.007893049 -0.007188021 -0.10376788 0.058209788 -0.1300125 -0.14292425 -0.113668196 -0.057720553 -0.11282473 0.032130193 0.09304081 -0.11933351 -0.018575782 -0.22229555 0.13361084 0.0027814016 0.2811894 0.039747417 -0.18049122 -0.25514126 0.103814766 -0.0908813 -0.010978315 0.09365045 -0.10374642 -0.13871111 0.20401135 -0.18564916 -0.24962506 -0.2424628 0.28096437 0.26179802 0.11394152 0.16666707 0.022005862 0.20797834 0.34543055 0.26460648 0.28553396 0.2662294 0.10929469 -0.18329021 0.035388995 -0.21799259 0.003184475 -0.12375159 -0.21807162 0.26352882 0.22162618 -0.07912397 0.21945538 0.1753369 -0.12821287 0.28936824 -0.40203232 -0.07351126 -0.16010854 -0.28114048 0.29083928 -0.20719272 -0.32154495 -0.22867025 -0.05393339 0.0892959 -0.07205942 0.28013518 -0.22531383 -0.24162729 0.14630494 0.18717057 -0.16937898 0.33015686 -0.23014079 -0.116407864 0.17380905 0.17486277 0.44218388 -0.018657066 0.20411925 -0.20037936 -0.16505358 -0.2219238
713 -0.108053885 0.13385865 0.0007243722 -0.043297186 -0.047632962 -0.037300464 -0.16163915 0.052875347 0.0066173286 0.004499467 0.01589414 -0.019217798 0.060319 0.16101435 0.046493422 -0.09747432 0.18685472 0.07534908 0.026091741 0.17139795 0.09398966 0.1491297 0.24210672 -0.09054578 -0.1614617 0.0049324837 0.02867493 -0.102425046 -0.16835617 -0.008288433 0.13230588 0.06672262 0.065081276 -0.0775704 -0.10414189 -0.25978643 0.13582368 -0.022576807 -0.054326296 -0.12742987 0.11073831 0.1893279 0.08329557 0.16280572 -0.21839996 -0.11170775 0.07980874 -0.11903137 -0.06999978 0.18589567 -0.03706884 0.14025402 -0.11300535 0.16613294 -0.084406756 0.20740573 0.012697156 0.13605718 -0.09643211 0.066033915 0.122516416 -0.049908005 0.11683223 0.0087066805 -0.07006188 -0.24176162 0.018595068 -0.22299035 -0.021899939 0.01046524 -0.093877435 -0.1508361 0.30407324 -0.29373854 -0.23859766 -0.18743774 0.22643526 0.2945184 0.21324159 0.19431077 0.15839387 0.15922445 0.3042789 0.22647113 0.25137228 0.25571957 -0.012795786 -0.24828117 -0.0741228 -0.24397716 -0.10429599 -0.13953021 -0.19320484 0.298954 0.16596177 -0.05983729 0.17439558 0.0922953 -0.12141604 0.2912254 -0.2560228 -0.062877394 -0.062504284 -0.23359793 0.27245495 -0.31107327 -0.21807012 -0.25582448 -0.012312769 0.21193127 -0.113793 0.15378182 0.12846053 -0.21243729 0.13680987 0.1873586 -0.22118938 0.36058787 -0.25539488 -0.08680067 0.21518533 0.14384206 0.32788944 -0.2028645 0.30310217 -0.084226236 -0.11213463 -0.13023117
718 -0.011713149 0.08423675 -0.099887475 0.029806364 0.043682083 -0.11604332 -0.08049657 -0.022581875 -0.0792982 0.15105186 -0.021844966 -0.0058709434 0.11294058 0.07905245 -0.054443836 -0.101529695 0.17330928 0.13412149 -0.0684921 0.13381742 -0.08949607 -0.1113025 0.025617916 -0.070769414 -0.02385665 0.0840434 -0.060121477 0.057440136 -0.019421881 -0.034476187 -0.0032861896 0.044160884 0.0029905809 -0.18115447 -0.057307206 -0.09719387 0.14804815 -0.021531986 0.06384838 0.013076888 0.00021996556 0.16849014 -0.07060384 0.025973871 0.026816476 0.112687014 -0.094593175 -0.02578725 -0.062386766 -0.07904082 -0.022290597 0.10157296 0.12843958 -0.06674926 -0.01520268 0.034566946 -0.1221584 -0.03864519 0.11145653 -0.09517185 0.009502135 -0.024446568 0.16573519 0.14034976 -0.050460838 -0.15638748 0.1823882 -0.13392195 -0.008052544 0.10964685 -0.046643797 -0.11265379 0.109735906 -0.15064673 -0.13373305 -0.16042906 0.17441563 0.23665513 0.088151366 0.08105901 0.10877601 0.11981416 0.3747414 0.14735036 0.18578775 0.15283386 -0.066412516 -0.14592771 -0.045560606 -0.24539131 -0.10382646 -0.18014947 -0.17926398 0.20664702 0.32355055 0.017969571 0.14949256 0.14781818 -0.08961764 0.15908751 -0.15573649 0.038209382 -0.2472619 -0.17600027 0.33737975 -0.17717575 -0.21631758 -0.18311529 0.07986869 0.25485086 -0.034927428 0.23453037 0.056470692 -0.23619947 0.17071286 0.19625956 -0.12014522 0.32283217 -0.21563506 -0.18438616 0.07030042 0.04850858 0.24987708 -0.09338776 0.18861797 -0.13602036 -0.08656518 -0.10111921
1630 0.050855134 0.1846079 0.058626156 -0.050992552 0.0020063343 0.027711734 0.008338885 0.0023506605 -0.13738486 0.08622139 0.080066256 0.022549089 0.0027801455 -0.0049522817 0.023633325 -0.0904886 0.15808816 0.07664166 0.13019834 0.06156456 0.08994009 0.15886976 0.24186471 0.029209126 -0.19990279 0.1148372 -0.051024407 -0.167965 -0.15368086 -0.043690808 -0.044832062 0.12929094 0.007116753 0.066946626 -0.048179828 -0.1703789 0.0074311397 -0.027019849 -0.018322892 -0.0293947 0.17875159 0.100305475 0.040910207 0.091014154 -0.17768219 -0.09816915 0.064506024 -0.15112986 -0.04634327 0.07372654 -0.13856903 0.07227794 -0.039228495 0.013465747 -0.09909437 0.061542258 0.08137024 0.11633284 -0.05724993 0.074716605 0.20139372 0.0684668 0.031613242 0.04638787 -0.051138453 -0.1352145 0.033989903 -0.11820506 0.07231925 -0.021265639 -0.056597527 -0.07420582 0.23428588 -0.23566414 -0.2537896 -0.076374605 0.25588337 0.20247485 0.09805875 0.08862013 0.1598585 0.14295104 0.35630208 0.10251543 0.25765577 0.18899733 -0.05556684 -0.19789226 0.06683395 -0.2607696 -0.08048099 -0.15507008 -0.13969976 0.11414481 0.123866685 -0.17597437 0.19469684 0.038564265 -0.01906338 0.22461034 -0.056063876 -0.022958029 -0.035402246 -0.24663916 0.24035351 -0.2792541 -0.24888067 -0.11703728 -0.0032901587 0.08750345 -0.23611869 0.20251586 0.080675445 -0.24245222 0.106105566 0.14167385 -0.27520782 0.28609586 -0.20817114 -0.07624798 0.2046243 0.042110853 0.26147917 -0.15417843 0.25705308 -0.036149353 -0.10315983 -0.10821941
734 -0.08497337 0.09689556 0.05699057 0.08351847 0.047180522 -0.21709812 -0.08492095 0.007567346 -0.007108948 -0.016054178 0.04216727 0.025441423 0.11293548 -0.024580948 0.10441454 -0.019279033 0.19134802 0.05505974 0.087368354 0.086109675 0.15281498 0.118723236 0.064915836 -0.113992214 -0.04028737 -0.14093207 -0.029874094 -0.046430197 -0.059611473 -0.047389522 0.0012092523 0.1757206 0.058477428 -0.18793279 0.048950367 -0.014315078 0.18541427 -0.11124638 -0.019706976 -0.012247043 0.04908179 0.039953887 -0.20977177 0.012737078 -0.018776633 0.09658268 0.0009215826 -0.05282632 0.085499756 -0.10727179 -0.09036168 0.0893034 0.0519635 -0.14757323 0.1347827 0.039386816 -0.076607406 0.029869614 -0.06902206 0.081077695 0.16816059 -0.13409983 0.13282898 0.17998159 -0.124815196 -0.18561952 0.09410942 -0.12111714 -0.05702275 0.23473512 0.086435564 -0.16856557 0.16685346 -0.22982444 -0.24383274 -0.18774182 0.20703663 0.31070074 0.07659312 0.06337021 0.20952603 0.040966243 0.26239547 0.12157736 0.17096682 0.1334347 -0.021134874 -0.17960426 -0.09571091 -0.13383809 -0.13288136 -0.21272472 -0.25561926 0.170787 0.27384484 -0.07459204 0.249836 -0.027706547 -0.09775355 0.20293294 -0.11836835 0.08681623 -0.24650621 -0.10231267 0.19268966 -0.2060622 -0.24930756 -0.13747382 0.110138506 0.19627017 0.027352314 0.20275441 0.1818105 -0.25825545 0.10670421 0.14075783 -0.20364569 0.29008338 -0.20369205 -0.102587566 0.1732423 0.009123931 0.3117616 -0.13671523 0.22855939 -0.121625565 -0.087862276 -0.26289588
776 -0.0852216 0.03431341 -0.08682286 0.15404373 0.09696533 -0.13508505 -0.046186112 0.060862903 -0.023411809 0.084285475 0.013921718 0.066604935 0.1714021 0.008561872 0.05189155 -0.077856444 0.1646394 0.08880316 -0.056114394 0.08640006 0.011778665 0.036476463 -0.16871305 -0.07646397 -0.038537223 -0.09358815 -0.015349647 0.014330355 -0.04617487 0.033782974 -0.051627204 0.15404922 0.011326336 -0.18622911 -0.07403442 -0.18527053 0.17832333 -0.027321598 0.0018726889 -0.0462083 -0.017261526 0.12325552 -0.07288099 -0.0075980304 -0.1362138 0.1251541 0.0025833345 -0.17353198 -0.029394059 0.023699362 -0.1538172 0.11100881 0.19622825 -0.0998628 0.06782818 0.13932222 -0.09148627 -0.056687154 -0.012668453 -0.10735136 0.16452734 -0.046238955 0.22552137 0.091449626 -0.13035707 -0.18327077 0.16649687 -0.19560552 -0.052227087 0.14590622 -0.029973788 -0.15398262 0.26094484 -0.23834121 -0.17800736 -0.12930956 0.21194257 0.33090585 0.09966658 0.058443516 0.11446439 0.08075028 0.38003713 0.12937397 0.12190972 0.22179203 -0.016318683 -0.15969196 0.032878067 -0.18156713 -0.06891254 -0.12643558 -0.16431741 0.18178765 0.24787381 0.0009570607 0.20919931 0.05547916 -0.115007974 0.24690746 -0.09008897 0.020795157 -0.24258442 -0.20249084 0.27461693 -0.27035752 -0.22580706 -0.21719213 0.0642916 0.08147546 -0.043903526 0.2680792 0.038404163 -0.15736191 0.17451234 0.09922205 -0.14279552 0.28154752 -0.227305 -0.1472949 0.14813974 0.12566958 0.35337636 -0.14748886 0.18217564 -0.13678806 -0.08152794 -0.2269594
814 -0.11251944 0.12521225 0.024822991 0.15941963 0.12748013 -0.24220723 -0.08719038 0.0057996786 -0.057016116 0.029741649 0.02388269 0.05307322 0.12464024 0.04414133 0.07947897 -0.08311453 0.20213059 0.10378365 0.043557763 0.1379651 0.088364325 0.07705422 -0.034515057 -0.10443585 -0.11973434 -0.03497521 -0.059341833 -0.120188326 -0.15511438 -0.063713 -0.02276448 0.16150488 0.11416333 -0.16842382 0.13627839 0.017075634 0.18844213 -0.045390964 0.013641752 -0.062028304 0.06343631 0.043452445 -0.16940138 0.05006013 -0.01328603 -0.0038525714 -0.059191212 -0.04673727 -0.09768688 -0.06993881 -0.07584014 0.070787005 0.051934704 -0.04626011 0.11616984 0.06595593 -0.061085425 0.0803636 -0.0019862137 -0.06452133 0.1380309 -0.034870945 0.1753281 0.05068265 -0.16247936 -0.20169237 0.18958132 -0.08793107 0.021609487 0.2070237 0.06842629 -0.09653389 0.20981492 -0.2615486 -0.17118122 -0.057226755 0.22657342 0.27918926 0.15648127 -0.029665105 0.15440384 0.12173705 0.279004 0.100890726 0.18310167 0.22104967 -0.06907557 -0.18698686 -0.035117142 -0.17955947 0.009471658 -0.21337692 -0.15988564 0.12334921 0.26920697 -0.087615296 0.17818008 0.08152617 -0.115358144 0.20415924 -0.11301158 0.04808041 -0.21953748 -0.16698505 0.29230338 -0.323134 -0.19973305 -0.15558939 0.051823426 0.13417427 0.036381155 0.2880007 0.1419566 -0.22278793 0.21752931 0.15036632 -0.17465025 0.30613756 -0.2022 -0.026578046 0.11697267 0.018324472 0.31318662 -0.19570343 0.22071569 -0.075322226 -0.15689024 -0.19999044
818 -0.14724708 0.08668767 0.08064239 0.16385016 0.075884156 -0.2169301 -0.019261787 0.08011534 0.02527855 -0.07015664 -0.0418365 0.10759099 0.11463352 -0.07222759 0.10602469 -0.07785801 0.10713097 0.07778871 -0.029852524 0.095191404 0.14053759 0.12508753 -0.05839929 -0.07255401 -0.05381866 -0.101294816 -0.09121707 -0.03841529 -0.12736219 0.010765714 -0.0057399403 0.107210636 1.47412065e-05 -0.09661041 -0.0038771308 -0.039932948 0.12767825 -0.040807515 0.015387022 -0.17195792 -0.0055999155 -0.004399701 -0.0860465 0.111568555 -0.06626093 0.03046554 0.08139181 0.046853013 0.024715211 -0.015273962 -0.09560196 -0.018203182 0.01791705 -0.07699849 0.10517837 0.14499095 0.06301687 -0.14267285 0.02918575 -0.0025762913 0.1468928 -0.103157595 0.08997668 0.05574072 -0.13734853 -0.21016559 0.09817375 -0.10242326 -0.04957384 0.12509893 0.101397276 -0.16653892 0.22310774 -0.26370633 -0.17190939 -0.2242743 0.25805596 0.3740356 0.14712568 -0.0663838 0.19480893 0.11507672 0.33704868 0.11689984 0.19445422 0.15372431 0.049869973 -0.18818833 -0.039039385 -0.20138814 -0.08428038 -0.1415687 -0.19042642 0.12761132 0.21142527 -0.0016953505 0.23802394 -0.0009510584 -0.15448146 0.21422435 -0.20161004 -0.015742864 -0.20636693 -0.120565 0.19636936 -0.22247905 -0.24962866 -0.11668962 0.13951616 0.156279 0.033052772 0.20010166 0.1468471 -0.20548345 0.10822031 0.1517523 -0.21732913 0.23159745 -0.2917873 -0.12158885 0.17457594 0.08548077 0.27247167 -0.09193468 0.25062695 -0.09900411 -0.18931098 -0.28348532
1401 -0.018289603 0.17602736 0.062587924 0.05208315 0.050485615 -0.17542149 0.23788638 -0.12941708 0.18907885 -0.05395933 -0.01512442 -0.13093625 0.095057026 -0.1011724 -0.05814893 -0.019011145 -0.11417189 -0.24237436 0.053552017 -0.23261617 0.034135032 0.08978106 0.08649246 -0.11008076 0.04486373 -0.04040977 -0.15752411 -0.12328032 -0.0039756354 -0.0018420666 0.15987368 0.06500699 -0.027598096 -0.13229287 0.08485773 0.067085356 -0.01917369 -0.117878444 0.053746767 -0.15499395 0.17312267 -0.07331521 -0.080676086 -0.10443655 0.028998837 0.08169989 0.19537954 0.15525912 0.16826165 -0.009831258 0.021169484 -0.088188 -0.043323148 -0.091548584 -0.12820561 -0.11217741 -0.10311816 -0.116765745 0.036308262 0.110795476 0.07159573 -0.15887156 -0.069407314 0.04488952 -0.00998767 -0.21406628 0.057429407 -0.2843513 -0.26795745 -0.116368055 -0.1345649 -0.2114807 0.14965084 -0.045891225 -0.19086215 -0.09382431 0.23495172 0.2043584 0.07260171 -0.044970144 0.27024662 0.019498298 0.10242989 0.23207165 0.23897986 0.3473522 0.000834672 -0.17957826 -0.18117514 -0.17533502 -0.062957816 -0.24693274 -0.13391325 0.15196943 0.28836766 -0.30190584 0.22955787 0.016624004 -0.2078885 0.39449537 -0.05840864 -0.07049473 -0.13999641 -0.25043386 0.11938061 -0.2090051 -0.20481241 -0.22622174 -0.053994957 0.0638786 -0.35214064 0.2854442 -0.036755655 -0.24821241 0.03612763 -0.18263836 -0.260127 0.18785661 -0.2847397 0.08669452 0.36879995 0.07264028 0.33409274 -0.116910405 0.25545913 0.1018257 -0.1708412 -0.10813687
220 0.015428732 0.1098413 0.082092926 0.13503884 0.011896576 -0.11350336 0.14829752 -0.047532424 0.09131162 -0.014695045 0.041688774 -0.03788397 0.13199043 -0.06633551 -0.07087281 0.034581862 -0.037621964 -0.14874218 0.09419086 -0.20602918 0.03418809 0.08613185 0.06863976 -0.1061197 0.049295668 -0.010496997 -0.0904551 -0.070785426 0.044450063 -0.050459623 0.16290225 -0.014686521 0.10285972 -0.07707986 -0.056737307 -0.021951947 0.08335978 -0.03205198 -0.0054677324 -0.029394252 0.10138772 -0.076904446 -0.011792028 0.028660493 0.051740076 0.103708014 0.20835069 0.08060799 0.12473597 -0.058119774 -0.07327931 -0.032587554 -0.025734048 -0.07353544 -0.065993965 -0.115208335 -0.03762822 -0.12630399 0.030534893 0.004622951 0.07944358 -0.081462264 0.017225368 0.040372416 -0.029241165 -0.16438106 0.06492373 -0.2707185 -0.17381133 -0.060747303 -0.079446845 -0.20658676 0.16221698 -0.002863891 -0.13971977 -0.12753685 0.21702111 0.1966099 0.11332373 -0.10152968 0.20048209 0.06634971 0.19250646 0.24163081 0.18623005 0.23019825 0.013150201 -0.19843051 -0.14084624 -0.17366539 -0.018966494 -0.10745027 -0.1791151 0.17824683 0.16192645 -0.24311464 0.25425315 0.06262427 -0.15151812 0.2513655 -0.00010359622 -0.022888532 -0.13633107 -0.1938059 0.14598858 -0.19890258 -0.15995239 -0.19986218 -0.061525065 0.052764058 -0.26819417 0.24204138 -0.08148026 -0.2556901 0.03075559 -0.16755715 -0.24172732 0.21296099 -0.2659578 -0.023637112 0.23563741 0.022658972 0.21319476 -0.056487795 0.2966039 0.10352858 -0.13278192 -0.13118976
1412 0.07907119 0.14479099 -0.06593788 0.16701587 0.06471498 -0.06437905 0.10551832 -0.02842411 0.22162975 0.012047684 0.09991985 -0.13847926 0.14292042 -0.1749402 0.010851459 -0.09398018 -0.12579365 -0.1039009 0.20424168 -0.15521882 -0.03617981 0.09359149 0.06949977 0.018072192 0.079931475 0.17495315 -0.1399618 -0.11181021 0.18247528 -0.040722553 0.21868494 0.13354485 0.0952858 -0.15008363 0.19155967 0.20894626 0.04534892 -0.27742502 0.20582417 0.12559211 0.22619964 -0.14307424 -0.048858438 -0.12264233 0.0046583363 0.1610591 0.12581019 0.1633903 0.14212605 -0.15196325 -0.08331665 0.038466375 -0.21268071 -0.19732697 -0.03908128 -0.19261673 -0.100354604 0.03400821 -0.231425 0.22237045 0.14046668 -0.09792495 -0.08756424 0.07022884 -0.0027606545 -0.34875697 0.10371343 -0.5017543 -0.33083394 0.037657462 0.030053785 -0.30520174 0.18083417 -0.1830102 -0.27914098 -0.09830384 0.2562307 0.31625375 0.1501442 -0.13882597 0.33623278 -0.020693893 0.18623732 0.19875097 0.23867841 0.26293325 -0.041155003 -0.10604305 -0.27504724 -0.1396914 -0.14692885 -0.3485404 -0.17425393 0.08399736 0.22439604 -0.4128622 0.25172675 0.18719861 -0.25103202 0.40360567 -0.015330087 0.15770727 -0.16426352 -0.2578537 0.13225758 -0.2138153 -0.22122853 -0.36658797 0.023116853 -0.02962933 -0.15449533 0.26984093 -0.024416465 -0.27950287 0.061027233 -0.11447302 -0.36611953 0.15234308 -0.3963382 -0.09743789 0.43034258 -0.13874446 0.33729023 -0.36051634 0.1990557 0.1339951 -0.30676812 -0.2216925
1413 -0.02133665 0.25604597 0.018949673 0.09345349 -0.046330173 -0.11017473 0.18755597 -0.086112045 0.162577 0.022892725 0.022394774 -0.1439611 0.17029619 -0.07219861 -0.16894056 0.074326076 -0.116355404 -0.12737761 -0.04960054 -0.20639963 0.014199288 0.061006792 0.1594116 -0.057892557 0.0885922 -0.009541331 -0.19937252 -0.09846625 0.022295367 0.07064759 0.17697163 -0.046668723 0.09510992 -0.0940437 -0.027677253 -0.041533638 0.06118844 -0.09667621 0.010712151 0.023845406 0.14607829 -0.1146904 -0.01906055 -0.09620417 0.04750477 0.02345851 0.11747214 0.18490815 0.16535209 -0.09294295 0.11163425 -0.059335046 0.081592426 -0.06007698 -0.16587356 -0.10836079 -0.11373269 -0.2069575 -0.09149302 0.10375806 0.08924018 -0.22372706 0.019691417 0.079402834 0.03131874 -0.24360839 0.10973227 -0.35803285 -0.28176275 -0.041879807 -0.15387361 -0.23609355 0.20933168 -0.05036239 -0.24958989 -0.11652769 0.23309185 0.17614631 0.069500886 -0.12311159 0.25166544 -0.029859291 0.14634612 0.39482513 0.28768083 0.35361433 0.029518802 -0.20266366 -0.251029 -0.19513837 0.029525945 -0.33026242 -0.14092338 0.14633153 0.15290064 -0.24884878 0.3302958 0.13584806 -0.3072732 0.3313795 -0.051751554 -0.009539503 -0.09909755 -0.3344987 0.13848346 -0.22659299 -0.14658646 -0.22239166 0.03480929 0.05913348 -0.3331462 0.26433185 -0.054426894 -0.32251388 -0.031912334 -0.15583467 -0.17497069 0.27121875 -0.2106459 0.05026122 0.32560623 0.036547232 0.30199698 -0.0725656 0.2520317 0.14382039 -0.21357 -0.054077465
228 0.01051297 0.18444696 -0.0095681455 0.18696257 -0.03292616 -0.09359087 0.2660314 -0.030336786 0.17677915 -0.09670327 0.13863625 -0.2314043 0.20805405 -0.08630232 -0.08427777 -0.052429512 -0.20593013 -0.19429462 0.036907274 -0.31669325 0.07991936 0.20641157 0.20216088 -0.13558376 0.152232 -0.12645555 -0.15177026 -0.1549907 0.114295766 -0.006280858 0.17090283 0.0804055 -0.008178135 -0.17833239 0.15824753 0.045001265 0.082326315 -0.12742926 0.13202922 0.11445312 0.18775861 -0.12183623 0.06544432 -0.059155993 0.124417424 0.096307516 0.18324965 0.24638389 0.19011946 -0.124430865 -0.014117011 -0.07992828 0.036698107 -0.108555995 0.052401617 -0.18749386 -0.12884383 -0.1356061 -0.05481512 0.17507975 0.07685009 -0.23950277 -0.07073475 0.13613565 -0.023859153 -0.31125104 0.124805495 -0.39911154 -0.355339 -0.042625457 -0.08130911 -0.23426723 0.19651173 -0.095544495 -0.18184598 -0.17598604 0.27007592 0.20216326 0.12587106 -0.14029726 0.21057379 -0.095964685 0.15177815 0.3511544 0.25884715 0.30098453 0.060960293 -0.11740363 -0.32338533 -0.25211728 0.0837349 -0.30069384 -0.20163406 0.264845 0.29315174 -0.36197612 0.34140268 0.081349686 -0.32327244 0.34590596 -0.10422674 0.030838074 -0.08077832 -0.29881027 0.08125252 -0.21087015 -0.12848197 -0.32651573 -0.04110468 0.08788481 -0.29715046 0.24179417 0.007537277 -0.30115765 0.0024010716 -0.13437535 -0.17313923 0.27982986 -0.29019532 0.02242749 0.3621524 0.004467551 0.2602105 -0.24665473 0.3542459 0.18731754 -0.22247739 -0.1711394
233 0.13414843 0.13913262 -0.054705787 0.08007948 -0.03339409 -0.07737058 0.14232504 -0.13884017 0.20427911 -0.11675905 0.1671698 -0.13237718 0.20212406 -0.14399858 -0.09319107 0.059154592 -0.14022553 -0.16187242 -0.05855553 -0.20846839 0.067894444 0.14564861 0.05306903 -0.11769172 0.10843115 -0.051476557 -0.14884993 -0.13683312 0.05878431 0.10472685 0.06606275 0.057658296 0.066744074 -0.11703279 0.0030543893 0.043605264 -0.009457136 -0.12729108 0.07968474 0.01321729 0.25159574 -0.074765764 0.13934135 0.021250874 -0.064755805 0.018591017 0.17217706 0.20749393 0.14117321 -0.08747115 -0.03954403 -0.052761532 0.09126022 0.011650751 -0.09148384 -0.17600854 -0.11543426 -0.17631944 -0.105012804 0.07084003 0.023788359 -0.19134809 0.0085397195 0.100726016 -0.008238585 -0.24304242 0.06926174 -0.31088662 -0.2051756 -0.03790825 -0.15280117 -0.22368582 0.15806513 -0.08089209 -0.2013582 -0.13337202 0.24583423 0.06709827 0.067331664 -0.11170986 0.33532095 -0.052766386 0.2010416 0.29248416 0.30292514 0.3363805 0.11863305 -0.22192769 -0.2289522 -0.17529133 0.013442334 -0.19591837 -0.12862149 0.11502007 0.17749192 -0.272092 0.26571614 0.123584844 -0.24889667 0.32286128 -0.041147493 -0.081663445 -0.04679681 -0.34107664 0.118772656 -0.32199508 -0.22269748 -0.15990598 -0.0009918985 0.06841874 -0.32299846 0.31324136 -0.03969506 -0.20357248 -0.033647936 -0.07149104 -0.13946359 0.21398538 -0.23066793 -0.029414263 0.22438584 0.029972157 0.24828579 0.044951007 0.25972122 0.12404794 -0.14432871 -0.04720675
235 0.12862995 0.1473417 0.12930933 0.14185281 0.003341906 -0.14866522 0.2448756 -0.13966624 0.28707355 -0.108075984 0.17945749 -0.26063126 0.17469333 -0.14699867 -0.11920773 0.14778773 -0.15162943 -0.1494745 0.051079817 -0.22415687 0.07484651 0.08780392 0.03998635 -0.13569781 0.14339162 -0.010046623 -0.23906827 -0.21684556 0.024138814 0.1701681 0.2722034 0.017087206 0.06935707 -0.2152339 0.15573545 0.08201021 0.120894864 -0.14608653 -0.029613726 0.17895694 0.18754546 -0.042021807 -0.03797308 -0.044708055 0.11139245 0.069142334 0.2078684 0.18151961 0.23120145 -0.1380464 -0.019889904 0.06844778 0.00054992177 -0.006485236 -0.037376694 -0.156642 -0.15748121 -0.09315592 -0.03744698 0.17469338 0.041144248 -0.19543847 -0.049737744 0.07778572 0.05631398 -0.2923155 0.038962428 -0.32766873 -0.31086418 -0.05259092 -0.14571343 -0.29469678 0.26319352 -0.09283678 -0.23971124 -0.19147083 0.22646752 0.14872894 0.08730949 -0.21131372 0.15466246 -0.023306746 0.24558043 0.34198892 0.2766627 0.3299954 0.001015559 -0.12938756 -0.31508195 -0.19210781 0.10143495 -0.2337185 -0.12298551 0.18464857 0.31710905 -0.304256 0.3835863 0.12475561 -0.27216828 0.41234264 -0.12925336 0.026824495 -0.17022043 -0.3017395 0.17798778 -0.14504163 -0.10799728 -0.32538235 -0.028602624 0.052378498 -0.3091003 0.27196413 -0.013780233 -0.29762775 0.0033856775 -0.08070974 -0.24600661 0.27544972 -0.2542979 0.014286321 0.33968318 -0.023865804 0.29977942 -0.02193989 0.35762256 0.22924396 -0.28244784 -0.14729744
1450 -0.032878928 0.013945022 0.057494637 0.096983634 -0.088806756 -0.055086493 0.18636154 -0.094713785 0.18630949 -0.082152195 -0.08543172 -0.119067386 0.11404636 -0.124833226 -0.019816669 0.053643476 -0.07835047 -0.17309402 0.1301799 -0.20725127 0.08711441 0.041754812 0.11381169 -0.10888396 -0.0052615535 -0.056810394 -0.06907573 -0.097695716 0.011900386 0.017574864 0.075002186 0.011381892 0.0768201 -0.12781964 -0.030636396 0.00794025 0.12384272 0.011233405 0.0027486654 -0.14288299 0.045298684 -0.071210094 -0.097997725 -0.05980715 0.007878468 0.091270655 0.14058124 0.026462678 0.104686685 0.036035195 0.08158483 -0.08665152 0.059965007 -0.116678424 -0.15614475 -0.029641522 -0.101831995 -0.11993399 0.08043886 0.09794098 0.099842094 -0.18423843 0.009711975 0.05260482 -0.03617461 -0.25674275 0.14489648 -0.30403626 -0.22993912 -0.041710116 -0.103198 -0.109702185 0.15244074 -0.090780824 -0.16794144 -0.083761565 0.13908455 0.18388359 0.051304173 -0.013000916 0.22522588 0.11736293 0.08358455 0.2241449 0.28939772 0.31273723 0.08379836 -0.16413939 -0.22441182 -0.11524703 -0.06652058 -0.3057696 -0.19764744 0.21814261 0.16479468 -0.264609 0.2654721 0.091373675 -0.27312684 0.3354159 -0.0821713 -0.010174377 -0.17418239 -0.26836818 0.062464014 -0.1700706 -0.118903965 -0.1381942 -0.03957131 0.04460332 -0.28097165 0.28130943 0.011779596 -0.17100653 -0.004736155 -0.086808115 -0.19519204 0.16139852 -0.24966925 0.1375826 0.33312687 0.031648707 0.24978839 -0.055773232 0.19753963 0.09730859 -0.30074972 -0.14850968
236 0.13661852 0.11935627 0.014837493 0.013281522 -0.043804064 -0.15758972 0.17377609 -0.11677561 0.123759605 -0.02041745 0.089692205 -0.11241717 0.106326394 -0.16451624 -0.12386254 0.14501075 -0.13101429 -0.06380396 -0.037373934 -0.16014549 0.10540357 0.13994779 0.17552164 -0.14506605 0.037326463 -0.11902902 -0.25841582 -0.0879092 -0.008134069 0.086853854 0.05416843 0.08027776 0.007432582 -0.0403604 -0.049714286 -0.0827283 0.05027062 -0.005739666 -0.04644842 -0.009971531 0.16925593 -0.034725852 0.19393262 -0.028564157 0.02557241 0.0008126019 0.19021325 0.14871266 0.067002766 -0.10228389 0.072460204 -0.010326842 0.1394022 -0.08255862 -0.070825346 -0.19795287 -0.14912437 -0.12974396 -0.12835637 -0.05444869 0.020347757 -0.24353497 0.06419014 0.19431017 0.06688645 -0.24707615 0.052293576 -0.29390723 -0.24757017 -0.05735951 -0.15031439 -0.3200143 0.18784384 -0.048916586 -0.19145717 -0.2016802 0.28109196 0.08789003 0.16663714 -0.04979837 0.30177665 -0.023962427 0.16440934 0.24331474 0.36113766 0.36348036 0.123565964 -0.25719982 -0.10007128 -0.20874383 0.035463255 -0.17572506 -0.110013776 0.18740502 0.22111414 -0.18987899 0.29193383 0.15867588 -0.20928775 0.3811602 -0.05325572 -0.1175608 -0.0495471 -0.34897673 0.12601703 -0.21673292 -0.22241634 -0.16031194 0.015421484 0.058735378 -0.30902612 0.29020882 -0.12196819 -0.26968026 -0.022735842 -0.15959534 -0.09898228 0.26359934 -0.21209726 -0.016700462 0.22096248 0.10090524 0.30111516 0.06672661 0.27374324 0.060699876 -0.09273523 -0.11680529
1455 -0.03960279 -0.07808176 0.010193665 0.029171722 0.0034337433 -0.0887311 0.09945787 -0.024444433 0.068977654 0.012747796 -0.027854279 0.049443133 0.018083777 -0.06033265 -0.0849529 0.022677962 -0.07773057 -0.07115232 -0.025621824 -0.08368222 -0.066086955 -0.077217296 0.0030417112 -0.12677118 0.04615309 -0.053257313 -0.0974853 -0.035480995 0.011499879 -0.021741303 -0.0038060015 0.05687991 -0.04203351 -0.02525546 -0.10133091 0.031502593 -0.06838024 0.008695525 -0.06659419 -0.10314502 0.08446367 -0.061190803 -0.014735508 -0.002344085 0.02606546 0.033401493 -0.0034005514 -0.031883106 0.053958606 0.038821694 0.05794899 -0.11814218 0.016204556 -0.026050314 -0.07033987 0.019757006 -0.036838885 -0.08452586 0.096890315 0.016440727 0.059817746 -0.07655957 -0.06533067 0.07865706 -0.012699775 -0.12120106 -0.025520459 -0.1841946 -0.1549255 -0.00082754664 -0.06606768 -0.07813832 0.17940955 -0.03247193 -0.11185644 -0.03375656 0.19674788 0.15472448 0.12670897 0.047678437 0.16758639 0.09656923 0.06741178 0.21222734 0.19620116 0.16783912 0.12644102 -0.13845599 -0.115900226 -0.2098509 -0.015658835 -0.17154561 -0.06711832 0.18128663 0.0065341946 -0.1360495 0.14072748 0.0026743948 -0.18889815 0.185107 -0.03419469 -0.07974004 -0.049556077 -0.15375523 0.120202735 -0.09674836 -0.123774074 -0.076351054 -0.039855994 0.059773445 -0.12726052 0.19773613 -0.041256893 -0.14897273 -0.013735768 -0.059544213 -0.20304145 0.15219468 -0.15971959 -0.0023828347 0.17201895 0.023131005 0.14907542 -0.029994924 0.10260394 -0.04091762 -0.16326126 -0.028164981
1465 -0.045533173 0.10803435 0.0046584164 0.13876761 0.16890351 -0.20121326 0.1049638 0.0903813 0.32187286 0.00387152 0.17074649 -0.16789941 0.19640216 -0.14805327 0.15043321 -0.059988584 -0.1703768 -0.12506379 0.16566171 -0.30357358 -0.16726674 0.014317234 0.06320494 -0.1809849 -0.009449365 0.013542524 -0.20244949 -0.18828857 0.17181557 -0.19028226 0.2653492 0.13338363 0.08399959 -0.17743689 0.21373743 0.19427513 0.014506297 -0.15968029 0.25203314 0.087657295 0.25059286 -0.030830443 -0.0710665 -0.23550893 0.1570178 0.2368118 0.12469856 0.17950842 0.2125661 -0.13108738 -0.20051369 -0.0072279274 -0.108340815 -0.15189725 -0.018038774 -0.25229302 -0.2510064 -0.042863302 -0.1499737 0.25713807 0.07440521 -0.07821137 -0.09912759 0.08507406 0.03193854 -0.33811283 0.056474518 -0.50738144 -0.43354085 -0.021808723 0.103942595 -0.34001112 0.14178804 -0.207504 -0.36871055 -0.050709024 0.20978281 0.2715387 0.120064326 -0.130323 0.42596692 0.0030514328 0.18536693 0.16967389 0.18114293 0.35128957 -0.1353917 -0.14750439 -0.23701352 -0.06653818 -0.09937713 -0.3940022 -0.09630558 0.08333017 0.29926035 -0.31678095 0.28145766 0.20429507 -0.3042229 0.29559976 -0.07228149 0.19580652 -0.20679188 -0.22794999 0.2123307 -0.19471931 -0.16383927 -0.3219038 0.024842612 0.056874603 -0.23193179 0.28954446 0.007835208 -0.23780411 0.118155345 -0.12350368 -0.4318939 0.15581238 -0.36443454 -0.06289972 0.42571107 -0.14389789 0.33787802 -0.3703647 0.3258123 0.17197338 -0.38388625 -0.2818622
1466 0.026777508 0.021036373 0.06703533 0.15493019 0.14149977 -0.09013878 0.20442674 -0.10584847 0.26191938 -0.06244085 -0.06445584 -0.17503361 0.061064262 -0.19105428 0.10912281 -0.07142393 -0.16544428 -0.21442229 0.2385101 -0.22275397 -0.027100166 0.11712808 0.21244816 -0.14083542 0.05157231 0.046459273 -0.11462846 -0.12212184 0.17084962 -0.12191595 0.15256882 0.07654239 0.02689107 -0.2545407 0.14778864 0.17578419 0.07129295 -0.17189702 0.22085674 0.040517177 0.18494955 -0.11045877 -0.17382263 -0.1543846 0.0012781769 0.20359933 0.20623495 0.14010705 0.10874335 -0.11976883 -0.033206686 -0.07557882 -0.2649648 -0.21860692 -0.14379561 -0.14999051 -0.13496839 0.036624767 -0.13830951 0.23859435 0.06674708 -0.086853296 -0.101682715 0.13002191 0.019707594 -0.3532555 0.12831482 -0.51497006 -0.39219257 -0.0652106 0.052303925 -0.25282028 0.08859356 -0.180056 -0.28697523 -0.05872342 0.19354583 0.27699265 0.15990262 -0.12613587 0.37500185 0.0607756 0.13319801 0.2526897 0.26345152 0.3433685 -0.121699914 -0.18567628 -0.28375566 -0.15205954 -0.09940356 -0.44521427 -0.19111958 0.116079085 0.2605387 -0.27172348 0.2808751 0.16268672 -0.3224632 0.35408205 0.019996766 0.17885901 -0.2817347 -0.2603174 0.15904908 -0.19708194 -0.19089967 -0.32744065 0.083361335 -0.014329058 -0.21481998 0.26608583 0.008316668 -0.20540577 -0.017573578 -0.15466926 -0.3728908 0.18256259 -0.3748502 -0.0783697 0.46120068 -0.0634741 0.3070156 -0.3898717 0.2760477 0.118737504 -0.33382738 -0.2171836
1468 0.032756217 0.08125833 0.18478186 0.18703048 0.039844632 -0.089668386 0.28400254 -0.045491662 0.20935108 0.040783405 0.015688924 -0.12748426 0.20102906 0.016096838 -0.044855822 0.041412547 -0.12861048 -0.16599172 0.024909446 -0.21987982 0.026763648 0.18262367 0.15223421 -0.10877188 0.03497357 -0.15358204 -0.07478919 -0.15139815 0.022775358 -0.117759846 0.06736272 -0.029820027 0.011670581 -0.17932278 0.08915578 -0.01839699 0.017595643 -0.1049253 0.053177048 -0.016193636 0.1540694 -0.06329395 -0.021537688 -0.1570832 0.13257226 -0.024888275 0.17699112 0.18131575 0.1483933 -0.03451026 -0.0035687957 -0.1296988 0.05492242 -0.19889554 -0.1571281 -0.17182425 -0.0716691 -0.0838971 0.04913322 0.070397824 0.06748637 -0.16722365 -0.07005137 0.105004266 0.0074223173 -0.23435493 0.16583578 -0.3538902 -0.323329 -0.04649682 -0.14581661 -0.23604938 0.16915849 -0.10615949 -0.2477866 -0.07910723 0.19378687 0.21581414 0.09184594 -0.13065685 0.25834003 0.077231005 0.13602594 0.29475248 0.30485275 0.2628282 0.031947903 -0.20910478 -0.15420592 -0.14461423 -0.06570512 -0.27891928 -0.17847513 0.1616647 0.2477138 -0.28057754 0.28410918 0.07671651 -0.1588095 0.34861204 -0.021346878 0.04433026 -0.21392526 -0.25503162 0.08394131 -0.19285586 -0.22708035 -0.23855968 0.015066299 0.026238745 -0.34501562 0.18821119 -0.04689122 -0.15001586 -0.021117717 -0.14837304 -0.2516306 0.101832345 -0.19853278 0.002623882 0.33403355 0.061811473 0.30791593 -0.22991462 0.28106016 0.13575003 -0.20973815 -0.20989722
243 0.13734806 0.14565511 0.013146651 -0.03834238 -0.09382624 -0.05353176 0.24592584 -0.11944723 0.09692019 -0.1319343 0.09459187 -0.12489714 0.07961857 -0.14656574 -0.15137714 0.034365878 -0.12525985 -0.0684838 -0.13101977 -0.21692206 0.17449717 0.117783055 0.10705883 -0.10470495 0.06957911 -0.056023795 -0.24669051 -0.0030716064 -0.0007603702 0.014568937 0.12656903 0.10534806 -0.05303649 0.06221354 -0.037905537 0.063172325 0.0006573498 -0.080530114 0.019535463 0.018693916 0.13067207 -0.041776765 0.11572085 0.022267634 0.030762274 -0.008754582 0.15800229 0.18516439 0.124481626 -0.054067146 -0.029241463 0.08527585 0.11521313 0.042439424 -0.12500978 -0.1824597 -0.05901935 -0.15343784 -0.06545827 -0.015207717 0.023652721 -0.18450953 0.09201828 0.11856601 0.048846077 -0.1703523 0.110956 -0.23367244 -0.27476984 -0.029162489 -0.1862472 -0.20765702 0.15136883 -0.02110961 -0.11692612 -0.16358794 0.2551476 0.15509419 0.07157156 -0.06469296 0.31889042 -0.020334683 0.20844203 0.25266722 0.3511365 0.3898903 0.10969453 -0.28066355 -0.13613942 -0.121304564 0.006001947 -0.09040207 -0.08856353 0.06937354 0.20559363 -0.2982392 0.27824292 0.058635928 -0.2430949 0.31775945 -0.027650932 -0.15020025 -0.020921335 -0.29704052 0.06520762 -0.26640746 -0.22956143 -0.17312478 0.05607272 0.11496028 -0.29972395 0.2566641 -0.0839349 -0.21514226 0.037073635 -0.106583826 -0.13600679 0.2776844 -0.15096988 -0.038957555 0.17697184 0.048744686 0.22203708 -0.05620331 0.21719335 0.10559976 -0.055509623 -0.08495968
245 0.13073659 0.19812268 -0.05094407 0.0574278 0.0006719418 -0.16808222 0.22120862 -0.11870103 0.17138638 -0.068337515 0.122346275 -0.096030906 0.19820888 -0.20240451 0.049168136 0.11308583 -0.14364693 -0.17060916 -0.015793353 -0.2275547 0.032599032 0.12991537 0.14370601 -0.16843429 0.04716861 0.06641987 -0.19134806 -0.13816996 0.022888988 -0.08532853 0.24534035 0.062114563 0.12059566 -0.12063568 0.009034496 0.036527805 -0.007597023 -0.15898705 0.10162043 0.06805945 0.24856941 -0.06603808 0.07050188 -0.107080095 0.0870194 0.013180856 0.22545543 0.21779281 0.18464288 -0.10871578 0.03662498 0.0022346596 0.06321807 -0.07350099 -0.1578693 -0.16532645 -0.1958589 -0.21398193 -0.21288642 0.14410934 0.041967995 -0.12506004 0.010464094 0.122203894 0.060072392 -0.27297065 0.08171595 -0.29643783 -0.3052586 -0.08660859 -0.15339245 -0.21944305 0.15800616 -0.008904076 -0.19798318 -0.07180218 0.30092132 0.13471216 0.041591093 -0.13690381 0.37958574 -0.027748588 0.19042918 0.23620735 0.30727014 0.35438305 0.02610122 -0.23413074 -0.18499723 -0.14176024 -0.012485071 -0.20788474 -0.11620693 0.11953487 0.26989406 -0.34777865 0.36495987 0.11324593 -0.23546939 0.31811228 -0.08113969 -0.06684063 -0.0028473604 -0.34392083 0.073036775 -0.2355948 -0.17387877 -0.19621637 0.0066648163 0.096953936 -0.27596906 0.27200457 -0.04247639 -0.26182294 0.037628982 -0.16722636 -0.17531984 0.18610108 -0.2158635 0.058593735 0.35876766 -0.019304397 0.29619676 -0.057939284 0.20105958 0.13321953 -0.19324012 -0.11968797
1535 -0.027889075 -0.06108304 -0.041116294 0.0351696 -0.0050999452 0.11120146 0.04077846 -0.034942728 0.041041944 -0.118356645 -0.023458416 0.02196299 0.044949282 0.1487445 0.02699797 0.058270793 0.13688481 0.08733515 0.004777111 0.026602326 0.10480297 0.0881454 -0.10387608 0.15650311 0.013385482 -0.029620344 0.12907082 0.040220436 -0.039956026 -0.08960959 -0.060210302 0.13685851 0.07179142 0.019946422 -0.014720928 -0.07504641 0.03662713 0.076708026 -0.01454506 0.0020741378 0.023155278 0.046536256 0.044534765 0.05161434 -0.055796683 -0.015026086 0.10370206 -0.10254582 0.04220295 -0.046707995 0.075447425 -0.024808392 -0.083958805 -0.032199066 -0.068487026 -0.04244502 0.05266642 0.082684465 0.16753827 -0.05892871 -0.0734763 -0.09264851 0.045243938 -0.084022045 -0.03062047 -0.11845883 0.106215425 -0.12574747 0.03997421 0.06077616 -0.07406442 -0.117627926 0.10570847 -0.065680996 -0.16726884 -0.1966506 0.15043941 0.19633389 0.17631142 0.16313209 0.1450496 0.05281404 0.15797986 0.20300382 0.20599407 0.16764566 0.040504824 -0.1706129 0.025808716 -0.23321055 -0.08020494 -0.09919595 -0.07912852 0.13057409 0.10829049 -0.0960558 0.23469387 0.014213658 -0.064572126 0.15004355 -0.16723794 -0.0044370578 -0.10863273 -0.1959468 0.12019385 -0.03314723 -0.17270081 -0.2060126 0.029547127 0.041245118 -0.14468369 0.101254545 -0.047615107 -0.019310819 -0.025876235 0.061706007 -0.07098256 0.24950008 -0.20416115 -0.14970648 0.179082 0.03402108 0.18761267 0.059218626 0.15601458 -0.094439074 -0.15803139 -0.055668235
780 0.049620673 -0.04308048 -0.0072637643 0.014127775 0.056971457 0.008909708 0.022822116 0.00015380121 -0.06073774 -0.07538913 -0.013479308 0.09862724 0.0019094116 -0.016687276 -0.049558077 0.028558675 0.10674911 0.04432574 -0.040097363 -0.020066338 0.008514949 0.1357627 0.015172196 -0.02277112 0.015341134 0.03334751 0.09332864 0.024824701 0.029900182 -0.07136915 -0.087369844 0.13707706 -0.025212502 0.033889223 0.04637283 0.02556986 -0.0855693 -0.02424344 0.023614869 0.09788925 0.12245202 -0.0412462 -0.016707722 0.04297162 -0.04755297 -0.08160299 0.12274451 -0.015197166 0.057320256 -0.019143263 0.11177741 -0.17230575 -0.05060279 -0.029611265 0.060909104 -0.09939616 -0.09192454 0.033543672 0.039114926 0.008576031 -0.14345129 -0.005363742 -0.0036680037 0.07478727 -0.06404261 -0.08883248 -0.0033724539 -0.07150486 -0.011885667 0.09797791 -0.0040389057 -0.16825794 0.04354006 -0.0998692 -0.06842196 -0.08919518 0.15229538 0.13721307 0.07922228 0.056010436 0.08915806 0.013659919 0.08634835 0.1523281 0.12469321 0.15298899 -0.039000243 -0.17869323 0.052944813 -0.1846113 -0.022030244 -0.08866873 -0.15210183 0.07453171 0.016353618 -0.11914431 0.1440422 0.0060261646 -0.025628703 0.13541701 -0.13700837 0.014775111 -0.09598172 -0.03973694 0.15768671 -0.056291014 -0.1772755 -0.16890381 0.01936535 0.10340961 -0.11339563 0.09115089 0.007377017 0.0030456914 -0.037920095 -0.016326431 -0.041219182 0.14559275 -0.14841716 -0.02150078 0.14510736 0.048676766 0.121026866 -0.0362414 0.07239623 -0.09809612 -0.053948097 -0.120047614
1550 0.09773122 -0.08645607 -0.034717586 -0.06956996 0.050010186 -0.004849609 -0.018821746 -0.105642386 0.06384587 -0.1372107 0.09721179 0.034245253 0.03145004 -0.014984596 0.0003957859 0.098586984 0.03676215 0.00551328 0.04209088 -0.044529874 -0.014304336 -0.015939927 -0.020331899 -0.016647317 -0.06617416 -0.05757496 -0.009359185 -0.024677137 -0.007548191 -0.050663896 0.017040914 0.1375793 0.038460523 -0.052314684 0.088294856 -0.003302127 -0.063916415 -0.034844346 0.019447858 0.08507588 0.10282583 -0.055901375 0.019629044 0.054100126 -0.006706008 0.065738685 0.05902688 -0.059205934 0.025152516 -0.0540078 0.0874224 -0.06633618 -0.065752745 -0.087073125 -0.11779354 -0.0016270734 -0.07713513 0.05929306 0.04231791 -0.008031505 -0.08257445 -0.050928596 -0.020457767 -0.036529724 -0.035445306 -0.13277033 0.0770764 -0.08215529 0.083520256 -0.019073546 -0.08971928 -0.06750096 0.057223592 0.014785899 -0.08726721 -0.17878994 0.074961066 0.12848136 0.03419854 0.028979197 0.10302729 0.055590756 0.17411397 0.15987384 0.0844593 0.12964605 0.05187159 -0.10669905 -0.052780345 -0.08512521 -0.049679905 -0.08781404 -0.033143934 0.12281861 0.12555067 -0.08809086 0.18368214 0.0846885 -0.0060886755 0.12052651 -0.07430071 0.01715695 -0.056036867 -0.13201654 0.11503482 -0.026959866 -0.09857963 -0.1295803 -0.04092951 0.00084910204 -0.07808389 0.068258375 -0.114806674 -0.010931577 0.041767195 0.048630923 -0.051904522 0.16623956 -0.16568297 0.010445016 0.07255189 0.029043047 0.10679592 0.0262689 0.05506752 0.00023704277 -0.096016414 -0.059331067
2273 -0.09479751 -0.14764802 0.092483416 0.04947752 0.039703265 -0.04742729 -0.06287719 -0.08608767 0.05436765 -0.050412633 -0.17960253 -0.0089670485 0.07987532 0.021692555 0.10366551 0.15647174 0.12476706 0.046792205 -0.051895157 0.046591133 0.07435149 -0.10564661 -0.050879505 0.11991938 -0.11803749 -0.02408875 -0.020917587 0.0014227111 0.03953128 0.07610797 -0.010482622 0.09667446 -0.10115526 -0.04325295 0.11032054 -0.095472895 -0.016803456 0.07095897 -0.06805372 -0.025707364 0.036391117 0.17302017 0.071203515 0.0109789185 -0.11073578 -0.013261101 0.094583645 -0.047860622 0.0002714952 0.080476604 0.17048416 0.07592102 -0.0689298 -0.10478047 -0.032074314 -0.005896472 -0.08692593 0.17084119 0.049169693 -0.10997491 -0.018479247 -0.01489013 0.040481295 -0.006297282 -0.11048614 -0.16225046 0.10290825 -0.22119842 -0.04939576 0.033215076 -0.046182774 -0.2060189 0.18677826 -0.00582519 -0.22455445 -0.2531903 0.19246322 0.2477903 0.17672017 0.2434563 0.01468139 0.16900082 0.23221418 0.22212964 0.28049377 0.13023116 0.15945886 -0.14354591 0.021074302 -0.17067292 -0.07448007 -0.077109136 -0.14968093 0.16313893 0.090459965 -0.06994073 0.21840483 0.042760476 -0.040324785 0.28445208 -0.15773512 0.005818721 -0.07071154 -0.19193782 0.16165957 -0.06863536 -0.24351609 -0.2569999 -0.038683683 0.03873865 -0.14900446 0.19672155 -0.013047272 -0.16506723 0.11174151 0.0005318377 -0.18166287 0.1357919 -0.24238618 -0.1373233 0.20533454 0.22425614 0.2713035 -0.020671522 0.16397545 -0.006687556 -0.1287474 -0.13661435
1616 -0.010731784 0.07555938 0.036330596 -0.06688711 -0.028883727 0.06991315 -0.12366556 -0.028326917 -0.14770213 0.07899196 0.054709587 0.030228412 -0.03747944 0.034169875 0.026881745 -0.06196978 0.10752454 0.05782105 0.14768176 0.012525667 0.04721845 0.15861888 0.16844702 0.048943147 -0.06078075 0.025718983 0.06200741 -0.11121643 -0.17562465 0.0070970934 -0.039701223 0.032331698 0.054878112 0.053331856 0.002734887 -0.17734444 -0.025051104 0.02902758 -0.056621246 -0.023579324 0.11687252 0.0072383163 -0.028784579 0.11847038 -0.15097106 -0.04080277 -0.007670832 -0.18343341 -0.16438049 0.09678274 -0.060308423 0.06075159 -0.0077508492 0.066191174 -0.11060025 0.043935634 0.16976562 0.13602942 -0.02244272 0.026576234 0.12817466 0.07783948 -0.048458055 0.035717346 -0.07170586 -0.10012687 0.044661537 -0.12440245 0.013142988 -0.08307276 -0.15842248 -0.082481116 0.23440853 -0.13509434 -0.19047426 -0.11341415 0.23190692 0.20240162 0.099796265 0.2033097 0.11365695 0.10277231 0.28159487 0.14856847 0.19999224 0.20367317 -0.08694936 -0.17866375 0.024767121 -0.15464035 -0.08214824 -0.17159408 -0.13858478 0.14164421 0.12610804 -0.20339452 0.08453225 0.061426852 -0.044632584 0.20316288 -0.07076106 0.0430177 0.062144592 -0.23195912 0.15646434 -0.2295243 -0.20063858 -0.0479298 -0.027166229 0.04670767 -0.14498398 0.16703561 0.16541907 -0.24465372 0.07291608 0.07298381 -0.1846071 0.3150111 -0.1423718 -0.13848437 0.14498441 0.087494455 0.22099534 -0.23339313 0.18722399 -0.08619731 -0.09496652 -0.061193164
2158 -0.016241925 0.11238645 0.12709706 -0.18226154 -0.030944254 0.047041908 0.08067856 0.12054851 -0.095240496 -0.12202715 0.17623413 0.06082492 0.039050326 0.054730993 -0.014353606 0.041762494 0.11249694 0.10826791 0.11271298 0.25220737 0.009216095 0.034582064 0.16276717 -0.0145818675 -0.13864143 -0.05956468 -0.160942 -0.14846519 -0.10989901 -0.0009257733 0.017976234 0.12672397 -0.059499618 0.09663713 -0.047058012 -0.16370156 0.10639494 -0.082525045 0.053026788 0.03132715 0.14054362 -0.006313436 0.01999037 0.023050148 -0.15869235 0.047659002 0.07058016 -0.19032012 0.107433386 0.11250122 -0.13169262 0.09485686 0.039599985 -0.059809014 -0.06762338 0.032921493 0.030975647 0.15101612 -0.039218843 -0.0030270666 0.07319659 0.05462097 0.05898079 0.071527906 -0.05536421 -0.058971632 0.041840028 -0.09010004 0.036507215 -0.023282379 -0.03165696 -0.10533933 0.2255739 -0.15939027 -0.2708892 -0.14598282 0.18221359 0.15797162 0.12668675 0.08683071 0.19607113 0.21653609 0.2613808 0.09301719 0.09252789 0.19467245 0.04630794 -0.2542612 0.014455936 -0.14472906 -0.05629798 -0.11127631 -0.1713974 0.0820582 0.16671698 -0.2732731 0.21182774 0.17081007 0.0027459434 0.18004745 -0.10842595 0.009641619 -0.10754715 -0.21072073 0.17349476 -0.24826282 -0.1600341 -0.11989719 -0.07097896 0.11645771 -0.19165388 0.18870856 0.15385954 -0.16083765 0.084243454 0.05912545 -0.20533195 0.20490254 -0.21166337 -0.13419527 0.14839783 0.039118372 0.23300788 -0.20763236 0.30125895 -0.01404896 -0.10809071 -0.12760226
1624 -0.10730856 0.10570021 -0.120509304 -0.08369009 0.060699724 0.10430426 0.007169195 0.04834514 -0.10502435 -0.032023456 0.11018859 -0.0033629576 -0.007976373 -0.019666303 0.0031843833 -0.008044867 0.042712964 0.09019716 0.13697378 0.017733179 0.01766023 0.04833665 0.0803253 0.0013675678 -0.06358249 0.04866209 -0.05632995 -0.10139402 -0.1963009 -0.01962188 -0.060798768 0.10945159 -0.01873755 0.13927747 -0.027290901 -0.18709205 0.01885582 0.05015099 -0.08111228 0.052499976 0.14761941 0.030101182 -0.0540125 0.13191701 -0.12341409 -0.020486265 0.027266044 -0.20230338 -0.01681445 0.14410365 -0.10272886 0.13495596 -0.036593854 -0.08189089 -0.1023723 0.046181377 0.11952143 0.15615527 -0.044265505 -0.048911124 0.15563527 -0.089027755 -0.1343514 0.04226675 -0.19058953 -0.10271353 0.03746166 -0.1717394 0.03301645 -0.023110135 -0.17691088 -0.07562992 0.22512475 -0.12464167 -0.22275898 -0.16667855 0.23103425 0.20019522 0.16271958 0.20335472 0.17304847 0.124381825 0.3103152 0.14862974 0.1303191 0.12517671 -0.03596348 -0.2503956 0.0082419915 -0.21490264 -0.06109033 -0.14875215 -0.19095446 0.17976129 0.15164873 -0.2184075 0.15422867 0.101232626 -0.060614165 0.12681416 -0.12646689 0.04898106 -0.14240168 -0.19297302 0.26430917 -0.16269024 -0.117481634 -0.16650228 -0.033395085 0.08650539 -0.15650819 0.16600522 0.087262996 -0.1933822 -0.012226117 0.07466687 -0.2619196 0.26265737 -0.23859268 -0.12631898 0.21007884 0.07805892 0.26154742 -0.18868434 0.24084346 -0.08320348 -0.08810747 -0.036150716
2165 0.0110999225 -0.04324185 0.10551498 -0.091221 -0.002959351 0.007211026 0.0129999295 0.06438171 -0.0047234474 -0.06223024 0.15626691 -0.0019476025 -0.11237402 0.0021042547 -0.086019166 0.022829972 0.062090643 0.052006055 0.07746776 0.112648055 0.057167284 0.09004092 0.13556135 0.05594983 -0.05296254 0.03797789 -0.11266165 0.054168317 -0.09947407 0.029811105 0.012538929 0.11923051 -0.16623715 0.05279589 -0.066522226 -0.013385831 0.09834133 -0.05955618 -0.0706319 -0.056896195 -0.044229552 -0.14719218 -0.034335803 -0.02951117 -0.1387325 0.054969274 0.118087515 -0.11935122 -0.075325884 0.1692268 -0.042320512 0.16009773 -0.0036483088 -0.041740004 0.16255073 -0.10202306 -0.055905532 0.14612094 -0.026019195 -0.07333415 0.0834878 0.03322931 0.014114459 0.042115044 -0.15487023 -0.075414 0.10514398 -0.02945273 -0.015520332 -0.05232685 -0.08350059 -0.101507775 0.12517767 -0.10610684 -0.24781802 -0.13944398 0.21892999 0.082926825 0.11888951 0.06285129 0.1253154 0.115384534 0.24639654 0.20140012 0.15502994 0.18309864 0.103311345 -0.19360942 -0.020659272 -0.17444623 -0.008525625 -0.107396744 -0.14311841 0.16438021 0.13686147 -0.16448475 0.15734008 0.15006854 -0.051368814 0.20211433 -0.18270165 -0.11904248 -0.13313398 -0.13569278 0.13311937 -0.15903714 -0.15045072 -0.13988794 -0.0007099726 0.116774105 -0.12818775 0.18708491 -0.058927912 -0.11935246 -0.014704422 0.002586037 -0.22184405 0.20266427 -0.2928914 -0.237363 0.21014342 0.118780226 0.19969971 -0.07569997 0.10871154 -0.057859764 -0.06856041 -0.10418976
2167 -0.037557337 0.009657935 0.13060254 -0.089202955 -6.0783103e-05 -0.0019727335 0.009947784 0.015460669 -0.019195402 -0.034073316 0.12848549 0.078518234 -0.022316711 0.06350731 -0.025122812 0.052120153 0.103513435 0.11410673 0.09710282 0.17588553 -0.0114772925 0.0032073618 0.102968186 0.049536515 0.020000648 0.009040303 -0.10045216 0.041408632 -0.102346726 0.018036945 -0.04849485 0.1372351 -0.09644707 0.014675908 -0.061649162 -0.048710793 0.12330267 0.008706229 0.036850862 -0.068311915 -0.092595845 -0.056870993 -0.031086773 0.022054892 -0.17781314 0.03478406 0.055439036 -0.03290121 -0.085212626 0.1641001 -0.077809185 0.13366976 0.018702183 -0.06179985 -0.02807369 -0.07820531 -0.017815126 0.17412896 -0.060947105 -0.049744092 -0.054525144 -0.03215195 0.04750589 -0.031443823 -0.06654678 -0.06957701 0.060735907 -0.06742457 0.049025524 0.050748702 -0.08876161 -0.11625945 0.1511416 -0.118116856 -0.22260983 -0.1782185 0.22223456 0.10817898 0.10474008 0.078785926 0.12615848 0.090798646 0.263211 0.24816816 0.1748201 0.10406628 0.04986423 -0.19607998 -0.021252677 -0.13839744 -0.0248462 -0.1493547 -0.097078875 0.07524665 0.19680426 -0.29366824 0.16851768 0.13794205 -0.053714756 0.09222793 -0.12466201 -0.035852972 -0.11897614 -0.060888723 0.1998514 -0.16405872 -0.108284965 -0.12098313 0.016268017 0.118126705 -0.081311315 0.19724414 0.061789162 -0.09937208 -0.034058616 -0.0044113942 -0.19056469 0.22318804 -0.27126583 -0.13625047 0.19650249 0.07813546 0.16700198 -0.16028857 0.21275719 -0.07120694 -0.109348826 -0.09344506
1631 -0.1232844 0.05494742 0.0042180964 -0.094230734 0.042879406 -0.04409417 -0.015276667 0.0330436 -0.09497728 0.10721885 0.07118011 -0.035880513 0.090681575 0.026773335 -0.024536213 -0.083042555 0.03433564 0.120072976 0.14026882 0.06555078 -0.011132546 0.04105801 0.1483487 -0.054225523 -0.113126986 0.0628509 -0.030098476 -0.129336 -0.12735625 -0.035993047 0.014562003 0.08916109 -0.05576923 0.17475134 -0.04338691 -0.14520872 0.06758495 0.042772245 -0.0062054344 -0.036743417 0.18201426 0.032566212 -0.026810545 0.09229195 -0.10398534 -0.05992511 0.039621666 -0.2534867 -0.040014233 0.110902384 -0.14628156 0.040797744 0.017925827 -0.033917233 -0.13486676 0.0001313136 0.13930269 0.1601722 0.006379304 -0.030501086 0.14282979 0.050457403 0.0065274327 0.031985607 -0.114811964 -0.14735547 0.01820214 -0.12539019 0.022195837 0.0015534322 -0.0920524 -0.14439483 0.2582049 -0.13591135 -0.12356972 -0.08381404 0.16071427 0.1861343 0.17347056 0.13346447 0.20726334 0.1736812 0.26939145 0.16855341 0.21506172 0.16872752 0.0010985655 -0.27396917 0.058346 -0.17754348 0.014584815 -0.14293118 -0.18024282 0.13229923 0.158546 -0.24049294 0.1350289 0.11560179 -0.0005165645 0.12422583 -0.1771654 0.06810097 -0.06177844 -0.18709058 0.20296158 -0.28232962 -0.17786737 -0.16185457 -0.06988819 0.07399929 -0.16076653 0.15254733 0.14511901 -0.23803535 0.029578408 0.04742969 -0.20474407 0.2490754 -0.20124944 -0.112355426 0.18721813 0.08759573 0.2629691 -0.22062032 0.28964645 0.08572866 -0.06281093 -0.10455232
1640 -0.042024143 0.114566855 0.047200564 -0.08822965 -0.05143008 0.019318296 0.0010481856 -0.047318365 -0.093147986 -0.006138502 0.119293205 0.040208396 0.037182573 0.024250047 -0.0746045 -0.040643126 0.033838205 0.025745893 0.11701643 0.066377796 0.029948883 -0.011726673 0.17818178 -0.0027134526 -0.21812618 0.05657189 -0.046152413 -0.076977775 -0.13900587 -0.0071673254 -0.07820777 0.070815675 -0.030967593 0.1660506 -0.12158852 -0.15545492 -0.043171495 0.028469156 -0.030693598 -0.05205211 0.1354234 0.04255326 0.025411688 0.08713434 -0.20583878 -0.003518467 -0.011925065 -0.14413628 -0.14934388 0.12003491 -0.088810064 0.059628673 -0.021263462 0.019326873 -0.073579185 0.068901435 0.11089348 0.07160108 0.077824 0.030665282 0.21034189 0.041668348 -0.006906437 0.0255921 -0.1054809 -0.17169835 0.0055539557 -0.12543873 0.00062944076 0.018640535 -0.10607349 -0.10567523 0.14901358 -0.10708082 -0.1226294 -0.11833834 0.25717276 0.24588148 0.17162094 0.19882275 0.18227278 0.11753117 0.2698379 0.14964372 0.17214227 0.18070006 -0.028938849 -0.21637943 0.10086816 -0.25356418 0.03680089 -0.16281648 -0.15115766 0.19662182 0.094629414 -0.15200986 0.16337615 0.09846876 0.0010932337 0.18836527 -0.054415904 -0.013554973 -0.06998074 -0.14597115 0.2507016 -0.26088634 -0.22363822 -0.14320749 -0.019907901 0.024150163 -0.14557756 0.14225559 0.13206719 -0.2463256 0.09459152 0.007209453 -0.14719361 0.28995523 -0.18824479 -0.075037464 0.13535883 0.017100014 0.24500768 -0.13281557 0.20033541 -0.014928185 -0.12378776 -0.02857168
1659 0.015177623 0.018087607 0.061037358 -0.07904029 -0.07277554 0.1167168 -0.15718932 0.032087784 -0.15497749 0.11052367 0.11502258 -0.024385005 0.012112939 0.054099433 0.079163134 -0.08074525 0.07691196 0.07525643 0.061334565 0.067738205 0.04177751 0.10054924 0.14712852 0.05101521 -0.13136794 0.026636835 0.01463681 -0.07172133 -0.16849016 -0.03832701 -0.02229235 0.0041035423 -0.018881397 0.15556598 0.014827775 -0.19898391 3.876393e-05 0.053086795 -0.119115844 0.020548305 0.06707431 0.16524142 0.030368993 0.12949112 -0.10933692 -0.10915541 0.018174954 -0.23121198 -0.14810722 0.10663819 0.018244121 0.007485427 -0.00877045 0.044861592 -0.11788535 0.07365052 0.13911664 0.14292333 0.015475199 0.00013259103 0.12028184 0.063208774 0.052891973 -0.03733123 -0.051207907 -0.13155629 -0.02054338 -0.20806055 0.07907678 0.0013305591 -0.16570446 -0.10757463 0.26333094 -0.21355273 -0.16575335 -0.15913811 0.1977799 0.18054533 0.09346889 0.17110606 0.22155508 0.11780619 0.29353458 0.19953485 0.20422135 0.229945 -0.03781999 -0.15179206 0.05953306 -0.22605607 -0.062099326 -0.16111262 -0.21797411 0.19683431 0.17358385 -0.277731 0.08082664 0.10082758 -0.025788758 0.13522077 -0.13631117 0.022000797 -0.017755764 -0.17361778 0.24647501 -0.17660461 -0.2193741 -0.16469951 -0.03736167 0.033422884 -0.14904334 0.1693753 0.17234991 -0.22278048 0.08671617 0.092423975 -0.22322895 0.2862903 -0.16908015 -0.10678664 0.20312402 0.14798152 0.21903007 -0.20851365 0.30293974 0.0068894937 -0.010190269 -0.08707826
1662 -0.024916168 0.05741908 -0.055069182 -0.10852765 0.015749384 0.029167268 -0.13584864 -0.14057423 -0.12136024 0.07275335 0.07710044 0.09035108 -0.10369798 0.029462418 0.057110906 -0.09244719 0.03318482 0.132436 0.14697494 -0.0422369 0.029866463 0.034023706 0.096682586 0.018456593 -0.22045386 0.07534301 0.02676806 -0.17546716 -0.060060292 -0.016035607 -0.032946233 0.106729686 0.06865096 0.099263445 -0.052003376 -0.1677316 -0.10655929 0.06679481 -0.06896385 0.027850118 0.123242944 0.10089658 0.015442171 0.089020155 -0.12631811 -0.09240029 -0.02725476 -0.1566355 -0.121114634 0.032541417 -0.11058604 0.088716716 -0.090311125 -0.00787307 -0.17678848 -0.0095573375 0.12417977 0.08081577 0.01755581 -0.039844397 0.019485788 0.031604733 0.022149935 -0.026886286 -0.09191215 -0.14012071 -0.0096431505 -0.1285323 0.08794599 -0.11675601 -0.14374931 -0.15525772 0.17745623 -0.15639469 -0.14399096 -0.09319869 0.22906704 0.21279198 0.1817047 0.12915203 0.17323987 0.087241374 0.2424496 0.17553194 0.14288473 0.1422768 -0.14335775 -0.179847 0.019894492 -0.2484897 -0.067374796 -0.18326138 -0.07048276 0.16118227 0.14543043 -0.18946126 0.16941562 0.1461197 0.017498303 0.19548874 -0.08552924 0.115142934 -0.09165772 -0.18166244 0.26522228 -0.2218843 -0.21473749 -0.11899838 -0.0395853 0.048719876 -0.1639927 0.16489397 0.09298632 -0.15824035 0.08505119 0.05865474 -0.26723558 0.27547804 -0.1562521 -0.03414933 0.15578698 0.054862216 0.21962604 -0.08564827 0.2365792 -0.029095633 -0.024782687 0.012723395
2280 -0.028233457 0.11467172 0.08246846 -0.081759214 0.018817695 0.10432403 0.049316663 -0.033469148 -0.040442403 -0.0928355 0.1944943 0.025746668 -0.025650425 0.0065652225 -0.08233057 0.07589349 0.05695924 0.04143332 0.11385695 0.12162811 -0.024210704 0.05126503 0.11392857 0.09705851 -0.076875255 0.054337524 -0.093165465 0.011707623 -0.13141428 0.0035291146 -0.043072253 0.18086575 -0.061953187 0.03534711 -0.037206803 -0.072615944 0.06988257 0.038979482 -0.04874195 -0.010889663 -0.009327898 -0.07580117 -0.05453843 -0.02326924 -0.13881274 0.11219145 0.15090007 -0.08209134 -0.040232386 0.14183484 -0.0650158 0.1408636 -0.01776816 -0.015210174 0.08577358 -0.033847243 -0.033910684 0.17015342 -0.06131866 -0.02223568 0.020113911 -0.064346306 0.00033459038 0.055787016 -0.09464436 -0.07267973 0.018312877 -0.056073792 0.030247753 0.014597801 -0.14663301 -0.08072028 0.1492364 -0.115493685 -0.26486418 -0.15438983 0.23577203 0.10018091 0.1395929 0.07701912 0.15927522 0.14969969 0.2562949 0.14993434 0.0634568 0.09250552 0.10283237 -0.11522126 0.020629702 -0.13283107 -0.06417165 -0.08283257 -0.117874146 0.02044599 0.20078431 -0.26313967 0.17620075 0.16403416 -0.06793696 0.11788408 -0.11709715 -0.017365517 -0.124323495 -0.11538656 0.14117442 -0.14172025 -0.08885075 -0.08276881 0.005284546 0.04595326 -0.10679525 0.18983851 0.03563675 -0.099361524 0.06266969 0.11057937 -0.15000175 0.27734783 -0.23343106 -0.13091023 0.16854997 0.09349034 0.1769588 -0.21070127 0.19004302 -0.07456563 -0.049451835 -0.060589395
2307 0.07216044 0.030635947 0.06151403 -0.08681353 0.0665593 -0.036273364 0.004909251 -0.012556134 -0.107292265 -0.04693044 0.16656525 0.09402012 -0.13196865 0.041145965 -0.08755181 0.06679429 0.038763825 0.0642028 0.028889038 0.09547946 -0.03656133 -0.011609266 0.09408518 -0.026234994 -0.07592043 -0.012786797 -0.10202602 0.08710877 -0.09974396 0.018747445 -0.088377334 0.14089364 -0.058729943 0.13501652 -0.018653003 -0.044158358 0.12149457 0.034734387 -0.0065176343 -0.021809686 0.026956221 -0.07315707 -0.03131869 0.03679445 -0.11953959 0.09121427 0.07617232 -0.07803581 -0.038435165 0.12525034 -0.022138847 0.075359024 0.06923192 -0.06693142 0.09819161 0.0037435116 -0.081619434 0.120017216 -0.048458684 -0.024232175 -0.018824382 0.0131572625 0.05592906 0.03549785 -0.10922429 -0.048836373 0.030155674 -0.08716325 0.07002762 0.039168537 -0.036105823 -0.054585602 0.12797348 -0.11598476 -0.2232272 -0.097923234 0.18106629 0.12625131 0.16295107 0.08674063 0.096425466 0.100810625 0.162593 0.16479753 0.047126304 0.16064574 0.02117117 -0.19061859 0.023271536 -0.1428211 0.045732114 -0.04159102 -0.06143801 0.07110078 0.11101367 -0.19044352 0.17364591 0.15040004 -0.089358255 0.14974783 -0.1474106 -0.13802901 -0.0550866 -0.012967537 0.1965129 -0.11452342 -0.07991712 -0.046568997 -0.008888477 0.08536261 -0.16273095 0.19032574 0.019145494 -0.06597538 0.00026290026 0.012018948 -0.13259281 0.21127674 -0.17955408 -0.16555454 0.11300103 0.091978244 0.13940874 -0.14461584 0.1955975 -0.027476538 -0.046023875 -0.061672874
16 0.10088598 0.0035921861 -0.01447147 -0.05687812 0.06963367 0.08415681 0.05981464 0.060455203 -0.008493402 -0.057056766 0.14033312 -0.10235149 -0.13565902 -0.1289297 0.036583714 0.034475382 -0.008372254 0.016876997 -0.10233509 0.01044014 -0.07026704 0.007776053 0.0133487955 -0.10501827 0.007329627 0.16320686 -0.011723906 -0.02582763 0.06961199 0.06742866 -0.10517933 -0.027783116 -0.09033247 0.15477414 0.133409 -0.105164565 -0.043164305 0.030793365 -0.17878504 0.03035998 -0.05816617 0.046688344 0.053087745 0.042111516 -0.060662698 -0.048151556 0.089250006 -0.24541354 0.10434815 0.11769097 0.051055275 0.21335286 -0.002704238 -0.013200417 0.09917804 0.0010123481 0.02120058 0.019355018 -0.02703197 -0.06705495 0.0131738745 -0.09062019 -0.016229762 -0.006635559 -0.13998492 -0.18194793 0.09054532 -0.1417479 0.002605962 0.07356957 -0.14188041 -0.10688174 0.16967309 -0.15112299 -0.2588786 -0.11352878 0.20123222 0.22991648 0.24130024 0.05950275 0.12966752 0.062827095 0.15195312 0.13919578 0.24285156 0.23612615 -0.069348305 -0.17465079 -0.07910543 -0.20272605 0.07223338 -0.17141779 -0.089344546 0.18991752 0.06782002 -0.2458773 0.18624844 0.036969587 -0.08880294 0.17074417 -0.19393818 0.0057230475 -0.070756175 -0.24370672 0.071573876 -0.12660329 -0.20305382 -0.23443624 0.09418105 0.053527124 -0.15699503 0.20572555 0.07823342 -0.14349349 0.19704519 0.029082784 -0.20176986 0.20674247 -0.2143244 -0.06970924 0.13415304 0.1867945 0.26674992 -0.13418171 0.20605369 -0.00043649587 -0.20789796 -0.083454676
11 0.0834226 -0.01630357 0.04552049 -0.1431055 0.11839142 0.033903714 0.06793333 0.07537577 0.08981394 0.08885321 0.100952774 -0.10086446 -0.055207107 0.00054830645 0.06281157 -0.024017124 0.016816976 -0.011002193 -0.028798556 -0.007428956 -0.057869434 0.0144459 -0.06310896 0.0100096185 0.012425313 0.094569385 0.09280764 -0.015987923 -0.05186156 0.043448005 -0.10167311 -0.042182595 -0.102130175 0.024507066 0.109962635 -0.075670235 -0.04817304 -0.09496979 -0.044819027 0.02552263 -0.053967148 -0.013551742 0.06044264 0.08475349 -0.016597385 0.039117694 0.13386355 -0.08959955 0.11021451 0.09497701 0.04464397 0.12576327 -0.078958675 -0.004364192 0.07872841 0.0088849785 0.046971593 -0.052973103 0.018418385 -0.11444758 0.0009680614 -0.10299725 -0.012863197 0.0017849909 -0.15069853 -0.1509421 0.06945618 -0.1467716 0.028175866 0.023548983 -0.0011486857 -0.1464707 0.1206393 -0.11825034 -0.18448481 -0.07506742 0.23089233 0.16376905 0.15573937 0.073195495 0.12951764 0.09192232 0.0906786 0.13580506 0.11983578 0.2071495 -0.07134246 -0.068223655 0.0023727352 -0.10627118 0.018078556 -0.118905574 -0.18210718 0.13542591 0.03765251 -0.17756248 0.153079 0.0935479 -0.12404053 0.06258617 -0.19609007 0.036551956 -0.09489144 -0.2480353 0.10853962 -0.08656585 -0.05760469 -0.1544509 0.10199537 0.074502505 -0.15855844 0.085275315 0.07256171 -0.06743378 0.10667678 0.061394338 -0.15892597 0.09472489 -0.17353411 -0.082592644 0.16683269 0.21833919 0.17226748 -0.08548574 0.101654574 -0.09188615 -0.12487906 -0.04437329
48 0.16743769 0.023338987 0.016094191 -0.05110449 0.0070211184 0.03496719 0.069738045 0.08938241 0.075757794 -0.08044155 0.11042653 -0.08968309 -0.047341593 -0.11065389 0.022355346 0.05989829 -0.095228255 -0.021697555 -0.059942473 0.038524337 0.029853247 0.0020921226 -0.05913981 -0.07407874 0.032130085 0.11780856 0.098067634 -0.0071831862 0.13010556 0.036254477 0.0066039045 -0.04326901 -0.055122744 0.051988974 0.13512367 -0.06367927 0.03191645 0.012529015 -0.0013570327 -0.007570329 -0.13465986 0.09877585 0.0057069524 -0.06905323 0.0047811028 -0.030697452 0.03136879 -0.12512368 0.0995103 0.00023132928 0.034654047 0.17231116 -0.06501268 0.037301596 0.024028368 -0.052114442 0.1293693 0.106771715 -0.042720176 0.0030498959 -0.09662603 -0.032384027 0.032836594 -0.07699137 -0.06809505 -0.15541002 0.19194297 -0.10614453 -0.0004370885 0.0069830003 -0.123907655 -0.040794022 0.1667099 -0.10780814 -0.25399938 -0.15606512 0.1978721 0.17739004 0.23498933 0.07548671 0.22047803 0.062439736 0.10089919 0.21100898 0.18254873 0.16736205 -0.07754638 -0.1487494 -0.12908652 -0.190324 -0.03038574 -0.16246647 -0.049891207 0.18633558 0.07071248 -0.14531367 0.082915016 -0.0039497977 -0.121071585 0.12072426 -0.12199219 -0.059907928 -0.062362958 -0.16961548 0.1319562 -0.051507358 -0.17203158 -0.15837452 -0.03487132 -0.0332288 -0.22779703 0.26581568 0.111293025 -0.17728359 0.1990606 0.06186244 -0.21663973 0.22161065 -0.28315508 -0.038285762 0.13407417 0.12416196 0.20729448 -0.11723595 0.22532482 0.029714 -0.20696948 -0.10620836
68 0.13567716 -0.032187093 -0.030789591 -0.054488864 0.131867 -0.05248845 0.020765364 0.0490655 0.10016702 -0.04284217 0.1549185 -0.056331947 -0.13740675 -0.09798651 -0.0014976813 -0.046445455 -0.12756586 0.046487182 -0.036587846 -0.092006095 -0.09961759 -0.025977613 -0.13153516 0.013820982 0.07625032 0.3013686 -0.029905392 -0.071640134 0.058362857 0.11518913 -0.06631102 0.041765746 -0.18236743 0.11420495 0.1410739 -0.033109564 -0.020683812 -0.06372367 -0.14588739 0.0615846 0.062206503 -0.015298896 0.08905171 -0.0024202908 0.0035560578 -0.15266319 0.13770695 -0.16015442 0.10723249 0.109093025 0.112271555 0.20358157 -0.0054207775 -0.039039966 0.15441526 -0.027426979 0.062452216 0.062198505 -0.0014835163 -0.0107090855 -0.039013166 0.038872927 -0.022833727 -0.026880324 -0.13309056 -0.27617183 0.06709693 -0.26134053 -0.066439174 0.028392095 -0.09521528 -0.11960163 0.25369313 -0.26143926 -0.3059313 -0.1267875 0.2664477 0.29953563 0.16273844 0.10191313 0.18039457 -0.03493734 0.17056604 0.16903514 0.2734855 0.2676183 -0.07926282 -0.13647856 -0.038061965 -0.19236137 0.029010704 -0.2006495 -0.14014573 0.21501659 0.12650059 -0.27348685 0.3204416 0.03206587 -0.22534256 0.2604162 -0.24956962 0.0460143 -0.03306504 -0.3170431 0.17073087 -0.07754377 -0.23575027 -0.21015643 0.17296447 -0.09835729 -0.19795388 0.2786197 0.024820164 -0.19334501 0.19461654 0.15223497 -0.2690229 0.25722173 -0.38563666 -0.08928939 0.21756917 0.14084734 0.30402538 -0.102150366 0.2086356 0.004569256 -0.26804042 -0.100117594
67 0.10254405 -0.0030775468 -0.04766768 -0.016405975 0.015213832 -0.020607721 0.018804144 0.005449862 0.07849013 -0.07865605 0.091006465 0.0087335445 -0.057723388 -0.014463512 -0.027839718 0.012341619 -0.07333154 0.05758745 -0.10289588 -0.06862292 -0.06765823 -0.008774101 -0.098129734 -0.08014313 -0.026953977 0.08946872 -0.01725948 -0.041106228 0.05514483 0.059416614 -0.036757316 -0.01472025 -0.06430841 0.085222036 0.074551046 -0.07675174 -0.02591577 0.0019373981 -0.08370234 -0.043060344 -0.050119627 0.006824326 -0.03112988 0.03810707 0.013346717 -0.107156545 0.035419527 -0.1375648 0.005575835 0.031447984 0.05307778 0.08221247 -0.122099616 -0.015393842 -0.0016957971 -0.058432274 0.005703703 0.08223777 -0.0043300833 -0.037585232 -0.008803125 -0.01351959 -0.009393463 -0.07559318 -0.15336035 -0.17149216 0.08190425 -0.10704194 -0.0088999495 -0.03449122 -0.11283798 -0.012164919 0.1027973 -0.09026627 -0.18054421 -0.09753699 0.14095803 0.10344125 0.11536844 0.025962066 0.16040465 0.06942062 0.09662964 0.12394076 0.11503349 0.1779896 -0.023850078 -0.16216813 -0.08721964 -0.15911202 0.048636984 -0.114838146 -0.08115891 0.1369259 0.08773412 -0.13663742 0.11697229 0.080715016 -0.08800507 0.09878421 -0.046017207 0.009424624 -0.08021555 -0.23138534 0.11882403 -0.11546638 -0.11907239 -0.18394814 -0.033492915 0.010285597 -0.18061018 0.15641913 -0.048729885 -0.1449624 0.2158808 -0.031066969 -0.16425952 0.16328348 -0.21235916 0.004799003 0.1835487 0.10700578 0.16139935 -0.05261293 0.17731343 0.037463564 -0.18643273 -0.06418888
88 0.099712126 -0.009258248 0.0280668 0.0864595 -0.018975152 -0.03514688 0.17623349 0.12605736 -0.06633379 -0.1388429 0.051355198 0.05384037 -0.089054346 -0.18676157 -0.05069135 -0.018337356 -0.0007887703 -0.0054390733 -0.04767029 -0.09348721 -0.16360457 -0.03366769 -0.14352989 0.020731734 -0.023615628 0.079988636 -0.061838243 -0.15368108 -0.034536965 0.1188275 0.053652737 -0.0027545898 0.0114361355 0.13497186 0.050100837 -0.00092276745 -0.07752482 0.035137184 -0.07088388 -0.072351724 0.06785612 -0.068815105 0.11736893 0.10700854 0.14404444 -0.046761733 0.032688294 -0.11141597 0.07442838 0.098080926 -0.044814996 -0.0063959695 0.18147253 -0.052150194 0.20102265 0.099765815 -0.049738713 -0.12472498 0.052804455 0.078030534 0.09064337 -0.038354736 -0.050850563 0.03653093 -0.18933424 -0.2862555 0.056668207 -0.111240216 -0.03742014 0.08469328 -0.23630829 -0.11317388 0.15844175 -0.2728003 -0.24734224 -0.107196845 0.16708809 0.29907903 0.15579209 0.103323966 0.054444708 0.11517167 0.21640638 0.2547933 0.2369572 0.25902814 0.13450631 -0.2051802 -0.009214699 -0.2900733 0.10750292 -0.1092574 -0.11827462 0.19950464 0.15136276 -0.2795115 0.24604753 -0.04989498 -0.023502043 0.2892703 -0.20637223 -0.047159802 -0.25229204 -0.30345246 0.1269565 -0.27268815 -0.20690706 -0.2521996 0.014688622 0.204068 -0.08557208 0.2555198 -0.024210345 -0.16819929 0.14302053 0.042065114 -0.13201763 0.2255211 -0.28584433 -0.009792386 0.237901 0.16254167 0.25843856 -0.12793656 0.19692376 -0.04939152 -0.21503216 -0.07029936
116 -0.033815563 -0.04388604 -0.12169781 -0.005553252 0.11774691 0.16151457 0.18538564 0.079374686 -0.04238655 -0.030478375 0.014857323 -0.021189395 -0.16316627 -0.07730313 0.00097577495 0.028515339 0.034774613 0.05343139 -0.12361623 -0.07870896 -0.04372155 0.05185489 -0.108296126 0.05651395 0.046130806 0.1234742 -0.028100848 0.040019386 0.005444295 0.06880111 -0.048063282 -0.051051248 -0.038870517 0.093249686 0.07052327 -0.015311811 -0.04541238 -0.105253294 -0.1402831 -0.002137166 -0.05270265 -0.10623058 -0.012569852 -0.07004916 -0.07553511 -0.029162534 0.1606125 -0.06084386 0.110918045 0.10643624 0.14701603 -0.05089616 0.041911103 0.06462938 0.080268376 0.03429837 0.12190495 0.020728525 -0.0073688957 0.13268708 0.06147484 -0.078638084 -0.0027668863 -0.04787828 -0.09714855 -0.19304761 0.032837395 -0.18651639 -0.12051135 -0.028247282 -0.16112372 -0.0914609 0.096571065 -0.2182326 -0.1901285 -0.14968486 0.18143982 0.24479674 0.17464298 0.07206117 0.08990182 0.06333954 0.1551125 0.13953103 0.2223401 0.13441831 0.13926457 -0.1502749 -0.044726633 -0.15002085 -0.0154835 -0.14925757 -0.13766949 0.18249306 0.01218541 -0.26166716 0.14030567 0.091369644 -0.22257172 0.16140142 -0.11526918 0.062870085 -0.09998194 -0.267065 0.11632107 -0.075871885 -0.15862457 -0.21982215 -0.03535305 -0.0049859043 -0.18436697 0.20697837 0.031481136 -0.19986495 0.17650051 0.07451099 -0.24940862 0.10558751 -0.26362118 -0.103850774 0.07227012 0.15285227 0.30883145 -0.069275 0.25255382 -0.05724747 -0.18107699 -0.11297592
119 -0.08203578 0.18669176 -0.08122386 0.094246574 0.023582987 -0.060203403 -0.071227714 -0.10832379 -0.07037631 -0.105033204 -0.053849313 0.022762237 -0.09196089 -0.097524144 -0.07817309 -0.042387027 -0.0075575267 -0.015218067 -0.04338159 0.03603057 0.14494942 0.102059476 0.05096659 0.0759631 0.13868141 0.01017594 -0.014280241 -0.11244191 0.08169969 0.05176227 -0.04306899 0.09769931 -0.0019157069 -0.0018703371 -0.06911707 -0.012101113 -0.070389435 0.06778876 -0.07902974 0.035694797 -0.027643401 0.072094254 -0.09038947 0.021201653 -0.015561872 -0.04459594 -0.17438044 0.056242228 -0.050862394 -0.035092365 0.06289092 0.09739808 -0.016435811 -0.118664496 0.03594079 0.010071008 -0.026061812 -0.11664318 0.011765646 -0.021860993 0.08032611 0.01408536 -0.1122758 0.012365037 -0.19127288 -0.27381694 0.11722577 -0.12270504 -0.024290405 0.21998477 -0.08504694 -0.14267638 0.13859078 -0.19852804 -0.16899258 -0.23879577 0.22213587 0.33958507 -0.0066314703 -0.026350286 0.16519977 -0.0082584405 0.2742442 0.24573049 0.26264334 0.18207973 0.04411099 -0.12306047 -0.08374746 -0.144499 -0.040295154 -0.09386295 -0.06308997 0.09170314 0.23186818 -0.15525854 0.2008674 0.03597661 -0.10751289 0.2703803 -0.16752821 -0.10845173 -0.32576978 -0.23165739 0.1613506 -0.17937255 -0.25905436 -0.16144545 -0.015851846 0.19391312 -0.10234249 0.1521203 0.019472562 -0.26363242 0.05826443 0.299913 -0.14295106 0.34827054 -0.24480069 -0.12292445 0.1971512 0.20793848 0.27178025 -0.06291731 0.31730893 -0.058590047 -0.17213976 -0.12837327
493 0.19023547 -0.11857348 0.04133404 -0.10644698 0.012243358 -0.009534949 0.09759119 -0.11882326 -0.053817205 -0.043677695 -0.006748732 -0.028105468 -0.24859643 -0.059017178 0.08357428 0.13950178 -0.13972895 0.12137343 -0.004807197 0.0162007 -0.008588011 0.13693358 0.045012522 -0.02205119 -0.12061236 0.024226926 0.10699172 0.07720884 -0.06366542 -0.036879037 -0.10402228 -0.13203293 0.06739321 0.08056692 0.016798824 -0.08469324 0.019437645 -0.049044963 -0.078518815 -0.01574918 -0.12656993 -0.041061003 0.07234427 -0.101199806 -0.08574357 0.028180206 0.12466097 -0.20367447 -0.06396792 0.04988023 -0.030402148 0.02763401 -0.07792148 0.011500561 0.21396174 -0.011463479 0.03589983 0.021492546 -0.04614617 -0.0034346683 -0.014439835 -0.015880445 -5.5302226e-05 0.15561934 -0.21498817 -0.31156325 0.11912728 -0.21535094 -0.08764352 0.16011712 -0.13597 -0.26278907 0.18263902 -0.06811639 -0.19975919 -0.15747142 0.2829821 0.23618847 0.29268762 0.07008509 0.1398392 0.066906996 0.19134411 0.1635783 0.283236 0.3126876 -0.013483039 -0.13378055 -0.0035924616 -0.20087367 0.050237697 -0.20828818 -0.20823005 0.0595213 0.10095484 -0.13288456 0.2343777 0.0071350434 -0.1951394 0.26405707 -0.26011673 -0.018208401 -0.19982226 -0.20356423 0.21328591 -0.123793714 -0.25824037 -0.25793618 0.14549124 0.14779362 -0.15911601 0.2137134 -0.0149338655 -0.1626203 0.02287408 0.067774065 -0.18249285 0.19732657 -0.13201705 -0.14536817 0.32577762 0.28067046 0.3084285 -0.10048336 0.20396416 -0.11348709 -0.22609544 -0.020706017
167 0.19673203 -0.06132838 -0.07785687 -0.106703565 0.026267592 -0.026226012 0.058723193 -0.012905605 0.029987505 -0.07926593 0.110874705 -0.005270768 -0.1293514 -0.02106917 -0.0066365385 -0.045632765 -0.1272103 0.11966452 -0.021578984 -0.05039566 0.0036189437 -0.055552803 -0.12359067 -0.14844212 -0.06328901 0.1984129 -0.00074775127 0.058495652 0.14271097 0.086768456 -0.005504322 -0.04906064 -0.11996628 0.104574315 0.06711114 -0.0215205 -0.08409963 0.007113235 -0.12596378 -0.0034789925 0.0009746013 0.004857614 0.07786827 -0.0007263379 -0.012356098 -0.07890587 0.085629776 -0.24868564 0.010355764 0.13821658 0.025763342 0.112274736 -0.150298 0.0020279419 0.02604568 -0.059125345 0.081468634 0.09968013 -0.024080623 -0.048145644 -0.014759348 0.02982157 -0.09567795 -0.003232046 -0.14918892 -0.17531228 0.10550007 -0.12864539 -0.05186065 -0.020532627 -0.20131193 -0.02728676 0.18506311 -0.18925759 -0.31825048 -0.1629016 0.17740795 0.22146279 0.16625427 0.056729767 0.1645535 0.05693279 0.1387682 0.17713425 0.26842216 0.22623697 0.009817886 -0.18678206 0.04518161 -0.22059654 0.03745191 -0.11986364 -0.09157538 0.26276717 0.114886224 -0.22047678 0.1659987 0.0021036342 -0.1077837 0.15116048 -0.09067197 -0.02184835 -0.04425303 -0.16382036 0.10551821 -0.073313944 -0.17372644 -0.2064652 0.0012367917 -0.008506299 -0.14673218 0.22176786 -0.020053199 -0.11195051 0.14540504 0.05087606 -0.21054164 0.23382413 -0.25175324 -0.003325917 0.16804036 0.21312873 0.25099984 -0.07598941 0.18583757 -0.032258656 -0.16014074 -0.107939854
181 0.13366741 0.0020594932 0.017760593 -0.106730506 0.100776024 -0.09595726 0.16183573 0.02429857 -0.046689246 -0.04261122 0.06428074 0.04414297 -0.17462109 -0.04598506 -0.06418638 -0.086361304 -0.010334654 0.12456918 -0.08195687 0.009505696 0.051579997 0.013151183 -0.11821093 -0.056569185 0.053221054 0.237418 0.011455617 -0.013112633 0.13559091 0.18471578 0.021631053 -0.062023234 -0.07416501 0.0803125 0.12037917 -0.029358571 -0.06658152 -0.049568627 -0.1982435 0.18216728 0.004106782 0.078912266 0.034583833 -0.012035887 -0.025349371 -0.17726022 0.12853166 -0.14744592 0.04232578 0.15798898 0.12467885 0.07628752 -0.014532806 0.044060882 0.14377795 -0.03640994 0.1369839 0.082385376 0.01959875 0.06700907 0.018633367 0.06682105 -0.07314765 0.05835949 -0.056780845 -0.16592705 0.18792236 -0.2523868 -0.11750702 0.014456533 -0.09230561 -0.121680416 0.24304219 -0.20987032 -0.31585342 -0.14518102 0.2447445 0.19139238 0.17971133 0.051777817 0.1385943 -0.028854288 0.1346413 0.21417056 0.25673833 0.2430354 -0.032288194 -0.1361521 -0.07312227 -0.29169667 0.050432365 -0.15862219 -0.12298082 0.21046408 0.108183965 -0.2853522 0.24972421 0.004594101 -0.17172793 0.16563961 -0.08203378 -0.10989606 -0.035053324 -0.22701098 0.1343322 -0.07065579 -0.1342157 -0.17270121 0.016779538 -0.07123614 -0.19667359 0.2576453 0.0023929777 -0.12713046 0.070990935 0.09543359 -0.20554323 0.22546758 -0.2923485 -0.06065392 0.16435838 0.12582865 0.30193835 0.004214103 0.20024382 -0.011173706 -0.17590874 -0.1499112
15 0.0076412447 -0.08619764 -0.0007093381 -0.046444617 0.097480975 -0.0171262 0.09378643 0.04417788 -0.04296794 -0.01114495 0.08292811 -0.04534601 -0.18778881 -0.05609072 0.039643288 0.028109249 0.08872712 -0.0023332902 -0.055002972 0.013202926 0.04006248 0.018122293 -0.05068573 0.002223214 0.071326375 0.2151341 -0.027725594 -0.05835825 0.078709975 0.06469883 -0.05153067 -0.028341802 -0.0942862 0.060917694 0.10615992 -0.015417835 -0.056211863 -0.084343895 -0.1598249 0.034939528 -0.02042639 0.011596578 0.021859193 0.018414896 -0.13513626 -0.09807511 0.094555415 -0.17143612 0.080683984 0.06616822 0.12707701 0.077375054 -0.033264995 0.015077873 0.119560026 -0.009132325 0.06779494 0.038100973 -0.04660418 0.02342426 -0.026387734 -0.034613714 -0.033213004 -0.0008580639 -0.12947874 -0.141705 0.09119974 -0.21154396 -0.06481203 0.03840421 -0.1018532 -0.03962442 0.12553558 -0.20678696 -0.25181788 -0.053893108 0.14637955 0.16894987 0.17449677 0.018205483 0.035055853 -0.0066407477 0.17076257 0.18704359 0.19660716 0.20567594 -0.004365833 -0.104343556 -0.0014617415 -0.25082758 0.07769704 -0.1831995 -0.11811847 0.124894366 0.03785187 -0.24605003 0.21619035 0.056669317 -0.08475896 0.18386821 -0.06774347 0.01969836 -0.04390217 -0.23684128 0.14094706 -0.049453825 -0.18228436 -0.19733405 0.034350634 -0.017297283 -0.13475616 0.21836473 0.060110558 -0.07497296 0.20941196 0.08047195 -0.19709665 0.17778714 -0.2213773 -0.13659365 0.15452062 0.09960903 0.23308729 -0.007975355 0.16534786 0.00185061 -0.17193252 -0.084177725
64 0.089086995 -0.033272173 -0.05788582 0.02348416 0.050538242 -0.060411584 0.122183 -0.042520054 -0.03852644 -0.08016671 0.009272386 -0.025815329 -0.09701378 -0.09465451 -0.10825409 -0.023291942 -0.021442764 0.12983723 -0.03679295 -0.005484868 -0.017025681 -0.033998 -0.11786821 0.038775846 0.10660825 0.13585298 -0.020553613 -0.12936667 -0.005935916 0.09668041 0.04622398 0.012739989 -0.012223072 0.1625421 0.09007111 -0.06399019 -0.0143451 -0.02841956 -0.19405949 -0.053799987 0.014796822 0.03914781 0.05507022 -0.04314122 -0.07221065 -0.12292599 0.048908833 -0.16991669 -0.034893334 0.17246853 0.13054247 -0.03155572 -0.0037204903 0.0033931755 0.20666045 0.0015822072 0.10631236 0.0010387537 0.07504312 0.037649877 0.061856512 0.0024113199 -0.09438077 0.031297114 -0.124875285 -0.1673811 0.11384084 -0.18719946 -0.14649537 -0.01843969 -0.15489812 -0.01923706 0.24311203 -0.2196105 -0.25011995 -0.09240147 0.15812193 0.22248134 0.1425394 0.047041085 0.073692665 -0.016022347 0.09354232 0.17247282 0.24924226 0.18664433 0.12983927 -0.08531343 0.040709227 -0.18209988 0.08017171 -0.16693535 -0.10450195 0.16505478 0.1369392 -0.2500005 0.18197693 0.028333738 -0.107365325 0.18705025 -0.10633211 -0.027358772 -0.065920144 -0.17580783 0.14619312 -0.03032815 -0.20349711 -0.13434021 0.028252026 -0.07818445 -0.15350944 0.18668891 0.065896764 -0.12269866 0.13107166 0.124351285 -0.19282533 0.13205849 -0.3403962 -0.12343121 0.14396799 0.11193587 0.24881785 -0.09691844 0.1581037 0.011288494 -0.13821566 -0.12410445
66 0.090936884 -0.04621991 0.116946116 -0.10359599 0.1766708 0.0011788332 0.084952466 0.069531195 0.030789236 -0.039385315 0.0974854 0.038953274 -0.12201819 0.04888136 0.06875718 0.021364585 0.04677822 0.051693782 0.020164967 -0.08415087 0.030343544 0.016674614 -0.122610316 0.06995676 -0.038430996 0.09096706 0.082481265 -0.020442722 -0.07951847 0.13333097 -0.0032973886 -0.040827245 -0.08680385 0.042041223 0.14922561 -0.13055675 -0.043844964 -0.008020134 -0.14858091 0.065066725 -0.07225586 -0.022797614 0.07793477 0.04199349 -0.036679864 -0.021176232 0.22616509 -0.10629036 0.13167503 0.14593653 0.040925093 0.13353835 -0.034154147 0.12549338 0.17724362 -0.03385769 0.13988546 0.04755093 -0.08671304 -0.06483326 -0.00796439 -0.030650452 0.06254322 0.028644705 -0.09403571 -0.16284178 0.10296591 -0.3016547 -0.017906094 0.001296409 -0.026144987 -0.15611562 0.23765644 -0.24373017 -0.2648095 -0.098532416 0.13516605 0.23433039 0.17312849 0.06330094 0.15820868 0.09796508 0.108170435 0.17198466 0.15546617 0.24688452 -0.10255902 -0.14636008 -0.017496439 -0.13840978 0.06746132 -0.100824855 -0.20143653 0.1928105 0.049807485 -0.22834994 0.15063982 0.0642607 -0.10152266 0.15872025 -0.15409331 0.05752078 -0.028303558 -0.19042616 0.16721249 -0.11926623 -0.08296562 -0.2633982 0.078520864 0.036290284 -0.1650325 0.20915766 0.09837382 -0.09922715 0.105695605 0.06901588 -0.24682349 0.15212943 -0.21385117 -0.15198226 0.1381635 0.111171104 0.20641316 -0.12169635 0.1556726 -0.103452876 -0.16465545 -0.14460155
