2405 64
1397 0.04648622 0.1103301 0.06109971 0.23471072 0.037232228 0.0770606 -0.13962336 -0.18217754 -0.18959016 0.16196604 -0.20443909 -0.09657438 0.029046657 -0.04829005 0.11813309 0.13076244 -0.08214056 -0.0339548 0.083560474 -0.037310097 -0.07825999 -0.16942753 -0.049822673 -0.19510889 0.029205244 0.12634529 -0.20264988 -0.18244174 0.11179314 -0.20462848 -0.03868952 -0.2480695 0.15528809 -0.053805158 -0.13648234 0.055499613 -0.22985488 -0.030636994 0.0042395843 -0.12903893 0.2233299 -0.19457968 0.22005698 0.1266499 -0.046129182 -0.16189988 0.13277103 0.14812097 0.15584385 -0.087127134 -0.015288113 0.040397566 0.12457584 -0.17251927 0.011897493 0.039387245 -0.19533534 0.09001977 0.13007386 0.15137142 -0.05520659 -0.07713878 -0.21620105 -0.15347604
1470 0.24554539 0.13484031 0.19274098 0.195835 0.010411492 -0.28693998 -0.101019934 -0.24016821 -0.25278875 0.18382744 -0.29605097 -0.24260263 -0.2544049 0.021264834 0.15822892 0.2178065 -0.044690408 -0.009013737 0.27938262 -0.37052628 -0.18208627 0.3769638 0.28433052 0.055749048 0.14336081 0.29742318 -0.115707695 -0.15776333 -0.24844535 -0.06266417 -0.13332705 -0.17494318 0.16197565 -0.29790232 -0.17814945 0.11914275 -0.21368909 -0.020181024 0.1142834 -0.12926778 0.13393864 -0.20914306 0.102985255 0.13930361 -0.21060835 -0.18244384 0.012486771 0.24401744 0.24754302 0.13113366 0.23258716 0.13743836 0.37737277 -0.23846155 0.04828382 0.18309249 -0.31224415 0.3269616 0.25128028 0.20436774 -0.18672836 -0.1634022 0.30464643 -0.17862391
362 -0.04979246 0.14359823 0.14870723 -0.011959971 0.16943407 -0.16074616 0.13162217 -0.15187779 0.0662105 0.20098193 -0.14016464 -0.19550368 -0.12719914 -0.23833732 0.22829627 0.087960035 -0.040664956 0.057317853 0.12462077 0.14758047 -0.16364494 -0.57648623 -0.052661065 -0.15195689 0.00074187433 0.20628527 -0.22751716 -0.21052532 -0.050371893 -0.22413968 -0.14274545 -0.26785854 -0.03934114 -0.18889464 -0.1651769 0.15600996 -0.19549541 -0.3038632 -0.12912402 -0.14822061 0.1692178 -0.16468406 0.47133833 0.2506093 -0.05344595 -0.20322987 -0.13775483 -0.052926704 0.20625773 0.11907631 0.048089013 0.055987522 -0.055781253 -0.15322478 0.11266022 0.021888955 -0.1833558 0.13673905 0.13390326 0.1492708 0.08329787 -0.27042082 -0.13741219 0.08262524
226 0.1681476 0.21841905 0.03951834 0.19070302 -0.04580239 0.22728148 -0.19946572 -0.08004752 -0.20181105 -0.06776243 -0.22964384 -0.07835043 0.00055060105 0.13022956 0.13685717 0.10273016 -0.119528964 -0.17794912 0.192884 -0.08947247 -0.09259747 -0.043565966 -0.100430615 -0.1806109 -0.045936882 0.110231034 -0.12323709 -0.13526282 0.0734602 -0.21067128 -0.045995817 -0.1488682 0.18236376 -0.10586587 -0.02831694 0.008232137 -0.22329344 0.027487494 0.1540554 -0.11463863 0.17754549 -0.20310982 0.1444812 0.06865824 0.085957155 -0.15074784 0.0985397 0.1333589 0.09597779 -0.07814836 -0.1768085 -0.039933138 0.20321067 -0.15576431 0.08298022 -0.16359858 -0.19104958 0.10240002 0.16477601 0.09294766 -0.12968732 -0.08949319 -0.21278374 -0.11922294
750 -0.049332637 0.08095455 -0.00022579044 0.23517025 0.114171766 -0.03383732 0.0017406896 -0.22304685 -0.21227027 0.22641557 -0.19528665 -0.04072924 0.0016401436 -0.14076728 0.15630466 0.1446453 -0.032930933 0.008453389 0.006970042 0.023628617 -0.19264784 -0.08525752 0.013783417 -0.06930939 0.12311819 0.13184701 -0.1956136 -0.15438415 0.13346866 -0.10292522 -0.107182615 -0.21721019 0.11916948 0.053472426 -0.12712038 -0.018856108 -0.18453585 -0.10808296 -0.08144237 -0.109097525 0.2248317 -0.13546488 0.18012734 -0.026833175 -0.18292244 -0.12827665 0.17163561 0.011405597 0.059263222 0.028361963 0.12889308 0.08870473 0.15718332 -0.10091306 -0.053360865 0.06964397 -0.19610262 0.038950782 0.16281702 0.24986641 -0.10973702 -0.0055274456 -0.14079487 -0.21246135
489 -0.0068855756 -0.010983023 0.22288208 0.29413632 0.093382575 -0.0756033 -0.2564445 -0.13454092 -0.25222796 0.2181567 -0.2580487 0.19083478 0.25457975 -0.16179977 -0.10827802 -0.040859252 0.08176995 -0.19434373 -0.07678038 0.07202861 -0.21489681 -0.17388143 0.035644487 -0.24179927 0.16525102 0.0015234604 -0.20045508 -0.18359646 0.122524664 -0.20614488 -0.13608174 -0.18588787 0.13459887 0.102548905 0.068040304 0.11319501 -0.18125422 -0.123446204 0.06877264 -0.0146561805 0.24925607 -0.12537323 0.17340852 0.13128248 -0.17417209 0.03364516 0.20120192 0.1688717 0.16863978 -0.015608798 0.14688371 0.20465147 0.260252 -0.13296376 -0.116825186 0.22580184 -0.075602934 -0.1373743 -0.11900198 0.24826725 -0.2315545 -0.015787955 -0.2116298 -0.14597994
1462 0.16582188 0.13054976 0.033337824 0.18400021 0.006770737 0.08391888 -0.16765289 -0.19330674 -0.07202546 0.07134384 -0.14390741 -0.12974997 -0.08913581 0.049185045 0.07973575 0.10364523 -0.12872761 -0.11140888 0.13284126 -0.13733287 0.06984412 -0.1205103 -0.15870208 -0.20192814 -0.053565018 0.10049495 -0.1850668 -0.06935722 0.0685258 -0.17987551 0.06806829 -0.23639295 0.1508172 -0.16950086 -0.19299255 0.01054834 -0.16897868 0.09595363 0.10882277 -0.14745432 0.16766407 -0.20407091 0.1849449 0.08536138 0.11007521 -0.17640723 0.090997025 0.1796022 0.14633763 -0.14123194 -0.16054453 -0.09523606 0.06498335 -0.21404608 0.06408656 -0.102894835 -0.15309095 0.1752868 0.043362096 0.008361406 0.03331213 -0.021821354 -0.13025807 -0.11499875
1713 -0.012646313 -0.060859412 -0.014191259 0.10508092 0.052552298 0.09858038 -0.12766403 -0.13256058 -0.19386491 -0.019682406 -0.18638551 0.17708386 0.10340555 -0.065007575 -0.043755922 0.08732051 0.037415396 -0.18370685 0.20345315 -0.15422755 -0.101331465 0.1286528 0.041536223 0.02465699 0.16454001 0.12728922 -0.18358546 0.06439769 0.10551211 -0.21649805 -0.056500603 -0.12337444 -0.17161517 -0.09043132 -0.045417096 -0.18998088 -0.05932095 -0.08575647 0.110148 0.041649792 0.13640466 -0.14565855 0.19605099 -0.03262435 -0.07578672 -0.15720202 0.22396883 0.024685618 -0.024500415 -0.15900305 -0.05068245 0.045047704 0.20187436 0.051050052 -0.11872993 0.0695207 -0.127301 0.06912955 0.14013661 0.07019993 -0.046595052 0.19314699 -0.189232 -0.23554581
393 -0.0366396 -0.09712915 0.033535134 0.22364584 0.27390575 0.14818835 -0.24139336 0.15388128 -0.074438445 -0.0414015 -0.26857272 0.12386159 0.24246885 -0.23793462 0.055139843 0.2289938 -0.18938561 -0.14813215 0.11999073 -0.16058055 0.008032249 -0.14263651 0.098925106 0.102376126 0.08716928 0.22719194 -0.13016011 0.14711665 0.23042256 -0.28461522 -0.24183355 -0.21241882 -0.0825277 -0.15438856 0.081512846 -0.1635773 -0.17642884 -0.031106653 0.17196506 -0.16163385 0.23823218 0.037988 0.20832852 0.19684221 0.11566724 -0.18717633 0.25651672 0.058580477 -0.043867037 -0.035685565 -0.12468009 0.07533093 0.19855934 0.16024505 -0.23361613 0.26496828 -0.2513846 0.07550777 0.15097104 0.16851813 0.10901635 0.044528343 -0.21476574 -0.3263273
445 -0.020048967 0.24172238 -0.16708787 0.21686655 0.12648 -0.1511974 -0.2002314 -0.20863761 -0.17897664 0.23233728 -0.27514082 0.18767525 0.20649083 -0.19367023 -0.07625133 0.16446275 0.09968788 -0.18556564 0.06966541 -0.06846265 -0.19133598 0.08075543 0.08577362 -0.0910132 0.14025505 0.1778052 -0.2274748 0.1411373 0.15350516 -0.22666417 -0.11015562 -0.21427777 -0.07142872 -0.09356954 -0.08223851 -0.13450041 -0.18878826 -0.074242964 -0.058440086 -0.0019970012 0.2936209 -0.2574753 0.20901382 0.05262742 -0.015339386 -0.21553522 0.24474467 -0.097508684 -0.15526961 -0.14269824 -0.22450966 0.024217462 0.1608035 -0.20785967 -0.19814916 0.042620298 -0.17683734 0.10021614 -0.027622955 0.18469225 -0.102887936 0.03012684 -0.10423107 -0.27575102
696 0.22007039 0.15562184 0.15284318 0.28639585 0.033203464 0.05558847 -0.28956422 -0.15978865 -0.05842237 0.15270174 -0.21317549 0.07652446 0.107045084 -0.07117298 -0.072290316 0.23625317 -0.13821658 -0.04908926 0.1779494 -0.15553468 -0.020070404 -0.14909168 -0.10814056 -0.17322339 -0.17582183 0.020865416 -0.20403385 0.08790191 -0.024447432 -0.2585359 -0.003522268 -0.21201928 -0.013513716 -0.1474204 -0.12501341 -0.025800537 -0.21168573 0.059538875 0.09892901 -0.18900782 0.21806294 -0.1952572 0.21838859 0.05341749 0.13384137 -0.21721922 0.19474578 0.07559806 0.13406734 0.0539192 -0.10420205 -0.029777983 0.08628396 -0.08163614 0.030388724 -0.06878832 -0.091650404 0.22681442 0.02842691 0.11670978 -0.0853448 0.05277019 -0.00756539 -0.23226361
1610 0.13469355 0.10226741 0.027725874 0.1714953 -0.04870949 0.14695631 -0.21034832 -0.14523007 -0.04308942 0.152895 -0.12559445 -0.02850577 0.012775179 -0.008924115 0.047701035 0.19044742 -0.09335692 0.009854558 0.14833999 -0.1972081 0.12164152 -0.15517928 -0.14095138 -0.12911952 -0.17436352 0.06128466 -0.1045072 -0.07995741 -0.031409014 -0.17318901 0.1554836 -0.18129024 0.06609032 -0.14399809 -0.153803 -0.061741583 -0.18590267 0.13523865 -0.0011712557 -0.13725786 0.16777866 -0.13059765 0.19071598 0.13858442 0.090083696 -0.19914916 0.15055005 0.11155996 0.14577863 0.01451138 -0.122481644 -0.18279658 0.06310649 -0.09190189 0.16872968 -0.11468068 -0.07584801 0.17226546 0.12222946 0.049348712 0.012778113 0.005070191 -0.088001765 -0.06533351
889 0.12887293 0.13017003 0.1668322 0.20245464 0.027433677 0.040762793 -0.22676507 -0.09804532 -0.09026533 0.046223138 -0.1212238 0.17063098 0.1663027 -0.18444647 -0.16060229 0.14926578 -0.12965488 -0.13269296 0.17128812 -0.18143892 0.107924335 -0.13191327 0.0037718914 -0.07976547 -0.14776874 -0.06621893 -0.13719463 0.13648216 0.087002896 -0.19851765 -0.01661485 -0.21575291 0.057241652 -0.16698922 0.0046322043 0.080077514 -0.19739242 0.12627278 0.1530197 -0.13154751 0.068537556 -0.16898616 0.07023823 0.0014282528 0.096947476 -0.18616818 0.17241445 0.06720971 0.09052195 0.14176528 -0.0011331703 0.018702883 -0.1008167 -0.005255573 -0.036795616 0.02630753 0.077431016 0.18890725 0.08574722 0.12294793 -0.06751531 -0.027304104 0.118550204 -0.18323356
1615 0.15525293 0.17023997 0.027987603 0.11789611 0.0064135618 -0.02501307 -0.14021458 -0.22028065 0.06075332 0.15753837 -0.18094406 0.054658707 0.20836376 0.02865518 -0.15559275 0.214983 0.06778459 -0.037023433 -0.038862634 0.02426664 -0.02391266 -0.08356385 -0.12869072 -0.19004114 -0.14772534 0.0711967 -0.21027936 0.12567553 -0.027656779 -0.23117752 -0.06954003 -0.23309161 -0.028301373 -0.13698614 -0.18323874 -0.16490257 -0.12403493 -0.054881744 0.06886579 -0.07941724 0.21803588 -0.04461247 0.20521845 -0.07931921 0.13147262 -0.23337936 0.22650571 -0.117352694 0.023492405 0.08287699 -0.09428877 0.12024561 -0.070399664 -0.1749804 -0.16436559 -0.013648849 -0.08332454 0.14194019 -0.12724464 0.15604165 -0.1826809 0.12112933 0.05807213 -0.2129002
708 0.208415 0.19716239 0.09997407 0.2336824 0.078100674 0.17838441 -0.142913 -0.08385909 0.020626534 0.097625345 -0.24829562 0.06265287 0.180874 -0.17521004 -0.05937136 0.2295632 -0.10275284 -0.061842863 0.19485006 -0.09009716 -0.152194 -0.19499268 -0.05546743 -0.18441516 0.10744761 0.20836323 -0.118720055 -0.103249125 0.0013421717 -0.19572093 -0.10473922 -0.22250988 0.060919866 0.12769133 -0.18717045 0.08497872 -0.26656908 0.05746374 0.039300524 0.12854289 0.2775969 -0.22502233 0.23033462 0.15003562 0.011906709 -0.17186671 0.1611803 0.06474694 0.019812431 -0.18239585 0.17274785 0.16894905 0.021469261 0.08085123 -0.16589622 0.1423727 -0.110130906 0.18382378 -0.045384593 0.21493545 -0.031172927 0.07584016 -0.15427767 -0.2385477
713 0.14594911 0.20402732 -0.06539092 0.096960194 0.18431129 -0.038700312 -0.22112666 -0.14374869 -0.07656182 0.21256582 -0.25245082 0.09749099 0.244303 -0.04965167 -0.057659574 0.21030724 0.07622649 0.06690844 0.17802918 -0.031501666 -0.07006722 -0.18613666 -0.01436658 -0.18452619 -0.16144373 0.1937312 -0.23130046 0.07605882 0.13747063 -0.15680128 0.08317172 -0.23831648 0.08149859 -0.078528084 -0.11710247 -0.140438 -0.23148113 0.07311481 0.033509035 0.052133057 0.17283694 -0.09639897 0.18817009 -0.013012796 0.17822145 -0.11804833 0.21966451 -0.0793887 0.057673648 0.02179306 -0.07823485 0.16507167 -0.020510364 0.12129235 -0.16597465 0.090874925 0.045515597 0.20511863 -0.073327094 0.23098718 -0.20574495 0.15606056 -0.06265631 -0.22672716
718 0.1287836 0.18854494 0.104597986 0.23256563 0.21779282 0.16710068 -0.17940758 -0.21868926 0.15534322 0.20954639 0.0072241626 -0.17146464 0.17967992 -0.16635348 -0.21232791 0.09517382 -0.2119678 -0.057742953 -0.15653478 -0.11504008 0.08111916 -0.24436148 -0.11318355 -0.20029859 -0.12962922 -0.31639642 -0.28271484 0.1062605 0.15766984 -0.21922751 0.06475528 -0.15548997 0.23807806 0.06022638 -0.17124474 -0.071510926 -0.22937281 0.19093326 -0.14987406 0.10522589 0.2025469 -0.28203148 0.17298885 0.19753003 0.16849776 -0.21612363 0.06327447 0.042301763 0.18824053 0.15794393 0.1085686 0.14949913 -0.10848757 0.09380027 -0.29230672 -0.08258984 0.058918502 0.16505645 -0.21158691 0.26680443 -0.11687714 0.13833569 0.12613046 -0.23858921
1630 0.1396386 0.23448555 0.5145467 0.24558103 -0.201071 0.043814436 -0.49378708 -0.2122728 0.015316666 0.21469271 -0.21944347 0.09003358 0.0878525 0.10710512 -0.16278547 0.18964273 0.13782245 -0.03120073 -0.0131960325 0.063732095 -0.10172163 -0.27026176 0.2932643 -0.09149207 -0.036716547 0.14688906 -0.11088084 0.14017804 -0.11281835 -0.14932463 -0.14366038 -0.22533147 -0.21440147 -0.16710876 -0.19335902 -0.23372723 -0.47858566 0.046708874 0.059024014 -0.03749055 0.17778489 0.11395018 0.22371742 -0.085309245 0.121814676 -0.15114118 0.09385051 -0.1210572 -0.16751479 0.111693956 0.077346735 0.072967075 -0.15990776 0.19641294 0.034079965 0.056809474 0.21995658 0.1438104 -0.0426029 0.1776757 -0.1298034 0.17056109 0.223498 -0.15809873
734 0.15535152 0.16031754 0.052063607 0.08540893 0.04115121 0.1582139 -0.20220348 -0.13978244 -0.14429314 0.11998536 -0.16520816 -0.121033326 0.14528394 -0.02550611 -0.07900902 0.10696052 -0.0074535077 -0.07762581 0.19165272 -0.18598427 -0.015605306 -0.19341868 -0.10159169 -0.21455416 -0.07269696 0.15714827 -0.20657246 0.036387593 0.1262116 -0.19386035 0.19599378 -0.2133239 0.17198138 -0.056048676 -0.14942789 -0.07092649 -0.20383932 0.0962327 0.027849365 0.08247302 0.23204875 -0.20333293 0.2269541 0.15733348 0.18598032 -0.1727447 0.10229938 0.09655304 0.087507494 0.038802665 -0.017153988 -0.050687503 0.10841092 0.06536035 -0.022999639 -0.056519296 -0.013242018 0.18752404 0.02137151 0.1281561 0.01118596 -0.023581361 -0.05504875 -0.21563867
776 0.23366827 0.18445916 0.13677087 0.14661264 0.053062983 0.1096226 -0.14595376 -0.1952584 0.00017899621 0.11220692 -0.21929853 -0.13405284 0.22273803 0.100826494 -0.11864102 0.12384183 0.043715224 -0.043985926 0.14982587 -0.11322289 -0.0750222 -0.10980782 -0.042436637 -0.21030192 -0.12748942 0.11480886 -0.1494661 0.1654589 0.22312091 -0.23674962 -0.08505979 -0.24836308 0.003987987 0.09745453 -0.1550496 -0.12117028 -0.17995577 0.096651115 -0.1090306 0.04578015 0.2634544 -0.06787543 0.27442986 0.0921454 0.10771439 -0.13148938 0.12905592 0.09485415 0.08839243 0.029544119 0.07407673 0.025190817 0.14639351 0.041178647 0.025769865 -0.02126917 -0.018076366 0.17122477 0.032476816 0.13305555 0.003474462 0.16393617 0.018963331 -0.2635985
814 0.16516343 0.22458646 0.06528817 0.16639444 -0.028629312 0.12422998 -0.28196883 -0.17094012 -0.07161199 0.19997227 -0.26446804 -0.061983902 0.122020565 0.027635632 -0.13273373 0.24089636 0.004646286 -0.10356437 0.120590895 -0.12984434 -0.00015328007 -0.12716976 -0.112772904 -0.2287059 -0.13116084 0.14108968 -0.10710081 0.063853815 0.16954118 -0.19260378 0.06725816 -0.25913802 0.11175494 0.018788481 -0.15176599 -0.10937146 -0.26071638 0.16632493 -0.057824302 0.021535417 0.0867469 -0.12265311 0.23455651 0.18083075 0.026479147 -0.19998723 0.1628494 0.064706765 0.02616823 0.039317183 0.10633908 0.06926808 -0.11237308 0.081849985 0.020799287 -0.050369572 0.040455114 0.16276935 0.096347615 0.1096232 0.061716147 0.058354527 0.057291474 -0.12757796
818 0.091680974 0.22681457 0.043034386 0.16596074 -0.08318451 0.09787358 -0.19207677 -0.13947463 -0.13747193 0.09565206 -0.13754283 -0.03930495 0.2493072 -0.16341521 -0.13549398 0.15847744 0.14206268 -0.012637303 0.22544941 -0.19730006 -0.010978843 -0.22766559 -0.05372801 -0.20379113 -0.0022245941 0.06479128 -0.22103308 0.1820558 0.14421259 -0.18953042 0.02038432 -0.22360598 0.09801964 -0.006646922 -0.09453246 0.084652096 -0.20927587 0.0832155 -0.095802434 -0.016421568 0.1542557 -0.20473145 0.19298886 0.16041712 0.10608564 -0.11933316 0.10117069 0.07008101 -0.0034956324 0.01816154 -0.015400646 0.11366512 0.0946611 0.05174245 -0.045661766 -0.05021845 0.022783358 0.23281123 0.11050358 0.16397984 -0.061715994 0.08167816 0.08072408 -0.24797754
1401 0.12969193 -0.019224886 -0.39842513 0.23167665 0.12635477 0.11877309 -0.23892803 -0.19928765 -0.18152194 -0.22046682 -0.1094139 -0.07574527 0.009284177 0.16877691 0.1643826 -0.11077139 -0.19566497 -0.00881189 0.05771715 -0.07894736 0.0076777427 0.22303195 -0.1367774 -0.14991327 -0.27969444 -0.086887166 -0.014959132 -0.08450281 0.17298685 -0.26018342 -0.17865857 -0.054060664 0.22162552 -0.2037985 -0.15672943 -0.09520347 -0.13122427 0.2890529 0.101968415 -0.16914308 0.20775881 -0.22476754 0.18576638 0.16580054 0.11539045 -0.09566909 0.26163003 0.21597585 0.011999355 -0.013609972 -0.16886042 -0.18377557 0.21086329 -0.18328698 -0.021146664 -0.13576035 -0.27031577 -0.06373206 0.058110353 -0.19413371 -0.1090858 -0.18939039 -0.13304292 -0.18562144
220 0.106334254 -0.085820034 0.18712702 0.17654692 0.038135335 0.23197447 -0.0055612 -0.07972959 -0.017865693 -0.16943812 -0.22987008 -0.1257644 0.016666986 0.24791795 -0.04500532 0.1956828 -0.06802208 -0.20009975 0.23947428 -0.18876986 -0.117456675 -0.24527468 -0.061412964 -0.24853843 -0.296138 -0.06374223 -0.16895622 -0.14499713 -0.23186108 -0.24088313 -0.11505453 -0.10499372 0.15663767 -0.07258073 -0.12946458 0.16188987 -0.26506725 0.4677793 0.11909885 0.004984076 0.25357944 -0.11243628 0.18918553 0.25619745 0.28485346 -0.20944554 0.19530343 0.164138 -0.011398222 0.13312373 -0.20290986 0.15450877 0.040001094 -0.13777164 -0.41527998 0.16305466 -0.24032205 0.13477065 0.05949602 0.2006186 -0.053772256 -0.19894701 -0.19548365 -0.27426872
1412 0.18881823 0.107462995 0.0048299 0.239151 -0.0052811606 0.1945614 -0.2427395 -0.08165373 -0.10655313 0.023438936 -0.19454804 -0.17131327 0.024951322 -0.08484105 0.09452354 0.23210843 -0.14353304 -0.0073757535 0.13021725 -0.26917163 0.054609653 -0.06506869 -0.15186748 -0.26127586 -0.14689489 -0.10252054 -0.22235215 -0.06988393 0.10807763 -0.26869035 -0.029847989 -0.037511095 0.00082601066 -0.19728163 -0.08479372 -0.09049301 -0.1748602 -0.07988204 0.21164061 -0.22642156 0.24052064 -0.171381 0.16725825 0.2212853 0.049794935 -0.19626887 0.1285812 0.064508185 0.09597394 -0.08700753 -0.0812566 0.038202275 0.2041641 -0.13922799 0.18734927 0.10363157 -0.2168584 0.07536996 0.12901585 -0.033172853 0.05098162 -0.09698865 -0.22834742 -0.0724553
1413 0.19417164 -0.11087739 -0.05404836 0.2797451 0.011273841 0.16242526 -0.14677729 -0.113672234 -0.10079108 -0.09586663 -0.115545794 -0.19816522 -0.042440776 0.07354786 0.19075224 0.010224851 -0.24036555 -0.1314498 0.118864745 -0.23074302 -0.10032687 0.03207539 -0.0782602 -0.19021998 0.017101305 -0.0886556 -0.14166048 0.013021391 -0.0179181 -0.08083812 0.10018125 -0.057024386 0.1934123 -0.21797965 -0.0712361 0.14761692 -0.18453512 -0.16553892 0.07150656 -0.20928207 0.21845101 -0.21120174 0.22851549 0.06730108 0.07932025 -0.22629943 0.04278255 0.15735236 0.033171445 0.08592644 -0.16753802 -0.07890721 0.1353491 -0.17176531 -0.12187394 -0.16590725 -0.20305452 0.30553064 0.11447184 0.043752745 -0.030089997 -0.1610907 -0.19093831 -0.21084566
228 0.16227248 -0.026458483 0.07256477 0.25941554 0.042464714 0.08981781 -0.17069535 -0.1712506 -0.12517981 -0.01261004 -0.1670474 -0.015706202 -0.09766542 0.20537962 -0.015686544 -0.0027106379 -0.095228 -0.13327369 0.18636698 -0.22272299 0.002431939 -0.15916406 -0.11549704 -0.19991674 0.0071969368 -0.020415084 -0.15185863 -0.033415582 0.10026422 -0.08045709 0.024074513 -0.13117321 0.193451 -0.17578357 -0.049177065 -0.10421277 -0.06656204 0.014956796 0.054378808 -0.14069875 0.23238459 -0.20142922 0.15446152 0.17134625 0.12548324 -0.084950045 0.14822339 0.20953831 0.0052876365 -0.16820443 -0.18243408 -0.132224 0.21878777 -0.20735367 0.059944775 -0.035343416 -0.16439669 0.13730724 0.25273207 0.03497597 -0.11798339 -0.1265632 -0.25913617 -0.14170426
233 0.0941899 -0.0027306979 -0.019441476 0.16477305 0.10417227 0.13609965 -0.19178818 -0.1487537 -0.07272582 -0.11292707 -0.2376531 -0.08111751 0.0070906263 0.09216633 0.14784409 -0.027502993 -0.1558428 -0.12681095 0.19193006 -0.18862747 -0.0063149096 -0.16014281 -0.11990793 -0.19213612 -0.091135085 0.14400545 -0.15105689 -0.122408465 0.0134167075 -0.115574114 -0.0028072805 -0.15042363 0.1533481 -0.101639025 -0.16430663 -0.08779935 -0.13749689 -0.04234725 0.15942925 -0.115370974 0.15496619 -0.20214947 0.18414468 0.1607031 0.14830972 -0.15412539 0.17417373 0.093719825 -0.037521016 0.08281966 -0.14860709 -0.014857675 0.16779275 -0.15047757 0.032678712 -0.14188886 -0.19169466 0.12150193 0.1249674 0.04292738 -0.089222126 -0.11998401 -0.1315369 -0.14634335
235 0.15973592 0.047640424 0.046939638 0.17195743 0.18120217 0.12862092 -0.18614054 -0.1329854 -0.16077088 0.12097287 -0.16600214 -0.106727734 0.07982161 0.17795661 0.012892826 0.0025208015 -0.1521129 -0.17174467 0.2153674 -0.11334455 -0.12591344 -0.099602304 -0.011956409 -0.1807873 -0.12102015 0.052404102 -0.16423896 0.06774663 0.11986772 -0.22614327 0.21598063 -0.17838776 0.19000772 -0.22128864 -0.04373067 -0.14669666 -0.09285545 -0.03727817 0.21297745 -0.13303265 0.2510747 -0.19437057 0.13108547 0.18511194 0.11532569 -0.09693759 0.19407873 0.1850145 0.025025016 0.078345686 -0.1879493 -0.14461192 0.16827258 -0.13345832 0.025589533 -1.5457605e-05 -0.17858425 0.13280731 0.12245405 0.03543698 -0.07353633 -0.09667641 -0.089581035 -0.1985601
1450 0.087014824 0.02178407 0.07826567 0.15913087 0.012640906 0.1541979 -0.20672455 -0.092042565 -0.11817064 -0.10904467 -0.19508354 -0.05163889 0.0042481334 0.15263341 0.11626716 -0.06256133 -0.12973006 -0.176192 0.18755144 -0.1520258 -0.028815217 -0.095030375 -0.081002414 -0.17541926 -0.029659523 -0.024035025 -0.14717878 -0.10721445 0.072948486 -0.20525867 -0.036609437 -0.060816374 0.14964236 -0.20518073 -0.116817266 -0.08516779 -0.20716017 0.06442505 0.13994855 -0.16507624 0.21557917 -0.19646744 0.16144021 0.08658284 0.17417437 -0.14099322 0.14734277 0.06928612 0.053380337 0.029225659 -0.16189215 -0.11609503 0.109400354 -0.100363225 0.07342504 -0.054478206 -0.19342752 0.19324285 0.12898593 0.07067676 0.05455687 -0.114493236 -0.21616308 -0.14687876
236 0.07619433 -0.009258301 0.06445506 0.23465845 0.016040416 0.177152 -0.22843096 -0.19756897 -0.21632199 0.03311229 -0.1559113 -0.09469398 -0.0034281116 0.033183616 0.16640615 -0.09255016 -0.06947073 -0.14107929 0.15100342 -0.1746032 -0.02279615 -0.17023611 -0.10966411 -0.13797839 -0.083947696 0.1349007 -0.11061483 -0.09887231 0.08927156 -0.19028309 -0.08210972 -0.16017374 0.20129456 -0.12607557 -0.16879623 0.110364445 -0.09372799 -0.05012243 0.105373204 -0.09174194 0.18906365 -0.23463792 0.11931949 0.20158246 0.0021853163 -0.1088901 0.13420881 0.18242271 -0.0697584 0.041415505 -0.15643372 -0.058302898 0.22343607 -0.09992396 -0.06490352 -0.07879693 -0.14506187 0.09693317 0.128219 0.059908178 -0.09391989 -0.197637 -0.11552941 -0.21308534
1455 0.17787823 -0.18661104 0.35252813 -0.226343 0.08489827 0.18434459 -0.10866974 -0.19029994 -0.19842236 -0.22183411 -0.1818807 -0.06837636 -0.106519274 0.1554233 0.08949482 -0.20861234 -0.14069961 -0.016887654 0.057447072 -0.26384416 -0.20400845 0.23965938 -0.18680687 -0.18949854 -0.078794904 -0.20277773 0.0034569746 -0.21232297 0.2566021 -0.27842912 -0.0751783 0.14640945 0.17609376 -0.2588924 0.25474533 0.20804301 -0.26926726 -0.08373934 0.23255616 -0.1208411 0.18903351 -0.25685084 0.25199035 0.19938521 0.2336684 -0.024281418 0.26541686 0.16630542 -0.23079845 0.09239968 -6.947579e-06 -0.24670903 0.0041644033 -0.181989 -0.053665332 0.28174025 -0.2231881 0.07486983 0.16173014 0.23092031 -0.04903356 -0.19595312 -0.24723618 -0.1488368
1465 0.124138206 0.01753836 -0.014334319 0.13980699 -0.018769357 0.16516298 -0.24077809 -0.12052223 -0.034661878 -0.061850153 -0.20109005 -0.08575763 0.045881078 0.069926724 0.14977302 0.10183603 -0.13697541 -0.21797897 0.14312258 -0.15815476 0.11510551 -0.118430816 -0.06417513 -0.14328502 -0.13265991 0.1247627 -0.16045292 0.035032872 0.16493872 -0.16630791 0.091944605 -0.17743501 0.1356021 -0.13446216 -0.11217107 -0.11898522 -0.13370715 0.048782833 0.117296785 -0.111258894 0.1744154 -0.22566715 0.0908814 0.11401102 0.19716628 -0.20898134 0.14516586 0.08126411 0.09737107 -0.036050044 -0.13371488 -0.10418946 0.11731115 -0.110518545 0.18936704 -0.13612366 -0.18415014 0.08941657 0.05981672 -0.09605195 0.05287113 -0.14960635 -0.20740055 -0.2024692
1466 0.1008795 0.0779602 0.040513836 0.21877475 0.021476856 0.1190493 -0.22859311 -0.0597395 -0.09956813 -0.0010033615 -0.19764109 -0.06829776 -0.06616051 0.061107934 0.12014269 0.18654735 -0.19120517 -0.16884764 0.101998635 -0.14740211 0.05663295 -0.013548482 -0.060361777 -0.12318781 0.0098108305 -0.0007084096 -0.21763341 -0.09857974 0.08889936 -0.19111305 0.11537335 -0.105429165 0.1524197 -0.08638743 -0.1314626 -0.054289125 -0.16042261 0.06908942 0.055757385 -0.17805715 0.16382653 -0.10464646 0.16285318 0.1608293 0.10012741 -0.10100395 0.26339665 0.17432517 0.17966111 -0.085769616 -0.14415842 -0.07575292 0.22231025 -0.1611847 0.1010042 -0.2046138 -0.12698938 0.1870239 0.18213186 -0.0028477882 0.07498885 -0.13997836 -0.16082424 -0.23110671
1468 0.025213975 0.02280095 0.049208824 0.20127709 0.03916754 0.14526764 -0.19691645 -0.16981237 -0.16263317 -0.15243553 -0.26466832 -0.14616449 -0.061113123 0.077356696 0.1462473 0.018598506 -0.18703301 -0.13328177 0.12878552 -0.09735034 -0.04152372 -0.23869975 -0.13261332 -0.21557526 -0.079616725 0.032739777 -0.23925325 -0.095569804 0.07080143 -0.25661537 -0.015035834 -0.14366966 0.081386216 -0.095945776 -0.13913034 -0.02812866 -0.1073873 -0.017893847 0.031583328 -0.16093618 0.22968432 -0.08483894 0.14972484 0.09705813 0.22121842 -0.22011788 0.08808457 0.08705318 0.033904668 -0.025168054 -0.17817754 -0.15195991 0.16123563 -0.12664595 0.0901496 -0.07112701 -0.15178837 0.19282134 0.09214348 -0.13225006 -0.070288144 -0.079705246 -0.02738733 -0.22954491
243 0.1245031 -0.008037228 0.056921538 0.16142364 0.084875144 0.16149586 -0.15736835 -0.12993903 -0.12667237 -0.10045375 -0.19679257 -0.11014252 -0.08859303 0.151124 0.04210382 -0.09116676 -0.14771236 -0.11358918 0.1875166 -0.14753442 -0.11509031 -0.03726876 -0.13638051 -0.13406473 -0.10087926 0.076453276 -0.13580538 -0.114635065 0.1186405 -0.13798042 -0.06782406 -0.11302693 0.12748016 -0.14060971 -0.12813479 0.02535637 -0.13382289 -0.06949061 0.14574777 -0.17799543 0.1947497 -0.1666744 0.1393444 0.12262578 0.16569026 -0.1298232 0.14278819 0.13616517 -0.10965749 0.10509195 -0.13610715 -0.123534955 0.18738787 -0.18398258 -0.02331575 -0.11054817 -0.15334298 0.06310972 0.16334848 0.14090292 -0.11260945 -0.10797751 -0.13709868 -0.15667872
245 0.10712316 -0.0386737 0.026081903 0.1542257 0.09676022 0.2165344 -0.16197564 -0.1993383 -0.07271305 -0.038981155 -0.14881837 -0.16000001 -0.004943169 0.059022635 0.005789778 0.032496624 -0.1464239 -0.19117256 0.22775951 -0.1551817 0.031926837 -0.15171222 -0.024949687 -0.18670036 -0.06871185 0.049951643 -0.118752666 -0.0882026 0.1869013 -0.21017429 -0.085588016 -0.09438717 0.14457722 -0.11212117 -0.10354616 0.06419171 -0.11987514 0.0031879735 0.12802407 -0.16423365 0.17491408 -0.20622203 0.20816386 0.059862588 0.19657645 -0.15733474 0.20059462 0.149762 -0.0037533378 0.07881783 -0.07040708 -0.08207748 0.20459785 -0.17526199 0.12175202 -0.14795053 -0.2144454 0.12782681 0.15107019 -0.0017561802 -0.038562328 -0.016684806 -0.18935911 -0.11740697
1535 -0.24871927 0.28091776 -0.06497285 0.38348308 -0.00944482 -0.15171626 -0.25699392 -0.34659454 0.33219287 0.32617044 -0.35000423 0.3218207 0.21410228 0.06033459 0.3061291 0.37600592 -0.034703188 0.02045419 0.2955117 -0.27194244 -0.10524098 -0.37445793 0.07775976 0.22961706 -0.3991461 0.07000154 -0.158238 0.058412295 -0.25625387 -0.0074003176 -0.026289325 -0.2475271 -0.20286222 0.30252272 -0.27344647 -0.13376902 -0.37822983 0.2300489 -0.23494902 0.18758851 0.1365212 -0.29504362 -0.27300125 -0.27182457 -0.01919328 -0.36800382 -0.16977255 -0.20449767 -0.15137829 0.32960287 0.12596877 -0.018093638 -0.057481688 -0.10905553 -0.18742017 -0.2298736 -0.28552744 0.3265371 -0.15873663 0.34304398 0.0098510925 0.15580685 0.1433684 -0.33989856
780 -0.14161809 -0.047139082 0.0103208 0.03266831 -0.1244173 -0.1046979 -0.0465172 -0.14992957 0.075778686 -0.04777466 0.017040806 -0.08018719 -0.050750125 0.1827236 0.17011985 0.13272569 0.14999203 -0.13534524 0.09846121 -0.13831832 -0.16399541 -0.10739668 0.13743718 0.188227 -0.16805352 -0.12358056 0.18894711 -0.08659792 -0.13052171 -0.06302579 0.06048694 0.17031494 -0.105227396 0.18677503 0.07308978 -0.16430593 -0.15288967 0.1544796 -0.117963366 -0.042956468 -0.15965684 0.06203045 -0.16745585 -0.16174476 0.18966042 -0.14702475 -0.12076984 -0.11068412 0.07660402 0.09341559 0.12674195 -0.15863264 -0.122379795 0.016757078 -0.18012387 -0.10292849 -0.0055492157 0.11182897 -0.15089034 0.110876724 0.0489618 0.03198419 0.14809915 -0.17012379
1550 -0.16078556 0.14941902 -0.1679275 0.16303991 0.10396057 -0.19676869 -0.094252735 -0.20254475 -0.20542227 0.15386446 -0.17220098 0.08503454 0.09937343 -0.14968614 0.107803345 0.16416593 0.14137416 -0.11298182 0.14910762 -0.1027618 -0.18014616 0.23394363 0.084974386 0.1510235 0.22794192 0.21002193 -0.10440291 0.12364245 0.13632362 -0.16573174 -0.12975572 -0.079930946 -0.11426292 0.15414119 0.045809753 -0.18282138 -0.17140865 0.029903898 -0.037045546 0.15636149 -0.18073586 -0.05617358 0.24903622 -0.11520159 0.18371537 -0.14895163 -0.0127265025 -0.19018456 -0.16570048 0.102688 0.012089224 0.06214768 0.10631284 -0.14051957 -0.1767452 0.0053670956 -0.13494581 0.10331255 -0.17705142 0.18408072 0.15879549 -0.064022966 0.08616509 -0.18636912
2273 0.21786755 0.2119108 -0.11365724 0.022178471 -0.08293083 -0.23552936 0.23459713 -0.34205025 -0.39093536 0.3926537 -0.31240928 -0.33582047 -0.18032494 0.29480174 0.3630872 -0.20229177 0.28243643 0.2707972 0.31474832 0.011420684 -0.3380353 0.094734654 0.28726357 0.17963406 -0.051415145 0.10104884 0.19525807 0.16124633 0.3330303 0.21997687 -0.058705144 0.013070197 -0.2308709 0.4417606 -0.33962503 -0.22773963 0.08114052 -0.043458723 -0.19338387 -0.034364898 0.34231582 0.0820086 0.17527369 -0.29041505 -0.20007642 0.102097176 0.3150223 0.32242268 -0.0080127865 0.3324034 0.2651683 -0.19824733 0.42764038 -0.29996875 -0.2072399 -0.19192165 -0.23871799 0.41427925 0.32378915 0.3425099 -0.29279983 -0.21432897 0.049421992 -0.3615674
1616 0.20022215 0.1609476 -0.14684078 -0.061825223 -0.053247042 -0.07633137 -0.15420619 -0.15656021 0.08812775 0.19168194 -0.12246109 0.04547136 0.12705983 -0.031024346 -0.14221795 0.2469797 0.10609807 0.19343905 -0.02879876 0.10734909 -0.24663611 0.019230993 -0.083025835 -0.13710795 -0.15471695 0.11639768 -0.14945315 0.11315097 -0.035243306 -0.1677945 0.014588427 -0.21271895 -0.024962457 -0.12879694 -0.17720151 -0.19748758 -0.1549175 -0.11406387 0.07797957 0.13309012 0.1862593 0.14559072 0.16606922 -0.12340651 0.14997277 -0.17183281 0.15955397 -0.14921565 -0.08106952 0.1023578 -0.15176994 0.18077752 -0.11188218 0.045258835 -0.12137151 0.09162036 0.11973681 0.14490068 -0.18896386 0.17554627 -0.21401091 0.17673908 0.16001663 -0.11618156
2158 0.17042853 0.19406042 -0.1034249 0.20477617 -0.06896437 -0.093127355 -0.09291212 -0.18593368 0.06374433 0.1898792 -0.21964696 0.14478554 0.15948309 0.06759137 -0.08392885 0.17303024 0.13913961 0.09602677 -0.025944555 0.06459507 -0.02338707 -0.19052131 -0.11424949 -0.1289499 -0.15080252 0.16291699 -0.12562957 0.11084659 -0.07916722 -0.19794656 0.037817955 -0.22249186 0.00042147288 -0.19113041 -0.048310038 -0.075540096 -0.18576142 0.01679838 0.088686414 0.0011736476 0.14087595 0.10122427 0.15069571 -0.10755551 0.13032666 -0.10724779 0.18822269 -0.14007412 0.021821532 0.07209524 0.012093609 0.15017298 -0.064026736 -0.06346529 -0.12156827 -0.041402694 0.07453706 0.18155776 -0.18396595 0.20468248 -0.118563436 0.11539254 0.096538685 -0.17451255
1624 0.1730597 0.06093392 -0.21935512 0.061540503 0.21877323 -0.22611742 0.12649961 -0.2556951 0.1614709 0.07058053 -0.1534875 0.25526705 0.22886544 -0.0139152985 -0.23955154 0.015632035 0.117631935 -0.09350399 -0.18262005 0.110239655 0.07282797 -0.39854446 0.3239081 0.043857433 -0.17413005 0.29284057 -0.07420347 0.30533627 0.120272815 -0.27099442 -0.15810996 -0.16868056 -0.22990331 -0.25835058 -0.2349524 -0.22482161 0.11079819 0.011147804 0.23671399 0.16193885 0.26726487 0.093712814 0.2079584 0.011288842 0.038182728 -0.11872983 0.2648773 -0.21094221 -0.22618587 -0.0065000122 -0.1294674 0.039440233 0.029694224 0.08270812 -0.15353315 0.063474715 0.06728909 0.25905305 -0.18267822 0.11308997 -0.16692138 0.23304485 0.10998529 -0.32035157
2165 0.1626567 0.1329045 -0.087752275 0.279677 -0.09360191 -0.014626688 -0.20035993 -0.17199871 -0.07307681 0.22600488 -0.2629053 0.08785062 0.12135916 0.048879903 -0.046169855 0.2363236 0.05815212 0.12369793 0.017239965 0.033321753 -0.046797935 -0.20357268 -0.047365602 -0.053275675 -0.12838808 0.024285447 -0.18883477 0.06725063 -0.09796206 -0.2506307 -0.05947875 -0.27460328 -0.007865921 -0.19498894 -0.043228235 -0.037374966 -0.21738942 -0.014672688 0.11580732 -0.1434459 0.14974356 -0.011810521 0.118684866 -0.10308453 0.0008116132 -0.2094395 0.22006685 0.0046184286 0.06641646 0.10942146 0.082906716 0.10779974 -0.044163942 -0.15569834 -0.108609006 -0.04910805 -0.105029434 0.105161965 -0.037756044 0.18413267 -0.13796912 0.010624349 0.08088358 -0.17302172
2167 0.18926027 0.1514961 0.0064077238 0.21138203 -0.09102606 -0.015873386 -0.19954963 -0.18448706 0.065615825 0.18949685 -0.1889023 0.1271648 0.10652645 0.027180715 -0.09180293 0.18289426 0.028163321 0.0971774 -0.015681373 -0.0019112614 0.046079583 -0.17625956 -0.11948848 -0.13378704 -0.1915297 0.10047563 -0.1558246 0.15423295 -0.09852049 -0.1942464 0.029967852 -0.19995512 -0.05346306 -0.17839643 -0.104862176 -0.046650317 -0.16644286 0.021634685 0.11174865 -0.16023996 0.14603943 -0.022455513 0.12936987 -0.110277645 0.13916022 -0.16987541 0.15235911 -0.056712653 0.089869164 0.15308295 -0.048029594 0.06811155 -0.08024154 -0.11191321 -0.047809195 -0.119115196 0.016203795 0.19502392 -0.11152818 0.14532077 -0.12831853 0.068617314 0.117344014 -0.19313844
1631 0.18860751 0.19130947 -0.22823441 0.03154912 -0.16154502 -0.10497036 -0.4702473 -0.19427979 -0.044293128 0.17031266 -0.049456142 0.19522214 0.20835948 -0.26571152 -0.13179222 0.1851304 0.16243944 -0.023102034 -0.0003719464 0.06642675 0.2962716 -0.17723864 -0.35638267 -0.19735308 -0.2000286 0.0041209604 -0.22463998 0.114069074 -0.03017815 -0.18403497 -0.13634923 -0.2559441 -0.12877704 -0.20753045 -0.06337026 -0.10370577 0.0403559 0.20301563 0.19775575 -0.014497698 -0.09400951 -0.015576576 0.049274243 -0.050719496 0.1429992 -0.20329617 0.222473 -0.21298131 -0.13555507 0.22190054 -0.018568337 0.14234644 -0.24670629 0.20798977 -0.1420454 0.088824116 0.09857465 0.21428128 -0.1182037 0.106445774 -0.21080266 0.07903385 0.19231571 -0.1525923
1640 0.15008798 0.17622334 0.08013692 -0.026241932 0.010672163 -0.2100837 -0.014117861 -0.07190238 -0.017731914 0.11220953 -0.3042139 0.17359151 0.2770671 0.17854278 -0.053597234 0.01349705 0.19009237 0.0685143 -0.19566448 -0.12397435 -0.40161473 -0.12975205 -0.046603195 -0.2697406 -0.18853307 -0.06050384 -0.2870063 0.23430064 -0.29419675 -0.25901818 0.10534056 0.0022756853 0.23365021 -0.2427233 0.0065778387 -0.098390274 -0.10575514 0.510678 0.15441424 -0.18292443 0.054028224 0.017736804 0.1928712 -0.06946146 0.10395473 -0.22126433 0.25662586 -0.016656114 -0.24738492 0.15304121 -0.2665103 0.23760453 -0.1271653 0.088172816 -0.17425093 0.09903712 -0.090861306 0.15649708 -0.20618698 0.15233898 -0.08319237 0.24327303 0.21691021 -0.2570056
1659 0.2232893 0.1385122 0.26573315 0.014611572 0.3672822 -0.107581824 -0.28468996 -0.19225834 0.110363215 0.19609453 -0.18339635 0.10538333 0.26805168 -0.08249278 -0.21041544 0.12052192 0.1031462 0.15166023 0.03305638 0.23265065 0.1346967 0.2413619 0.059525445 -0.111697115 -0.101584725 0.1427664 -0.2114465 0.04867677 -0.2047339 -0.13607822 -0.23897809 -0.16153507 0.32803136 -0.20574574 -0.17203754 -0.17673355 0.06311631 0.10057395 0.11051948 0.14375113 0.15029074 0.094809964 0.19701043 -0.1913229 0.18972774 -0.19243947 0.17375417 -0.18865429 0.044742472 0.052359335 -0.0471642 0.14078724 -0.15185861 -0.022248782 -0.20143601 0.17896533 0.14971359 0.13841991 -0.117901646 -0.016266836 -0.2085553 0.21150571 0.014885257 -0.2281887
1662 0.06238109 0.17432114 0.17923571 -0.069034755 0.06742571 -0.13511798 0.13244301 -0.17630224 -0.08471077 0.24304032 -0.0011803063 0.010989786 0.28679508 -0.20379521 -0.0884692 0.23290153 0.1244812 -0.20191623 0.09127739 0.20931898 -0.33270207 -0.15853293 -0.28083587 -0.2785598 0.19809404 0.1702821 -0.2508791 0.093386956 0.07847534 -0.22272576 -0.22524506 -0.24490963 -0.18590973 -0.13935739 -0.14483203 -0.10695866 -0.10994948 0.110730655 0.043830432 0.05511893 0.15744472 -0.0036439428 0.20688668 -0.22319421 0.18727691 -0.2211262 0.27228203 -0.20178224 -0.065764934 -0.064647414 -0.034918267 0.22654922 -0.099381365 0.026679842 -0.15201998 0.2699747 0.12864271 0.14257064 -0.014395343 0.05146817 -0.11921799 0.20200463 0.11512193 -0.17509295
2280 0.16040078 0.13868937 -0.161304 0.052589003 -0.14417587 -0.17675395 -0.068241894 -0.22002019 0.10475774 0.15232144 -0.14246802 0.1020234 0.15242672 0.09885461 -0.2571783 0.16335942 0.1550671 0.12631834 -0.1372705 0.17559092 0.09738187 -0.17712498 -0.042849977 -0.0768878 -0.20115787 0.14679341 -0.25768507 0.17982712 -0.05371437 -0.23763269 -0.08368519 -0.20017405 -0.14217399 -0.13581601 -0.15827724 -0.09175732 -0.081178315 -0.014841068 0.17626472 -0.17821522 -0.11466566 0.1171458 0.014998686 -0.16343248 0.09048646 -0.21282585 0.20540258 -0.1719211 0.15549815 0.23313148 0.122428186 0.10377572 -0.15216169 -0.20033911 -0.11631591 -0.10256354 -0.040362623 0.1916507 -0.100237206 0.124027446 -0.16418615 -0.11692918 0.16304186 -0.18810417
2307 0.124459796 0.18195933 -0.13573079 0.15504736 -0.13278796 0.19517401 -0.098484635 -0.16109772 0.1186893 0.21239093 -0.14986789 0.038845908 0.14060311 0.1579768 0.10485115 0.1907978 0.12511268 0.15189195 -0.1187009 0.13047162 0.1032693 -0.1622965 -0.18634333 -0.15164974 -0.20315929 0.09265724 -0.07273801 0.08416106 -0.12026466 -0.13913894 0.061544083 -0.20708874 -0.02156127 -0.18875134 -0.030246451 -0.08969644 -0.1669693 -0.20119554 0.06946157 -0.20791401 0.30972394 0.071776465 -0.006220775 -0.14856714 0.09467311 -0.14719029 0.19762842 -0.1362018 0.06338718 0.13209061 -0.029125266 0.15847825 -0.1630167 -0.23624353 -0.12352663 -0.17671071 -0.026541602 0.1245592 -0.16799892 0.19013007 -0.15646407 0.09843156 0.112329975 -0.14406922
16 0.027428187 0.20172186 0.17512606 0.19393805 0.25620404 0.17391938 -0.08883252 0.15912563 -0.123902105 0.15827899 -0.2580564 -0.12673816 0.25082222 -0.21266934 0.1439697 0.22641939 0.16063356 0.03294546 -0.10347208 0.05520542 -0.19003212 -0.28337795 0.19342 0.037376683 0.0013437786 0.14867681 0.18050523 0.0771501 0.19806126 0.24044989 -0.13034819 -0.27428564 0.0046567605 -0.07253411 0.27811182 0.26331937 -0.19364072 -0.20515719 0.19573939 -0.15335114 -0.19552314 -0.1642241 0.22874029 0.08437521 0.1323399 -0.14601868 0.25120607 0.10451477 -0.04467781 -0.084198706 -0.16997972 -0.083368145 0.18943623 0.37139997 -0.113824904 0.24652457 0.27984375 0.31001323 0.06728838 0.20973854 -0.23329 -0.09441211 -0.12154513 -0.27990738
11 -0.15627392 0.14022554 0.19207877 0.089926176 0.12527439 0.22488019 -0.40137854 -0.13567388 -0.04249485 0.13619734 -0.09811657 0.17114595 0.24323586 -0.20528369 0.14487994 0.19330826 -0.36081868 -0.029694378 -0.15785643 0.043215252 -0.14714344 -0.1949497 0.16746278 0.3260264 -0.12216496 0.03251553 0.18874145 0.14598985 -0.19656982 -0.15388246 -0.20532428 0.18938416 0.15721674 -0.041851986 0.16772094 0.21991643 -0.14376964 -0.17975521 0.049430754 -0.10327164 0.028564533 -0.138331 0.1623803 0.019442303 0.057475667 -0.0103377905 0.1531043 -0.15758725 -0.05529151 -0.47535813 -0.12368958 -0.14720082 0.102958545 -0.08426212 -0.14963847 0.12879519 0.108144574 0.13767317 0.13587587 0.107355185 -0.18009154 -0.10106099 -0.27600121 -0.0597888
48 0.120720334 0.15588117 0.06973706 0.10421887 0.24208319 -0.015541449 -0.090297185 -0.15711986 -0.14181852 0.18346535 -0.21142049 0.025981065 0.18180002 -0.16983353 -0.002185907 0.11780823 0.06995379 -0.005875869 0.08203859 0.15264763 -0.12228012 0.070351526 0.19464567 -0.11021938 -0.056548923 0.20782116 -0.05617853 0.053194735 0.0681004 -0.03762764 -0.06412854 -0.035306208 -0.16556013 -0.018827556 0.10376146 0.068568535 -0.06295665 -0.10526113 0.19423528 -0.2067039 0.048944853 -0.2213717 0.14537287 0.06878812 0.047963146 -0.035721496 0.20666051 -0.0007842418 0.00229651 -0.12130936 -0.16936894 -0.037942156 0.20196933 0.11359502 -0.082811005 0.19793476 -0.18958351 0.05439308 -0.037646312 0.17659879 -0.1783391 -0.062057544 -0.1423651 -0.219844
68 0.36317044 0.23624109 0.0796938 0.2762695 0.17835848 0.2410147 0.1535094 -0.2349367 -0.22502202 0.2154033 -0.15149066 -0.2777877 0.07043887 -0.16212939 0.12666859 0.27760237 0.04618035 0.05171331 -0.16020107 0.14317816 0.37570542 -0.27447432 0.18579677 -0.23249364 -0.16268829 0.22045958 0.12705797 0.15941145 0.04623539 -0.29499125 -0.21011432 0.23426744 -0.197474 0.112115905 0.20115414 0.16347913 -0.422823 0.18657531 0.22442953 -0.24173258 0.17546608 -0.27192494 0.2471166 -0.12895845 0.24561627 -0.20388332 0.2923248 -0.0394222 0.27411464 -0.36040395 -0.20943102 -0.13200176 0.27170834 -0.29284048 -0.10295597 0.19448678 -0.15961163 0.0846305 0.31937647 0.16864306 -0.029627472 -0.061940096 -0.13362701 0.010299389
67 0.1720019 0.2053901 -0.12775125 -0.04602465 0.19075912 -0.33630362 -0.08061787 -0.18415405 -0.069021255 0.17610854 -0.21041864 0.024937473 0.1864438 -0.13208133 -0.040404152 0.13774192 0.16757149 0.057232548 -0.048711706 0.16649726 0.045493454 0.07935805 0.21484399 0.08520894 0.047772955 0.17943676 0.085239045 0.11972867 0.11113117 0.045461297 -0.16516645 -0.12223704 -0.16730185 -0.15821292 0.15911503 0.16046499 -0.136715 -0.08930949 0.15488532 -0.160781 -0.045323826 -0.24066961 0.21509369 0.053323932 0.1381615 -0.17923109 0.1591615 -0.10203903 -0.09471035 -0.20353045 -0.20802005 0.32304013 0.14349975 0.008066435 -0.10634382 0.21117625 -0.18070833 0.10647188 -0.041410543 0.17617425 -0.05181862 -0.09494251 -0.4136347 -0.17850688
88 0.03701638 0.13310622 0.15863971 0.21624556 0.11084261 0.102285415 -0.098868 -0.045906726 -0.17957759 -0.027814854 -0.25715166 0.015390481 0.2046648 -0.12576361 0.016937885 0.099878974 0.10091136 -0.1899577 0.063921295 -0.2163059 -0.11262037 -0.1702365 0.18083537 -0.17784755 0.11469461 0.11856008 -0.07112744 0.15260395 0.016401716 -0.22297758 -0.14598046 -0.18248612 0.0718255 -0.074913554 0.14384945 0.097627826 0.040145144 -0.026345842 0.14175443 -0.14424506 0.14488897 -0.22511728 0.11852459 0.031752057 0.0991307 -0.23766184 0.24355812 0.18463719 0.1560701 0.011438906 -0.11839527 -0.06306963 0.19537817 -0.03512985 -0.02083831 0.17700808 -0.058414318 0.19235374 0.15498514 0.060061663 -0.19235143 0.059492573 0.012262785 -0.21675926
116 0.024698388 0.14313106 0.10499479 0.267081 0.2223199 0.061174504 -0.06856955 0.023139501 -0.17968623 0.19536778 -0.18108894 -0.08006989 0.2015828 -0.06270934 0.117803216 0.117700584 -0.0023001165 -0.008871019 0.14692861 -0.045403324 -0.21961358 -0.15642294 0.024832288 -0.14658669 -0.011333959 0.041084085 -0.072622426 0.17431588 0.047332287 -0.011252762 -0.05842062 0.06469153 0.029900966 0.036299996 0.13367133 0.20557903 -0.012209707 -0.02884231 0.11143256 -0.09120205 0.05848105 -0.20472716 0.18075854 0.017884804 0.09561047 -0.1177223 0.22949384 0.14757027 0.14145638 0.06617593 -0.16570996 0.010294267 0.2234385 -0.17489049 -0.14143625 0.15854831 -0.028556345 0.11447347 0.14629255 0.12672964 -0.22869487 0.08339885 -0.081841655 -0.22951852
119 0.27304935 0.26122233 0.2349658 0.22156885 0.36017573 -0.19783403 -0.19084637 -0.15146808 -0.21534638 0.016946813 -0.27208295 -0.19198062 0.2635984 -0.24930401 -0.26423612 0.253904 0.24544442 -0.3165492 0.08049582 -0.11747244 0.36539498 -0.0075308974 0.3149636 -0.25775468 -0.05749709 0.26525152 -0.3186302 0.20992021 -0.1256652 -0.21129885 0.32974225 -0.3110133 0.060351156 -0.22595368 0.3233956 0.2545463 -0.05608392 -0.024227927 -0.28096434 -0.11393629 0.30996722 -0.16374032 0.24408609 0.3688922 0.08121885 -0.10668575 0.30082598 -0.28876376 -0.21308132 0.23033457 -0.031899706 -0.42389378 0.0582821 0.2851821 0.30397522 0.16700839 0.012073577 0.26160723 -0.2876067 -0.28596255 -0.23157977 -0.3113866 0.15546079 -0.28945
493 -0.11784765 0.04609435 0.07418425 0.2871986 0.19849288 0.22389862 -0.24548706 0.09670384 -0.24315076 0.21755429 -0.1997467 0.11521822 0.257407 -0.25804663 0.128562 0.23975325 -0.07670769 -0.11423866 -0.07405226 -0.0638161 -0.093821205 -0.17521872 -0.0687182 -0.010886906 -0.032267094 0.04716537 -0.074726865 -0.10769844 0.028424079 -0.124038786 -0.18843907 0.014688266 0.115372516 -0.11005181 0.14669769 0.12639831 -0.12681921 -0.1251811 -0.13095917 -0.017367171 0.08385627 -0.12207757 0.16158547 0.14487976 -0.20785584 0.17437257 0.1857772 0.11353149 -0.038919434 -0.18032265 -0.033733744 0.06671536 0.25244302 0.07166346 -0.07283241 0.12713341 0.008940756 0.08578656 0.09601546 0.13293627 -0.12561066 -0.1618717 -0.10807713 -0.19581887
167 0.1275321 0.20280543 -0.08846065 0.087231606 0.22253478 0.046342704 0.05264428 -0.16032782 0.022195768 0.2047842 -0.21189922 -0.09810864 0.121671855 -0.22365758 0.1490952 0.117687196 0.1459885 0.08745993 -0.10243187 0.16440855 -0.19990756 0.3632609 0.186863 0.05564133 0.31392345 0.22010373 -0.04315385 0.123522796 0.13826488 -0.014130144 -0.037437864 -0.22600822 -0.18737641 0.12197039 0.14728415 0.13805102 -0.19881915 -0.1899006 0.13744895 -0.14143863 0.09343965 -0.16206203 0.11139416 -0.1742495 0.123173505 -0.19828811 0.21194777 -0.23401903 -0.102936186 -0.17155981 -0.22700438 -0.17170104 0.19170903 0.13638797 -0.1939085 0.2140124 -0.2296773 -0.15084136 0.09296156 0.15457833 -0.1754253 -0.1547233 0.11566788 -0.22267105
181 0.21998896 0.12010002 0.18602483 0.27013662 0.19839713 0.17132245 0.08539815 -0.27295682 -0.30129465 0.22918484 -0.24639946 -0.05833566 0.19789939 -0.020438338 0.13372709 -0.022532256 0.1253699 0.0043450133 -0.07510562 0.053354688 -0.14348745 -0.19744195 0.03538292 -0.18978292 0.046307795 0.056437828 -0.1857419 0.034062736 0.27186555 -0.26910502 0.024638252 -0.38076913 -0.06087416 0.02140268 0.10800787 0.054538965 -0.0124908 -0.21439816 0.253701 -0.29953006 -0.04216462 -0.20619728 0.13073328 -0.024662558 0.26422623 0.07745745 0.27233377 0.06686875 -0.18439901 0.35014352 -0.099632986 -0.27000317 0.18192597 -0.25915214 -0.028495807 0.22927164 -0.2570632 0.031826645 -0.30189916 0.12762307 -0.24279542 -0.3114789 0.049645174 -0.23761095
15 0.009700058 0.13214146 0.14643039 0.27897787 0.15307425 0.10399306 -0.047151946 -0.06516189 -0.15345995 0.22811459 -0.19074534 -0.008608869 0.16815172 -0.12421353 0.07129569 0.14417578 0.1642864 0.052677166 0.057924874 0.18609564 -0.16325572 -0.1730096 0.14668101 -0.13838047 0.016431525 0.10987779 -0.034700617 0.011279357 0.21172628 -0.06475961 0.054277256 -0.030723052 0.053043652 0.14868714 0.20661837 0.1836148 -0.07799298 -0.16570656 0.2174773 0.1804103 -0.041343503 -0.12207393 0.15637852 -0.01884419 0.07332479 -0.06627369 0.22558017 0.20459506 0.1637894 0.093530245 -0.09095101 -0.0036671346 0.141619 -0.27363876 -0.21992305 0.19934896 0.02534836 -0.103816696 0.10796829 0.14816779 -0.24116968 0.09192655 -0.15170367 -0.19458
64 0.092878506 0.2221566 0.17984304 0.27933714 0.2281455 0.22574951 0.12526591 0.094775096 -0.10826529 0.1277543 -0.20416288 -0.12598543 0.14704518 -0.0237914 0.15545346 0.2318924 0.17876157 0.069548994 0.07091207 -0.035581686 -0.1777555 -0.19429623 0.19791521 -0.18083115 -0.010575989 0.18600799 0.05351471 0.20528862 0.08188443 -0.04389341 0.09512914 -0.0823112 -0.06754592 0.038640734 0.19641164 0.13297974 0.21166706 0.06339044 0.2241866 -0.07417656 -0.116226576 -0.15874794 -0.06281148 -0.17441136 0.20453398 -0.20062685 0.22848216 0.34906155 0.14831156 0.13949321 -0.2197479 -0.19279212 0.123302475 -0.018806597 -0.1356918 0.15472737 0.17029123 0.118023634 0.10053406 0.06893922 -0.1854236 0.09801378 0.12744765 -0.1743077
66 -0.2359084 0.17514466 0.17686646 0.21867196 0.20900525 0.20759211 -0.0829242 -0.111057505 -0.21178108 0.2733577 -0.2084946 0.17302704 0.15115581 -0.2466764 0.21062511 0.20969129 -0.032050528 0.08541258 -0.19174898 0.102433704 -0.27574804 -0.082991526 0.021785656 -0.1341792 -0.18065101 0.0761041 -0.24630183 0.058514766 0.010691881 -0.19364741 -0.20249964 0.22451007 -0.013882323 0.19149849 0.15349959 0.21522373 0.022569986 -0.2149781 -0.012815412 -0.13551536 -0.09139723 -0.06323423 0.20146033 -0.064195104 0.044383556 0.011394773 0.19562739 0.021291092 0.11789369 0.097010806 -0.13204035 -0.07052826 0.1755583 -0.19044338 -0.20435764 0.15162802 0.1340047 0.1493391 0.21640494 0.16384782 -0.25712612 -0.18116662 0.16491306 -0.24212392
73 0.275445 0.112286866 0.1827299 0.28718922 0.2584848 0.08666084 -0.07874537 0.059882764 -0.09158078 0.1962823 -0.25373033 -0.19918005 0.1183538 0.008951482 0.067354314 0.09587382 0.12954834 0.0022449796 0.35024604 0.08017646 -0.26891637 0.2800542 0.004189472 -0.26316255 -0.08900496 0.14800781 -0.107138656 0.13613774 0.27231622 -0.2867651 0.03794171 -0.044962395 -0.07094636 -0.07413281 0.10570524 -0.04932249 0.07136795 -0.09986358 0.2202499 0.15364271 0.1527963 -0.26607275 0.29247698 0.044476565 0.10535291 -0.15757051 0.2530829 -0.116496004 0.06621358 0.07246483 -0.27206516 -0.2528085 0.21066318 -0.034876548 -0.14777654 0.17069098 -0.20757362 -0.05249839 0.26406366 -0.104960985 -0.15678614 0.31587553 0.0013933822 -0.28666735
92 0.06640997 0.061188538 0.2643296 0.18192375 0.12599768 0.015382171 0.032470852 0.09473102 -0.18239868 0.17385924 -0.22176741 -0.035803065 0.2354845 -0.15511045 0.05439175 -0.15043801 0.20443587 -0.043402907 -0.08423072 0.046676617 -0.2694613 -0.16907725 0.14767325 -0.21572833 0.057801683 0.13301875 0.06510527 0.11675232 -0.010939353 -0.1577352 -0.29921064 0.01738613 -0.06414884 0.15318936 0.20021331 0.23122597 0.06715176 0.016013335 0.13199429 -0.05115149 -0.015757084 -0.28042293 0.29883742 -0.028109198 0.073299706 -0.06489676 0.2186159 0.13691723 0.26493907 0.121349365 -0.060549308 -0.09801089 0.27578312 0.034095556 -0.12892166 0.24741288 -0.07261466 -0.07591827 -0.059565917 0.13900632 -0.18676582 0.19325492 0.00892863 -0.22031438
172 -0.16641927 0.20418991 0.024149988 0.21557412 0.22423355 0.124913655 0.03625932 -0.10010111 -0.24417256 0.19697797 -0.18006687 0.1265991 0.20403151 -0.1401411 0.10351398 0.1894851 0.12534733 0.013249091 0.368443 0.013674957 -0.21232769 -0.08508012 0.14750661 -0.124407284 -0.025806727 0.16498649 -0.022956653 0.24780628 0.14454171 -0.1772809 -0.21364701 0.07678264 -0.16238256 0.080028825 0.074341856 0.09481795 0.03377589 -0.021745823 0.09645829 0.026926931 -0.058291893 -0.18408802 0.16185677 -0.17819212 0.15604526 -0.18346626 0.16890234 -0.03277995 0.041915942 0.03280196 -0.18006662 -0.06977085 0.151217 -0.2528588 -0.2311813 0.16998677 -0.107613534 -0.006070357 -0.110377684 0.14927122 -0.21571213 0.12618357 0.05458545 -0.20722693
186 0.25340533 0.21135399 0.028969865 0.08019224 0.21520916 -0.17676215 -0.19740818 -0.21594924 -0.14605504 0.14743522 0.016479116 -0.2838502 -0.1517288 -0.10652976 0.32964885 -0.090767376 0.034178156 -0.18121319 0.16489509 -0.31468767 0.28237885 0.120003715 -0.09485406 -0.25625694 -0.28250542 0.29606977 -0.15821181 0.100726426 0.006007297 -0.2548635 0.35568583 -0.32545856 -0.15573241 0.12425143 -0.17575021 0.22241277 -0.07264507 -0.25683355 -0.11178489 -0.24414939 0.25787926 -0.31286466 0.20855817 0.19674791 -0.05604318 0.060062468 0.24779314 -0.13179761 0.049976233 0.059442893 -0.17651334 0.18381068 0.24578896 -0.22651485 0.27385733 0.12379523 -0.21101 0.32033995 0.28059763 0.21489994 -0.21342129 0.085124 -0.2980264 -0.033451978
63 0.050442077 0.09056497 0.07114391 0.18072249 0.24243018 -0.015197169 -0.22653362 -0.2102607 -0.1985932 0.14921774 -0.2105621 0.05645426 0.17321847 -0.09279221 -0.085167214 0.10282987 -0.06923893 -0.14588241 0.20173211 -0.0009105437 -0.13580683 0.09448783 0.09519015 -0.16212238 -0.096475296 0.18061529 -0.11364913 0.030205734 0.041546218 -0.24435256 0.008778877 -0.043714803 -0.044660356 -0.039273437 -0.02019615 -0.0736799 -0.056169104 0.004389352 0.14189959 -0.1699698 0.2605605 -0.22301911 0.16374095 0.18221892 -0.07255313 -0.015784446 0.22830902 0.17573464 0.09252445 -0.09706439 -0.12274467 -0.004933613 0.21565944 -0.018693767 -0.018334826 0.13714075 -0.18572135 0.14259572 0.05420463 0.14919698 -0.21134886 -0.024935203 -0.16715005 -0.27863708
436 0.061211202 0.16092916 0.16312675 0.24536589 0.22815578 -0.04059909 -0.092881024 -0.08733231 -0.122332335 -0.033463802 -0.1387847 0.18214287 0.22715807 -0.21565525 0.20969352 0.17130125 -0.13878442 -0.13740523 -0.04325484 -0.007735671 -0.03983025 0.0064967284 -0.058050558 -0.0629153 -0.0778353 0.2420716 -0.16946816 -0.105798565 0.059189614 -0.24865864 0.02791041 -0.09762873 -0.12954862 0.046030447 -0.034955543 0.20049852 -0.15829633 -0.21459799 0.0039698626 -0.06698982 0.29183605 -0.13217182 0.07029575 0.04318414 0.16372897 -0.105154075 0.14801912 -0.08095698 0.083397694 -0.020962736 -0.07806375 0.16686654 0.08118216 0.054755837 -0.056617346 0.12717295 0.005073238 0.14089729 0.13563497 0.15034457 -0.2095505 -0.019385999 -0.12654105 -0.1240688
100 0.14695767 0.053213693 0.06615494 0.19625753 0.20398754 -0.08260487 -0.19123802 -0.08284263 -0.15814953 0.14338873 -0.2101876 -0.016898273 0.15308289 -0.0033368454 -0.15139718 0.11812901 -0.06637459 -0.08544113 0.1916737 -0.12058521 -0.07618303 0.017465606 -0.14392734 -0.15595803 -0.10304173 -0.05262988 -0.09635572 0.14667244 -0.0556593 -0.18113548 0.028724486 -0.06786364 -0.037591174 -0.10189591 -0.033691328 -0.11394576 0.05900341 -0.11512703 0.09684278 -0.20312594 0.2265604 -0.26134533 0.2161661 0.1427664 0.04303234 -0.025328422 0.1687249 0.04170319 0.10504086 0.10068487 -0.2030818 0.04022307 0.1601699 -0.10121921 0.0004578315 0.04191126 -0.22302935 0.13827047 0.088887446 0.08414788 -0.21374306 0.06960646 -0.0683047 -0.23680773
101 0.10005758 0.045382693 0.128811 0.21914612 0.21300228 -0.037544493 -0.21122916 -0.13318491 -0.05886255 0.13396588 -0.16417915 0.06680854 0.021395613 -0.00956439 -0.15880561 0.062673405 -0.08655782 -0.19655932 0.21932329 -0.062654935 -0.13720125 0.017442407 -0.07850648 -0.22141612 -0.093758434 -0.04087125 -0.041542266 0.17780231 -0.028716378 -0.20882097 -0.0017940603 -0.013448547 -0.10858757 -0.048373558 0.038903553 0.024223877 0.07793162 -0.08580077 0.04446957 -0.18839876 0.23165442 -0.21744229 0.20170653 0.18183835 0.074141234 -0.01986676 0.18192321 0.106286064 0.1915613 0.009740479 -0.08335378 -0.062926255 0.17130078 -0.14358984 0.06347238 0.15054287 -0.060782395 0.19291122 0.17821391 0.13922836 -0.2011744 0.11499571 -0.09159422 -0.19032176
107 0.10954807 -0.08666709 0.049654055 0.11458142 0.23002842 -0.031851638 -0.18821144 0.072988234 -0.13639107 0.06516156 -0.15720642 -0.103408314 0.14983891 0.03918621 -0.037130013 -0.048808623 -0.049991865 -0.15444739 0.18097721 -0.20449357 -0.14882612 -0.029567316 -0.073285855 -0.112956285 -0.12881285 -0.06330233 -0.082356654 0.11828244 -0.06307342 -0.13335747 0.029750234 -0.12412874 0.19514398 -0.16076754 0.04559354 0.0028294646 -0.10791837 -0.19764128 0.13090684 -0.18756755 0.21056262 -0.20120747 0.15122446 0.18386541 -0.053130686 0.06739336 0.20545344 0.09003503 -0.065312006 0.06978888 -0.18955001 0.063273504 0.22760637 -0.1260303 -0.09199168 0.047753986 -0.23340681 0.20414758 0.14434214 0.10623381 -0.14398998 0.043993045 -0.16317384 -0.22070596
458 0.08288151 0.13228653 0.13527752 0.25016698 0.16016498 0.081064455 -0.12571326 -0.08343103 -0.16925989 0.14702979 -0.13927208 -0.13866772 0.22289686 -0.0899531 0.18320785 0.0637192 -0.042711213 0.016785197 0.20285307 -0.12242423 -0.18704115 -0.20294777 0.06755737 -0.033832617 0.0025838397 0.14658223 -0.23309763 0.17220458 0.1255351 -0.09220088 -0.1281014 -0.16667275 -0.047187615 0.12143188 -0.12894781 0.08413156 -0.18227251 0.048970275 -0.066103384 -0.12352502 0.2968403 -0.12016511 0.19814987 -0.006606825 0.10322637 -0.21223557 0.25642836 0.048566032 0.026882758 -0.015299106 -0.039831653 0.17374314 0.12284986 -0.11493892 -0.10405957 0.11982635 -0.07826062 0.24260353 0.20022173 0.1405 -0.18925616 0.21467224 -0.0018424583 -0.2978774
1443 0.20164293 0.05321843 -0.073696464 0.20406559 -0.0040375413 0.10388257 -0.19119793 -0.1862206 -0.09990478 0.0498933 -0.10467155 -0.0827634 -0.02704316 0.046600528 0.012489461 0.078562446 -0.17067897 -0.13431518 0.19590236 -0.16856723 0.09171779 -0.15651888 0.006466429 -0.19301903 -0.089900725 0.098098576 -0.14127992 0.15430908 0.12698495 -0.2546783 0.08081445 -0.12823232 0.065915816 -0.13082357 -0.022611242 -0.014273793 -0.14082499 0.062012065 0.11544861 -0.17298384 0.13325079 -0.19450878 0.23524539 0.07409872 0.12623358 -0.098981015 0.22578143 0.090439364 0.15785053 -0.12038401 -0.07373837 -0.14097999 0.17813173 -0.18201528 0.1851845 -0.12765938 -0.18797037 0.21359213 0.11283572 -0.11156403 0.064289905 0.0034672036 -0.12192226 -0.052834745
1445 0.081244655 0.12822743 -0.04136358 0.14638294 -0.029343847 0.18784209 -0.238994 -0.111330345 -0.1834946 0.1365992 -0.16881828 -0.16815895 0.039134882 0.11538836 0.08040897 0.16212282 -0.05335589 -0.027838489 0.15127692 -0.17505136 0.069335595 -0.12855087 -0.07277208 -0.22714217 -0.11942293 0.1508345 -0.14282511 -0.05771596 0.14144635 -0.21957356 0.19750503 -0.20157383 0.1629696 -0.09365509 -0.13458294 -0.10672334 -0.18512645 0.115317136 -0.0632628 -0.05180787 0.13270648 -0.18220548 0.22095783 0.21248432 -0.0015801644 -0.19009663 0.17873538 0.15506661 0.1013017 -0.056441337 -0.081717 -0.1216547 0.08356004 -0.07598721 0.13923115 -0.08902935 -0.16110638 0.11758946 0.22520766 0.021289023 0.0668007 -0.11291225 -0.16475557 -0.09802125
133 0.11394087 0.11391402 0.094945066 0.21056156 0.15115568 -0.11040666 -0.19816148 -0.17974697 -0.061504092 0.18582608 -0.22499862 0.12837438 0.07509973 -0.121551834 -0.16669813 0.17223574 -0.07342747 -0.064677835 0.16303141 -0.056297146 -0.03398732 -0.010086423 -0.008954933 -0.21285494 -0.09948309 0.050389487 -0.117704675 0.120287724 -0.090142906 -0.20158485 -0.009579147 -0.037248865 -0.13203877 -0.01106312 -0.03691238 0.022708314 0.05866705 -0.08519475 -0.046397235 -0.18093002 0.22811219 -0.209749 0.1706249 0.15687282 0.034953326 -0.10753879 0.16461127 0.03697873 0.101431824 0.0046132435 -0.20520076 0.0061946847 0.104239956 -0.04800404 0.07020513 0.07971621 -0.1723777 0.18921587 0.07156123 0.119479544 -0.20520127 0.04219377 -0.055843923 -0.24454376
1567 0.29939976 0.18790373 -0.19630797 0.32544345 0.119310685 -0.19731751 -0.16457726 -0.08864296 0.22724928 -0.19243866 -0.17962483 0.08578219 0.19292006 -0.17218615 0.19232263 0.14894028 -0.037620656 0.16551083 0.1990569 -0.14375354 0.068725325 0.15124059 0.18296997 0.19425313 -0.11085944 -0.00024055922 0.18625183 0.060419712 0.13061818 0.10636571 0.09199792 -0.18731777 -0.17385843 0.11665986 0.06541056 0.16860805 -0.016523732 0.15968372 -0.1290356 -0.17944813 -0.1342373 -0.076187976 0.21600795 -0.12920237 0.30141446 0.1393689 0.11514376 0.0877342 0.21592121 -0.17608602 0.107952416 0.101914056 0.14710665 0.1991373 -0.18231104 0.04175052 0.12661448 -0.080331676 -0.10158157 0.16732666 0.05999707 -0.11857357 -0.032886624 0.10875376
890 0.055477288 0.044009246 -0.08160667 0.27393126 0.19559476 -0.046545833 -0.19078249 0.028486334 -0.057940256 0.011509056 -0.24115455 0.2451798 0.24104783 -0.13507079 0.22688726 0.2464563 0.021802623 0.048952073 0.07166325 -0.09082508 0.035126057 0.09504519 0.19610603 0.0576798 -0.14788456 0.062846966 0.0023909742 0.011780869 0.07818753 -0.018990695 -0.0031053552 -0.16892128 -0.18700625 0.13881867 0.119291276 0.15620624 -0.13750675 -0.09368106 -0.18612982 -0.15367188 0.02081179 -0.13581893 0.17788218 -0.20160039 0.11694988 0.0012167222 0.24854554 0.02250046 0.11782194 -0.16591647 -0.14201164 0.15909977 0.07219393 0.18412727 -0.23701403 0.030895352 0.06121902 0.077118374 -0.037092365 0.2301344 -0.049926646 0.092299886 -0.17222595 0.044071406
1592 -0.1139705 0.09988351 -0.071042374 0.20506628 0.14196187 -0.09247767 -0.16417421 -0.12802073 0.0051652575 -0.1517263 -0.17641449 0.17536007 0.1561149 -0.1370161 0.18457225 0.1606173 -0.11342136 0.16125189 0.1471431 -0.06388756 0.12899128 0.11260052 0.14229107 0.108565964 -0.25931472 0.061896794 0.13205715 -0.032482516 0.09428801 -0.10438578 0.09262511 -0.1669966 -0.016022207 0.15935025 -0.0022132888 0.17397462 -0.057173476 0.06419735 -0.12266826 -0.096108295 -0.115505606 -0.032304548 0.14810537 -0.10653352 0.119226895 0.12316736 0.17142239 0.09262144 0.15381779 -0.1514146 0.06461563 0.032654244 0.018321449 0.16979381 -0.19932313 0.11538872 0.11737129 -0.10591078 -0.072414145 0.15709616 0.019944327 0.14949597 -0.17088239 0.035035647
1597 0.35618225 0.14351325 -0.18378189 0.038911305 0.15206048 -0.21709697 -0.06458703 -0.09232752 -0.14443178 -0.13476896 -0.22319277 0.14252971 0.22178088 -0.15389983 0.17060119 0.2289452 -0.036571585 0.18714517 0.13474266 -0.1849577 -0.046150643 0.05889846 0.15214005 0.20609953 0.077183105 0.106538385 0.08383621 -0.06790884 0.20144202 -0.035846215 0.15313502 -0.14393434 0.1288381 0.19583736 -0.08316298 0.14442806 -0.20139354 -0.24876736 -0.2319894 -0.15146504 -0.14878112 -0.13457067 0.21755101 -0.20604396 -0.24950321 -0.010185958 0.19060138 0.16626497 0.2033116 -0.15753764 0.081078775 0.16770093 0.1476492 0.0973825 -0.19126816 0.1816924 0.052087817 -0.065158986 -0.13136093 0.25093904 -0.27844098 0.21797548 -0.1055392 0.17485796
1601 -0.2337076 -0.20888162 -0.10688337 0.16924958 0.20364289 -0.08614616 -0.18486086 -0.17008299 -0.26337427 -0.21025343 -0.072935335 0.14562592 0.16265164 -0.13604055 0.111181565 0.14494582 0.106765814 0.13076526 0.12519374 -0.21138458 0.19896385 0.13287303 0.18042791 0.21304503 -0.015751474 0.106919646 0.119743764 0.10620278 -0.012781649 0.03760634 0.19951989 -0.22303644 -0.12364065 0.21872774 0.11428938 0.21124637 -0.3975604 0.014330112 -0.115854464 -0.19656263 -0.058823936 -0.16303217 0.21240285 -0.12005832 0.14667471 0.14273615 0.25276268 0.1930466 0.09197737 -0.21575461 -0.030102603 -0.18370222 0.02293938 0.20427093 -0.22004844 0.1599862 0.17394277 -0.20963539 -0.07946319 0.18665884 -0.11084565 -0.092873335 -0.13693847 0.13714674
1398 0.09999234 0.1787453 -0.12192525 0.14747155 -0.11113308 0.16484557 -0.16798066 -0.079827964 -0.10870637 0.051471185 -0.19205846 -0.16871542 -0.02405952 0.079942614 0.19292827 0.1670203 -0.08266479 -0.09785062 0.107420035 -0.1846866 0.12066941 -0.086224094 0.016967399 -0.16315435 -0.042450547 0.12434695 -0.1887891 0.046401113 0.089493185 -0.16730535 0.13021593 -0.12390625 0.05095203 -0.18293224 0.02061396 -0.03673942 -0.054102425 0.08112762 0.075110056 -0.059350185 0.20816582 -0.13816813 0.13245928 0.023734605 0.11502767 -0.21990615 0.15850553 0.12367007 0.1545997 -0.108458094 -0.1110356 -0.14185646 0.212986 -0.14247529 0.10739355 -0.11142702 -0.16603588 0.18058492 0.13568448 -0.1295457 0.103732996 -0.12664299 -0.19840384 -0.06944878
1005 -0.19896337 0.038692843 -0.17626002 0.17901373 0.17155641 0.34434503 -0.309871 -0.22042842 -0.20556559 0.16426861 -0.30444652 0.006749822 0.12912959 -0.13087985 -0.19075614 0.12392968 0.050455708 -0.178718 0.20252275 -0.19628529 0.17068043 -0.33844796 -0.2545523 0.16457617 0.06637982 0.22799426 -0.2521791 0.0666939 0.31467086 -0.13471545 0.26322472 -0.26410294 0.006354838 -0.19712053 -0.062305387 -0.08866204 -0.27402684 -0.15888157 -0.10819886 -0.1157059 0.22100388 -0.24030143 0.27409777 0.089153476 0.17944591 -0.1108799 0.24055843 0.038924918 0.4417276 0.22032775 -0.083548546 0.09328702 -0.12557545 -0.15376462 0.2240526 0.0073494003 -0.19767319 -0.32222342 -0.26758102 0.23380062 -0.25713918 -0.1566028 -0.3423761 -0.11604915
695 -0.17655094 0.2815836 0.031527597 -0.008152331 0.31068438 -0.0553157 -0.17156647 -0.2600075 -0.15880053 0.4221606 0.056732576 -0.17433007 0.270013 -0.034607567 0.13267523 0.17159094 -0.0342738 -0.25816664 0.14887421 0.25472695 0.04020595 -0.21260382 -0.108259775 -0.12188324 0.056163438 0.07395714 -0.24254613 0.26112977 -0.26356816 -0.014502234 -0.013299789 -0.24455635 -0.23351017 -0.2777695 -0.23078685 -0.2801378 -0.17410058 -0.013866406 0.09967031 -0.15041433 -0.15802287 -0.25339785 0.18410084 -0.18965279 0.22762108 -0.233745 0.24103005 -0.19309902 0.13608456 0.1880788 0.21589528 -0.105873995 -0.09043116 -0.007969831 -0.04612438 -0.11877568 -0.07882877 -0.08992419 -0.066426344 -0.038805492 -0.21933383 0.3011963 -0.08435192 -0.14701822
700 -0.07760493 0.16515501 -0.2737319 -0.17473891 0.05414598 -0.24231637 -0.32087496 -0.21995677 -0.20039736 0.22848584 -0.18960235 -0.061440676 0.31198323 0.09572247 0.0428911 0.1510356 0.0945978 -0.22980843 0.18645485 0.08568219 -0.014069147 -0.18527265 -0.101828635 -0.05777678 -0.3995172 -0.18299344 -0.1717626 0.23819987 0.37268394 -0.01356245 0.030929008 -0.2267482 -0.23173457 -0.12355144 0.23355995 -0.22212252 -0.18056484 -0.12778334 0.32101083 -0.23439689 0.25150138 -0.24284981 0.005032286 -0.12098704 0.26309028 -0.1504633 -0.016351966 -0.15842265 -0.045226857 0.29365292 0.095097534 0.3321404 -0.2800198 0.04192817 -0.49470335 0.12974863 0.08815691 -0.10817965 0.28058586 0.37814146 -0.29535785 -0.27215976 -0.044103198 0.05832856
714 -0.1666168 -0.09407412 0.04693462 0.23942195 0.053654257 0.16035356 -0.15078478 -0.05673552 -0.19316849 -0.09005447 -0.1851203 0.13300878 0.025468878 -0.13773106 -0.12525147 0.17635304 0.01300869 -0.17310323 0.12632622 -0.17429484 -0.037275203 -0.16534768 0.00087448355 -0.038189784 0.092325605 0.1060863 -0.10021464 0.1039293 0.002875805 -0.1945974 -0.14822899 -0.07204811 -0.10393431 -0.12885544 0.106542066 0.110053025 -0.038237743 -0.12601942 -0.10453091 -0.1681077 0.22295192 -0.14600654 0.15190335 0.13454343 -0.027196841 -0.04227317 0.26838708 0.15060776 0.12662843 -0.12535118 -0.10561253 0.10730968 0.003573368 -0.05184612 0.10137248 0.2191111 -0.20166704 0.06001968 0.19004324 0.12287367 -0.13592829 -0.02322158 -0.12604211 -0.13304709
722 -0.15850592 0.21979 -0.20170642 -0.1611579 0.23508501 -0.24917354 -0.21433072 -0.12392767 -0.1390989 0.18905373 -0.09611164 -0.016760562 0.23942094 0.1312172 0.09892345 0.1913599 -0.10298954 0.33087468 0.1101476 0.029993577 0.05948905 -0.20190774 -0.11637372 0.10217249 -0.15603039 -0.10747214 0.012055177 0.14435229 -0.088053375 0.035591494 0.2557727 -0.21083453 -0.09570379 -0.052403666 -0.16827045 -0.1355467 -0.21268736 -0.1836221 -0.10974544 -0.18785387 -0.15870184 -0.23462921 0.24503274 -0.10787412 0.07993751 -0.17445964 0.06871631 -0.14869352 0.12878568 0.0453946 -0.60916054 0.031885095 -0.119250424 -0.05883363 -0.15718402 -0.118436 -0.17027812 -0.15216309 -0.13778783 0.24647461 -0.23794386 0.10995209 -0.14055048 -0.047145274
663 0.031213688 0.16496576 -0.01593924 0.111112304 0.21021433 -0.12077557 -0.19777809 -0.14834404 -0.15580626 0.14895034 -0.18255666 0.021286167 0.2582 0.07361916 -0.0016578222 0.08257667 -0.09841977 -0.094304904 0.095645554 -0.02109507 -0.06463644 -0.13950612 -0.08450318 -0.13522717 -0.12063713 0.00028819195 -0.16322626 0.14218183 -0.049401216 -0.13867077 0.10317253 -0.19187415 -0.0061365995 -0.114754856 -0.121200874 -0.18130846 -0.1031709 -0.15488705 0.07367646 -0.14846699 0.22656082 -0.22650798 0.22408858 -0.005423605 0.074667506 -0.16102362 0.23438253 -0.030481592 0.051805537 0.05554548 -0.18762133 0.14323375 0.057177052 -0.116339326 -0.17236052 -0.03493909 -0.20707197 0.06348315 -0.019245053 0.17468302 -0.1974464 0.10869725 -0.081814945 -0.22654332
788 -0.04091319 0.21657889 -0.24690348 0.12782072 0.089690134 -0.025377449 -0.2415279 -0.21422012 -0.30189672 -0.371896 0.034371335 -0.24001138 0.114152364 0.22149171 0.14099166 0.083034955 -0.31027392 -0.3272672 0.18191652 0.100507386 0.22224274 -0.15880421 -0.23453948 -0.03645684 -0.27774075 -0.1162909 -0.06620796 0.19532846 0.035058588 0.16319302 0.19263475 -0.26755872 -0.10722363 -0.18147287 -0.27943572 -0.21820477 -0.0049302564 -0.0712558 0.14427623 -0.19050267 0.5075032 -0.18995744 0.23213604 -0.15596665 0.21907212 -0.26921254 -0.067171365 -0.106861964 0.14555302 0.13488919 -0.2836643 -0.051636677 0.20124923 -0.2368525 -0.18590538 -0.26336294 -0.29051274 -0.11414731 0.011704894 -0.24889608 -0.038353264 0.11755934 -0.2591606 0.09077595
1018 0.093428895 0.14003876 -0.088910244 0.22373673 0.18473321 0.06762509 -0.21414435 -0.0841246 -0.10672902 0.08458945 -0.08611632 -0.08847978 0.12265743 -0.046905752 -0.115155466 0.119962685 -0.08600468 -0.19703649 0.21128164 -0.17981617 -0.040524468 0.068207316 -0.12029146 -0.06008189 0.13014428 -0.01263123 -0.1602802 0.14167947 0.12213065 0.02385545 0.13967131 -0.057094358 0.0154761635 -0.1838589 0.11576962 -0.03062119 -0.11065101 -0.14919281 -0.02106755 -0.15122202 0.16701311 -0.19162688 0.20886426 0.17379566 -0.047878355 -0.023817353 0.19054781 -0.041523453 0.07340386 0.059475023 -0.21806625 -0.0741285 0.18187876 -0.19351481 -0.048010137 0.061548304 -0.15414695 0.010068454 0.14313471 0.108264424 -0.03167734 0.0141499005 -0.21265307 -0.06304719
509 -0.078693494 0.13900758 0.047759403 0.28845283 -0.0047901277 0.07846453 -0.14377418 -0.10269482 -0.13211617 -0.012684884 -0.2327754 0.075243644 0.0202642 -0.10792153 -0.106466725 0.15800707 0.025527641 -0.18729205 0.026291136 -0.005173628 -0.15725513 -0.1544692 -0.041795764 -0.048359722 0.19319235 0.16982815 -0.25224987 -0.10628883 0.12769024 -0.24625166 -0.04914958 -0.2108348 0.08699786 -0.112123914 -0.15096867 0.083585404 -0.038527437 -0.14475664 -0.07569923 -0.011414219 0.30337238 -0.26723114 0.25102904 0.2080258 -0.12955582 -0.08359857 0.23071317 0.052174047 -0.018721107 -0.18012564 -0.011342981 0.1478254 0.0016781004 -0.19518654 0.04076237 0.16618195 -0.26092544 0.17569485 0.18553303 0.13609132 -0.16259679 -0.15935968 0.02127623 -0.25356555
811 -0.06722495 0.20018369 -0.08608499 0.057129417 0.17706335 -0.15711074 -0.2111907 -0.17074876 -0.20958072 0.13817088 -0.1296032 0.06316748 0.20027508 0.061176535 0.048960883 0.07512953 -0.03189229 -0.13455752 0.11206767 0.011807537 -0.029889924 -0.097995915 -0.062944986 0.047757152 0.05199895 -0.023788523 -0.18694931 0.14100058 0.0060049403 -0.029822502 0.08620603 -0.21200767 -0.109335445 -0.16766575 -0.1372677 -0.1363848 -0.08749149 -0.15220587 -0.053946327 -0.13525715 0.19010225 -0.18845339 0.15066393 -0.13677165 0.07942544 -0.20481448 0.14885828 -0.08759021 0.053876027 0.04028813 -0.17769122 0.057834223 0.03886069 -0.18095902 -0.17723073 -0.01716299 -0.14318943 -0.073613554 0.0011584157 0.17596133 -0.19335249 0.069363214 -0.0818277 -0.09819494
1481 0.0140662175 0.16665196 -0.16852583 0.10630782 -0.18706982 0.109777234 -0.25054812 -0.22152936 -0.24807923 -0.1300194 -0.18668224 -0.102184035 0.18011948 -0.338834 -0.15889658 0.13258523 0.12194909 -0.30415288 0.24571137 -0.25576535 0.24817894 -0.19901782 -0.1570517 -0.22314623 -0.14756118 -0.11665074 -0.25207227 -0.3110862 0.17616886 -0.1852712 0.17258058 -0.2209219 0.13582303 -0.33916032 -0.008260466 0.12702903 -0.1604076 0.20778431 -0.0075799124 0.036288988 -0.29077077 -0.21407664 0.2204391 0.24698757 0.17791568 -0.20057175 0.012228251 0.017535217 0.027567733 0.15319344 0.114962645 -0.0787921 0.1092617 0.10183209 0.16120517 -0.123240754 0.05286067 0.24527839 0.23481701 0.0965925 0.084762275 -0.2904882 -0.03885794 -0.16083947
1891 -0.14618939 -0.064574294 0.08680073 0.23147759 0.03825642 0.03678068 -0.105772264 -0.1580999 -0.26700073 0.030270832 -0.17147295 0.032236647 0.20105462 -0.09480779 -0.12725724 0.06732985 -0.013664735 -0.10886236 0.013585065 0.02603144 -0.18049787 0.06589966 -0.1714321 -0.06249491 0.082193494 0.0977878 -0.07869528 0.056492325 0.1550212 -0.24961902 -0.0054209866 -0.0030154889 0.070565455 0.042966835 0.13433577 -0.06788977 -0.04048264 -0.17557517 0.12711209 -0.11521896 0.14680047 -0.26159087 0.2099929 0.09901809 -0.14949162 0.083751254 0.24584527 0.17271408 0.0027422349 0.10073262 0.090066664 0.08053814 0.23812291 -0.10448253 -0.19476268 0.14755741 -0.095388524 -0.004984424 0.009616022 0.010800546 -0.18379535 0.03179525 0.08819662 -0.20046349
390 -0.20849593 -0.27411994 -0.16575998 0.25823507 0.18521053 0.07708669 -0.16395894 0.1122576 -0.1880286 0.17002618 -0.2278859 0.13725188 0.2503724 0.14328486 0.37858456 -0.20969437 0.21999994 -0.20544185 -0.20174919 -0.14322895 -0.2641692 -0.09885879 0.17819943 -0.17794351 0.10574101 0.1500339 0.039622497 0.18301742 0.1289418 -0.1965201 -0.1578962 -0.114103906 0.24264216 -0.057383932 0.04973676 -0.17676583 -0.13371354 -0.079653166 -0.09256541 -0.01139842 0.05121246 -0.2587499 0.2762677 0.4708163 -0.24680208 -0.068425365 0.29606175 -0.0063980375 -0.20407617 0.018453581 0.05531627 0.2377151 0.05379549 -0.1678327 -0.22677328 0.12901336 -0.18223521 -0.059929367 -0.12853783 0.29532525 0.37083387 -0.12822211 -0.1564771 -0.23757257
277 -0.11198686 0.10643802 0.10073965 0.23556075 0.17884867 0.1477104 -0.19068696 -0.08610871 -0.15594363 0.061155286 -0.2618805 0.06390005 0.26961166 -0.18024826 0.12696812 0.11232356 -0.021928165 -0.16030046 0.031121308 -0.052300982 -0.17264856 -0.11909924 -0.026842732 -0.10741 0.045894846 0.18261722 -0.14227496 -0.13152295 0.09336958 -0.14063363 -0.18815933 -0.06314399 0.19372776 -0.029178686 -0.044468388 -0.11775243 -0.18303266 -0.052292157 -0.096226685 0.019088682 0.15873134 -0.19668493 0.15262868 0.14265989 -0.088878125 -0.10363556 0.21079935 -0.04561339 0.04883272 -0.18508177 0.119381934 0.21039957 -0.0048722047 -0.007069387 -0.1451309 0.07393494 -0.061393037 0.21006054 0.116211064 0.17956023 -0.09143675 -0.005122771 -0.18840982 -0.22471233
434 -0.093682855 -0.004182606 0.042128243 0.2830308 0.10019016 0.21408488 -0.28490445 -0.100843206 -0.21098636 0.08730298 -0.24899875 -0.07022732 0.19251987 0.04150508 0.015820889 0.019635137 0.021738041 -0.25141922 -0.088654354 0.11577082 -0.20859814 -0.04900555 0.001207098 -0.08540073 0.088004045 0.085055046 -0.15535161 -0.02719213 0.15704441 -0.21935207 -0.22792101 -0.19507967 0.061074164 -0.055026393 -0.013389313 -0.14999926 -0.097895786 -0.1126377 -0.04471913 0.068885796 0.2412458 -0.22650503 0.11724803 0.03379595 -0.16439529 -0.0021921736 0.13656372 0.11850754 0.07138471 -0.06336685 0.06284899 0.026102357 -0.032708965 -0.09299848 -0.12534048 0.12934197 -0.08889195 0.076016635 0.23272538 0.1528593 -0.04068364 -0.076416075 -0.1601704 -0.22540735
960 -0.082714304 0.05052381 0.04812142 0.2666023 0.08474174 0.004315512 -0.22304563 -0.020191139 -0.23319685 0.12035257 -0.2218731 0.20040542 0.22354114 0.0854787 0.057152517 -0.035879318 -0.08762415 -0.2102825 0.0066947048 -0.18299864 -0.24187772 -0.1213193 0.102484494 -0.10715494 -0.07445569 -0.12098277 -0.19601157 0.020645812 -0.056297313 -0.23346668 -0.022385411 -0.15453617 0.034707505 -0.13588408 0.06593503 0.04909023 -0.22419862 0.11041394 0.036696844 -0.14743203 0.08924767 -0.15322527 0.117393866 0.020495959 -0.1399761 -0.17576939 0.29751447 0.11271826 -0.045915607 0.06831729 -0.119490646 0.16661915 0.049809407 -0.14936824 -0.11327651 0.0671061 -0.16257542 0.034455452 0.042683482 0.27518478 -0.07567765 0.065821335 0.10786232 -0.19520159
475 -0.14621983 0.20338674 0.1377339 0.19552244 0.19596802 0.07056167 -0.17007868 -0.22037227 -0.26906198 -0.23851803 -0.26746535 0.3316387 0.20631373 -0.08341036 0.036897924 0.26152965 0.33999136 -0.12278653 -0.16938806 -0.061787225 -0.03393171 0.06379777 -0.098734856 0.30935985 0.26304114 0.18944648 -0.2330191 -0.03828082 0.13175356 -0.20365682 -0.19074716 -0.26803112 0.17361075 0.008672572 -0.01583492 -0.4661619 0.06995516 -0.18691026 -0.11954572 0.10801326 0.20060305 0.021292489 0.12248262 0.13836977 -0.23911843 0.19588766 -0.12966426 0.026185226 0.2575605 -0.20770648 0.08055125 0.179039 0.26475745 -0.1833976 -0.22756118 0.2526092 -0.15877916 0.06834516 0.0361339 0.15720941 0.17916302 -0.17826134 -0.12971792 -0.263809
346 0.0038682618 0.037030075 -0.043705974 0.18470123 0.14385241 0.17811288 -0.27078423 -0.05853495 -0.2723123 0.14773937 -0.19727704 -0.12398266 0.16359289 0.000286017 0.031103399 0.094364814 0.021203443 -0.14364043 0.043219473 0.020079417 -0.10472596 -0.1254564 0.06450809 -0.18733779 -0.01561164 0.17663637 -0.15315267 -0.041557245 0.14527367 -0.25976235 -0.02707894 -0.23449759 0.07801405 -0.058365513 0.0018827876 -0.18155658 -0.17144786 0.109544076 0.06558697 -0.022846062 0.13090667 -0.24884854 0.24466345 0.19320686 0.018004332 -0.042557508 0.25275227 0.16753909 0.09753432 0.03379728 0.009743686 0.020660667 0.101986386 -0.16814116 -0.06996719 0.08466351 -0.14812474 0.0030515494 0.17967957 0.12895375 0.0139111625 -0.036356207 -0.23086691 -0.08525583
1716 0.08329097 0.027894037 -0.06489991 0.18774915 0.2604201 -0.2271974 0.034231145 -0.10899026 0.004715157 0.1836249 -0.13700968 0.08009685 0.18782641 -0.2537735 -0.0064307954 0.05323741 -0.012114561 -0.19079985 -0.017364625 0.15911904 -0.04323444 -0.2198541 0.07151091 0.122260734 0.17923057 0.27607813 -0.21609703 0.031193646 0.008283455 -0.19049597 0.08739518 -0.18648998 -0.14727199 -0.07788778 0.15169723 -0.06847774 -0.07560336 0.114924945 0.042003617 0.07712021 0.20375216 -0.11146216 0.008951129 0.14383747 0.056817677 0.06514017 0.27707794 -0.16575742 -0.10543861 -0.014602036 0.049783587 0.044948034 -0.12835968 -0.11582891 0.058627523 0.1849387 0.15731955 0.14653654 -0.07575804 -0.046688627 0.13095775 0.12336342 0.015618116 -0.20714648
1717 0.09291768 0.14816622 0.016984873 0.3125314 0.19245724 -0.025144761 -0.037576996 -0.100854434 -0.10134685 0.19792311 -0.2718612 0.15071931 0.29065523 -0.18042974 0.14557725 0.15394944 0.060321 -0.20435444 -0.06837228 0.18552548 0.0056943796 -0.24222587 0.06833856 0.059483152 0.2021318 0.16651161 -0.20050612 0.0030177967 0.14367472 -0.28236273 -0.006282006 -0.24220166 -0.040622994 -0.08047017 0.06671482 -0.09843268 -0.00023988377 0.12614541 0.12748046 0.07763931 0.14222428 -0.17545336 0.20619826 0.096003965 0.082141645 0.013352616 0.2588711 -0.01847741 -0.10146114 0.03703065 0.20068896 0.03295305 0.011761105 -0.03247116 -0.13370293 0.26825437 -0.05101275 0.058329653 -0.11436427 0.09603207 -0.012291377 0.14183807 -0.08048598 -0.2184344
1718 -0.009981173 0.027485516 0.03391136 0.17485385 0.2335956 -0.10884473 -0.0046744063 -0.07345026 0.031953238 0.082799084 -0.18351333 0.14906256 0.24699128 -0.19001971 0.07626228 0.006773829 -0.13030316 -0.2078987 -0.07451128 0.054422174 0.102634616 -0.11281045 0.1674667 0.13244677 0.1794643 0.17675847 -0.20219275 0.08275808 0.035315163 -0.15906435 -0.003824252 -0.17333397 -0.19175722 -0.18200031 0.17763919 -0.15859327 -0.03203587 0.08735779 0.15964265 0.0177234 0.17481238 -0.015187309 0.09949009 0.22926953 0.10746245 0.019908763 0.24418466 -0.081527896 -0.14697607 0.107767604 0.0046274667 -0.09708692 -0.009759788 0.0013431751 -0.024241997 0.22381505 0.08626963 0.1007696 -0.0963531 0.121749476 0.10863708 0.10682675 0.08218574 -0.24599166
400 -0.062315334 0.088930994 0.057308096 0.24894819 0.2657299 -0.095841415 -0.05869128 -0.12824532 -0.21575944 0.23353411 -0.13324746 0.075860634 0.29276216 -0.24727502 -0.005628977 0.19973643 -0.115439154 -0.23689654 0.067161955 0.07818475 -0.14172985 -0.2340563 0.013843069 -0.04005939 0.13968194 0.28696936 -0.2577728 -0.08139055 0.059644073 -0.16328764 -0.12622179 -0.10990104 -0.13551475 0.04068149 -0.06828488 0.13370244 -0.20331694 -0.01456018 -0.018629368 0.054624893 0.19507587 -0.13365291 0.10628549 0.08444903 0.075041786 -0.09343983 0.27211246 -0.12634787 0.12650348 -0.19243939 0.041068256 0.06656506 0.09684991 -0.13881448 -0.019334527 0.271703 0.012245674 0.16099232 0.15756877 -0.016348505 0.026769415 -0.049880568 -0.19577633 -0.25298926
410 -0.063032225 0.122452326 -0.3055 0.18303742 0.22729808 -0.061274335 0.12719753 -0.069687225 -0.16538274 0.10630005 -0.22918235 0.1431731 0.22422652 -0.23249133 0.089269705 -0.2452732 0.13134982 -0.21902685 0.07851 -0.55739325 -0.24725352 -0.2916897 0.03684925 -0.038640134 0.24922305 0.27975535 -0.08347394 0.16851987 0.013345065 0.029081998 -0.1424444 -0.2080685 -0.05362199 -0.027163759 0.27848735 -0.07681913 -0.16718698 0.15454297 0.3594222 -0.18292283 0.22962672 -0.27146754 0.1743824 0.28522232 0.18026419 -0.18654364 0.2536686 -0.20679882 0.21310544 -0.2639189 0.22421478 0.24389078 -0.26838642 0.051634997 -0.01737273 0.19701436 0.2979846 0.2953359 -0.072968975 0.26487157 -0.17403182 0.24458112 -0.07254558 -0.26567715
2159 0.39868242 -0.32019007 -0.1266815 0.29084593 0.27912816 -0.22665413 -0.28029934 -0.1405621 -0.27739206 0.2749845 -0.30968246 -0.2989445 0.26909283 -0.2979276 -0.1756307 0.28673792 0.2626537 0.22841209 0.33599302 0.011161769 -0.29225105 -0.26872703 -0.1765251 -0.27381706 0.19206505 0.24032953 -0.10048525 0.1528958 -0.09569959 -0.35508806 0.19499293 -0.34286433 -0.27026126 0.276293 0.33953437 -0.074772425 -0.28800863 0.0953756 -0.056798458 0.30825868 0.33031723 0.14054298 0.22571628 -0.24619484 -0.12599227 -0.22304429 0.3185889 0.39015388 -0.34295312 0.33992934 0.21905422 0.26633075 -0.18638489 -0.3368541 -0.16732155 -0.11197488 0.24582583 -0.32527304 0.16074975 0.32048512 0.3412549 0.076614685 0.14671038 -0.2852214
1745 0.031859435 0.15465672 -0.07185552 0.1857878 0.20300207 -0.17678572 0.04462544 -0.14701039 -0.00165258 0.16037928 -0.22784013 0.15407166 0.17020509 -0.22574596 0.074783675 0.034985654 -0.025292825 -0.21358556 -0.0433482 0.07325272 -0.008340175 -0.083152376 0.1831949 0.04272343 0.1868359 0.14756691 -0.1137109 0.18418604 0.006616368 -0.17340986 -0.03715855 -0.22690965 -0.155206 -0.18136893 0.034566417 -0.17536654 0.026341887 0.05726677 0.036256723 0.07585061 0.21146393 -0.11488606 -0.0008866512 0.07797307 0.08988847 -0.049519345 0.22188497 -0.16982801 -0.21438584 0.09711765 -0.02120907 -0.072662845 -0.02520701 -0.14311068 -0.038172226 0.17270459 0.05021193 0.10916924 -0.15053846 -0.011382185 0.03179066 0.1519322 0.0336185 -0.24989171
1765 -0.032015048 0.07855393 -0.07136152 0.23061669 0.21826155 -0.12149007 -0.003439645 -0.11755023 -0.0045180814 0.117315345 -0.16598108 0.20869061 0.22032139 -0.1734287 -0.005771597 0.001265719 -0.14957106 -0.25311425 -0.037875 0.090296194 -0.06521947 -0.09845212 0.099853896 0.07347819 0.12362402 0.20407884 -0.179508 0.12573604 0.027753765 -0.22577278 -0.010066507 -0.18163565 -0.17195176 -0.18922229 0.04146317 -0.14826278 -0.008456023 0.07914779 0.1475607 0.03696532 0.20441529 -0.157455 0.12325189 0.19128698 0.09231716 0.018943999 0.2489842 -0.096994504 -0.11543916 -0.10091185 -0.054992683 -0.058188643 0.07489313 -0.052452743 -0.0016201993 0.1819988 0.039323077 0.20273578 -0.039600044 -0.046079088 0.118046604 0.1237019 -0.10144739 -0.27460113
1799 0.0019622403 0.118680075 -0.12503536 0.18247567 0.20955591 -0.18172309 0.108834654 -0.044273693 0.1001032 0.13940834 -0.16504699 0.15458305 0.18039915 -0.16461882 0.09114536 -0.0889041 -0.13880189 -0.2102582 -0.067096666 0.103912346 0.016746338 -0.09465497 0.1367314 0.12734407 0.19610013 0.1770719 -0.12630099 0.07065131 -0.029809369 -0.1119994 0.034563214 -0.12728475 -0.092728816 -0.14658032 0.12926245 -0.13796127 0.024826895 0.066591315 0.1355908 0.058645293 0.18676102 -0.10739316 -0.03046728 0.126888 0.12898546 0.11110009 0.20189537 -0.13917731 -0.17300475 0.07201629 -0.023083607 -0.10618943 -0.06418422 -0.100308955 0.09790466 0.18163668 0.16067545 0.17467088 -0.12665088 -0.049696635 0.103254884 0.10960703 0.060466312 -0.26715764
1805 0.0139832115 0.09165721 -0.10323491 0.17561202 0.19889866 -0.14362025 0.014321781 -0.08176801 0.07363547 0.17603765 -0.17178257 0.118667446 0.20859379 -0.19472343 0.09261471 -0.053407107 -0.0818315 -0.15861382 -0.11793071 0.10784483 -0.03174523 -0.1011122 0.108081974 0.098797694 0.20927061 0.19415325 -0.14448106 0.12461515 0.16294122 -0.2115721 0.14164299 -0.18952706 -0.12302659 -0.1833932 0.15127571 -0.1739319 0.114532135 0.032425027 0.12389219 0.06763994 0.14769463 -0.09253529 0.069916084 0.15470855 0.108010314 0.11509244 0.15125363 -0.14681037 -0.15448494 0.07595549 -0.03714525 -0.05778212 -0.07011658 -0.124586195 0.012395536 0.19766414 0.10958012 0.12058956 -0.16823749 0.03709037 0.08067037 0.13379806 -0.00012982744 -0.19024251
1815 0.004248851 0.2060861 -0.08199979 0.20670848 0.24189566 -0.1475927 0.08442016 -0.1514697 -0.10768581 0.2263162 -0.12454027 0.21450984 0.2434523 -0.2257919 0.08654529 0.10985134 -0.058350835 -0.23000151 -0.101823464 0.0829539 -0.0486753 -0.09369966 0.086047165 0.091967046 0.19723743 0.19535586 -0.119475484 0.013501713 0.06285024 -0.17394781 0.035505533 -0.16988343 -0.18063067 -0.13955083 0.038860857 -0.062713005 -0.09147542 0.041625086 0.0060133683 -0.0022280025 0.20756677 -0.18827666 0.099075414 0.08803744 0.19745104 0.031892724 0.2374166 -0.11806283 -0.11057173 0.050898 -0.032095924 -0.08461691 -0.08810446 -0.10332589 0.07064593 0.19051227 0.085429735 0.13224351 -0.08929495 0.06688628 0.018362751 0.08162807 0.010250456 -0.2289557
1829 0.040025372 0.064469784 -0.093944006 0.16449602 0.23573169 -0.07873244 -0.0056037847 0.040626045 0.027146317 0.072302334 -0.19014232 0.19051087 0.21281101 -0.22031118 0.117581286 0.059700854 -0.11897992 -0.18574515 -0.079350926 0.05319658 -0.019403225 -0.16587149 0.15721439 0.13677947 0.18226296 0.18313773 -0.1273729 0.13625982 0.0005828171 -0.24078529 -0.019205287 -0.19889668 -0.093729295 -0.21427146 0.10096308 -0.20155767 -0.016774733 0.10799126 0.14321655 0.011335166 0.19601308 -0.02129148 -0.024018994 0.13805632 0.15709388 0.026708398 0.20464666 -0.124913536 -0.13823563 0.09617568 -0.037739933 -0.06826838 -0.049231205 -0.049301196 0.04292062 0.20028062 0.044351235 0.16888745 -0.03776583 0.047335565 0.14782035 0.1398219 0.0032336847 -0.22734644
1840 0.06296011 0.09099919 -0.02421138 0.17143217 0.24205989 -0.117624395 0.08420951 0.037679646 -0.023087595 0.14633015 -0.122391425 0.18533938 0.21671067 -0.21482322 0.18296683 0.08239383 -0.19297983 -0.21341628 -0.102564596 0.08425907 0.058759294 -0.11838979 0.08693302 0.087658934 0.124620765 0.2563864 -0.1781118 0.038459983 0.08661889 -0.21554404 0.053490896 -0.20088004 -0.14084953 -0.17574653 0.16747469 -0.11122393 0.02675177 -0.024917804 0.07176021 -0.14390102 0.24208178 -0.092351414 0.026079467 0.19486484 0.1644449 -0.016519882 0.2458225 -0.08642895 -0.18266928 0.06356667 -0.07284153 -0.005342297 -0.07099237 -0.00074606395 -0.0005671022 0.23912433 0.068304256 0.05067449 -0.07228825 -0.032185208 0.03317365 0.13063225 -0.028878089 -0.22504994
1855 0.09952818 0.11822952 -0.099116966 0.1797739 0.17342663 -0.12141084 0.09783822 -0.112251565 0.017236808 0.12050282 -0.19189732 0.17684871 0.23259035 -0.1490085 0.09950222 -0.009651113 -0.11143157 -0.17881861 -0.098196805 0.15940338 -0.041637756 -0.09966209 0.12741673 0.07349901 0.14996654 0.20669267 -0.19447637 0.087023705 -0.04454783 -0.1617932 0.053028915 -0.20451757 -0.12876615 -0.16529827 0.13928044 -0.15873155 0.067996085 0.10628759 0.14517494 0.09759008 0.19445893 -0.14954288 0.08997881 0.13771081 0.1273137 0.0838408 0.16495994 -0.1529882 -0.16060306 0.1309345 -0.018663546 -0.056969266 -0.1203087 -0.06399606 0.04790997 0.17995508 0.060957238 0.05316427 -0.1063391 -0.008781256 0.09651683 0.13713892 0.033792965 -0.16819097
1865 -0.006633113 0.14975046 -0.1330007 0.2100972 0.1925934 -0.116471276 0.11286918 -0.051057134 -0.039211076 0.14543071 -0.12289482 0.17761973 0.1748385 -0.19783008 0.09240494 -0.027479801 -0.1008031 -0.17295898 -0.092585504 0.16500163 0.057616126 -0.1462798 0.15023987 0.10012543 0.1384956 0.14296427 -0.13983358 0.09637144 0.07369035 -0.17019127 0.08069573 -0.1512715 -0.16753615 -0.16112329 0.10857978 -0.14410247 0.013590609 0.09790413 0.14413434 0.110396005 0.12062088 -0.15019593 -0.028235292 0.17077446 0.14672963 0.05416943 0.20411383 -0.12624627 -0.17605746 0.07121264 0.071587116 -0.103360936 -0.08852767 -0.12724204 0.054759335 0.2023611 0.09287644 0.109779105 -0.1042633 0.046007726 0.104740575 0.16094643 0.039966296 -0.1984992
1783 -0.0014215491 0.13496804 0.041645937 0.13174246 0.225298 -0.13625917 0.040322907 -0.19101785 -0.08596564 0.21014655 -0.16021276 0.05355118 0.19619396 -0.16167222 0.11866068 0.03799415 -0.094740435 -0.21047127 -0.044849183 0.15883933 -0.062745295 -0.15639576 0.21577625 -0.017502394 0.1450239 0.21026967 -0.18010503 0.10267996 0.06623713 -0.15435728 0.041627083 -0.253409 -0.14945216 -0.19383106 0.07061727 -0.14548224 -0.070503786 0.08270711 0.04658067 0.012296853 0.2132541 -0.11963378 0.047219962 0.1347972 0.12647802 -0.07529802 0.20557596 -0.1528586 -0.15868862 0.099542364 0.056207765 0.093388826 -0.108430795 0.0054498995 0.04939056 0.21362583 0.073552646 0.03135966 -0.006426978 0.010488425 -0.03156312 0.15498112 0.06905215 -0.17005192
902 -0.117070585 -0.17219855 -0.047655232 0.24616706 0.16449447 -0.19237116 -0.17845763 0.28593096 -0.1856206 -0.046514623 -0.2695403 0.19113673 0.13727222 -0.29339138 -0.091729484 -0.11046811 0.15268724 -0.25327745 -0.040366326 0.10929449 -0.25285953 0.09632402 -0.25268546 -0.23534322 0.15327784 -0.20171937 -0.2266875 -0.17811327 0.28486305 -0.27051908 -0.010335236 0.4905974 0.34598264 0.2928952 0.17939445 0.12286395 -0.2580012 0.049194735 -0.1857201 -0.2577345 0.2131205 -0.11088742 0.3027443 0.17014268 -0.14399968 -0.23654497 0.2540477 -0.07000096 -0.13636595 -0.24668232 -0.27015296 -0.08718804 0.20482327 -0.17333166 -0.2118479 -0.12358577 -0.21921377 0.13638651 -0.11887478 0.25956413 0.21045978 0.1784822 -0.01756323 -0.20329964
1247 -0.13699532 0.14076048 -0.0376432 0.19185239 0.04744378 0.04584182 -0.22961845 0.029603213 -0.2546891 0.04373305 -0.19752257 0.09686979 0.06787387 -0.17107354 -0.046522334 0.11246673 -0.07733032 -0.23297954 -0.030469403 -0.1302693 -0.014167352 -0.13858633 -0.04205186 -0.039568402 0.1109987 0.18149096 -0.23079176 -0.08331268 0.24203339 -0.18697655 -0.02798212 0.00011959419 0.10683328 0.08714286 -0.038138166 -0.1522678 -0.124220334 0.08170488 0.007702553 -0.09565531 0.15237619 -0.17881283 0.2241172 0.15209265 -0.024887446 -0.01679796 0.20991574 0.16202584 0.14563988 -0.14549941 -0.0828082 0.07962686 0.24825664 -0.21926653 0.034560993 0.13284174 -0.15363067 0.105231114 0.045237 0.16940618 0.057426315 -0.07627939 -0.042974748 -0.27431703
933 0.058129314 0.069008745 0.10083854 0.09298753 0.106183976 -0.00528887 -0.1715456 -0.10066041 -0.1938035 0.03202876 -0.19578068 0.10662086 0.1931409 -0.18321872 -0.10926797 -0.04018124 -0.008337486 -0.07802098 -0.09787407 -0.112202205 -0.14955105 0.08353284 -0.11588686 -0.13795842 0.078790046 -0.08631561 -0.20162922 -0.11522996 0.15442221 -0.24200732 0.11602331 -0.17630972 0.20450923 -0.11339217 0.0404473 0.14735706 -0.23853534 0.030638648 0.071065366 -0.11587084 0.18256259 -0.20966758 0.1732393 0.17482387 -0.016592313 -0.084779695 0.22072864 0.15504399 -0.12728696 -0.095447354 -0.11730807 -0.008485896 0.00011559055 -0.21492402 -0.050768226 0.13442552 -0.16500674 0.049814787 -0.0010132496 0.14755125 -0.124440655 -0.06854633 -0.098049514 -0.19481118
682 -0.08806108 0.06267496 0.025387073 0.24260661 0.22333609 -0.040496457 -0.16881454 -0.055160806 -0.12779269 0.13347979 -0.19595937 0.07853205 0.254052 -0.06171079 -0.0017034024 -0.0022989314 -0.18261342 0.018480703 0.09239065 -0.10715762 -0.17816465 -0.1769501 0.09752195 -0.16154753 -0.18032953 -0.11555709 -0.17703685 0.08416484 0.06222726 -0.18510525 0.060126726 -0.047481466 0.18623127 -0.07327385 0.055765122 0.06366264 -0.23814154 -0.19355623 -0.08354044 -0.12758012 0.27042842 -0.19945091 0.1822076 0.11026743 -0.057488825 -0.05746007 0.22098866 0.17068449 0.098256394 -0.03767534 -0.16939032 0.16149874 0.10081374 -0.0871747 -0.26439422 0.114887804 -0.21560617 0.1953216 0.029913375 0.19851816 -0.0042315014 0.1409159 -0.1688295 -0.22891684
23 -0.26698092 -0.06568098 0.37313384 -0.1855301 0.21180056 0.012245205 -0.30701607 0.30404267 -0.065121375 0.56413466 -0.30709213 0.012308702 0.31729785 -0.25762773 0.27423888 0.04655986 -0.23931594 0.055022903 0.24828805 -0.28060693 -0.12702227 0.098457046 -0.30002058 -0.37078446 -0.09314057 -0.23681663 -0.3020364 0.098512545 0.14264147 -0.2425777 -0.19067876 0.23865552 -0.2170991 0.27588937 -0.34454775 -0.19996384 0.09537974 0.3667079 0.27834874 -0.24408165 0.3177007 -0.32167527 -0.12303868 0.28283185 0.21196468 -0.24408048 0.24603388 -0.2130334 -0.30058998 0.29171738 -0.1855466 -0.0971714 0.21071558 -0.24163014 -0.25368205 0.18001935 -0.2689111 0.2197285 0.22290806 -0.27006415 0.2359568 0.2867797 -0.2735174 0.209227
391 0.067077704 0.07905318 -0.057478014 0.14494361 0.16345952 0.14622813 -0.24303424 -0.22465171 -0.020382866 0.07708979 -0.25101897 -0.0861419 0.17470129 -0.05686223 0.023815492 0.15925723 -0.17220674 -0.20908374 0.25426015 -0.19667995 0.047947213 -0.1955764 0.109040216 -0.23379579 -0.050685164 0.19632946 -0.1951062 0.086002685 0.10256787 -0.1721917 -0.16349481 -0.1486084 -0.014261468 0.034563906 -0.17432575 -0.033981185 -0.039812163 -0.001404091 0.17373574 -0.0050654616 0.23350807 -0.18306087 0.16494726 0.07907896 0.18483597 -0.29586956 0.18513902 0.08738068 0.13179947 -0.08015821 0.02872433 -0.02837407 0.12802815 -0.14901087 -0.002645782 0.14164875 -0.110856324 0.16582839 0.12631176 -0.15200888 -0.16806114 0.03488275 -0.24432422 -0.13097468
25 -0.113127284 0.03884052 0.15976104 0.15714747 0.15935329 0.118226185 -0.091486715 0.0023986362 -0.14845449 -0.08015145 -0.23796092 -0.058319382 0.19700755 -0.15438351 -0.0019101253 0.07536609 0.055597458 -0.13882884 0.12993728 -0.22179532 -0.12571722 -0.100358844 0.11784432 -0.16630372 0.11042439 0.08761579 -0.07781315 0.18248247 -0.045014266 -0.16144688 -0.18437138 0.040418684 -0.10593119 -0.041030325 0.039428495 0.05601272 0.05163093 0.11821995 0.06902373 -0.15876287 0.15612997 -0.19543266 0.09686737 0.07049658 0.14960611 -0.16332318 0.22577906 0.11455363 0.07385676 0.11167489 -0.10904174 -0.047660667 0.09428413 -0.030627055 -0.04390599 0.18247008 -0.018930295 0.21216932 0.16809165 -0.1303075 -0.107204124 0.14891298 -0.01984601 -0.14228888
89 0.071230955 -0.065316506 0.06447175 0.18062234 0.19000345 0.013879667 -0.20769295 0.08877301 -0.19037694 -0.02647555 -0.21838447 -0.061219525 0.11787749 -0.07526385 -0.12225214 -0.045252822 -0.04702411 -0.009652283 0.13295193 -0.25817207 -0.09655749 -0.056011647 -0.09018069 -0.1597587 0.00073404296 -0.06443086 -0.15301003 0.15419973 0.0237365 -0.17505673 -0.05814798 0.116433084 0.09380334 -0.22032824 0.007705922 -0.09620942 -0.1711324 -0.1896909 0.019111468 -0.15996064 0.22220674 -0.19961813 0.21290164 0.2363624 0.079376146 -0.123026915 0.1732639 0.10626779 -0.07555899 -0.08806909 -0.18757586 0.07705456 0.17122355 -0.13925493 -0.070381895 0.17597713 -0.24818493 0.2058001 0.13361242 -0.002664675 -0.048539355 -0.038991828 -0.21672788 -0.101894684
980 -0.16253892 0.03535777 0.072071075 0.1757629 0.17921738 0.07051413 -0.20819183 -0.05265628 -0.19700289 0.20550373 -0.23214419 -0.08431935 0.16199532 -0.18694274 -0.043953296 0.17977443 -0.1898032 -0.040656205 0.16903605 0.008160551 -0.19418819 -0.1599566 -0.0042276233 -0.17641157 -0.07639118 -0.0024190503 -0.22890581 -0.080791146 0.115674995 -0.16374014 -0.0705874 -0.09858622 0.045215845 0.044371583 -0.007622762 -0.07329078 -0.22309755 -0.06240489 0.06423362 -0.12652789 0.24697578 -0.16319092 0.11396774 0.122268364 0.016479377 -0.10766249 0.19088453 0.06643919 -0.054565936 -0.0770841 0.034173276 0.075086825 0.1475116 0.041160043 -0.12394943 0.093987055 -0.117882825 0.065983176 0.025259696 0.16556187 -0.056902226 0.09544774 -0.12045201 -0.18361409
1394 -0.10549582 0.087817356 0.19699326 0.1873004 0.17868532 0.12654337 -0.13350378 -0.028570889 0.10840319 -0.1191105 0.08614721 0.14132048 0.15207805 0.066565245 -0.10034517 -0.14783797 -0.16240738 -0.11883434 0.12975061 -0.14622131 -0.065003484 -0.16811807 0.1424181 0.06668545 -0.16543466 -0.15324336 0.055576768 0.15308578 0.06812302 -0.1744666 0.16412893 -0.13977672 0.1288015 -0.13570735 -0.06427894 0.114363804 -0.17989752 0.14805585 0.0395556 0.09137722 0.11602156 0.05224496 -0.10185962 -0.07787218 0.103677146 -0.09626425 0.20254144 0.15399747 0.09290696 0.095800385 0.04868709 0.123048835 -0.11198524 -0.17258422 -0.16988249 0.17989206 0.021494493 0.18379034 0.10244973 0.19814385 0.11612951 0.10074468 0.13056538 0.012921094
1545 -0.11015932 0.09339291 0.21729638 0.2256007 0.16696635 0.16701207 -0.21481295 -0.06857874 0.10910563 -0.052096397 -0.03595131 0.16056173 0.18682894 -0.034204885 -0.07600076 -0.046289664 -0.20073155 -0.022321464 0.13820231 -0.08782317 -0.09567973 -0.08482807 0.1978458 0.00018702913 -0.24004963 -0.085204415 0.029655224 0.12869665 0.05983151 -0.16819069 0.17555696 -0.19938393 0.025125137 -0.06300038 -0.068989724 0.18922527 -0.1829341 0.018173935 0.059578177 0.12026546 0.23699586 0.08421233 -0.08644376 -0.026671393 0.064501785 -0.15357932 0.19874038 0.19172338 0.02914685 0.0045704064 -0.024879154 0.09968201 -0.16874999 -0.09989053 -0.14487101 0.19618154 0.05985334 0.199635 0.05598497 0.23751293 0.04392387 0.08271292 0.039507646 -0.024390986
887 -0.14389612 0.20955461 0.18105452 0.3446217 0.1729533 -0.0053916774 -0.2360664 -0.1547252 0.10882406 -0.18051276 0.15592709 0.15412623 0.10309717 0.18890293 -0.19575107 -0.22926141 -0.2441794 -0.17647243 0.21490397 -0.16593465 0.0510198 0.15899263 0.1822047 0.095258586 -0.1786124 -0.1656696 0.020652704 0.059991207 0.11503532 -0.23101495 0.099778555 -0.10765829 0.09989198 -0.15564078 -0.18211718 0.15487133 -0.1399097 0.090385206 0.15921448 0.036699157 0.17643665 0.09444792 0.064598285 0.014243291 0.036246188 0.059978627 0.09010888 0.20881149 0.16975874 -0.20342118 0.093362205 0.058478806 -0.091166064 -0.19895685 -0.1426356 0.22701998 0.08048762 0.21338326 0.054881122 0.22263364 0.011728619 0.11877137 -0.010972216 0.01826172
893 -0.021467589 0.09520482 0.21234435 0.20690854 0.16086261 0.11035375 -0.21122079 -0.0832602 0.10364353 -0.08485175 0.09429174 0.20596166 0.17939886 -0.030373497 -0.12140427 -0.10674161 -0.18145013 -0.16169016 0.1460612 -0.18303397 -0.006816952 -0.16286097 0.13772511 0.009017526 -0.13887367 -0.07909624 0.014732043 0.09229602 0.08987908 -0.20702147 0.08248842 -0.16988777 0.1587537 -0.12834612 -0.015106267 0.13592109 -0.19534011 0.1309189 0.05004571 0.023757827 0.19296402 -0.0630997 -0.1139992 0.0026656862 0.080095574 -0.08193014 0.24132071 0.19365664 0.07921714 0.0073096165 0.09013655 0.03840877 -0.023691628 -0.10691117 -0.1830376 0.20383908 -0.04933921 0.18538707 0.10426172 0.18635388 0.042319898 -0.0016380155 0.014505069 -0.14427297
289 -0.07443308 0.08699704 0.12291596 0.1414879 0.1504606 0.15090416 -0.2035708 -0.008950519 0.099175006 -0.09130775 0.09512873 0.13712834 0.20666908 0.025182514 -0.13263646 -0.16103764 -0.16915844 -0.08675824 0.09327196 -0.1371923 -0.056053743 -0.17917787 0.18355314 0.096568406 -0.18545339 -0.116937056 0.09076034 0.15602304 0.13325854 -0.14263737 0.10947092 -0.15170072 0.105863154 -0.11586672 -0.048321676 0.13196254 -0.19792555 0.13449277 0.09840198 0.021181518 0.20702812 0.10119466 -0.113841146 0.0026752548 0.11730501 -0.10596795 0.21363355 0.17061053 0.09070741 -0.0009101579 0.026196545 0.07096141 -0.09377239 -0.1248879 -0.21860126 0.15677172 -0.0777349 0.16925721 0.12649617 0.19289404 0.10062969 0.13769431 0.06410518 0.047311693
