2405 32
1397 0.31650776 0.25500652 -0.59716254 0.43643105 -0.32472658 0.43511748 -0.39644688 0.49655855 0.18912521 0.26783797 0.48001704 -0.17252113 0.23800457 0.15715842 -0.45437548 0.09797499 -0.18187054 0.40329766 -0.8245388 -0.39473733 0.11946577 0.5765979 -0.5537947 0.94596577 0.065560594 0.36849827 0.36183158 -0.24743815 0.53550947 -0.42160738 -0.31198117 -0.10546773
1470 0.15309021 0.5223578 -0.1642973 -0.019472132 -0.02283445 0.42574477 -0.5023695 0.7085429 0.34030923 0.29609933 0.5489859 -0.4719496 0.3779356 -0.09505521 -0.77593327 0.041267637 0.006941891 0.11072625 -0.8173511 -0.30876735 -0.73229915 0.20287757 -0.4446673 0.578087 0.12651429 0.7151273 0.012394851 -0.026036032 0.50770134 -0.6579506 -0.49100882 -0.22578733
362 0.4497306 0.2755785 -0.8191677 0.9776994 -0.19384569 0.7054279 -0.4978256 0.16469236 0.41146907 0.30846536 0.68265873 0.02047687 0.0056200293 0.17450711 -0.43572655 -0.13031572 -0.2479005 0.58535695 -0.5525914 -0.7846712 0.2339234 0.6638183 -0.45447344 0.89493173 -0.12967122 0.6905752 0.79940534 -0.17794827 0.638041 -0.66640157 -0.3002921 -0.17327787
226 0.5992499 0.40998664 -0.56613785 -0.45972607 -0.0832272 0.10396899 -0.5135997 0.04686178 0.18414325 0.77173716 -0.47891897 0.31824917 -0.10221235 -0.1472939 -0.45025054 0.3658235 -0.014397944 0.389266 -0.8413211 -0.17582862 0.26513082 0.028563818 -0.62285465 0.40416342 0.111320436 0.48222053 0.2749451 -0.020350028 0.5066762 -0.25919318 -0.20100565 -0.41845116
750 0.20186687 0.45585334 -0.31951505 0.7230415 -0.30761528 0.97192913 0.14394043 0.5407074 0.1726154 0.11152333 0.49477032 -0.043535843 0.39209542 0.13470066 -1.0824589 -0.03186886 -0.18394758 0.4034666 -0.33222297 0.11630093 -0.66651374 0.53004795 -0.41990608 0.616199 0.29948363 0.4035781 0.081559464 0.31123883 0.55851126 -0.10154566 -0.023884902 -0.49346828
489 -0.27529493 0.078871526 -0.26191002 0.35581005 -0.099119455 0.7669888 -0.37208197 0.35616943 0.3938036 0.07816093 0.0416513 0.50184005 -0.42899492 -0.038330175 -0.184749 -0.02101585 0.085879944 -0.34583947 -0.06696904 0.20913672 0.22295114 0.49185613 0.26312754 -0.14895596 0.145607 0.3317855 0.23223528 -0.25697374 0.38344115 -0.269287 -0.5695266 0.088989794
1462 0.43597317 0.17264232 -0.2828944 -0.31954598 -0.21238346 0.37951434 -0.3437582 0.41564736 0.019601509 0.83141667 -0.4248247 0.34709358 0.1898438 0.15725473 -0.09782521 0.68072426 0.12350795 0.7040664 -1.195325 -0.2355741 0.0053197565 0.5077153 -0.70147574 0.911806 -0.14849767 0.31177902 0.13473223 -0.60949093 0.4686114 -0.24776702 -0.15691997 -0.2430128
1713 -0.033950206 0.34092194 0.11528138 0.10508315 -0.2406432 0.50277907 -0.009057212 -0.24875131 -0.15917996 0.71639585 -0.41924486 -0.40474838 -0.3536845 -0.14691372 -0.3041111 0.41478825 0.20671748 0.065557644 0.014416425 0.18753867 -0.014512658 0.35868368 1.2596884 0.79747164 0.7911496 -0.0038227392 -0.14677459 0.26257643 0.9364278 0.17140397 -0.14192306 0.18223773
393 -0.6006775 0.38339812 -0.3226019 -0.05409975 0.27560747 0.16462947 -0.08361486 -0.59461325 -0.13832398 0.26581913 -0.16890468 -0.31552944 -0.45871732 0.56075 -0.027743496 0.04257985 0.12202655 0.2979268 -0.087141626 0.11974811 0.0743445 -0.03285344 0.02498558 0.24644272 0.57808 -0.04495287 -0.24228878 0.07347101 0.48477614 0.38169035 -0.509345 -0.01209694
445 -0.3795576 0.588721 0.05758869 0.27981785 -0.2864177 0.5577138 0.57817435 0.25116554 -0.13506715 0.31813818 -0.503418 -0.099017 -0.051932484 0.22060512 -0.31141254 0.41814473 0.3182635 -0.19006063 -0.34078643 0.17168558 -0.13602579 -0.09914414 0.22189043 0.14808491 0.26981458 0.33447373 0.27714655 0.25905603 0.24655537 0.21898744 0.057108577 -0.1373109
696 0.106191896 -0.011120139 0.427099 -0.09240217 0.06532403 0.27768463 -0.22840185 0.2507876 -0.17671444 0.2821504 -0.44729948 0.25904304 0.002909528 0.16995198 -0.13423854 0.7533076 0.67443055 0.12493591 -0.69946456 -0.12457238 -0.60908365 0.13283315 -0.0022979937 0.8250157 0.3542426 -0.43199712 -0.11927126 -0.9508929 0.40911847 -0.64731735 -0.22215183 -0.33952683
1610 0.32527182 0.32813084 0.080318265 -0.48505515 -0.08073797 0.28119108 -0.078676336 0.31560197 -0.32350436 0.08839866 -1.3165128 0.6293411 -0.02808585 0.17552188 -0.25196576 0.4129066 0.79241055 0.08770867 -0.9614734 -0.53591377 -0.65369695 -0.026028153 -0.16327249 1.0042657 -0.003726108 -0.50392985 0.015562886 -0.9155357 0.31927016 -0.7786085 -0.055684634 -0.8308581
889 0.20347913 0.43675286 0.7499649 0.044477854 -0.11294843 0.08549945 0.06960631 0.053692617 0.231665 0.65318584 -0.18962152 0.5522125 -0.5028262 0.41763097 0.84291863 0.51199245 0.9310262 0.09419687 -0.36473465 -0.1533391 -1.2325951 -0.060024153 0.270458 1.0759482 0.032013517 0.07081657 -0.52290314 -0.6013844 0.68188685 -0.6217511 -0.040800687 -0.18938209
1615 0.03323065 0.31158632 0.25007242 0.26072347 -0.08985088 0.31397158 0.05679638 -0.18778051 -0.8682243 0.7267914 -0.6958146 0.5434481 0.6366784 0.63669825 -0.19719438 0.8446091 0.6362936 0.33208433 -0.71760577 0.17921486 -0.8324748 0.28632402 0.08659847 0.28403026 0.1689457 0.5425265 -0.15878376 -0.9020234 0.076516636 -0.27177495 -0.041664448 0.1220993
708 -0.41299555 0.6588916 -0.072516695 0.18566307 -0.10327408 -0.0047270167 -0.35336334 -0.06609391 -0.29938653 -0.16329238 0.24720182 0.25071338 -0.3226777 0.30517894 -0.70342916 0.43492484 0.62241215 0.2704025 0.15065499 0.4682374 -0.5872003 0.23990948 -0.20265503 0.5139983 -0.3159425 -0.17281058 0.33676267 -0.5482684 0.102464095 0.10675452 -0.09205284 0.36446896
713 0.21015152 0.6961999 0.5045651 0.37859994 0.15427545 0.27038485 0.39114872 -0.098031186 -1.055664 0.33942103 -0.37094247 0.67239875 0.22210315 0.5180402 -0.18599597 0.3434077 0.71566254 0.52559125 0.011746471 0.19047168 -0.39856398 0.40163162 -0.3100061 -0.19822937 -0.007644554 0.008072395 0.075154446 -1.0158463 0.50537974 -0.18221425 -0.03319826 -0.3874852
718 -0.18808196 0.4750923 -0.09546963 0.101031534 -0.09814979 0.31640184 -0.18691063 -0.3875999 -0.38125455 0.012879821 -0.3829466 1.1766449 -0.040374134 0.08467776 -0.15718623 0.4068489 1.2357631 0.603834 0.114276215 0.106183246 -0.6119329 0.15765369 -0.40195566 0.7574967 0.48612624 -0.196045 0.35079566 -0.86547923 0.4463583 -0.2689171 0.23553875 0.3313106
1630 -0.12882112 0.3832199 0.23658958 0.4660312 0.08773854 -0.16841611 0.14065321 -0.04271089 -0.9005906 0.78401136 -0.52714473 0.6497652 0.54746693 0.66254365 -0.0012498574 0.693204 0.65418845 0.36229247 -0.38989034 0.35388476 -0.93552876 0.17143017 0.02913681 0.020208634 0.04620037 0.24556632 -0.21901488 -0.9751735 0.44935405 -0.17738535 -0.15486783 -0.41909698
734 0.37242565 0.60666454 0.21636271 0.073060475 -0.1258585 -0.015254886 -0.068795964 0.29513502 -0.6393818 0.46629694 -0.5497714 0.70920163 0.05766715 0.094215445 0.13545573 0.18379028 1.0030533 0.47112325 -0.06984179 -0.35030472 -0.4050434 -0.25465325 -0.43554783 0.6914797 0.16105972 -0.33573514 0.79019946 -0.8965111 0.8434825 -0.012523138 0.08940808 -0.0041765682
776 0.004326165 0.60111684 0.18358219 0.11778886 0.051091053 -0.12885581 -0.023569806 0.17661741 -0.19396347 0.74739075 -0.21694279 0.895182 0.3779337 -0.101948656 -0.5818128 9.7369026e-05 1.063251 0.7904669 0.16283736 -0.25194716 -0.40371472 -0.11321055 0.011439824 0.8783577 0.33242598 -0.58067197 0.45331556 -0.76308936 0.7471428 0.037476417 0.08862081 0.1657936
814 0.06722952 0.523888 0.11123048 0.3750279 -0.14441915 -0.27867466 -0.17354356 0.023464024 -0.24810098 0.5925779 -0.4322603 1.1164868 0.38946766 0.11575209 -0.056625955 0.41563433 1.0314511 0.6036997 0.090357 0.013057575 -0.47097215 -0.0017116569 -0.13597806 0.8040443 0.014293503 -0.22845389 0.52235097 -0.88883215 0.45352024 -0.3503455 0.08184633 -0.040291555
818 0.03554604 0.2253958 0.22137001 0.30775487 -0.18839067 0.023041077 0.17962456 0.09614233 -0.2980702 0.44861367 -0.4742832 0.71318364 -0.067252696 0.44003946 0.15113468 -0.107374385 1.2833525 0.27709186 0.21822038 -0.06201194 -0.51983917 -0.12729803 -0.11252429 0.6498202 0.0081194015 -0.59486806 0.93120915 -0.76384705 0.79106444 -0.076414645 -0.1780705 -0.1669943
1401 0.6565193 0.7394622 -0.43543875 -0.49075755 -0.3054302 0.7230782 0.050445177 0.42598358 0.13959709 0.98982906 -0.60306966 -0.106897436 -0.36264476 -0.28744113 -0.2582559 0.3221613 0.18190296 0.6415162 -0.37010595 -0.002252204 0.45232975 -0.2142947 -0.45965597 0.12303161 0.15113206 0.3843171 0.39331803 -0.27405536 0.46709454 -0.43166995 -0.62199795 0.053756326
220 0.28602475 1.0264423 -0.60823977 -0.41215226 -0.035375193 0.18690825 -0.21581833 -0.2130723 -0.047733758 0.47601855 -0.2771156 -0.07206883 -0.029984972 -0.6321295 -0.14308001 0.734805 0.7246312 0.97298366 -0.5248746 0.224635 0.19036752 0.09843479 -1.056852 0.22997487 -0.06291987 0.43460223 0.34249505 0.067616224 0.69542176 -0.22257602 -0.20759968 0.34838346
1412 0.16166295 -0.04226366 -0.29469195 -0.3476415 -0.0813395 -0.15340964 -0.30845067 0.37861493 -0.07089049 1.122423 -0.40741307 0.35319465 -0.06993694 -0.026082484 -0.24268678 -0.20972471 -0.19242856 0.6401311 -0.63727564 -0.1623487 0.40605873 0.04624379 -0.43907806 0.6342553 0.16124786 -0.0687189 -0.12493893 -0.09258665 0.6705259 -0.41915634 -0.52494633 -0.2726841
1413 0.7553171 0.67172605 -0.18351166 -0.6029151 -0.3098341 0.42227867 -0.5208074 0.2264323 0.0778384 0.76484984 -0.680733 0.15227877 -0.099720806 -0.18046433 -0.19977936 0.44805107 -0.11068575 0.29174706 -0.61064595 -0.13000055 0.16170888 -0.2378449 -0.7992771 0.23031475 0.4954453 0.59855 0.05235151 0.09384688 0.5730568 -0.25033408 -0.6367394 -0.1458105
228 0.28602174 0.34229088 -0.20688502 -0.78739697 -0.09311201 0.26833075 -0.39854676 0.16413629 -0.11916229 0.9259284 -0.864591 0.13352527 -0.31665415 -0.26542673 -0.35888782 0.34137124 0.44624236 0.4290293 -0.6492066 -0.07410171 0.1500783 -0.17293695 -0.66819555 0.15452649 -0.09476833 0.5774366 0.15473013 0.20495775 0.38237506 -0.116963826 -0.10371419 -0.26761532
233 0.88065225 0.6997345 -0.46546823 -0.2393302 -0.1485362 0.31401235 -0.45972228 -0.00784138 -0.0033526479 1.0837197 -0.60052866 -0.09722764 -0.22626795 0.10960899 -0.37340987 0.20346469 -0.14080562 0.4368231 -0.55215985 0.023401204 -0.1173734 -0.13584663 -0.84061235 0.23935924 0.22208494 0.4004556 0.3138456 0.13636766 0.5611337 -0.14517514 -0.2409549 0.23433422
235 0.41216695 0.29596373 -0.15210263 -0.80037016 -0.17652543 0.15151209 -0.41401845 -0.04102804 0.26579395 1.0646547 -0.41553935 0.011129801 -0.48031044 -0.18707456 -0.2197991 0.036094297 0.46681356 0.15082571 -0.43689784 -0.31850326 -0.22482952 0.0549763 -0.6465481 0.22130537 0.15846364 0.6345655 0.40439567 0.2722604 0.7893053 -0.22232497 -0.0015803949 -0.09691895
1450 0.92540944 0.56008214 -0.053371813 -0.66022503 -0.04392753 0.25283504 -0.3582622 0.4144049 0.08225033 0.9573727 -0.4929018 0.37859592 -0.16420268 -0.2112903 -0.2575321 0.7392217 0.20719895 0.46590143 -0.16414848 0.117173985 0.2407698 -0.32863015 -0.8872496 0.38250282 0.32052207 0.533159 0.12070018 -0.31341678 0.5619943 -0.22505976 -0.8769957 -0.21718934
236 0.5049108 0.9269175 -0.60038155 -0.40441054 0.04052443 0.43340346 -0.6861563 0.58831173 0.078728944 0.79679 -0.3154518 -0.012671892 0.116786644 -0.025538215 -0.63996947 0.019267315 -0.113632835 0.026868524 -0.3643992 0.040847193 -0.051226657 -0.19726318 -1.0347435 0.15437523 0.14116652 0.37948436 0.16215008 0.5951367 0.4405028 -0.23569372 -0.161595 -0.19229579
1455 1.117493 0.86957246 0.2955843 -0.56379867 -0.31514013 0.5416003 0.009126858 0.5260876 0.37377977 0.95303535 -0.58703125 0.34757996 0.13094337 -0.36745074 -0.19055906 0.81360364 0.34629932 0.047872078 0.13920736 0.35181496 0.41864434 -0.16656213 -0.08090486 0.6885789 0.27185625 0.7757784 0.11750418 0.30557096 0.47294036 -0.4858425 -1.4041768 0.11084821
1465 0.54364794 0.3986776 -0.2950949 -0.4353173 -0.44254 -0.0075710877 -0.08140145 0.47140816 -0.077354126 0.95892966 -0.61936235 0.408161 -0.1391844 0.055215336 -0.038198687 0.1680164 -0.019016571 0.47287053 -0.66250676 -0.2769291 0.23940773 0.008119722 -0.5289931 0.76749474 -0.12240537 0.35058624 0.17492191 -0.30862868 0.58756584 -0.09279216 -0.36933172 -0.14767635
1466 0.39831457 0.55749476 -0.47463018 -0.3303657 -0.10036963 0.06582427 -0.09334367 0.2688341 0.19885015 0.6368856 -0.956959 0.25539193 0.192061 -0.07363179 -0.11257509 0.58838177 0.056874283 0.51037204 -0.7609437 -0.16377643 0.13491893 0.066208795 -0.5389032 0.6918892 -0.12233548 0.07898237 0.11002887 -0.12968715 0.4235972 -0.4327605 -0.66494113 -0.39612636
1468 0.14989395 0.68040335 -0.19296323 -0.89777833 0.011935879 0.36534658 -0.28164592 0.42982 0.21972992 0.81699276 -0.29957387 0.38788778 0.081798464 -0.10616012 0.2299696 0.31968623 0.21239203 0.68240756 -0.82362217 0.030172735 0.21501051 -0.30250823 -1.0989304 0.41444325 0.08651102 0.05503053 0.16773911 -0.2283729 0.67903596 -0.18247202 -0.58653927 -0.5120718
243 0.6499029 0.8470965 -0.66153026 -0.60081697 -0.1207275 0.1757817 -0.55576134 0.14041457 -0.04678915 1.0433443 -0.3696801 0.15496847 -0.20163539 -0.38958704 -0.5435843 0.21347055 0.024638345 0.55333275 -0.4609991 0.0832377 -0.12391831 -0.19148031 -0.7261288 0.23630716 0.26828098 0.46372047 0.2051536 0.15699844 0.36394337 -0.34474275 -0.29900068 -0.009541578
245 0.6039329 0.68161666 -0.2313169 -0.28578746 -0.39645416 -0.12835078 -0.37198666 0.37050816 0.120658875 0.95666015 -0.26165518 0.26996785 -0.19826406 -0.12346838 -0.6749196 -0.07720391 0.09989642 0.48983562 -0.8722552 0.29757977 0.41730148 -0.1336359 -0.8103981 0.499746 0.28476307 0.43862948 0.1175131 -0.047387645 0.2564588 -0.21929283 -0.4279237 0.19615597
1535 0.05864794 0.847051 0.51757044 0.49978742 -0.12795326 0.732034 0.33827925 0.27922705 -0.21470724 -0.03520145 -0.34856555 -0.21947934 0.16902083 0.10491308 -1.1422254 0.85213673 0.5999536 0.40571958 -0.57680553 -0.07519543 -0.47592148 0.3634881 0.20227134 0.70023495 0.54066116 -0.18136832 0.13879055 0.17153919 0.46834597 -0.059543263 0.39251807 -1.0549368
780 0.35545278 1.3618734 0.67783207 0.54867095 -0.36914816 1.1504079 0.27749574 0.029105535 -0.49654424 -0.44093415 -0.750229 -0.4403187 0.3108581 0.4255077 -1.579582 0.55556184 0.8896558 0.60623443 -0.87871003 0.107206665 -0.84482384 0.6795988 0.05115335 0.43239692 1.0693189 0.414313 0.13287391 0.42399848 0.8438024 -0.16649783 0.4651693 -0.9252566
1550 -0.1971754 0.8239351 0.45290136 0.422771 -0.37038666 1.0970136 0.6350802 0.38337868 -0.009659393 0.14836441 -0.43275738 -0.29280213 -0.09968667 -0.069351 -0.7419877 0.7739268 0.58841133 0.28217736 -0.63311243 0.01950516 -0.29094207 0.14554738 0.17279996 0.5010869 0.49432668 0.041633274 0.2000224 0.24854533 0.36508322 0.0727002 0.28027037 -0.400083
2273 0.1632239 0.4746427 -0.4157845 0.679199 -0.29987365 0.19296259 0.4244377 0.07741072 -0.20285212 0.6864411 0.105519086 0.19806367 0.03529778 0.25317183 -1.1656643 0.58450496 0.41554704 0.19390738 -0.46414632 0.16164307 -0.59781706 0.27524033 -0.06473639 0.5036202 0.56203175 -0.013490998 0.40768382 0.69803387 0.22574143 0.5366583 0.17723532 -1.0415049
1616 -0.016856955 0.65562063 0.31583905 0.5229295 -0.037027493 -0.08301137 -0.057005934 -0.029726487 -0.98756766 1.0315824 -0.58614683 0.5773685 0.6722675 0.8868058 -0.2976239 0.60373986 0.84092706 0.40826488 -0.2756372 0.42607978 -0.83839786 0.048286792 0.09645602 -0.44414258 -0.05602868 0.49403062 -0.21576318 -0.85533893 0.4101126 0.04010221 -0.12542947 -0.31055865
2158 -0.06422483 0.42395425 0.48023486 0.5778726 0.17162314 0.0026873648 -0.12599702 -0.196125 -0.8593774 0.7429502 -0.7399111 0.61924577 0.34751227 0.6886884 -0.27671635 0.8938366 0.82285106 0.13241187 -1.052702 0.36759695 -1.1513999 0.23145887 0.047849916 -0.16078101 0.001291488 0.5267277 0.18510485 -1.1245245 0.21439813 -0.1772261 0.037912678 -0.32344458
1624 -0.34938908 0.48991627 0.25471136 0.029049514 0.069641426 0.0154469395 0.011341717 -0.2749446 -1.1163784 1.0441041 -0.78356963 0.11499696 0.58893204 0.8940113 -0.6444069 0.4215985 0.76855135 0.09991421 -0.49037343 0.49461177 -0.63327175 -0.3642878 0.35780358 -0.30293137 -0.11911551 0.41730738 -0.17467418 -0.8106139 0.21366455 -0.038657833 -0.09427045 -0.18306491
2165 0.20614544 0.3618586 0.5042939 0.45486736 0.2712459 0.30856487 -0.6355457 0.17195913 -0.45547467 0.46114197 -0.72295344 0.35785544 0.446759 1.0019325 -0.19033703 0.300333 0.41775057 0.06800382 -1.1075306 0.1562393 -1.1929537 0.46171597 0.07895086 0.38598365 0.34611648 0.6107909 -0.109159425 -1.353331 0.08693447 -0.48261076 0.018893007 -0.23787469
2167 0.08835541 0.10981387 0.38391915 0.43992838 0.3687948 0.19821352 -0.09634665 0.11125126 -0.7824443 0.5905675 -0.7786369 0.31011578 0.27269614 0.63600767 -0.3717612 0.8574817 0.48742053 0.024801554 -1.1055412 0.32455325 -1.0865438 0.30727488 0.021455975 0.4817216 0.40123832 0.3688666 -0.018565394 -1.3000767 0.3816258 -0.39381972 0.0076927664 -0.19833195
1631 0.03619402 0.5968092 0.59234965 0.49351555 -0.18209596 -0.055776056 -0.006519733 -0.22141576 -0.6368905 0.66645575 -0.7871272 0.73097 0.5619896 0.9161287 -0.0006344953 0.565809 0.71514356 0.14188784 -0.16391294 0.42525932 -1.0259063 -0.08279149 0.047923204 -0.2504277 -0.14173023 0.7108879 -0.26678988 -0.9540233 0.67258465 -0.17570771 -0.1889258 -0.13440856
1640 -0.08370469 0.08039902 0.38181213 0.3254691 -0.32157612 -0.18086827 0.12785035 -0.05959337 -0.8582865 0.89279914 -0.47956175 0.6928141 0.37551165 0.7838375 -0.33664554 0.31126702 1.055615 0.36770692 -0.64114136 0.6415507 -0.931397 0.08353146 0.2157164 -0.46470785 -0.13705826 0.801371 -0.36519557 -0.8545931 0.19014415 -0.08509193 -0.4537797 -0.2362127
1659 -0.09423515 0.75982124 0.28676662 0.5223804 -0.104242 -0.0038630944 0.006327808 0.13064294 -1.1759486 0.7063554 -0.46238995 0.68911535 0.7773107 0.8228346 -0.14247493 0.6232047 0.6400955 0.5350087 -0.2419104 0.49429426 -0.7143358 -0.020205023 0.12003637 -0.5756044 0.057094887 0.7312682 -0.2879117 -0.72076774 0.5522168 -0.1565361 -0.1167254 -0.29956403
1662 -0.29052976 0.3991958 0.41694066 0.529151 -0.1189018 0.114596575 0.2531136 0.015375052 -0.8842521 0.6678808 -0.5300474 0.5019877 0.6196597 0.62944555 -0.37436402 0.7887015 0.24890573 0.1503122 -0.25638175 0.19523467 -0.90642804 -0.057506535 0.11377002 -0.34898537 -0.06632401 0.50722426 -0.22267264 -0.71571517 0.58219576 0.24146962 -0.21660177 -0.26885372
2280 -0.09666107 0.40589786 0.41114712 0.35352165 0.27095485 0.11797501 -0.29651782 -0.13655744 -0.77369726 0.7812596 -0.82651347 0.3577911 0.6292505 0.9677897 -0.45696163 0.79970276 0.57522094 -0.021353912 -1.0814718 0.49204472 -0.9313465 0.1538054 0.080951095 0.25950998 0.17805757 0.46608412 -0.271022 -1.3587042 0.2518872 -0.232544 -0.078274645 -0.13678741
2307 0.0534097 0.43697762 0.52638704 0.47325167 0.36400995 0.0768368 -0.31497866 -0.041009583 -0.9439863 0.63018185 -0.89473313 0.51156914 0.4032088 0.7554498 -0.27601647 0.84524584 0.452085 0.11341273 -1.1344506 0.32883707 -1.1390073 0.284776 0.22328068 0.3608503 0.14827952 0.54371583 -0.17793122 -1.2754307 0.20602176 -0.31776813 -0.04595017 -0.0115936315
16 -0.674659 -0.012733831 -0.017804945 0.03369713 0.11681946 0.159918 -0.19002555 -0.28236642 -0.11181575 0.49182037 -0.19559984 -0.009877947 -1.0129519 -0.23952082 -0.13162461 -0.39893228 -0.077925466 -0.38833484 -1.1488969 0.16371104 -0.9297578 -0.06944694 0.029680358 0.31244504 0.32094666 0.13678731 0.4361231 0.09666745 1.1464026 0.050450303 0.26926476 -0.0043318593
11 -0.6558409 0.003259326 -0.03297494 0.19397831 -0.09935715 0.0113901915 -0.15088727 -0.5759271 0.002221059 0.7126274 -0.09959369 0.16704088 -0.5433446 -0.13874261 -0.12538645 -0.6091384 -0.48134696 -0.58959407 -1.2271379 0.17533469 -0.6767761 -0.20935673 0.04176501 0.34192032 0.036062036 0.20827971 0.3965535 0.0827307 1.1937329 -0.11706226 -0.1275983 -0.44796613
48 -0.7718027 0.33347604 0.3075473 -0.04427288 -0.12833692 0.23586324 -0.016557219 -0.039024558 0.5381335 0.6440893 -0.5734245 -0.18280682 -0.55794424 -0.4985444 -0.42108566 -0.4608688 0.04658212 -0.59188116 -1.2655418 0.27621943 -0.7358108 0.16263375 0.08405655 0.25242236 0.41206768 0.0374945 0.80140585 -0.004211704 1.2166212 -0.40757573 0.03944639 0.01811553
68 -0.6680689 0.17121282 0.015026526 -0.07293266 -0.49495092 -0.0005989716 -0.21509904 0.13367976 0.2849575 0.7493094 -0.4121932 0.37184495 -0.44594705 -0.42239985 -0.30732712 -0.1227058 -0.6302156 -0.028136043 -1.392222 0.31623235 -0.4260409 -0.09190354 -0.27667975 -0.005523394 0.09948358 -0.036744438 0.49929336 -0.04144186 0.8903631 -0.061265986 -0.25990388 0.057056222
67 -0.8167794 0.2622228 0.17932247 0.20012073 -0.24223821 0.18651892 0.14958526 0.11435297 0.13468042 0.6020543 -0.5932237 -0.23574199 -0.5578686 -0.41683826 -0.2984142 -0.08766721 -0.05688689 -0.2424832 -1.2932132 0.21527974 -0.7220359 -0.036952883 0.2453215 0.19119294 0.27686143 0.33107018 0.67298955 0.12636895 1.0541153 0.12011393 0.3018182 -0.053498596
88 -0.64199865 -0.1809837 -0.060093 -0.047209486 -0.60079944 -0.16188753 -0.86213577 0.40244094 0.16782838 0.81688255 -0.002169697 -0.17955862 -1.1891434 -0.105582744 -0.08310383 -0.09491067 0.42824188 -0.24118309 -0.47268796 0.25576258 -0.85070825 -0.5955006 -0.3009634 0.5376072 0.11815805 0.07024753 -0.14038199 0.032820813 0.6860389 0.23870678 -0.08305077 -0.2352962
116 -0.50773805 -0.34893632 -0.19751488 -0.20588602 -0.21454574 0.42589018 0.101845615 -0.24455725 -0.08847441 0.9414782 -0.3095136 0.06610665 -0.9282603 -0.259045 -0.56134456 -0.41135433 -0.2830041 0.026778035 -0.7554665 0.30668923 -1.0871891 -0.19160512 0.12952322 0.14630735 0.24155149 0.17869727 0.70946467 0.049008667 1.012474 -0.1187809 -0.14383812 0.13923301
119 -0.22333927 0.40578538 0.120805584 -0.18133344 0.038575266 0.18707833 0.061243486 0.011731715 -0.88088155 -0.0456231 -0.047391698 0.47545588 -0.8429355 0.6888821 0.06423363 -0.0068657883 0.5430208 -0.22818927 -0.2810392 -0.13921571 -0.8967823 -0.34866118 -0.22294803 0.23687421 0.33091038 -0.5442591 0.7199525 -0.20743701 0.5869082 -0.39786533 0.27038372 -0.09198619
493 -0.5066599 0.40159205 -0.05825551 0.60962087 0.4676189 0.34756485 -0.4591497 -0.12103026 -0.6646402 0.24702401 0.11507907 -0.024780307 -0.27221414 -0.38026643 -0.016752489 -0.73203915 -0.1552056 -0.6876847 -0.7204464 -0.005979758 -0.3547568 -0.14500704 0.21287121 0.60793746 -0.5225547 0.55550516 0.030863665 0.2933421 0.58853227 -0.1115486 -0.43146458 -0.5176619
167 -0.6731539 0.15513954 0.02952487 -0.04110006 -0.26282528 0.3481827 0.07449348 0.20880282 0.19859764 0.8281931 -0.50799227 -0.17506395 -0.9506261 -0.4631698 -0.3835011 -0.064924195 -0.163174 -0.3764433 -1.1425977 0.21639368 -0.7344171 -0.067984425 0.14151281 0.08516087 0.32378733 0.27674213 0.5000275 0.08628744 1.1536965 -0.046692263 0.29908016 0.013247374
181 -0.46475777 0.05321545 0.009497767 -0.22652537 -0.22572325 0.12519729 -0.014532891 0.017697202 0.086169064 0.58685464 -0.5597905 0.3008248 -0.97767717 -0.42672002 -0.36697364 -0.22575688 -0.23758747 -0.47110787 -0.8648817 0.37091845 -0.59163994 -0.20369755 0.010086171 -0.20246154 0.25285855 0.17525692 0.45057824 0.21657938 1.287564 -0.2872847 -0.1016729 0.23989306
15 -0.533724 -0.17924711 -0.033017635 0.05981701 -0.27582744 0.47147256 -0.1954317 -0.058799498 0.25733504 0.62537557 -0.31310314 0.26290488 -1.0006781 -0.3894445 -0.5737817 -0.20502572 -0.30136985 -0.5036781 -1.0428106 0.28422093 -0.7098978 -0.028944334 0.1611061 -0.11812649 0.13832392 0.25633806 0.46437436 0.08656275 1.0736237 0.061012927 -0.08393821 0.20010161
64 -0.7393753 -0.066685915 -0.105061315 -0.049874637 -0.45833445 0.38570362 -0.2566993 0.09763005 0.38185826 0.7154884 -0.4950022 0.0483911 -1.1134553 -0.35634196 -0.3743701 -0.25882593 -0.16937475 -0.28792444 -1.1115521 0.38858947 -0.88200617 -0.26272252 0.02300726 0.024116527 0.23131362 0.21191813 0.2813112 0.10465649 1.035507 0.05013593 -0.043816652 0.21429655
66 -0.54164374 -0.10490094 0.17361607 0.007363322 -0.20432198 0.21039787 0.13920245 -0.41980436 0.030700723 0.5089707 -0.10527854 0.20662628 -0.84279627 -0.2381907 -0.4534836 -0.39671466 -0.4663949 -0.61336595 -1.1083544 0.22414641 -0.60026735 -0.22390291 0.059542865 0.3040402 0.08824234 0.24078913 0.27798992 -0.027742961 1.343553 -0.15281114 -0.13706265 -0.30018905
73 -0.39121008 0.055888373 0.06786677 -0.28094047 -0.37481135 0.49986655 -0.010124792 -0.22573453 0.30059114 0.8413526 -0.6105835 0.0007650278 -0.81606114 -0.29019803 -0.5293884 -0.12292345 -0.2593656 -0.3371017 -0.9078962 0.14026985 -0.66824967 -0.37168932 0.09612085 0.013010311 0.19058633 0.21700418 0.3748996 0.2535376 1.0649514 -0.13833755 -0.06841616 0.19130585
92 -0.68362266 -0.2444184 -0.20034084 -0.039084572 -0.45954132 0.35083598 -0.3309146 0.15300843 0.3151686 0.7481691 -0.34100163 0.20414278 -1.1799752 -0.42783925 -0.39483613 -0.20464279 -0.094718575 -0.38528037 -1.0476335 0.3425637 -0.70641905 -0.041455053 0.13506326 -0.022715798 0.23999807 0.20922542 0.4114143 0.04823135 0.9903445 0.011989417 -0.008458809 0.12262969
172 -0.769652 0.023311662 -0.01616876 0.16089769 -0.45624086 0.46075916 0.14665118 0.018079508 0.1162067 0.72755885 -0.46431395 0.018878823 -0.8018849 -0.3653829 -0.52349085 -0.21419112 -0.24690096 -0.25919217 -0.92198604 0.427068 -0.74772954 -0.2685681 0.046268348 -0.051450863 0.20490775 0.106501825 0.43081862 0.1253103 0.91638345 0.23534553 0.030490208 -0.06856795
186 -0.1681604 -0.20748922 0.41355735 -0.8939136 0.17826328 0.30796996 0.10375649 -0.49952206 0.09674291 0.7634324 -0.3025488 0.121670604 -0.020204304 0.31891656 -1.0651658 0.027285593 0.05488187 0.49312156 -0.4082551 -0.637206 -0.67353904 0.2856583 0.039570224 0.80000013 -0.17615224 -0.21093717 0.53950316 -0.002627004 0.6474842 -0.64972913 -0.08129466 -0.17714271
63 -0.36029497 0.36755762 0.5802624 -0.49645317 0.05112613 0.44132286 -0.1721113 -0.19316344 0.61351776 0.48557913 -0.38385683 -0.5788599 -0.20634449 -0.022339815 -0.42977345 -0.3923604 0.5393818 -0.48593006 -0.35487685 0.059423678 -0.3704512 0.5404937 -0.07054994 0.69525135 0.07138849 -0.37429708 0.42910734 -0.07691543 0.66551226 -0.9093548 -0.5693251 -0.038762487
436 -0.44116837 0.36206988 0.15897149 -0.71571845 0.16981022 -0.00776371 -0.25725257 -0.07023111 -0.045147706 0.06480391 -0.08411102 0.27821693 -0.45444402 0.41217598 -1.0479497 0.525767 -0.24821511 0.66480565 -0.18596831 0.20416546 -0.2901206 0.3208791 0.49934515 0.26965937 -0.7792758 -0.4193182 0.27603933 0.43151942 1.34298 -0.504746 0.57417387 -0.4423853
100 0.14805907 -0.13924168 0.65347505 -0.4669924 0.09099327 0.55665886 -0.37507188 -0.43890926 -0.028410818 0.695365 -0.4674965 -0.39964518 0.07097278 0.32616937 -0.9845877 0.1225962 0.29184422 -0.04013309 -0.51905066 -0.42698938 -0.65499634 0.09601199 -0.24972382 0.47384828 0.25707638 0.1298052 0.118338175 -0.4951478 0.7988684 -0.7362742 -0.49592575 0.24950756
101 0.014799141 0.13377678 0.7670887 -0.8459176 0.10037065 0.7461599 -0.2409449 -0.09920639 0.40964264 0.9087486 -0.030343443 -0.22579764 -0.21213065 0.06709593 -0.80643976 -0.19143334 0.12832303 0.017974177 -0.31752712 -0.30290785 -0.84966135 -0.07826334 0.17315686 0.79245496 0.3861967 -0.1252956 0.1395698 -0.2903454 0.8526505 -0.66642475 -0.43971863 -0.0379604
107 -0.04452698 -0.24736398 0.1199685 -0.65056485 0.15361366 0.6808588 -0.53805846 -0.22208522 -0.20571187 0.9717826 -0.3898086 -0.44055226 -0.5315051 0.55994624 -0.6213716 0.058023106 0.5094948 -0.020195663 -0.12147779 -0.50550044 -0.56670624 -0.099213056 -0.7060707 0.3219947 0.19997738 0.33437368 -0.06704852 0.5038824 0.20476516 -0.5184972 -0.40883684 0.07262643
458 -0.34349838 -0.12446048 -0.30101383 -0.12442066 -0.025904607 -0.056029137 0.5637782 -0.08181366 -0.4418676 0.6662778 0.12779243 0.31870577 -0.39232934 0.23228393 -0.68456835 -0.13732494 0.2833979 0.5518815 0.2242725 0.40772477 -0.8185326 -0.09182892 0.09350192 0.4038797 0.011754863 -0.13143109 0.7598561 -0.056216843 0.3492534 0.27099603 -0.44529328 -0.36159086
1443 0.19056478 0.36971068 0.16276963 -0.52738976 -0.46713537 -0.18351218 0.17444645 0.11088609 0.19628334 0.67914355 -0.4560771 0.39690578 -0.10618482 0.15890497 -0.4550902 0.10836431 0.102954164 0.36165687 -1.2235848 -0.5281553 0.058930483 0.103434816 -0.4714247 0.67246336 -0.091091804 0.18016893 0.15792131 -0.15916672 0.498978 -0.16957912 -0.48133045 0.1803827
1445 0.31924596 0.2883078 -0.4231692 -0.45746595 -0.2753491 -0.010353086 -0.22509792 0.252485 -0.17606944 0.5435928 -0.7747714 0.3288468 0.103664175 0.1875176 0.07549372 -0.13527259 0.3839395 0.51972 -0.64059454 -0.6401149 -0.11725126 0.097880684 -0.503215 0.62757456 -0.024447933 0.14257717 0.52998143 -0.43556792 0.62617594 -0.5652855 -0.103878446 -0.4912193
133 -0.23513363 0.3746254 1.1906221 -0.65300196 -0.02521451 0.4601676 -0.1611756 -0.52319497 0.26829913 0.4934422 -0.19062367 -0.09014945 0.1345891 0.018838385 -0.8145047 0.35970387 0.36216173 -0.21876217 -0.58357835 -0.51347286 -0.72097784 0.21768282 -0.0356156 0.5714745 0.21270883 -0.33479723 0.40760452 -0.0381561 0.91957384 -0.55971307 -0.23306464 -0.16121812
1567 -0.24261332 0.96000236 1.1493107 -0.014827078 -0.3652771 0.38935226 -0.3364852 -0.09564268 -0.4738553 -0.36283255 -0.37908944 0.19715229 -0.7126995 2.0074298 -0.34004334 -0.11062444 0.82049966 0.85589373 -0.16332337 0.16643223 -0.0342276 1.2202758 -1.0864471 -0.18004891 0.073943555 0.25906307 0.53742224 0.08330927 0.88649714 -0.11243418 0.19128111 -0.33104432
890 -0.3980112 1.235651 1.2500709 -0.40135667 -0.32188487 0.419511 -0.21839824 -0.16005673 -0.26835537 -0.04239188 -0.2879478 0.70134646 -1.0350461 1.5383327 -0.20897886 0.15267393 0.34651527 0.57779616 -0.17567532 0.32415423 0.11082618 0.8294312 -0.6146193 -0.2756731 -0.031992134 0.024125632 0.20237209 0.2318236 0.55634665 -0.14101394 0.4080949 -0.4514362
1592 -0.4645767 1.0987163 1.0638129 -0.016381787 -0.29661903 0.25923514 -0.29841483 -0.13139185 -0.2416222 -0.17453408 -0.31550783 0.4452218 -0.80620086 1.9544823 -0.5700878 -0.23732035 0.8028517 0.9865874 -0.20203862 -0.06797376 0.017663589 1.4487907 -0.7571037 -0.2450956 0.055844236 0.073736824 0.3313779 0.16090527 0.6547887 -0.14121667 0.28107363 -0.28761122
1597 -0.09188262 1.1866971 1.290277 0.17267017 -0.2395718 0.54922837 -0.3900804 -0.18347827 -0.74922115 -0.24278119 -0.28423148 0.14717971 -0.9373484 1.6349379 -0.25669566 -0.11445119 0.94399136 0.97921413 -0.2218677 0.043612573 0.14222641 1.1474261 -1.0792865 -0.10541329 -0.041117605 0.42460415 0.24703358 0.28684625 0.44239214 0.0472772 0.08768685 -0.2324697
1601 -0.53974235 1.0912089 1.2281905 -0.2548558 -0.15787007 0.13490961 -0.47346753 0.063198715 -0.6796782 -0.15863772 -0.27840838 0.27060705 -0.9487627 1.9652611 -0.11468083 -0.04991004 0.85566276 0.86746603 -0.20869817 0.07568585 0.10322968 1.3226088 -0.7729848 0.1937629 0.30693427 0.28340045 0.73334956 0.3887853 0.5740927 -0.15526451 0.41735932 -0.33771288
1398 0.15823333 0.3326859 -0.28365928 -0.4870206 -0.66126084 -0.17352584 0.018637924 0.50242937 0.2421399 0.9057351 -0.98395646 0.38673565 -0.30020714 -0.08196619 -0.33338475 0.23003934 -0.29962146 0.20503628 -0.9381325 -0.4818356 -0.2631598 0.21995354 -0.6429216 0.63355815 -0.35945645 0.16110985 0.46435714 -0.08128745 0.7093575 -0.32632497 -0.3101918 -0.5242474
1005 0.28349352 -0.07234703 0.5683184 0.15895846 -0.5517581 0.6449335 -0.2928377 0.49987411 -0.5998812 0.66137373 -0.6977595 0.20471548 0.38829383 0.6595984 0.15205088 0.05660411 0.28254727 0.22653423 -0.043637846 -0.39497685 -0.20823786 0.31951863 -0.10241955 0.25799897 0.45898274 0.4501607 0.6771524 -0.7153449 0.5354551 -0.21615535 -0.07508254 -0.25787187
695 0.3499105 0.26247132 0.6158122 0.5219067 -0.2379517 0.2863814 -0.3475075 0.33516634 -0.64481825 0.43617147 -0.9335782 0.11780199 0.51486355 1.252538 -0.1394627 0.11388329 0.11982272 0.0673205 0.10371456 -0.1288809 -0.4743047 0.38869002 -0.29804277 0.012465428 0.4766366 0.8204663 0.067283735 -0.7944431 0.7778577 -0.32890692 0.13164715 -0.28663048
700 0.63953394 0.5139683 0.79618436 0.6393648 -0.20848317 0.40620723 -0.108048655 0.07481757 -0.52191687 0.72810197 -0.61787987 0.18299654 0.41735753 0.68022907 -0.1678417 -0.39270008 0.15979943 -0.0024739057 0.5332546 0.06940654 -0.78149205 0.6015331 -0.3615639 0.21506484 0.3417567 0.51111513 0.1673744 -0.8274326 0.6615648 -0.14978142 -0.22255357 -0.27579725
714 -0.20166881 -0.08013477 0.1908047 0.20234486 -0.40020633 0.75735563 -0.8350709 -0.015551636 -0.32273757 0.44622752 -0.03638508 0.05834302 -0.110688075 0.81369686 0.43738815 -0.42014906 0.047175508 0.36301947 -0.23527402 -0.13745368 -0.06171391 -0.03754577 0.31605783 0.05227269 0.60272545 -0.06428849 1.1221054 -0.50104314 0.198952 0.0044946074 -0.7834711 -0.6402478
722 0.25341597 0.3384234 0.9440627 0.48360807 -0.5711951 0.39313805 -0.56192994 0.32021493 -0.6931239 0.5853804 -0.70069164 -0.12517466 0.40072992 1.204526 -0.25768504 -0.11867208 0.2755688 0.22197285 0.019326495 -0.23258246 -0.36485574 0.95828384 -0.4406121 0.093558475 0.36192122 0.6822634 0.23757492 -0.7131359 0.69199914 -0.14490658 0.3363247 -0.31073183
663 0.5321416 -0.0023782938 0.62409365 0.18280546 -0.17013875 0.49122977 -0.3624646 -0.18326727 -0.74230945 0.8361191 -0.6018897 -0.10119616 0.4510402 0.99101025 -0.7234299 0.17654638 0.43875778 -0.031260863 0.037998118 -0.48326123 -0.50173914 0.6165542 -0.090204775 -0.053449642 0.25188327 0.66619235 0.09526016 -0.40020153 0.45755333 -0.4480233 -0.20909743 0.25955808
788 0.74633354 0.21522045 0.5529066 0.27174175 -0.6347971 0.4987011 -0.7480809 0.26086667 -0.48556647 0.7015944 -1.0690359 -0.124698386 0.25439185 0.9501743 -0.038219348 0.12629886 0.06331001 0.29497835 0.18488848 -0.30478358 -0.536638 0.76278925 -0.17386387 0.12263806 0.06973556 0.7334839 0.33733973 -0.9282018 0.8418843 -0.06854409 0.10814264 -0.19322526
1018 0.17136925 -0.28549597 0.6536141 -0.39638388 -0.26972032 1.074401 -0.08430954 0.8382966 -0.8410764 1.0814282 -0.8756488 -0.13161749 -0.050368782 0.50039095 -0.2753861 0.0761528 0.36295062 0.20223619 0.28759784 -0.531377 -0.2688728 -0.1896261 -0.21907394 0.07829371 0.4101936 0.9155667 0.7113065 -0.374058 0.44130087 -0.16776559 -0.3620292 -0.045609225
509 -0.6395871 -0.05925566 -0.36762556 0.05440132 -0.21277215 0.5470733 -0.63589084 0.54952127 -0.56565726 0.08843009 0.3948415 0.54701966 0.386788 0.31564587 0.05969947 -0.08098956 0.4318976 -0.2391629 0.10367499 -0.17771876 0.18026708 0.29866466 0.08781483 0.38387755 0.49989572 -0.0040244833 0.5665727 0.17892143 0.52904445 0.07043897 -0.47425523 -0.16156936
811 0.44465584 0.26256022 0.69849235 0.47927496 -0.5083817 0.79206824 -0.282058 0.28758097 -0.62895834 0.4654585 -0.81802213 -0.038072255 0.4661017 1.1199478 -0.40076202 -0.050731663 -0.12376402 0.018904872 -0.042787924 0.010792906 -0.39566022 0.369158 0.09851525 0.23509401 0.25220373 0.7971285 0.28666463 -0.47026807 0.4300619 -0.13194036 0.108664185 -0.32461196
1481 0.39988366 0.3746024 0.37112048 0.23688747 -0.4134397 -0.079449005 -0.07482716 0.20735157 -0.18894456 0.87486386 -0.6670932 0.74263704 0.41995794 0.4266482 0.39910075 0.10027107 0.8113284 0.4761456 0.31959888 -0.41861096 -0.2237977 -0.071963355 -0.39391816 0.89389735 0.0029504523 0.14344408 0.77057195 -0.7685296 0.8534644 -0.22139874 -0.020483859 -0.23318128
1891 -0.46572483 0.09421061 -0.3895098 0.7740665 0.6243132 1.0935789 0.14823759 -0.32251516 0.12293041 1.0020885 -0.34843603 0.30803505 -0.081787445 0.17106059 -0.15079497 -0.061712783 0.2206715 -0.58484197 -0.13475333 0.4613613 0.56205 -0.23973781 -0.13133967 -0.036282256 -0.23920019 0.9335671 0.7013625 -0.46477103 0.6798755 -0.6674471 -0.060506683 0.5068703
390 -0.1934714 0.31185147 -0.32543898 0.57226795 -0.6508124 0.6063437 -0.0782421 -0.015819363 -0.45488086 0.48068473 -0.7752778 0.33765858 0.33190677 -0.11119732 0.22078128 -0.65957236 0.6328067 -0.17793785 0.20389941 0.27236843 -0.34282258 0.4916764 0.21431284 0.1701194 -0.10888061 0.8562695 0.015068081 0.29148832 0.19327757 0.09537159 -0.19653109 -0.46019444
277 -0.52094185 0.2034036 -0.5077495 0.7100265 -0.17751372 0.46894997 0.12401647 -0.39519668 -0.9663353 0.24666868 -0.094181806 0.41966906 0.34892708 -0.10090824 -0.04486012 -0.034779273 0.2760887 -0.13875979 0.40232894 0.06692806 -0.17551829 -0.0457901 -0.20320298 0.23288868 -0.08467143 0.38641733 0.1145203 0.120218895 0.44306225 -0.2919238 -0.40305746 -0.56388223
434 -0.33903778 0.058648255 -0.51589954 0.49802077 -0.42384017 0.32511523 -0.5718226 0.027956646 -0.2456007 0.13953887 -0.88615245 0.59622073 0.4035423 -0.12399589 -0.4056148 -0.846677 0.56143147 0.08212063 0.72306186 0.20697019 0.12418471 0.3420176 0.198652 0.046921752 -0.12414242 0.42346293 0.55545455 0.4512898 0.4597393 -0.08101336 -0.5046492 -0.48368034
960 -0.3350517 -0.0029716992 0.40402785 0.35165048 -0.22436947 0.23566926 -0.2643822 0.024299504 0.16493255 0.88918173 -0.124085605 0.35289183 -0.012860636 0.25458112 -0.03792206 -0.5129929 0.8913445 -0.18051338 -0.17619342 0.6410743 -0.46560037 0.5124652 0.21323378 0.104571864 -0.39461824 1.2910165 -0.5534198 -0.18704583 -0.08645734 -0.26903912 -0.58130944 -0.2314613
475 -0.2903105 0.51222175 -0.42896077 0.3760968 -0.5139135 0.7587204 -0.50194955 0.1129858 -0.34563226 0.13413645 -0.31934696 0.8266305 0.39953172 0.042863663 0.17076409 -0.5377521 -0.08058393 -0.22131841 -0.034742806 -0.03351084 0.08442575 -0.16322361 0.25313848 0.28347328 -0.1564566 0.68848944 -0.2480678 0.4173785 0.2099775 0.419848 -0.76868474 -0.28727323
346 0.113345936 0.48150766 -0.55644673 0.45026872 -0.21059954 0.53686184 -0.5549887 -0.11166607 -0.7224346 0.35548332 -1.3275012 0.108178146 0.010292185 -0.21560226 0.42371073 -0.9891978 0.3240019 -0.00955265 0.027972944 -0.09795197 0.0666159 0.63576293 -0.14578156 -0.08014781 0.0009329449 0.07635905 0.13019155 -0.46136117 0.79728776 -0.18441859 -4.5809153e-05 -0.65236825
1716 -0.605839 1.0999471 -0.06091278 0.5880559 0.09126314 -0.217472 -0.06312915 0.51410675 -1.1028054 0.37617958 -0.56810397 0.2680999 -0.73573065 0.696148 0.084158555 0.21335733 0.27291945 -0.50389946 0.016011743 -0.3099169 -0.46973258 0.14542258 0.108045615 0.06409483 0.4392602 -0.38930064 0.24737628 0.70551574 0.60623443 0.18155494 -0.12688348 0.47914237
1717 -0.3647441 0.82966894 -0.04924697 0.4478052 -0.22658958 -0.4333396 -0.078654386 0.23391043 -0.7710782 -0.25946268 -0.7244958 0.48034203 -0.7888861 0.5299888 -0.1319427 -0.080896504 -0.09133415 -0.319818 0.037540294 0.47559738 -0.34215215 -0.18300363 0.26198328 -0.14512978 0.45891288 0.0414696 0.20396526 0.38159457 0.59388274 -0.33663464 -0.35008043 0.24789385
1718 -0.5602646 0.77311665 -0.057604596 0.06759102 0.26547945 -0.026505401 -0.18903482 0.25840548 -1.3410938 -0.11668428 -0.65768725 0.13520578 -0.81946653 0.9827447 0.13481598 0.29462677 0.21651533 -0.14573379 -0.32698107 -0.29332718 -0.4468805 -0.16838057 0.33335137 0.32330146 0.53664213 -0.21757846 0.23707464 0.6010587 0.7889598 -0.36897263 -0.1072369 0.4302968
400 -0.7097278 0.51115525 -0.0634896 0.48046964 -0.12246804 0.2664854 0.051839184 0.033630073 -0.3749099 0.219652 -0.028987627 0.24342553 0.10454613 0.22817463 -0.3176748 0.74165446 -0.53894573 -0.16846599 0.06529189 -0.13234723 -0.75989264 0.05112366 0.029279472 -0.20254612 -0.2665269 -0.22313994 0.16389331 0.11770415 0.66689044 0.33701825 -0.7398082 0.05163791
410 -0.5560813 0.13990597 -0.26416254 0.6106863 -0.13604228 -0.127685 -0.0006284966 0.371055 -1.0003839 0.3787766 -0.28599715 -0.12746952 -0.71832037 -0.051267754 -0.5180083 0.22042985 0.33395618 -0.16861923 0.3678088 -0.1645752 -0.8693781 -0.09141943 -0.1552717 0.20146671 0.34884134 -0.116249464 -0.060787253 0.16946916 0.24228735 0.25583366 -0.55134284 0.13192548
2159 -0.082204305 1.1327466 -0.20017244 0.9963596 0.28808472 -0.2483711 -0.33199134 0.16690534 -0.18223184 0.96402323 0.0074777696 0.41038057 0.10975457 0.1161122 -0.26056215 0.61084825 0.7220375 0.22914734 -0.26206228 -0.101537794 -0.22125153 0.17561856 0.23758735 -0.31235304 0.15135442 -0.4314469 0.5596924 -0.10121517 -0.08832907 0.23207627 -0.11254687 -0.15777257
1745 -0.5096984 1.0727315 -0.011696283 0.30213445 -0.09396661 -0.1502095 0.07470302 0.36509684 -1.1231833 -0.012861812 -0.5724752 0.2757493 -0.75745755 0.7566176 0.089583725 0.26625866 0.065593265 -0.4607605 -0.17150776 -0.24601454 -0.5837591 -0.090397455 0.1826408 0.08744813 0.7224796 -0.01199415 0.28883788 0.37000155 0.85001373 0.117722705 -0.033532374 0.46549508
1765 -0.4345088 0.98096883 -0.008188462 -0.027696373 0.17127994 -0.13711263 0.07290729 0.28516263 -0.91986614 0.3381189 -1.052168 0.12831594 -0.7045463 0.8518675 -0.2501488 0.5123613 0.15303984 -0.57885206 -0.06053036 -0.16710421 -0.56041795 -0.36995882 0.47367042 -0.067279525 0.508931 -0.10871872 0.021941802 0.594779 0.61301273 -0.021090757 -0.18374892 0.2895451
1799 -0.48149145 1.0163851 0.07878123 0.3876389 0.080040365 -0.07510746 0.20341444 0.32227018 -1.3847723 0.15102614 -0.7565874 0.3755847 -0.9503925 0.8837898 -0.12394111 0.17014682 -0.058685347 -0.6031862 -0.33114895 -0.36324593 -0.24271742 -0.079750836 0.38860205 0.27250746 0.6366638 0.098242365 0.25875893 0.7258981 0.5572776 -0.16490865 -0.18343006 0.48934373
1805 -0.8127823 1.3634621 0.04376667 -0.006864514 0.22113793 -0.243683 -0.037580807 0.21917742 -1.2606575 0.06416502 -1.1126138 0.29756495 -0.8800931 0.8254755 -0.20087375 0.26584864 0.10251183 -0.64652884 -0.29022732 0.078254715 -0.36397666 -0.33468956 0.06657532 0.34297088 0.4314323 -0.18051313 -0.08797911 0.55100137 0.33671805 0.15288132 -0.0943424 0.2930225
1815 -0.72769 0.81165135 0.026201772 0.20582598 0.07806105 -0.082143076 0.0258214 0.5387278 -1.1589785 0.14619534 -0.7920038 0.18864341 -0.94214547 0.705441 -0.006663434 0.3605511 -0.15404586 -0.30541837 0.13445252 -0.031834505 -0.52128744 0.0709117 0.31849128 0.26916754 0.4357496 -0.097180665 0.13095124 0.5131309 0.4447914 -0.088762164 -0.33284596 0.49818593
1829 -0.71076614 0.9823166 -0.090970665 0.27732313 0.10004663 0.0062464667 -0.030427452 0.2650758 -1.2150481 0.13614483 -0.94939876 0.21414055 -0.87507766 0.8863156 -0.0089348005 0.24759217 0.12587143 -0.51917535 -0.10424944 -0.170684 -0.32908005 -0.06377262 0.21421745 0.17115156 0.7071043 -0.02351116 -0.058050368 0.68497676 0.6170734 0.077427916 -0.11731625 0.48005664
1840 -0.770615 0.9428893 0.047436487 0.058858305 0.40366998 -0.07397808 -0.0038908082 0.344615 -1.248899 0.15092395 -0.7930728 0.27825704 -0.8431825 0.9189751 0.19759366 0.2505234 -0.15146306 -0.42936382 -0.02499727 0.1868109 -0.28625762 -0.047514003 0.09540729 0.21831785 0.48614782 -0.29832396 0.16130425 0.48456666 0.7918313 -0.22141543 -0.018571462 0.25648052
1855 -0.5275174 1.1236008 -0.17203628 0.21946315 0.16601343 -0.14660233 -0.038886413 0.43959653 -1.2152562 0.14091733 -1.0176073 0.30026105 -0.8813634 0.79863113 -0.06271832 0.18739383 0.1973758 -0.5929941 -0.082954705 -0.22299565 -0.41607744 -0.18582416 0.17625152 0.11686575 0.7727073 -0.011053959 0.14255664 0.69618034 0.6979771 -0.21586038 -0.10503615 0.5092207
1865 -0.6537058 1.2041489 0.007827719 0.21600352 0.13663511 -0.13706797 -0.0043801144 0.4753533 -1.2707622 0.0022908878 -0.92637485 0.36676726 -0.9695761 0.7567302 -0.0011738092 0.19130543 0.019498387 -0.49243355 -0.2524824 -0.21718024 -0.5205075 -0.07208812 0.2943619 0.14327525 0.77318937 0.038641747 0.04569964 0.6914036 0.5004116 -0.18164833 -0.21791957 0.4576324
1783 -0.63754606 0.68829674 -0.106974885 0.6991133 -0.19037521 -0.17743841 0.37102455 0.4855638 -1.1345097 0.096828446 -0.8637358 0.4496315 -0.6512816 0.8620472 -0.008299795 0.23350841 -0.1992114 -0.45199686 0.08836303 -0.24361818 -0.50915277 0.0328841 -0.038472008 -0.038730223 0.8531898 0.05441569 0.0020276809 0.30104333 0.9756773 -0.0021952782 0.10874191 0.014203238
902 0.5332527 0.17041808 0.35110682 0.7863069 -0.57295984 0.6047998 0.5623183 0.067320034 0.4951994 0.13546643 -0.21028963 0.7220116 -0.40481785 0.11089855 -0.73853505 -0.10036087 0.4972889 -0.01949234 0.16778146 0.5152622 -0.13064912 0.18817171 -0.29843584 0.13196397 -0.05757399 0.38799274 -0.4776541 0.42832035 0.51528376 -0.23168229 -1.1701204 0.3906305
1247 0.6741182 0.2141893 -0.053881768 0.8304119 -0.38351455 0.7635608 -0.1798012 -0.016136954 0.0725752 0.25487158 -0.49431354 0.80668133 -0.060189147 0.46418637 -0.29658562 0.0083552655 0.42504415 -0.48353773 -0.053944256 0.08101278 0.11856777 -0.035985786 -0.19935514 0.23774357 -0.5451907 0.28729644 -0.062941805 0.47545743 0.5238499 0.8421625 -1.1980541 0.31327787
933 0.60494494 0.3314464 0.4397666 0.20473678 -0.2659709 0.27755332 0.15172166 0.11560745 0.28935826 0.3310114 -0.29416415 0.8455297 0.18011078 0.0875715 -0.01696703 0.67376995 0.5763925 -0.33779344 0.15581697 0.32298473 0.13135724 0.61715555 -0.01664646 0.60621136 -0.1710227 0.5130266 -0.010811745 0.3476446 0.18491867 -0.45197812 -1.5072794 0.05694864
682 -0.030858153 0.25039378 0.3241012 0.05830832 -0.28438464 0.62080467 -0.118762344 -0.11843769 -0.101068564 0.4387706 0.34083825 -0.2769242 -0.17453709 0.29914266 -0.4587494 -0.47063527 0.51308924 0.5668933 0.09356671 -0.28871617 -0.68269944 0.63522893 0.018258965 -0.43915328 0.34554738 0.6136236 -0.0474921 0.42447317 0.19125044 -0.3407825 -0.92768717 0.022440577
23 -0.2611271 -0.04603284 0.6148732 0.17740318 -0.04553644 -0.15559147 -0.4046403 -0.39386702 -0.42518282 1.2901458 -0.29037887 -0.4940474 -0.42215762 0.27231324 0.20916827 -0.12109112 -0.060951374 0.32368305 -0.24765947 0.660342 0.19809383 -0.1867694 -0.090177566 0.69724834 0.16382745 -0.26931143 -0.3487323 0.28798518 0.73193157 0.08779936 -0.86284834 -0.8363463
391 -0.4137756 0.3272314 -0.11980576 -0.16144736 -0.7995042 -0.39657664 -0.284234 0.065695986 -0.3049079 0.9318715 -0.13205662 -0.18206209 -0.23936357 0.11984263 -0.45823494 -0.30468345 -0.08750631 0.020151507 -0.1735104 0.5316257 0.020474788 0.4239989 -0.6916426 0.42491853 -0.04910926 -0.18597335 0.0033959677 -0.60417306 0.34477535 0.274875 -0.6177587 -0.053162344
25 -0.2726807 -0.08768744 0.48326668 0.053292673 -0.55447245 -0.1692388 -0.5780706 0.22532558 -0.26807937 1.1087309 0.094010666 -0.37013313 -1.046642 0.036581732 0.19081919 -0.09017544 0.2614082 -0.17949098 -0.23583773 0.58512014 -0.6164265 -0.41336313 -0.13891539 0.47052118 0.4876152 -0.14640817 0.029980859 -0.0066586486 0.6920084 0.30908346 -0.7711726 -0.91289705
89 -0.03917993 -0.094206646 0.14782423 -0.37453285 -0.13043062 0.18706612 -0.64361197 -0.28119236 -0.3727946 1.04934 -0.49808463 -0.45862067 -0.18736836 0.297742 -0.6581331 -0.21325292 0.67325276 0.7954 -0.4094666 -0.14962366 -0.21006852 -0.6682029 -0.49146178 -0.27296168 0.34422478 0.22303572 -0.04822048 0.2921794 0.42576802 -0.33932164 -0.8315632 -0.08287487
980 -0.37251785 0.44966212 0.40252817 0.4896476 0.779181 0.20358539 0.19385831 0.19375668 0.12849534 0.67676175 0.14545901 -0.5618878 0.12929556 0.35238364 0.39282835 -0.42870453 0.28456068 0.40998995 0.03278517 0.14013 -0.23197487 0.3028791 -0.16715817 0.25445077 0.49288446 0.310942 -0.5247897 -0.03745269 0.7119187 0.06792321 -1.0735251 -0.7387484
1394 -0.089529276 0.65342253 0.27162656 -0.9939596 -0.3120733 0.312888 0.033293746 0.2465276 0.39591938 1.0793248 -0.023596838 0.17723954 -0.85667294 0.23976845 0.056529313 -0.14178853 1.104772 0.37569264 0.28074583 0.32345384 -0.8884504 0.9278341 0.5705111 -0.074047096 -0.5130129 1.1957223 -0.11706514 0.007720729 0.35408208 -0.2130526 -0.36371854 -0.40149963
1545 -0.0949656 1.0731344 0.5055575 -0.80748206 -0.13263404 0.01771651 -0.16528688 0.16011554 0.14169523 1.1921631 0.16390063 0.06661991 -1.1995622 0.06050237 -0.06916218 0.03460882 1.2514203 0.46075746 0.25139463 0.11160331 -0.73161304 0.885981 0.5391306 0.019009111 -0.4045191 1.0085541 -0.059584167 0.031519916 0.04549579 0.0039108037 -0.2673389 -0.22963995
887 0.306582 1.0766336 0.26232985 -0.73587 -0.3275702 0.23458783 -0.0758572 0.38504845 0.41952738 1.02909 -0.1695377 0.19183974 -1.1925465 -0.04470386 -0.15536882 -0.08455342 1.1078722 0.11721198 0.31305665 0.41737485 -0.8494738 0.9054415 0.4573501 0.15626666 -0.36441115 0.68437874 -0.19046612 0.014556011 0.024288647 -0.51357 -0.33378562 -0.15156482
893 0.012315276 0.92480266 0.30990368 -0.8861736 -0.056925833 0.2500436 -0.15527841 0.29701278 0.40940687 1.009604 0.10250424 0.21144499 -1.2349925 0.2668117 0.06440278 0.17915332 1.1727716 0.22507827 0.29124278 0.18913719 -0.8101139 0.58232576 0.4562371 0.1642397 -0.36049685 0.68472207 -0.31512213 -0.06330904 0.26076272 -0.35919106 -0.11623326 0.06549827
289 0.119473465 0.9546831 0.34058258 -0.91603166 -0.3416494 0.387719 0.042011432 0.0034426085 0.3869073 1.2632377 -0.16454794 0.18873812 -1.0150439 0.08525138 -0.04552811 0.008754477 1.1623446 0.3529031 0.34165263 0.27997288 -0.83555216 0.8395765 0.51756513 0.22096768 -0.29297286 0.77729934 -0.21682808 -0.06318829 -0.014826919 -0.1964086 -0.45187867 -0.14070462
931 0.19309498 0.7876515 0.11050442 -1.0483897 -0.14188085 0.38895097 -0.113202475 0.17953664 0.62358475 1.0781734 -0.029686512 0.07492579 -1.1183305 -0.0023542983 0.057215404 0.018056326 1.1456878 0.34705794 0.15924764 0.12618911 -0.644019 0.757681 0.3147465 0.10227957 -0.28195247 0.8223013 0.067393385 -0.0044757654 0.258342 -0.3124099 -0.2875839 -0.12968962
950 0.037052337 0.78958553 0.39961517 -0.86448866 -0.32037577 0.44866908 0.04706004 0.31832084 0.35700414 0.8599559 0.14921111 0.019724926 -0.92285526 0.17391588 -0.2009427 -0.22260246 1.033628 0.60455644 0.21007973 0.10062888 -1.1202972 0.8339793 0.29746613 -0.06823141 -0.11852521 0.95687973 -0.11169574 0.14558418 0.02314091 -0.09011877 -0.64045566 -0.106954105
975 -0.22961931 0.2866763 0.15884693 -0.8052094 -0.5613635 0.111817054 0.1344454 0.18081698 0.21394774 1.3255613 0.09773282 0.4037699 -0.72447985 0.3078502 -0.34566012 0.064469 1.0127282 0.22532094 0.3374531 0.39050123 -0.74286646 0.51899284 0.5542644 0.13315582 -0.39093038 0.90400845 0.020063277 0.08408738 -0.12391587 0.2464545 -0.28537652 -0.34047148
999 -0.004627359 0.78684664 0.3205942 -0.68162346 -0.30124804 0.4621295 0.070656255 0.27540028 0.5554001 1.0216362 -0.061307747 0.18853062 -0.7867545 0.12625419 -0.024524756 0.058132835 1.1701953 0.13624837 0.18818882 0.30605358 -0.72880334 0.77684027 0.5170788 -0.12927638 -0.32662708 1.0225452 0.0030413945 0.20837957 0.014102747 -0.27093586 -0.45479304 -0.13246502
955 0.23181757 0.8514527 0.53953946 -0.969332 -0.29470798 0.38989455 -0.02334998 0.12516554 0.4983096 1.1804372 0.039226558 0.2921957 -0.93769705 0.15149899 0.010556535 0.13622798 0.96696454 0.28246114 0.22941177 0.23479888 -0.96620977 0.6481187 0.8170699 0.3813557 -0.100995235 0.6852359 -0.22583586 -0.021212852 0.38040453 -0.037837878 -0.41511628 0.05741994
341 0.21468109 0.9702327 0.49488905 -0.8758381 -0.21424137 0.3647874 0.05046519 0.23032498 0.69028854 1.0792046 0.0059699737 0.31910375 -1.1085335 0.08960227 0.10632588 0.21925221 0.9190021 0.37603018 0.13922769 0.15479931 -0.85728854 0.6881692 0.39846838 0.30849722 -0.16238707 0.8300681 -0.2721033 -0.05851528 0.14812241 -0.026291735 -0.36997908 0.0068327473
1555 -0.43359807 1.1857347 1.1750553 0.058933545 -0.17761691 0.24305777 -0.1830435 -0.15424736 -0.64359456 0.008975543 -0.020142043 0.34080055 -0.8097882 1.4585545 -0.5683529 -0.26845375 0.490013 1.0713409 -0.16814321 -0.1630998 0.060422767 1.1947163 -0.5867306 -0.058816385 0.010664388 0.13865332 0.501427 0.3134899 0.19005917 -0.085048065 0.14525594 -0.4708407
1619 -0.55273896 1.4624465 1.3969004 -0.32605633 -0.1498656 0.20920324 -0.22586432 -0.044048972 -0.3428204 0.04528414 -0.26300114 0.8574143 -0.94281685 2.0215487 -0.2876486 -0.19543561 0.33443937 0.9098674 -0.21947244 0.19101776 -0.094973244 1.285926 -0.56272304 0.08735144 0.20035265 0.25170144 0.38073957 0.4055707 0.36977848 -0.07808689 0.3053145 -0.33565232
1575 -0.5888651 1.0887626 1.1711644 -0.35305205 -0.4542017 0.21729298 -0.3096381 -0.10345846 -0.17522337 0.23657368 -0.38297036 0.68459094 -0.9684151 1.6710223 -0.2851608 -0.075236216 0.6264396 1.1051778 -0.0502514 0.014421529 -0.019588623 1.356403 -0.5527383 -0.017452704 -0.07541122 0.07922011 0.280942 0.62762284 0.42295176 0.057402696 0.41788262 -0.20766698
1600 -0.2416326 1.0401978 1.3307425 0.4953788 -0.30300248 0.45728353 -0.51886517 -0.34184995 -0.76109284 -0.15800686 -0.3224973 0.21149847 -0.58821934 1.6571515 -0.40704682 -0.32845026 0.7145068 1.3628896 -0.16759795 -0.19661754 -0.176688 1.2835054 -0.95957595 -0.12839839 -0.07632584 0.248981 0.06488321 -0.049185243 0.43551952 -0.07848701 -0.0126359435 -0.12373805
1585 -0.48648167 1.0457007 1.4128346 0.21056215 -0.21681392 0.4246271 -0.34863406 -0.06645467 -0.3673481 0.0042038905 -0.4429158 0.43592775 -0.89467883 1.667273 -0.5567189 -0.25882617 0.77202326 1.1857008 -0.07449393 -0.23771966 -0.08206211 1.3263339 -0.6860343 -0.2718624 -0.0124964025 0.16860151 0.17706831 0.34612045 0.41024563 -0.07646053 0.17159672 -0.2094115
1565 0.06531702 0.7884285 1.2185158 0.26959538 -0.09090789 0.32875022 -0.007482948 -0.25673842 -0.88976616 0.06601845 0.026269408 0.29799733 -0.5083442 1.0069597 -0.7052839 -0.301092 0.8277309 1.1901138 0.00417766 -0.18087031 -0.117860444 1.0123926 -0.4949479 -0.27562836 0.04627465 0.047259003 0.14871435 -0.05490203 0.20977728 -0.2155894 -0.37350217 -0.1952487
27 -0.40283912 0.009552875 0.737467 -0.548364 -0.3193972 0.5060399 0.2847702 -0.5257293 0.24056749 0.5775416 -0.26670346 0.078931056 -0.30848032 0.11336053 -0.71481913 -0.047104694 -0.1733599 -0.7664557 -0.7841539 0.2083717 -0.51490235 -0.18777318 -0.04850071 0.43318373 0.30983785 0.06408285 0.34655058 -0.096370764 1.1710262 -0.11912158 -0.23539199 -0.4076216
43 -0.43356735 -0.3118216 0.3276974 -0.082326524 -0.3500572 0.35887367 -0.28081632 -0.599665 0.012113495 0.78567725 -0.100424014 -0.036838233 -0.7283986 0.381412 -0.093901254 -0.13383564 -0.28768888 -0.057466287 -0.31237864 0.40969676 -0.5092983 -0.32710534 -0.45906582 0.2496014 0.317203 -0.026287274 0.27261326 -0.048493937 0.89673805 0.030907258 -0.33690417 -0.49524894
60 -0.50119466 0.3392565 0.4177123 -0.03350529 -0.455051 0.3802756 0.3880376 -0.24412332 0.2585568 0.42044002 -0.3621797 0.08622564 -0.3772109 -0.11964386 -0.49367836 -0.015552808 -0.27630132 -0.5988007 -1.0205115 0.3232929 -0.54844666 -0.19917527 0.14652109 0.19813466 0.36922473 0.22099344 0.4779264 0.07835369 1.0913638 -0.050523642 0.063411795 -0.2377647
85 -0.89473796 -0.25513253 0.11973182 -0.08085266 -0.39949033 0.41519186 -0.013452586 -0.97672504 0.12536116 0.6332974 0.037859913 0.2472294 -0.59225583 0.6262672 -0.14814574 -0.012294189 -0.32530296 -0.4054469 -0.25752318 0.31585652 -0.51131594 -0.300767 -0.7155323 0.13722774 0.22615309 0.004415867 0.381687 -0.42561898 0.94641405 0.03445737 -0.3529193 -0.8541139
160 -0.44345003 0.42799512 0.04400775 -0.9174734 -0.2908564 0.0047806944 -0.10928867 -0.3602981 0.06423175 0.8177728 0.16055122 -0.022485375 -0.49925652 0.31531152 -0.08914183 0.0941869 -0.15604089 -0.38992453 0.010630989 0.3106305 -0.12172447 -0.48662075 -0.51296985 0.3985131 0.034513347 -0.019982537 0.1092688 -0.46197864 0.88600665 0.5312739 -0.5957187 -0.8379076
216 0.4245054 0.16019422 -0.043871775 -0.5085864 0.16893966 0.47552204 -0.38695198 -0.14763667 -0.4087625 0.91729546 -0.5341464 -0.13319297 -0.52441233 0.20702316 -0.70000213 0.26199803 0.18541037 0.14105183 -0.26111537 -0.24927263 -0.16536064 -0.32411718 -1.1924887 -0.35588598 0.57800394 0.5232789 -0.0008992483 -0.09315106 0.5544753 -0.22285296 -0.59960246 0.23910102
31 -0.056320317 -0.20891175 -0.10741308 -0.6554685 -0.16967767 0.82965434 -0.33818483 -0.0706562 -0.39765543 0.77542967 -0.54287386 -0.2738998 -0.5590664 -0.11723541 -0.46493325 -0.08758385 0.14138204 -0.004963943 -0.06081643 -0.5279937 -0.59234625 -0.23170444 -0.5469103 0.14077084 0.022471605 0.18692845 0.15658775 0.15004542 0.5843811 -0.25237012 -0.63421804 -0.038209133
69 -0.16261777 -0.17988205 -0.2039832 -0.016083492 0.11369443 0.44912878 0.06235862 -0.5069551 0.14515562 0.6926645 -0.53255886 -0.12098797 -0.5727201 0.30972534 -0.36813846 0.06849705 0.17828932 0.09027294 -0.07115299 0.24794045 0.07802455 -0.7222148 -0.82974535 -0.30901763 0.05555312 0.39483494 0.29436132 -0.5392721 0.66352326 -0.58466935 -0.5872343 -0.057790965
70 0.037544936 0.020945821 0.19097628 -0.6026003 0.045872055 0.6220599 -0.22968109 -0.108265124 -0.10142774 0.87324446 -0.6713047 -0.33317065 -0.42353866 0.3013758 -0.8876686 -0.10203604 0.33594167 -0.001366897 -0.22525686 -0.3026566 -0.24251017 -0.6742846 -0.85325146 0.08420283 0.3605607 0.51732284 0.11454141 0.08153529 0.62100935 -0.38185582 -0.6411451 0.46817657
221 -0.0793207 -0.11961083 -0.09591065 -0.931961 -0.117617026 0.62007946 -0.21840385 0.025316173 -0.5412373 0.9715517 -0.62434113 -0.34419942 -0.413433 0.46430525 -0.57040995 0.018220376 0.48941076 -0.03590789 -0.14931266 -0.30877393 0.13517287 -0.6409561 -0.7589286 -0.008903393 0.15513763 0.7398727 0.2044896 -0.122655526 0.56749284 -0.19401377 -0.64917046 0.2601751
222 0.13063146 0.22988509 -0.13964756 -0.7676889 0.21405865 0.71343 -0.5433885 -0.14714761 -0.04408478 1.0005299 -0.9146135 -0.16055849 -0.5175886 -0.042110227 -0.8814118 0.35834387 0.5955973 0.088862404 -0.21785888 -0.2880479 -0.2789809 -0.34591562 -0.48891228 -0.5968491 0.2805265 0.3638944 0.1748185 0.22697523 0.43277293 0.17917179 -0.47606698 0.30380177
223 0.23690851 0.1577694 0.0009145676 -0.59963053 -0.052546076 0.8644723 -0.16958135 -0.03845433 0.014028515 0.8158852 -0.94728947 -0.20109402 -0.61872 -0.08668965 -0.5652453 0.28007254 0.3528675 0.26820368 -0.27008146 -0.08966022 0.031618502 -0.34754324 -0.89975333 -0.34999663 0.25276616 0.5410931 0.2889453 0.03380906 0.56616664 -0.23823637 -0.53759533 0.1300393
666 0.4767426 0.599912 -0.33075848 0.20253406 -0.17417951 0.41004455 -0.106716685 0.14014764 -0.47844002 0.5337339 -0.1735323 -0.6555192 -0.21757989 0.6255906 -0.7292908 0.047446407 -0.18055929 0.07225807 -0.18328132 -0.18905786 -0.32710263 0.2135426 -0.8256018 -0.2386464 0.38381895 0.5116535 0.27302164 0.23112538 0.60327464 -0.47718856 -0.29026172 0.6804276
124 -0.032491453 -0.03297054 0.49936503 -0.43655372 -0.05488626 0.43010297 -0.58420634 -0.065753505 0.1492248 1.0588715 -0.80707556 -0.0064992965 -0.34570843 -0.088248655 -0.91520727 0.035957336 0.18302265 -0.20429203 -0.5119333 -0.026491238 -0.15159601 -0.47048858 -0.48483115 -0.15367708 0.18621598 0.12531589 0.054270033 0.06625491 0.8831714 -0.0060314215 -0.41357172 0.4433614
234 -0.068833716 0.14521568 0.023238234 -0.79936945 -0.17341495 0.5564431 -0.41330943 -0.17591329 -0.10487647 0.92990774 -0.73868203 -0.15872663 -0.2982926 0.034233518 -0.7748696 -0.009750722 0.4473665 0.2799211 -0.2264255 -0.19257364 -0.22747725 -0.5577251 -0.84197146 -0.2401087 0.39582646 0.5120393 0.10417295 0.20382947 0.45767027 -0.22172798 -0.57549006 0.13461088
142 0.36366805 -0.08198352 -0.0071426104 -0.7985858 0.13892873 0.51183486 -0.36897084 -0.089310974 -0.32718313 0.68673927 -0.5012306 -0.16647013 -0.63752955 0.24560273 -0.7578393 -0.18922515 0.27847546 -0.104861796 -0.3679455 -0.5204795 -0.39433166 -0.38053513 -1.0480013 0.05005933 0.27287522 0.58349675 -0.07368605 -0.1037286 0.81526893 -0.20597287 -0.74120545 0.22585456
247 0.23462391 0.5697224 -0.49271318 -0.85118246 -0.42376608 0.32725736 -0.9194562 -0.21409741 -0.1263911 0.7766557 -0.3861972 0.17509972 -0.39110652 0.011034129 -0.67066693 0.4160013 0.16255964 0.15640785 -0.11433456 0.113507524 -0.09178411 -0.44717532 -0.5820618 -0.16534352 0.25809303 0.3971074 0.3416495 0.1257249 -0.023812504 -0.29881772 -0.27718776 0.053247448
399 -0.49132076 0.19631363 -0.38096732 0.98615605 -0.08993187 0.08632584 -0.212852 0.48355255 -0.1251913 0.06067983 -0.56876415 -0.17124602 -0.095938586 -0.35477874 -0.4678815 0.5759322 0.5938091 0.33134338 0.1688113 0.6895469 -0.5558679 0.02666612 -0.48958114 0.09595877 0.18514805 0.018065173 0.18199714 0.64114285 0.23809066 -0.34413567 -0.61947054 -0.6744885
416 -0.3990706 0.035608254 -0.37517598 0.6761649 -0.15815923 0.08903827 0.5208767 0.54387 -0.69324094 0.2257729 -0.2880738 0.35476014 -0.70677096 -0.27841693 -0.5135339 0.042759392 0.44133332 -0.3418442 0.37006432 -0.1356959 -0.69453853 -0.23575918 -0.18199244 -0.2396696 0.0012730183 -0.30560952 -0.013718505 0.06760328 0.6131496 0.021026399 -1.1301805 0.087698594
1497 -0.5986191 0.88307256 0.49098304 -0.10550361 -0.05734204 0.40639824 0.43136093 0.12075762 -0.5797459 -0.00012123677 -0.40693355 0.49237198 -0.25084606 0.43920833 -0.073159695 0.37159014 -0.3576833 -0.19613199 -0.15796076 0.59905076 -0.51904124 0.005860916 -0.18833904 0.012660448 0.06553742 -0.7494518 -0.4450334 0.07618076 0.836826 -0.062045466 -0.09273575 -0.63204336
1498 -0.12696995 1.2171847 0.5126585 -0.4772792 -0.15473327 0.5502381 -0.3832789 0.6442503 -0.17736955 -0.042539865 -0.109409235 0.03177539 -0.19482991 0.3421654 -0.8166481 0.46985808 -0.55694133 0.2868374 0.40244263 0.46859488 -0.22408532 -0.028227713 0.29556116 0.18652213 -0.22488172 -0.5959819 -0.122091755 0.17409998 0.8150986 0.056548864 -0.040909417 -0.7242108
1509 -0.15986358 0.72973436 -0.1418691 0.4014872 -0.4908261 0.7619441 -0.5674448 0.50839627 0.02041128 -0.18712781 0.10765867 -0.11818392 -0.31183833 0.4669142 -0.76267517 0.7053321 -0.07673253 0.3136557 0.4506659 -0.041654237 -0.40335238 -0.07939964 0.09470605 0.07473837 0.17672715 -0.122333705 -0.10809376 -0.84943086 0.11008703 0.28866944 -0.5784985 -0.3650698
885 -1.0541645 0.7391684 0.20349905 0.10997442 -0.02487696 0.44053173 -0.09363013 0.1322292 -0.43883666 0.45782965 -0.49158126 0.17404297 0.3599085 0.35163176 -0.42363614 1.0520428 -0.7572332 -0.21479957 0.10208521 -0.18664089 -0.8689921 0.347974 0.06539551 -0.5648819 -0.5349966 -0.17905894 0.5384986 -0.41070384 0.8655403 0.5792129 -0.8666295 0.21921286
525 -0.2297581 0.23260812 0.001356273 0.8492399 0.20831445 -0.06412086 0.3574711 0.18807547 -0.46657178 0.3107912 -0.08309896 0.22900236 -0.06073985 0.3712583 -0.19705766 0.18682507 -0.1486347 -0.061568566 0.17208605 0.23129663 -0.48567343 0.09624839 -0.49048 0.116537936 0.49877426 0.3721572 -0.08577078 -0.49924663 0.91654223 -0.06629074 0.040896803 -0.5140753
2312 -0.7568305 0.9576484 -0.2880201 0.57269955 -0.101487875 0.3706307 0.3298845 0.058817286 0.2562288 -0.09599544 -0.24953666 -0.53089553 -0.2236573 0.7152393 -0.39366233 0.27643958 0.44539708 0.56282586 0.46337923 -0.43582323 -0.5117319 0.3081713 0.042155094 0.39264256 -0.19793852 -0.15458578 0.17600982 -0.32347706 0.49965444 0.7456896 -0.5158263 -0.017429037
14 -0.5564453 0.49133444 0.34571978 -0.18246756 -0.7388525 -0.28725037 0.032581728 -0.78602785 -0.084177986 1.1017786 0.23568012 0.061280273 -0.23274834 0.472955 -0.037501562 -0.035642665 0.09974523 -0.63134694 -0.045112807 0.18722275 0.017711682 -0.34937975 -0.42380556 0.37866434 0.16929665 -0.15092413 0.23352739 -0.67211264 0.7062717 0.069536276 -0.92763025 -0.087085925
30 -0.68935233 -0.19746016 -0.40121564 0.25250012 -0.0492137 0.17919216 -0.16832025 -1.3716375 0.27885997 0.6760142 -0.29448253 -0.17740847 -0.94114804 0.49424505 -0.3930249 0.19146594 -0.06591523 0.17744298 -0.045327734 0.29821366 -0.22849657 -0.4638169 -0.38597044 0.086054355 0.56814796 -0.073719345 0.39762262 -0.3748256 0.819125 -0.0644345 -0.47558686 -0.63529325
41 -0.28452796 -0.10183076 0.38567272 0.42183784 0.0279625 0.22735614 0.19808254 -0.30269843 -0.31078878 0.89449954 -0.184149 -0.27563697 -0.59501886 0.5555749 0.30269688 0.116091676 0.0167432 0.56402 0.09071242 0.70247835 -0.36108455 -0.6321107 -0.3888676 0.3273387 -0.053982027 -0.081944615 0.25742722 0.10841205 0.869906 0.0047389646 -0.5004368 -0.40253344
49 -0.6281097 -0.25828898 0.3010778 -0.019267507 -0.42195368 0.6333298 -0.78023434 -0.23999736 0.14171694 0.59884673 0.06832079 -0.041322507 -0.57385206 0.56926185 0.42899108 -0.13690774 0.058061235 -0.060296513 -0.34872472 0.10574607 -0.58097035 -0.41823483 -0.32255626 -0.036497653 0.4007551 -0.0866946 0.94713247 -0.358869 0.51069015 -0.23690502 -0.985485 -0.72814
51 -0.31859574 0.022262227 -0.20187216 -0.8501821 -0.7454664 0.29415202 -0.37767607 -0.19368725 -0.26720458 0.40837222 0.39738062 0.01853445 -0.88490343 0.080867045 -0.15680383 0.18239638 0.06319202 -0.21359849 0.022290751 0.53715044 -0.69869006 -0.6673759 -0.5321932 0.76507854 0.6641635 0.3883749 -0.30798903 -0.008568871 0.952774 -0.048107486 -0.36501727 -0.101003096
52 -0.10241923 -0.28593165 0.5058927 -0.6902072 -0.1293156 0.29331967 -0.4014109 -0.35676914 -0.21423545 0.6366465 -0.65032583 -0.21510434 -0.4140897 0.4232227 -0.84626853 -0.17065227 0.20224024 -0.18993653 -0.1548866 -0.29952675 -0.3506597 -0.43271556 -0.8944926 0.15488976 0.29886347 0.6701167 -0.14820752 0.037871085 0.90473664 -0.13580899 -0.66695553 0.20540544
654 -0.09964425 -0.3065662 0.33890775 -0.43181378 -0.28098038 -0.06581449 -0.7972387 0.035895206 0.07894376 1.2032119 -0.1088165 -0.08254716 -1.0046014 0.0019670494 -0.34976354 0.27587304 0.20878421 -0.5933082 -0.33767015 -0.17431574 -0.7437302 -0.13829498 -0.6223218 0.3318591 0.022158774 0.39879024 -0.09504616 0.23914595 1.1943039 -0.045886282 0.057864275 0.0632775
58 -0.61950064 -0.29828325 0.43762976 0.23585479 -0.29556873 0.48359662 -0.4172167 -0.41636544 0.2795843 0.8810531 0.08407788 -0.17510381 -0.6964479 0.81249815 0.7082633 0.1681751 0.11789638 -0.050262116 -0.31215638 0.26064035 -0.7398384 -0.19687031 -0.45329657 0.0025993078 -0.3341492 0.663849 -0.11518639 -0.0354073 0.3142896 -0.41532484 -0.7061062 -0.36557376
76 -0.7074432 0.07040201 0.4142191 -0.5347023 -0.55031145 -0.060141392 -0.2923362 -0.3891855 -0.36691898 0.86402994 -0.59350455 -0.124616586 -0.4419466 0.029902494 -0.7460493 -0.16064897 -0.25460318 -0.033456188 0.0049043386 0.26086268 0.40482485 -0.1628834 -0.9129609 0.39979327 -0.14335212 0.27003345 0.02603325 -0.6365622 0.6054092 0.28905743 -0.66788757 0.22438893
77 -1.081196 -0.0022182933 -0.61171424 -0.21031387 -0.35775036 0.0943244 0.1544213 -0.59023106 0.20116572 0.8447103 -0.13665643 0.0072449245 -0.9316563 0.34897906 -0.026539912 0.21297292 -0.6023372 0.056257132 -0.15083478 -0.02276372 -0.438354 0.046799775 0.1170695 -0.25337914 0.54894626 -0.16280293 -0.13172562 -0.4571536 0.7854074 -0.24426024 -0.33641052 -0.9325806
1467 0.59902436 0.36223352 -0.30378214 -0.2867439 -0.6466932 0.22316684 -0.44168085 0.35823262 0.087242536 0.91241217 -0.8424419 0.44437325 -0.10096917 0.027466303 0.13857388 0.08953072 0.17200606 0.4452065 -0.30521688 -0.15919688 0.074448854 -0.007703959 -0.5068605 0.51102793 -0.20299397 -0.03383773 0.2629719 -0.42741916 0.65799004 0.13981885 -0.33889538 -0.23969992
397 -0.23143575 0.08491217 -0.18418406 0.036754124 0.22344656 0.2726509 0.27778313 0.18922666 -0.9913093 -0.062349692 0.070261165 0.42306265 -0.57470477 -0.17528975 -0.3925127 0.09401569 0.07242478 0.39497712 0.72621727 0.26742542 -0.40162972 -0.24375658 -0.20904079 0.751503 0.02275094 0.24911296 -0.054532617 0.21100032 0.38902622 -0.4145094 -0.60046804 -0.002910225
841 -0.48053586 -0.010051209 -0.4829884 -0.061812893 0.26296908 0.29666713 0.65441024 0.22611295 -1.1238433 0.2629297 0.2807726 0.81416917 -0.5016877 -0.40490815 -0.24275956 0.6403736 0.014105923 0.49397558 1.1320674 0.14420825 -0.3910534 0.012220884 -0.23685127 0.9177677 0.35653242 0.76221097 0.05270031 -0.06804104 0.8778638 -0.41609967 -0.6052778 -0.33660614
1746 -0.34581214 0.98865414 0.43207043 -0.31434754 0.69110775 0.42352864 0.35651475 0.7517365 -0.38695785 0.39065453 -0.2057207 0.514462 -0.061711203 0.03541178 0.09233698 -0.2107918 -0.14023274 0.094334476 0.49060845 0.47770256 0.008389652 -0.52801585 0.51052314 -0.07351462 0.06104052 0.3391517 -0.22568257 -0.458503 0.7192838 -0.84250736 -0.9528926 0.21644239
435 -0.28297892 -0.06486638 -0.41932553 0.207218 -0.097210854 0.48777834 0.31407833 -0.014845692 -0.7193198 0.25895512 0.32685387 0.80507964 -0.0047542457 -0.052164003 -0.09515754 0.092565425 0.29263842 0.24302226 0.8888889 0.36015528 -0.44763014 0.35350293 -0.018486077 0.67327034 0.56039184 0.4995313 0.30934936 0.0151260225 0.71871775 -0.38029853 -0.29433644 -0.17371768
464 -0.3361837 0.42025316 -0.55424887 -0.28399393 -0.56051207 0.24851967 -0.18798791 -0.14551926 -0.2808918 -0.30548608 0.098548025 0.84266037 -0.43361044 -0.033244103 -0.04613599 0.25067702 0.5777663 0.19624147 0.5635734 0.7898549 -0.5741938 -0.078416005 0.207786 0.88489544 0.65640926 0.59841 -0.003669988 0.029038148 0.3699746 -0.33571804 -0.26322135 0.18528295
1663 -0.28515524 1.0583268 0.5985839 0.09078453 0.09146517 -0.010640186 0.027942862 -0.32378727 -0.6365755 -0.022132525 0.52448404 0.024934035 -0.5193154 0.25705734 -0.6828662 0.5172623 0.47724995 0.4663402 0.1629783 0.12079236 0.12722518 0.44835788 -0.26588303 0.36642358 -0.604753 -0.036884777 -0.16421196 0.19475546 0.7656093 -0.24966374 -0.065510355 -0.22525091
485 -0.108193405 0.49505118 -0.54566514 0.082666025 -0.038011227 -0.13479298 0.049623244 0.076440364 -0.72647136 0.08471663 0.020329325 -0.12153894 -0.774541 0.28965697 -0.91101074 0.21978214 0.038604524 0.5064294 0.68316597 0.44837055 -0.29167852 0.27075726 0.10516189 0.64884883 0.32395336 -0.24737711 0.0258067 -0.43300775 0.10604657 0.6329697 -0.7780376 -0.30596712
984 0.18079904 -0.019931937 0.11200337 0.052285716 -0.46622556 0.23003615 0.14173652 -0.15056442 -0.49543297 -0.24781498 0.1963535 1.2328436 -0.2756735 0.06457594 0.053034745 0.24996507 0.6135797 -0.06605927 0.87667674 0.7323838 -0.28238246 0.32694128 -0.15998976 1.2563932 0.10089724 0.73700327 -0.2023503 0.2058763 0.65156627 -0.43991822 -1.0908531 0.1261066
623 0.015431384 0.15018287 -0.2909315 0.4184682 -0.14804094 0.4727805 -0.7600913 -0.16444217 -0.6170544 0.2935533 -0.14651714 0.8824407 -0.42298216 -0.27600494 0.02463336 -0.13976456 -0.066935636 0.70363915 0.25698447 -0.51318103 0.33452454 -0.66583914 0.06877258 1.2616388 -0.34127733 0.5060803 0.20751293 -0.11319289 0.1754193 -0.016668612 -0.45539686 -0.49970153
624 -0.629923 0.0062027536 0.06349825 0.17947997 0.3281346 0.49284217 -0.07145436 -0.430529 -0.17502847 0.2557992 -0.3355417 1.2029824 -0.7578632 -0.3686662 -0.31272075 -0.18794367 -0.3198176 0.24189322 -0.1863797 -0.33920395 -0.11261409 -0.02564109 0.06883582 1.2032722 -0.45643064 0.7524956 0.43878353 -0.033867173 -0.20944606 0.1080305 -0.82546663 -0.6337955
531 -0.5607886 0.38458854 -0.23045243 -0.032047693 -0.47098 0.27509612 0.10332697 -0.19786161 -0.24246567 -0.42772642 0.13928126 1.043354 -0.25662366 0.10620185 -0.15770502 0.1386147 0.7323463 0.13405962 0.27571312 0.60888356 -0.53917354 -0.45171708 -0.46495196 1.1576988 0.37492275 0.328396 -0.07689114 0.19009583 0.1873298 -0.87481505 -0.4674309 0.072290346
856 -0.18174012 0.69374204 0.2699001 0.82857454 0.19706844 0.74877465 -0.5025602 0.6762568 -0.19905052 -0.6772661 -1.0809368 0.030753922 -0.03352193 -0.56087667 -0.8639841 0.57970184 0.5109563 0.66168034 0.092453234 1.3069619 -0.5138205 0.49382126 -0.51255 0.27741712 -0.11309044 -0.24271043 0.053456616 -0.08911392 0.4175022 -0.33957824 -0.54750687 -0.9746619
2393 -0.30699757 1.22654 -0.08188014 0.9605725 0.14221744 0.59413254 -0.24501334 0.5834831 0.2609606 -0.26981965 -0.93939984 0.0035096249 0.20816638 -0.5995764 -0.9343621 0.81974995 0.23547742 0.83026487 0.123798974 1.1214647 -0.6227605 0.3428614 -0.49008617 0.7122824 0.20954673 -0.010668541 0.08883082 0.4695253 0.36252642 -0.3938674 -0.39963263 -0.7675018
1311 -0.1995864 0.874893 -0.11264093 1.093038 0.3417997 0.38410854 -0.5729826 0.5102514 -0.05609599 -0.4527271 -1.3383182 -0.03535154 0.15668343 -0.42024568 -0.8951962 0.73104846 0.4991926 0.7485475 0.029134423 1.1564206 -0.44719055 0.48694184 -0.64221793 0.27083766 0.1681904 -0.20688821 0.21833742 0.3355783 0.33295745 -0.43887475 -0.6330368 -0.93180794
0 -0.4825171 0.8885674 -0.21892136 0.97459656 0.4288189 0.19900198 -0.3629006 0.50325215 0.22695799 -0.20883499 -1.2303236 -0.25543118 0.18669175 -0.446684 -0.73961806 0.51951164 0.6775905 1.0179263 0.2545612 0.960457 -0.4588949 0.3843235 -0.54211074 0.48376146 0.116275206 -0.032509662 0.22916117 0.5409739 0.24503595 -0.60698783 -0.65890086 -0.86022395
496 0.0022101675 0.23434782 -0.25354403 -0.27675322 -0.8324495 -0.110805325 -0.288599 0.19175224 -0.19836293 0.3663363 0.23127319 0.19756462 -0.67425317 0.15566182 -0.16554709 0.32602617 0.32967547 -0.2927672 -0.14797375 0.19065583 -0.38943246 -0.20910197 -0.16903758 -0.050382435 0.47984177 -0.33899942 0.39767587 -0.39248368 0.22249925 0.30394974 -1.0484782 -0.80279744
1036 -0.08253414 0.66848594 -0.1597964 0.004916569 0.23127615 0.26124272 0.053740658 0.965331 0.4265731 0.9245981 -0.24697141 1.0036098 -0.1877787 0.28895825 -0.12606034 -0.70149964 0.30380633 0.3348756 0.016098341 0.30470502 0.54538697 -0.57322353 0.4174596 0.082438365 -0.25447887 -0.21442004 -0.73409975 -0.230783 1.0559986 -0.418805 -0.4703018 0.27753687
1064 0.30529568 -0.05308349 -0.68461806 -0.10722801 -0.2849303 0.14761701 0.3304784 0.54985714 0.21345797 0.66360176 0.26011822 0.955403 -0.45735672 0.15423974 -0.09629893 -0.21263656 0.29317936 0.15855402 -0.40807885 0.06411443 0.0046725045 -0.14694355 0.5175575 0.63924044 -0.3340511 0.49114823 -0.78094333 0.00036303815 1.3800594 -0.1922999 -0.27331463 0.53594005
2047 -0.19891778 0.42517257 0.02014994 0.47779733 0.45862758 0.95541036 0.31751093 1.2036564 0.2482543 1.5851799 -0.22004229 0.7550282 -0.119516276 0.75737333 -0.3740258 -0.77039635 0.62131274 0.17199527 -0.14230329 0.19071516 0.062052526 0.23539291 0.48014614 -0.2554332 -0.22431964 -0.76717865 -0.46508273 0.20802619 0.5185889 0.028627561 -0.3162124 0.09534591
1174 -0.20232889 0.07975243 -0.30881596 -0.077441074 -0.35498935 0.33383515 0.34147206 0.8418302 0.39634365 0.58004504 0.06408125 0.96430975 -0.78191787 0.60243315 -0.05634491 -1.2419944 0.6260892 0.14801939 -0.5110745 0.13653843 0.72061867 -0.09530163 0.4790287 0.26738703 -0.0025505268 0.15809354 -0.41143402 -0.059469663 1.1689271 -0.5461021 -0.41953957 0.16056514
1176 0.022224803 0.11504401 0.0016249104 0.4126824 -0.4374203 -0.105187766 0.19536489 0.28760415 0.42074597 0.44953838 0.2838257 1.2367023 -0.93172646 0.47248074 -0.4832689 -0.30480996 0.3529736 0.5453798 -0.6633669 0.32029158 0.555668 -0.30216056 0.28466877 -0.22985558 0.037941325 0.10936568 -0.7844206 -0.06277881 1.2022666 -0.24675027 -0.05398522 -0.20615633
1177 -0.14502677 0.50175244 -0.56613564 0.34224308 -0.29230002 0.21881877 0.45958695 0.3230631 0.5351319 0.52479166 0.008408106 0.91940767 -0.8662306 0.312859 -0.12096456 -0.33433515 0.67670065 0.34643582 -0.34322363 0.030785583 0.5923887 -0.14379248 0.35596552 -0.49462345 0.11133627 0.061794534 -0.8800187 -0.34128562 1.0660452 -0.32358524 -0.2797129 -0.33407024
2113 -0.19821319 1.4549093 0.8020352 0.48836738 0.3470446 0.34130046 -0.09443778 -0.2958733 -0.7363815 0.79608405 1.0391144 0.13191535 -0.41276285 0.23771366 -0.15882766 0.6073548 0.54249996 0.5110148 0.15505834 0.112834245 0.70429856 0.5117317 -0.01874343 0.25143144 -0.32531404 -0.2063138 -0.39765134 0.8370434 0.9103367 -0.40311068 -0.5713841 -0.007035311
2109 -0.42386124 1.8750994 0.8505818 0.4185548 0.33370832 0.3263327 0.3263851 -0.16355014 -0.7904145 1.2033376 0.938604 0.26799867 -0.15556224 0.1330013 -0.04802079 0.54735553 0.30733603 0.46459332 -0.2516023 0.09061626 0.70037436 0.7327979 0.22324406 0.15946005 0.094691105 -0.3490119 -0.29326418 0.620734 0.650415 -0.327941 -0.49710876 0.119516455
1157 0.38240498 1.1841462 0.4290207 0.47646475 0.44861883 0.37701702 -0.40335461 -0.5498997 -0.7960884 0.84560263 1.085464 0.42151675 -0.5594711 0.6022249 -0.12943338 0.5207652 0.6347394 0.08676185 0.13786468 -0.087609455 0.3414968 0.75911796 0.07144023 0.12206126 -0.20874506 -0.3541003 -0.50080794 1.216426 1.1138548 -0.59719115 -0.75974464 0.44830686
1673 -0.43053892 1.0617204 0.90687704 0.27516142 -0.1569325 -0.0427732 -0.00065586605 -0.057892326 -0.62141865 0.42927894 0.66165656 -0.21677215 -0.5029879 0.50178653 -0.009137294 0.5541178 0.37092718 0.57836163 0.3379677 0.1734972 0.37506777 0.065979786 -0.024240328 0.20052457 -0.47782627 0.24687974 0.06517688 0.37541983 0.8441077 -0.42978057 -0.27559033 -0.5318297
895 0.13925627 0.11897829 0.031083442 0.53129715 -0.021500345 0.33803806 -0.6335113 0.2212993 -0.22470506 0.65851307 -0.28224006 0.50663763 0.102725536 -0.59042406 -0.52489316 0.42064548 0.16526228 -0.08050566 -0.24586217 0.101826355 0.27390736 0.75237066 1.0112528 0.34231025 0.2591326 -0.66205794 -0.80259246 0.14549866 1.359084 -0.15435468 -0.90586376 0.18391156
1722 -0.52039105 0.78464603 -0.36685306 0.14672725 0.33823082 -0.18759294 -0.8530022 -0.29700878 -0.5526805 -0.37839773 -0.4599722 0.50032765 0.15047255 0.27608407 0.24328923 -0.40254644 -0.07223646 -0.23174351 -0.19761452 0.32300714 -0.06296882 -0.20801058 0.4117492 -0.32177898 0.4935672 0.9223974 -0.15841933 -0.037011757 0.6873205 -0.14042826 -0.91055334 -0.16851214
1848 -0.08688743 0.68699217 -0.32995716 0.21937263 0.2921805 0.76115453 -0.43964532 -0.3690484 -0.5108505 -0.5342664 -0.80730927 0.90300506 -0.120137095 0.45566663 -0.44019315 -0.3452898 0.10587762 -0.45899 0.16349302 0.21393383 0.54053766 -0.22312307 0.92954993 -0.53547794 0.3584672 0.24780546 0.6363462 -0.13273157 0.54170823 -0.3391861 -1.4448272 -0.11019806
1832 -0.82744545 0.5274779 -0.2332793 0.11802376 0.08263728 -0.24257343 -0.10193751 0.31786072 -0.1482886 -0.43095452 -0.68247515 0.39205495 0.3826665 0.8655937 -0.36312443 0.2183133 0.050507296 -0.28595498 0.53099287 0.09264823 -0.31792504 -0.31808507 0.13879338 0.3847354 0.32444462 0.67758054 0.13233921 0.0681812 0.5509585 -0.92931205 -0.6419544 0.32716125
1867 -0.13440868 1.0316181 -0.19516344 0.33740827 0.3971843 -0.21388537 -0.95604515 -0.5184628 -0.69895566 -0.20182596 -0.0030993011 0.7208075 -0.45456728 0.13219424 -0.19920324 -0.730451 -0.42109492 -0.0505822 -0.047679693 0.21760885 0.10524998 -0.34273392 0.16675273 -0.17239809 0.074104235 1.0662721 0.056699574 -0.18565577 0.07299941 -0.15741734 -0.8580708 -0.16794656
2330 -0.66341794 1.1588653 -0.06642642 0.55897486 -0.101527765 0.06755115 -0.19271052 -0.34568143 0.16005819 0.1338901 0.44748747 -0.42159188 -0.29297823 0.57058173 -0.2884294 0.022394277 0.49390808 0.13113466 0.39551604 -0.25073475 0.06427968 0.585648 -0.42338008 0.35938248 -0.17108677 -0.056234125 -0.025513876 0.29780674 0.819036 -0.15177967 0.04440174 0.084779866
1607 -0.70563716 0.92486024 0.38691744 0.44092315 0.07691166 -0.2807806 -0.040015914 -0.25738424 -0.30074105 -0.070526265 0.5645416 -0.12834606 0.0018434462 0.39017662 -0.80479527 0.3407163 0.32388172 -0.019537522 0.2500952 -0.339936 0.04866345 0.5623948 -0.5031434 0.14959063 0.21124363 0.608425 -0.03795103 -0.049691435 1.0288291 -0.3334556 -0.0783708 -0.2969533
433 -0.53785545 0.4473542 -0.24809028 0.0005370055 -0.27734792 0.25318643 0.15996934 -0.30739662 -0.36584246 -0.24304861 0.45772386 0.70432734 -0.12820485 0.17625675 -0.50617653 0.48249477 0.5639168 0.10204502 0.5115154 0.26752967 -0.092249975 -0.045408774 -0.5277726 0.7297151 0.51664644 0.5184106 0.3803547 0.090830475 0.5541338 -0.36484456 0.08552294 0.1285197
437 -0.09895458 0.7932194 0.48521888 0.40139267 -0.45062804 0.13908748 -0.26166093 -0.10551044 0.71336657 0.2674365 0.5972591 -0.20935203 -0.31036597 1.0279676 -0.5997894 -0.3640917 0.40708616 0.96360123 -0.13183364 -0.19206418 -0.03693784 0.58961165 -0.07224338 -0.29572812 0.19233178 0.41764525 0.2792541 0.2547437 1.1381842 -0.47366858 -0.049530108 0.63480014
1638 -0.269214 0.8231856 0.40818623 0.415929 -0.012920685 0.39752913 -0.07056711 -0.13565096 -0.26602125 -0.25461277 0.39730766 -0.4606177 -0.2678846 0.42872572 -0.5704124 0.37506476 0.55083 0.50433266 -0.04746646 -0.19217257 0.09601941 0.66381586 -0.15680847 0.11993956 -0.25898296 0.41044593 0.15857702 0.03657142 0.7532473 0.0070724334 -0.015876817 -0.44083765
1637 -0.76389456 0.8659426 0.71607494 0.16922414 -0.22607926 -0.23620394 -0.074226186 -0.26979405 -0.4805166 -0.337356 0.2592911 0.014189246 -0.2191266 0.28131384 -0.44221306 0.5351957 0.31028122 0.0067417705 0.17062652 0.036491357 0.115793414 0.87843657 -0.3900671 -0.06118814 -0.104057066 0.5056331 0.11665569 0.06442043 0.6101555 0.10620135 -0.71810657 -0.22765581
1658 -0.5971986 0.6599562 0.043724716 0.31228033 -0.11777172 0.26288018 -0.32716513 -0.2489692 -0.038187407 -0.1735507 0.50975263 -0.46917963 -0.21757126 0.59084135 -0.80069953 0.5774477 0.14482756 0.43255216 -0.047777906 -0.31394324 -0.02479911 0.44815242 -0.2649354 -0.004693708 0.006305707 0.43110514 0.20934677 0.086708814 0.8958242 -0.7244568 0.06723831 0.24781762
1645 -0.1565571 0.9088658 0.23008063 -0.1639124 -0.018212816 0.1411946 -0.34998873 -0.106598325 -0.49537775 0.29957572 0.3055884 -0.29532805 -0.7581379 0.1225117 -0.20383984 0.54241323 0.4631309 0.055174325 0.18076587 -0.6321906 -0.08903002 1.0516067 -0.084639944 -0.25342393 -0.46936858 0.49030542 -0.11440753 -0.33677855 0.6237056 -0.36727494 0.026003854 -0.25265178
1646 -0.41689238 1.2803402 0.42138752 -0.19320974 0.022565065 -0.2226284 0.011866926 0.2538741 -0.41153428 0.3262305 0.48957098 -0.20961274 -0.7921433 0.24407046 -0.043901764 0.38232848 0.79269576 0.38594666 -0.0025394366 0.106637836 -0.24738921 0.7585058 0.060982585 -0.19712432 -0.6551645 0.53562343 0.19558993 0.1886131 0.4459925 -0.1344325 -0.23314236 0.04737968
1648 -0.4439827 1.0703622 0.0068568136 0.29313767 -0.15179949 -0.085660964 -0.09496408 -0.087867394 -0.34620777 -0.18537576 0.3434514 -0.36240613 -0.40517047 0.64913434 -0.56709945 0.4255525 0.447521 0.52197254 0.14685124 -0.3351541 -0.06476052 0.3781078 -0.60510695 0.03997629 -0.17607278 0.35637784 -0.23424505 0.2837248 0.45326036 -0.1837783 -0.1712887 -0.052185666
1647 -0.8048638 1.0729854 0.5117187 0.44212115 -0.25796416 -0.4265745 -0.52830267 0.0079382965 -0.110317685 -0.10130062 0.049879275 -0.37360615 -0.41763464 0.30015123 -0.5494263 0.39229387 0.20776519 0.21527915 0.30757242 -0.07092421 0.3174076 0.52340835 -0.13315186 0.27633396 0.07661564 0.4579901 -0.02047804 -0.30313674 0.5994699 0.039140955 -0.13871475 0.08507243
1653 -0.2634776 1.1434559 0.48136383 0.33164954 0.113518596 -0.042140275 0.29840302 -0.3779548 -0.5295383 0.3210132 0.33985546 0.052734327 -0.8024078 0.5138789 -0.49616107 0.1453926 0.18976124 0.5663516 0.16045783 0.16296373 0.25690666 0.6086416 -0.15302734 0.05171775 -0.38511002 -0.14875469 0.36321294 0.07516694 0.017996335 -0.38012904 -0.34602717 -0.39830005
1660 -0.3372238 0.9680244 0.20322686 0.14460279 -0.20949025 0.08275916 -0.13958476 -0.35781237 -0.22955388 0.14624459 0.55945903 -0.4184158 -0.25795105 0.42096508 -0.5487296 0.25373864 0.21342872 0.20795523 -0.08790433 -0.21058814 -0.16492353 0.9553918 -0.75373423 0.01573533 0.20627476 0.42609137 0.06534687 -0.18858063 0.7877218 -0.3296915 -0.032205127 0.19897525
2112 -0.13365817 1.1406909 0.43831816 1.3904339 -0.28969944 -0.09122216 -0.43867663 -0.6757398 -0.46692058 0.2719009 0.38775688 0.6846246 -0.6123057 0.21990614 -0.32371214 1.3433737 0.25830603 0.22163813 -0.8216061 -0.05652027 -0.6527843 0.6519644 0.12569861 -0.279159 -0.30549484 -0.07741163 0.5848821 0.44215226 0.59233797 -0.40233913 0.34343433 -0.28383023
2130 -0.38147056 0.9774992 0.12160401 1.0379497 -0.12236144 -0.15887722 -0.43032393 -0.43992558 -0.24596147 0.5186411 0.1774169 0.6870033 -0.18695767 0.088692516 -0.27421805 1.2101854 -8.185889e-05 0.28315315 -0.43566892 -0.5231804 -0.8331715 0.5327829 0.095919274 -0.44925958 -0.30605915 -0.3635324 0.49431044 0.422504 0.46234864 0.095440745 -0.0061244564 -0.35492936
2134 -0.20535593 1.363842 0.28943866 1.0253085 -0.48834118 -0.08008085 -0.5211878 -0.7493922 -0.2067864 0.1673376 0.029265516 0.78582424 -0.6775634 0.17194395 -0.22778551 1.3727086 0.15057632 0.42654562 -0.5700226 -0.40391356 -0.885434 1.1428137 0.10892981 -0.27694324 -0.47084212 -0.060027868 0.67791826 0.7065765 0.4579032 -0.016072039 0.10352953 -0.02558108
2148 -0.4686383 0.8902709 -0.5406259 0.2634489 0.37213522 -0.13910082 -0.35801646 0.21686685 0.31523934 -0.089018695 0.30897826 0.091009155 -0.27726012 0.43734357 -0.47392216 0.35979566 0.05594117 -0.4973537 0.16925192 -0.087053694 0.052544463 0.2263015 0.050371893 0.35990152 0.34280136 0.60095584 0.6666256 -0.24488248 0.6271549 0.81094056 -0.31633076 -1.0634469
2126 -0.32785177 0.45460355 -0.9454603 0.43158695 0.45703548 -0.25266835 -0.28920868 0.23967627 0.111650266 0.0106942495 0.10277955 -0.2081817 -0.36441422 0.82330817 -0.7717463 -0.077210344 0.38718238 0.03961161 -0.14355145 0.18204232 -0.53037226 0.13289583 0.2226284 0.58812535 0.35927328 0.5072785 0.44690305 -0.22830993 0.17736341 0.5846526 -0.52365005 -1.0582907
2139 -0.3680755 0.69349706 -1.0253651 0.43754497 0.31069157 -0.22370657 -0.14938591 0.08400278 -0.050025538 0.01276776 0.003584614 -0.26327637 -0.35350227 0.7228073 -0.70321745 0.012771364 0.29854104 0.2087287 -0.101642855 0.36663517 -0.26998782 0.3445317 0.46828645 0.6605256 0.39915943 0.35584927 0.30123582 -0.21471612 0.16675736 0.78702384 -0.588316 -0.97260517
2153 -0.70979744 1.428595 -0.34552097 0.0043541524 0.6046917 -0.15038101 -0.75666064 0.45403188 -0.0063847792 -0.3548625 0.047649488 0.557073 -0.30241662 0.12323367 -0.53119856 0.42577916 0.7416053 -0.32907557 0.35232624 -0.240269 0.44011682 0.23205847 -0.25397047 0.1476752 0.40381622 0.7692778 0.8220847 -0.45021003 0.41714686 0.9434568 -0.2852057 -1.3108537
2174 -0.65829694 0.98294145 0.070419 0.29752678 0.4007372 -0.31890875 -0.47675774 0.46244 0.23064534 -0.22088115 0.3597703 0.25741255 -0.37923667 0.30612847 -0.73795885 0.25297996 0.57489717 -0.35764956 0.074624404 -0.12735078 0.18613027 0.2221272 -0.14075245 0.16307199 0.58942294 0.65827006 0.649405 -0.6660128 0.35523817 0.7335485 -0.3674538 -0.66082096
457 -0.06761133 0.46664467 -0.44169322 0.60805637 0.17177731 0.81209195 -0.60912126 -0.2028646 -0.32928535 0.20797716 0.017806174 0.54465514 0.43222785 -0.096874215 0.024388446 -0.16804223 0.20099317 0.08017551 0.30844912 -0.87268615 0.35999015 0.3587769 0.4522566 0.13947985 -0.12074423 0.59747076 0.54861933 0.5261925 0.41724464 0.009262641 -0.5990117 -0.56175894
2197 -0.36748078 0.6965404 -0.6035392 0.06841246 0.49449474 0.19289295 -0.42261916 0.3461715 -0.03503318 -0.004998177 0.31469265 -0.00018731564 -0.23373598 0.6705626 -0.58497316 0.21539657 0.3523209 -0.21333401 0.03188013 -0.056118503 -0.38393953 0.25158057 0.2685371 0.41055307 0.6231022 0.32561123 0.55281913 -0.29509717 0.0734398 0.88291305 -0.6600162 -0.88721913
2199 -0.2881049 0.73710525 -0.65995616 0.4046399 0.38707393 -0.053475704 -0.43241623 0.27768782 -0.0038497506 0.037243783 0.7222401 0.4865736 -0.41319728 0.74132377 -0.5819195 -0.2078757 0.051865503 -0.1204481 -0.21965739 -0.48391435 -0.23598415 0.12855574 0.2564509 0.24848661 0.36505145 0.6344816 0.62331593 -0.5534338 0.27825427 0.8439852 -0.5048991 -1.049991
2200 -0.30214027 0.87344056 -0.30932912 0.38209513 0.27515945 -0.30066144 -0.51771086 0.35469446 -0.017508395 0.54462665 0.5482312 0.28400674 -0.26109633 0.08302941 -0.4108495 0.65524405 0.7248478 -0.43650788 -0.13335682 -0.08160387 -0.18314277 -0.21219628 -0.019731605 0.02901546 0.8262866 0.13000931 0.7011131 -0.6078875 0.17433552 0.7247253 -0.5868263 -0.8736995
2252 -0.5870468 1.215507 -0.08858889 0.36362997 0.6112639 0.06337463 -0.6908473 0.26921818 0.3125292 0.21822079 0.3848405 0.20926939 -0.15535058 0.30934444 -0.6228169 0.31695873 0.4175228 -0.4634388 0.11351152 -0.22414081 0.14581177 -0.105684124 0.07142527 0.17225313 0.7204056 0.22530137 0.7893968 -0.6445078 0.47669992 0.807843 -0.11212845 -0.6765321
2293 -0.093285285 0.67688 -0.87698305 0.42748892 0.47782823 0.09638856 -0.4373926 0.5794892 -0.11249233 0.2429653 0.73439425 0.46950284 -0.09860348 0.4552743 -0.36656252 -0.113582306 0.28368467 -0.06750015 -0.18973096 -0.52234805 -0.13442072 0.120859005 0.24126472 0.009285634 0.1387937 0.4162902 0.44589156 -0.37414226 0.31167036 0.5143823 -0.39011088 -0.7816772
2296 -0.7091679 0.60750574 -0.8799149 0.2725975 0.5176468 0.20646022 -0.17084552 0.3061867 -0.08034132 0.02494073 0.60230476 0.11903426 0.012430188 0.6618505 -0.17908949 0.03395065 0.3160395 -0.052437 0.1464068 -0.42275703 -0.19996233 0.06085341 -0.10120534 0.21878679 0.11535028 0.52259356 0.343248 -0.37626028 0.6691623 0.8461297 -0.42080468 -0.68016154
2297 -0.21997514 0.52138793 -0.69894505 0.4431436 0.38159943 0.05017786 -0.47644004 0.64127785 0.015983079 -0.16224353 0.7140622 0.25912023 -0.12993528 0.72976834 -0.5290203 -0.1677176 0.22549447 -0.109911546 -0.3310942 -0.29668266 -0.5327087 0.09250765 0.10756405 0.33621094 0.36401108 0.66292995 0.56320876 -0.37393892 0.5265501 0.78566855 -0.5340387 -0.75272375
2303 -0.13607211 0.3875207 -0.50011516 0.3974517 0.22828309 -0.28370604 -0.35426152 0.41406652 -0.13351087 0.15039459 0.660584 0.49523115 -0.51625025 0.48782325 -0.26507983 -0.05195573 0.036393512 -0.41539803 0.027253676 -0.17634626 -0.32328376 0.11716723 0.08615461 -0.0035427262 0.5011421 0.6036796 0.47604674 -0.68292844 0.46004045 0.5939776 -0.75295806 -0.9272023
2288 -0.044627193 0.5516897 -0.35510808 0.45041355 0.84274924 0.16036524 0.0836069 -0.08159755 0.18224852 -0.44381803 0.0024702488 0.26357192 0.09290446 0.4633187 -0.6616118 -0.55303526 0.14833792 -0.12377526 -0.45610607 -0.0980214 -0.21117589 0.10567457 -0.09687215 0.5006335 0.21454225 0.3649653 0.04888691 -0.11545055 0.418908 0.5299895 -0.9035176 -0.67655385
2315 -0.4044634 0.8221137 -0.5174623 0.38808978 0.2315359 0.084694676 -0.55947644 0.5125675 -0.028672175 0.009777082 0.5030934 0.2710137 -0.19683047 0.63237995 -0.73778445 0.38971224 0.29663226 -0.018863762 0.15215814 -0.22714499 -0.28861803 -0.050258193 0.1143458 0.12929678 0.70017284 0.37894338 0.44924086 -0.7815643 0.19357853 0.89396954 -0.5940842 -0.9997708
1016 -0.055256065 0.94414026 0.7554742 -0.24883018 -0.5208394 0.7641565 0.65736604 0.47578135 0.031978544 1.0234705 -0.24242327 0.18498392 0.09960153 0.36210155 0.08170017 -0.30118376 0.5783587 0.54217863 0.14789575 0.09989067 -0.41763288 0.4174501 0.18917106 -0.5890835 0.44201112 0.62825125 0.5939993 -0.17132759 0.23513776 -0.4631446 -0.30770645 -0.43576044
1574 -0.66943514 1.216195 1.0655648 -0.14594837 -0.49400565 0.6748834 0.5531519 0.60760784 0.2545736 0.4136817 -0.29640567 1.1025113 0.29619554 0.75882417 0.56807685 0.0828876 0.44970256 0.53854734 0.27280757 0.21032481 -0.4156529 0.14304061 -0.15704164 -0.60663444 0.28166357 0.070815176 0.24256371 -0.124665745 0.41963845 -0.21676925 -0.37929782 -0.5163987
1576 -0.40938705 1.0399003 0.7895305 -0.1635489 -0.58101106 0.61809486 0.5236021 0.26354036 -0.43199137 0.96614367 -0.5605492 0.6929189 0.4651723 0.44989344 0.2794681 -0.3476844 0.6025658 0.43096283 0.15536599 0.2657996 -0.51295465 0.9383477 -0.14815071 -0.693778 0.39556313 0.19608156 0.37344968 -0.82197785 0.55926263 -0.24865074 -0.057667624 -0.5276901
1583 -0.3348583 1.7635216 0.8504817 0.014411861 -0.103411645 0.29478732 0.2485228 0.689391 -0.46075115 0.94367826 0.51050925 0.51751816 0.34455696 0.39105594 0.21515761 0.23673572 0.24098401 0.5853108 0.111207135 0.6336478 -0.29099387 0.07149632 0.26122835 -0.7428209 0.22435772 0.31373152 0.36991102 -0.09983962 0.5198117 -0.51488656 -0.24954545 -0.2499616
982 0.5521808 0.029320909 -0.15006283 0.5437703 -0.2997461 0.16926594 -0.9366771 -0.16020201 -0.54495114 1.0673693 -0.6420774 0.30499196 -0.2380722 -0.1183785 0.067217074 0.13346064 0.16682103 -0.20759737 -0.40914842 0.1721806 0.62113166 0.23061128 0.9572109 0.958698 0.1589858 -0.27522784 -0.36870265 0.044334415 0.60106844 0.05852138 -0.5303199 -0.19798861
42 -0.23886752 0.7311966 1.2189376 -0.5464025 -0.39470735 0.21296191 -0.23686947 -0.20592482 0.05368483 0.034123108 -0.14694287 -0.086589195 -0.16741388 0.5331915 -0.3849015 -0.085412174 0.29143146 0.08721539 -0.9328778 -0.4242692 -0.14880161 -0.086961605 -0.43116066 0.6927488 -0.24469039 -0.70869726 0.6430654 0.39632413 0.4843883 -0.9790792 -0.38422635 -0.42609033
47 -0.55679256 -0.017890502 0.16829148 0.20531297 -0.2857086 0.49500233 -0.734969 -0.014608524 -0.303143 0.09757008 0.07772396 0.15270136 -0.44685432 0.577596 0.22817834 -0.4639267 0.36142564 -0.020916767 -0.72710675 -0.059324674 -0.40802658 -0.9109799 -0.6240826 0.54722005 -0.33714268 -0.23026973 0.6343649 0.10551679 0.53384334 -0.39765316 -0.34346613 -0.6315007
1641 -0.26636925 0.9157371 0.9719415 0.057155356 -0.20269716 0.13014281 -0.24692813 -0.2706101 -0.4238848 0.10224828 0.42489466 0.052936837 -0.72427714 0.4272008 -0.6334862 0.19470677 0.39433795 0.4995425 -0.25308254 -0.1293232 0.20272668 0.5245264 -0.25212938 0.0020907093 -0.26785144 -0.34141973 0.3887458 0.14219077 -0.04810905 -0.38167083 -0.5182283 -0.41936323
497 -0.4000623 1.2928529 0.76023036 -0.43496618 -0.23753925 0.155234 0.15257837 -0.2851264 -0.112330236 -0.20812157 -0.22949351 0.39974692 -0.34008464 0.82819295 -0.46852258 0.16500686 -0.40253899 0.23014535 -0.109937035 0.08125779 -0.21307537 0.24562566 -0.0023721398 -0.06363 -0.0070848595 -0.33684364 0.16779533 0.4480656 0.45846218 -0.6208619 -0.09657789 -0.37844858
32 -0.67640054 -0.30848885 -0.16987436 0.1050988 -0.4464964 0.8394507 -0.75235426 0.15277977 -0.098767355 0.18704076 0.24283962 0.10150139 -0.65700305 0.5406209 0.17845462 -0.19746658 0.37277794 -0.3477512 -0.4486585 0.022977253 -0.37910125 -0.61542284 -0.6937132 0.42287213 -0.17250578 -0.09401637 0.4429082 -0.13947852 0.5000384 -0.25547296 -0.4033661 -0.7596498
136 -0.69158703 0.19088918 0.27033114 -0.118013956 -0.30135652 0.50719464 -0.3722553 -0.17380315 -0.21776839 0.7509079 0.19967334 0.20512776 -0.6315652 0.48792967 0.05838182 -0.101126105 -0.43765685 0.40259102 -0.20344752 0.52531266 -0.3615396 -0.5563125 -0.33686662 0.046875652 -0.42169434 -0.1659283 0.554288 0.107158974 0.3319058 0.1438691 -0.21994503 -0.7182168
146 -0.5073219 0.040199608 0.29276505 0.12300077 -0.19851008 0.5189159 -0.639771 0.1090862 -0.21400732 0.10636974 -0.2424981 -0.079653494 -0.5521505 0.3770314 -0.22767183 -0.4400024 0.53475684 -0.2413336 -0.004450112 0.010319514 -0.6447287 -0.9598783 -0.69373626 0.712818 0.15363862 -0.062071517 0.44712266 0.3209342 0.16964358 -0.46215832 -0.42125198 -0.412033
1896 0.47403654 0.51202863 -1.5613769 -0.38019532 0.41396618 0.39371815 0.17463204 0.12834941 -0.44966945 -0.07410985 0.31130242 0.428166 0.1340455 0.3220966 -0.2710632 -0.038855035 -0.12706164 -0.178622 -0.13999282 0.3918423 -0.4611613 0.18538684 -0.28656784 0.48523974 0.33911723 0.6818201 -0.033330567 0.0624148 0.7777084 -0.14809509 -0.52760834 -0.16250134
2101 -0.02613286 0.7257852 -0.960522 0.020823952 0.3757283 -0.034491137 0.11859145 0.2151504 0.072729394 -0.23529778 -0.0751855 -0.16618004 0.06080365 0.8839577 -0.61069745 0.2227796 0.21492693 -0.38533017 -0.07477856 0.42308968 -0.57878935 -0.11701824 0.29090342 0.6410126 0.2894243 0.36681786 0.1551018 -0.11378572 0.3506274 0.18184277 -0.9089108 -0.5399049
1517 0.37143344 0.23843934 -1.0400863 -0.06990168 0.1924566 0.88158214 -0.10541795 0.52082133 -0.7032757 -0.066106856 0.1683877 0.19083323 -0.2059963 0.10007323 -0.45149523 -0.438751 -0.13324377 -0.4309664 -0.16656837 0.1532179 -0.48367593 0.8232466 -0.14969787 -0.18810433 0.37470493 0.6332649 0.30269104 -0.25328285 0.8957175 -0.21229154 -0.43588224 0.05044802
510 -0.29842106 0.4143156 -0.9798371 -0.34692243 0.19973402 0.6824044 -0.46064433 0.07212731 -0.343258 0.059823856 0.22346118 0.64530796 0.5551468 0.39885145 -0.35529688 -0.3843756 0.2058022 -0.41726616 -0.034133255 -0.06644077 -0.050612412 0.08618981 0.07643944 0.12692465 -0.38763526 0.46495706 -0.17403981 0.24908198 0.57698196 0.21505985 -0.46376577 -0.26111487
2147 -0.35545766 1.2587606 -0.04318538 0.9807644 -0.098467425 0.31719667 -0.25976983 0.6359004 0.62358314 -0.33155218 -0.33430767 -0.21271522 -0.5556572 0.7807667 -0.40726838 0.73664284 0.36418635 0.4427991 0.57502747 -0.29344958 -0.39603278 -0.056368362 0.011935732 0.44976622 -0.14697674 -0.020424144 0.2883919 -0.6954577 0.19416085 0.26093176 -0.6155064 0.40457544
1621 0.09636394 1.2977915 0.31248632 0.09189087 -0.2174605 -0.1745308 0.046148162 -0.5555778 -0.17683952 0.1073623 0.45159695 0.24507484 -0.9961814 0.44339624 -0.5443476 0.45161223 0.23999774 0.099139825 0.057922814 -0.27265233 0.06626648 0.4486063 0.0281777 0.002593936 -0.6266041 0.31591243 0.095698416 0.13878365 0.36346123 -0.35993713 -0.048959684 -0.4371827
419 -0.7245984 0.25534773 -0.5974748 0.050062306 -0.28701696 0.41875887 -0.18507096 -0.58984095 -0.3831053 -0.17990474 -0.17238574 0.9838104 -0.10005285 -0.099138886 -0.046164084 0.077172264 0.6965925 0.534805 0.5253324 0.362832 -0.46448153 0.34015122 0.03846383 0.5365201 0.83024585 0.29445112 0.33460727 -0.08615106 0.5034978 -0.16256908 -0.1418148 0.32079098
1525 -0.14823334 0.017287318 -0.59449404 0.6750725 -0.1928894 0.510334 -0.638999 0.5606126 0.04463681 -0.29479808 0.52612615 -0.17865495 -0.17495409 0.5755983 -0.47750726 0.21461691 0.3300494 0.10347229 -0.34509823 0.12575315 -0.25617695 -0.21758716 -0.20154656 0.19801103 -0.21264994 0.5403548 0.22881849 -0.03431194 0.4045485 -0.20637581 -0.3674224 -0.5300154
721 0.063700855 1.1210548 0.4264201 0.06640012 -0.25637883 0.040796842 -0.23990476 -0.64970917 0.01126346 0.051428843 0.7418967 0.51892996 -0.92598605 0.670214 -0.6862268 0.5534956 0.77902037 0.53348786 -2.0514584e-05 0.57270426 0.09487025 0.16411044 -0.2717242 -0.05325274 -0.44011018 -0.16981381 0.29734746 0.005191157 0.24870306 -0.21159832 -0.0903119 -0.32362708
793 0.15273847 0.5734514 -0.02675449 0.50386715 0.08704479 0.41142386 0.13375941 -0.18627362 -0.6860657 -0.063832305 0.3818903 0.32950366 -0.98021656 0.24615037 -0.8492668 0.011625757 0.19319656 0.38030255 0.2594251 0.2646281 0.2361813 0.720762 -0.098549895 0.25757793 -0.119237676 -0.25061598 0.25919428 -0.52796817 -0.1949843 0.13141899 -0.5355177 -0.291542
918 -0.37799546 0.798901 0.44129363 0.24822806 -0.15950018 -0.034028202 -0.43422687 -0.46845478 -0.51474184 0.31932345 0.5149561 0.24844295 -0.62060636 0.3038657 -0.8726274 0.12066926 0.233333 0.40014592 -0.1467948 0.24871105 0.17420638 0.7360039 -0.30261993 0.38298568 -0.6169358 -0.08509439 0.48081216 -0.38408247 -0.47664732 0.0036994985 -0.45827168 -0.26603064
1530 -0.4856983 1.3159342 0.5244804 -0.31533995 -0.29847232 -0.09417876 -0.33616018 -0.071432784 -0.7310649 -0.13489154 -0.16548401 0.13615659 -0.62980974 -0.025517756 -0.7260582 0.21446149 0.06952228 -0.23492324 -0.19491357 0.72628766 -0.11114151 0.055396 -0.5170464 0.32021114 -0.7126132 -0.5308737 -0.5830694 -0.2052876 0.52463377 0.24634042 -0.093543164 -0.30018362
1684 0.04872904 1.1056594 0.7136957 0.397794 -0.28154877 -0.051750634 -0.10115223 -0.34047619 -0.22929709 0.022552377 0.58279294 0.28521088 -0.68659234 0.16153811 -0.080321185 0.6663388 0.19486514 0.26781702 -0.05535031 -0.14691506 0.19585775 0.5301171 -0.29175612 0.24374533 -0.55935436 0.49592027 0.36017898 0.27713582 0.39840582 -0.13467284 -0.38462842 -0.3247911
46 -0.550552 0.19184025 -0.4115037 -0.40171033 -0.2444406 0.2572852 -0.039605718 -0.030960506 -0.6017142 0.71462435 -0.25370172 -0.14306872 -0.6271815 -0.38417873 -0.51917976 -0.30228218 -0.026519252 -0.58564365 -0.38404545 0.76980156 0.073634475 0.020420846 -0.20765291 -0.21527143 -0.08623902 -0.24858792 0.33144692 -0.9862482 0.61718106 -0.13422225 -0.753083 -0.3124833
323 0.15388863 0.56217194 -0.18653001 -0.071573466 0.3060542 0.78378105 -0.5360512 -0.1405166 -0.96739835 -0.17611629 -0.5984219 0.2515662 -0.4332189 -0.7203894 -0.4364043 -0.6471153 0.09454976 -0.38831934 0.054544184 0.81538534 -0.2832055 0.6079543 0.024952304 -0.33157367 -0.061003976 0.16435158 0.24328849 -0.58660233 0.70102113 -0.20151256 -0.49193138 -0.46201053
84 -0.8725672 0.12804271 -0.46846157 -0.6151053 -0.35242063 0.11968506 0.13914166 0.013450429 -1.252267 1.2931039 -0.115753576 -0.15217666 -0.24901281 0.08397852 -0.7552749 -0.20117556 0.3065304 -0.31510115 -0.4891319 0.7153867 0.24864776 -0.17265484 -0.44112247 -0.03224489 -0.13394946 -0.22697695 0.17339793 -0.9699696 0.6609091 0.23257501 -0.7830532 -0.23271975
99 -0.47948918 0.10607563 -0.056716215 -0.36682278 0.17415856 0.5217079 0.2292397 0.31070498 -0.53255415 0.17441717 -0.24599007 0.003844787 -0.72774464 -0.35008448 -0.29025158 -0.28991264 0.3276048 -0.35988256 -0.4696273 0.18491308 -0.45777327 -0.4495364 0.08395638 -0.13717745 -0.490569 -0.38588223 0.26050875 -0.43938062 0.9667221 -0.82729906 -0.7765024 0.26383975
104 -0.849399 0.13147566 -0.40275893 -0.7178516 -0.17814848 0.14735879 -0.02116387 -0.26001006 -0.9846485 1.123546 0.015286307 -0.27435067 -0.07554745 -0.168704 -0.5624024 -0.38632312 0.05737298 0.09832458 -0.14684819 0.5006179 0.31323776 -0.07513916 -0.09722429 0.43415192 0.12897624 -0.2337602 0.027771078 -0.43306467 0.6104128 0.19197339 -0.67595 -0.4518316
