2405 32
1397 0.7167254866260494 -0.424340697729588 0.12822356228877602 -0.538329143874819 -0.8082093896674933 0.4795842243077106 0.3403833832641427 -0.030589322420174297 -0.7486688901617876 -0.6055463086754107 -0.004043799007194526 -0.2698003125333451 -0.787582078305906 -0.6016684328319066 -0.07950382115107898 -0.10671789581567058 -0.7698732450754552 -0.6098350352902443 -0.013824690960955987 -0.18763073887124285 -0.7699794068736344 -0.607877062400392 -0.006431766396421757 -0.19384484099149474 -0.7593939343705646 -0.6108587099018783 0.03883811688864547 -0.2205993872492656 -0.7556563321400386 0.6139141554143518 -0.07363082486292367 0.2160356894324454
1470 0.33568798114994275 -0.666040911053598 0.26206362831387214 -0.6123934510013457 -0.922249114794557 0.3191981959656958 0.21710722517127515 -0.0208214968561467 -0.8790973630857088 -0.4719234561696998 -0.06340602639416168 -0.021348385173164335 -0.8409633682590291 -0.5243367728539579 -0.06520500729199996 -0.11661847582427022 -0.7957480528589368 -0.5688074765776123 0.015625975258469458 -0.20736180906290697 -0.768631030414965 -0.5904014665900827 0.04217189722209449 -0.24259838914592452 -0.752684975746426 -0.603279544839908 0.08422578349177141 -0.24985022605263504 -0.7393506726185429 0.612730394656393 -0.11520488345681995 0.25426340906711203
362 0.3142203847180104 -0.4096967814815597 0.287499841443965 -0.8066956912250193 -0.784485394453114 0.39477386901380157 0.3589003286616909 0.3161120249534111 -0.736288123666687 -0.10468420804459089 -0.43548688692034326 -0.5072200576218318 -0.8886667670580715 -0.1749392939074595 -0.21926559794431527 -0.36275366039757156 -0.789562421177113 -0.08379844693493761 -0.2915217335475822 -0.5334642276907051 -0.8602021654726674 -0.1029485073894484 -0.1523969137612763 -0.4756353855827554 -0.8298231814001633 -0.10522810230869582 -0.12539642019596514 -0.5334756525816894 -0.8412902985240945 0.1793668172398794 0.049803751476652114 0.5075211964256543
226 0.9937104185654909 -0.028059664906357768 0.10367181178495741 0.031692501967563125 -0.4336458406377363 0.8723899552842346 -0.020859110547472574 0.22461511152175487 -0.4212341771253428 -0.863585481217009 0.25583909991049764 -0.10643420319478474 -0.48382400641341056 -0.8434459343475649 0.22715267818333526 -0.05399025323868599 -0.5363846380067345 -0.8156733851367024 0.21246431867506013 0.0427476570113463 -0.5951663762659656 -0.7843969768774501 0.17242362722073715 0.02772111116099696 -0.6423632366696056 -0.7505838422723337 0.15295837731430645 0.02443568506146563 -0.686783371296462 0.7133613533019254 -0.1392461866291804 -0.007394594995185182
750 0.10649707539864438 -0.7040194548979455 0.2796678169699739 -0.6440503801784333 -0.8075196763357197 -0.2456828708416965 0.46606907350120247 -0.2652009012642442 -0.9287187521882909 0.2267674391887359 -0.28041503110572996 0.08617086623435688 -0.9019094270008943 0.23806087279138516 -0.3577746095137126 0.04340201746500895 -0.8947080722139582 0.27689060229166496 -0.26966063658087386 -0.22385754612373374 -0.8871060822360285 0.2990421979062537 -0.23225761287037597 -0.26395636759698776 -0.8828922990347496 0.3253349871670813 -0.16672423794075591 -0.29472251850376724 -0.8921071832672874 -0.33896085072224447 0.12184115772097623 0.27277288634644536
489 0.03487385809043688 -0.44117421340571183 0.3811047536360136 -0.8117316639159599 -0.8527446121111727 -0.22537189725609733 0.45900470559804213 -0.10653081564227027 -0.9250464289542542 0.10390820953173349 -0.36390994011301003 0.03258440973589715 -0.933767835700472 0.0768303165304844 -0.3354597758338805 0.09819098874420547 -0.939019798748503 0.06460445448500925 -0.31846099296834746 0.11247523272538423 -0.9459174785722335 0.05975912617388124 -0.30485923020972705 0.09343350751424663 -0.9511899561482837 0.057715292125123135 -0.29269486237967923 0.07897043696269135 -0.9560035836366334 -0.05437818539097679 0.27907981154306455 -0.07221232454772869
1462 0.9957314791818582 0.08247351754140989 -0.019237392776362515 -0.03669963201209991 -0.3524544921208169 0.900094181301971 -0.15852689286601815 0.20118528775344738 -0.3300997885181425 -0.8642769229936628 0.34082074216208297 -0.16703518106366358 -0.34685045083335336 -0.8704733922549981 0.3489308932538654 -0.014767188826427684 -0.35438528759017035 -0.8613272503353601 0.347965329648606 0.10698862150666864 -0.3641556155626802 -0.8634774792769826 0.3347575075179454 0.09866479410613599 -0.37419938410719356 -0.8630205239244559 0.3283668196453929 0.08570663903645215 -0.3845848750405674 0.8600801038424164 -0.32854955624612486 -0.06642196891784911
1713 0.08606470426648134 -0.7973159480333649 0.36924111867038306 0.46961808097029617 -0.7887027194826908 -0.27044607157012285 -0.18289961877150376 -0.5209171451451128 -0.7791744341432775 0.0487585716976616 -0.25533419605856383 0.5703632624798288 -0.7923589291852836 0.020591396162863793 -0.21391189936487862 0.5709509795547468 -0.6718382767095727 -0.14477703785813453 -0.38762525966311584 0.614344852121378 -0.6459475836090713 -0.2159814165033629 -0.4207639043240576 0.5992173927488902 -0.5844694957910361 -0.2817259451243645 -0.47084657866463075 0.5977703569878379 -0.5544238375351319 0.3378852595691621 0.5033619040269035 -0.5701530963812333
393 0.06358506875656944 -0.6738113007589903 0.30693999087287654 0.6691211489735309 -0.9221358858010138 -0.18018579358383158 -0.1666567997882868 -0.2990384573811058 -0.9739157597649815 0.11377462475358514 -0.029084089308913805 0.1941585522006461 -0.9833873160527481 0.10263297851639712 -0.03798489322451992 0.14482060017189244 -0.9888388597574514 0.10118227388203963 -0.05835139344289322 0.09249309038471935 -0.9886582397088052 0.10361673428739211 -0.0675310813189365 0.08519395804514389 -0.9888492344593829 0.10529210523980553 -0.07401557169096629 0.07491634821933969 -0.9885828057490696 -0.10648734047713028 0.07832615421864637 -0.0723152546889081
445 0.13759525518668125 -0.9037822250077293 0.4048420818336449 0.018658089044443354 -0.9549075888274231 -0.1312490494090265 -0.08770804389552253 -0.2514606984501659 -0.991822746906682 0.054878926143561865 -0.01761560402768357 0.11386673209745166 -0.9897824062233864 0.05790193871285004 -0.025609872988835134 0.1277587109728036 -0.9925152685087353 0.05895654547013104 -0.046499415661468896 0.09630873203610982 -0.9929331315958395 0.06283795772292035 -0.0522246031648325 0.08606844992659951 -0.9936131370688208 0.06547551262251035 -0.058799813415478984 0.07062912312481975 -0.9938209090897647 -0.06744496344197003 0.06137484814487005 -0.0632795826274102
696 0.7214744307001532 -0.6515831983352478 0.2195599908116261 -0.08189866865766264 -0.8311340799312528 0.46080783398017994 -0.2745398310172076 -0.14662933712039972 -0.8630027235800012 -0.4186725863765967 0.1831487898630326 0.21539750528253102 -0.8661845495063728 -0.397976941818158 0.2295885910385186 0.19653945874163845 -0.896464197456503 -0.332385407756652 0.19438711488649327 0.21928413749110445 -0.910613965194508 -0.29606729655786246 0.18986436337625848 0.21697438978225608 -0.9261200305366443 -0.2602423164388761 0.172559583613475 0.21165730763778756 -0.9380277683311455 0.23441955454004942 -0.16466540719329775 -0.1950299514505424
1610 0.9989843096370722 -0.01492026962150619 -0.03522498819364829 -0.02381039395140753 -0.5838301200028443 0.7868848121319524 -0.19934426490196933 -0.014715551781027542 -0.5467577556585254 -0.7621975743413557 0.33300375281410133 0.09601726358905942 -0.5133941714443987 -0.7448498803943061 0.3831754406529591 0.18655203586109143 -0.48064145009420806 -0.7163031938365775 0.42284172367274014 0.27766600020946286 -0.4755579399854723 -0.7107588741399035 0.4499081054161914 0.25738913191695584 -0.48174404828335693 -0.6885236230832784 0.49521967899125036 0.2204889156843066 -0.5216906009301233 0.6255507354138211 -0.5514520062204654 -0.18007187220612328
889 0.33723848946026147 -0.7830929988204205 0.29447001769296927 0.4316514393638741 -0.8799362418804884 0.26690366757086353 -0.3162759837748171 -0.23333269070093057 -0.8594950616479938 -0.2212076458601154 0.3121326648872868 0.33898173391216485 -0.8230271214613468 -0.20985364343475235 0.3888882076392594 0.356866596412908 -0.7508347488064331 -0.172746319866504 0.4320128511153615 0.46879716875055527 -0.734290667398877 -0.1621473537879932 0.48422347298499935 0.4472729364055117 -0.7087058020597643 -0.15721415405342054 0.5598573735796577 0.3994740506473245 -0.6917218109561939 0.15816587379569308 -0.6276222475639682 -0.3203042412717657
1615 0.2582453816827297 -0.9021102540176122 0.3453574154816822 -0.01531887749259462 -0.8867044136872693 0.09400557410804301 -0.29167846715222473 -0.34618189811696065 -0.9067037983927587 -0.1773610565886235 0.23060865292703875 0.3053701471674777 -0.8876613266889736 -0.10780869806763639 0.32353418146195195 0.30945159095968006 -0.8933033531581199 -0.09814213765771433 0.3324613420729884 0.2860886157809517 -0.8905330304183973 -0.10100053815580112 0.37909988145234563 0.23028915065387262 -0.8899697264329733 -0.1049469077854347 0.405265114717506 0.18083201976447785 -0.8893442458858623 0.09909224583874505 -0.42527879273681457 -0.13559309559361188
708 0.07553116840327247 -0.9325030649962196 -0.35310397167185587 0.0071176935768602935 -0.8503658611187768 -0.4002737055868041 -0.3357942689931549 0.0624585604291556 -0.8774357505128961 0.398059510743596 0.2657088647146279 0.03246427021362833 -0.9115151674548286 0.35893706887553206 0.19873044651924657 0.028469101023709115 -0.929978704101566 0.3223265059918971 0.1761070152445665 0.01521685362607793 -0.9449365401592011 0.2927959492787224 0.14595757250360755 0.00786474327517636 -0.9542879176024343 0.27101026889223445 0.1260336979249736 0.001873889090851825 -0.9614650515040467 -0.25390183542958494 -0.10530788603412737 0.005390903526501255
713 0.14931475377263176 -0.977189570165862 -0.10461790556679525 -0.10890703420667291 -0.856125692008424 -0.1940148618856471 -0.47700709602320024 0.04325809975141953 -0.8665514867408648 0.24321202557246197 0.4316969862265035 0.05978414110022179 -0.8729343524459956 0.2603018488554411 0.40860984651287596 0.05715380245314902 -0.8881449343666723 0.2211520953919062 0.3837837217205618 0.12247604339177179 -0.9089567175593288 0.18307921702221816 0.35582149386948153 0.11692198424074353 -0.921968291560576 0.15754646353999813 0.33217851195584536 0.12170052332555129 -0.9345319301545558 -0.14267521755327767 -0.3064932978965361 -0.1111562511163026
718 0.19185174942009398 -0.9269606884848072 0.19257879449017787 -0.25855404881945176 -0.8792187291642891 -0.08704198410020841 -0.41389369409130333 -0.2192946175401624 -0.8301905295461985 0.028376705681443043 0.3255450785125857 0.4516623175367918 -0.840164762410297 0.0531141680339068 0.38995097132948425 0.37314916202144544 -0.8444545283223088 0.06965414081979256 0.42972657873082976 0.31205755526008205 -0.8420470424358072 0.08837218294958152 0.47135692972340754 0.24692059534910868 -0.8324102118712552 0.11179525814192022 0.506075026253533 0.19617116819736646 -0.8216860121072549 -0.14777673153614368 -0.5325838067871178 -0.13909933095422347
1630 0.1808082250659806 -0.947869836906993 0.26142929460125025 -0.02249181972835389 -0.8762584243491975 -0.03539142263810668 -0.32913157969472 -0.35013001043665287 -0.8812221955767275 0.004542564419552817 0.3231811856700847 0.3449358322359454 -0.8748058778506667 0.0002897573170729621 0.3667550235565127 0.3165522781701049 -0.8657705512550148 0.01973711947984943 0.40632600790327805 0.2914635037112044 -0.8621823235347061 0.030179281967253974 0.44510643272495837 0.24002315611435995 -0.8540737494936653 0.04226875421568984 0.48118649854675216 0.19295319758739932 -0.8458301126487292 -0.05766851767378667 -0.51262601208219 -0.1358688129875892
734 0.8662724157077749 -0.4977136759194623 0.02444322300807071 -0.035436244658966685 -0.7332266524757843 0.5772864337226411 -0.3592725046765924 -0.006505145836787407 -0.6814756218903414 -0.6046472043203143 0.40796699802609065 0.0596293853597405 -0.687198342823493 -0.5556859602659974 0.4517982312519544 0.12186020442091398 -0.6916136281266264 -0.542916167113564 0.4526736635861703 0.1483212027045214 -0.7050042714245136 -0.5243115296500551 0.4633225706546834 0.11575229013348276 -0.7185300687496485 -0.5017617092699338 0.4752572327693752 0.07797621505007542 -0.7363783023440416 0.4672379524456436 -0.48737431108949136 -0.04361160993764913
776 0.391038941327854 -0.9048017358079836 0.11272621299701699 -0.12536014576970597 -0.9118595744675794 0.038064893587301064 -0.37544754305867695 -0.16156213275144493 -0.8994214442138788 -0.1258018028162341 0.3299778448350612 0.25754532419443055 -0.879201209928301 -0.150891713193803 0.38332526573420844 0.23937139344510075 -0.8707758538566364 -0.16522950648181114 0.41398896928655143 0.2075132666531992 -0.867939264270997 -0.1763992792668344 0.4282651284772208 0.17931454916222303 -0.8697676632998304 -0.18144011059412957 0.4361464804049444 0.14268828184515414 -0.8765317249817617 0.173975931293604 -0.4359635957031594 -0.10658449067567308
814 0.599515784464279 -0.7814582763112465 0.03762547562631548 -0.1687842117815798 -0.8887346623463954 0.08529034805745528 -0.44528903806436587 -0.06777852943217545 -0.8687938233395484 -0.19854560885764308 0.39587360670682104 0.22149722626554616 -0.8424214555972831 -0.194402351108484 0.4504007713394235 0.22287431931404939 -0.8306562508416204 -0.2146499542373621 0.4597206871975502 0.22933050352330728 -0.829585324008867 -0.2062725337469135 0.48499974278964303 0.18443178008334604 -0.8286648336145495 -0.21199436813561084 0.4984233677865929 0.14123430126433362 -0.8323058820228298 0.20593784852379085 -0.5062860543683622 -0.09236315524984609
818 0.2928787211552034 -0.9316777269312302 0.20282977904269148 -0.07112488009298631 -0.9164202618665577 0.0057891874039741826 -0.32089959254001105 -0.23908960758946884 -0.9285673524770945 -0.11617669522506259 0.20255145974935976 0.2885109244962236 -0.9251159998084294 -0.15004301371153073 0.29008080545973725 0.1936507351874547 -0.920871385757124 -0.1883909330677098 0.3138852055330969 0.13409259852459132 -0.9084520907762288 -0.20060873214318825 0.35156545631520775 0.10427207333740345 -0.9040129728578927 -0.19520599030246824 0.3717355972707358 0.08042270808942459 -0.9040676787835868 0.1809431888146354 -0.38269322669141653 -0.05888199083727156
1401 0.9910806284855698 -0.031935497808706304 0.1260661996200297 0.029096823430071507 -0.37948663012586586 0.9054796799240081 -0.15516956798367076 0.10963052481946421 -0.3877296496883713 -0.8645495657631328 0.30490537291191583 -0.09618981578502417 -0.4088242161760786 -0.8551390872194807 0.31857947273329357 -0.01034511142640625 -0.4373908772054471 -0.8433758619743863 0.3036155911709622 0.07227688962813426 -0.4632602892116093 -0.8347237337157046 0.2899744171033484 0.0673871667074878 -0.4967987215351467 -0.8217571552976288 0.2713576839593916 0.06535453583637157 -0.5243701800298669 0.805844899869293 -0.26950687062787815 -0.05491774152732788
220 0.9524145267116674 -0.2629063787593971 0.02044292352016076 0.15286887254820647 -0.4104434099252396 0.8695020906353637 -0.22301024893091764 0.1605264791286583 -0.3733032875265515 -0.8195387491907287 0.406837428187344 -0.1532455582477754 -0.3397658236478528 -0.8559058972893554 0.3880869384255268 -0.03705142763377513 -0.3461321041538433 -0.849987823350385 0.392526737528445 0.060299477239714044 -0.33620620102356613 -0.8635351389065473 0.3716514753539558 0.056103788946731584 -0.33556730508294985 -0.8663993669883178 0.36765594806009066 0.03969665600078426 -0.3328027750928129 0.8667801137659211 -0.3711117542452989 -0.014512516371605154
1412 0.9993498150030936 0.02734004418418393 0.02308516336148159 0.004420912786215175 -0.5275869096546337 0.8446504684450398 -0.0024694424852087812 0.09061755222063932 -0.6114942200416035 -0.788489686974398 0.03464853687004507 -0.05619885482366756 -0.6870412939535968 -0.7261367366915998 -0.026270772372169283 -0.0030897489236464256 -0.7370471272353878 -0.6672475221503084 -0.04717918916263177 0.0965215029322093 -0.7836306024304348 -0.610642233482998 -0.06823771620094235 0.0915573902483535 -0.8188009365704018 -0.5626079400665868 -0.0707585282267209 0.08961340708093359 -0.8466932443561271 0.5217797603312202 0.06987751164047913 -0.07728884160941166
1413 0.9692988144860154 -0.092900763091533 0.18268988316329132 0.13584426024973936 -0.3831174863815534 0.9087214326863047 -0.14297020823772752 0.08370106905942708 -0.36826876752677506 -0.8742553040436508 0.3010609917541842 -0.09704667670683542 -0.4011208838633971 -0.8622876249071904 0.30847126435152816 -0.020188301809057098 -0.43585879456120213 -0.8461749134240678 0.3044599087647014 0.03632204634126178 -0.47255150162491677 -0.8327239720880246 0.2869235351157253 0.030671641929872363 -0.5128807056679101 -0.8136481479369176 0.2725260433437105 0.025683239901390036 -0.5496352150881286 0.7915579793055291 -0.2662795811546662 -0.020791353800788694
228 0.9861906478887259 -0.06110382411315815 0.13775228995478217 0.0686923234996228 -0.4309728282765481 0.8892017274978945 -0.12756275819273494 0.08550118025112144 -0.4897326495654966 -0.8299539542908233 0.2601160614570878 -0.06064651909744598 -0.5497518521574806 -0.7944262382473927 0.2574537989232386 -0.019426642877997707 -0.6269290004915122 -0.7443728403154154 0.2296486824816448 0.01142740468869323 -0.6897110627182912 -0.695008434045362 0.20256311882463873 0.01516935930928935 -0.7438125528528713 -0.6444615060454995 0.17693737682301325 0.010267333005817494 -0.7876781970052926 0.5957349184098296 -0.15700749923092697 -0.0034073648139898117
233 0.943708709393456 -0.15795338392012415 0.22447641431609192 0.1845939861937802 -0.38781608380393934 0.9025521633417266 -0.15030659579809105 0.11138314436993656 -0.3616669547222281 -0.8746236520625966 0.3055704207540576 -0.10419788421471939 -0.37229267466805516 -0.8673076137992616 0.3285194922373536 -0.035363973962888096 -0.3918439614143167 -0.8585665747822593 0.33009852023082575 0.018886860808868033 -0.4082859981181075 -0.8530517311616983 0.32477934029747507 0.011120603340973603 -0.42816326749104655 -0.8448434626509411 0.3207978334389395 -0.00211897339311947 -0.44939662827827104 0.8327333434274304 -0.3229657202266379 0.017058510919293314
235 0.9745103714699692 -0.11923245275701802 0.18335780546141844 0.04993068478781914 -0.4805313745175901 0.8573259247896666 -0.1783106649016035 0.0478242989507057 -0.5540360638256964 -0.7875663555158869 0.2697504739634727 -0.004237621553920715 -0.6164502354080648 -0.7358400238528189 0.2799087672964922 -0.013403303778641684 -0.6928276333521591 -0.6748217564805421 0.2531145674644064 0.02320524038807263 -0.750364092453903 -0.6180241191470299 0.23142320805807154 0.03798967860457466 -0.7997929744694389 -0.5657498549382145 0.19712253002584043 0.03743003851091043 -0.8375044439468546 0.5185820400571766 -0.17016691875172718 -0.026498940770334302
1450 0.989280568754673 -0.004734819049104719 0.11204563339788366 0.09352707527486472 -0.34490361530549024 0.914128812899502 -0.16927231927106814 0.12944841252307082 -0.31210945924668654 -0.877820020560918 0.33570729821202505 -0.1389975067343049 -0.3270090334127683 -0.8749327010128272 0.35610211988210305 -0.027370439899971025 -0.3329803175294911 -0.8692546708557399 0.3584151761761223 0.0711265549571872 -0.3391400561910625 -0.8702759884039873 0.35217269780952715 0.05981736546977971 -0.343352221939879 -0.8709072181648115 0.34866324419542405 0.04542918868414173 -0.3458927741104608 0.868356003147541 -0.3548960843823186 -0.019099997536536132
236 0.8991444309638764 -0.2654169133673954 0.3140469716875175 0.1498921410183696 -0.48548578743435483 0.8681006481610882 -0.09763259721113017 0.03424457363367289 -0.4878507797481236 -0.8339872299248425 0.24710127303154314 -0.07353827498402903 -0.48544575203660206 -0.8323514777188842 0.26450462243063677 -0.039632613863257386 -0.5192365494673525 -0.8106307315916687 0.2677767445789027 -0.03958330151867892 -0.5463166653219393 -0.7945018734678225 0.2617728794670347 -0.042188076789222824 -0.5764422081647508 -0.773076101545952 0.26042115696102475 -0.04741880293449144 -0.6060292449602345 0.7486272782511691 -0.26481732736040925 0.046449280305128966
1455 0.9733602413044203 -0.0772805058811992 0.1988958005822159 0.08389293515729418 -0.44492404332621804 0.8805767641187725 -0.12111141688013312 0.10935804892941367 -0.456770215043678 -0.8323023874445555 0.3092565232352742 -0.05471845520001134 -0.4813722782596138 -0.8117934945992157 0.3071017352546756 0.1223134336575882 -0.4298754789504304 -0.8115561682549588 0.30834877769328023 0.2480013904386971 -0.42600165567339243 -0.8175978025749118 0.30637655528752256 0.23704393887706948 -0.38631194395759166 -0.8430140987003351 0.3259914958155582 0.1839017563921117 -0.36831404580762966 0.8537641924821252 -0.3407999734015629 -0.13887708747541386
1465 0.995580203929144 0.08957723007072875 -0.02765073359265838 -0.005604848708686389 -0.3765667490178833 0.8992192411140957 -0.14505376872330936 0.16900190567995682 -0.40305444758483233 -0.8586845220747196 0.2549909962099165 -0.18758356986492822 -0.46044861066327053 -0.8489160310118357 0.25507450415360367 -0.04759880839022102 -0.5226231555118329 -0.8235897401924083 0.2189854485083313 0.02470527300519187 -0.5804325348346886 -0.7944489986501768 0.1776491317042841 0.01973947957325907 -0.6350630807538146 -0.758566427855479 0.14546607440366385 0.010558370690593507 -0.6817748558272357 0.7198855587045059 -0.13018376572919846 -0.0001243825495779827
1466 0.997269407774476 0.07300942263990866 -0.0048319825148065544 -0.010000223392985291 -0.43165123669396593 0.8813317097097559 -0.11832007157439349 0.15143311389282918 -0.4318714690772265 -0.8509599995623528 0.282129913374253 -0.09877664360239959 -0.5016244594229912 -0.8265499925370579 0.2536396832786638 0.029239059695562 -0.554725971742778 -0.7924549703551141 0.22515430623501478 0.11661798582266303 -0.6140263743825337 -0.7594340953724762 0.18785836794287203 0.10459780084815236 -0.6615611850843471 -0.7271075492546412 0.16079228954984248 0.088302037507769 -0.7064110875577649 0.6897956070661653 -0.14487476187487897 -0.06462738753325346
1468 0.9933265755618056 0.007993878049339218 0.08695603046804512 0.07534627370765727 -0.3724816970136818 0.909569580954942 -0.14376568895792202 0.115204120888591 -0.3472018170357929 -0.884481181419478 0.2863329842036386 -0.1231152310597153 -0.38266084968684577 -0.8749123485652021 0.29567936766307595 -0.025937771365849904 -0.4023355036361383 -0.8662320476165766 0.29110661655828796 0.05500109082403606 -0.42975576748402666 -0.8576675088563414 0.2741933367603289 0.0673382405666325 -0.45445741533679185 -0.8479118777715284 0.26150239141341014 0.07829689945605174 -0.4857343362452853 0.8326582657794555 -0.25362210161177856 -0.08011364799787032
243 0.8911499805974541 -0.2197799152083919 0.3113757495606718 0.24615776148169494 -0.39132037997749897 0.9067230278039002 -0.13828401354098793 0.07482808739630635 -0.3380294553143499 -0.880663136659724 0.3109342571747757 -0.11613963485266744 -0.34592068824030126 -0.8761886819076663 0.33334400540345266 -0.03891073381273476 -0.35115616066625294 -0.8715494118990044 0.34119528368526103 0.026014454358500038 -0.35928134901627445 -0.8697011566898836 0.3379956665035933 0.017197084814472248 -0.36503435447610033 -0.8672997921292657 0.33842128868411137 0.0034672741649416864 -0.37241854234273736 0.8614580434430998 -0.34479228785681354 0.01768465269552262
245 0.9700193797855432 -0.09170956307262175 0.16578498916407194 0.15220741193965434 -0.40134019914917535 0.896686987869582 -0.14727598198252248 0.11484021709906475 -0.38045508645890386 -0.8694531959784325 0.2975770379708492 -0.10369654605112512 -0.40414502359897686 -0.8597787498387145 0.3115927371045458 -0.018901518712977815 -0.4241950428677215 -0.8495538406315875 0.3074994477681609 0.06132639804233739 -0.4518837415583154 -0.8410819253430821 0.2923170284025098 0.05415749147032059 -0.47870927589932605 -0.8300575715917865 0.2817097321156955 0.04981449430027587 -0.5087104778894368 0.8144258238251103 -0.27632453372526034 -0.039610342510622565
1535 0.13615575647631298 -0.8905063724897636 -0.4280776846022652 -0.07217691098300633 -0.8802083388286056 -0.17645520608011994 -0.41844422466837045 -0.13784509909857318 -0.8658473457686472 0.2958019968535964 0.36024175028465294 0.18175652349960775 -0.8586298186719588 0.28577248595575755 0.3941067362826257 0.160526636963099 -0.8293501723554074 0.35514369664527945 0.4294351576137002 -0.04045604716823436 -0.7991421846835292 0.3830485337424105 0.4595167035981612 -0.05907612522250532 -0.7564928402558809 0.4199832361196287 0.48837531210211776 -0.11323523545802117 -0.724527904410677 -0.45005118503929525 -0.5054437239257681 0.13053692396808972
780 0.1068334703197231 -0.9920620837342191 -0.031921605400661794 -0.05814157501313784 -0.7978278120549573 -0.26459327963907764 -0.5416198619402818 0.01044527803491059 -0.8251037239122375 0.20125547205522526 0.49849667597739267 0.17378476283459623 -0.8094090856735995 0.32624271639152214 0.4648410595224623 0.14948381655732218 -0.8190590499186214 0.3269661440565937 0.4699048726490547 -0.037746841561164944 -0.7779247016802602 0.40551287790203394 0.46593220532411406 -0.11532408427165548 -0.741188700804842 0.43761799216534414 0.4788728685528857 -0.17265740208961167 -0.7032104131253395 -0.4820171549819106 -0.48383902418264196 0.19762180004549848
1550 0.12947751625291515 -0.9673088310274339 0.21321525365722085 -0.045699604037698335 -0.8220452146308388 -0.24748011929963362 -0.15639569926984562 -0.4884011065751934 -0.8643035693286456 0.169774957950803 0.338171009478225 0.33135505435566315 -0.807481543981086 0.4190994945850181 0.35141865963488333 0.22098437824634998 -0.8125650903867889 0.40617161202626495 0.4160133467316853 -0.04117633798430457 -0.7363706674630378 0.501869636373799 0.43920146297335166 -0.11396132286060225 -0.7002851940954822 0.5061284949426405 0.4754719380001265 -0.1654116976279311 -0.6668005743629124 -0.5300357009747282 -0.4929848636065924 0.17721476794079088
2273 0.1300934794011067 -0.8635409188141017 0.47195513243214127 -0.1209591713016045 -0.9136470921424572 -0.16711051903162222 -0.15107516706890156 -0.3383775396561029 -0.9315818033191834 0.22030572932336415 0.09278189842897185 0.27388364075971205 -0.9295460023277492 0.3252267194440562 0.127697351454428 0.11775057090172197 -0.9072728565221307 0.34766026332019767 0.15918741508374065 -0.17506476517352348 -0.8636343366220688 0.38959342467906466 0.21183878242246046 -0.2397436679371672 -0.8426174621458118 0.40592500590840963 0.24281335778634022 -0.2574147923988282 -0.8251526507986662 -0.4235065740589058 -0.2731783184811301 0.255223217832244
1616 0.1058437960480222 -0.9476605022833005 0.29890965469982855 -0.03727843314218938 -0.843714675772333 -0.104276071418375 -0.4436500528760609 -0.2836312348790337 -0.8508990264477951 0.02932997600610254 0.3700595522665382 0.3717075827501574 -0.8255429319537843 -0.004326328570002177 0.4528032153410965 0.33679281251092413 -0.795185999246598 -0.017297507078371924 0.4949123844266938 0.3499167823813935 -0.7843502356690149 -0.0391038368694146 0.540782293338006 0.3013637485832328 -0.7664283951755917 -0.056610054769496806 0.587573048484748 0.25326020110136066 -0.7503662963864209 0.07115371950860336 -0.6296390004443241 -0.1882612508374714
2158 0.13307421136006367 -0.9476829633523165 0.2756669093301128 -0.09053181950591976 -0.8500766544492752 -0.09797105790987765 -0.42208481161551886 -0.29935892366161243 -0.8622536419185708 -0.04391688960821433 0.34528817957838787 0.3679212372896459 -0.8404554230052168 -0.02825904109134429 0.4436580936278982 0.30984448437269113 -0.8218156752103526 -0.03745839925512569 0.46965276368261655 0.3203781295111701 -0.8196710248473206 -0.03893600024370223 0.5090387355229696 0.25981332654031036 -0.8113453254951278 -0.0396216711584557 0.5444287260330616 0.20915603802384908 -0.8038648116497191 0.03908450296784882 -0.5750446771330612 -0.14696048965640757
1624 0.11012335706725308 -0.9153290572479689 0.35965895996079195 0.1438436502098874 -0.8572477493539428 -0.048384886428312464 -0.2941118398052262 -0.41986119692024887 -0.9003142450581522 -0.03604072979260442 0.2140252146647472 0.37726454038127555 -0.8672527458305899 -0.13893850804289 0.37968508926097094 0.29053054714609033 -0.8850891349528102 -0.09901563402781974 0.3894683482661112 0.23479253204781064 -0.8601790010495884 -0.1250850143521447 0.4580340779611671 0.18614673986970445 -0.8596721612589127 -0.09681881817830758 0.4822703540276281 0.1378593385630884 -0.848651150099647 0.07958691984532654 -0.5150446802845394 -0.09047720671349554
2165 0.24480058599317744 -0.7476473145720591 0.41682193878128815 -0.455363192914396 -0.9597708436826857 0.12984904187925883 0.06672313092698381 -0.2398482389740746 -0.9371742342543983 -0.13217024157181262 0.05492206806511479 0.31814941196233854 -0.9287096460610212 -0.16674653987937224 0.1563215323731641 0.29198897799056633 -0.9062682534902099 -0.15510287203507023 0.2878179380257117 0.26792123162023695 -0.8922361075732074 -0.15821108010435184 0.3680756816723031 0.2083369267227863 -0.8622551988150562 -0.1590653904924317 0.4503811756277329 0.16843684366574763 -0.8402797887952332 0.15868553766387855 -0.5059825660469146 -0.11282916083683257
2167 0.3553049984707678 -0.872706884821141 0.3301999378193793 -0.055758876526929714 -0.8433667549735874 0.3210252496672794 -0.27313002582042345 -0.3332796043515365 -0.8536164118603574 -0.2368395337405263 0.24362106586678828 0.39483519717237564 -0.811144470719695 -0.2586313063037388 0.38110931897935785 0.36043055087988524 -0.7974113584560903 -0.22039153800542796 0.44219360000639074 0.3464498744323667 -0.775761847441308 -0.21307059296141376 0.5135094154396679 0.29850051712573444 -0.7557041268850951 -0.20157818569918587 0.5704754939731906 0.25066954030177857 -0.7326772571731766 0.1994313858125457 -0.6226495635862939 -0.18899386270425922
1631 0.10757733709842901 -0.9458242844564112 0.30191333857658864 -0.051883286951260356 -0.8573000091279529 -0.11434352627326654 -0.4060250588217538 -0.29513709349622275 -0.8684495943116798 0.04566628473421571 0.30107660101363437 0.3912323771117737 -0.8535993190301991 0.006303191612141446 0.38805713817138926 0.34747680475236364 -0.8336384617997489 -0.0017076613387671873 0.42046116308890596 0.3581290399211227 -0.8279178132535219 -0.013792645674179736 0.47329356503893705 0.3005911820322517 -0.8173430858172575 -0.021331759576870283 0.5187443773406699 0.24979893329940137 -0.8057052173620837 0.02502219525012702 -0.5621283058900849 -0.1849993518300134
1640 0.11112277911481842 -0.9291601748838006 0.3368508735332257 -0.1041373437898585 -0.9454381275627638 -0.103367362209169 -0.15481701993779745 -0.2673829196454278 -0.8838401926112461 -0.01654681136386265 0.2380188982549027 0.40236764411682796 -0.8784004677771675 -0.03261678292978916 0.26793161851567626 0.3944127425422945 -0.8354297735996953 -0.04491032413704856 0.34659147114694727 0.4241633038079344 -0.8366652808208834 -0.05287333370272798 0.39667641805129794 0.3739564651320579 -0.8273814945633253 -0.062472579474844914 0.45514725965870395 0.32307585996649396 -0.8201853501584219 0.06897198177170907 -0.506539221479782 -0.2568207044197299
1659 0.09600658620232433 -0.9416804784972805 0.3207512437638711 -0.03375279909634532 -0.8470934847098474 -0.15976738244386027 -0.3807977247265549 -0.3345147298883024 -0.8640359439148183 0.1487060531971 0.3387644564018556 0.34141915652834354 -0.8544253104201832 0.0828771977466612 0.40950793875528774 0.3088559649795187 -0.8431952179797513 0.08165090729667464 0.4295966683495875 0.3127325634734 -0.8371599801820772 0.0600202568758286 0.47573912599675877 0.2631216835267357 -0.8268437023953055 0.054389250832037064 0.515198262520798 0.2189567343077261 -0.8159467614260378 -0.05286163269333141 -0.5529704336147749 -0.16018810772102848
1662 0.10618681554484384 -0.9588764198223005 0.2612358457137426 0.032190132454497866 -0.8350946087459591 -0.2598794719845089 -0.24696223564694336 -0.4172401091083524 -0.8627576403365923 0.09708175860654557 0.2789076300125639 0.41040823591574077 -0.8778745980572458 0.11588216712999652 0.32790478555224345 0.3292202378940605 -0.8573171002409419 0.06193557641471757 0.41714500771539137 0.2952311239465879 -0.8514849299517008 0.058661579470927774 0.46151791267530173 0.24193687077201698 -0.8307667220698377 0.04171506527889779 0.517552788465116 0.20056325182370077 -0.8175227717058589 -0.041072331739005555 -0.5555930181144583 -0.14589715394879485
2280 0.14055172997417587 -0.8864088543325591 0.4351144786681974 -0.07211064148521505 -0.8502596888624543 0.08909075387268137 -0.2772116089602593 -0.4384917592470626 -0.8371952669163129 -0.1979401506375826 0.27430523299874643 0.42974459969614315 -0.8117147413672952 -0.16332207103628996 0.3853446702156675 0.4073752138947838 -0.785442427086612 -0.16087465613756602 0.45935925339136263 0.3823461979262277 -0.7655411968117699 -0.1567592382662111 0.5308874373937261 0.32792033486766675 -0.7395208021454306 -0.16400453292861153 0.5945859566178922 0.2695904979145832 -0.7149121189772302 0.1706477665663118 -0.6472722692894348 -0.20203616338250324
2307 0.17009188128678032 -0.8819674321839945 0.4218515373089917 -0.12346449269784139 -0.8562433326658899 0.13608001490151111 -0.29511555430927816 -0.40154251881256897 -0.8448758829889477 -0.19701295308700506 0.2513484391034888 0.4291789845971298 -0.8005664884022171 -0.18743050343918768 0.3933760263215986 0.4113616486053413 -0.7835696081988307 -0.15904512425169698 0.4510213599920008 0.3966144858547895 -0.757657200027588 -0.16452453917603257 0.5353602798699165 0.3350770269548102 -0.7347869243648052 -0.165016754101622 0.596727636292679 0.27708080903019444 -0.7080264644392755 0.17343059155982643 -0.6533861139457103 -0.20422277460594637
16 0.19470188425105808 -0.7948498815310004 0.5740717718402027 -0.027321106776488833 -0.8107636953725041 0.21008071051316338 0.07631931986957124 -0.5410209670159299 -0.7443304124536558 -0.5447226694091493 -0.11912530300915512 0.36750321455916285 -0.7731108704556214 -0.6338349186295247 0.01914705967968403 -0.013648004062055585 -0.7080998752100741 -0.6438509369330487 0.06300103540984815 -0.2829865849739167 -0.7037321157984746 -0.652044428517993 0.12046792316452537 -0.25512085747910146 -0.7077106663151096 -0.6537394627025862 0.14769883848282717 -0.2235070039170613 -0.7117505501387861 0.6543175037772697 -0.1778088227893221 0.1834769227071714
11 0.29087632069840896 -0.7382508698614529 0.5798907685169525 0.18467083092514242 -0.7361038935016097 0.34924192372623836 0.2371009788770626 -0.529116492371298 -0.7034003689060333 -0.5929913992793837 -0.2172533198371104 0.32617497822992003 -0.7022511023260324 -0.7065085611964161 -0.054394193211490874 -0.0687772781004999 -0.6071943239897443 -0.7275808368679361 0.027631724869066964 -0.3180843701252096 -0.5884775012635833 -0.7437558010493501 0.0884619602608654 -0.3044602116842425 -0.5625758981251772 -0.7682016798832084 0.13346227263851837 -0.2748860848704944 -0.5500804489797732 0.7779569057965947 -0.1705745736085742 0.25119487895228426
48 0.25844054932818067 -0.786742187909209 0.5604140509141542 0.013464908643086542 -0.6879293111118274 0.550834107160783 -0.02894557966442646 -0.4716960914820899 -0.6340605928678793 -0.6966154736182357 0.021165759128770358 0.3350314270753974 -0.607116907248738 -0.7842327563468786 0.11925170636991331 0.04655185638799637 -0.5736257949028983 -0.7913049459647049 0.1437794177788384 -0.1552978072510733 -0.5545924920881484 -0.8000741402918601 0.18032140893061613 -0.1406866277830823 -0.5402364722366678 -0.804439195793029 0.20641245543942824 -0.13570568365625213 -0.5315038279890815 0.8048092566328087 -0.2348166821791806 0.12102424154466104
68 0.6876760887445879 -0.5345797614270479 0.4560465789611165 -0.18261323462281848 -0.6721092977725485 0.6815206997298059 -0.09817049833129217 -0.2723255054982423 -0.7262761744192143 -0.6674362720852314 -0.02279475135020974 0.16288689476701915 -0.7113304568778637 -0.6933174366646002 0.06551229213536429 0.09501606555698022 -0.7632325585804426 -0.6453074097902844 0.023516877785646772 0.022391177988668413 -0.7945784539152371 -0.6041503335173433 0.01895037039024326 0.05734403671374339 -0.8338425118936009 -0.548991415922623 -0.0029603405365706066 0.057500669440893715 -0.8635899824283249 0.500050576284272 0.007974090215614776 -0.06401700783734342
67 0.2518169441636127 -0.8139601367300615 0.47939417168889453 0.21032914823485188 -0.7699856162653304 0.2697066359985512 -0.011686981474299642 -0.5781383015394012 -0.6265039964488985 -0.6826491781638714 -0.03981263438225059 0.37402913807522375 -0.6169464231712575 -0.7790542504604941 0.08732663201772632 0.06946686343912317 -0.5413448828205979 -0.8181602632229393 0.11509423012906254 -0.15592568652381233 -0.515188672695014 -0.8333817740429476 0.1508268016369434 -0.13155503079604924 -0.49173143259481983 -0.8461432045930265 0.17300679861657672 -0.11095279695317761 -0.4793554789335648 0.8488263673355408 -0.20445077519251595 0.08894944325571386
88 0.18458593584818836 -0.7678540568392953 0.5152196005517627 0.3329818957387425 -0.7896864501218754 0.2488437796444891 -0.015535527506237462 -0.560562869989851 -0.816501603509144 -0.4528322381202716 -0.057139660236269506 0.35355785214596197 -0.8591876269497184 -0.5108481277821878 0.02877039263030386 0.0017540085071688753 -0.8515835950112868 -0.4872175850317958 0.07443293984462067 -0.17856131442595452 -0.8731690690222345 -0.45557678848757666 0.09545778897160016 -0.14461458162593321 -0.8977634590008758 -0.41351711795646373 0.10996095144091493 -0.10456076701120486 -0.9206393067035629 0.3671307172107951 -0.11248962193728088 0.07060020105550538
116 0.20834188384419425 -0.7752724563088219 0.5936298597007198 -0.05612368124812934 -0.7030299454886746 0.3814709846279606 -0.013277191379491692 -0.6000437482569398 -0.6911489693783597 -0.6006473138805701 -0.05952714332014171 0.397482610517027 -0.6983954635362167 -0.7087509605891331 0.09956790191570741 0.0014440512866114 -0.6476910055837194 -0.7005254266522525 0.14225836797992375 -0.2636722295565436 -0.6367178722101914 -0.70475251123188 0.19769023616397755 -0.242554776588539 -0.6263430268509157 -0.7114753166688639 0.22845012219710037 -0.22205366052894301 -0.6226372027136838 0.7107815258032062 -0.26026648686446346 0.198428556888808
119 0.14934092378420635 -0.9308457859432182 0.2399818872163502 0.23158606409521107 -0.8788514505520608 -0.050111045601894305 -0.22010510036220934 -0.42031268808562655 -0.9106895504914513 0.024000372673028764 0.237871373779022 0.3368764376944684 -0.9463384855614919 0.025699824850563206 0.3155916869113555 0.06469062451605584 -0.9322500124466852 0.05140605271603863 0.34820866085450514 -0.08377386551439135 -0.9298845588722815 0.06872162061171763 0.35424307730898286 -0.0714415020143296 -0.9304387520885045 0.08357552774580103 0.3529704983191933 -0.05206425924084316 -0.933869843260686 -0.10114330935154375 -0.3409083836693274 0.0379291545601293
493 0.0730775638838785 -0.7045386249250414 0.4793227730414532 -0.5182033142400587 -0.6642209065156873 -0.13503491058017408 0.7221480672625255 0.13812432523303675 -0.6959539860583923 0.033773243162247585 -0.6664494138675553 -0.26524063808423265 -0.7074972408189788 0.008143876281310122 -0.6381801829731516 -0.3034919860111653 -0.7355885175261178 0.012481489341618949 -0.5697396401228952 -0.3662655973200011 -0.769133099582541 0.024465379350443066 -0.525880943713731 -0.3623326556888679 -0.7981457986170244 0.03474556334597304 -0.4876522910061857 -0.3520671428210559 -0.8226311307357316 -0.03555181544092918 0.46362799235577684 0.32720509755726224
167 0.26372826731298116 -0.7832665702624546 0.5627842147772566 0.01465634766682314 -0.7467660899081895 0.3471324950086092 -0.023004489316152947 -0.5668423337610156 -0.6781786726863414 -0.6387952050121579 0.02997324508666866 0.3620994042329289 -0.671319495319379 -0.7285810035499052 0.11195013545804029 0.07724651216251574 -0.6281502045954609 -0.7435308480416526 0.15910335953683358 -0.1651524128229267 -0.6051778116138041 -0.7606861443790255 0.18809496117950067 -0.14048733629399437 -0.5931613255947205 -0.7665992123850893 0.21283720794178296 -0.1232299164359895 -0.5799599887605716 0.7732083729329797 -0.2372358332248441 0.09754169824893225
181 0.3242472068327025 -0.7266128828981582 0.5921177585867657 -0.1276480600471576 -0.7454239086773258 0.3471884838485294 0.23366991315752147 -0.5188465329364105 -0.7104852433475477 -0.6009310642123371 -0.03682385101714979 0.36433031584850406 -0.7352433729394996 -0.6542303252949592 -0.014230150538877382 0.17662776347064085 -0.727658594247387 -0.6835724835610767 0.0566531111075111 0.005661708037172264 -0.7368494458039724 -0.672053238254508 0.06381460813548878 0.03640102963546611 -0.7467735631997983 -0.6584021464192413 0.08145408498015017 0.04691578557862668 -0.7668159824491916 0.6317605436435243 -0.08770204087278906 -0.0719737214715708
15 0.2013488711198438 -0.7239829755501062 0.6039404649686011 -0.2656373429807807 -0.6763180580224522 0.16485937774002793 0.48254960873685687 -0.531564807969655 -0.6606986024290961 -0.6232137223577872 -0.14931589547239932 0.3908794908567932 -0.7008576237647515 -0.6979367925448433 -0.10716091013372324 0.10099190146914941 -0.6294630312456929 -0.7505916972390007 0.04817773580296474 -0.1951084367826259 -0.6230571580485538 -0.7583758509022923 0.09169337183211439 -0.1681016720164954 -0.5988336031974684 -0.769134700083146 0.15328755852081472 -0.16227462282277544 -0.5902532705717682 0.7720844729109514 -0.1898355520019803 0.13946005329574693
64 0.20123396031223711 -0.6811928627715368 0.6195283502485378 -0.3341643310775344 -0.6312765147719498 0.5188625987453656 0.03587445370814563 -0.5753126011932367 -0.6314186739284995 -0.6590533787371955 -0.09483048954498503 0.39744972064667533 -0.6243835322015733 -0.7782628420406849 0.05757803658178633 0.033718290550225724 -0.5898557783884579 -0.7707521763704399 0.10065782895641498 -0.21881326466134976 -0.5724746307373954 -0.7792692452083326 0.16104097314720062 -0.1976816774572722 -0.5627725651254379 -0.7824858655153606 0.19532388400897088 -0.18124980150737252 -0.5525015668690046 0.7840379245241694 -0.23215908240830954 0.1616437811066648
66 0.19419580595237057 -0.7242499147511272 0.6128313582707956 -0.249374770683536 -0.7355678041235154 0.3653621956943551 0.17658519208369872 -0.5424648757579357 -0.7508001964443858 -0.5413107427140263 -0.15452702190879272 0.34554760068832824 -0.7435814118301896 -0.6675238448282304 -0.03733744131798908 -0.010223308768915165 -0.7168467308334815 -0.6561980895536152 0.006284172030162169 -0.23557449127915137 -0.7087704334887964 -0.6697956605332642 0.05130310743146885 -0.2153746431472074 -0.7132762210435679 -0.6725438271482612 0.07489755603913578 -0.18251627094026862 -0.713354152334161 0.6780226447014616 -0.09939621454989156 0.14673629119205067
73 0.4110676846413503 -0.6646140347100695 0.576532348910122 -0.23858330656225546 -0.6925384861458916 0.5105791369594347 -0.05847606298489229 -0.5062409902075319 -0.6257317059966745 -0.7079215192791424 0.0613363878760342 0.3217837817142481 -0.6416121788183642 -0.7522442866257217 0.14081829092586254 0.05130842203410243 -0.6131706199691391 -0.7615853841994259 0.1732445587631086 -0.11830391472580318 -0.6165299347964128 -0.7574321382552283 0.19201406993643275 -0.09652974870209946 -0.6148522763053006 -0.7570688691181244 0.20806915116298003 -0.07423364512612553 -0.6251538002517353 0.7469054508746225 -0.22044255648660277 0.05215412518910843
92 0.2091839743073426 -0.7133993344300551 0.6046210684727041 -0.2858965163947703 -0.6846738085578148 0.19774735447907127 0.4216338793481415 -0.5606626717174081 -0.6436643898118344 -0.6465202162741194 -0.13579170228280424 0.3863526586270154 -0.6957259077140894 -0.7004854037792984 -0.10730642146392716 0.11734987149616298 -0.6367856403437683 -0.753331300111262 0.03136327846262203 -0.1612834315381737 -0.6410038732960907 -0.7555128859771462 0.06290570397005515 -0.11982147532861026 -0.6242113082578511 -0.765266183726738 0.11606748655531715 -0.10609547234480704 -0.6226904244391374 0.7650460414439055 -0.14567699491923433 0.07575884723329823
172 0.20497397723992353 -0.6488273797059604 0.5445014282203323 -0.4904354133465111 -0.7209675386376927 0.2831011163232214 -0.014577616731350478 -0.6323346102007125 -0.634649381181834 -0.640763804075296 -0.0881872057243693 0.4229242569290616 -0.6667268580830614 -0.7400253297724753 0.08158450979496434 0.03437696565061977 -0.5932377271065147 -0.76005241869885 0.11400065656250737 -0.23956871722084658 -0.577940783979013 -0.7649232094050735 0.1761742506265085 -0.22324777119459466 -0.558541733254496 -0.7752490091195152 0.21117249782951403 -0.20597641183571758 -0.5502833625338635 0.7762832815870644 -0.2454311561855701 0.1852998521862809
186 0.8462719328981948 -0.4825300073520203 0.19090804859172344 0.12059321944666905 -0.7478380717920116 0.6108082293427397 -0.2388193227750008 -0.10303813087824966 -0.7236898013123451 -0.6299598732740554 0.27269811311473796 0.07112923902795644 -0.6389269010031339 -0.6713415059126436 0.3752468741022435 -0.016210524049836285 -0.595373535030765 -0.7082519581807597 0.3762784923593765 -0.048208025326125635 -0.5592865747715889 -0.7291077415002041 0.3928549345187671 -0.03557286872028324 -0.5289967185519008 -0.7511976958747537 0.39340520187688893 -0.03311858405769307 -0.5061667504006521 0.7603294144903299 -0.4046709902173077 0.043997635461236785
63 0.3499084592910298 -0.9164238265084924 0.16101865305516222 0.1086482107188672 -0.9508937389775662 0.21847594190468841 -0.05301366160880742 -0.21274141972110247 -0.8904009071917626 -0.363169753835478 0.21644658765895275 0.16865594878912415 -0.8988071185463018 -0.3820880964967851 0.21223054383827025 0.03335635513765902 -0.9050636517390174 -0.35332457792146343 0.2365972878536145 0.006576649433279834 -0.9214255460207965 -0.32244574654845876 0.21218320741294489 0.044519548122586544 -0.9334553230404551 -0.28900299365504456 0.20071852120183573 0.06964556548991511 -0.9446033708440233 0.2551346036896677 -0.18744630868819415 -0.08657186118707925
436 0.12823600338210095 -0.8642901167557805 -0.48332752992345407 0.054338019221883326 -0.7659028167693314 -0.24593799387842288 -0.49769937920164015 0.32434966683220573 -0.696546636542856 0.37314546991223563 0.5890439238331431 -0.16915228996400133 -0.6743246851299889 0.4451922273575375 0.5745500500904397 -0.1303163062162573 -0.6840741309768285 0.4607597233967415 0.5646385466883072 0.030436363405827307 -0.7009979700045145 0.47573534304685067 0.5266561948439449 0.0700783979421745 -0.7232032083699276 0.46930930963663486 0.4989007369695572 0.08845307198204692 -0.7519390821908132 -0.47047013356719414 -0.4536081698436611 -0.08651646286336669
100 0.5174841455460457 -0.6819710310739341 0.4795162261324265 0.19284672867370553 -0.6952932429695685 0.6209076141813781 -0.14590600391183567 -0.3312891168676221 -0.6719774890556773 -0.6648570671319868 0.21046509681920722 0.24923037035634668 -0.6480389222144205 -0.709075217313156 0.2737336612824439 0.0482470120150582 -0.6230858879137876 -0.7196339386847371 0.3037369219455379 -0.040433313280378816 -0.6151980217512724 -0.7192507694806768 0.3208698766276799 -0.03538710086617542 -0.6132037373340153 -0.7138506015235592 0.3363512570459467 -0.0355854901281425 -0.6198759683802813 0.7009170243056952 -0.35029044126189324 0.04202041912696995
101 0.42735561889853374 -0.7219928086189543 0.5207255132029853 -0.15791928063999278 -0.7117647842760494 0.5422152647932317 -0.1079391917022108 -0.433292775596764 -0.6981623194768981 -0.6313844687635213 0.19076839266588075 0.2784429001187136 -0.6715650540198367 -0.693375259805875 0.2548802206929251 0.05715942973818893 -0.6559841694807843 -0.7001222171540854 0.2803257883750397 -0.030513977285266718 -0.6468048135660078 -0.7037008950218108 0.2936672799073387 -0.014426094591718185 -0.6436847148768124 -0.7016596817249047 0.30551754453063545 -0.0016458613651138328 -0.6482657586298078 0.6921652808912766 -0.31726608345585156 -0.0009810226320910893
107 0.4846721592771956 -0.6679902565342776 0.43433921285712046 0.36087582818956976 -0.7231883314950737 0.6468333560460221 -0.09995762306630687 -0.2204851928963615 -0.7050258448672252 -0.6622714596492979 0.15091048041498195 0.20386539359136713 -0.669657461471355 -0.7158217514566568 0.19780602359724017 0.005557109492626369 -0.6741843040865906 -0.7000409952471704 0.22321082156011374 -0.07480012189221061 -0.6894079194293737 -0.6862035876180919 0.22376371053308536 -0.06140976157409838 -0.7196664917665587 -0.6512963810334934 0.2346960100855304 -0.05301836975069142 -0.7488146598169445 0.6143206607076162 -0.24500566380419306 0.043115609410729165
458 0.1461909443575606 -0.8821261753883449 0.3328043261026225 0.2995378089823633 -0.9184380969787133 -0.17638731628945714 -0.17890454245755538 -0.3055358266363792 -0.9853780442843242 0.07969565781436874 -0.017579875493380862 0.1495649021180195 -0.9966528845712113 0.04856156429039174 0.046159414257195504 -0.0468413345773432 -0.9832530103003221 0.03977048244569025 0.041101085458552254 -0.1730390916397815 -0.9873130438289991 0.0426564346898088 0.04551244387406409 -0.14602054484654214 -0.9896414823353241 0.048248492386293376 0.036137282704841456 -0.1302916582989955 -0.9919311414315893 -0.054059144620548394 -0.028277325436693635 0.11113330917086157
1443 0.9944967078335252 0.08937345318721564 -0.05016431720908492 -0.021730744410141705 -0.4541160423859668 0.8708214473873259 -0.14287437035774897 0.1226194972784769 -0.4565544077474149 -0.8337755775664268 0.2902794003544828 -0.1100646571339796 -0.4857023312225282 -0.8291362728428687 0.2768100965229231 -0.001567470640028429 -0.5258528409038663 -0.8076157320084663 0.253463946106566 0.08361606992588355 -0.5726359572565587 -0.787870202992877 0.21103297499745424 0.08254506136984395 -0.6186953239833588 -0.76134938199573 0.18136218502296564 0.06834451301708286 -0.6616635232985054 0.7303991425766484 -0.16217930139176412 -0.049156369471148785
1445 0.9960425482263724 0.07883175688114845 -0.030333846498910178 -0.02765237758903629 -0.42973821979550203 0.8854211518697178 -0.11800910938822759 0.13201627312605232 -0.4976322104071932 -0.8326703877217275 0.22468728120580436 -0.09240040173583071 -0.542380324706325 -0.8117549439547013 0.21634767774578148 -0.008436626729259678 -0.5997667483487485 -0.7715142167285338 0.20494504450222298 0.05516511302361056 -0.6492106127717865 -0.7386666283151504 0.1752194874838174 0.04685428138299916 -0.6951412548043876 -0.700900684317661 0.15570992483215934 0.03565509642083771 -0.7355756794562885 0.6622113833389177 -0.14167565685636777 -0.01823490672016984
133 0.30023940589278597 -0.9306299177208985 -0.18383339280075034 -0.09994768173052164 -0.8355659011121351 0.37767647320529585 -0.39211937090707105 -0.0737055319858549 -0.7879713789148441 -0.4456826138371824 0.38824649886290524 0.17243192817744613 -0.7179043979972858 -0.5695535632168119 0.4002601864944734 0.0037144408189096656 -0.7027850328822254 -0.5603122356126827 0.4319705536311154 -0.07446366211162593 -0.6788698302564247 -0.5800899008214948 0.4462597759002573 -0.05902264773774464 -0.6662741508125312 -0.5769773083881918 0.4689151657618517 -0.057397812525329904 -0.6498608981244112 0.5782024384606468 -0.4888864967111592 0.06597534827937798
1567 0.014216757026357992 -0.45980080306747956 -0.8853329578765955 -0.06757705983270443 -0.2876519277324024 -0.30175069381585806 -0.6342172948720508 0.6511307934191557 -0.26269861658957006 0.42155977403526873 0.7365374845830778 -0.4591179887145479 -0.2694316998417869 0.4832943678865948 0.7384496039879841 -0.38538979677652524 -0.2824057158690669 0.5381648100553214 0.7846534449197557 -0.12224819114473498 -0.282879639765211 0.5612242421151675 0.7729379391317566 -0.08702529356062605 -0.27846592262996017 0.5752255476964534 0.7664462712660489 -0.06428384302085798 -0.27449160018562785 -0.5927534341607336 -0.7513368299377686 0.09375870998075289
890 0.040017502957652426 -0.6082147264302239 -0.7926548502279542 -0.013104748015190584 -0.38149850130003005 -0.2678441315829768 -0.6379574924226055 0.6129670892831468 -0.3806151484017092 0.4325665613602844 0.7270054226999523 -0.3734720794985188 -0.3792204287312825 0.4891092282526777 0.720903655437562 -0.3118684800483904 -0.3959645165453239 0.5426234263349062 0.7376380999438269 -0.06827849105578619 -0.40145543867721845 0.5622748687511024 0.7219684616389846 -0.03797424292926127 -0.40835273937887423 0.5761328212961685 0.7078604215778224 -0.015894528327514052 -0.41728411793725617 -0.5904570826972323 -0.6896074140264744 0.04093913689513572
1592 0.01324664361851958 -0.4366435636076461 -0.8955425258693682 -0.08467885894585135 -0.28023555706711323 -0.2982992291131632 -0.628527639847441 0.6613914184607952 -0.2653129574481827 0.41902979935144957 0.7349160528503574 -0.46251643984666446 -0.28421935970965617 0.48380199286890974 0.7335434061074239 -0.3834958391151376 -0.3023614219068428 0.5392534780204116 0.7754549176474976 -0.12826896616748062 -0.3077574934764218 0.5602952700277462 0.7633257053495286 -0.0932116041396668 -0.3065764980176646 0.5741561912724094 0.7559080037567627 -0.07041738949472172 -0.3058008542414101 -0.590666865068177 -0.7402609913625704 0.09804160709953741
1597 0.01424824655366675 -0.44744555727010554 -0.8876440727218436 -0.10806230106364097 -0.2850669175029968 -0.29968891534798436 -0.6169553052551963 0.6695442912013782 -0.27221374533961673 0.4244730387669599 0.7231464116360095 -0.47199744019018186 -0.29689309710660133 0.486664880896389 0.7235742587217322 -0.38916844002031986 -0.31518323526674497 0.5429187070379841 0.7658271870626477 -0.13931089444370018 -0.3214412120049726 0.5638614302267104 0.7538993257902201 -0.10184125539541737 -0.3210903037718074 0.5767002748247416 0.747076948300294 -0.07870097305062741 -0.3212275563307987 -0.5924230535446068 -0.7312338363902984 0.1055692152123609
1601 0.01738556876581458 -0.48051864461092525 -0.8738868937268546 -0.07156305717615669 -0.30925338616135634 -0.3075593130416142 -0.6437619526789822 0.6287608133400564 -0.30255294008837863 0.42906473812669765 0.7450736152512689 -0.4113763201699272 -0.29954428153544127 0.4874848069630825 0.7386015660260091 -0.3565101864512562 -0.31747329651638345 0.5414569585230188 0.7718196368086271 -0.10163422800721021 -0.31952189102207207 0.5648627471221099 0.7576126092992876 -0.06970632899577502 -0.3190077888117788 0.5795324350948632 0.7482783648209577 -0.04955477869299334 -0.31756286720998333 -0.5969169546704954 -0.732477785281102 0.07950011739593728
1398 0.9892133462715267 0.12818634677603857 -0.06867764024063039 -0.01756695162743057 -0.30965185292469505 0.9152256996435738 -0.15742923643827897 0.20419031369458812 -0.31994692066099495 -0.8766674419678786 0.32310857435823 -0.15712737931129478 -0.340203109220824 -0.8827826215587921 0.32169243200089576 -0.038349273052035976 -0.3671058410273826 -0.871860703352294 0.31760559487926576 0.06495307179039998 -0.3919978651131546 -0.8690971062053165 0.29480323456942 0.06402301632757722 -0.4194516757518714 -0.8620064006199072 0.2788426846064802 0.057026434578272445 -0.451026517964379 0.8509258480285633 -0.2661324246483679 -0.04091226956035355
1005 0.7658554850341839 -0.5558357293553822 0.26573727811952397 -0.18410789508506128 -0.8992202765889752 0.2238836690100074 0.20847923315549144 -0.31275454635346683 -0.8274884763622737 -0.5309391998700144 0.1384132389610911 0.11919799834448401 -0.8722136502417435 -0.4486742583838442 0.09208905917535914 0.1716227356030611 -0.8191231430062618 -0.5170469204578548 0.21449845908779067 0.12526040749396983 -0.8386921355721332 -0.49306647973637174 0.20995284490089855 0.09695747112964474 -0.8229883495873603 -0.502692398302092 0.2590347648131523 0.053772853290099225 -0.8305435734704361 0.48096468859994035 -0.27976546834951943 -0.024528016758286843
695 0.22979597799141788 -0.8302708376302043 0.35730713693070665 -0.36079877297212076 -0.9023057396014192 -0.02672391472759443 -0.20233218656641744 -0.37972604722776193 -0.9344073562905159 0.01813628746328874 0.19892298301950412 0.2949298465971867 -0.9309196402517479 -0.043451771974941295 0.27817672639464736 0.23263335057156279 -0.9100351487593665 -0.05040340509280301 0.34943530120840216 0.2172337336763368 -0.8946882385325184 -0.07951166524202684 0.409997725761258 0.15846992078188116 -0.8706289117850412 -0.09411869578790114 0.46941496640791336 0.11312187400957059 -0.845314492497823 0.11425145183304838 -0.5190751381622926 -0.05432324980140416
700 0.2284214151124578 -0.852270802662095 0.324959044295891 -0.3403817791510466 -0.9128739839898875 -0.07171269873105228 -0.23618217044587558 -0.32517127880336427 -0.9482054303658934 -0.027331158475110653 0.08567781134835123 0.30466175054245903 -0.9474928715711495 -0.04817786631530656 0.18177448530296314 0.2586391076616306 -0.9350847833627423 -0.07418989664092786 0.2530055289082371 0.23685546120308265 -0.9196051473280397 -0.08961097094404906 0.3355764602694168 0.1835338829951791 -0.8950311841558148 -0.10839089516049051 0.41026383057673393 0.13731053330117102 -0.8655393912473428 0.12416104133303878 -0.47846691187825335 -0.0805916388464873
714 0.11706049187389701 -0.7249782762577907 0.5627980996511995 -0.37942277109514955 -0.826653561633722 -0.05730271516165556 0.3524215854865213 -0.4349244922472762 -0.8291596540957874 -0.17086314460910781 -0.510411831639067 0.150929837861485 -0.8088417003019852 -0.22257478304864264 -0.48954656407943015 -0.23786494361605182 -0.7580129048170812 -0.2519423084146393 -0.39688007752345766 -0.4521368304246488 -0.7522478189869841 -0.26098258653200385 -0.3487156387042917 -0.494377094614474 -0.7711036602931574 -0.27548325172503063 -0.3048211277074983 -0.48640744567145294 -0.7879655848148017 0.27451070583650594 0.2788763185109474 0.4753757550637088
722 0.24658607722268208 -0.8677795669845548 -0.05668683370442371 -0.4277154808147528 -0.8413826984344479 0.101779830313896 -0.5003229887457703 0.1771804951142797 -0.8977671381646232 0.08546933468025027 0.43195485748511003 0.011142690700001949 -0.8641374281229612 0.041879492354730305 0.4991830155727117 0.04825899295341786 -0.8397097730771489 0.04747057875516294 0.5214327525718178 0.14402057386620243 -0.8064834323469517 0.0367404565384557 0.5786569886127804 0.11571819966113327 -0.7791020321830245 0.0358993737215137 0.6204103590584986 0.0824757224132602 -0.7490453858277558 -0.033949352924974495 -0.6611161484099701 -0.02653092003098403
663 0.2133987615820917 -0.8425780249667181 0.3054455110916594 -0.3888782330657877 -0.9732070914406197 0.09402517138273098 -0.10069060227373886 -0.18408863878547516 -0.9235728912906429 -0.256327945518206 0.1350622511357456 0.25113201137569624 -0.9370742416659007 -0.2506703384066239 0.147977098531607 0.19276676414660485 -0.918700304177886 -0.28446722289807974 0.21094647077263232 0.17484203347217483 -0.9243360413155542 -0.2677958972629641 0.23902660766405204 0.12943925588023664 -0.9132804280632102 -0.2718890172199066 0.2906893590233864 0.08657319782961452 -0.9093943584577947 0.2553206801298778 -0.32587867698530504 -0.04020371860238577
788 0.7281711157746416 -0.5076354214816797 0.2984195068157943 -0.35074050658634914 -0.73333875385691 0.6385889713622973 -0.23308327999046075 0.00951747523904331 -0.9484697861360812 -0.1605530097321871 0.20185906868949938 0.18406714057843238 -0.9191924908495472 -0.21822408961860387 0.2808558733607801 0.16906622925555043 -0.8977721700022089 -0.18918310744335196 0.34392337880474816 0.1998289071659254 -0.8724117365346332 -0.22708750356207041 0.4065728953865996 0.14841667163607103 -0.8409452064624268 -0.2569872542603387 0.4654234758022913 0.10074571478585312 -0.8059612031993214 0.29065946677307525 -0.5139682678896025 -0.04219280643966909
1018 0.43053254549452563 -0.6547016447002394 0.5705180171911538 -0.2460013734861661 -0.579475969746003 0.7587404350488178 -0.10603641820911357 -0.2779871053164915 -0.5461679833929424 -0.7902408024432227 0.2065647362265216 0.18587904082506387 -0.5143264621030846 -0.8027897154186303 0.29528486458880215 0.06167505122309683 -0.5001550788206224 -0.7958222045822694 0.339053151537513 0.03943191925627802 -0.4865921408488334 -0.7912239053151762 0.3684051504217691 0.03834664606799587 -0.4740269434835053 -0.7843177825222652 0.39885773350351744 0.03250509645393101 -0.45955872926824665 0.7790523699349131 -0.4262473371902997 -0.014013807131847095
509 0.08166108276656182 -0.5587435272082468 0.4345794810041806 -0.7016251228786045 -0.7627914160775283 -0.19063144506689927 0.48652910272884614 -0.38091776003227873 -0.8501937333426659 0.11663517116142152 -0.4671512023392799 0.21292394601352593 -0.8724217393915841 0.0873870834682139 -0.42232646629448956 0.22996556730756884 -0.9084944416026784 0.07735181630556241 -0.3881627972468595 0.13410514130622028 -0.9248781440535688 0.07457430653503977 -0.35620127853156 0.1102712139650507 -0.9363955982842579 0.07577469218670838 -0.33176285855077803 0.08576062747026103 -0.9447537555719342 -0.0753985061462021 0.30785854556108516 -0.08353755160800666
811 0.22963173476948792 -0.7890029729101498 0.4076831048470967 -0.3981683829084529 -0.912972823654721 -0.012200167079454942 -0.06422840037253767 -0.40274867073243587 -0.9802626058004931 -0.03029365963448613 -0.05297309993555892 0.188046187247693 -0.9812473789087984 -0.06816764743949921 0.08226022658706615 0.1604369295050911 -0.9783805940297425 -0.07929661627494469 0.1503794834836241 0.11776871749556732 -0.9640583072749597 -0.09331499557571821 0.24370094400814918 0.04993737742793535 -0.9445353760954159 -0.10551507917231746 0.3109109623303259 0.007339269335660588 -0.9155598832192381 0.11952734640212613 -0.3814606823176806 0.04417082235334566
1481 0.945943711589458 -0.25108525325771835 0.12395621903337327 -0.16365068244226214 -0.5952470733508155 0.772474130339008 -0.21800847026286027 0.03790707741213513 -0.5953953857533859 -0.7250749353089992 0.34599372084508656 -0.0076823138441245 -0.5618817578558594 -0.6976105467407678 0.4290565543511377 0.11635672921316456 -0.5534826012107211 -0.6701168703632115 0.44543611696816915 0.21491173981881076 -0.5433714805728609 -0.6701873648201921 0.4680122937642633 0.19120884660741197 -0.5320902408450244 -0.675902564766314 0.48552168270042184 0.15589866634308794 -0.5189127867853901 0.6801145251624043 -0.5072444821625415 -0.10429183903543246
1891 0.05130283501046967 -0.4638973908708197 0.4296962449416409 -0.7729995905213584 -0.6503546238765967 -0.0683765971407348 0.6165418727925499 -0.4384513921282941 -0.7056129058341118 0.03897830035844098 -0.6583686685773796 0.2591173777598803 -0.6204609250535711 0.010966496621626286 -0.6864519957257523 0.37906679358346085 -0.5914392679001977 0.025507096427551293 -0.7130543173332476 0.3756361550089794 -0.5514367889905702 0.03126239639116915 -0.7453815735222429 0.3732913609677513 -0.5226780603315403 0.044201721924476765 -0.7645399930979527 0.37460973289645355 -0.4925446710732991 -0.049835024036086646 0.7714247217031637 -0.3997750819170887
390 0.10286367961289783 -0.6717876318367362 0.4492482326651619 -0.5799107401789634 -0.7761450385679893 -0.2149490594134416 0.46387097525026955 -0.36907925881026515 -0.6811670997761216 0.09479460257599916 -0.7140704837743121 0.1308766965787476 -0.6767516082920975 0.09271385128251282 -0.7045138454524956 0.19253998031619463 -0.6614953570584907 0.07785915844589979 -0.7376388074203692 0.11068348487290962 -0.653832145059279 0.08464515738577269 -0.7451304249242521 0.10059509565840355 -0.636833869550892 0.08523382469883 -0.7632521087128281 0.06800026665733012 -0.6243621826727623 -0.07907400608806067 0.7728637718673123 -0.08124504012135579
277 0.08482576731056213 -0.7947234275719248 0.35878645718622193 -0.48217376640404774 -0.8635639664586464 -0.3141776788146264 0.34652962175199764 -0.18832653349244466 -0.8828264683539903 0.19214139556152995 -0.4189037311051617 0.09065745943640334 -0.9044549309900543 0.20172202218911173 -0.3756363953962039 0.012915185846838316 -0.9150841491690697 0.1842916184474883 -0.3476743606770725 -0.08820509190128527 -0.9277317381622822 0.1810290458191077 -0.30823011187589777 -0.10740812217512116 -0.9384307636076552 0.1700618228700415 -0.27960858568324826 -0.11066036837588056 -0.9472865926269998 -0.16108848147223565 0.2574121401527141 0.10216458617396389
434 0.06321160119970755 -0.5851912147188107 0.47170087708717634 -0.6565468896011013 -0.6768693711487209 -0.20725544933102946 0.6670504526130069 -0.23224281860180424 -0.7126357456857026 0.12351478132580013 -0.6872808410584178 0.06737535364698412 -0.693370209845223 0.10913081999450312 -0.7084347338781645 0.07381357640362005 -0.7203934373494709 0.10360322232722272 -0.6851934545157998 0.02845342924736192 -0.7433995045633449 0.10229296812368965 -0.6607119427872211 -0.01878972979462155 -0.7743019346280153 0.10466923144111413 -0.6228453225756471 -0.03955464784923909 -0.8017110506184427 -0.10722745676843945 0.5865979099691911 0.040798968749489135
960 0.050693489059670305 -0.5475005107969383 0.34880130404818055 -0.7589538926300711 -0.8650488859068397 -0.13787668434003175 0.47568957075546414 0.07999923237892345 -0.866546241084365 0.07831660323412525 -0.4875499308304788 0.07252025005211706 -0.8869236729952286 0.03703619113079655 -0.43895626555688444 0.1389680386115093 -0.8902519408135761 0.02544006702214083 -0.42367060499737996 0.1652498209642722 -0.9160437278559784 0.022603107414186537 -0.3763554318195833 0.13678295628783527 -0.9302935482202124 0.02348979867535319 -0.34952539233677626 0.10878485009348342 -0.9446464560067617 -0.018159936166817034 0.3136638386047062 -0.09448960907974481
475 0.06518935856636424 -0.5820813542201936 0.47026272949671144 -0.6601398411285251 -0.6533935830157266 -0.1998025897302691 0.7080372046365782 -0.17843505166129467 -0.6295583692065152 0.0995787627207993 -0.7700909729395518 -0.02646173036750507 -0.6252781950184761 0.08374171982587299 -0.7754478957882754 0.026364068589226245 -0.6447262316387077 0.07606080383456974 -0.760615334729101 0.002674496574732765 -0.6733199345888975 0.0754837335920163 -0.7345232311259631 -0.03765759663716566 -0.7047408669367329 0.07751396881839845 -0.7029674621708796 -0.05629069404720127 -0.7353819869867422 -0.07960329911918496 0.6707354027192232 0.05468699593005714
346 0.5178207941966737 -0.5416945267916154 0.4732516178460451 -0.46309995783592434 -0.8163848479230771 0.4474575055027946 0.3488431829066306 -0.10773112173555888 -0.8318341863111607 -0.0924035244067433 -0.5256099211404797 0.15247191859473783 -0.8388740474612996 -0.20734401172145175 -0.4872131587355218 0.1261829277442359 -0.8596874813197486 -0.17405396834324108 -0.471730418101567 0.09007254411749367 -0.8761346844800335 -0.21681022939579775 -0.42874922776280944 0.039439051373075094 -0.8905971681495969 -0.2223754473618553 -0.39614505955997853 0.021329235353248772 -0.9004089741838502 0.23410075154071652 0.36650303034485304 -0.01166387951317768
1716 0.03963165981220837 -0.7398457916566414 0.43381804399309054 0.5126981966171675 -0.6833642172212906 -0.4289362515714318 -0.3471664361807242 -0.47801935556937186 -0.6877508171297725 0.5122954182161665 0.228456317121579 0.46082526968396353 -0.6961346014938887 0.5482595197061821 0.226474408650564 0.40437291932184183 -0.7241797590272481 0.5702286107122159 0.21747667423679887 0.321102638269066 -0.7375700982665374 0.5774601547366244 0.21753931383123545 0.27423852167862794 -0.7552446460323664 0.5722764425152285 0.20626626146998792 0.244048002165055 -0.7720188514315359 -0.5654976826101942 -0.19486376520243562 -0.2150055278544304
1717 0.05461260762328536 -0.8324329007350486 0.43286317690614556 0.34161732822141305 -0.7957203063693021 -0.3749635807778244 -0.10912451199336537 -0.4629506971633435 -0.8486846422180343 0.3507906066387801 0.05868439151916343 0.3914543019935653 -0.8828222002262938 0.352166131426369 0.04935413891031268 0.3068682903726164 -0.9098772423733027 0.3519966105194397 0.03592417012249759 0.2166362019492354 -0.9159438325463802 0.34582800764451355 0.0323344897677562 0.20100837176678443 -0.9211593899915193 0.34095719076841097 0.02838010803485689 0.1854943173299268 -0.927314285175885 -0.33223186595007725 -0.025482476621208616 -0.17047242340424779
1718 0.03931915419055648 -0.7080946472794258 0.45074317628108773 0.5421130543014077 -0.6276374973232857 -0.3607176577794157 -0.33048637640886713 -0.6055845922148544 -0.6234343730952004 0.45549667117302906 0.20836334484002833 0.6003641241119919 -0.6627656210655103 0.518293837626192 0.26603173844438405 0.4704682173671477 -0.6881185517313191 0.5755362037225465 0.2718658561427451 0.34833876217211807 -0.6938812555729647 0.5978384249034839 0.29598161494720915 0.2711326326480262 -0.6974776676585764 0.6067101697980278 0.3042746644594454 0.22987953703905986 -0.7062737578415295 -0.6089876744058673 -0.30217168583350995 -0.1974934522627841
400 0.08479878359284208 -0.9460853174534155 0.31072139417590733 0.03440862684887014 -0.9078891519654537 -0.32490302581008296 -0.13375065083635485 -0.22866148552774063 -0.9366614704585464 0.2930842580826022 -0.02376299310926949 0.1902688297674981 -0.95328175996412 0.2664079809379428 -0.028770719144083936 0.13947372344714432 -0.9666595771625097 0.24203898210855007 -0.051496333389165115 0.06583707669183776 -0.9710295135476503 0.22587595721266385 -0.052235778650635105 0.05790646942646592 -0.973767103093915 0.2149699919764427 -0.05838644274981356 0.046438720748482244 -0.9756565135402842 -0.20574062452217953 0.06087328669977066 -0.04538288194912828
410 0.08051732572950739 -0.9102420043340606 0.33879649971298037 0.22403880374951338 -0.8221161314073789 -0.29345530023397104 -0.1777316498554488 -0.45433524393779456 -0.8490408477118011 0.2752364965167869 0.039181909753456604 0.449265275589003 -0.9171849428871216 0.28953558018491027 0.11741120717326606 0.24729645524805086 -0.9353592185827873 0.31942465574593243 0.1491636976515031 0.028656811000548156 -0.9241085419440084 0.33278696356492615 0.18764219576824592 -0.008163697362526682 -0.9099978052277229 0.35743256136585466 0.20983061793127214 -0.010819904562998028 -0.8990778517154628 -0.37708918581068435 -0.2220979490213765 0.01163028545829648
2159 0.1284840144540395 -0.983313031104654 0.11135175746249981 -0.06471573996768003 -0.9199185452483973 -0.3231787141850747 -0.19386733015271365 -0.10826286115382788 -0.9105954227636108 0.35608144040684153 0.18849897153001824 0.09214185570019287 -0.9078202891526005 0.3592657920755665 0.13828641374183157 0.16633484608351803 -0.9178748945116322 0.3377766554152456 0.10803051072609167 0.17816289690620316 -0.9313670159979848 0.3056273428744895 0.09230394786369177 0.17500682845896492 -0.9419300981915607 0.28314576738291974 0.08279665766327117 0.1604396397832077 -0.9499984183021181 -0.2643210706069582 -0.07442794956213246 -0.1486534802170529
1745 0.042609285293601876 -0.7418403382731265 0.42779891782239543 0.5146313702326832 -0.6575989193732918 -0.3604499703373644 -0.3347534722604131 -0.5705958227436201 -0.6386124932753664 0.4778986062804517 0.2567537657739259 0.5457696485777951 -0.6704195634691024 0.5291864653455436 0.28395329420914767 0.4357405426635917 -0.6886072282768698 0.5843035249942252 0.30394278506308714 0.3033615981831973 -0.6881030345394433 0.6022474917093888 0.32486912109296306 0.24139640997256995 -0.691699102901129 0.6098878833345611 0.32878990743413183 0.20368190291952112 -0.6982881214163043 -0.6132709003180132 -0.32431383995564006 -0.17638887585460025
1765 0.04479278759085998 -0.7173259597827083 0.4549180365130955 0.5258199821771006 -0.6831558955851065 -0.34529976291692227 -0.2825788324548526 -0.5781135697294094 -0.6644939550770019 0.38236526252633557 0.21820335591240642 0.6038475678081792 -0.7195718724766772 0.44749736897155884 0.2513519092838002 0.4677442065951532 -0.7411861472263411 0.5085297437994145 0.2733551403195914 0.34251651360471774 -0.7455302869106841 0.5324989001210186 0.2957320296797133 0.2705033812917975 -0.7439275077009071 0.5471160574703166 0.30311133644443655 0.23528578508469578 -0.748108551025603 -0.5553948915702985 -0.2990163775838355 -0.20605658503583438
1799 0.03164982275115807 -0.6585588311460782 0.48161884765077534 0.5773576363285332 -0.5380470873444617 -0.40094368169022254 -0.3839518882051117 -0.6342952336700632 -0.5521340939228041 0.5000012049171061 0.2544568128463552 0.6167645156828991 -0.5824341824757472 0.5585327743923146 0.2744544409232177 0.5229591980938437 -0.6055585710253093 0.6144165218692209 0.27655603379598936 0.423447653061091 -0.6212254492738825 0.641838145311635 0.2932077374922281 0.34081073790605815 -0.6208816248089728 0.6634527485513652 0.30459857389685974 0.28558040407949603 -0.621420307271651 -0.6793761125281393 -0.3110821737017876 -0.2356115036273288
1805 0.033671442861473284 -0.6628422935980337 0.46072944908996644 0.5892662407558917 -0.5532084626049617 -0.4013627599424105 -0.3488143031499699 -0.6412463752347196 -0.6160465489782241 0.4717679962568573 0.2215960850789247 0.5906071302291435 -0.626273956476067 0.543026793528287 0.2840682441527775 0.48187972110699817 -0.6627382932534858 0.5936003382486691 0.27650873456055464 0.3632623195409115 -0.6591631695548873 0.6240901933106248 0.29861010544625244 0.29469874692852016 -0.6606679453155504 0.6394991861644244 0.304283282482435 0.24893842798829294 -0.65989264921494 -0.6509044263771419 -0.30985996849361785 -0.21178271685826117
1815 0.04270848785922215 -0.7407920489826098 0.4217907753582866 0.5210524609399527 -0.6842905923319794 -0.4032817575934043 -0.3473181448127984 -0.49847799903518264 -0.656838650068744 0.47819069172363876 0.2517422283773544 0.5258540677567702 -0.6840091176986393 0.5266525302838246 0.2755221778437207 0.4229139023099473 -0.703668588420696 0.5722563811563234 0.28142189879568436 0.31332868808030584 -0.7121362885644438 0.5857194974322706 0.29055032133559994 0.25568552483300155 -0.7228309041793191 0.5880105179698822 0.2838745559440854 0.22621748652048798 -0.7381405563916924 -0.5844021253840016 -0.2699032704506921 -0.2019279561042628
1829 0.03453788457802315 -0.67099740052195 0.44598010678405914 0.591330167820432 -0.580300604769101 -0.3855973094472493 -0.3572217843945549 -0.6220599004964299 -0.552609229884824 0.4726017565966476 0.21799503705584894 0.6509598931784384 -0.6017677044969144 0.5437930573553506 0.263943370331849 0.5220140207451319 -0.6266570192301211 0.6080446088944014 0.26811464251217654 0.4070592982780787 -0.636861785375739 0.6363646819663996 0.2877587243091739 0.32656082811290454 -0.6348707866374472 0.6571568009369178 0.2963774664259114 0.27792880500528033 -0.6358152127387574 -0.670616781883733 -0.3016496536816536 -0.2345626431033146
1840 0.038789502249495796 -0.7070113465521645 0.43463348815643893 0.5565285808785551 -0.6464122493501033 -0.3939875307486266 -0.3846552240107953 -0.5281717411467077 -0.6669148992900572 0.45510891517897045 0.23989810762424174 0.5390262427636164 -0.7007317103064655 0.5067873024593683 0.26763882769210584 0.4248660473002377 -0.7329377169637687 0.5416358082459334 0.26520434587792 0.31480090407299866 -0.745750952563619 0.5515719699186551 0.26962948299271766 0.2586963870091516 -0.7604319777902167 0.548135257916324 0.2586837451174103 0.23318161633176604 -0.7750721933271427 -0.5444217679018593 -0.24024991106067697 -0.21248062029513007
1855 0.03454544973797551 -0.686313879484994 0.4871518983061201 0.538946100000178 -0.5485960157325454 -0.38851612242011696 -0.33410977680560827 -0.6606574688784801 -0.5535398477915483 0.48506603577981555 0.2245124871648686 0.6386694927322029 -0.5735569997768342 0.5565141634384001 0.2613461481094638 0.5413155685621839 -0.5967524461747442 0.6165044179511651 0.2712155506738674 0.4361776538336474 -0.6015399892385398 0.6508521360513473 0.290780083763757 0.36053859880828065 -0.5991841902517266 0.6737887116204145 0.30047414554075647 0.3109700405293679 -0.5955142151472607 -0.6942865160062472 -0.3054654461107028 -0.26461276326329874
1865 0.033000948161275294 -0.6783882744381865 0.4850064249076883 0.550880254069339 -0.5437560445501888 -0.3978922419084218 -0.33709563423639394 -0.6575543028701024 -0.5713057290391281 0.4897239437001599 0.21342155244524302 0.6230822288315526 -0.5958113289118678 0.5547340167653146 0.25690329810543017 0.5208452038813897 -0.6267842618758277 0.6087839800658422 0.25844649032062633 0.4119817548398433 -0.633421043185438 0.6381661260351678 0.2821462530260203 0.33453739631693585 -0.6346326378023806 0.6575943966435998 0.29163268039641355 0.28242061586176004 -0.634612459415224 -0.6719428753164733 -0.2990994358163338 -0.2372747904029035
1783 0.04609706445173638 -0.7881931784103494 0.4686993381112462 0.3961660063791483 -0.6345469334287666 -0.38009954956817327 -0.2809134952664955 -0.611524431132053 -0.5802139414088086 0.45974147232465445 0.16013282063383244 0.6529525561443706 -0.5927145252797128 0.5439939797029796 0.23271394491177488 0.5464469429075052 -0.5790681361768494 0.6303897237945679 0.2667166598038147 0.4428895044838773 -0.5547779344604886 0.6760240336819986 0.30465371028184024 0.3773580079070566 -0.5265999659632346 0.7097462070202458 0.32007929917899636 0.34132395126181364 -0.5048715068975199 -0.7389669223829538 -0.3274299478244499 -0.3030219107829846
902 0.10590798628998147 -0.6938449150156624 0.35058042850333676 -0.6200452366540091 -0.9254170705360355 -0.19168616844867165 0.12206086879106379 -0.3032503960359169 -0.817252490705166 0.1340821346174009 -0.4661793134929443 0.3111224763399311 -0.7165312440055008 0.14855465830104667 -0.4653326246244985 0.49797594150828645 -0.618298967629779 0.10655261365712759 -0.5094527149647581 0.5889064937371818 -0.613626983705565 0.11145730598222048 -0.5348253247670534 0.5700886473167239 -0.6002736809103202 0.09746260418232904 -0.5615808649270657 0.5610699430018886 -0.6085753862271495 -0.09782182333676712 0.5619119322726006 -0.5516537596420589
1247 0.2794709472547225 -0.5437198259026698 0.44955405560566913 -0.6512801944243458 -0.7219684236695443 -0.09485441907505078 0.5949780733434803 -0.3402430405556125 -0.5979803950543171 0.094749410236794 -0.7510687465619729 0.263320592298228 -0.5193842800026689 0.0854328891308877 -0.7225138037724497 0.448235423074889 -0.49557457216827483 0.07696831875115022 -0.7304645137559668 0.46357665544342486 -0.509034202245747 0.06945938708124208 -0.7448991662199388 0.42565808656147264 -0.5337016388219941 0.061016960141935125 -0.7496570092680285 0.38659262764448915 -0.5645486729383318 -0.0457978332097773 0.740997188847452 -0.3607083593112744
933 0.15743314588277113 -0.533365154160342 0.31462459934332065 -0.7692514402931098 -0.9772840536837352 0.09457783573288354 0.1567632661564788 0.10675293807442916 -0.9086464263281406 0.08277244396827266 -0.350752035287865 0.21091089156806983 -0.7850109217212778 0.10245512804693897 -0.3890121441482661 0.4710948431264809 -0.7256506131187044 0.11742199367802382 -0.383939878246322 0.5587785187114178 -0.7260988010444902 0.10588979423913245 -0.403571561663865 0.5465325948321264 -0.7645953469896785 0.11226066414307492 -0.38961891539440424 0.5009876240135845 -0.7925120038392486 -0.09410601889025866 0.36461348638587787 -0.47971427592355453
682 0.11076443492744557 -0.8997204785679694 0.013539262316802456 -0.4219608853632579 -0.9765307601305107 -0.0179757220801039 -0.21377650741795204 -0.01908278833944812 -0.9881635038439754 0.12399964931278282 0.0711332164421306 0.05565107509924035 -0.9909612846209805 0.09774697847996883 0.07014491566563008 0.059337605164299485 -0.9909518699274419 0.10078039259893486 0.042005705605340816 0.07805910998409073 -0.9920912831858147 0.08845994784779991 0.03678298590681941 0.08109707393776051 -0.9935448424063081 0.08677116508196184 0.02347006545280187 0.06919947301666643 -0.9946821717005682 -0.08305305664370888 -0.018150729750358908 -0.058138783034286476
23 0.28185059760380066 -0.6232703551311543 0.3537003109567066 0.6379579884868551 -0.8452970005873536 0.2975490080524218 -0.17705293936570007 -0.40692729727435234 -0.898293450001851 -0.2939140160093438 0.0032884222950290585 0.3266077389711406 -0.8893567657374198 -0.43446212750925717 0.14029206091697458 -0.024603671288527355 -0.8536250392452308 -0.4165339267939245 0.15191444103641838 -0.2733967498120708 -0.8509127224548374 -0.424182204379998 0.19858025951364425 -0.23787155522112383 -0.8668246595900886 -0.39658519099220285 0.21489991637165995 -0.2124928745997342 -0.8859276017853221 0.3661249262560697 -0.22968620670418316 0.1683124155216682
391 0.6164242476587211 -0.6765289828671547 0.16710271061779086 0.36661473830616725 -0.8596369836817968 0.4247390045677848 -0.24128710671732229 -0.14967152841209672 -0.8926875793945757 -0.36960007595802885 0.23790344398960359 0.09953200884317631 -0.9174449370619676 -0.29727056373619143 0.2605847994069765 -0.044950658653183685 -0.9320312825897804 -0.2449600623121914 0.25325968766958906 -0.08468640237699461 -0.9508848899767414 -0.19945872689950583 0.22846660420114084 -0.06194475798926044 -0.9632557980335993 -0.16816372826279957 0.2029400137430307 -0.05171633081906942 -0.9723748206654721 0.14097634416102073 -0.17960334841531717 0.048533655959453186
25 0.21284845153682488 -0.6565285360964759 0.4576668083042243 0.5605416224920486 -0.7078575932987234 0.25791205904241193 0.0036402821917942774 -0.65757565781848 -0.772959430708867 -0.4547469649693162 -0.04490526342927233 0.44013910715337184 -0.7949514159617508 -0.5956022197629294 0.07781917180792626 -0.08517287463158238 -0.6738424608455152 -0.5690638371828198 0.1337679063537311 -0.45189471605913345 -0.6486651519118177 -0.5924656689563214 0.18783198720994293 -0.4392460544889626 -0.6265252523564024 -0.6090192820688981 0.22708879336075163 -0.4301073146994689 -0.6178151428496907 0.6186476506613054 -0.26554752971975876 0.40628074413710213
89 0.5256356690945516 -0.6147537215436899 0.471782233771771 0.35100787615240825 -0.692381766691856 0.6556468262593177 -0.07363431112849726 -0.29208340691210133 -0.6709083215624254 -0.702624011119415 0.15283065931522816 0.1812299992551625 -0.6630568345796788 -0.7209663748814413 0.20128192435102676 0.006979064194927784 -0.6901822826090884 -0.6870602115779095 0.21687500366307055 -0.06754195159432184 -0.7247045310349337 -0.6493984722333627 0.22461822186687183 -0.051299331026593106 -0.759046614554401 -0.6076671407215044 0.23095857479863213 -0.035313166777259986 -0.7916775776342864 0.5624656227648593 -0.23770664045865314 0.019354311165945267
980 0.11734913215962497 -0.9144913175667315 0.2601474814994016 0.2868067278603565 -0.8886018770688036 -0.324148575036589 -0.18505187038203127 -0.2665899672524451 -0.9205140697282608 0.21177433500088577 -0.008498625110447003 0.32822743919191033 -0.9547015058011955 0.23950345214439714 0.08461615628790296 0.15499431385346837 -0.9775697931174128 0.2053127370864426 0.0456394689742188 -0.011000838431846509 -0.9697354052614235 0.2218012591797767 0.10120838461480818 0.013202579005226521 -0.9686789334631593 0.20412189285075746 0.08069897660289012 0.1161165444669557 -0.9501629206368412 -0.19103725511000388 -0.08907223623977929 -0.22969834160948627
1394 0.145389945263384 -0.788861294558022 -0.485632805010794 -0.347448414101864 -0.8455885705290946 -0.029320295627740408 -0.38063133431281854 0.37314886706796774 -0.8857948299928935 0.10602084311216413 0.437958321481618 -0.11099373238453905 -0.8835949543079346 0.05874260870237487 0.4625458309543043 0.04313486885561202 -0.8157209858411586 0.04922641303969719 0.46912277630303695 0.33481316322884375 -0.8077616409442319 0.03512044346670798 0.47551788648728543 0.34665606225832646 -0.7949392911853815 0.023339628050338315 0.5070653935377343 0.3322822170513756 -0.797086832176496 -0.018730048336044917 -0.5358017056170035 -0.2778818085411091
1545 0.055946838132809366 -0.5428262278108449 -0.8231570062788844 -0.1569145650268783 -0.4955815570569807 -0.17901803481394232 -0.6042053688210598 0.5977351719650934 -0.6686282675905115 0.215283172657778 0.662986239050589 -0.2589182152318912 -0.7403986816874395 0.19357846243383506 0.6369710004930991 -0.09276376214920483 -0.7220559302300469 0.18094807263065293 0.6258438749264751 0.23283572073006334 -0.7271493589665523 0.16276976838665647 0.6138229492435285 0.2607320448964087 -0.7223451083682098 0.14969871894664263 0.6214835968922748 0.26375362889654036 -0.72949536017596 -0.13724991567428005 -0.6345238918165288 -0.21535647388261972
887 0.20808214298350472 -0.7621924493664718 -0.24763875101393787 -0.5607490890731678 -0.7729013323372795 0.06221972392730305 -0.4909332781024664 0.3971608652388032 -0.8308457683091803 0.025798385469855824 0.5364671565079264 -0.14571459287997476 -0.819529860161994 0.034878294907629705 0.5718642473401983 -0.011206938084399362 -0.7881085506324332 0.021682062353432483 0.5373467488652707 0.29945495834277147 -0.7780024708503194 0.030924455687461702 0.5452279435810357 0.31061603778560304 -0.7731891848153788 0.030509740575939644 0.554744697911343 0.305787443093682 -0.7783833883581422 -0.026407511388047072 -0.5727531351810952 -0.2556868987856315
893 0.18425745239552682 -0.9461267541447456 -0.26596049249964815 0.01258462385543429 -0.6527382486488964 -0.011134794860984279 -0.5914839375209588 0.47323941799989355 -0.7224930421801197 0.03646482000880399 0.6715975168352993 -0.1600965217726523 -0.7620772757455343 0.040315126448574753 0.6457120514398429 -0.0258623857571202 -0.7223604318994865 0.059369783754047514 0.633882207189341 0.2699332928924378 -0.7323670606167162 0.06538426868087995 0.6123754361837552 0.2904474325785189 -0.7307702873706504 0.061206204537366124 0.613440668276552 0.2931196583765145 -0.7424521262127544 -0.05711900224470739 -0.620703369907246 -0.24541716820654172
289 0.15064347210674095 -0.9047154591000707 -0.3976287336652991 0.02622732431463021 -0.7329597423353894 0.012121741445854114 -0.5326235373975357 0.42300738399003796 -0.83306841934508 0.058483634881541485 0.534081670732037 -0.13165653090146573 -0.8435282476476508 0.043253774420932756 0.5342109331997399 0.03475464384351684 -0.7916603439483236 0.04778935742211792 0.5181304797848588 0.3202044394675295 -0.7860064343339804 0.04681692228676511 0.522531466081549 0.3270518734510539 -0.7791966183421782 0.043177262313792424 0.5424447502021267 0.3110338357178397 -0.7841813432673556 -0.03461872007974815 -0.5625121572726547 -0.2596945090137837
931 0.5303973207872135 -0.7969555496460023 -0.21397625338010337 -0.19430567922631037 -0.7056254111616282 0.4352235322879316 -0.45940008091740575 0.3187864829613701 -0.7767043327600368 -0.1235345300966193 0.6002709664438779 -0.14541102499510164 -0.7922605434428193 -0.15191792479115176 0.5904173274838117 -0.02552557223084802 -0.7625153260764544 -0.10780451651910467 0.590192992786428 0.24211731656864158 -0.7691009821443809 -0.09350186453460566 0.575242222105361 0.26236895109823377 -0.7672573683411412 -0.091966880240486 0.5797720748588041 0.25830711348891555 -0.77713950392699 0.09467545767591526 -0.5845134022106547 -0.21315447869114337
950 0.14723799753681113 -0.8572993019795511 -0.42909497112059014 -0.24338525975445663 -0.9089322334769441 -0.08613045016743329 -0.3349285345222863 0.23290903216346748 -0.8392223965301984 0.09461272086475697 0.5218819302946598 -0.1199727179178576 -0.8683977719307397 0.06375488607652888 0.49144387265727096 0.017422520905998138 -0.7999985770908323 0.04437034162994961 0.5071194586761224 0.31758999365269946 -0.7934105707957751 0.02853241716663178 0.5098582185175191 0.3312554366803559 -0.7778985101465596 0.014993013027670194 0.5360197501796861 0.3276155443342425 -0.7768075782600559 -0.01110925739919602 -0.5686508129770741 -0.27033835032843223
975 0.20678876068583993 -0.9703549044742439 -0.058187119883812345 -0.11074306703546828 -0.9878759773316675 -0.0006685819848130202 -0.1508099227301248 -0.036837122787562744 -0.9480630957962334 -0.05847558993850717 0.30898840708623043 0.047782173003325414 -0.9474035634479959 -0.03348987483598288 0.305624366214685 0.08887442278508366 -0.8982854144661623 -0.03479671286483861 0.3604569020147232 0.24888415924101207 -0.8936498779135496 -0.026498915562818016 0.36849509563723476 0.2547529541936617 -0.8901984884051837 -0.03279192787460718 0.38709418624518416 0.23796939232298595 -0.8964956798875469 0.03721569160927354 -0.39954951340788025 -0.18780488432555387
999 0.14391806833685175 -0.8484488388244131 -0.07846935084008252 -0.5032541291260614 -0.8284678190087859 0.006324364789031142 -0.4194140670902418 0.371069960524512 -0.8957458958783292 0.07484761393996503 0.42908000945463365 -0.08903634196795612 -0.8872083642087311 0.08587562133996475 0.44991515313674124 0.05534483820091353 -0.8264047839888735 0.09332037033242677 0.46177013237479847 0.3084068519470394 -0.8244398277140345 0.08760847755828598 0.46549813351815084 0.3097341002051443 -0.8280838340792785 0.0667261313417284 0.4726389281194531 0.2940020931197984 -0.8421590898518445 -0.05290062213236557 -0.4812280734878289 -0.23746396115013793
955 0.15813708878860536 -0.9318568227987676 -0.21119502212071972 0.24906261378271868 -0.7837750757472264 0.08319124984672957 -0.5260971666641021 0.31937065897538636 -0.83889275033881 -0.06308379238397907 0.5390280539996045 -0.041570970265817866 -0.8451184393312441 -0.04090066678768995 0.5284471867681549 0.06960983950180688 -0.7932490521969298 -0.024421508112793814 0.513189241923158 0.32679708246020794 -0.7939156384303658 -0.01768033370738352 0.5089770835832781 0.33215612781154763 -0.7934619215002829 -0.017565761276291034 0.5161776613013228 0.32197864080301997 -0.8033781671076494 0.028793258118000885 -0.5307317235290141 -0.26847403327254166
341 0.247142154274584 -0.933071117530479 -0.05111027373190512 -0.2562943330040495 -0.7726720948409551 0.15923414600733685 -0.5024978457518272 0.35372056148063696 -0.8175443287173695 -0.0503362557139577 0.566924866815832 -0.08765687268329836 -0.8393729587575582 -0.013786334042125616 0.541292573471518 0.04759540949337921 -0.7849363701096763 -0.0021720771249490486 0.5191679086099302 0.3381343810226929 -0.784307964647278 -0.001744673724812149 0.5145159387260797 0.34659965594509595 -0.7785295276980492 -0.003126497221251777 0.5319792795169156 0.33298655480670897 -0.784289054401654 0.0094663068290893 -0.5530912402388634 -0.2808756809547827
1555 0.01509468891307113 -0.4470347297003938 -0.8860467308745875 -0.12187408056994611 -0.30619740574767546 -0.3013477018829733 -0.5860413867856397 0.6870139767556469 -0.29851276064808674 0.4332735423730522 0.7098739648074239 -0.4682340475641998 -0.32086146627377177 0.49445919736131155 0.7121531778447188 -0.3813081075601737 -0.3456413253025357 0.5504734856365193 0.7477858988602966 -0.1353782305985189 -0.3554548492521592 0.5698506252584996 0.7346538912734693 -0.0959467303891664 -0.3585908317820652 0.5822865034681551 0.7260370607864822 -0.0722857496689522 -0.3621773606380478 -0.5961250098837905 -0.7100865568314196 0.09612291006626497
1619 0.018815160733912616 -0.4343532948879973 -0.8948992547209321 -0.10069026192446535 -0.2726663995205584 -0.28985318043377406 -0.6363993668712054 0.6607828797803786 -0.2733004121094534 0.40075026335629416 0.7504003478901751 -0.4490049320964839 -0.2917577696743296 0.47111234114820705 0.7480710922835082 -0.36513039690263416 -0.3061537066684129 0.5259105869369429 0.7876188959576031 -0.09666662904724659 -0.3118174619607945 0.5518812149445956 0.7711783500658117 -0.058999554213380496 -0.3097593721225081 0.5680060293755206 0.7615676383271872 -0.037855174389710256 -0.30915418149786417 -0.5873169969467387 -0.7447647541632523 0.06933900861708742
1575 0.057708619042557405 -0.4384179662107754 -0.8901017562332116 -0.11035517995255525 -0.3341358208621934 -0.2535686021836313 -0.6333911416859264 0.6502859977249904 -0.29384755559485726 0.4081971312906637 0.7414701289356266 -0.4441292199047314 -0.3092436833685426 0.4745452970092648 0.7388642435991162 -0.3650407304859981 -0.3182996698729389 0.5333752709289882 0.7767453575459267 -0.10422470940740013 -0.321946137817304 0.5562925636276057 0.7628823232058967 -0.06999877811163345 -0.3173173625905773 0.572263748536399 0.7545284649854109 -0.050106776351993246 -0.31474613352543807 -0.5898599075107962 -0.7391795671053728 0.08132483332940499
1600 0.013705845750585048 -0.4498626829403923 -0.8861936347617342 -0.10998435342229101 -0.2800786027595041 -0.29908807193356773 -0.6087249216197801 0.6793793279916145 -0.26953975659432267 0.4280800901604916 0.7166870239204314 -0.4800577733641376 -0.2823717438057773 0.49011381970891615 0.7209826681653695 -0.40029818165408315 -0.30582545451357224 0.546274494732823 0.7664926652135233 -0.1433316502027224 -0.30587372836827115 0.5666702582189894 0.7577772363726248 -0.10535530731569276 -0.3042967896615953 0.5788179927823661 0.7521749521305837 -0.08127752715476576 -0.30048866351038034 -0.5941165536671758 -0.7382350213198742 0.1083565275247803
1585 0.014438773853131628 -0.44550169364152525 -0.8884383631672909 -0.10953098933532936 -0.2774676735517329 -0.2939916473043958 -0.612120000383741 0.6796246806725352 -0.27516314659212143 0.4213582254231639 0.7238856311699825 -0.47194499850236893 -0.29085789246498134 0.48762809150123576 0.723838073203268 -0.39201909972738896 -0.31188797155010534 0.5413957027537073 0.7690279197808074 -0.13495423238929558 -0.31530349172554384 0.5621512640444021 0.7581820067988887 -0.098639287332029 -0.3142224206544159 0.5751232204253056 0.7515718313529445 -0.07508218165773879 -0.312859440252138 -0.5907236790830448 -0.7366591710052254 0.10245863257727537
1565 0.021907198882690677 -0.48815860982636866 -0.8619513468132166 -0.13513371902076596 -0.48801990152440144 -0.31954931913942897 -0.5709579234660607 0.5776952985657445 -0.39290268393133265 0.4317286454026512 0.694411941832739 -0.4207492278524487 -0.4241024079352888 0.4878149776520573 0.6835309108372594 -0.3390563214154827 -0.43344744516052675 0.5336126648181565 0.7176607410358865 -0.11110309179001335 -0.4441013904477836 0.5488147066343123 0.7031663649560959 -0.08445967072318981 -0.44559979794553517 0.5568840814545397 0.6975711134744476 -0.06866936390742946 -0.4525828788677804 -0.5662139114169764 -0.682097306705521 0.09650807457780222
27 0.21798208810420405 -0.806418743962456 0.5496158954238175 0.00974608378892735 -0.7469449498375345 0.3311103696901353 -0.06558072276505844 -0.5728336004438613 -0.7044445699963385 -0.6053829725471292 0.03750891313821674 0.3685951516065631 -0.7240259816784154 -0.6720904685682306 0.15511532309096726 0.004473975494811247 -0.6689437652469051 -0.6804769632193258 0.19642221038719518 -0.2255740604141045 -0.6733664009941926 -0.668366772018253 0.23675392776434595 -0.20931107415085215 -0.6676578908154016 -0.6686660646375071 0.2644988935694461 -0.19276662090376911 -0.6719098164086725 0.6588608331959098 -0.2910000767572528 0.1725066851496735
43 0.1835417135822293 -0.6890718698542382 0.47843065853990774 0.5124417064603084 -0.7897590092547153 0.4161405676881992 -0.014740668310577638 -0.45043362210531224 -0.9029029771904249 -0.35495868311423856 -0.024178333545624445 0.2412176511978947 -0.930159692046827 -0.36068826711890184 0.06826008769955261 -0.0068906952744215025 -0.9462108760473164 -0.28951621612471423 0.06387159714099731 -0.12955986156698399 -0.9632201549021486 -0.24297055284817198 0.051546048647961966 -0.1025438857646646 -0.9742840437636283 -0.20514953035917624 0.036908431288493665 -0.08556891936225634 -0.981721257164381 0.17525577057851388 -0.026071821429050374 0.06949135369159588
60 0.26484275378026534 -0.7762187555342631 0.5407840468691193 -0.1868030352504571 -0.7581758917467664 0.28835153766251886 -0.011284928222103485 -0.5847181870753453 -0.6430441249962526 -0.6550190848741058 -0.05154402305512227 0.393430381955672 -0.6297293895688806 -0.7692194697224483 0.09530193129603844 0.051573687131765834 -0.5633593853379719 -0.7929689462659635 0.12479399029826453 -0.1955835197426068 -0.5336412988992353 -0.810984677037252 0.1720304341275073 -0.16714169872842222 -0.5111998567937592 -0.8237919082232824 0.197407276988159 -0.14516185915040927 -0.4935598541183118 0.83087869125128 -0.22903882766827596 0.11653534334103317
85 0.08580312658299899 -0.6531540734438032 0.4544820743547263 0.5995611927923401 -0.7170808366511137 0.27322948283392107 0.048705160329447876 -0.639350084676095 -0.8329688651581489 -0.3631526925098341 -0.09577424022481783 0.40633765086361645 -0.8387033403953894 -0.5330035171137651 0.0680936648918992 -0.0885844814601379 -0.7837390454251978 -0.47100518052193924 0.11733379348213363 -0.38747904395539523 -0.7839779288730858 -0.47315195332450805 0.1878353396500681 -0.3552797788836468 -0.8028761521544495 -0.4512377718392015 0.21624499505393022 -0.3240562600558484 -0.8225453393104194 0.4333378722154121 -0.24421376279271814 0.27567569959129173
160 0.2011022254081702 -0.6526909185105421 0.40851757614038386 0.6055293963253409 -0.8271472610431004 0.2682050535315973 -0.12003056018462892 -0.47904709834292314 -0.8526999686974719 -0.40795488826892545 0.13548027180820324 0.29685125647636107 -0.8565576319697421 -0.45223730739002377 0.23503442906487773 -0.08092748651203636 -0.8009922541192077 -0.42774714145254505 0.27029029045592273 -0.3199796098276573 -0.8126462932587301 -0.40100378688075516 0.30601530883029987 -0.29181603061113043 -0.8290773725403775 -0.36591395621151784 0.3290389128883724 -0.2654638973503127 -0.8531543100034014 0.3259952992823695 -0.33939241923880353 0.2250945888546647
216 0.7695974175372685 -0.3993190688263989 0.40196788785908155 0.29442471588114655 -0.5076707005171964 0.837982870771825 -0.1579947814539703 -0.12285282724749184 -0.4877870533020903 -0.8316630590508751 0.2493953520864041 0.09056657881748127 -0.4835903764934996 -0.8238715933547253 0.2955490289397049 -0.005168841148544981 -0.4920184321792435 -0.8144794230511538 0.30416007958709507 -0.045030853952715125 -0.5068394454420206 -0.8021604484108847 0.3123810791815832 -0.04550222982033766 -0.5227998892935745 -0.7879434501019074 0.32123577817795756 -0.0513124742585207 -0.5438984966328475 0.7690111824607199 -0.33085282172999037 0.057728995870331874
31 0.6951559018579341 -0.5023196317583372 0.4282408041750739 0.2846806514354934 -0.675314608869155 0.7193129756732562 0.027325584892815398 -0.16059992056738764 -0.6860982945721213 -0.7153949667342792 0.08473615242113723 0.1014837732317242 -0.703839284357504 -0.7010026387579166 0.10055438191772784 -0.0556271384011261 -0.7493610341788093 -0.6435396745820151 0.10803126785134323 -0.11244542169324075 -0.7984076951010953 -0.5855836284419135 0.10117162526988824 -0.0969601399772529 -0.8388237999467985 -0.5291008405871033 0.09498948868779962 -0.08604609329693359 -0.8709371969351906 0.4779582791599452 -0.08496054693675809 0.07619703302192264
69 0.3828258569668207 -0.6842296916849766 0.5463059528504735 0.2946589522387489 -0.728844118176952 0.6085684598509934 -0.03026816955447423 -0.31227314803753564 -0.815219916465375 -0.5383871398372359 0.016463715492630975 0.21280207124989453 -0.8434406476155978 -0.5262269290309638 0.0750780748301705 0.07782272028281469 -0.8855647649665872 -0.4592551668381467 0.06946700005596894 -0.0058373525988480056 -0.912889366140211 -0.4021397649280836 0.06839718758840059 0.015441482497051075 -0.9330862494536893 -0.35513271528713336 0.053113440750358176 0.020242727703886236 -0.9470561982867051 0.3171400684877745 -0.043307734561689515 -0.025123183982873484
70 0.5351151286734273 -0.5643028474420412 0.5660599917390896 0.2734779354645768 -0.6044078290337889 0.698968630768207 -0.09902871371363602 -0.3692253285798564 -0.5548076558728224 -0.7829968627827358 0.18445149522333512 0.21232527821051694 -0.5357730187752003 -0.80692624728839 0.24807222047903976 0.016657647378414877 -0.5165707440963883 -0.8066623556196155 0.2726032094108126 -0.09021086735444635 -0.506563526569373 -0.8051413421474578 0.29514229199992403 -0.08962053440825994 -0.4945400185064574 -0.8055528767379965 0.3130315410772511 -0.09233627220963736 -0.48730972530951394 0.8016607586145786 -0.33249383959019285 0.09652515915985614
221 0.703778650049003 -0.4487413009535604 0.4867093470320825 0.2577612617623387 -0.5746058127341774 0.7773485251854373 -0.08328231972321042 -0.2421187427392643 -0.5522317779336033 -0.8052525777740912 0.1723928115243739 0.1299579469028123 -0.5674571000009752 -0.7946179408589249 0.21581054233197625 0.0007599618304083662 -0.5722317425688191 -0.7825599933173978 0.23584115007566162 -0.06730261203487198 -0.6109439014421651 -0.753661160145482 0.23546394349913674 -0.05743810834826886 -0.6407201474024365 -0.7267500348295416 0.24206432245305723 -0.05212430702851039 -0.6798240139365964 0.6894283940082482 -0.2462767125184669 0.04330797249281788
