2405 128
1397 -0.025273684 -0.15359256 -0.0056129564 -0.1473849 0.06251749 0.018265024 0.07247048 0.018189233 0.007756431 0.073939666 0.116932414 -0.0350535 -0.018870587 -0.09059349 0.011767224 0.100286566 0.055020176 -0.009459608 -0.20659441 -0.06455408 0.031097269 -0.1361109 0.011910559 -0.10294543 0.09300765 0.009005186 -0.026443977 -0.12077831 0.06209972 -0.10292426 0.090726085 -0.103374854 -0.00024237056 0.11983077 0.08009794 0.006757386 -0.019629626 0.10794598 0.09321299 0.18792503 0.13828304 0.19433361 -0.15466645 0.040814262 -0.12658526 0.14833882 0.12914222 -0.19465567 -0.0066426564 0.0100346645 0.062855296 -0.015216794 0.09121003 -0.008736176 -0.046086192 -0.0010181123 0.013991815 -0.1708787 0.03383746 -0.14986706 0.003185791 -0.12702991 -0.09890907 0.09580744 -0.044729542 0.0587259 0.18906103 0.03103042 0.095900066 -0.005454545 -0.019411825 -0.02729617 0.04586912 -0.042257193 0.0022354613 -0.13736892 -0.057095047 0.07105882 -0.02083762 -0.17988513 -0.19162387 -0.043468475 0.1380997 0.03703556 -0.03166719 0.008145783 0.0935884 -0.10493002 -0.11821871 0.14507195 0.13808553 0.069284126 0.08980231 -0.08536712 0.09981068 -0.10739244 0.15114772 -0.035283267 0.090651415 -0.05318592 -0.09969542 -0.045107678 -0.05484479 -0.0057216235 0.11086956 -0.18989584 -0.13043484 0.12986043 -0.08361427 0.032044556 -0.035822146 0.0041727545 -0.107881404 0.093559764 -0.01397877 -0.09549778 -0.1371867 -0.045628887 0.111156315 0.110596016 -0.10965784 0.12792552 0.026046596 -0.063496955 0.067878105 -0.074738026 -0.0029059073 0.012706135
1470 -0.22515598 0.030031217 -0.12876692 -0.21605292 0.15370575 -0.21466373 0.24038853 -0.041425858 -0.22332604 0.054394685 -0.26667956 -0.027776212 0.09381971 -0.19296955 -0.11643423 0.21881552 0.111367434 0.11388371 -0.18758158 -0.01452677 0.23717019 -0.16752234 0.040566232 -0.23283744 0.17542712 -0.1256488 -0.0007595935 -0.09138016 0.26551697 0.10558737 -0.090261996 -0.20401031 -0.1455642 0.11657043 0.2403849 0.16900238 -0.006911307 0.22119048 -0.11633607 0.14034444 0.1629068 0.24990946 -0.21156788 0.19199187 -0.07007336 0.12169914 0.08133566 -0.177547 0.26056328 0.10047772 -0.04049317 0.24243654 0.19990116 0.07397931 0.08319983 -0.12861413 0.18301268 -0.10587144 -0.12999608 -0.13331033 -0.2136957 -0.1539983 -0.14406186 0.21228565 0.1712751 -0.14739287 0.1812622 -0.20051982 0.19944347 -0.15407398 -0.26229936 0.13344944 -0.3697699 0.400551 0.22969086 -0.11165362 -0.18811378 -0.14729029 -0.18159571 -0.016386572 -0.1902122 0.18209949 0.17906515 0.18074195 -0.22209747 -0.14635995 0.23689944 -0.19211699 0.26886716 0.22223847 0.03872718 -0.04140707 -0.0043010795 -0.2648528 0.09552982 -0.14484723 0.16633911 0.1964847 0.21411668 -0.20157708 -0.103011996 0.17186189 -0.0532103 -0.15061523 0.21867445 -0.08134466 -0.11168981 0.16916248 -0.17252335 0.17395206 -0.18812817 -0.2997795 0.03483619 0.03684082 -0.008319859 0.10479356 -0.19164039 -0.18289664 0.23307146 0.24532512 -0.24032706 0.14244008 -0.046016213 -0.14296067 -0.18576069 0.22407404 -0.24753976 0.1279935
362 -0.08684179 0.07492317 0.1021718 -0.13437966 0.113706365 -0.019815873 0.070350565 -0.038819987 -0.061140254 0.06644135 0.011400993 0.10338247 -0.033959214 -0.055968072 -0.14469874 0.17559761 0.18145333 -0.14098613 -0.12945059 -0.034358215 0.35597667 -0.1373016 0.10528939 0.032401025 0.46243808 0.08001336 -0.021000227 -0.17864361 0.3659436 -0.13685466 0.1635088 -0.09594496 -0.05821138 0.07913736 0.13061301 0.020104678 0.10879034 0.16224727 0.17246385 0.14366016 0.08124212 0.119524136 -0.13506833 -0.109482214 -0.1258002 0.15731747 -0.049613632 -0.12574162 -0.06887158 0.08820176 0.2279541 -0.115557484 0.12204474 -0.10575251 -0.14089932 -0.09491629 0.06100596 -0.17259745 -0.08351862 -0.12830503 0.16642535 -0.1750228 -0.14076492 0.18212712 -0.116405286 0.10918432 0.16902418 -0.1821597 0.3824837 -0.18371055 0.08844486 0.0065202685 0.10011624 0.100300364 -0.110767335 -0.045982126 -0.10280938 0.10721681 0.13566507 -0.16501741 -0.15622813 0.07735714 0.17638917 0.13284045 -0.007713371 -0.16330484 -0.075068034 0.016219696 -0.09906076 0.09467296 0.17410532 -0.031072553 0.13191532 -0.14423926 0.1228222 -0.13496636 0.06905974 -0.124423206 0.17907873 -0.15284249 0.09725801 -0.04940221 -0.1229835 0.094316006 0.025985816 -0.093802586 -0.1599797 0.092122905 -0.12338766 -0.0279875 -0.101603545 -0.019416733 -0.14454858 0.096834585 0.08529559 0.23870428 -0.045772806 0.1309102 -0.07895491 0.16608927 -0.13576226 0.09949373 -0.11298043 -0.1559544 0.14343667 -0.11598167 0.12541158 0.196972
226 0.016433109 -0.15686974 0.06574459 -0.10719448 0.09740815 0.042314395 0.15942013 0.05613698 -0.060482305 0.06584575 0.12624654 0.011295218 -0.10832126 -0.024112422 0.13776594 0.13162719 -0.05034048 -0.084882855 -0.1321606 0.014594057 -0.00020257525 -0.07601881 -0.08309296 -0.15941533 0.016952613 -0.054271486 -0.017635452 -0.021752946 0.051158726 -0.12863714 0.07245579 -0.12040045 -0.014763159 0.062433295 0.12520961 -0.02362408 -0.09433498 0.12631594 0.007906742 0.13369893 0.16154078 0.15626194 -0.1666753 0.02490471 -0.1956249 0.12521555 0.13163532 -0.20338783 -0.03329487 0.08789574 0.061533775 0.04445316 -0.010647312 -0.053722095 0.0073954817 -0.03681496 -0.09797127 -0.13805504 0.09234235 -0.12661442 -0.07165448 -0.1465988 -0.13940136 0.058300044 -0.048313506 0.11280006 0.12405287 0.014361885 0.1349227 -0.021617541 -0.104472384 0.013656263 0.06944765 -0.12053758 0.06976158 -0.15632015 -0.111492805 0.057423633 -0.02077134 -0.1774631 -0.16070403 0.029746093 0.07784304 -0.0406453 -0.08596443 0.09083565 -0.020208934 -0.076734245 0.00968493 0.08823827 0.13211562 0.104605764 0.098630935 -0.023643676 0.15421599 -0.12921335 0.10283816 -0.0024028881 0.101854935 0.010383273 -0.022038136 -0.0727602 0.045559242 0.0056145214 0.13998167 -0.17863919 -0.19496748 0.09900523 -0.13001592 -0.09052902 0.02979386 -0.015518175 -0.038811445 0.13010196 0.041664496 -0.12210472 -0.10606697 -0.114380054 0.1073185 0.10614955 -0.14494194 0.08357239 0.08130037 -0.041136555 0.05977633 -0.101156875 0.021181524 -0.06282245
750 -0.0018826332 -0.14114526 -0.03965847 -0.10361281 -0.032550883 -0.06588413 0.0013067339 -0.026896978 -0.035541646 0.0907488 0.101988204 -0.06655768 0.049493413 -0.013932513 0.004830211 0.13597466 0.10402862 0.05998778 -0.19654052 -0.037071686 0.034680124 -0.105394885 0.06346734 -0.09711379 0.080076955 0.06033021 -0.0032329485 -0.13315034 0.070636794 -0.03928199 0.09506523 -0.062654376 -0.020502198 0.10491297 -0.016838811 -0.020781627 0.011652233 0.02588276 0.10470289 0.15488832 0.11834559 0.15887773 -0.12004596 0.03837268 -0.045744196 0.13272774 0.1639449 -0.19883578 -0.040379576 -0.0047597038 0.051910825 -0.051126007 0.15706441 0.041173197 -0.06805688 -0.0075978134 0.118987605 -0.13920704 -0.00059375865 -0.11067934 0.1120596 -0.12421618 -0.02054102 0.076577194 0.0021136089 0.018329667 0.17818841 0.07683149 0.042679492 0.0078822905 -0.09666157 -0.041415293 0.03127883 0.025155017 -0.088153124 -0.118943125 -6.619682e-05 0.07784801 -0.07304941 -0.1401896 -0.19012842 -0.028266873 0.16349657 0.06985386 -0.012600893 -0.0042316704 0.1370457 -0.14233251 -0.14843236 0.15569843 0.07513245 0.048431996 0.026707219 -0.06256931 0.0040953117 -0.010940556 0.1263355 0.020075923 0.011420029 -0.048626434 -0.11413009 0.03212361 -0.08429432 -0.06423255 0.19043945 -0.14814419 -0.13233854 0.11159127 -0.048001222 0.112011746 -0.11329038 -0.07967847 -0.1280621 0.09464108 -0.066688806 -0.11466348 -0.1311267 -0.055325042 0.10769975 0.097936094 -0.09020409 0.08366234 -0.071560994 -0.09556599 0.08619917 -0.06006976 -0.11795144 0.031719003
489 -0.13959704 -0.1395843 -0.0020692344 -0.112843566 0.010620158 0.06169557 0.10661835 -0.10661495 -0.09902223 0.10532124 0.15887979 0.08141128 0.049913883 -0.059835244 -0.03565065 0.16499142 0.126236 -0.09602975 -0.18291901 -0.08176282 -0.07181791 -0.13100222 0.12980185 -0.080719866 -0.010094594 -0.07702175 -0.054438516 -0.04248031 0.054806046 -0.104300864 0.073849805 0.086541146 0.12956846 0.12687635 -0.003027353 0.14678761 0.049217775 0.014313526 0.11878551 0.16904376 0.042131007 0.22318244 -0.09626593 0.04965994 -0.12343482 0.12021263 0.13971587 -0.18629901 0.15213573 0.006254085 -0.025933193 -0.09495089 0.1852196 0.10061708 0.029956 0.09610232 0.08814119 -0.13911691 -0.100792006 -0.13812913 0.05458546 0.034443572 0.09900651 0.095820665 0.026443204 -0.04627982 0.19097471 0.110257015 0.08932313 -0.09573402 0.08285779 -0.20763333 -0.14322022 0.079316765 -0.102328785 -0.1405471 -0.011848464 0.025639152 0.01040922 -0.2003276 -0.17126371 -0.010701179 0.2021231 -0.074790664 0.08836743 0.0245744 0.15111654 -0.11333138 -0.11949585 0.1145281 0.119388394 0.058867566 0.053636417 -0.030637251 0.09066998 -0.05152529 0.14999598 0.10778701 0.10839653 -0.023231614 0.061611235 0.09712989 -0.15103358 -0.008842726 0.20779584 -0.19589223 -0.20417973 0.20008022 -0.047630545 0.16910961 -0.11248184 -0.09008846 0.014467186 0.18938613 -0.06956082 -0.20110953 -0.15775795 -0.02536173 0.1748681 0.12322948 -0.14244969 0.15755585 -0.014866921 -0.04911633 -0.026834782 -0.071979694 0.010097296 0.029168017
1462 -0.0010525547 -0.12353316 0.037419554 -0.12829652 0.096974686 0.11420774 0.09450138 0.07726537 0.008929594 0.01944317 0.12695117 0.036076613 -0.098457955 -0.1267744 0.011311894 0.06928505 -0.03777048 0.011095855 -0.16100936 -0.012167254 0.04350044 -0.054604333 -0.105334796 -0.06600913 0.13593687 -0.044599827 0.028775435 -0.11979163 0.0731075 -0.14976008 0.10024111 -0.11728865 -0.06253258 0.10296316 0.12163513 -0.066578574 -0.08533451 0.15831919 0.061857324 0.14758837 0.14584023 0.14771974 -0.14764367 -0.0012852042 -0.14984418 0.13228798 0.105821334 -0.14718342 -0.03828707 -0.049385533 0.12352466 0.02111813 0.033637866 -0.05167209 -0.016066989 -0.037889283 -0.07366434 -0.12816732 0.087335385 -0.15501978 -0.08400541 -0.06403391 -0.066048525 0.0706959 -0.11024024 0.06938951 0.15237746 -0.017302165 0.06802478 0.002698424 -0.036019724 0.056850616 0.0375481 -0.01629985 0.07133662 -0.08732499 -0.065580636 0.04832615 0.029596176 -0.16889356 -0.13983294 -0.07615903 0.11858608 0.012395138 -0.045963082 0.020778844 -0.0045744386 -0.13006252 -0.06608541 0.06316184 0.13754055 0.11131669 0.111856095 -0.12503195 0.093687385 -0.12392156 0.15014988 -0.060779642 0.16209169 -0.06526022 -0.06553826 -0.095647894 0.07167081 0.05528454 -0.015604634 -0.16700739 -0.0780693 0.06456526 -0.14706612 -0.021188352 0.041393306 0.03842692 -0.090342864 0.018105807 0.03707814 -0.00075640297 -0.095079556 -0.09286974 0.11291749 0.12495136 -0.14362495 0.14010118 0.09472093 -0.021017347 0.07808806 -0.11058621 0.07642405 -0.026349131
1713 0.034113873 -0.15386453 0.063995086 0.044612918 -0.0694312 -0.027369386 0.112970054 -0.0745071 -0.13740402 0.14704454 0.012004336 0.045490313 0.03381331 0.09937019 0.0022771712 0.16013665 -0.04495983 0.03631348 -0.12399085 0.046013135 -0.015566665 -0.03774575 0.029977985 -0.10600912 -0.12534277 0.085127845 0.015648846 -0.09622088 -0.10457891 -0.07070095 -0.05375842 0.13569425 0.10379036 0.09347904 -0.056387454 -0.16888906 -0.07532687 -0.078549765 0.14495589 0.01542762 0.10803754 0.06624329 0.074513525 -0.027091524 -0.11294903 -0.0016192251 0.15329772 -0.1176875 0.041402094 0.07745079 -0.05439024 -0.06176237 0.08078668 -0.031682212 -0.059572037 0.036915664 0.052357186 -0.122357175 0.07905729 -0.13788103 -0.028208015 -0.037604872 -0.026193783 -0.026409285 -0.07373449 0.10089997 0.034154236 0.08833611 0.067358956 -0.10742362 0.050538357 -0.14924403 0.032676354 0.10285777 -0.16072474 -0.050374802 -0.082899705 -0.0048982883 -0.033517882 -0.052456703 -0.06726867 -0.10741264 0.09028159 -0.096686274 0.13541901 -0.02268409 0.15613274 -0.04884605 -0.04110291 0.010207134 -0.0923408 0.020327512 0.13164832 0.014324097 -0.012468068 0.085892275 0.16176541 -0.04385098 0.11776148 0.1499426 -0.014586049 -0.039328482 -0.11326425 -0.0123323025 0.10232724 -0.15218912 -0.13013153 0.07729279 -0.054262742 0.035714947 -0.06699971 -0.11651995 -0.049665775 0.023522485 0.079428434 -0.13109998 -0.04937778 -0.057726197 0.06497579 0.12516762 0.02093766 -0.044304106 0.120232716 0.12517938 0.12085796 -0.17109993 -0.0783066 -0.112492256
393 0.11347504 -0.13178979 -0.1006199 -0.1976481 -0.02034911 -0.10897188 0.09542504 0.17037529 -0.09666559 0.17926736 -0.084542744 -0.095246136 0.07010707 0.10120889 -0.0108272815 0.13542055 0.052727085 0.019738074 -0.18667664 0.029210592 -0.06868319 -0.026914451 0.030195072 -0.13740762 -0.060829908 0.14944568 0.062131874 -0.018308764 0.00054546923 -0.14053729 -0.07065686 0.12066809 0.22266744 0.08557381 0.04445382 -0.14548056 -0.122555725 0.11266924 0.13957441 0.12533823 0.19804913 0.23917244 0.04183582 -0.006900298 -0.1652298 0.18733627 0.19559327 -0.15111515 0.10691222 0.13367608 0.0069636106 -0.051540516 0.13726151 -0.034833126 -0.1447042 -0.007742927 0.04359635 -0.07802493 0.06674871 -0.20868218 -0.08314797 -0.03718074 -0.013688479 -0.14531863 0.07734401 0.015584597 -0.067699 0.10297705 0.04746575 -0.10529523 0.020410473 -0.19054331 -0.03830214 0.07714395 -0.15392405 -0.18063559 -0.106922455 0.11883008 -0.10313295 -0.16106452 -0.15859362 -0.148271 0.16294351 -0.13541806 0.019342246 -0.063720316 0.17165053 -0.00078915514 -0.03580301 0.11445902 0.03482323 -0.023281435 0.11531027 0.00050912966 0.062093545 0.02370471 0.20827815 -0.03786973 0.14381929 0.08499885 0.030644305 -0.1150616 -0.1629697 -0.06871343 0.20385419 -0.17839953 -0.19981542 0.19038405 -0.17063312 0.0521075 -0.13056399 -0.100325525 -0.079256125 0.06284353 0.102709964 -0.23910227 0.0835192 -0.12014314 0.048239637 0.11611951 -0.0085908 0.034933403 0.13031834 0.065368384 0.037312225 -0.107451804 -0.20387293 -0.060505014
445 0.10021096 -0.2150514 0.09547313 0.021912547 -0.034812164 0.14042327 0.0637035 0.00355446 -0.14612879 0.10945668 0.13056399 0.028137479 0.03305127 0.109914035 0.08309173 0.20171608 -0.08122288 0.040718034 -0.20695834 0.004172003 0.12359143 -0.06328943 0.06161995 -0.15907396 -0.01687922 0.043628596 -0.10633882 -0.04639935 -0.03886119 -0.06689004 0.15265691 0.12356305 0.084521286 0.12826063 -0.09487614 -0.13571623 -0.12556912 0.013958396 0.1305307 0.034253523 0.15686584 0.20446727 0.0146300895 -0.055481944 -0.20749061 0.08446565 0.16467799 -0.20569173 0.05514194 -0.08593046 -0.022878397 -0.033170614 0.16644432 0.087743364 -0.0887556 0.116870165 0.053660296 -0.14753355 0.11236655 -0.15194644 0.088198915 -0.17651553 -0.0028435492 0.13284643 -0.070540436 0.059086192 0.13473232 0.082717076 0.11227272 -0.052516595 -0.009086281 -0.08605596 0.029981995 0.108335845 -0.10926642 -0.093257405 0.071749195 0.054472134 0.043045398 -0.098615356 -0.19498159 -0.069475085 0.18731426 -0.14090045 0.08912719 0.14467768 0.20357744 -0.12628426 -0.14487284 0.04124222 -0.06946319 0.11321719 0.10275286 0.032775395 0.08919837 0.13431644 0.13630658 -0.022481697 0.044408623 0.16259344 0.008504758 -0.04095853 -0.1350616 -0.11710954 0.21472871 -0.21220952 -0.17882185 0.01994084 -0.09766925 -0.0117009245 -0.06956283 -0.009482259 -0.14112245 0.093949854 0.015394192 -0.13815637 -0.1959564 -0.08956926 0.15350848 0.16131365 0.02533643 0.0029858742 0.10951827 0.12529454 0.1347686 -0.13360712 -0.079415075 -0.0762127
696 0.08838938 -0.18864322 -0.05195075 -0.12874882 0.080723464 0.15055758 0.10151476 0.105179645 0.031121362 0.07908164 0.17355788 0.04005963 0.017464714 -0.076944605 0.041107476 0.06568254 -0.0005094484 0.07773858 -0.15540284 -0.03566723 0.07400887 -0.021013325 -0.09549851 -0.044619408 0.10590543 0.049944736 0.0071163103 -0.11057018 -0.020571236 -0.15307556 0.022885233 -0.023105852 -0.06606192 0.09556137 0.11726908 -0.070048705 -0.14841259 0.13844241 0.13062638 0.188289 0.12523869 0.20244177 -0.14643607 -0.043843824 -0.20528671 0.06268138 0.11363705 -0.20525663 0.08565727 -0.03920371 0.06385364 -0.03571004 0.110622585 0.038112473 -0.0878096 0.06355936 -0.028866174 -0.1311456 -0.01789532 -0.17090571 0.007837775 -0.02061001 0.0027859018 0.12360482 -0.061725978 -0.037816916 0.11810856 0.0063658697 -0.011305599 0.0264094 0.036196347 -0.04412357 0.029074382 -0.030548861 0.07718877 -0.118023194 -0.06976123 0.08755301 -0.050821256 -0.13594869 -0.19132951 -0.11227162 0.20001931 -0.08145075 0.0653167 0.035903767 0.11823933 -0.13339375 -0.1023173 0.07351658 0.010309626 0.14018661 0.111267745 -0.0894885 0.1066973 -0.026225897 0.19405115 -0.105506144 0.16488057 -0.08407187 -0.101790704 -0.14251809 -0.0032894954 -0.06389301 0.14264058 -0.15863393 -0.080485135 0.06955795 -0.081485 0.030869588 -0.035248578 -0.07145625 -0.10139503 -0.034895122 0.08803998 -0.042210512 -0.115006596 -0.15589158 0.12737748 0.14521047 -0.04688639 0.121998414 0.1654153 0.012066109 0.0070861927 -0.1450828 -0.01939011 -0.09132335
1610 0.013998872 -0.15792467 -0.0077602463 -0.14507899 0.1319825 0.121144876 0.10950132 0.10952154 0.089678995 -0.007852831 0.12822959 -0.012476925 -0.024506666 -0.041544884 0.0499214 -0.0174382 -0.049904887 -0.006284387 -0.120465845 -0.06074221 0.0757135 -0.07228071 -0.09160121 0.036212746 0.065934524 0.02921835 0.0018198773 -0.1414721 -0.06596079 -0.12757422 0.009070222 -0.0801257 -0.02528809 0.085897714 0.112118736 -0.04206267 -0.11125234 0.112983204 0.07224932 0.12655382 0.10413937 0.1249447 -0.13381031 -0.023355601 -0.14895023 -0.027823534 0.038456775 -0.13904849 -0.035380073 -0.11700502 0.119921856 -0.04944313 0.023314906 -0.02730716 -0.1335018 0.07637209 -0.08366056 -0.13061716 0.04487295 -0.12068999 0.0012945714 -0.045175012 -0.08145987 0.13235621 -0.10452506 -0.025838511 0.09611629 -0.06353929 -0.021992942 0.014294908 -0.005371351 0.06882743 0.010138553 -0.10696122 0.06252775 -0.10791026 -0.070961595 0.081280775 0.027616754 -0.116979316 -0.1319836 -0.039761722 0.12112697 0.063799806 0.013873193 -0.0034672774 0.13768104 -0.07186635 -0.10730044 0.08564664 0.002177415 0.14005704 0.10374381 -0.08964391 0.11156706 -0.09942229 0.12814966 -0.11034846 0.109146036 -0.106571 -0.121395014 -0.14121655 -0.0039919326 -0.023874298 0.043987203 -0.12667595 -0.013631898 0.073921405 -0.06731323 -0.04088305 0.026515236 0.0026039726 -0.10011503 -0.09884555 0.07662139 0.060809765 -0.10232591 -0.07044315 0.085624814 0.09150284 -0.05149914 0.149225 0.16526818 0.10423597 0.015961975 -0.13925518 0.063461535 -0.11404598
889 0.084514104 -0.15542099 -0.12251382 -0.13150473 -0.022430189 0.101130314 0.102535054 0.1021919 -0.02081289 0.11247958 0.08172456 0.014144797 -0.010669197 -0.054309573 0.008539635 0.024652807 0.08401713 0.08140828 -0.16456166 -0.035232928 -0.035778947 0.018906284 -0.1214415 -0.09536044 0.07779773 0.03530324 0.08414376 -0.05052058 -0.06069196 -0.08238678 0.03177913 -0.058421746 -0.07799667 0.11804778 0.13054053 -0.08788808 -0.07353725 0.031889763 0.10075239 0.15621261 0.13901934 0.17263563 -0.07460494 -0.079420686 -0.15087047 0.034946904 0.038135525 -0.14514312 0.09221286 -0.014990498 -0.014537395 -0.016698414 0.12467842 0.041749053 -0.0949959 0.05499911 0.045090925 -0.048120957 -0.023365393 -0.14550927 0.09989263 0.025614293 -0.04518423 0.08636386 -0.1195785 -0.06231284 0.09307294 0.027789628 0.044694547 0.01044619 0.035242017 -0.11207702 0.054974962 0.030295076 0.045958206 -0.11453333 0.014525525 0.066602424 -0.03721029 -0.08466539 -0.13589911 -0.12852217 0.1812594 -0.14032263 0.115466945 -0.0440326 0.13694943 -0.024532437 0.03899809 0.020697782 -0.022064982 0.1456608 0.01979274 -0.030125173 0.010256152 0.053229358 0.16901073 -0.1494252 0.12579425 -0.069260575 -0.101142965 -0.11565501 -0.026723005 -0.10512346 0.11630914 -0.1454231 0.04002601 0.03263052 -0.0606837 0.10022199 -0.058482226 -0.12362361 -0.120678246 0.072016425 0.04467055 0.03524215 -0.12192438 -0.12966725 0.1133136 0.10330619 0.022716854 0.049907997 0.09988448 0.021870917 -0.09477751 -0.12561595 -0.018302223 -0.06284525
1615 0.14280294 -0.15878165 0.018637465 0.0059846374 0.022611454 0.18870854 0.028934544 0.038387492 0.020110555 0.17440103 0.16030097 0.050916906 -0.0355344 -0.032124642 0.014922466 -0.0039071743 0.06970333 0.10860743 -0.18648383 -0.08173918 0.09652282 -0.020868046 -0.13298224 -0.022695636 0.07855302 0.06354921 -0.122395314 0.0005621708 -0.07308102 -0.14979905 0.100269906 -0.028647223 0.069069214 0.018874098 0.021707144 -0.092450984 -0.15687712 0.11339273 0.12316433 0.091788806 0.03041612 0.19532278 -0.086171106 0.00733155 -0.14097326 0.11851095 0.09254213 -0.2077191 0.0863461 -0.005172575 0.009222089 0.014581466 0.16098848 0.13010128 0.030232988 0.026433708 0.026595524 -0.12289067 0.014940952 -0.086674824 0.04734395 -0.014459715 0.036688365 0.02703827 -0.13627294 -0.06322113 0.07777271 0.13688445 -0.04340717 0.06069601 0.09892965 -0.08296824 0.056314968 0.081855185 0.052203234 0.021656012 -0.028232368 0.09458762 -0.014701354 -0.12926288 -0.1398637 -0.104696974 0.19113165 -0.11615807 0.0954671 -0.09458769 0.11528481 -0.144851 -0.1414946 0.017334303 0.015863853 0.1360155 0.14214388 -0.098828845 0.047383614 0.1457375 0.17369932 -0.0384148 0.07497493 -0.001768342 -0.039188247 -0.14452 -0.04740048 -0.07676178 0.1359365 -0.07934962 -0.10729198 -0.045754585 -0.15082033 0.06260377 -0.031526566 -0.03550343 -0.07812884 0.0032262886 -0.027045175 -0.09727242 -0.157646 -0.07451299 0.12616543 0.14357327 -0.023950728 -0.024229104 0.1635766 -0.010780922 0.038195956 -0.018285932 -0.017248942 -0.020329062
708 0.14468694 -0.13792582 -0.10488352 -0.16797183 0.08518138 0.060937088 0.093026236 -0.0032262027 0.03840499 0.13675596 0.100891605 -0.11259229 0.11167297 -0.011602194 0.0945577 0.0675527 0.013433613 0.06423769 -0.1811677 -0.0909207 0.047549274 -0.097851425 0.017244225 -0.14175123 0.059124105 0.055399664 -0.08115935 -0.09274622 -0.03852762 -0.10597825 -0.022556473 0.07648289 0.087641515 0.114716485 -0.014755546 0.08767309 -0.074877225 0.0688969 0.16388582 0.12922652 0.1457802 0.19791514 -0.09621798 -0.037996568 -0.086566694 0.12649815 0.16087304 -0.19904561 0.18420136 0.083426975 -0.055393856 -0.115282655 0.16795439 0.11735432 -0.009954988 0.004118844 0.09937671 -0.02750991 -0.04493393 -0.14467002 0.11846096 -0.013186391 -0.011147602 -0.009321429 -0.013867056 -0.063608095 0.13797659 0.11973735 0.08444667 0.09207222 0.052914456 -0.15815467 0.06740956 0.021427466 0.007585845 -0.10918066 0.13160156 -0.019468213 -0.11650489 -0.13664368 -0.15083416 -0.1359632 0.22276063 -0.032029044 0.09961173 0.122268274 0.14771825 -0.0019929486 -0.12233838 0.1503611 0.07282449 -0.05334397 0.11485152 -0.0025174525 0.14529358 -0.030294007 0.15074243 -0.1312825 0.1014819 -0.0063979505 -0.093324006 -0.12770136 -0.050333865 -0.012598407 0.16511908 -0.15220638 -0.14644256 0.14030854 0.12844808 0.02894689 -0.03023768 0.01553343 -0.14342542 0.07967743 -0.03935485 -0.15352325 -0.14567997 -0.116114296 0.08232793 0.11090439 0.11526638 0.091140896 0.11845723 0.05227271 -0.0940952 -0.09446439 -0.08898272 -0.02911579
713 0.17292562 -0.18575522 -0.036512025 -0.08303207 0.11604054 0.16141303 0.17644048 0.051477175 0.09630072 0.11801987 0.12578952 0.0054791155 0.083865404 -0.025034415 0.112130575 -0.076370575 0.0332326 0.13032624 -0.16004851 -0.124769084 0.024132868 -0.087393194 -0.08587157 -0.043483842 0.04189139 0.10307176 -0.018891359 -0.09335978 -0.15917063 -0.15419757 0.027561653 -0.049072895 0.07788601 0.029545663 0.07058384 -0.066453926 -0.09248648 0.021570455 0.15535645 0.11242088 0.019476334 0.14619161 -0.02757472 0.071529776 -0.10459007 0.06306473 0.13438098 -0.2055077 0.17167486 0.046844624 -0.08120765 -0.049982704 0.18663986 0.081657924 -0.061234698 0.06288622 0.09949721 -0.11392935 -0.07438804 -0.15330309 0.06860555 0.060318805 -0.020820355 0.11132335 -0.15012375 -0.10932678 0.054330662 0.11609028 -0.01028363 0.028047657 0.11580873 -0.11678135 0.13244845 0.07169202 0.08168605 -0.1055572 -0.061092295 0.058845725 -0.13465671 -0.13880578 -0.08069859 -0.08034655 0.1660792 -0.15674052 0.108641274 -0.016449433 0.12456581 -0.081408195 -0.074959375 0.16454744 5.598954e-05 0.02923114 0.078111134 -0.10103643 0.104031876 0.1650498 0.08909286 -0.07829739 0.052770354 -0.116485745 -0.08442281 -0.04683967 -0.014614869 -0.082578965 0.17097692 -0.098639764 -0.16873091 0.0121106645 -0.09026769 0.11916436 -0.022118624 -0.0061379084 -0.19242194 0.03315563 -0.09267724 -0.12994787 -0.1352069 -0.081651255 0.028869199 0.14581826 0.0976871 -0.039781228 0.027951326 -0.022255033 0.06797672 -0.08198325 -0.043939833 -0.04351687
718 0.08256902 -0.12899587 -0.060875554 -0.09732121 0.1606143 0.06285284 0.02294196 -0.032191295 0.16365738 0.15628925 0.14205593 0.24116471 0.048762646 -0.05380803 0.15632823 0.062750414 0.15601084 0.068778224 -0.14914043 -0.17671473 0.32458502 -0.12571532 -0.15650482 0.06376278 -0.14507288 0.15875614 -0.17615475 -0.14631943 -0.0646411 -0.18693598 -0.19283229 -0.029402694 -0.20029704 0.095133364 0.19240433 0.04957201 -0.12858689 -0.013881306 0.37603924 -0.07929424 -0.038295824 0.13983655 -0.10696848 -0.146524 -0.1486629 -0.08721627 -0.056308925 -0.14096937 0.07671341 0.18027712 -0.17216706 -0.18528056 0.15530474 0.15802108 -0.03838702 0.04884896 0.1324659 -0.10434535 -0.30653992 -0.10794339 0.16222177 0.14471589 0.029629214 0.16764133 0.012092349 -0.12627426 -0.050865535 0.08567012 -0.046719413 0.07348631 0.09966349 -0.19098303 0.10590746 0.0012085199 -0.038439557 -0.13285883 0.08291038 0.10958427 -0.11577619 -0.15424374 -0.054640833 -0.22445276 0.16522045 -0.120256506 0.17872751 0.03365164 -0.11198743 0.13223201 -0.063669816 -0.13864386 0.1771464 0.14260739 0.083066784 -0.19783726 0.13654844 0.12597872 0.11369053 -0.16422485 0.15722975 -0.13823406 0.021257116 -0.093524225 -0.15455595 -0.02077817 0.20316842 -0.15441704 -0.04235293 0.058987852 -0.07129482 -0.031257093 0.106899284 -0.052296188 -0.18962105 -0.13210365 0.17730556 0.059354525 -0.16615075 -0.14106514 0.0039515053 0.0970288 0.1709618 0.28708267 0.15509893 0.0977328 -0.11514694 -0.19040826 0.061147116 0.18472247
1630 0.07500279 -0.16974027 -0.19847964 -0.030332 0.006181566 0.17020078 0.09400062 0.1707581 0.07208451 -0.00090632687 0.07879972 -0.10938446 0.083455674 -0.004443781 0.11085792 -0.12767518 0.08947076 0.21500467 -0.19652197 -0.10548525 0.067584015 -0.08766509 -0.16205259 0.036113326 0.1299831 0.16340683 -0.14720085 -0.34322694 -0.17770305 -0.15298 -0.10027184 -0.114996955 -0.20275997 0.053224258 -0.008610512 -0.087583624 -0.22830315 0.16562207 0.09875761 0.20905468 0.054120928 0.08047954 -0.32543415 -0.1239004 -0.18165493 0.009080809 0.048186976 -0.17405392 0.06254248 0.1605431 -0.020645477 0.026741238 0.093938015 0.0766971 0.04057948 0.053676404 -0.05883076 -0.11791212 0.09334441 -0.17367744 0.1595046 0.11319203 0.0824982 0.1633772 -0.123458415 -0.015231431 0.011880517 0.068396546 -0.0905552 0.06824549 0.0897568 0.049870163 0.10853769 0.085515246 0.018184623 0.06750093 -0.08858513 0.14875944 -0.16908057 -0.029175172 -0.13667433 -0.13837919 0.13160047 -0.14635354 0.13432775 -0.040767677 0.16617647 -0.065931164 -0.16241422 0.16400766 0.10558837 0.09690731 0.08985265 0.10434899 -0.09486122 0.099860884 0.21955884 -0.2472817 -0.17843193 0.13849053 -0.18526942 -0.035658155 -0.21133186 -0.0997742 0.16609733 0.108932175 -0.017831387 -0.0024934192 -0.16151349 0.018292224 -0.1177139 0.06333045 -0.13914058 -0.12546724 -0.13616855 -0.038498454 -0.091516726 0.010466851 0.20426363 0.18152049 -0.23928627 -0.08715051 0.13629024 -0.06559527 0.13532227 -0.06139619 0.055236403 0.09225544
734 0.078555435 -0.17475235 -0.0072791134 -0.13001592 0.16785121 0.13110451 0.16922224 0.0736191 0.03278152 0.033766925 0.08200714 -0.01945083 -0.023549218 -0.0065050665 0.12477376 -0.030010773 0.031988457 0.013365336 -0.17502674 -0.091014676 0.021986952 -0.16502488 -0.104451805 -0.11349969 0.023152847 0.0014066149 -0.038231846 -0.10719543 -0.036781512 -0.15917282 -0.046885245 -0.076749295 0.009017715 0.06732246 0.078406654 -0.0021965792 -0.06975954 0.06360261 0.16621542 0.14883147 0.08348734 0.15998302 -0.11769123 0.06396284 -0.12961957 0.06869035 0.07555214 -0.17688668 0.13992673 0.039930277 -0.08783911 0.03973951 0.06543001 0.002843837 -0.030774279 0.0015844944 0.0074021597 -0.14947203 0.0017428038 -0.14165118 0.028040063 -0.0150133865 -0.078537874 0.10002245 -0.13342479 -0.0046768836 0.112498604 0.10808033 0.12578206 0.0015044592 0.006275788 -0.11666174 0.052694518 -0.0017510515 0.090322375 -0.100956075 -0.013735359 0.05623975 -0.08460246 -0.1827056 -0.14028785 -0.15562348 0.15683389 -0.07943684 0.02968267 0.10868895 0.06845113 -0.041064087 -0.023717146 0.10055379 0.05479659 0.103150904 0.10649585 -0.14144221 0.18603905 -0.008817778 0.11773622 -0.11108301 0.11702348 -0.12239836 -0.06671488 -0.11510194 -0.041058823 -0.04149801 0.09642137 -0.08886685 -0.10810412 0.10348433 -0.037141863 -0.08043701 0.035988208 0.045288797 -0.15205736 -0.04787293 0.04061305 -0.017553966 -0.12601745 -0.10789054 0.010798269 0.13574669 0.061502945 0.087569304 0.09636037 0.08317417 0.03466098 -0.11869899 0.05382271 -0.09405753
776 0.18202403 -0.18404391 -0.04841167 -0.09733008 0.123729736 0.15097073 0.04184574 -0.023131685 -0.016021676 0.11634314 0.10704685 -0.045928575 0.056636907 -0.02548265 0.121364646 0.06424128 0.12045378 0.06356451 -0.14610246 -0.06598832 -0.02181373 -0.07397027 -0.105677865 -0.15762056 -0.013059051 -0.00976118 -0.11527157 -0.108653784 -0.022611925 -0.17571732 0.005380718 -0.035612352 0.03853819 0.12124925 0.008997995 0.045683824 -0.11922771 0.111747175 0.0117767295 0.070571415 -0.021786233 0.20184073 -0.106398836 -0.004598276 -0.15168811 0.008121315 0.066414505 -0.23063123 0.12660901 0.008164686 -0.054354716 -0.045165073 0.0959651 0.041646007 -0.07951806 0.05196839 0.010309568 -0.1260345 0.05481044 -0.15672037 0.05092462 0.010272797 0.014741935 0.07886862 -0.09628994 0.01465508 0.1396447 0.1265595 -0.002124478 0.02268224 0.032964125 -0.0949429 0.10467853 0.0056882896 -0.016078845 -0.027650546 0.016068768 0.081707075 -0.06756495 -0.16246492 -0.017160816 -0.10175179 0.19075312 -0.1413893 0.007286728 0.07627816 0.043706752 -0.021226466 -0.14736977 0.098243006 0.029821467 0.06731719 0.15646718 -0.13388641 0.14283626 0.102712065 0.1851732 -0.051398903 0.1385816 -0.0633082 -0.04777649 -0.17078666 -0.09644047 -0.006179715 0.1633993 -0.09353616 -0.08821842 0.12090769 -0.08436917 -0.07903228 -0.0032576188 -0.0059115603 -0.1793435 -0.035072915 0.014067411 -0.012507659 -0.12130037 -0.1544423 0.03064585 0.16511136 0.06537548 -8.753601e-05 0.08308226 0.08338594 -0.010668218 -0.13066165 0.057562087 -0.10046887
814 0.09772365 -0.19237494 -0.03896659 -0.16355468 0.086302556 0.11123301 0.086148515 0.029027235 0.10941245 0.054198705 0.11018433 -0.070484154 0.021256013 -0.013310406 0.1219249 0.0029834332 0.0907351 0.08580297 -0.2002714 -0.1113173 -0.04460437 -0.1324428 -0.13434678 -0.09234424 -0.019237673 -0.0010882444 -0.0824743 -0.1609587 -0.118212625 -0.14641124 -0.043330252 -0.056691978 0.018403146 0.14979199 0.09215311 0.047504146 -0.1316096 0.08339531 0.05325161 0.11160673 0.03318074 0.17309731 -0.17090616 0.0680023 -0.10912599 0.0069705825 -0.012442716 -0.20720415 0.09469328 0.045988243 -0.049805608 0.007045429 0.079407655 -0.0039159865 -0.09358555 0.059037928 0.034266595 -0.086959146 0.014859833 -0.18217692 0.087276064 0.04886323 -0.05517313 0.11301517 -0.09638787 -0.059252672 0.114939876 0.049625147 0.059481118 -0.015092368 0.051011838 -0.04661679 0.049588174 -0.019127838 0.03210076 -0.10528373 0.04873342 0.10476175 -0.102972314 -0.06675732 -0.09978704 -0.014329838 0.18529661 -0.08370294 0.059241347 0.0008490302 0.10297269 0.008413177 -0.08052411 0.2007552 0.032517817 0.10669415 0.079347186 -0.055596363 0.09591548 0.027696926 0.20146228 -0.1625638 0.064254746 -0.106927104 -0.067925625 -0.15721963 -0.095218256 -0.04271137 0.12360877 -0.09354808 -0.11384276 0.05278858 -0.0050883745 -0.014211086 0.05392913 0.059113104 -0.1749932 -0.061553497 -0.0044064014 -0.021391602 -0.13517106 -0.07992627 0.10212375 0.13565958 0.06290498 0.042311836 0.12957484 0.12241033 -0.0445186 -0.108574666 0.07326136 -0.04044552
818 0.08969262 -0.17173903 -0.012681838 -0.13561751 0.15507975 0.05598977 0.06340856 0.10375671 0.040064726 0.06639803 0.06664318 -0.012079723 0.023897355 0.020543123 0.13264 -0.029794337 0.08152991 0.037525903 -0.16370672 -0.09691653 -0.012730322 -0.02219407 -0.07404162 -0.111609444 -0.025478475 0.10313895 -0.07055881 -0.021783147 -0.04068004 -0.09992057 0.021915667 -0.03868441 -0.048821952 0.0885962 0.05716134 0.03751369 -0.035735186 0.054516952 0.047241062 0.12580521 0.078440025 0.1954542 -0.08958451 0.0907145 -0.091894746 0.022734268 0.069028825 -0.18952644 0.16234215 0.015839396 -0.08952234 -0.0048519257 0.16946028 0.01661778 -0.08801785 0.11428256 0.0061681196 -0.13686503 -0.049361624 -0.12689929 0.06986968 0.04530653 -0.02997969 0.13553803 -0.11178394 0.05598286 0.111809134 0.09177001 0.088585034 -0.081699714 0.10557329 -0.13769813 0.057080504 0.060502812 0.019054703 -0.11730643 0.021132318 0.10599236 -0.10565212 -0.11935435 -0.07085656 -0.1469973 0.20528735 -0.07960497 0.09185079 0.10065944 0.14436275 -0.008564682 -0.095822856 0.1264865 0.08012802 0.11453209 0.09175968 -0.123943046 0.13019454 0.036960836 0.17129336 -0.07271891 0.069101684 -0.09221764 -0.11631264 -0.123438776 -0.022362804 -0.07919581 0.16498557 -0.05414882 -0.09513615 0.010828573 0.0077134552 0.002966565 -0.04168729 -0.037860494 -0.17933212 -0.016621847 0.010143051 -0.05472983 -0.13816233 -0.10197306 0.055819023 0.17379226 0.08861515 0.08497228 0.09188764 0.038723398 -0.04930187 -0.15163355 0.09200338 -0.095703684
1401 0.052084908 -0.17030594 -0.012152157 -0.1317082 0.13179028 0.16597264 -0.00241091 0.20227726 -0.120184995 -0.19181861 0.11778611 -0.19815828 -0.16320471 -0.10156631 -0.17263773 0.14477819 -0.10055116 -0.09803492 -0.07980692 0.011651257 0.20008662 0.06936686 -0.07574725 -0.114961036 0.14721031 -0.17190544 0.11297511 0.03314186 -0.09222951 -0.14079216 -0.17244145 -0.14994675 -0.004856376 -0.100468725 0.10660788 0.00041165462 -0.1885696 0.17768383 -0.104696415 0.02672418 0.17612457 0.214013 -0.21694131 0.02245345 -0.10339584 0.18555248 0.121466994 -0.17517723 0.1678444 0.04584814 0.2733558 0.058564465 0.00808141 -0.12113407 0.1171724 0.05853298 -0.101172276 -0.18513708 0.06384099 -0.07974873 -0.13997313 0.012741689 -0.13288777 -0.10060762 -0.093247585 0.188066 0.0057997354 0.10660804 0.1155365 -0.13234541 -0.06278749 0.08367044 -0.19246136 -0.13095544 0.09730384 -0.19456187 -0.039572928 -0.09570649 -0.05233374 -0.2283043 -0.03294679 -0.032039683 0.09207098 -0.12144509 -0.15324055 0.14049771 -0.037756115 -0.10302612 0.050015375 0.14449027 0.12964785 0.08844637 0.13019276 -0.17573038 0.053633142 -0.1399059 0.12169 -0.0617201 0.14519678 0.21789585 0.13479136 -0.16101733 0.09780839 -0.02813342 0.1699405 -0.19396655 -0.13499421 0.14038809 -0.13836215 -0.14326164 0.022211373 0.15423754 -0.34395516 -0.010100506 -0.08204168 -0.12511912 0.2447039 -0.17881908 0.112092584 0.1883953 -0.065429 0.05449335 0.03656118 -0.090813465 -0.12805977 0.026944691 -0.06045137 0.062430177
220 0.15284619 -0.20780708 0.100309566 -0.17748867 0.1663319 0.15471984 -0.07230307 0.054590877 -0.029031629 0.2142451 -0.0013705782 -0.078230515 -0.1610109 0.23098558 -0.14957768 0.21421432 0.07552108 -0.052328303 -0.13024937 -0.005438045 -0.07053187 -0.056066353 -0.038680274 -0.09111595 0.15114634 -0.035736058 0.081607126 -0.08259739 0.17962524 -0.21549363 -0.010152995 -0.052139178 -0.12651615 -0.04054999 0.14738731 -0.109296404 -0.06387261 0.06525623 0.23261644 -0.14651011 0.12259613 0.18123682 -0.19353916 0.056914683 -0.21036556 0.18795763 0.122235924 -0.1663448 0.020890426 0.014639151 -0.21592072 -0.054572504 0.14281316 -0.08136187 0.13490868 -0.16595145 -0.08084005 -0.038682643 0.13375637 -0.10946083 -0.029375343 -0.18814479 0.015736641 -0.22786486 0.1204607 0.04055948 0.101217344 0.15660593 -0.07364902 -0.053325705 -0.07391219 0.1082265 0.021328235 -0.012068658 0.0773431 -0.115108304 0.2116152 0.24008715 -0.08621045 -0.18635571 -0.14242718 -0.15105748 0.23294614 -0.16005833 -0.09329998 -0.17400843 -0.16052963 -0.041214652 0.0766616 -0.16547415 0.2182443 0.027483253 0.12794332 -0.21421434 0.18507484 -0.0648865 0.11030695 -0.16701587 0.1912212 0.05175971 0.121782415 -0.29831776 0.06947792 0.25631404 0.07648809 -0.14140002 -0.11552959 0.2128868 -0.1328122 -0.09424864 0.2511918 -0.037471063 -0.17281565 0.14668997 -0.040257923 -0.09681814 -0.29632005 -0.143925 0.07960306 0.14268075 -0.007901084 0.08739122 0.19551174 -0.0888446 -0.14892426 -0.17026292 0.07542246 0.043720596
1412 -0.0019469816 -0.083786726 0.07405276 -0.06233002 0.014543034 0.13307981 0.104650155 0.07268622 -0.11219205 0.047357865 0.065343075 -0.008162287 -0.063359246 -0.071232796 0.020041566 0.124153994 0.016093394 -0.07779235 -0.16239731 -0.0035695292 0.03459277 -0.077550136 -0.08946343 -0.17918119 0.12447695 -0.15868576 -0.020146636 -0.15532303 0.16510753 -0.15428832 0.07586556 -0.016319212 -0.100068755 0.055001862 0.15464473 -0.04512253 -0.07745818 0.116396666 0.038031854 0.1758999 0.12491315 0.2130274 -0.023508096 0.05957388 -0.10363251 0.108863756 0.039531827 -0.18232432 0.03436574 0.013789849 0.084305584 -0.100456744 -0.012168093 -0.04456255 -0.124700435 0.052382603 -0.04999785 -0.17609355 0.055808254 -0.13130401 -0.08187993 -0.08930143 -0.10828271 0.11159736 0.016417716 0.121915124 0.18288966 -0.0360894 0.027621409 -0.12603705 -0.012713035 -0.04163985 0.043948554 -0.083330385 0.1207837 -0.10290328 -0.1300076 0.09942512 -0.057553474 -0.17281704 -0.1890427 -0.1366458 0.13300651 -0.0514074 -0.09221887 0.017105214 0.07557519 -0.16964814 -0.04975046 0.10712531 0.0995432 0.1814392 0.10094095 -0.06488907 0.065912165 -0.054344688 0.15268645 -0.11041901 0.18238328 0.11191335 -0.062497035 -0.08433169 -0.0074455016 -0.018034082 0.03162466 -0.20948853 -0.14415823 0.07897105 -0.052510638 -0.084495075 0.08129911 0.05820913 -0.107123666 0.17977455 0.08280405 -0.1466176 0.02435112 -0.11794885 0.10662374 0.065687954 -0.078344345 0.14845125 0.14553061 -0.06273291 0.06461058 -0.07325115 0.06905762 -0.07939376
1413 0.046984307 -0.120063215 0.13136989 -0.02091534 0.17346358 0.17787921 0.12527405 0.1492983 -0.025753317 0.0046197013 0.24694404 0.13484313 -0.027019616 0.030116916 -0.11357794 0.1741176 -0.12397725 -0.12024865 -0.15440704 0.004896982 0.16308255 -0.06990526 -0.13936077 -0.13235117 0.14443897 -0.07089218 0.072021864 -0.04971135 0.099071205 -0.09317253 0.2233643 -0.11009054 -0.07051343 -0.10016518 0.14962123 -0.1775692 -0.11995892 0.075723276 0.011371207 0.064533435 0.15829797 0.20332141 -0.07852509 0.08615626 -0.18256512 0.08921014 0.05080387 -0.10597741 -0.1395093 0.024041174 -0.13663459 -0.013345257 -0.087827854 -0.09798133 -0.003654028 -0.1275615 -0.15831423 -0.19789623 0.106969215 -0.14265883 -0.08559213 -0.0066134003 -0.100433834 -0.06935965 0.08070418 0.2611587 0.15357764 0.13064113 0.12310073 -0.06708352 -0.080968454 0.03535369 0.04759269 -0.11485023 0.035472143 -0.03776654 -0.11114367 0.025203634 -0.032797977 -0.12732942 -0.18467179 -0.10705793 0.0025584619 -0.13062075 -0.045377374 0.09366355 0.09462032 -0.164981 0.03238503 0.023947714 0.16389397 0.11342506 0.09272595 -0.016959053 0.08092157 -0.08461848 0.13015668 -0.18258424 0.18451802 -0.0828811 0.07221222 0.1401636 0.08056199 -0.20537966 0.040140092 -0.118600644 -0.1619148 0.1173804 -0.07806755 -0.0820218 0.01177186 -0.13919036 -0.01710258 0.009109046 0.07571125 -0.093846194 -0.00058789167 -0.18754664 0.08952031 0.1142364 -0.13183811 0.20088549 -0.030525448 0.06221283 -0.07294183 0.036505263 0.019375904 0.072902046
228 0.10056007 -0.13982297 0.06542525 0.0010218289 0.032814655 0.109585874 0.1551372 0.14103627 -0.10102507 0.001869912 0.04046568 0.06323534 -0.14565781 -0.09481539 0.042062562 0.14875168 -0.0663423 -0.12716897 -0.084538646 0.06393704 -0.092910126 -0.018851062 -0.12093106 -0.11336529 0.09904332 -0.10916816 -0.040158875 -0.040762234 0.11033484 -0.116830565 0.055566963 -0.07987051 -0.082468115 0.016475018 0.12993552 -0.081093766 -0.109479055 0.12503429 -0.0020294336 0.09607105 0.14230497 0.19200192 -0.061802354 0.060295288 -0.11514552 0.13822167 0.118142895 -0.13585755 0.059034448 -0.03984455 0.016311215 0.024765233 -0.010301279 0.010034642 0.047488775 -0.11869507 -0.0766284 -0.117424764 0.13158621 -0.13842626 -0.13666789 -0.104655825 -0.081040025 0.13799496 -0.09536808 0.04677035 0.092400946 0.028495766 0.08409744 -0.12352977 -0.10543977 0.023004467 -0.046406597 -0.022855401 0.110692546 -0.06477631 -0.034832332 0.09947474 0.08319245 -0.17792805 -0.17170912 -0.06740628 0.09348748 -0.076154135 -0.075354904 0.0747236 0.05756177 -0.114690945 0.098622054 0.0479798 0.13985686 0.11848743 0.14380132 -0.12045713 0.100684 -0.14446771 0.18300438 -0.090361916 0.1553185 -0.06358267 0.05619687 -0.031896174 0.084858224 0.068875924 0.1062867 -0.19090185 -0.12824833 0.08899492 -0.15198237 -0.04590838 0.007012185 -0.024639245 -0.08747911 0.045641456 0.14976147 -0.091104515 -0.11702502 -0.09286247 0.16547886 0.13223194 -0.076975286 0.095143884 0.044488855 -0.046804123 0.045063466 -0.00088294677 0.025096988 -0.0324983
233 0.0230227 -0.12098829 0.11852208 -0.0968535 0.12641118 0.11345257 0.15622045 0.074231885 -0.07495382 0.057287145 0.015160677 0.029242733 -0.09154783 0.047067642 0.07564751 0.12874399 -0.07033841 -0.100870006 -0.080859005 0.08823133 0.008418877 -0.08517453 -0.11342777 -0.14515747 0.06733119 -0.10555307 0.038511433 -0.05844519 0.080168426 -0.13745858 0.038940065 -0.10540991 -0.03713761 -0.021009317 0.053116407 -0.11104346 -0.10336199 0.12839411 0.059900597 0.13823792 0.14832042 0.16500528 -0.086508445 0.05582781 -0.1381148 0.12736711 0.16693164 -0.16055177 0.048986953 0.036934093 0.014404314 0.04653152 -0.03739075 -0.075624704 -0.078448825 -0.09482148 -0.06943209 -0.13386403 0.10619844 -0.1566278 -0.10788406 -0.06967288 -0.06689912 0.05440179 -0.059290003 0.014589802 0.107447535 0.08146661 0.138284 -0.05139929 -0.025786854 0.0019948953 0.017792312 -0.059206318 0.12154288 -0.15406203 -0.060483925 0.018518843 -0.080671676 -0.14832678 -0.11925351 -0.11580614 0.048796244 -0.09940501 -0.038524892 0.09680049 -0.0052451263 -0.07698968 0.03706868 0.05072588 0.07332903 0.11957125 0.14590013 -0.09308117 0.07936884 -0.077419356 0.117911704 -0.028397381 0.09551049 0.04388784 0.06240019 0.030972773 0.11489036 0.010199897 0.07428974 -0.17862087 -0.12878534 0.1346729 -0.15379193 -0.1014807 0.035108373 0.01607763 -0.08466905 0.07581289 0.062441483 -0.031391818 -0.080246575 -0.11940143 0.11067677 0.15401116 -0.08662237 0.06777035 0.12136232 0.06630584 -0.00097315694 0.0006267942 -0.05391136 0.01733451
235 0.037599564 -0.19802296 0.087297045 -0.12553528 0.14413632 0.15318482 0.14865538 0.17037612 -0.082411736 -0.0068089208 0.07997466 0.08879995 -0.09638214 -0.011047021 -0.0034492256 0.1513504 0.014851302 -0.023339193 -0.11249087 0.0047479896 -0.06678994 -0.02378256 -0.023533273 -0.109693825 0.16558933 -0.119762115 0.037709035 -0.07416542 0.08953868 -0.16284719 -0.027829176 -0.08293457 -0.035924207 0.050600696 0.10318888 -0.046547096 -0.06645572 0.06302742 0.08948155 0.13497089 0.16336122 0.18198602 -0.0567628 0.060211424 -0.20473316 0.18666677 0.08882902 -0.17675784 0.08992487 0.024336802 -0.015090242 0.12682524 -0.017855464 -0.03463892 -0.030860495 -0.070271924 -0.1001885 -0.10110451 0.033472218 -0.108527556 -0.06759111 -0.07359604 -0.06781463 0.120315835 -0.09777777 -0.0038739494 0.119095616 0.108825214 0.1187027 -0.075382136 -0.106011435 -0.11206218 -0.029515527 -0.019224374 0.071186215 -0.06873083 -0.11541559 0.03989467 -0.06415251 -0.16038376 -0.1530178 -0.08249837 0.12495422 -0.004722731 -0.044967275 0.099328525 0.04252072 -0.106981486 0.06350131 0.12020149 0.032341376 0.16223249 0.041060735 -0.05665321 0.17025739 -0.11919494 0.08590922 -0.082625546 0.18043451 -0.13767585 0.10379317 -0.058807515 0.018762361 -0.045074034 0.042943772 -0.17997809 -0.13225564 0.161404 -0.14282031 -0.12557021 0.048332352 0.010536061 -0.14439155 0.024387378 0.09746853 -0.023630777 -0.111286215 -0.105139054 0.09835714 0.18294217 -0.024763195 0.10581457 0.035111077 0.003095576 0.041152332 -0.104698814 0.019223215 -0.12812522
1450 0.08490485 -0.1345844 0.09483633 -0.046983965 0.12222896 0.13334599 0.15353009 0.13274339 -0.022918211 -0.016419305 0.09073909 0.04118425 -0.079420865 -0.029326653 0.07699249 0.0987931 -0.08368802 0.008299652 -0.11873847 0.11652041 0.058274634 -0.022616524 -0.050610665 -0.14673261 0.02857865 -0.12675722 0.08296902 -0.11386464 0.07071834 -0.13761218 0.02652927 -0.11864553 -0.06128434 -0.0002501381 0.08346242 -0.13840048 -0.0939535 0.12639724 0.107468896 0.09028637 0.16168302 0.1573933 -0.11723402 0.0436972 -0.15777868 0.12523784 0.123061866 -0.12522133 0.061466314 0.020357149 0.012286435 0.09657106 -0.07406277 -0.014592538 0.029238395 -0.07435701 -0.11538256 -0.1207859 0.09098695 -0.079475224 -0.05513901 -0.073407546 -0.11024744 0.11793809 -0.072783515 0.08910003 0.1464314 0.0740923 0.13765477 -0.12605593 -0.08577022 0.024531605 -0.06184283 -0.00043087435 0.09392928 -0.11753748 -0.06604679 0.04500683 -0.054180447 -0.10327585 -0.17462759 -0.06405943 0.018475873 -0.07857539 -0.05420976 0.055824965 -0.013044931 -0.088714726 0.05857828 -0.031068277 0.1109164 0.1259213 0.10139701 -0.06697212 0.08730459 -0.0661037 0.13098662 -0.09685182 0.138208 0.022604262 0.043546826 -0.11335679 0.026512932 0.061725732 0.05977772 -0.14500523 -0.13199073 0.14327183 -0.1257285 -0.104281664 0.05378349 0.024203148 0.002022975 0.050462764 0.13519338 -0.080597736 -0.021678409 -0.13539203 0.10638727 0.099988654 -0.05118576 0.12652059 0.04565908 0.031788636 0.017949179 -0.04629341 -0.0076558096 0.027282435
236 0.07636681 -0.16281937 0.079396 -0.112555884 0.025502097 0.16106074 0.143423 0.1424092 -0.09418985 0.10785614 0.013493427 -0.03170763 -0.08012613 0.009635166 -0.054150924 0.11179929 -0.030189162 -0.071393676 -0.09106901 0.04893278 0.037772104 -0.082707204 -0.05729176 -0.14461389 0.12575817 -0.08464555 0.0114165675 -0.0022320289 0.03589296 -0.10896922 0.02188669 -0.09173661 -0.066740155 -0.020242924 0.046342924 -0.028572587 -0.07074017 0.1352377 0.031474035 0.14692566 0.15956357 0.19191276 -0.11082979 0.07753353 -0.19844364 0.12867568 0.20149623 -0.14032824 0.045258377 0.0526714 -0.11036754 0.045265753 -0.036155842 -0.0010183059 0.018324194 -0.08707154 -0.057842456 -0.18766294 0.12304849 -0.104658104 -0.11456787 -0.035962094 -0.06594982 0.07839233 -0.0016913412 0.040834893 0.14371824 0.057383437 0.09306252 -0.120270975 -0.024885677 -0.0066900523 0.074710734 -0.063989766 0.11739674 -0.10601622 -0.07642984 -0.033934437 -0.0908332 -0.15796621 -0.12468279 -0.020387812 0.07270351 -0.058629118 -0.03610972 0.11749896 -0.025714565 -0.10413709 0.051643208 0.11839629 0.121617004 0.032233696 0.16115256 -0.025874026 0.15655196 -0.0981688 0.12031454 0.028272288 0.11352282 0.0366572 0.0076023447 -0.031828508 0.078130215 0.0025778182 0.1651529 -0.17864193 -0.12320487 0.13277496 -0.12335191 0.0055254973 0.041968927 -0.038198587 -0.09428933 0.05052719 0.071511336 -0.06777572 -0.15529954 -0.15081926 0.104215354 0.11176132 -0.061011404 0.08626982 0.06990595 0.029399551 0.036071643 0.03856414 0.032414164 0.037835784
1455 0.0921012 -0.2566874 0.12247819 -0.15345195 0.09542047 0.17194065 0.10249867 0.18757686 -0.09558145 -0.06094625 0.18461467 0.19119626 -0.11656536 -0.09835046 -0.18386373 0.1394775 -0.20093687 -0.09146454 -0.123611294 0.21390662 0.1734991 0.044255257 -0.05824819 -0.16522133 -0.24452569 0.07238642 0.19680034 -0.12840998 0.18525152 0.08009037 -0.096196055 -0.25096345 -0.017429072 -0.095560245 -0.032424673 -0.16220738 -0.21385355 0.11987836 -0.053345658 -0.15661635 0.23544508 0.23715757 -0.21155399 -0.089305006 -0.18140887 0.08405401 0.15037939 -0.00029570467 -0.029151667 0.023723155 0.0058330353 0.21432412 -0.15088443 -0.020972436 0.21556695 0.14684743 -0.1095663 -0.099300854 0.09178663 0.21965465 0.25227755 0.2125866 -0.22088143 -0.106009565 -0.036452983 0.13661759 0.25979757 0.07434951 0.14885296 -0.16506188 -0.1398475 -0.18673275 -0.19701971 0.22344646 0.11019459 -0.10334524 0.21250094 0.18325879 -0.15497412 -0.05041212 -0.18546283 -0.12844436 -0.15911825 -0.1625817 0.14153172 -0.21586478 0.20588283 -0.22784239 0.103124976 -0.10000574 0.1161358 0.13980071 0.087082006 0.09909536 -0.22796242 0.19781739 0.21851617 -0.17225872 0.18603441 0.14959913 0.022223495 -0.16700031 -0.20127116 -0.037554547 0.1534336 -0.27104878 0.13053073 0.17056334 0.02297845 -0.116352856 -0.034553602 0.19240072 0.19608721 0.08519719 0.07017381 -0.15439007 0.022497876 -0.17966148 0.17490561 0.14713298 -0.13827918 0.21952038 -0.14085042 -0.13392253 0.11587329 0.11067596 0.14825983 0.19678386
1465 0.011090762 -0.13244869 0.0705689 -0.12552565 0.097736835 0.095253415 0.13226777 0.12055089 -0.03543335 -0.030624691 0.098567665 -0.04167129 -0.13667464 -0.052143026 0.07028869 0.085235864 -0.04012053 -0.03529434 -0.13274693 0.0749956 -0.007519593 -0.058710728 -0.0691603 -0.1330078 0.052406706 -0.13723928 0.032859467 -0.10775418 0.083286814 -0.14054795 0.060436517 -0.09166532 -0.06398876 0.112491116 0.031254295 -0.07090486 -0.10056695 0.11598318 0.0074251504 0.10459186 0.11942701 0.13391663 -0.15008806 -0.03900069 -0.11585626 0.08683404 0.10204107 -0.11759949 -0.012121209 -0.014764889 0.02537995 -0.06665194 -0.055990625 -0.07354323 -0.06842428 -0.09035464 -0.13012913 -0.09535248 0.15556107 -0.12470749 -0.09549869 -0.012913634 -0.10448888 0.072893694 -0.12304021 0.07598223 0.11500298 0.098011196 0.08791699 -0.0026982746 -0.0018808417 0.053258963 -0.0025193493 -0.09404847 0.07198462 -0.18056685 -0.08504192 0.023464696 0.034292087 -0.1733174 -0.1271945 -0.10798057 0.08012383 -0.047677487 -0.11712494 -0.0241546 0.0048141596 -0.12269108 0.04282796 0.10736802 0.05030256 0.15646917 0.14067517 -0.10504021 0.07113866 -0.11862756 0.126546 -0.07941352 0.14087515 0.05901107 0.012383347 -0.09393461 0.07042093 0.04685279 -0.02147197 -0.18127848 -0.15791629 0.15546976 -0.12897712 -0.06317023 0.11010776 -0.026905429 -0.15759537 0.03541162 0.09288329 0.03669053 -0.07621329 -0.052458256 0.12979138 0.140781 -0.12739332 0.1333067 0.1225482 0.09838617 0.10324361 -0.07394274 0.0543992 -0.048252486
1466 0.0155471815 -0.11563287 0.076590315 -0.05866655 0.09102089 0.11146682 0.13157251 0.12178564 0.052617658 0.0028214846 0.12911063 0.01051318 -0.10448414 -0.10149966 0.04704928 -0.01835997 -0.060236778 -0.043973457 -0.13824585 0.06580827 0.13920917 -0.034038387 -0.042598516 -0.1452327 0.07727693 -0.11692252 0.06324313 -0.12728329 0.054424163 -0.12571836 0.050174713 -0.09794618 -0.064806074 0.08194017 0.0517491 -0.07094372 -0.13203466 0.11996079 0.08402954 0.13000599 0.14750102 0.1514252 -0.1076349 0.023365943 -0.16042884 0.08463609 0.15041487 -0.16243653 0.0541733 -0.012331965 -2.9887768e-05 -0.028544841 0.0095739 -0.06617612 0.05738886 -0.02398775 -0.09111171 -0.12780912 0.07458789 -0.14486592 -0.033323787 -0.09912598 -0.0891906 0.10104098 -0.07471078 0.077252716 0.16755308 0.00871344 0.085605465 -0.086989164 -0.09647163 0.09924815 -0.0026740967 -0.11534861 0.099435955 -0.14781381 -0.11934297 0.098675035 0.017845957 -0.1170477 -0.18653515 -0.03834703 0.12409268 -0.106925964 -0.09125483 0.05555413 0.064568155 -0.16469042 -0.09773592 0.039056752 0.056115948 0.10631284 0.057290666 -0.084217936 0.16534434 -0.1263948 0.18640997 -0.052848727 0.10500668 0.019399328 0.011539859 -0.091433614 0.020484937 0.031825487 0.09426899 -0.13293016 -0.09812727 0.12724935 -0.10954022 -0.11185993 0.086646065 -0.03365684 -0.05511213 -0.008624712 0.08816423 0.026143285 -0.06315929 -0.17209475 0.09554167 0.12611313 -0.13243622 0.16759391 0.078433 -0.07238794 0.06783535 -0.06463513 0.066682436 -0.037886925
1468 0.100665584 -0.082481295 0.07000202 -0.15229563 0.07340852 0.1706422 0.11853898 0.082290486 -0.10282802 0.059591062 0.01781667 -0.0016215913 -0.12795319 -0.10153287 0.022511104 0.15445225 -0.026643643 -0.041215762 -0.14866863 0.060117364 0.028093435 -0.01549929 -0.055625856 -0.14033505 0.08627155 -0.052346725 0.05983333 -0.14582953 0.0901257 -0.09159319 0.015433887 -0.034326807 -0.08825323 0.046429228 0.14620735 -0.0926542 -0.16052501 0.1158277 -0.045615852 0.07802409 0.12992556 0.16531034 -0.03903375 0.07191965 -0.16396002 0.15099463 0.14533259 -0.16237117 -0.014002338 -0.0151564535 -0.0018477282 0.039398912 -0.045285605 -0.07602875 -0.027808346 -0.03826587 -0.08725367 -0.12845252 0.13337329 -0.10345858 -0.1555111 -0.06131283 -0.058494978 0.07240738 -0.042239714 0.10451329 0.14059043 -0.034076143 0.015262924 -0.08199092 -0.043079015 -0.008270439 0.0035846173 -0.10354163 0.029210554 -0.13001631 -0.11143997 0.06909183 -0.02936527 -0.13805585 -0.17526966 -0.0788552 0.10896104 -0.058050174 -0.039836448 0.11198407 -0.09786013 -0.12770908 -0.026041608 0.03625272 0.036236726 0.10850241 0.15713449 -0.10315787 0.091136836 -0.16847482 0.116715126 -0.04674484 0.17396422 -0.021395834 -0.005185214 -0.08527973 0.045274682 0.014285136 0.12826046 -0.10604553 -0.08912214 0.13283557 -0.16652104 -0.037100356 0.101985715 -0.06788714 -0.07950772 0.07358237 0.08305666 -0.05520916 0.015124219 -0.15120862 0.040644843 0.111926645 -0.07545264 0.16521484 0.12161763 0.06943536 0.1147712 -0.14393315 0.046730816 0.01652508
243 0.03292263 -0.15567012 0.10079766 -0.053992275 0.07965254 0.12790656 0.13089037 0.14969921 -0.073052764 0.07637722 -0.0077770613 0.053295743 -0.08299302 0.053012062 0.07892656 0.14944248 -0.06916797 -0.10479996 -0.11541013 0.0833778 0.017479142 -0.042799413 -0.10005923 -0.10249051 0.08425907 -0.10058535 -0.0086922515 -0.06744984 0.06338863 -0.1563581 -0.03488863 -0.111557625 -0.030698003 -0.02729477 0.10821183 -0.060171146 -0.10063055 0.11647842 -0.0113540925 0.11023478 0.15335348 0.14762309 -0.09324014 0.09079091 -0.16061366 0.14724967 0.1302385 -0.15076903 0.061173357 0.09810703 0.002005702 0.087219775 -0.044737138 -0.06626757 0.010783957 -0.07156572 -0.08415499 -0.114097014 0.11596884 -0.118117325 -0.0962788 -0.06029104 -0.05275839 0.025141302 -0.033903573 0.012190713 0.13207924 0.082380325 0.10869951 -0.14483058 -0.106142215 0.03658622 0.012422301 -0.0032476701 0.06264338 -0.08432001 -0.095040075 0.02483123 -0.077364996 -0.13052547 -0.1276225 -0.04623097 -0.00480378 -0.057640973 -0.08758762 0.12276035 -0.017848194 -0.065268956 0.08626042 0.07976553 0.11895002 0.09410651 0.13860385 -0.10759671 0.11578742 -0.09616498 0.1087065 -0.028498065 0.10628315 0.040362082 0.08354281 -0.0021969683 0.082073845 -0.06859593 0.10650824 -0.15862006 -0.15670249 0.103664346 -0.10336532 -0.118414186 0.0063131982 -0.009847045 -0.010668833 0.057270102 0.06902195 -0.123362444 -0.11605195 -0.12461783 0.096193425 0.10923025 -0.06410111 0.08632793 0.06753199 0.047385316 0.00027378177 0.024158152 0.032073513 0.03003837
245 0.017203385 -0.10113784 0.0743319 -0.09137486 0.07680978 0.106573746 0.15725571 0.12974636 -0.050796427 0.084609345 0.083000556 0.046535224 -0.12232565 -0.02101572 0.09909012 0.06983025 -0.05733017 -0.06869339 -0.10891061 0.08067048 0.023211531 0.02513227 -0.1352691 -0.14333488 0.059445698 -0.10189122 0.06688066 -0.08973384 0.06638842 -0.14597043 -0.009667729 -0.022653967 -0.029546399 -0.00966542 0.04582961 -0.09281139 -0.08958902 0.16243489 0.015113215 0.12918407 0.1456882 0.17350756 -0.138314 0.017448785 -0.16568413 0.10655814 0.18416642 -0.13718514 0.068930805 -0.005541463 -0.04069167 0.020313825 -0.04022361 -0.04374421 -0.040294696 -0.042339146 -0.15794344 -0.13002431 0.12519658 -0.098413646 -0.1591112 -0.021455945 -0.051810846 0.038486645 -0.05544469 0.059692454 0.1751989 0.027637118 0.054985985 -0.09980778 -0.08271999 0.07154013 0.037566632 -0.0038206694 0.104963645 -0.0835612 -0.13571377 0.01518019 -0.044428047 -0.10156768 -0.12651145 -0.094797835 0.067127705 -0.046553697 -0.08182804 0.06351076 0.023767607 -0.067194894 0.07246038 0.084671095 0.10153958 0.08017388 0.13167305 -0.10328636 0.13944158 -0.15659599 0.085072115 -0.07211612 0.13628724 0.076431304 0.009246266 -0.043030877 0.04784179 -0.019768964 0.08312494 -0.18998955 -0.18258566 0.14217426 -0.042737003 -0.10402064 0.079410024 0.03298953 -0.04149773 0.045406338 0.1516157 -0.11887753 -0.057910923 -0.16120361 0.12698475 0.098597474 -0.05705461 0.0869581 0.09234524 0.089918286 0.008200075 -0.082545996 -0.014819681 -0.034595896
1535 0.14869119 -0.23707077 -0.20738377 -0.24451116 -0.10224862 0.22079511 -0.054820273 0.04097325 0.19778018 0.12045712 0.17929994 0.1081171 0.19015709 0.11263027 -0.15146357 0.122447856 -0.1906768 0.15601493 -0.19982204 -0.11016975 0.08970657 -0.11665463 -0.0068694823 -0.012385788 0.18246095 0.2017252 0.004839152 0.079235524 -0.17290737 0.09639034 0.20948303 -0.08422829 -0.18875751 -0.06666608 -0.13141717 -0.17116055 0.1333225 0.2174569 0.2214735 0.223027 0.12752718 0.18494639 -0.11496498 -0.16735548 -0.18987003 -0.1849308 -0.008739951 -0.22237131 -0.1353939 -0.2024225 0.162272 -0.18701123 0.15737633 -0.19495632 -0.19666183 0.15502378 0.116372496 -0.13482974 0.111176334 -0.20365518 0.15873751 -0.10772966 0.1890073 -0.11284958 -0.1658816 -0.15181004 0.04859597 0.10598591 -0.13432862 0.19547337 0.18967326 0.03865687 -0.063953266 -0.08241297 -0.19949703 0.00167986 0.13555413 0.006053835 -0.25215113 -0.19839352 -0.13540407 -0.076712534 0.16580582 0.121247575 0.18385367 0.18757966 0.1710227 -0.06710599 -0.23126478 -0.1081372 -0.08387729 -0.08575826 0.084660046 -0.17326747 -0.025469989 0.20114924 0.20091683 0.12751804 -0.074616276 0.08727677 -0.21451482 -0.16055734 0.19194978 -0.21343681 0.12047518 -0.11161109 -0.11276495 -0.13748778 0.16064164 -0.06713765 -0.16937552 0.14136209 -0.19642407 -0.09814264 -0.051959198 -0.04636209 -0.19371949 -0.21961144 0.17891312 0.18228936 0.11936033 -0.08259238 0.17000318 -0.16124237 -0.17506021 -0.18211576 -0.1903181 -0.118972786
780 -0.07315603 -0.12916213 -0.15488425 -0.12329633 -0.059977837 0.10094493 -0.05261133 0.13507877 0.1281647 0.12010327 -0.06297441 0.0902989 -0.10012752 0.097134516 -0.0950398 0.094542705 -0.07210433 0.03363681 -0.07026231 0.12152617 -0.05424189 -0.020603186 -0.034861907 0.10765254 -0.0056987396 0.11371286 -0.018127676 0.057646386 0.020974308 0.07852793 0.13550174 -0.12961401 -0.13604303 -0.13993403 -0.1309837 0.108974844 0.117066726 0.059500206 0.11146355 0.13058427 0.076491244 0.059844553 0.004567751 -0.1045543 0.030847607 -0.09405174 -0.07376849 -0.05846755 -0.067512155 -0.07827457 0.03159971 -0.12837385 0.095777474 -0.15210003 0.03574812 -0.084891774 -0.04701305 -0.10263034 0.11806678 -0.07036835 0.028651457 0.060136765 0.10624659 -0.09055572 -0.12122378 0.019944394 0.023733322 -0.031551205 0.023552142 0.09730317 0.13314784 0.06140595 -0.12860774 0.10811627 -0.11248673 0.07023786 0.060779285 0.055463873 -0.0768565 -0.124669366 0.049248878 0.10034092 -0.02963859 0.056008235 0.12665732 -0.036035497 -0.035480097 -0.08362989 -0.056800056 -0.07380461 0.050146054 -0.14215317 -0.054118164 -0.051840816 -0.113752894 0.10122496 0.13102666 -0.03267334 -0.09419778 0.029254027 -0.08908451 0.06627926 0.09723366 -0.11952699 -0.057391144 0.03303313 -0.09310177 -0.069607474 0.076529235 -0.112384446 -0.092658505 7.88156e-05 0.0132545605 0.026704758 0.054414697 0.07312265 0.034066826 -0.15077557 0.0883428 0.07900772 0.08771606 -0.09257642 0.10105847 -0.11878655 -0.109567955 0.040250678 0.026088383 0.098977916
1550 -0.04897489 -0.17426294 -0.032828737 0.027870765 -0.08845882 0.12035314 0.08035885 -0.08711895 -0.09558937 0.09068087 0.13532364 0.029963467 0.03220273 0.138821 0.09248884 0.13052401 -0.11714325 0.10419318 -0.12122879 -0.09202936 0.13362563 -0.09273962 0.12975904 -0.08054452 -0.14352483 0.059435017 -0.08012205 0.17030482 -0.030647483 0.041078202 0.08765161 0.1267556 -0.042478863 -0.054862574 -0.14634909 -0.018312233 0.02887426 -0.055841528 0.08561324 -0.18062884 0.06695177 0.13640891 0.002531664 -0.114575565 -0.16908452 -0.15103339 -0.16006465 -0.15678447 -0.099283144 -0.14610979 0.01286623 -0.08637907 0.13093899 -0.062576085 -0.10279743 0.07904824 0.04525295 -0.14810291 0.14046876 -0.038463913 0.08116012 -0.1294748 0.09987611 0.03089724 -0.14204857 0.039920237 0.115357205 0.09931313 0.15024486 0.0440205 0.089565225 -0.13420112 0.03373433 0.10910506 -0.08078844 0.06657773 0.07417142 -0.12029041 0.095357224 0.00529206 -0.06405192 0.087456495 0.14316766 -0.18420632 0.087359704 0.16630444 0.13179693 -0.09895172 -0.08503 -0.16241844 -0.08312716 0.086556286 0.09598633 0.1445924 0.015672073 0.105398245 0.028265 0.121649355 -0.10151331 0.09877114 0.015596642 -0.06951945 -0.17010975 -0.15864228 0.11021938 0.0036129903 -0.15620375 -0.14236122 -0.10826323 -0.12584794 -0.121842116 0.20707513 -0.0947542 -0.009059854 0.08775205 -0.12538941 -0.09356463 -0.11555941 0.088025354 0.14528789 -0.037090022 -0.041082837 0.16240337 0.17578283 -0.029873889 -0.14698297 0.006552507 0.034841076
2273 0.06597195 -0.24319017 0.11923832 -0.03403703 -0.18742041 -0.16621782 -0.13322745 -0.015705472 0.016241433 0.16894113 -0.10265765 0.007303082 -0.18357655 0.0040509696 -0.09500667 0.25186855 0.16913491 0.038937405 -0.24125461 -0.12629683 -0.23278955 -0.074376374 -0.14724272 -0.19364403 0.1571313 0.051821586 -0.20965157 -0.11506378 0.22382978 0.1653331 0.1958601 -0.014934024 0.10590426 -0.077317454 -0.21522686 -0.14642867 0.1899407 -0.076525465 -0.32867604 0.32638082 -0.119249575 0.26435286 -0.08282847 0.2887138 -0.17961101 0.19815223 0.23387492 -0.29132244 -0.16483112 0.16726637 0.32441252 0.20559193 0.2143553 -0.13664927 0.095168784 0.02919603 -0.08643857 -0.20339645 0.15034 0.027901664 0.1674662 -0.13558137 0.23816775 0.12520947 -0.17036174 -0.17369278 0.08715089 -0.10229455 -0.11379761 -0.07511924 -0.2203561 0.090626515 -0.21782908 0.20271944 -0.1729826 0.17158933 0.15699607 0.17772003 0.079914615 -0.24904838 -0.27827206 0.105532244 0.13989988 0.2895008 -0.20474878 0.13430259 -0.12848605 0.20799403 -0.20453894 0.22623788 -0.030857472 -0.015043945 6.152225e-05 -0.1703241 -0.124286 0.12079339 0.1979542 0.1985083 0.2092852 0.10347863 -0.294693 -0.058401812 0.11189911 -0.14809483 0.2566105 0.029262463 -0.20387323 -0.04652102 -0.08547912 -0.10502588 -0.21196125 -0.08691262 -0.23449308 0.15016033 -0.13356635 -0.25962397 -0.18002117 -0.19468977 0.18666835 0.17969102 -0.0598896 -0.1605792 -0.1588206 -0.19373283 0.16779743 0.17477074 0.02552146 -0.020705147
1616 0.09626869 -0.10682614 0.031474706 0.10474515 0.075195596 0.17786331 0.13440236 0.07770272 0.11259412 0.121763766 0.17612123 0.029725589 -0.020743184 0.07981221 0.007229822 -0.15249966 0.0685574 0.15243138 -0.18593904 -0.08774928 0.07119697 -0.28418678 -0.14214163 0.023691898 0.09408212 0.1580692 -0.13099293 0.020326318 -0.1442453 -0.13894437 0.037903093 -0.044437565 0.13459039 -0.11848414 0.100860864 -0.03820471 -0.06223097 0.1297646 0.13466874 0.11962385 -0.06656142 0.17674862 -0.07087003 0.10039615 0.017276404 0.11632999 0.08703307 -0.10007045 0.16739918 0.10043317 0.032092985 -0.038913064 0.11371675 0.17931621 0.115648374 0.06614468 0.13306284 -0.14959294 -0.12793396 0.093626186 0.04840757 0.10493779 0.06795874 -0.112765506 -0.113585174 -0.121482894 -0.030434983 0.13721523 -0.1104707 0.09729117 0.09077503 0.012575579 0.10127813 0.13865247 0.094227694 0.039408624 -0.03776358 0.084995314 -0.06816955 -0.16529861 0.040477253 -0.11386957 0.14054286 -0.1430705 0.19494715 -0.12176123 0.042625353 -0.14637434 -0.0630568 0.040953208 0.018569471 0.11918022 0.07904509 -0.056362886 0.00024075707 0.17309865 0.11520325 -0.12233715 -0.07429539 -0.026813194 -0.041614532 -0.106392495 0.034879085 -0.110351264 0.13108887 -0.03598898 -0.12547185 -0.13362296 -0.13909908 0.10589696 -0.08821596 0.09832045 0.05843982 -0.29680997 -0.14700691 -0.10775238 -0.085588925 -0.23437375 0.1056177 0.08428423 0.11160644 -0.12115823 0.11628869 -0.09869658 0.12747678 0.0077709383 0.038357396 0.07734752
2158 0.1512291 -0.17260385 -0.10974851 0.01701104 0.0137504 0.14329197 0.059037805 0.06148609 0.11200776 0.14334756 0.144284 0.100522056 0.013744243 -0.064605944 0.04282195 -0.10697057 0.08133234 0.13418715 -0.14048053 -0.10564339 0.108404346 0.019115446 -0.07156962 0.037189115 0.11424882 0.12945414 -0.12398282 0.007166079 -0.119396046 -0.12931184 0.06717615 -0.084445156 0.07406635 -0.053264305 0.013871271 -0.057758383 -0.13625969 0.06625781 0.13105261 0.13301322 -0.056185618 0.12675703 -0.073309004 0.04528765 -0.09925252 0.05351641 0.031033114 -0.18080385 0.104128346 0.01580514 0.0056670136 0.00012051573 0.15661564 0.099452354 0.03980876 0.070132956 0.014420438 -0.087430775 -0.015014082 -0.12081165 0.060742997 0.05791662 0.06505152 0.12330941 -0.1331076 -0.11714527 0.086424835 0.094081365 -0.021723012 0.037290882 0.16516143 -0.055345047 0.08815098 0.044768307 0.111175746 0.008153984 -0.07559482 0.041431684 -0.05602334 -0.09639069 -0.11070262 -0.09174322 0.15937333 -0.08910968 0.06677196 -0.089647286 0.120518625 -0.14178553 -0.12761238 0.03538681 -0.021188973 0.06809905 0.0744676 -0.061909817 0.0021791132 0.12550674 0.102332875 -0.010301709 0.042569824 -0.12333503 -0.114869334 -0.10132464 0.017466024 -0.11392737 0.094838485 -0.011387454 -0.07358618 -0.044319913 -0.09745617 0.12884025 -0.09500834 -0.047405522 -0.05426313 -0.035064787 -0.0816999 -0.10686321 -0.1496505 0.020293772 0.096161395 0.120878614 -0.06449598 -0.04232511 0.13249762 -0.07824898 0.04328417 0.010269821 -0.050362434 -0.05029952
1624 0.20445202 -0.15734959 -0.42128387 0.1784729 0.04070698 0.14112014 0.1928496 0.19542003 -0.032840215 0.15428562 0.13071537 0.095256895 -0.012325826 0.26482514 0.216258 -0.059903637 0.024210243 0.1417998 -0.114995316 -0.024334332 0.15148976 0.022812795 -0.056506667 -0.16158193 0.109710135 0.09756748 -0.19226079 -0.11170617 0.074497655 -0.11934349 0.13416824 -0.00968052 0.00490788 -0.028313274 0.09276681 -0.17061886 -0.16395985 0.053358685 -0.02798107 -0.035048082 -0.17208594 -0.14412971 0.2682957 0.16866907 -0.12882139 0.18213324 0.15331453 -0.17594816 0.12017999 0.007351868 -0.030055476 -0.09397941 0.08577764 0.18725653 0.064493716 0.08791183 0.15841511 -0.21199472 -0.0064467685 -0.2547641 0.03970682 0.05418758 0.02205244 0.28611925 -0.20049 -0.067104444 -0.10412901 0.14948681 -0.0077984724 -0.027307505 0.16008803 -0.18752365 0.19246806 0.1047384 -0.0057935934 0.10327204 -0.020680066 0.09983679 0.034394383 -0.14125 -0.21023688 -0.20289136 0.20549154 -0.17472868 -0.02222419 -0.060994316 0.13924104 -0.08739223 -0.15998991 -0.14586999 -0.06473208 0.08363397 0.066105895 -0.006935388 -0.023664398 0.11757702 0.044554275 0.14607838 -0.17938338 0.06901265 0.2564589 -0.0390894 -0.16822676 -0.12914805 0.17165434 -0.060788848 -0.19168006 -0.13517103 -0.17130093 0.17799278 -0.1668022 -0.015052006 0.03666942 -0.048108146 -0.091480136 -0.21725142 -0.16103765 -0.046697948 0.12403317 0.14773747 0.043597348 -0.13140574 0.16816565 -0.09657603 0.112241074 -0.047649972 0.06008659 -0.02937636
2165 0.095496334 -0.19344747 -0.09240387 -0.03293762 0.012078804 0.08114795 -0.017250594 0.017683856 0.049614027 0.11382101 0.13037542 0.06598496 0.021423401 -0.14027014 0.00829559 0.03062081 0.078648575 0.123475775 -0.1954933 -0.11814318 0.10015099 0.060212586 -0.06889201 0.027751079 0.08657544 0.09928974 -0.08321745 0.021134295 -0.062481716 -0.13026139 0.075464234 -0.09387007 0.0325056 0.019164253 -0.009338936 -0.06680566 -0.12265626 0.082224146 0.14474015 0.18211181 0.034127764 0.18389866 -0.13285139 0.021010593 -0.14142211 0.052133635 0.018303778 -0.1846354 0.102643706 -0.027412694 0.04157889 0.018806059 0.18702659 0.06977434 0.028277546 0.076607816 0.0063411887 -0.08391101 -0.01898729 -0.093406 0.034588672 -0.03407807 0.049077537 0.12734802 -0.076494165 -0.035489682 0.11010593 0.102148384 0.0091036195 0.06785104 0.13342892 -0.066355504 0.008765588 0.040650237 0.08850038 -0.047850486 -0.06471097 0.015624687 -0.009464897 -0.08165803 -0.1576609 -0.0831522 0.19060537 -0.019909741 0.07652497 -0.084044084 0.15352945 -0.16052075 -0.1325127 -0.032071285 -0.03339783 0.08806146 0.08616448 -0.07983038 0.0508429 0.08365095 0.14197835 -0.010047116 0.11200883 -0.11295327 -0.14580995 -0.10778281 -0.029818833 -0.08802349 0.1265097 -0.077510424 0.02011587 -0.010317678 -0.07161912 0.11547438 -0.101931505 -0.101362854 -0.06771931 0.02289174 -0.04439478 -0.08725507 -0.17604662 -0.018870277 0.1330119 0.08912739 -0.0993087 0.068982705 0.1541224 -0.031040959 0.043671012 -0.014094532 -0.0499968 -0.059750564
2167 0.12003326 -0.15669581 -0.08427219 -0.03025153 0.035880174 0.16448016 0.012883736 0.087350234 0.09590953 0.12031655 0.14596553 0.11197943 0.01146922 -0.09179229 0.01017446 -0.05689603 0.041558124 0.1395573 -0.15172213 -0.0906578 0.11004625 0.035226833 -0.11325074 0.07269415 0.108492345 0.112166785 -0.091370665 -0.028392076 -0.10359645 -0.15230371 0.07093249 -0.056851786 0.0007373197 0.012789665 0.056774907 -0.08302269 -0.15149452 0.119000584 0.11701843 0.15287367 0.01850823 0.1353251 -0.106623664 0.0012365971 -0.14787734 0.05433678 0.025206348 -0.17890996 0.064015366 -0.0006271866 0.04964202 0.007266845 0.13197902 0.074326046 -0.01589022 0.064183146 -0.056314167 -0.10511324 -0.006278608 -0.10643948 0.041683223 0.022575289 0.04792318 0.108518854 -0.12246939 -0.100215346 0.0703317 0.060261317 -0.0252725 0.07646072 0.12004709 -0.014429431 0.04512022 -0.010302231 0.08411524 -0.016555008 -0.071868375 0.06901329 -0.020979557 -0.10000978 -0.14803882 -0.091202 0.15131156 -0.07058066 0.06985263 -0.06952949 0.11620514 -0.13401479 -0.13105023 -0.0383855 -0.013636191 0.12340181 0.10350807 -0.0701622 0.046021108 0.08143504 0.14851597 -0.019711364 0.097436644 -0.106855445 -0.118905775 -0.14295769 0.024448147 -0.10409616 0.1143306 -0.04242365 0.0009739399 -0.030845726 -0.12104495 0.07432338 -0.07245434 -0.060984656 0.003729487 -0.055993058 0.0066667204 -0.055414844 -0.14548247 -0.0040801144 0.12862496 0.1339895 -0.0827265 0.025533397 0.15700564 -0.02846938 0.0147755565 -0.036833465 -0.03363447 -0.0704062
1631 0.14059988 -0.1230061 -0.1772789 0.041359667 -0.06995338 0.16846102 0.043098364 0.11055821 0.09738234 0.14181454 0.052982513 -0.037772596 -0.052523874 -0.22534095 0.11716075 -0.15152314 0.13471468 0.077823155 -0.1266447 -0.23073995 0.055278137 -0.09948442 -0.16630433 0.009540116 0.035537172 0.1342081 -0.07641212 0.27304545 -0.13159122 -0.06393028 0.16563486 -0.14523607 -0.120906174 -0.0266021 0.16116764 -0.15373172 -0.12931718 0.087225646 -0.086845614 0.119914904 -0.000981179 0.1294939 0.05013283 0.04562229 -0.015342721 0.13251594 0.14876455 -0.19345722 0.14225052 0.098770045 -0.042699795 0.17399287 0.19418491 0.078647815 0.104744695 0.11776989 0.12995501 -0.11166544 -0.14133267 -0.33874944 0.094536126 0.08471551 -0.016826654 -0.22052443 -0.1501205 -0.14491864 0.015337581 0.13403815 -0.0066208323 0.022470064 0.12943172 -0.1581165 0.1231513 0.10386795 0.03860151 -0.050429553 -0.033849712 0.1447122 -0.018805917 -0.08766733 -0.059417274 -0.059404403 0.17566104 -0.18893743 0.028953703 -0.1996903 0.14684874 -0.024549019 -0.015420634 0.05377674 0.09107734 0.15437846 -0.06286459 -0.06023551 -0.06719089 0.18981305 0.09462146 0.00538649 -0.08090213 0.013719563 -0.36073416 -0.15847059 0.0643991 -0.117898576 0.031057585 0.13402668 -0.060929127 -0.18116769 -0.12838417 0.15408488 -0.019998875 0.035626676 -0.18302707 0.29260418 -0.117393404 -0.032339662 -0.20492682 -0.08872853 0.0800502 0.114279054 -0.0045114765 -0.1544369 0.2014734 -0.08863743 0.07068406 0.1037376 0.13926592 -0.018876197
1640 0.1854667 -0.20483792 -0.049254443 0.1862258 -0.08307351 0.1802375 0.13331689 0.04606065 -0.022933941 0.09381607 0.038977444 0.043413855 -0.035781693 -0.1933626 0.068491854 -0.017778512 0.08160679 0.0153332325 -0.18703681 -0.18139356 0.08456411 0.25966796 -0.096967354 -0.10313484 0.08255215 0.10807084 -0.14911017 0.12145629 0.055843227 -0.0679222 0.16969681 -0.12046657 0.06988074 -0.01568019 0.13930187 -0.034524027 -0.06792871 0.13775644 0.08821566 0.17527117 -0.09116235 0.21751934 -0.18960136 -0.020732248 -0.12783138 0.15241808 0.098707065 -0.17575166 0.07579825 0.015694499 -0.032713145 0.11344219 0.18154547 0.18529518 0.08592131 0.17273022 -0.17837536 -0.10314544 -0.038296994 0.31462196 0.18382344 0.086576544 0.051842477 0.28505817 -0.11188841 -0.09050979 -0.11700202 0.040170636 0.022104083 0.065192804 0.108519204 -0.20235117 0.18314637 0.14720696 0.046216957 -0.0021216136 -0.040860083 0.061966415 -0.1661324 -0.16174644 -0.08248062 -0.055413853 0.11879901 -0.16638118 0.07073349 -0.1069007 0.16218019 -0.08609595 -0.15603736 0.28091058 0.027090425 0.18015972 0.05369892 -0.09795966 -0.011059332 0.17641313 -0.017354477 -0.2280568 0.06527505 -0.0547326 0.22012848 -0.028440766 0.30796528 -0.14308333 0.12524605 0.051851686 -0.12103114 -0.01832272 -0.11881216 0.11572236 -0.13579534 0.058961283 -0.30114853 -0.011119303 -0.20151354 -0.20721143 -0.052758902 0.060354855 0.1639261 0.0855716 0.042662818 -0.09089902 0.08549929 -0.19482185 0.14263876 -0.048088104 0.14760289 0.02677994
1659 0.16335359 -0.11576238 0.26716563 0.0017009584 0.12130238 0.16549449 0.10819233 0.16386612 0.15879646 0.13833824 0.13333799 0.027713645 -0.005293702 0.16248684 -0.11983856 -0.08272602 0.13255714 0.15714994 -0.104143724 0.17381057 0.19762735 0.21666887 -0.15865798 0.17300373 0.008858632 0.13716784 -0.1051666 -0.2409258 -0.14345175 -0.07980365 0.1111836 -0.028500104 0.2281514 -0.08736486 0.052509908 -0.13190216 -0.19687985 0.07866852 0.13274273 0.084562 0.0661351 0.16561948 -0.16658811 0.07916306 0.02114753 0.13479827 0.16137084 -0.13268235 0.08769841 0.111251414 -0.045877438 0.06509624 0.21202178 0.17315026 0.12073912 0.010676565 0.026187673 -0.1789755 -0.038443625 -0.09758846 0.08635555 0.11604028 0.007650264 0.05420384 -0.14305025 0.021557035 -0.04521696 0.17471172 -0.16662997 0.108276986 0.16495682 -0.1405338 0.11476049 0.102364406 0.049431246 0.0011406066 -0.08919732 0.09387463 -0.12285913 -0.049404625 0.04450349 -0.13847934 0.2019803 -0.12076806 -0.051340315 -0.11643024 0.1187604 -0.12403176 -0.09564449 0.038742486 -0.1092371 -0.023626283 0.16003285 -0.074876636 -0.078131445 0.16043212 0.046899464 0.050721265 -0.12102657 0.059876617 -0.15447265 -0.15033942 -0.0676888 -0.14133355 0.19753632 0.03502401 -0.1475396 -0.15010154 -0.1463706 0.14865412 -0.06828639 -0.06719827 -0.13490394 0.3279094 -0.12108637 -0.13598178 0.08067635 0.107755795 0.1492303 0.104173645 0.20454527 -0.097229965 0.033240244 -0.10570435 0.109317265 0.087109655 0.049612716 0.11938496
1662 0.12817438 -0.17498657 0.2492027 0.07543118 0.02890262 0.14381248 0.06963099 0.06414315 0.048241355 0.13141814 0.17803757 0.012345699 -0.016674425 -0.35689396 0.10312233 -0.053314984 0.050274026 0.10779228 -0.17485814 0.023206951 0.15816364 -0.27442765 -0.11913852 -0.24083783 0.083167545 0.15139012 -0.17316984 -0.011308181 -0.12004184 -0.15984583 0.15494187 -0.059849173 0.06341786 0.106689915 -0.01948709 -0.12523276 -0.119463146 -0.01325038 0.10775667 0.06729025 0.035417702 0.069629215 0.20623231 -0.05727287 -0.024871374 0.15073512 0.12100977 -0.18686084 0.031159898 0.0651699 -0.1807072 -0.23507737 0.13431992 0.16551988 0.06904728 0.066059716 0.04457422 -0.11922963 -0.028632274 0.028588733 0.14907879 -0.020965582 0.13025177 0.09643335 -0.11422931 0.2320138 0.04749174 0.108790316 -0.06763422 0.050731655 0.10409772 -0.15506342 0.11366981 0.13047728 0.11591341 0.020598017 -0.047296673 0.121968925 -0.06697803 -0.052232128 0.15072867 -0.15418935 0.09841653 -0.08083539 0.17761348 -0.05991348 0.1590651 -0.16882434 -0.1789364 0.15426981 0.13099697 0.12775026 0.12143157 -0.0073938607 0.036431987 0.10017851 0.11559598 -0.05939299 -0.10873543 0.14271331 0.020535864 -0.13184254 -0.2276256 -0.16301946 0.14946839 -0.0024727397 -0.15121932 -0.06759069 -0.03468167 0.09436534 -0.11785528 0.0508793 -0.1746877 0.18252182 -0.06277326 -0.1266871 -0.15612207 -0.13113074 -0.009906894 0.09695514 -0.045148224 -0.09379679 0.12635624 -0.076296076 0.15088218 -0.09658198 0.029281829 0.04734804
2280 0.12932026 -0.11014482 -0.11754585 0.1294842 -0.058721773 0.16173564 -0.14555809 0.087421104 0.047238857 0.11070758 0.17050049 0.09832068 -0.050982963 -0.10998373 -0.07650878 -0.095999524 0.11526283 0.15359508 -0.14852645 -0.12684004 0.117668174 0.11668287 -0.100071944 0.09972044 0.13599922 0.077205814 -0.1786582 0.10967555 -0.053620998 -0.16335027 0.122102834 -0.10079475 0.09126925 -0.038504332 0.007034016 -0.05934301 -0.10466791 0.15276879 0.12701619 0.14121166 -0.06056575 0.06328135 -0.09707064 0.09401101 -0.11004969 0.11165848 -0.10070076 -0.18436967 0.032938514 -0.1452363 0.058563426 -0.28361347 0.15836933 0.1545285 0.11715425 0.12676677 -0.078403495 -0.07689855 0.017737253 -0.107562475 -0.03224372 -0.075336136 0.05216152 0.1331887 -0.10354005 0.013844161 0.0937249 0.16515411 -0.15707807 0.12140919 0.1252895 -0.0076507656 0.020719599 0.00083898363 0.1535405 0.11582453 -0.08786862 0.038669866 0.12270977 -0.123933226 -0.16437076 -0.18412866 0.18900847 -0.19801034 0.054934554 -0.111930855 0.088789046 -0.115380354 -0.12727642 -0.13857014 0.029122643 0.17277014 0.098523006 -0.19897094 -0.024697775 0.09645858 0.1105497 0.10567911 0.104710996 0.022034008 -0.0455293 -0.11774979 0.048526336 -0.10458016 -0.026508622 0.036904253 -0.0043328335 -0.14154167 -0.087570645 0.15443476 0.012198335 -0.08135003 0.1184677 -0.08778741 -0.053518586 -0.079583615 -0.18215021 0.08997322 0.09130848 0.086009964 -0.100885764 0.12103864 0.15590017 -0.025317492 0.2153222 0.110782616 0.018795278 -0.068857715
2307 0.10962713 -0.101201445 -0.020428112 0.11169892 -0.10752094 0.1559128 -0.11167979 0.041848566 0.089220375 0.17439665 0.10121659 0.13244979 -0.10050672 -0.13124998 -0.112865634 -0.082114935 0.13284464 0.15982544 -0.1845376 -0.08409973 0.051708654 0.092945985 -0.12973107 0.1320988 0.16065292 0.075052746 -0.18157211 0.10738036 -0.116990335 -0.17166014 0.13757959 -0.073484644 0.13846649 -0.08977193 -0.07076909 -0.012691863 -0.12376605 0.11124609 0.10332212 0.14680901 -0.022543559 0.17842573 -0.11857275 0.133097 -0.16249059 0.13526323 -0.08908448 -0.18206078 0.0021010349 -0.012858441 0.08959778 0.71005005 0.1263302 0.1498322 0.06612299 -0.09846821 -0.09861685 -0.113458104 0.09510437 -0.019162346 0.028820463 0.012613143 0.07946351 0.058271077 -0.13382003 -0.014994965 0.12403971 0.10872851 0.09226725 0.069448434 0.12807594 0.0014892997 -0.05663231 -0.013656945 0.10076812 0.09996228 -0.05066732 0.07508562 0.090962745 -0.070589766 -0.14868155 0.032134376 0.15238638 0.037735008 0.13395807 -0.17280501 0.1735182 -0.17836657 -0.17023145 -0.15142728 -0.1221257 0.09117607 0.11858414 -0.01377901 -0.08716508 0.19494434 0.12689923 0.10509467 0.12233327 -0.064525686 -0.11432298 -0.14148839 0.025216417 -0.1180309 0.003082626 0.03163716 0.1010386 -0.088911675 -0.1649221 0.06490598 -0.056617316 -0.06499079 0.080952816 -0.0866354 -0.027863478 -0.13037913 -0.17878933 0.10161718 0.13417143 0.11921753 -0.14236401 -0.3146734 0.18696277 -0.057228778 -0.14353442 0.099504195 -0.023075119 -0.10431441
16 0.26552552 -0.09770983 -0.20928504 -0.047844965 0.23557062 -0.08145526 0.00337744 0.14580752 0.26498303 0.11551425 -0.11574424 0.13948679 -0.11525608 0.07608709 0.06653134 0.17250748 0.21458124 0.0661402 0.12750538 -0.15372528 -0.06393056 -0.05799793 0.16077895 0.0015272292 -0.11185961 0.18404223 -0.12359456 -0.059049875 0.11243851 -0.011126153 -0.1210195 0.09078043 0.12315124 -0.16153663 0.03110231 -0.025880573 -0.09438663 0.12809452 0.2676671 0.16692702 0.13848439 0.13995966 0.040852077 -0.10788473 -0.15380765 -0.10094976 -0.12635864 0.19803548 0.23891522 -0.00072902936 0.06806615 0.055290338 0.119539425 0.14048117 -0.08204122 -0.009485267 -0.096316196 -0.08610906 -0.099032134 -0.1427714 -0.05839851 -0.12894534 0.07848061 -0.035780355 0.061723627 0.03523599 0.16062187 0.14529422 0.14689744 -0.076891996 0.033679668 -0.20259798 0.1838035 0.09824241 0.08795037 -0.11008256 -0.22468464 0.16021258 -0.27553502 -0.1559285 -0.16101578 -0.09985169 0.13733755 -0.18538083 -0.066316344 0.16027799 0.17306261 -0.06630648 -0.102667 0.0416826 0.12873021 0.10999317 -0.07859455 -0.13558826 0.15679684 -0.04632709 0.18734878 0.15926817 0.122601874 0.13624613 -0.2162449 -0.024706116 -0.016387746 -0.09063186 0.12905592 -0.25816557 -0.12922935 0.2195642 0.030313533 0.14846389 -0.29574636 0.113157906 -0.10806788 -0.0883465 0.07084538 0.039436772 0.2619307 -0.15099975 -0.07996188 0.20286816 0.021197114 0.1680791 -0.04085963 0.1656143 0.006280124 -0.098588705 -0.15058999 -0.025382228
11 0.051301252 -0.18146446 -0.38001746 -0.13080718 -0.056968387 -0.16123827 -0.037620906 0.10550293 -0.16165648 0.05369996 0.011699418 0.06462454 -0.12899876 -0.15504147 0.27856857 0.11368182 0.08856111 0.11852202 0.069983475 0.15173347 -0.043112844 -0.0663667 0.16668305 -0.039059028 0.00516576 -0.037863255 -0.08418886 0.12896416 0.046957992 0.16620377 -0.12550826 0.10484822 0.10095433 -0.08163732 0.13501264 -0.14431098 0.15722926 0.07188736 0.054485213 0.0413756 0.08893605 0.12848611 -0.051271066 -0.1886239 -0.09117433 -0.09880485 0.025424581 0.034080047 0.011125 -0.08331809 0.031411584 0.06736767 -0.07398801 0.14038768 0.095101446 -0.087985486 -0.12549044 -0.0344957 -0.13704403 -0.12650463 0.13836864 0.052532263 0.10705251 -0.219437 0.00679452 0.044301953 0.13439636 0.06451748 0.14272396 -0.1128539 0.10187255 -0.10760849 0.1563432 -0.20598528 0.11270711 -0.126166 -0.1547303 -0.1024926 -0.2199583 0.12598693 -0.10151591 0.436746 0.106195614 0.06606099 -0.14776966 0.12087489 -0.03497591 -0.09469839 -0.14851244 -0.06529748 -0.09743667 0.053895306 0.08090505 0.19886239 0.2573601 -0.06182705 0.27061284 -0.021127002 -0.16077319 0.07839253 -0.14386521 -0.04037539 0.10011054 0.21674335 0.1322471 -0.11524193 -0.12375306 0.3826963 0.1312849 0.15227637 -0.039104432 0.090471976 -0.10946126 0.112812474 0.116238564 0.10574834 0.09152873 -0.1286633 -0.094501086 0.099775515 0.04034166 0.12351358 -0.114186384 0.1071073 -0.16707245 -0.14270127 -0.09199688 -0.067981385
48 0.064343445 -0.038906403 -0.05775103 -0.03832516 0.03957239 0.041439272 -0.0381445 0.13296631 -0.06354937 0.116766594 0.09747283 0.10999584 -0.10281879 -0.005798706 0.0050966837 0.14228241 -0.010917283 0.09270437 0.05576039 -0.13437843 -0.008715464 -0.102888495 0.103324845 -0.011221484 -0.007879638 -0.08093117 -0.079835646 -0.12464883 0.13689442 -0.07759417 -0.062020883 0.06827684 0.0018250557 -0.01848194 0.05386779 -0.031179575 -0.13978174 0.09737727 0.11034034 0.15857516 0.090186305 0.13351099 0.05692514 -0.1076758 -0.15894413 0.010183401 -0.0075290725 -0.12909721 0.13397269 -0.14473675 0.12671544 0.10118616 0.10357313 0.12761857 -0.10905202 0.044378273 0.05035888 -0.0502451 -0.13063394 -0.080776855 -0.060851462 -0.0672707 0.017431306 0.023748444 0.059757013 -0.020613197 0.06409467 0.0831504 0.089405775 -0.05949522 -0.046852138 -0.113959804 -0.081555314 0.12461913 0.02020499 -0.00045778928 -0.107311465 0.00096567185 -0.1275999 -0.16783662 -0.17063065 -0.13959464 0.08735267 -0.15259121 0.09743699 0.16125953 0.09942436 -0.11614952 0.07124837 0.13176057 0.038813625 0.052809782 0.038533203 -0.046488144 0.092816114 -0.12553199 0.08758064 0.0723204 0.124586344 0.06214461 -0.0010533927 -0.05429406 -0.115477994 -0.06488459 0.057723254 -0.114343666 -0.12539935 0.074282095 -0.11321733 0.042143133 -0.10101899 0.014647421 -0.09303578 -0.008580336 0.08405971 -0.048219174 -0.06299094 -0.12811972 0.030043932 0.19131246 0.03630994 0.019541096 -0.013195721 0.011176853 -0.0006733502 -0.06856867 -0.11592614 -0.13338909
68 -0.17046736 0.035355352 -0.08296278 -0.15725254 -0.19020993 0.16516426 -0.06678506 0.12449511 -0.022820072 0.14269422 0.45808512 0.0797147 -0.19135119 -0.3275067 0.25233436 0.16856267 0.042989224 -0.038786154 0.097183965 0.10709357 0.1392581 -0.11097352 0.15569876 -0.2071235 -0.1049409 -0.015551789 -0.10532648 -0.18550797 0.19717595 -0.17002891 -0.017454015 0.10614648 0.19711174 -0.071979694 0.2116562 -0.1316029 -0.115788855 0.13025115 -0.08577994 0.10182176 0.14873923 0.22208962 0.0909695 -0.11662467 -0.11073068 0.005238331 -0.118283466 -0.23567505 0.016216185 -0.13263379 0.14178653 0.034156542 0.11391806 0.16423295 -0.20324184 -0.27517492 -0.08648983 -0.23871364 -0.14742775 -0.21581793 -0.0793687 0.1337458 0.033667482 0.053837903 0.11644242 0.14427371 0.124641635 0.12017811 0.16248246 -0.14849918 -0.13472155 -0.13376641 -0.03901062 0.06837809 0.15966891 -0.07004326 -0.16398291 0.029502502 0.04482726 -0.16136406 -0.12223647 -0.1739304 0.08481314 -0.09766812 -0.19165868 0.10776387 0.08695598 -0.15183231 -0.19619448 0.10189882 -0.057901666 0.19065124 0.1550367 -0.06713497 0.21350184 -0.20320967 0.18882169 0.10772954 0.11494561 0.16640969 -0.15714091 -0.15512508 -0.0030587313 -0.12748607 0.13291073 -0.025196627 -0.17526267 0.27217442 0.16763614 0.14732021 0.22539575 0.18288463 -0.042050175 0.062181663 0.14003576 -0.015879847 -0.24711168 -0.17767304 -0.1293455 0.096385606 0.008333866 0.14599381 -0.13714026 0.22585356 0.17593199 -0.16213293 -0.051996928 -0.1645807
67 0.07194596 -0.08205528 0.0057719504 0.019661596 -0.048940964 0.08055588 -0.12490847 0.11575673 -0.11288005 0.1019774 0.06653056 0.1498441 -0.115631394 0.1249547 0.14266632 0.084672965 -0.15423994 0.07043623 0.12337053 -0.08908825 0.128378 -0.09878764 0.13104422 -0.16023128 -0.1208986 -0.14044006 -0.15362428 -0.15803553 0.16814782 -0.04313967 0.13915649 0.08466172 0.053124513 -0.060046025 -0.12558448 -0.048324555 -0.14072725 0.10375037 0.07426823 -0.005811463 0.040851004 0.16410847 0.16883126 -0.122655064 -0.09600081 -0.11740814 -0.09418718 -0.15999909 0.12773968 -0.13867357 0.15900594 0.066122115 0.16444208 0.14308974 -0.12660968 -0.13712777 0.43671423 -0.14190777 -0.09735367 -0.16519198 0.12139465 -0.12935661 0.013810803 0.024443883 0.028470619 -0.041091174 -0.019743443 0.12987636 0.098082714 -0.046554785 -0.01912741 -0.10308813 0.14658977 0.14096077 -0.075520284 0.011839881 -0.2311525 0.013358033 -0.10425879 -0.16857718 -0.15878403 -0.14181797 0.12883092 -0.14902246 0.0061060702 0.1119116 0.06820407 -0.036175184 0.0034620308 -0.1711992 0.043858286 0.13784273 0.06459957 0.011604936 0.07050372 -0.05392251 0.09095579 0.13849068 0.06986459 0.15797108 -0.06630212 -0.06425135 -0.26609203 -0.14748415 0.17814194 -0.10473542 -0.17745072 -0.059790608 -0.4235878 -0.19803628 -0.27456963 0.14052291 -0.05739692 -0.13251503 -0.06917149 0.020555986 -0.06670193 -0.16945985 -0.04813503 0.19206148 -0.023875514 0.08165856 0.09881375 0.16177523 0.10005012 0.03785457 -0.084564686 -0.17146291
88 0.10850565 -0.08878456 -0.0084189065 -0.038332075 0.08046002 0.14586647 0.087931074 0.115737855 -0.020420875 0.12980348 0.0054371045 -0.019710917 -0.05510616 -0.025282687 -0.092607975 0.111712515 0.07975 0.035178084 -0.09063752 -0.012317772 -0.026223077 0.08859917 0.06500577 -0.04780008 0.081099086 0.0060147974 -0.0042524566 -0.03847274 0.02270545 -0.06772892 0.045111362 0.09683069 -0.029683761 -0.012190656 0.041880053 -0.070114024 -0.09060855 0.009932962 0.08849479 0.17735946 0.16525833 0.23061974 -0.051655162 0.102985285 -0.14122397 0.16243383 -0.001638083 -0.07382888 0.14285097 0.040658876 -0.018812858 0.08410173 0.071754634 0.06895471 -0.11450014 -0.059374653 -0.08524769 -0.09832721 0.061156288 -0.12715264 -0.028496232 -0.04261562 -0.02959458 0.079813994 0.0034255963 0.10408539 0.10785639 0.10442158 0.09244251 -0.027882708 0.013031985 -0.16006713 0.08086414 -0.020143019 0.08539142 -0.09828749 -0.12712564 0.11330692 -0.11216991 -0.1394222 -0.1756092 -0.17201342 0.1702375 -0.114596374 0.05172791 0.09377659 0.19038391 -0.022230832 -0.012441894 0.07995664 0.06549584 0.08101907 0.11004759 -0.10826737 0.08828468 -0.029589804 0.13473608 -0.1269048 0.12019072 -0.00846989 -0.08361575 -0.092564754 -0.05191805 -0.10194378 0.15074372 -0.19723906 -0.14206256 0.13981017 -0.055058405 0.13122328 -0.055400677 -0.01020967 -0.13898315 0.09138869 0.10991227 -0.081910074 -0.06613348 -0.1663919 0.12761422 0.13052306 0.048152033 0.10993614 -0.04425784 0.045824446 -0.032153163 -0.1443771 -0.13942769 0.027923428
116 0.052291714 -0.1702307 0.04817412 -0.0326501 0.10200597 0.076080434 0.022187928 0.13300295 -0.054235365 0.09302724 0.0123595735 0.077901825 0.021787873 -0.015928619 0.00278188 0.15316512 0.147187 -0.011949426 -0.003763494 0.002304365 -0.056336768 -0.04349897 0.09665313 -0.07927503 -0.007189005 0.04003525 -0.082618326 0.015282736 0.10057476 -0.07340221 0.014729926 0.029677426 0.045532726 -0.014770291 0.06440746 -0.011684104 -0.07175244 0.08751893 -0.033275004 0.19641246 0.13168442 0.19497685 -0.017614348 0.06889509 -0.14768396 0.10216105 -0.002709014 -0.07961217 0.05299977 0.0233621 0.056292776 -0.07927945 0.055178702 0.07898344 -0.10481202 -0.065374434 -0.12983614 -0.074113026 -0.06810168 -0.14348765 -0.057252 -0.03742338 -0.012705254 0.1358327 0.026484493 0.08497479 0.15960772 0.13018276 0.10933543 -0.11279272 -0.010700531 -0.1744289 0.07520269 0.03410895 -0.016289651 -0.0840135 -0.0702397 0.14114225 0.021999296 -0.16808861 -0.15836391 -0.09045144 0.10279155 -0.106979236 -0.022929072 0.1493261 0.17004089 -0.09174018 -0.10532943 0.17497082 0.036791388 0.14042589 0.075543255 -0.069490634 0.1278007 -0.03007136 0.054218017 -0.022001471 0.1635215 0.019740274 -0.10839727 -0.018750207 0.005497216 -0.018174231 0.18258147 -0.17915265 -0.13477094 0.022042952 -0.023094114 0.041319117 -0.12632741 -0.009785418 -0.13236488 0.09897828 0.13814639 -0.048179682 0.014557541 -0.12194041 -0.06873772 0.11950643 0.11366921 -0.009495211 -0.06706926 -0.07533515 0.01931439 -0.07900474 -0.08332024 -0.08655586
119 0.095667936 -0.22116724 -0.12067351 -0.16365232 0.0913168 0.16707449 0.021099223 0.14356568 -0.12622282 -0.20475397 -0.16935363 -0.15798643 0.11409149 -0.04271078 -0.11084645 0.1536662 -0.1541305 0.2151805 -0.22708227 0.08396751 -0.040363673 -0.18562001 -0.16584204 -0.19774136 -0.20528962 0.15348838 0.26374298 -0.23046783 -0.097513415 -0.13504806 0.023575012 0.19921896 0.22825855 0.16041602 -0.17927317 0.016736574 -0.12420363 0.22604255 0.17255859 0.15789598 0.14710566 0.18472941 -0.0783328 0.19770002 -0.054116894 -0.19057655 0.02114969 0.15650216 0.2217857 -0.07032306 -0.12715153 -0.16360225 0.112900466 0.0628285 -0.16406216 0.06485403 -0.058348056 -0.1335707 -0.11089427 -0.15240349 0.18437997 -0.16319801 0.1923543 0.18679945 -0.04835413 -0.04957574 0.13968402 0.09476653 0.08352539 -0.035126075 0.16023968 -0.15042064 0.17402524 0.14043187 0.14604208 -0.17730649 0.11824264 0.18046041 -0.22120675 -0.20528823 -0.15314788 -0.12972924 0.16033106 -0.060654435 0.19754791 0.15609388 0.121624246 0.1712455 -0.17216815 0.19674972 -0.16269931 0.17068318 0.13603765 -0.22373487 -0.033031195 0.20502238 0.09591596 -0.15445952 0.3068462 0.16975279 -0.14908858 -0.16230966 -0.0018937023 -0.03869764 0.1783723 -0.052539162 0.25204936 0.25933105 0.056619637 -0.21621917 -0.15927006 0.15146175 -0.056944653 -0.20417112 0.2232475 -0.12524785 -0.17560042 -0.16590104 -0.21228229 0.21198814 -0.16011588 0.011767953 0.13583516 0.1119629 0.11426609 -0.19737294 0.09645452 -0.11654936
493 0.011918295 -0.18464704 -0.15244001 -0.05111389 0.10148343 -0.016059317 0.11560313 0.12895504 -0.13596816 0.10200671 0.044064425 0.012809541 -0.01901537 -0.107646 0.08232389 0.12147221 0.05549637 0.01634231 -0.071595214 0.07418617 0.05534455 -0.10598669 0.1295383 -0.016171241 0.018177072 0.09406106 -0.038579207 0.04619028 -0.03756217 0.009572671 -0.08773888 -0.0053563016 0.1229707 -0.051330063 -0.001608659 -0.024619393 -0.018500606 0.15915354 0.12232282 0.17868389 0.18077083 0.20686553 -0.11594416 -0.10447539 -0.07666859 0.05355675 0.15022779 -0.07699094 0.12061912 -0.01300005 -0.038106542 -0.039758086 0.11247996 0.1439203 0.08500171 0.033057787 -0.05258909 -0.11526886 -0.10044782 -0.010420934 -0.01700724 -0.036037654 0.007293293 0.009479406 -0.008136778 0.1556379 0.21144594 0.062968336 0.10370753 -0.03045417 0.023476241 -0.1286416 0.12250537 -0.07315585 0.04075566 -0.21325399 -0.12066023 0.003532502 -0.10417862 -0.1025892 -0.15141308 0.13517396 0.15364632 -0.06564877 -0.06380873 0.123196654 0.23465712 -0.1142148 -0.13213661 0.1421219 -0.027984321 0.009251107 -0.00397795 0.056453593 0.14260724 0.06933553 0.10192035 0.078558974 -0.020238006 0.07955571 -0.13453744 -0.0051067383 -0.007430817 0.027544303 0.22695556 -0.1305933 -0.099009864 0.17464013 0.11397039 0.13531578 -0.08080729 -0.037970044 -0.06745891 0.11930736 -0.022713928 -0.11666821 -0.007571452 -0.12724331 0.032320507 0.045462444 -0.11443235 0.16697814 0.036002353 0.043822356 0.09510272 -0.056081828 -0.059637368 -0.04245369
167 0.17799768 -0.06697333 0.035524044 0.17116442 0.05521693 0.14960496 -0.11786962 0.06474684 0.01973087 0.08791646 0.24135631 0.16287856 -0.09089103 0.1266763 0.045036655 0.18591702 -0.05423849 0.155529 0.05413326 -0.14616644 0.09722031 -0.08607688 0.10480043 0.03464475 -0.12927742 0.026695702 -0.16993482 -0.16173325 0.124799125 -0.08038428 -0.002457533 0.10228538 0.08659286 -0.09019863 -0.02232593 -0.08455424 -0.138503 0.067646645 0.27759936 0.08352293 0.0039037624 0.10456173 0.100726716 -0.1143698 -0.18516397 -0.101126365 -0.07936279 -0.16394463 0.051179916 -0.12391382 0.10194918 0.092082806 0.19226526 0.17600466 -0.10135699 0.24644774 -0.07669727 0.0017868461 -0.050125472 -0.11855022 -0.07596048 -0.25803557 0.07834018 0.10018084 0.07642812 -0.17568067 0.09928863 0.17461509 0.09221967 -0.022559278 -0.17761265 -0.099677205 -0.0830492 0.14597324 0.01582675 0.08505617 0.19155991 0.10272036 -0.123377755 -0.105815805 -0.14876556 -0.0864496 0.14532663 -0.13303408 0.21369158 0.1777427 0.11749989 -0.06897178 -0.112821095 0.03873064 0.047303453 0.12706755 0.091497384 0.02964841 0.14714514 -0.10866965 0.09675473 0.081865855 0.06545114 0.12496835 -0.02663987 -0.13024566 -0.114434436 -0.13731223 -0.055611316 -0.13444789 -0.13353184 0.031291887 0.032447424 0.03014114 0.026240548 0.020153591 0.008207357 -0.12223931 0.039851096 0.01071584 -0.20202939 -0.108384416 0.037193976 0.16649567 0.0117053045 -0.06429514 -0.069851756 0.111295335 0.11955035 -0.11010004 -0.15470387 -0.080348425
181 -0.22563565 -0.26193714 0.11287469 0.071160786 0.07341279 0.14684463 -0.002969294 0.16345777 -0.2032968 -0.0504796 -0.10622446 0.17626435 -0.13451356 0.15582511 -0.2445789 0.21125099 0.07642166 -0.04862796 -0.14461403 -0.12373228 -0.21542601 -0.18308184 0.061712135 -0.14258628 -0.099389665 -0.10623016 0.04040916 -0.1295684 0.10591707 -0.2223304 -0.08298639 0.079449564 0.09258351 -0.1233484 0.10410764 0.03175912 -0.11591752 0.16857845 0.084384575 0.19106103 0.19320065 0.17212218 0.102247536 -0.068575986 -0.14541133 0.05184225 -0.09548833 -0.1712044 0.21289289 0.11269009 0.0719754 0.11102531 0.04280171 0.123778515 -0.041013468 0.034950797 -0.09118628 -0.13036305 -0.1285344 -0.15777124 -0.02836419 -0.011746079 0.13502094 0.18207738 0.13255061 0.09823837 0.23971595 0.19622068 0.1554347 0.086706296 -0.13158663 -0.22311428 -0.2927018 0.09905906 0.053970024 0.03874077 -0.042487852 0.1136491 -0.28941303 -0.17274295 -0.23155902 -0.14117686 0.06484593 -0.11038149 0.30576354 0.118279815 0.1332202 -0.15300281 -0.03536569 0.15147898 -0.037298415 0.18241906 0.16793185 -0.10337097 -0.103393316 -0.12488224 -0.017047755 -0.004629413 0.15207988 -0.06151608 -0.076991096 -0.087823644 -0.009135948 -0.11083961 0.027578207 -0.2482421 -0.1370352 -0.005059209 0.03980831 -0.02238063 -0.09887173 0.04169088 -0.18716271 0.15599997 0.07087095 0.04171628 -0.077427804 0.07685807 -0.068832375 0.18976532 -0.051226128 0.28223976 -0.1726839 -0.01562516 0.06832662 -0.038816564 -0.119724214 -0.048503947
15 -0.09442288 -0.16727072 0.17345163 -0.22350247 -0.051515084 0.043588486 0.009005616 0.062499158 -0.053348906 0.08925204 -0.07121462 0.13728681 -0.12218255 -0.002206965 -0.053698026 0.1763617 0.19878688 -0.17451084 0.026760442 -0.14764065 -0.19087932 -0.123778 0.20111777 -0.15332386 -0.11024203 0.032700524 -0.07566077 -0.08838186 0.15350078 -0.0840242 -0.008087703 0.10726839 0.17055401 -0.05795274 0.075141355 0.12510458 0.003233976 0.115698494 -0.0130051635 0.19960195 -0.06777232 0.1456028 0.1014857 0.41297114 -0.16644432 -0.08685413 -0.083569534 0.049813956 -0.10718824 -0.021818811 0.14858323 -0.13063782 0.21164793 0.122141 -0.124718316 0.0008363811 -0.089581326 0.0140664745 -0.16166146 -0.14207023 -0.07980372 0.08342783 0.12457343 0.15344872 0.11674729 -0.0029760553 0.1147658 0.17241772 0.1969397 -0.15168674 0.07071675 -0.18027824 0.037987698 0.14698061 -0.2644528 -0.02323579 -0.029001335 0.078397214 0.12279807 -0.11156964 -0.1627582 -0.00091366336 0.14628048 -0.14870134 -0.11659417 0.05228366 0.175866 -0.13934228 -0.16364127 0.12190133 0.15285791 0.13483863 0.03753477 -0.010081869 0.12481493 -0.1260867 0.03858284 0.18581834 0.15643983 -0.0121829575 -0.11396429 0.115256816 0.041334916 -0.059058852 0.16395198 -0.21823488 -0.19584604 -0.008197696 0.055544164 0.13632773 -0.09980051 0.044865314 0.15380992 0.09033086 0.032752294 0.002314482 0.06499414 0.019499376 -0.07668384 0.20902716 0.07793238 0.0023801997 -0.10385672 -0.03600112 -0.004512933 -0.064719155 -0.03229714 -0.09306289
64 0.076046474 0.17062743 0.12574607 0.11046 0.10937941 0.14715765 0.088036954 0.13724253 0.109864525 0.13751873 -0.054504734 0.09909745 -0.09760597 0.059305597 -0.19481297 0.13106334 0.18618816 -0.03263244 0.09443549 -0.129216 -0.02785727 -0.06973368 0.17506468 -0.11931287 -0.01724373 0.05050718 0.16923237 -0.027819658 0.098242395 -0.051984556 -0.06151243 0.117880456 0.06886159 -0.16326164 0.13468051 -0.091488756 -0.16805586 0.08582811 -0.06507653 0.20949125 0.1477143 0.15821104 0.08780104 0.20014489 -0.16495936 0.044607762 -0.1772007 0.077726185 -0.035754304 0.12731068 0.13979776 0.12199209 0.011787704 0.14084105 -0.21082726 -0.0067402488 -0.19598287 0.0721005 -0.047174968 -0.13431533 -0.1535416 0.07439383 -0.14821512 0.14983504 0.13570033 0.19585383 0.07834048 0.14458479 0.17641869 -0.03041883 -0.027168827 -0.11858652 0.4085129 -0.014163243 0.19217081 0.017365238 -0.20022608 0.1653574 -0.024728103 -0.0981893 -0.11451058 -0.19555359 0.071510784 -0.1657347 -0.04126469 0.114420846 0.17318395 -0.071022615 -0.07792216 0.12001159 0.093992524 0.12272518 0.03662185 -0.09871897 -0.04145282 -0.058363672 -0.026842657 -0.006342883 0.15470478 0.101563625 -0.15972784 -0.12279795 -0.09004484 -0.17112659 0.1573871 -0.12022202 -0.0947552 -0.038758196 0.007903629 0.108316354 -0.032941908 0.093016826 -0.22132026 0.1570195 0.14503054 0.055971157 0.16247435 -0.10342903 -0.080156155 0.13841368 0.1693431 -0.023060089 -0.1532021 0.084973484 -0.02176434 -0.1829675 -0.15659863 -0.024338005
66 -0.086420685 -0.18976164 0.14147542 0.25116685 0.21110918 0.047409706 -0.10904697 0.20216194 -0.21598879 0.15930305 -0.15372069 0.16938937 -0.1630662 -0.1945864 0.04577332 0.20678405 0.11151728 -0.001034772 0.08801328 0.24572963 -0.06621575 -0.16831538 0.16328609 0.06384378 -0.15971555 -0.037888765 -0.19695926 0.02906399 0.12276491 0.13202013 -0.18225358 0.13988179 0.06929709 -0.11411002 0.067053854 0.020208368 -0.12774412 0.2010167 -0.029232232 0.17761886 0.14967194 0.1497479 0.031705264 -0.097420424 -0.03213741 -0.03934764 -0.044617195 0.034618057 0.012269157 -0.13804501 0.06574221 -0.037889846 0.072662614 0.19702502 -0.079270616 -0.083979286 -0.15190539 0.05024253 -0.16104972 -0.033623055 -0.2228532 0.0065669725 0.10016461 0.09158374 0.11188428 0.18899015 0.20478858 0.11806881 0.12931275 -0.088206954 0.1068988 -0.12736893 0.19577937 -0.25226188 -0.038223274 -0.30658373 -0.14176044 -0.020008381 0.045279693 -0.009069401 -0.18154015 0.21894014 0.14839834 -0.13007553 -0.039603237 0.19559039 0.2188854 -0.17227064 -0.1760761 0.15387395 -0.09816267 0.11797599 0.12404491 0.11787937 -0.039946496 -0.106219865 -0.2692629 0.016728442 0.091050275 0.110899776 -0.10683471 0.0650901 0.15128522 0.10882527 0.19145025 -0.12554723 -0.08419116 -0.22518514 0.16843331 0.10668224 -0.058661085 0.06526442 -0.18309946 0.26429325 0.16435717 0.09337467 0.16993397 -0.17812 -0.17570592 0.11026893 0.11486486 0.10683866 -0.06649047 0.021940934 0.15173279 -0.119021006 -0.17611086 -0.10911344
