2405 32
1397 0.2768573 -0.25152025 0.2797356 -0.17515077 0.23249452 -0.20945467 0.25329247 0.2505845 0.29812446 0.3186279 0.2472043 -0.24730134 -0.25263038 0.06708441 0.10622465 -0.06673155 0.20701791 0.017441718 0.07833358 -0.19639027 -0.24650247 -0.22234902 -0.042163573 -0.19475923 0.20120072 -0.3047649 0.14935216 -0.06031249 -0.21214531 -0.21251577 -0.19869998 0.2711499
1470 0.31637326 -0.16296919 0.18923624 -0.15330382 0.30726674 -0.13088013 0.19493733 0.22583635 0.26891524 0.22262937 0.04254307 -0.2276088 -0.22140802 0.04040898 0.14960827 -0.17140746 0.22499797 0.026774976 0.12972032 -0.16209218 -0.17713368 -0.22586767 0.044435173 -0.23497808 0.1975093 -0.29831815 0.080971375 -0.08495057 -0.11994509 -0.30691072 -0.21353921 0.24790479
362 0.17182331 -0.13220428 0.19162358 -0.121579506 0.07139607 -0.18031211 0.15470895 0.12060889 0.22230127 0.106101796 0.18664876 -0.16577935 -0.16351886 0.054690264 0.09413029 -0.03448928 0.06338738 0.028508708 0.065925606 -0.15863933 -0.11388535 -0.11066366 0.002561935 -0.17184587 0.1344615 -0.23994906 0.016528388 -0.005591996 -0.17422014 -0.112840645 -0.030773673 0.17740136
226 0.20341912 -0.079183936 0.3462689 -0.18002868 0.14625531 -0.34773016 0.47765213 0.24814183 0.35317895 0.42033055 0.12213238 -0.3377813 -0.4172683 0.20393458 0.1236554 -0.1239116 0.27922502 0.11660657 0.40552875 0.0047261557 -0.3918428 -0.4223068 -0.049017437 -0.25890672 0.27998245 -0.57475436 0.1610957 -0.12565011 -0.331243 -0.16410036 -0.34411848 0.17171109
750 0.27413523 -0.20742275 0.18569826 -0.21698813 0.27642575 -0.18754666 0.23314908 0.1759837 0.307362 0.3151516 0.10268692 -0.20286575 -0.26629663 0.044929318 0.28516355 -0.16904826 0.2192443 -0.054226153 0.14157827 -0.08308679 -0.31129444 -0.14552726 0.020750921 -0.31126717 0.11120434 -0.24336365 -0.14138967 -0.14323537 -0.29804397 -0.32241604 -0.13372028 0.28113133
489 0.29595247 -0.42848068 0.21839662 -0.29648164 0.45694828 -0.29205555 0.28440896 0.34921128 0.4516762 0.32604074 0.40881497 -0.41021436 -0.41103685 0.07195018 0.33650604 -0.1841237 0.45070297 0.17719947 -0.010084224 -0.36129808 -0.44290823 -0.3442396 0.0779967 -0.51273483 0.42169344 -0.4010092 0.124580204 -0.16007347 -0.37630963 -0.46343762 -0.17852202 0.39800403
1462 0.18100005 -0.097409256 0.18310098 -0.14064434 0.16061401 -0.240562 0.41332027 0.21640755 0.27520964 0.27192938 0.20638613 -0.33051988 -0.24492723 0.14698286 0.050891392 -0.016947014 0.29644608 0.047375415 0.21217635 -0.13423924 -0.28747034 -0.27308986 0.015806654 -0.2513382 0.19599776 -0.38608015 0.18517691 -0.042559482 -0.30080232 -0.2304427 -0.3966987 0.07372816
1713 0.19917607 -0.20377293 0.010984329 -0.19690041 0.20888096 -0.20726797 0.16974106 0.23197812 0.14452708 0.13247865 0.0792435 -0.13222685 -0.20465164 -0.032200206 0.19416806 -0.104523055 0.20756744 0.08273703 0.097449 -0.06393789 -0.239382 -0.04384479 -0.12573013 -0.21624185 0.18699971 -0.22755241 -0.051741887 -0.13530314 -0.19893052 -0.17512769 -0.1440522 0.09217249
393 0.4075865 -0.42004925 0.1165771 -0.37717843 0.3293632 -0.26655483 0.48039687 0.36032042 0.38182008 0.28314516 0.27800852 -0.40616673 -0.36494824 -0.022990182 0.3802483 -0.27694944 0.45130467 0.009964669 0.0050494727 -0.21921752 -0.48297685 -0.21069576 0.015116239 -0.38930538 0.42684707 -0.35490194 -0.072133325 -0.24563244 -0.44504687 -0.26809457 -0.29315263 0.22595091
445 0.3570661 -0.35606745 0.11703726 -0.23529018 0.45315418 -0.20000808 0.37191537 0.44128755 0.35517678 0.3281384 0.25424206 -0.32709327 -0.43372214 0.14912495 0.345561 -0.3119446 0.41447988 0.2584044 0.018832 -0.38375914 -0.3017077 -0.20032768 -0.09628627 -0.46478295 0.37698415 -0.3639661 -0.16249044 -0.34484413 -0.36391103 -0.40984118 -0.20351656 0.28265014
696 0.3502192 -0.3147519 -0.0042421776 -0.26444957 0.30896774 -0.16968507 0.28945863 0.23169635 0.29553974 0.27274337 0.08175082 -0.31218845 -0.39397183 0.15416233 0.355585 -0.23926796 0.40266505 0.028916888 0.17753713 -0.2984615 -0.25091544 -0.20596199 0.036546905 -0.2561162 0.2937107 -0.281797 0.18132515 -0.17957565 -0.28579792 -0.38626313 -0.32832488 0.27189305
1610 0.039485887 -0.094282016 0.078457415 -0.13217697 0.112035684 -0.1540885 0.20280308 0.14751412 0.17873022 0.03764463 0.07882846 -0.098368615 -0.22909798 0.091298796 0.094828494 -0.08661393 0.117373735 -0.08731253 0.15063226 -0.19769666 -0.13707587 -0.16813795 0.03882443 -0.15114467 0.10663823 -0.02834037 0.023788508 -0.07507864 -0.19358756 -0.099348515 -0.17661643 0.19936514
889 0.12702012 -0.15686308 0.03567438 -0.17418906 0.19461463 -0.15285127 0.015660081 0.21602288 0.22167432 0.17263137 -0.024216129 -0.19508497 -0.23197535 0.09792751 0.16280745 -0.07177086 0.12255962 -0.01824502 0.06595689 -0.15774348 -0.102466516 -0.09974606 0.0383855 -0.17741315 0.17108783 -0.05096359 0.08181685 -0.10699226 -0.14318405 -0.21838973 -0.056353234 0.09255942
1615 0.26428354 -0.2143793 0.10026589 -0.15550864 0.25640354 -0.23125751 0.15301484 0.2732127 0.2614783 0.3053406 0.11592495 -0.18009512 -0.31380287 0.061334245 0.24859197 -0.16418886 0.28609917 0.2679992 0.108819544 -0.28470117 -0.3177022 -0.25640094 -0.09256433 -0.101459116 0.2695285 -0.24205613 -0.044252146 -0.11564035 -0.22958492 -0.28528836 -0.07762172 0.1753154
708 0.41216752 -0.37184688 0.16481638 -0.34740168 0.30859128 -0.090726 0.29704872 0.33569756 0.40527642 0.33275038 0.3202108 -0.30886033 -0.16360652 0.108768664 0.38380384 -0.38298693 0.34565592 0.24813432 -0.041773528 -0.21630324 -0.35118803 -0.28694654 0.021124542 -0.34619665 0.34112307 -0.32795003 -0.005162018 -0.18034415 -0.3027298 -0.2510046 -0.20148641 0.25014168
713 0.38698637 -0.279099 0.14019397 -0.26449728 0.38092563 -0.23554361 0.25975287 0.30951118 0.36891523 0.32636625 0.1487569 -0.19376552 -0.27985108 0.077735595 0.2191564 -0.19596003 0.29808015 0.25725132 0.027697807 -0.41153353 -0.23999478 -0.22976463 -0.1810835 -0.1966879 0.3306063 -0.2780422 0.12744491 -0.31512022 -0.18092519 -0.35524502 -0.07240392 0.26784796
718 0.19309361 -0.2159782 0.0027218037 -0.08213525 0.12180026 -0.15459774 0.18910822 0.19753294 0.19143376 0.14537662 0.10899232 -0.21232629 -0.15559372 -0.04615895 0.31977737 -0.16609745 0.19340467 0.071947366 0.0022045807 -0.23575453 -0.18323351 -0.14847712 0.14115809 -0.25264823 0.31275147 -0.24357688 0.0005646743 -0.17768715 -0.239107 -0.1677714 -0.15671663 0.26722002
1630 0.25900623 -0.17379418 0.08121252 -0.16256109 0.28622285 -0.19092774 0.18244885 0.263018 0.2820291 0.3302869 0.10374518 -0.111345515 -0.17182612 0.018248305 0.24539755 -0.10906439 0.25176755 0.18454319 0.09194873 -0.22041464 -0.20136721 -0.19255643 -0.08521644 -0.095622085 0.2506527 -0.17700079 -0.007021274 -0.13241172 -0.14761835 -0.27906355 -0.07063897 0.18981461
734 0.36413062 -0.24506883 -0.04343023 -0.295439 0.2400114 -0.15921508 0.27393964 0.18201195 0.25213256 0.24310005 0.17165789 -0.23708674 -0.32028538 0.047471646 0.18298683 -0.27351424 0.31281158 -0.0629352 0.16231887 -0.22617018 -0.22821698 -0.27370998 0.01800645 -0.261299 0.19826123 -0.24383979 0.09136993 -0.19987464 -0.27110928 -0.21014066 -0.14461657 0.30520302
776 0.35411268 -0.18657035 -0.035599817 -0.23686305 0.19531256 -0.090767324 0.24377343 0.2739396 0.2697467 0.2115415 0.15278305 -0.2752597 -0.25798306 -0.033306204 0.34544998 -0.32808188 0.29412204 0.06145628 -0.02595952 -0.23371005 -0.31949905 -0.23215058 -0.013676559 -0.3104917 0.26680517 -0.18443742 0.083414644 -0.23335896 -0.26283818 -0.3311283 -0.14887908 0.29948682
814 0.30057427 -0.23242974 -0.03679048 -0.18898986 0.18031488 -0.111321166 0.19673526 0.2610849 0.27618808 0.2687019 0.12827182 -0.27930787 -0.26081076 0.06604813 0.23259729 -0.2465619 0.28973684 -0.040072877 0.0046668807 -0.27419388 -0.21684767 -0.177957 0.12075648 -0.26263857 0.25863948 -0.20490691 0.10676506 -0.17131759 -0.15016094 -0.2887884 -0.16909495 0.3144845
818 0.3501495 -0.3426357 0.014105138 -0.34133142 0.32368365 -0.10571608 0.25900224 0.3293131 0.25628528 0.2474421 0.1854762 -0.21511735 -0.2824373 0.030222459 0.12422575 -0.256282 0.34374225 -0.012185634 -0.0325564 -0.23751509 -0.23301244 -0.17256261 0.033172674 -0.3331754 0.29162773 -0.1884497 0.09360475 -0.16718663 -0.20693772 -0.3317158 -0.09262065 0.29723397
1401 0.21004571 -0.100784026 0.1514694 -0.14026111 0.23183288 -0.33973625 0.44039398 0.16340686 0.32198468 0.33420542 0.09195065 -0.34537557 -0.41344246 0.15580818 0.1747006 -0.09646682 0.37585145 0.01873322 0.21724945 -0.057894897 -0.3450644 -0.30489257 -0.0996888 -0.20914327 0.30706123 -0.50843847 0.0027628497 -0.18358484 -0.25889882 -0.1973269 -0.33853862 0.17876405
220 0.19169068 -0.1574401 0.09891088 -0.13716435 0.16365327 -0.27745485 0.25359052 0.15975036 0.20963815 0.25376648 0.046725724 -0.21742232 -0.29002216 0.15013923 0.10858809 -0.19500455 0.20223612 0.08546514 0.24368797 -0.03735261 -0.3055315 -0.27633327 -0.09736288 -0.15276742 0.1806343 -0.34504664 -0.03574388 -0.115816385 -0.24845402 -0.17799284 -0.21944979 0.058883578
1412 0.24042594 -0.016706115 0.40311393 -0.243279 0.21482258 -0.36393586 0.4895285 0.3381156 0.35555634 0.43483803 0.095551975 -0.47660112 -0.52188295 0.16754536 0.11171116 -0.105655365 0.3388192 0.03807699 0.34634733 -0.19282398 -0.2350092 -0.43537444 -0.009509993 -0.2601566 0.28598776 -0.5133449 0.21270588 -0.17795447 -0.2960443 -0.26135162 -0.43619385 0.23131266
1413 0.1504987 -0.08602974 0.12279647 -0.20806159 0.1829508 -0.27448264 0.4046136 0.19817834 0.3044758 0.3827766 -0.0013588156 -0.26237652 -0.39733884 0.24147278 0.18902594 -0.14028414 0.36534446 0.092288055 0.30681777 -0.105237894 -0.32622042 -0.29142928 -0.06785234 -0.22471488 0.37455353 -0.4921908 0.079807706 -0.1972713 -0.23495875 -0.15854932 -0.30636734 0.20923747
228 0.19209379 -0.11485577 0.3092612 -0.21263805 0.24074852 -0.36691642 0.49067762 0.26501012 0.44017982 0.38699645 0.07971693 -0.38291082 -0.45802116 0.28906465 0.20588598 -0.23044652 0.3788096 0.0559133 0.36356607 -0.0057334783 -0.39737087 -0.37155434 -0.030976756 -0.28067747 0.33102363 -0.46815687 0.12851071 -0.21318117 -0.36171442 -0.122776955 -0.4251908 0.15407377
233 0.2024594 -0.052282967 0.22774449 -0.18377508 0.163073 -0.18924934 0.3895405 0.23113175 0.354466 0.36263633 -0.040344886 -0.2338723 -0.40935066 0.20249891 0.1854637 -0.24703966 0.20275147 0.191946 0.27068886 0.016460769 -0.27192253 -0.34486404 -0.066144325 -0.20051794 0.25313225 -0.4233707 0.122321315 -0.21841283 -0.22421983 -0.10886215 -0.2732399 0.1681493
235 0.19408965 -0.13924894 0.30967817 -0.18684688 0.25134054 -0.3319585 0.47474086 0.24542928 0.36875433 0.39904264 -0.0057351943 -0.3378718 -0.45632178 0.26727775 0.13051096 -0.22217931 0.449244 0.07142408 0.3221168 -0.059758153 -0.36480317 -0.42497924 0.010439279 -0.27748358 0.33638874 -0.48944786 0.06498842 -0.20477012 -0.27577123 -0.23111711 -0.39194843 0.15357262
1450 0.1313541 -0.20264968 0.086413346 -0.14520334 0.21980314 -0.26563168 0.4113341 0.22818165 0.19188856 0.26435658 0.10025274 -0.29423812 -0.3070182 0.22677898 0.16405998 -0.07010808 0.2777684 0.04909936 0.24005581 -0.030492555 -0.34886748 -0.2581627 -0.039336253 -0.23034412 0.2667859 -0.3796501 -0.05277937 -0.17362383 -0.17732172 -0.15783449 -0.21302179 0.14100082
236 0.23956326 -0.13444851 0.20502998 -0.1884398 0.15126204 -0.23754385 0.37691313 0.22512262 0.30700037 0.27821913 0.07960149 -0.2340934 -0.32568455 0.14715454 0.28287715 -0.18267654 0.30559716 0.18552233 0.20359065 0.020198915 -0.24987695 -0.21932586 -0.064233676 -0.2578527 0.21482243 -0.40317658 0.05027786 -0.22807367 -0.2983776 -0.11737124 -0.17673227 0.1809643
1455 0.11562904 -0.15449807 -0.01096915 -0.18038724 0.16290662 -0.08739176 0.1413845 0.06336252 0.17977406 0.16742662 0.1377508 -0.15440784 -0.2354401 0.05954199 0.15602061 -0.12616688 0.16372912 0.05864886 0.06194701 -0.101364985 -0.23875032 -0.09786712 0.072768345 -0.07023464 0.17083654 -0.18293983 -0.05324917 -0.05325798 -0.122347966 -0.14850093 -0.100050874 0.10475984
1465 0.25492197 -0.040696718 0.40042856 -0.15759672 0.20055588 -0.44129288 0.4990607 0.23866639 0.33337048 0.4393943 0.17877804 -0.5437733 -0.46845385 0.23722447 0.1289394 -0.105809174 0.29627895 0.06869361 0.36955985 -0.04152066 -0.27357224 -0.5232305 0.1280512 -0.29631326 0.28206515 -0.47838053 0.20538667 -0.038043223 -0.33287528 -0.21575285 -0.4021859 0.10243978
1466 0.1888106 -0.06156011 0.2972988 -0.18597154 0.21845157 -0.37939265 0.49393752 0.21411404 0.28483593 0.4440461 0.09069517 -0.48752812 -0.3945779 0.2996075 0.13881142 -0.073977545 0.3310238 0.012300681 0.41588408 -0.07038299 -0.31724742 -0.3757234 0.07872989 -0.27690718 0.26828596 -0.5215899 0.15758455 -0.062492404 -0.4006913 -0.2639775 -0.4396988 0.16625191
1468 0.1714252 -0.111860074 0.19068488 -0.18805574 0.20113766 -0.24302776 0.41143757 0.1853532 0.24766254 0.31273603 0.07273633 -0.29188567 -0.40440682 0.16956757 0.13690123 -0.10681152 0.38820094 0.044064447 0.31301337 0.011608813 -0.33355284 -0.3241401 -0.010030824 -0.1263905 0.2730175 -0.4546516 0.09955107 -0.12707002 -0.2994095 -0.19004722 -0.4393366 0.13447708
243 0.19698153 -0.07657297 0.22663587 -0.13696608 0.13606001 -0.17549992 0.40191573 0.13686293 0.3341184 0.40243328 0.01649275 -0.21241583 -0.378501 0.113513775 0.24869409 -0.15917723 0.28620183 0.13054335 0.16688915 -0.039389398 -0.25367415 -0.2547262 -0.11119972 -0.18368796 0.33141217 -0.44439945 0.078216664 -0.26112512 -0.161725 -0.091367655 -0.2471872 0.1774941
245 0.18148999 -0.0569899 0.27057624 -0.14017601 0.13984755 -0.2932375 0.40440318 0.2544115 0.25280452 0.36535543 -0.016773399 -0.26331005 -0.36058322 0.21308982 0.2249287 -0.17822835 0.3311011 0.11515646 0.26469946 0.003903351 -0.20881787 -0.31645784 -0.069789864 -0.23585205 0.30007833 -0.46129033 0.12669252 -0.22965677 -0.22095394 -0.17212823 -0.32499436 0.22234894
1535 0.23996863 -0.17641112 0.09987213 -0.11610691 0.29345605 -0.16909133 0.18990394 0.1753135 0.14506684 0.19323109 0.07486893 -0.20098914 -0.20102511 0.097503915 0.20703323 -0.23272417 0.2112077 0.07144588 0.02940265 -0.11729704 -0.09181823 -0.16197142 -0.05967091 -0.19224308 0.22391915 -0.20510215 -0.018158393 -0.14475968 -0.08456444 -0.23154242 -0.1616403 0.19661339
780 0.15257236 -0.17879139 0.08733138 -0.007898917 0.14646451 -0.13851497 0.122608766 0.124178074 0.13262357 0.12608309 0.091955975 -0.077903636 -0.06618318 -0.0014181152 0.110004224 -0.12910175 0.10042536 0.05475805 -0.003248933 -0.06266639 -0.08653343 -0.12967007 -0.0680341 -0.20729415 0.13155892 -0.14835161 0.039115604 0.010217048 -0.02996769 -0.049251635 -0.06181252 0.09550414
1550 0.097643055 -0.12917906 -0.0077708885 -0.07026788 0.15683322 -0.116949566 0.10531713 0.12562221 0.0805144 0.10819542 0.010030513 -0.10310394 -0.09499771 0.016459733 0.12295641 -0.17041957 0.14145516 0.08557027 -0.0018145391 -0.028620701 -0.03075922 -0.11902809 -0.06277629 -0.13118786 0.031328242 -0.12755251 -0.0783825 -0.032746557 -0.049571965 -0.09728601 -0.034473103 0.12001225
2273 0.2117436 -0.25794783 0.087340705 -0.20181237 0.27764145 -0.1382084 0.25124887 0.18613358 0.2681488 0.20289104 0.20752221 -0.19606988 -0.16822484 0.07752189 0.19194625 -0.13995357 0.3301308 0.036171567 0.054487206 -0.12653492 -0.22259578 -0.13589032 -0.15015693 -0.29367632 0.15788883 -0.23546161 0.009891634 -0.27027184 -0.29459515 -0.25947362 -0.13326743 0.2142017
1616 0.26038224 -0.17945412 0.1344584 -0.07359892 0.25506982 -0.20909974 0.11729471 0.2170936 0.2523878 0.22629187 0.07430895 -0.104824506 -0.16777617 0.03153867 0.19903013 -0.15948628 0.15644242 0.13324273 0.037056044 -0.16965574 -0.1934495 -0.16966991 -0.10397459 -0.062317584 0.24255027 -0.10997399 0.04159477 -0.08452289 -0.169263 -0.20554431 -0.03891523 0.12001565
2158 0.19863437 -0.17830586 0.110385545 -0.19891782 0.28234592 -0.21916392 0.14220567 0.1920288 0.27189913 0.23272258 0.11250135 -0.13554451 -0.24064611 -0.04326283 0.2656056 -0.16518253 0.26193383 0.20287667 0.08701938 -0.27074724 -0.20826817 -0.23043653 -0.058160335 -0.07301398 0.21142028 -0.25889012 -0.055301726 -0.15768108 -0.2361573 -0.1970816 -0.05796574 0.08014525
1624 0.2741892 -0.24527027 0.12566262 -0.18019931 0.3179146 -0.17311391 0.22577113 0.25159463 0.28353712 0.24723466 0.11054957 -0.12368063 -0.2729366 0.04138697 0.22624698 -0.069101125 0.27078447 0.12767623 0.043307126 -0.24573816 -0.24325699 -0.18110563 -0.13729964 -0.09745538 0.32411245 -0.23950337 -0.004881071 -0.057177525 -0.18460245 -0.262552 -0.074686155 0.13304292
2165 0.18986598 -0.15135874 0.09943405 -0.20941271 0.2697805 -0.21912372 0.15516214 0.13933769 0.23993905 0.17137033 0.048216704 -0.15971527 -0.30386397 0.029093653 0.18545787 -0.13442628 0.2895527 0.118467376 0.08797168 -0.23611487 -0.20587768 -0.2533004 -0.06269138 -0.16776374 0.1037456 -0.19990635 0.045726907 -0.09145272 -0.18529586 -0.29206163 -0.1124729 0.16658552
2167 0.1210003 -0.14861372 0.048227355 -0.15813628 0.19604401 -0.2140805 0.10503559 0.111341044 0.24103107 0.26209202 0.04734929 -0.14399347 -0.27561423 0.033784587 0.19496691 -0.0738821 0.32604212 0.14106838 0.14384277 -0.26021886 -0.15116571 -0.19058925 -0.009877654 -0.054531682 0.08755044 -0.25004336 0.05068707 -0.15931238 -0.19875841 -0.24066685 -0.17333806 0.027950117
1631 0.23471567 -0.20000057 0.11950076 -0.14245687 0.26339775 -0.23188986 0.17083846 0.21385616 0.26259625 0.21263637 0.094683304 -0.08623001 -0.2118349 -0.003986424 0.15245895 -0.056576796 0.23720364 0.15608212 0.15784234 -0.17386533 -0.22293058 -0.18906982 -0.1446378 -0.10444424 0.21454561 -0.20456396 -0.022598142 -0.13028152 -0.2115961 -0.26135388 -0.07412351 0.08082625
1640 0.29021206 -0.096680745 0.11445617 -0.16254635 0.24012017 -0.22182 0.19671597 0.20375067 0.23077808 0.19123195 0.07812628 -0.055257738 -0.16737317 0.015511702 0.21305153 -0.14319418 0.19097222 0.18850091 -0.044782072 -0.19964227 -0.22657594 -0.09880363 -0.08552104 -0.08171152 0.25917754 -0.12842172 0.016788047 -0.113873206 -0.15662895 -0.18034503 -0.093455665 0.09005215
1659 0.27490255 -0.18840337 0.1100296 -0.1395246 0.20120215 -0.25668553 0.16551284 0.24640024 0.35943016 0.3110647 0.06777704 -0.16045575 -0.2095988 0.0002926816 0.20197384 -0.100891374 0.27308172 0.119701214 0.12000185 -0.15490648 -0.18838644 -0.19437027 -0.10139955 -0.110265486 0.28400305 -0.1533076 0.019585105 -0.105916776 -0.20038086 -0.20449536 -0.06323341 0.20234849
1662 0.21598092 -0.12219093 0.12024903 -0.11524388 0.24266471 -0.2110314 0.23364592 0.2762345 0.2186539 0.2837312 0.048540995 -0.14409967 -0.20397271 0.09008124 0.22612013 -0.07875806 0.25766864 0.18780185 0.07426833 -0.15018848 -0.18522677 -0.13991334 -0.15598486 -0.11976792 0.19176339 -0.12855753 -0.0853127 -0.12172019 -0.12822363 -0.23738952 -0.056741763 0.22162563
2280 0.16559054 -0.1370043 0.07664643 -0.24120167 0.17163843 -0.19005096 0.13492513 0.12862103 0.20183526 0.21931733 0.031901773 -0.11593337 -0.22980352 0.035718676 0.18286157 -0.054730155 0.23729746 0.1416233 0.04804072 -0.22850396 -0.18023843 -0.23091707 -0.09679341 -0.0705621 0.10942286 -0.23040998 -0.0037743808 -0.10948113 -0.15673482 -0.16656722 -0.07138933 0.07838181
2307 0.12090028 -0.10224359 0.07337452 -0.18222702 0.1263372 -0.16431022 0.082258664 0.1437237 0.19835654 0.17687187 -0.010477657 -0.1728283 -0.21911009 0.0066088377 0.15473479 -0.0749928 0.23903006 0.104530044 0.11622412 -0.22561991 -0.17770863 -0.16256154 -0.039050646 -0.06411668 0.111831225 -0.24139205 0.045464344 -0.107491374 -0.20880604 -0.1907515 -0.06377018 0.13262095
16 0.1331588 -0.2406591 0.07465276 -0.15451747 0.26031977 -0.20102118 0.29040116 0.27630717 0.22569503 0.22026491 0.16606312 -0.2984155 -0.24527751 0.08966383 0.24732663 -0.21992375 0.25582752 -0.014431452 -0.021349045 -0.23980127 -0.16198118 -0.08857451 0.020641714 -0.24416773 0.22232169 -0.26043972 -0.034468897 -0.08982019 -0.2411128 -0.2334714 -0.21641971 0.33951354
11 0.052146513 -0.14657518 0.16454539 -0.16182308 0.25865075 -0.16636041 0.19697663 0.17658818 0.14503714 0.14992444 0.18197483 -0.183467 -0.20932826 0.08902873 0.16371322 -0.06055103 0.15264878 0.042521518 -0.06187474 -0.16411555 -0.098595425 -0.08444123 0.068011425 -0.13226947 0.18678407 -0.18412656 -0.035790823 -0.06694429 -0.16917016 -0.16884097 -0.14561091 0.17578182
48 0.12892178 -0.18938754 0.006099921 -0.037433222 0.20725371 -0.120894946 0.1943004 0.11550124 0.17582357 0.10869778 0.19628444 -0.23946527 -0.18166874 0.026723308 0.0853701 -0.15350148 0.17387418 -0.024796547 0.026380012 -0.22398034 -0.20845443 -0.063244686 -0.048785 -0.2555111 0.21583891 -0.15696733 0.008393299 -0.027077911 -0.18150467 -0.13960522 -0.21123438 0.25242636
68 0.21623494 -0.30246595 0.21595223 -0.19014986 0.29868126 -0.35254222 0.35802945 0.31633154 0.37141472 0.26923487 0.19040547 -0.32758144 -0.38586113 0.12231518 0.2576466 -0.18811865 0.28832993 0.11538375 -0.027433911 -0.30901083 -0.28011826 -0.15414412 0.0369404 -0.3308502 0.31532028 -0.26078278 -0.05312326 -0.119571604 -0.32889852 -0.28043026 -0.2966544 0.30886468
67 0.07211766 -0.117792234 0.0887708 -0.0030728406 0.22223979 -0.14829357 0.17710464 0.107179396 0.15078583 0.13672353 0.1242928 -0.2167231 -0.18470852 0.053036414 0.14019775 -0.10255865 0.14805117 0.005228579 0.024456916 -0.124318585 -0.12539735 -0.0903186 -0.004063766 -0.23706697 0.22081637 -0.10375975 -0.07065398 -0.08522375 -0.10508089 -0.11060734 -0.06318488 0.22162765
88 0.21341853 -0.24617198 0.1040107 -0.20293538 0.33134088 -0.2564216 0.28514937 0.364295 0.29457837 0.31679696 0.2040591 -0.25047892 -0.2975169 0.079077765 0.3024883 -0.059646904 0.30374235 0.0832037 -0.020657718 -0.24109972 -0.3581169 -0.2258698 -0.021433372 -0.38742414 0.21352988 -0.23532103 0.019488327 -0.13415258 -0.26804075 -0.31827942 -0.24095608 0.18688893
116 0.20964316 -0.21347135 0.07232978 -0.19858761 0.19751352 -0.19132355 0.24120404 0.17760715 0.32926884 0.19477575 0.07532453 -0.18862766 -0.1818063 0.07664078 0.24436763 -0.23953417 0.24405253 -0.015085312 0.091983244 -0.25838906 -0.15128477 -0.13307053 -0.020835863 -0.2887218 0.15416947 -0.17941715 0.06583859 -0.16192672 -0.28287306 -0.22095813 -0.09940438 0.20586585
119 0.32567468 -0.20745715 0.150193 -0.29439563 0.32914618 -0.13456199 0.34805548 0.2010881 0.13002111 0.2800494 0.15083416 -0.22057293 -0.30391383 0.08896681 0.18327074 -0.2722137 0.3181915 0.09757605 0.028375879 -0.26154193 -0.3063498 -0.19217819 -0.10870977 -0.22387421 0.2511147 -0.23269378 -0.03915274 -0.0726569 -0.2445629 -0.2917226 -0.18771477 0.29213813
493 0.23229675 -0.27181807 0.033122826 -0.3287486 0.37761185 -0.24768613 0.31343865 0.2683416 0.2678971 0.20891248 0.31309482 -0.2746935 -0.3779332 0.13731317 0.23889007 -0.18318532 0.3228377 0.023307515 0.007933889 -0.21933337 -0.25713816 -0.29257017 0.03776999 -0.29124242 0.19667071 -0.34903845 -0.07223158 -0.08700327 -0.29672542 -0.22644068 -0.2751257 0.21762511
167 0.093248814 -0.21990295 0.12169141 -0.066806026 0.28007424 -0.21581824 0.2900526 0.22301996 0.20492047 0.12528999 0.14919394 -0.20437689 -0.24497786 0.15417992 0.20664077 -0.124357365 0.18943802 0.023327298 0.012758836 -0.21919808 -0.1999686 -0.08408895 -0.030073747 -0.27670467 0.28285748 -0.18507269 -0.030762397 -0.13252547 -0.20308281 -0.26090905 -0.19774735 0.26304355
181 0.13241702 -0.31377333 0.1672474 -0.08585241 0.28123564 -0.24034303 0.2836342 0.20115045 0.2819282 0.18466581 0.10821836 -0.25857782 -0.26041344 0.13034607 0.23580804 -0.15116984 0.23302433 0.06396602 0.00085843046 -0.24060503 -0.27865785 -0.15103054 -0.018149313 -0.33410946 0.28559473 -0.21341072 -0.09133877 -0.12026659 -0.3436771 -0.2509471 -0.23730357 0.2664367
15 0.076684855 -0.21765284 0.10914399 -0.11364572 0.17018896 -0.15377152 0.15588768 0.22762853 0.2524828 0.09547186 0.14923748 -0.17223054 -0.16676043 0.11821131 0.2059887 -0.17438032 0.20638758 0.103459336 0.017928949 -0.3162397 -0.18121335 -0.07002172 -0.03700004 -0.24293225 0.26511148 -0.14728345 -0.012158407 -0.1513665 -0.22757879 -0.2252161 -0.12152407 0.31279552
64 0.11466821 -0.1970624 0.11880748 -0.07753366 0.21237701 -0.21323685 0.18199092 0.20615551 0.3054973 0.22545561 0.1401789 -0.169761 -0.16431724 0.08416187 0.21377957 -0.11500836 0.16537973 0.07770631 -0.033550665 -0.27687752 -0.25270134 -0.09878283 -0.01717178 -0.2583459 0.19296864 -0.17636457 0.010726992 -0.1293324 -0.23637474 -0.1842216 -0.17848963 0.15021442
66 0.1844697 -0.22857478 0.17532916 -0.14025056 0.28571522 -0.16313887 0.2822263 0.29476607 0.29061776 0.18515578 0.1579912 -0.22536929 -0.30801514 0.11148755 0.20778866 -0.1355716 0.26987395 0.13013165 -0.074686304 -0.22522588 -0.1616365 -0.07866516 0.08185651 -0.21142337 0.17885453 -0.15653497 -0.01935761 -0.13961414 -0.23937501 -0.27536145 -0.1431148 0.21254748
73 0.16627587 -0.19671436 0.1556211 -0.12408568 0.19255172 -0.18587956 0.317814 0.24141371 0.29185757 0.17124477 0.063371524 -0.21359327 -0.2739864 0.063424155 0.23244467 -0.14964384 0.19177061 0.13103105 0.11698041 -0.23648588 -0.19864444 -0.09749712 -0.015723916 -0.23671214 0.25452554 -0.16570179 0.03771235 -0.11477907 -0.28689742 -0.25150007 -0.14253034 0.1904055
92 0.16257922 -0.27189252 0.07400843 -0.13459602 0.2752316 -0.1762962 0.2611413 0.21402654 0.28385264 0.1797478 0.12609094 -0.1847213 -0.17851219 0.05153104 0.20240621 -0.14848267 0.18678975 0.09982014 0.025670372 -0.28539714 -0.21969599 -0.13242243 -0.0012518332 -0.22691673 0.16186307 -0.116956875 -0.0982436 -0.09654453 -0.31479877 -0.21417204 -0.11007052 0.24686724
172 0.16195871 -0.21373014 0.06161794 -0.07817968 0.22849828 -0.16430569 0.2507346 0.21527715 0.28482056 0.16138087 0.11740585 -0.17641647 -0.14691198 0.076843135 0.20979095 -0.17039922 0.14100231 0.059554446 0.028261703 -0.22609541 -0.2201748 -0.07019567 -0.011674315 -0.15727308 0.1920554 -0.15662251 -0.07808224 -0.15959214 -0.25321627 -0.19673434 -0.16404067 0.18341134
186 0.16759366 -0.15401146 0.1355023 -0.25579065 0.16750775 -0.2010033 0.1947055 0.24462537 0.2218453 0.14103086 0.1830751 -0.16829692 -0.16896342 0.008658514 0.12708229 -0.08292658 0.32017127 -0.0054301117 0.00243993 -0.16536318 -0.121783294 -0.19829245 -0.054129366 -0.2717413 0.18761156 -0.1881195 0.14682926 -0.1479285 -0.21337505 -0.23517227 -0.13170467 0.18334463
63 0.3566957 -0.19571738 0.21432808 -0.30817306 0.28183657 -0.23173778 0.38087994 0.24476436 0.3130314 0.2170669 0.25387424 -0.32475272 -0.28901768 0.012393652 0.16392618 -0.14155085 0.37398717 0.12642513 0.09222638 -0.26529855 -0.26492903 -0.26020682 -0.0012568386 -0.32980338 0.15533583 -0.3148353 -0.06916831 -0.13658956 -0.22015728 -0.35437882 -0.13936786 0.39489663
436 0.15428051 -0.10020604 0.120892234 -0.13441883 0.22706768 -0.11944525 0.32428646 0.18797119 0.19063039 0.1385124 0.25473237 -0.2155813 -0.23692444 0.06953334 0.23252094 -0.17230754 0.32007575 0.08006299 -0.12504661 -0.13590522 -0.25352553 -0.19562976 -0.037256803 -0.2467836 0.30758113 -0.28973714 0.14930567 -0.07500218 -0.23520657 -0.24416372 -0.16319391 0.2568433
100 0.20945925 -0.15340722 0.08947949 -0.35979664 0.25117764 -0.18827091 0.26636195 0.23916963 0.21721461 0.1596088 0.17863385 -0.14573522 -0.2594774 0.09159928 0.24012947 -0.060432486 0.33427253 0.042852372 0.07489038 -0.23365979 -0.19898768 -0.28667688 -0.012016102 -0.24959166 0.1855984 -0.18460591 -0.017155038 -0.118283935 -0.20944284 -0.36013892 -0.1457504 0.16345392
101 0.25907245 -0.19442016 0.12660076 -0.3091488 0.1920156 -0.21881047 0.2527855 0.25911885 0.2486848 0.17611454 0.22412677 -0.17835052 -0.22058764 0.064473316 0.24933365 -0.09158502 0.27586362 0.04102218 0.00037863816 -0.27304408 -0.14693272 -0.23409824 0.025172116 -0.26341563 0.15273204 -0.2497096 -0.02918887 -0.088523075 -0.15010926 -0.26592302 -0.06791454 0.2775933
107 0.2129242 -0.14382288 0.23159342 -0.27290362 0.15757957 -0.18546003 0.27799055 0.27100018 0.32210556 0.2292917 0.16442086 -0.18393365 -0.24398428 0.19261257 0.11370009 -0.13495196 0.34110042 0.17646164 0.08950575 -0.2231695 -0.29840747 -0.16738059 -0.13844492 -0.23971811 0.35005766 -0.28702235 0.09639312 -0.2528962 -0.19574103 -0.34437037 -0.24281181 0.2559577
458 0.36792275 -0.28435546 0.10634151 -0.2623511 0.4222868 -0.16310443 0.3257197 0.27935874 0.3397552 0.3635694 0.22038086 -0.30633658 -0.27755266 0.06708659 0.22497623 -0.23488307 0.4369634 -0.013409683 0.09587482 -0.24609414 -0.28059733 -0.26009023 -0.11275752 -0.34210187 0.26627725 -0.23017351 -0.037209798 -0.30401173 -0.36709437 -0.30613172 -0.20994172 0.26960877
1443 0.15317355 -0.039314274 0.3289782 -0.16166946 0.26551655 -0.4394528 0.4846882 0.25275192 0.26313725 0.30089653 0.112917766 -0.463314 -0.462923 0.15590188 0.106175125 -0.13953874 0.37499014 0.14174773 0.26122704 -0.20311522 -0.17989404 -0.39693585 0.19022629 -0.29396778 0.26553616 -0.4740271 0.2011466 -0.040957447 -0.32814202 -0.249748 -0.39900598 0.18390976
1445 0.23437425 -0.03192835 0.3482559 -0.15960395 0.21448833 -0.39979482 0.45702928 0.2990172 0.36923134 0.39299747 0.18567082 -0.4754437 -0.46890664 0.1763389 0.2031962 -0.11666784 0.25241342 0.035360362 0.36291665 -0.18748054 -0.2527045 -0.492427 0.15550183 -0.30923364 0.22210343 -0.46605223 0.25008893 -0.094036356 -0.398495 -0.2316862 -0.39704958 0.21526477
133 0.25755143 -0.23762101 0.15527987 -0.27737448 0.28329366 -0.14873044 0.2771576 0.17238647 0.19515352 0.07886355 0.22753508 -0.21755242 -0.18290521 -0.014768586 0.16791937 -0.08000509 0.2977668 0.027771493 0.032353316 -0.23188911 -0.15170372 -0.22179061 -0.11394033 -0.24681674 0.1840365 -0.24253213 -0.023278141 -0.18690881 -0.16743693 -0.27802372 -0.124287695 0.24155007
1567 0.14496276 -0.2029792 0.1917231 -0.13821319 0.14679421 -0.11889362 0.19902045 0.16000013 0.18772765 0.08416063 0.08726562 -0.1038112 -0.12576327 0.07347586 0.13258156 0.049857132 0.16775717 0.07418119 0.13128223 -0.13299336 -0.09200858 -0.13662547 -0.023450451 -0.1381405 0.20441234 -0.14131011 0.058975793 -0.061393224 -0.13814503 -0.20391461 -0.14182855 0.14579773
890 0.2597828 -0.26050857 0.123182625 -0.1884182 0.22167681 -0.17078508 0.25812364 0.33345553 0.3513332 0.12502843 0.07482712 -0.21515559 -0.1941014 0.10212697 0.28517124 -0.03756616 0.3249216 0.31482482 0.08520473 -0.17664933 -0.19860816 -0.23823701 -0.010016362 -0.2555921 0.34879857 -0.29309684 0.05669885 -0.2803987 -0.19633278 -0.3924494 -0.23960131 0.12191071
1592 0.081274614 -0.20027348 0.2362683 -0.13572124 0.19525 -0.17561962 0.2494643 0.204722 0.19309177 0.16502473 0.1306774 -0.17319456 -0.273887 0.12531891 0.29436564 -0.09226204 0.1986361 0.17423475 0.11181579 -0.12621838 -0.14672954 -0.16166921 0.0771448 -0.23676 0.17648418 -0.09686075 -0.041628662 -0.118715875 -0.29807836 -0.29640016 -0.11293043 0.15600224
1597 0.1861129 -0.2187542 0.16955452 -0.14303781 0.21898581 -0.07673153 0.19190888 0.16460605 0.19328879 0.20685497 0.20037518 -0.1644009 -0.1896104 0.08243773 0.2334342 0.023615804 0.24395148 0.18119925 0.12756285 -0.19789684 -0.11546681 -0.14722337 0.07995346 -0.15773891 0.27749288 -0.21461816 0.13196036 -0.18712844 -0.24865818 -0.27301818 -0.1968882 0.18706802
1601 0.1763647 -0.2678668 0.1913289 -0.16293554 0.15256914 -0.22875684 0.15428422 0.20889543 0.18136445 0.048339818 0.11351051 -0.2226356 -0.18017854 0.15042864 0.28108728 -0.013859754 0.21744283 0.17553636 0.05468549 -0.07336133 -0.14367756 -0.12310931 -0.083991274 -0.29261282 0.23582828 -0.23669733 -0.008404937 -0.10100367 -0.24861677 -0.23058763 -0.20291974 0.19615023
1398 0.13200767 -0.018218497 0.43667498 -0.1946159 0.23715378 -0.38514104 0.46552536 0.29433042 0.23990679 0.3645565 0.14491595 -0.52754307 -0.43598634 0.20188291 0.15287423 -0.015696097 0.27052337 0.057822928 0.30038208 -0.14321443 -0.2465229 -0.41685665 0.1984293 -0.27879846 0.25982058 -0.54478514 0.17600428 -0.07921583 -0.34323677 -0.22866082 -0.37332997 0.07676313
1005 0.13354446 -0.13932715 0.08688795 -0.17525351 0.20430335 -0.16234702 0.21235292 0.26913378 0.24701999 0.13395524 0.13715114 -0.25096744 -0.30504072 -0.0030279174 0.24624531 -0.17601451 0.36015725 0.21149872 0.047164287 -0.16185099 -0.18865275 -0.26496118 -0.01338214 -0.30018228 0.15595376 -0.21521126 -0.03344707 -0.24653384 -0.195826 -0.2813493 -0.19572355 0.26366714
695 0.16829966 -0.0974377 0.0057210894 -0.2360683 0.31345665 -0.16978839 0.23560081 0.2023896 0.1819522 0.1740881 0.092641935 -0.16600358 -0.21687275 -0.011282882 0.15300737 -0.11472648 0.299834 0.16616322 0.09363793 -0.13072331 -0.20065789 -0.22987683 -0.08961794 -0.2343312 0.13215607 -0.1885745 -0.0291163 -0.20378488 -0.21666129 -0.21504559 -0.15803733 0.20932184
700 0.15378793 -0.052108627 0.036985293 -0.25886235 0.21190561 -0.15884788 0.17921424 0.19700584 0.1674899 0.16689153 0.08598472 -0.09911877 -0.20012017 0.009583257 0.13080284 -0.10084712 0.31453383 0.24381983 0.12995806 -0.16082014 -0.112860136 -0.19650133 -0.035802443 -0.17261282 0.13392313 -0.15418582 -0.0047034635 -0.27697587 -0.15787292 -0.3282449 -0.2512205 0.25177264
714 0.20028958 -0.23041508 0.12787414 -0.22699687 0.24696845 -0.23200582 0.26486874 0.21724851 0.17850393 0.13035187 0.25261587 -0.18514037 -0.32479 -0.041123662 0.28573617 -0.13679081 0.2982109 0.13648865 0.076206036 -0.16813876 -0.22267732 -0.17132358 -0.06455116 -0.24282965 0.1696548 -0.14390779 -0.0008499741 -0.10280506 -0.32572258 -0.2513104 -0.09791608 0.25390682
722 0.11970804 -0.13383985 0.11523841 -0.17275615 0.26207724 -0.20155597 0.18740137 0.1353322 0.21953803 0.09571066 0.110112466 -0.23955035 -0.2308726 0.083772354 0.22370781 -0.16278045 0.2480631 0.22997272 0.15075593 -0.12643413 -0.15583177 -0.2597816 0.053966347 -0.2575613 0.1753129 -0.16899042 0.06268325 -0.18798044 -0.15979755 -0.23137361 -0.21696636 0.16134056
663 0.17194897 -0.14949153 0.17166421 -0.2459645 0.21316765 -0.20156863 0.20852666 0.19263186 0.22153431 0.18280959 0.22063424 -0.19347185 -0.1398873 -0.0012183506 0.23233867 -0.06532169 0.2720655 0.2643092 0.070893735 -0.1940761 -0.21470402 -0.24401478 -0.06431559 -0.21638393 0.19176036 -0.19394968 -0.049312383 -0.1806585 -0.23393095 -0.27484375 -0.18924713 0.23915362
788 0.1400404 -0.08740353 0.09808131 -0.21908617 0.28639728 -0.09443159 0.25928867 0.15078923 0.15695614 0.17173637 0.14140134 -0.16406709 -0.20264125 0.02445035 0.17044233 -0.038269944 0.17905448 0.24367721 0.04038002 -0.09380112 -0.1776493 -0.21633257 0.014004665 -0.25882906 0.111779094 -0.17704894 0.02032603 -0.20417431 -0.23075028 -0.28842777 -0.21653625 0.13645749
1018 0.059659842 -0.12416493 0.12734157 -0.15244408 0.055441692 -0.20724398 0.11212374 0.08610463 0.1596079 0.25173622 0.03518265 -0.2361555 -0.21123664 0.079069994 0.11449242 -0.13185562 0.1960218 0.1504575 0.096705206 -0.18414022 -0.20015937 -0.11844493 0.066035576 -0.280096 0.17137285 -0.20557539 0.12605548 -0.17496566 -0.11830472 -0.24865991 -0.19124588 0.09660641
509 0.18969825 -0.3285727 0.22164607 -0.25905573 0.34788632 -0.20178181 0.2707604 0.32387605 0.3583111 0.19570972 0.28705218 -0.30666146 -0.3488643 0.021516962 0.3567325 -0.30116373 0.42002353 0.11907952 -0.008912091 -0.34439895 -0.404988 -0.2611955 -0.10431592 -0.48540995 0.2770867 -0.2732824 -0.025033874 -0.18159021 -0.33673477 -0.2860791 -0.15523534 0.290413
811 0.12899457 -0.062623866 0.1190624 -0.23277274 0.22032753 -0.19796596 0.2484011 0.15308753 0.1808071 0.14487047 0.10709741 -0.1789987 -0.120326705 -0.082794905 0.15396446 -0.13774347 0.2756552 0.16476467 0.11974203 -0.1400052 -0.15074958 -0.27045533 0.004968573 -0.28350973 0.06813705 -0.11379596 -0.07298876 -0.21449538 -0.18451865 -0.27878073 -0.18181844 0.16899513
1481 0.19989923 -0.078507096 -0.04283609 -0.22754575 0.14002335 -0.16808861 0.23464388 0.18250908 0.22308215 0.2022242 0.17895511 -0.26954088 -0.32671273 0.010327508 0.09827786 -0.15335502 0.20536177 0.006364279 0.15805511 -0.118255176 -0.2807676 -0.23998389 0.046849772 -0.24965496 0.20144963 -0.13819653 0.13810018 -0.09782317 -0.13454771 -0.15530674 -0.17102502 0.263273
1891 0.2647907 -0.26310724 0.16321348 -0.15870403 0.13732134 -0.11447163 0.109304674 0.17061388 0.2960547 0.23891409 0.20186445 -0.25813043 -0.18752956 0.079831995 0.20924746 -0.029499125 0.18051589 0.045869563 -0.0110268835 -0.18492122 -0.24502465 -0.2181037 0.014484931 -0.12516423 0.21903601 -0.23282064 -0.029447032 -0.0857328 -0.2411107 -0.32858163 -0.056954782 0.17336655
390 0.14565507 -0.13760431 0.08773583 -0.19853103 0.1684579 -0.055379517 0.04093563 0.15094471 0.09620915 0.17486985 0.146306 -0.03587411 -0.16970472 0.0905056 0.13787104 -0.14183593 0.16883102 0.060856346 0.06404785 -0.22881596 -0.12323832 -0.11713842 -0.09188895 -0.20010474 0.18630949 -0.0859047 -0.007908497 -0.107298 -0.16351905 -0.16548361 -0.08783599 0.18432531
277 0.18635549 -0.3228235 0.044066638 -0.3104455 0.3359457 -0.2319707 0.21238972 0.16903599 0.24920979 0.33860725 0.3053487 -0.16932753 -0.354938 0.15534125 0.27224034 -0.21818338 0.33943927 0.04869468 0.10072607 -0.2446134 -0.22793148 -0.20471485 -0.09210839 -0.25846088 0.25418273 -0.25760454 -0.035730846 -0.36839387 -0.2860765 -0.327681 -0.11602151 0.2763108
434 0.26706004 -0.18182786 0.05036681 -0.36226052 0.2149472 -0.045398876 0.17074437 0.27495128 0.2937912 0.34243992 0.24769707 -0.13610157 -0.3134462 0.03668344 0.15084179 -0.22088958 0.31753373 0.06387874 0.07017777 -0.28390184 -0.22294201 -0.18896393 -0.08458703 -0.40789995 0.33144256 -0.306463 0.03591263 -0.22672632 -0.37179428 -0.29482168 -0.10307557 0.305865
960 0.29426062 -0.36318365 0.12560011 -0.34450662 0.26918086 -0.04763496 0.26187214 0.24418709 0.32200176 0.27117708 0.33416432 -0.22329694 -0.24873751 0.07735887 0.13235988 -0.1742599 0.3364754 0.104627706 0.026455963 -0.3027615 -0.3858424 -0.14160895 -0.049113967 -0.24322891 0.3284342 -0.25427243 0.080865294 -0.07724787 -0.38577327 -0.31074256 -0.20860127 0.21692993
475 0.2581217 -0.31814042 0.16011573 -0.22322467 0.23129992 -0.12878275 0.15310258 0.2709549 0.23397477 0.21140642 0.2125533 -0.27002972 -0.40272087 0.09870945 0.29380098 -0.16999446 0.27466506 0.030583005 0.06111874 -0.20388193 -0.2672626 -0.19676985 0.054542683 -0.43163702 0.25168404 -0.222344 0.07145565 -0.21300387 -0.24218908 -0.30048433 -0.106175534 0.31045574
346 0.3252915 -0.12002356 0.10362796 -0.31462964 0.27035916 -0.2535877 0.22850722 0.22038387 0.23015474 0.22553536 0.30007017 -0.13403079 -0.3469066 0.060241096 0.16982228 -0.18485361 0.2898915 0.11508643 0.11160933 -0.18584642 -0.2513269 -0.20729229 -0.107576974 -0.33740819 0.2262934 -0.3019582 0.0008355252 -0.03713824 -0.38662484 -0.23444578 -0.23949255 0.26630214
1716 0.30190316 -0.07704981 0.20380439 -0.2522362 0.41742802 -0.09947186 0.37286434 0.25483125 0.31720456 0.2961023 0.10652152 -0.27654007 -0.23979536 -0.019841073 0.37813872 -0.27949885 0.31753868 -0.033695675 0.00807656 -0.15648352 -0.32129884 -0.29664168 0.053370856 -0.3610611 0.15725182 -0.18924125 -0.13061434 0.044620946 -0.37483037 -0.21391246 -0.15116803 0.2499555
1717 0.25024223 -0.15788104 0.15075976 -0.22369717 0.39729258 -0.088656686 0.3119614 0.30473706 0.3716631 0.34149927 0.16186401 -0.37938946 -0.24768601 -0.09107159 0.38780093 -0.30193412 0.44286612 0.036152706 -0.02789945 -0.15986677 -0.38167349 -0.19296923 -0.023161238 -0.41467786 0.34726092 -0.25948057 -0.069338456 -0.15331145 -0.34561655 -0.21145065 -0.27143613 0.29210195
1718 0.2886586 -0.14842233 0.23174575 -0.25431174 0.3529536 -0.10380841 0.24952884 0.393494 0.28321043 0.28933644 0.09462429 -0.31320244 -0.2725152 -0.05764324 0.35141164 -0.3512203 0.38692752 0.038552467 -0.09956278 -0.15151058 -0.37455812 -0.20906897 0.03419015 -0.37608087 0.19475114 -0.11164152 -0.10104972 -0.078738004 -0.28011692 -0.13241588 -0.13098818 0.25727734
400 0.36252922 -0.28460145 0.111687936 -0.34821898 0.3813578 -0.22400641 0.40866464 0.36354423 0.35683817 0.40898025 0.24433999 -0.36006564 -0.35865232 0.07838495 0.37665147 -0.19252785 0.34792817 0.1637664 -0.0072481255 -0.2380896 -0.25517085 -0.2096127 -0.087854035 -0.38002262 0.25552803 -0.3061953 -0.015036871 -0.2561142 -0.27237466 -0.40418175 -0.34113452 0.3445039
410 0.17119902 -0.21100248 0.13129722 -0.20856217 0.23880313 -0.110131286 0.27042976 0.23845634 0.1765229 0.3064812 0.13025878 -0.20117395 -0.22664423 0.056628816 0.2806335 -0.2625284 0.32242864 0.0248542 0.0022498595 -0.1964341 -0.25091365 -0.14077003 -0.084507234 -0.23139434 0.13639614 -0.1928994 -0.08471358 -0.24299742 -0.18129323 -0.27456635 -0.16802993 0.18607338
2159 0.40995765 -0.251515 0.21218401 -0.28514737 0.26700905 -0.11761743 0.28260994 0.32482588 0.34133545 0.26949802 0.2533581 -0.33653316 -0.20440784 0.049972918 0.23857991 -0.17903239 0.33769244 0.15386419 -0.018522872 -0.20003368 -0.26036063 -0.18970065 -0.061088167 -0.3736814 0.27659795 -0.2727298 0.06467485 -0.3054998 -0.24452166 -0.43467793 -0.17027678 0.18907094
1745 0.2659036 -0.18036093 0.2026078 -0.25778162 0.41129303 -0.056293707 0.36652303 0.31787035 0.18883693 0.25662544 0.083502255 -0.28052726 -0.196146 -0.050672535 0.343866 -0.335767 0.38540336 0.0008686526 0.007392996 -0.18513893 -0.36469102 -0.21903865 0.02351773 -0.31222278 0.2631084 -0.1205019 -0.16703637 -0.012664716 -0.31984195 -0.17528747 -0.048563458 0.20145392
1765 0.31190327 -0.20156008 0.13340631 -0.23323593 0.32649207 -0.06412436 0.25847033 0.25552306 0.3539598 0.15994228 0.13574049 -0.29229447 -0.22032487 -0.07240778 0.25623092 -0.23989145 0.29408684 0.03529918 -0.033792507 -0.209117 -0.31083038 -0.15533705 -0.01764476 -0.3090549 0.2938368 -0.109544165 -0.12173985 -0.021483656 -0.2218967 -0.12594804 -0.22491713 0.27683386
1799 0.26002234 -0.1445779 0.10454048 -0.23698613 0.35822636 -0.117176615 0.23438051 0.26483953 0.3313064 0.25647786 0.08266734 -0.27665535 -0.19568832 -0.10132209 0.39101666 -0.2839969 0.3105827 -0.0048889006 -0.06623787 -0.15077087 -0.34055132 -0.2953119 -0.017906282 -0.34412685 0.25159028 -0.18126653 -0.16295269 -0.011069739 -0.23811077 -0.13830146 -0.038928702 0.23756766
1805 0.36422417 -0.07099869 0.1164353 -0.14550279 0.37953335 -0.13126229 0.2664891 0.24972299 0.35655397 0.21513976 0.10896566 -0.22991166 -0.18960547 -0.08851326 0.3002084 -0.26519644 0.3215365 0.052707065 -0.14915875 -0.2218533 -0.418208 -0.26306865 -0.04014569 -0.32683405 0.28800622 -0.17838636 -0.11183706 -0.062166195 -0.28859532 -0.07783912 -0.18462226 0.24012311
1815 0.33037382 -0.21691345 0.098931275 -0.2113061 0.37047604 -0.10426653 0.2608946 0.2632304 0.20766948 0.26239613 0.06517268 -0.22867082 -0.19707525 -0.111811526 0.37261245 -0.3202816 0.3772489 -0.036431383 -0.05967143 -0.25056788 -0.35582772 -0.26110289 -0.07518627 -0.3506091 0.2703683 -0.16334121 -0.09095357 -0.008807484 -0.2924874 -0.19828098 -0.10510402 0.25307178
1829 0.35352856 -0.17429006 0.17837542 -0.21241154 0.26697916 -0.064038575 0.2389691 0.26892003 0.25419664 0.17845646 0.11306053 -0.26352766 -0.17834674 -0.14650644 0.36002615 -0.3008237 0.2836971 -0.045917295 -0.062184885 -0.19641155 -0.36323717 -0.33755428 -0.0030840142 -0.30091113 0.22706132 -0.15774916 -0.16335674 -0.06756125 -0.32286268 -0.12782866 -0.034223255 0.21754153
1840 0.38865775 -0.17789629 0.08034453 -0.23272814 0.28832218 -0.044637877 0.27661777 0.28883603 0.30451334 0.28903046 0.1495898 -0.285931 -0.17866229 -0.07228978 0.34180164 -0.38979352 0.3986199 -0.005107983 -0.109318994 -0.27261662 -0.2929466 -0.27163225 0.019291949 -0.29947802 0.18522054 -0.23735043 -0.093099065 -0.0024286725 -0.25791684 -0.12847689 -0.18057628 0.2536401
1855 0.27409497 -0.16255549 0.095556684 -0.12601002 0.3838521 -0.03371126 0.22030167 0.2496174 0.21715945 0.19220394 0.031069435 -0.26309377 -0.21630238 -0.13448843 0.3710887 -0.23078083 0.24949333 0.015631683 -0.0777784 -0.2026351 -0.35244757 -0.20880736 -0.057628583 -0.28842628 0.24906681 -0.16914885 -0.11453783 -0.028688269 -0.27783585 -0.20185396 -0.15133637 0.24156114
1865 0.3284079 -0.11574318 0.15575792 -0.13492462 0.35700133 -0.10527728 0.26677817 0.20662329 0.20922597 0.23980261 0.10584432 -0.2782331 -0.19524539 -0.083123766 0.3631054 -0.2757491 0.37463397 -0.010480039 -0.09111274 -0.27444202 -0.2938651 -0.24644977 -0.014195452 -0.39276317 0.24274763 -0.1816455 -0.09456596 0.054505955 -0.269602 -0.18471628 -0.040633686 0.27845204
1783 0.18986662 -0.030682642 0.14909123 -0.1887379 0.27690834 -0.04923844 0.22157168 0.17908502 0.18526314 0.17703515 0.1203424 -0.20883484 -0.20358917 -0.056259785 0.16509314 -0.16814876 0.28716406 -0.08740564 0.08365938 -0.120305836 -0.15255895 -0.16456485 0.017203903 -0.24854721 0.12894477 -0.13403118 -0.051126573 -0.11317249 -0.2574878 -0.18682858 -0.09128585 0.24346763
902 0.2994752 -0.1646966 0.08329402 -0.21168697 0.17450233 -0.1398725 0.23135914 0.24510957 0.2512178 0.18697856 0.16728038 -0.21950006 -0.18004477 0.073007815 0.1900947 -0.15168202 0.16556957 0.079699405 0.062227193 -0.098361045 -0.23155063 -0.20979905 -0.038041923 -0.27851173 0.16374087 -0.23213834 -0.043086365 -0.20798615 -0.1567694 -0.21338004 -0.19337507 0.2033503
1247 0.35921812 -0.31443983 0.20383616 -0.24461713 0.34387124 -0.159447 0.30379704 0.12260234 0.18825343 0.21193305 0.20518477 -0.15003896 -0.3727667 0.09767846 0.32795325 -0.13066557 0.20778473 0.1328405 0.064336196 -0.12281167 -0.24826184 -0.103265926 0.09029541 -0.35671607 0.13532154 -0.1737785 0.07929494 -0.20733936 -0.18349926 -0.2912843 -0.21204422 0.20350632
933 0.28433457 -0.16570051 0.15480705 -0.24593256 0.2409261 -0.20239982 0.22752187 0.20261298 0.2351409 0.22573456 0.25098085 -0.23248291 -0.24406599 0.023070905 0.21290264 -0.23923211 0.32862514 0.06508621 -0.045788746 -0.18093346 -0.23319784 -0.26212895 0.09647853 -0.2880136 0.18782602 -0.26423758 0.15808907 -0.041685898 -0.24433884 -0.25789905 -0.20061824 0.28278488
682 0.39376947 -0.26225603 0.1562933 -0.37772775 0.3602069 -0.26705518 0.3282058 0.22432768 0.35759535 0.23496516 0.28484342 -0.26173493 -0.36131543 0.13937213 0.2616734 -0.19449294 0.23812808 0.2827569 0.049444642 -0.2840307 -0.28698313 -0.23334496 -0.19854209 -0.37659654 0.21790387 -0.3085222 -0.07722269 -0.17065132 -0.27363983 -0.38967872 -0.2539248 0.20235272
23 0.2828007 -0.26099673 0.06900247 -0.26275194 0.345565 -0.186146 0.32876575 0.24749666 0.2208424 0.1561599 0.18556231 -0.19140545 -0.2731355 0.00875471 0.089696474 -0.20371103 0.25437164 0.1035913 0.1122669 -0.16514131 -0.29962453 -0.19765207 -0.07234282 -0.25613752 0.36858338 -0.22706075 0.07270038 -0.20653945 -0.20595866 -0.27874005 -0.23643266 0.16217883
391 0.3010243 -0.25160772 0.30352056 -0.30030516 0.30986068 -0.3229594 0.40414813 0.3417098 0.35508537 0.2930821 0.2919091 -0.33386606 -0.40069368 0.19854905 0.24673626 -0.21156397 0.3766104 0.16961126 0.025412248 -0.13358198 -0.2943628 -0.19644229 -0.019611485 -0.27856585 0.347046 -0.25356904 0.16000022 -0.08176258 -0.22201152 -0.26563364 -0.24124262 0.09317701
25 0.16675508 -0.15855849 0.08711249 -0.11402563 0.18328449 -0.15343891 0.10340023 0.15208411 0.12786372 0.17565046 0.111716814 -0.14454862 -0.16856 -0.002732778 0.14241378 -0.09519313 0.11031563 0.17867498 0.07594143 -0.1658306 -0.17846954 -0.12752095 -0.031348813 -0.22718877 0.20692942 -0.07166319 0.05483133 -0.06966553 -0.13075326 -0.19999993 -0.1427449 0.17021322
89 0.2318955 -0.14497012 0.25549763 -0.24370123 0.22731726 -0.2970604 0.40574235 0.28947917 0.27218288 0.2627696 0.113504164 -0.27896133 -0.37431216 0.07589194 0.13360447 -0.111240946 0.37655476 0.03356213 0.09303872 -0.14571704 -0.24319172 -0.26581377 -0.05191633 -0.33356193 0.31836915 -0.23788857 -0.04585191 -0.30563095 -0.18639451 -0.31365982 -0.30855596 0.1247134
980 0.2340326 -0.1806125 0.08564733 -0.22403583 0.20571956 -0.16635616 0.21400645 0.2201814 0.10709405 0.15851186 0.21831582 -0.16231771 -0.1739272 0.1056913 0.19166689 -0.2650388 0.22045791 0.061513886 -0.008381384 -0.06587808 -0.21254633 -0.14629917 -0.0032842227 -0.15843043 0.106818765 -0.20941707 -0.030497652 -0.17552161 -0.14890891 -0.23374486 -0.17741996 0.07869034
1394 0.20991611 -0.1802652 0.11777712 -0.23446794 0.19174401 -0.12880158 0.2730791 0.09545342 0.23691493 0.1253111 0.12500933 -0.20175287 -0.22286232 -0.023259984 0.08646699 -0.29265833 0.2734661 0.13868578 0.021644022 -0.09587063 -0.29512691 -0.1045976 -0.018559655 -0.08670905 0.2574535 -0.1356333 -0.104571044 -0.2748079 -0.3774514 -0.18206568 -0.14724593 0.16051938
1545 0.2012659 -0.16384932 0.17779465 -0.284158 0.18151867 -0.11208297 0.1493807 0.058961015 0.2874933 0.19857208 0.19408324 -0.27489865 -0.22719105 -0.0016430665 0.07129368 -0.3336112 0.22050163 0.18251532 -0.04541169 -0.11946968 -0.26119283 -0.13246436 0.026151916 -0.1776091 0.23356979 -0.13989003 -0.07043306 -0.15575722 -0.34800008 -0.22327037 -0.15563424 0.25209472
887 0.22962044 -0.26084954 0.17232484 -0.28191766 0.27625796 -0.14684772 0.24438797 0.1601309 0.2596928 0.2253855 0.21389276 -0.22631407 -0.27181873 -0.075733446 0.109919354 -0.23326154 0.3325643 0.09290409 -0.059671 -0.14003234 -0.29109722 -0.13043089 -0.03821546 -0.083608374 0.29664466 -0.15502338 -0.07875202 -0.15676405 -0.4580358 -0.22789712 -0.13665059 0.17979944
893 0.17848589 -0.1898393 0.24026917 -0.20711385 0.23501171 -0.047658052 0.23066777 0.20365427 0.20532541 0.10745543 0.113169335 -0.1741522 -0.29580036 0.030473212 0.18074091 -0.19879203 0.2778126 0.23554629 -0.014736792 -0.097664356 -0.26154602 -0.0918586 0.0036731153 -0.16987073 0.2653676 -0.16616955 -0.15022615 -0.2153925 -0.36524376 -0.20266065 -0.05921282 0.1719587
289 0.2614801 -0.22352223 0.15472443 -0.2599439 0.19367021 -0.12140328 0.21583802 0.13492411 0.2279054 0.21131094 0.09016102 -0.28530413 -0.19240053 -0.062111538 0.1294846 -0.25534478 0.32166097 0.047970034 -0.09886164 -0.11888112 -0.33544978 -0.2071803 -0.03971884 -0.17534325 0.3510382 -0.1585662 -0.10074679 -0.21582277 -0.3722565 -0.21938334 -0.13314383 0.2187965
931 0.21319784 -0.26786634 0.15010348 -0.22530255 0.17782448 -0.09203764 0.20940973 0.1377637 0.19897449 0.1901861 0.14468901 -0.21222396 -0.27172068 -0.00930703 0.13530219 -0.2988518 0.29128876 0.16611545 -0.08134987 -0.16300379 -0.27454227 -0.112630576 -0.011289688 -0.09398028 0.3901238 -0.15423425 -0.12127082 -0.2048416 -0.33549535 -0.21483436 -0.16898139 0.20120868
950 0.17753787 -0.21132514 0.119746305 -0.2393086 0.28072146 -0.1747339 0.2507897 0.10418987 0.19913541 0.13474157 0.18139331 -0.24246077 -0.19679397 -0.0015476956 0.10962525 -0.27556852 0.17062342 0.13209052 -0.121715754 -0.1402588 -0.25455326 -0.15475096 -0.026590249 -0.15564346 0.27570078 -0.1316468 -0.06596696 -0.20105898 -0.28121138 -0.2233677 -0.11814716 0.12664634
975 0.25115576 -0.32370412 0.11787791 -0.27825862 0.296116 -0.08554694 0.2665582 0.11904956 0.29123405 0.1835325 0.16760051 -0.2760316 -0.27947724 -0.04675268 0.1467217 -0.23517244 0.29613343 0.13301758 -0.07936358 -0.14511766 -0.29396656 -0.16530685 -0.044195328 -0.15472002 0.38096356 -0.15988378 0.031418625 -0.18064566 -0.37973318 -0.23350903 -0.20881058 0.1204739
999 0.1841636 -0.20115386 0.16685455 -0.17794605 0.27640498 -0.13249953 0.20269476 0.111539416 0.2941757 0.22928642 0.14747679 -0.33695403 -0.26375246 0.002630109 0.07613133 -0.2471883 0.2827995 0.053820018 -0.08103347 -0.16454448 -0.32170317 -0.25123495 -0.037432663 -0.14616911 0.28540745 -0.17457458 -0.12318768 -0.2528674 -0.36270586 -0.3114551 -0.24701737 0.30406272
955 0.2018604 -0.2075827 0.17220362 -0.26884836 0.26387492 -0.14657304 0.19522408 0.18245938 0.2170889 0.1803524 0.18606415 -0.23343539 -0.2737317 -0.026280962 0.059015058 -0.20933303 0.2771544 0.10198959 -0.050609678 -0.100168906 -0.30321783 -0.19464207 -0.048550352 -0.17286164 0.33872834 -0.17277743 -0.04687703 -0.23752064 -0.35582665 -0.30192703 -0.17529246 0.14899114
341 0.14065118 -0.21862493 0.11517399 -0.19429345 0.23025836 -0.10259362 0.2645958 0.092161514 0.22769232 0.2032158 0.11943103 -0.29505393 -0.15268707 -0.062429585 0.080764584 -0.24907665 0.20944557 0.074133664 -0.064544484 -0.065523945 -0.36431822 -0.11951412 -0.08517523 -0.13148068 0.20211141 -0.16641772 -0.1682857 -0.16223231 -0.30496857 -0.19358511 -0.12577274 0.231113
1555 0.27685663 -0.21704973 0.15573758 -0.16957211 0.23414323 -0.1321529 0.18570974 0.21638593 0.2889634 0.18415715 0.18917666 -0.26763687 -0.24877462 0.101395674 0.358714 -0.059066672 0.22404018 0.2806031 0.047077827 -0.20296757 -0.18041483 -0.106365345 -0.07154487 -0.24811648 0.23334892 -0.16654682 0.05317337 -0.13036487 -0.27631527 -0.27448785 -0.19864866 0.18346228
1619 0.18926518 -0.15323229 0.1117622 -0.16868334 0.19835013 -0.15420187 0.23478526 0.26114938 0.26032925 0.0839518 0.12749311 -0.2127237 -0.21494511 0.049704496 0.19456404 0.030283011 0.19375415 0.1728067 0.09748125 -0.08740258 -0.10229134 -0.15155354 -0.010150585 -0.20283128 0.18317555 -0.2393086 0.074413106 -0.18590336 -0.20211618 -0.2760256 -0.22301467 0.12589778
1575 0.10420815 -0.16672179 0.12694578 -0.13270815 0.11201667 -0.14140688 0.10516398 0.23746546 0.121765435 0.1340368 0.15785642 -0.24222426 -0.21359165 0.07873375 0.2785968 -0.029122151 0.24147205 0.24808694 0.0294956 -0.1323461 -0.14961898 -0.062953435 0.031618264 -0.16419372 0.116057046 -0.21345308 0.007241704 -0.17670062 -0.2818527 -0.26075116 -0.103223674 0.091177076
1600 0.15565623 -0.1846312 0.075467065 -0.098355405 0.19068316 -0.0827855 0.1277284 0.15367466 0.19769943 0.14376208 0.13353953 -0.0880545 -0.16096541 0.1292359 0.20614098 0.025145726 0.20548646 0.1272439 0.13698484 -0.14753105 -0.13156009 -0.09978388 -0.024337064 -0.15637079 0.173128 -0.15832782 0.054570846 -0.10799565 -0.15640898 -0.19121781 -0.14195144 0.1732842
1585 0.12852396 -0.2533182 0.21701887 -0.087001875 0.16346507 -0.101753004 0.17545624 0.13935056 0.22152731 0.14887723 0.19028907 -0.20946074 -0.2261267 0.050310496 0.28684863 -0.05016243 0.16636786 0.22300792 0.1329487 -0.15195341 -0.096759595 -0.11166162 0.008268285 -0.22999495 0.22041248 -0.18538105 0.056733865 -0.10573613 -0.22856061 -0.28626466 -0.1564177 0.17231558
1565 0.3087927 -0.20720062 0.16243891 -0.20496926 0.28384566 -0.014346714 0.19467159 0.109299734 0.27201045 0.20767136 0.25744706 -0.14602818 -0.24642518 0.13669716 0.31866732 -0.028984392 0.14272135 0.20890765 0.0852069 -0.2340907 -0.21645516 -0.17907633 -0.07939421 -0.21402632 0.21695165 -0.103832506 0.102571905 -0.08502849 -0.26109344 -0.21042095 -0.2456947 0.15789999
27 0.2832312 -0.22188629 0.17226732 -0.17404397 0.24125023 -0.26403216 0.2325564 0.30572087 0.21579203 0.14693955 0.13935135 -0.18008912 -0.30122727 -0.029114163 0.21260014 -0.15563107 0.30113232 0.117969304 0.025366345 -0.2020933 -0.1861787 -0.1433089 0.07675258 -0.26428345 0.15790753 -0.113273226 -0.10622554 -0.036709774 -0.17358296 -0.19434361 -0.09120077 0.18526037
43 0.38574716 -0.30536884 0.1792658 -0.33647922 0.47851822 -0.42763022 0.41799158 0.33265728 0.3337307 0.30112296 0.19417253 -0.31196165 -0.45470017 0.02701042 0.2416666 -0.19526495 0.43401104 0.07732363 -0.0046424954 -0.20872906 -0.33234882 -0.3092574 0.06828964 -0.28935695 0.23665409 -0.21809477 0.014584917 -0.24608225 -0.3216488 -0.27370048 -0.23963141 0.26504305
60 0.11389258 -0.16769366 0.17917474 -0.07159388 0.2050142 -0.14130758 0.17517872 0.20701827 0.21276625 0.11932009 0.036271844 -0.17207564 -0.20109281 0.08591715 0.18157691 -0.1611184 0.1733647 0.11876826 0.019821132 -0.15141131 -0.10566929 -0.07174042 0.0015896992 -0.20664522 0.1273368 -0.1589589 -0.15220828 -0.10164734 -0.15917991 -0.11492304 -0.13321994 0.1721002
85 0.29540932 -0.2222019 0.22410454 -0.26942316 0.31500173 -0.23445335 0.2074218 0.22892 0.3036775 0.2181207 0.25939608 -0.22886306 -0.37930977 -0.0018750187 0.14876673 -0.117012285 0.2676583 -0.025144657 0.03408639 -0.21298033 -0.29103795 -0.19774342 0.11058151 -0.26326743 0.20916738 -0.10724484 0.03459381 -0.13466878 -0.2174128 -0.20037179 -0.27751535 0.22980332
160 0.28456736 -0.3794224 0.17360264 -0.29713982 0.31407833 -0.23650469 0.26439825 0.23560971 0.31832603 0.2352714 0.2721983 -0.25378555 -0.3783081 0.09037845 0.12017134 -0.18396774 0.29665756 0.06281342 0.04201687 -0.15487625 -0.31065595 -0.14635839 0.110789746 -0.19916113 0.32836455 -0.22450413 0.0141233215 -0.12868315 -0.15888627 -0.14223665 -0.26096836 0.10814604
216 0.14779021 -0.040781662 0.1999026 -0.18189268 0.24386142 -0.18237017 0.33178124 0.21598643 0.29167834 0.33869344 0.06419532 -0.25302443 -0.33145502 0.23661833 0.08296182 -0.13778389 0.31359583 0.09090117 0.14709735 -0.0072894343 -0.23782188 -0.24502385 0.03352812 -0.19841139 0.2659661 -0.24256149 0.02847232 -0.17275377 -0.19698912 -0.20979941 -0.3081871 0.1070269
31 0.16733272 -0.08710487 0.20284195 -0.33977023 0.2604214 -0.2700828 0.35015866 0.20491938 0.32888746 0.40913954 0.07207406 -0.22349662 -0.37425354 0.24611999 0.2009035 -0.14535472 0.39667547 0.06034052 0.18054569 -0.23580511 -0.34146914 -0.27671087 0.005978573 -0.2610265 0.31523395 -0.33889994 0.00019748026 -0.20783246 -0.26257318 -0.40997913 -0.27743125 0.19790351
69 0.34413788 -0.3078065 0.22801371 -0.32659158 0.27168894 -0.3025746 0.2976964 0.23416226 0.3847561 0.2639776 0.10210272 -0.3427705 -0.3914994 0.25192475 0.19122222 -0.06776683 0.36676463 -0.0071725147 0.062433537 -0.15223405 -0.3622174 -0.38182488 -0.07156848 -0.2037805 0.3524283 -0.29881158 -0.026116997 -0.2703532 -0.32293484 -0.40221238 -0.22107369 0.20514372
70 0.063297585 -0.0922505 0.16487421 -0.19328147 0.17474002 -0.20248203 0.23383786 0.1657117 0.22917704 0.27100217 0.08667994 -0.14928223 -0.20400044 0.17387189 0.1438692 -0.0372953 0.31443647 0.19731589 -0.04232523 -0.11341663 -0.30970907 -0.23685358 0.023711529 -0.24463655 0.20112772 -0.26418456 0.07980468 -0.1518538 -0.21357135 -0.32608792 -0.27869177 0.1196058
221 0.15289912 -0.1473736 0.22753817 -0.1720813 0.2794881 -0.24884893 0.3031042 0.17105807 0.33088496 0.30064708 0.068026565 -0.31266442 -0.27899602 0.22034454 0.14006677 -0.19253175 0.40185457 0.1008717 0.16445193 -0.19070649 -0.3146692 -0.15872459 0.0068938727 -0.27624467 0.27344102 -0.33221158 0.04129327 -0.27284428 -0.270083 -0.30978304 -0.2485566 0.2033789
222 0.17741787 0.022611383 0.18373059 -0.1590765 0.25714302 -0.19990987 0.3167973 0.20981146 0.28208533 0.22775833 0.11375205 -0.22131799 -0.22650424 0.2137619 0.110956356 -0.06379144 0.2806708 0.019547945 0.08588433 -0.14357242 -0.22789662 -0.15812457 0.023380583 -0.3299753 0.19082135 -0.27211496 -0.026783584 -0.1759277 -0.2531729 -0.30753437 -0.29476497 0.18871447
223 0.116751775 -0.082363 0.20072329 -0.08302471 0.20766819 -0.19529963 0.21565971 0.15838997 0.24792355 0.1715008 0.052918922 -0.1678601 -0.30885136 0.21572523 0.10359167 -0.12760581 0.27113277 -0.010164954 0.070398316 -0.1309821 -0.2593961 -0.24179631 0.07280173 -0.111174464 0.23854001 -0.18563727 0.058816865 -0.13868596 -0.18694986 -0.19264695 -0.25418305 0.17516233
666 0.27796724 -0.25970745 0.18506765 -0.1938402 0.1902426 -0.12529986 0.2796589 0.19388363 0.26680556 0.20818232 0.044102333 -0.2499293 -0.27253082 0.20934288 0.2749452 -0.22942804 0.21600205 0.1664938 0.20597483 -0.11924495 -0.19800568 -0.19405907 -0.078620486 -0.15599479 0.24954203 -0.3367441 -0.03197763 -0.1670707 -0.2551864 -0.28087837 -0.20356132 0.23685716
124 0.18479095 -0.1508154 0.21964428 -0.24543667 0.20095085 -0.2643516 0.3271834 0.23933926 0.31623977 0.33511168 0.10956864 -0.25066382 -0.36329135 0.24644127 0.22590299 -0.098077945 0.38200969 0.097149126 0.081107534 -0.25556982 -0.30271876 -0.2506114 -0.016273962 -0.29184085 0.3514369 -0.21588898 0.0004755001 -0.20227964 -0.24685454 -0.3008927 -0.25669378 0.18268932
234 0.08564418 -0.041951418 0.2129578 -0.09492126 0.15525632 -0.2522838 0.2435758 0.1881746 0.2750744 0.30727035 0.0069141644 -0.21748988 -0.26507708 0.24584138 0.14306188 -0.099980436 0.34444454 0.042583678 0.14750618 -0.06972722 -0.23749015 -0.21153916 0.055710785 -0.2567255 0.16743 -0.24874666 -0.0073389704 -0.238016 -0.18623918 -0.22496608 -0.2977642 0.093329765
142 0.09598777 -0.10344322 0.06545739 -0.17475225 0.17779607 -0.158851 0.18064564 0.12389606 0.2605125 0.2889577 0.0837807 -0.16457728 -0.2333727 0.1634366 0.12751752 -0.2202519 0.2458576 0.0628912 0.19963361 -0.092009045 -0.21825217 -0.24109165 0.031035924 -0.1164417 0.19100747 -0.24585447 -0.045724418 -0.2143124 -0.086129956 -0.1941836 -0.2429321 0.14724155
247 0.17465311 -0.17203851 0.19960615 -0.19911508 0.2083579 -0.30498755 0.4219713 0.2410898 0.3702093 0.3410687 -0.010316886 -0.27841878 -0.4263805 0.2215986 0.22444038 -0.16595055 0.27549717 0.1069198 0.23604704 -0.021925336 -0.30599275 -0.28891826 -0.05848817 -0.31398496 0.32929707 -0.40464208 0.052982967 -0.33709776 -0.24089852 -0.1679256 -0.264286 0.21306647
399 0.23772323 -0.1729349 0.028291037 -0.23409484 0.3989717 -0.17049105 0.28184727 0.17531651 0.28300807 0.40621206 0.13106483 -0.33770743 -0.32472798 0.05093452 0.28980288 -0.1286477 0.3063131 -0.0067741866 0.19597077 -0.3139799 -0.29968324 -0.17356881 -0.1756621 -0.4132304 0.23831707 -0.1803777 -0.1174617 -0.35362744 -0.2477078 -0.26581216 -0.242994 0.2724958
416 0.19460122 -0.22620201 0.11400086 -0.23923272 0.30583724 -0.12418301 0.1547998 0.16446069 0.19895588 0.3465638 0.1976247 -0.15422171 -0.27591753 0.09065847 0.22539 -0.07477133 0.27757192 0.10427368 0.08338677 -0.18556571 -0.17324907 -0.14223868 -0.109359205 -0.21836649 0.14986774 -0.15447521 -0.042484 -0.23071437 -0.2045467 -0.24679959 -0.18956478 0.2429188
1497 0.29217836 -0.1689309 0.031223735 -0.21984655 0.22124316 -0.070709735 0.22172135 0.21856256 0.14790022 0.21203543 0.07725839 -0.2257961 -0.22857563 0.105321996 0.28038067 -0.15070526 0.22182184 0.1408295 0.09491096 -0.13383676 -0.14425509 -0.14899553 -0.08551634 -0.135081 0.19905168 -0.14354321 -0.08628491 -0.12630203 -0.12701349 -0.2720241 -0.21350732 0.17569232
1498 0.21620874 -0.24748984 0.04053224 -0.20024335 0.27196673 -0.03539214 0.24490447 0.33222353 0.289169 0.24283709 0.14851382 -0.29230165 -0.30649504 0.10483838 0.2615064 -0.19037868 0.30983788 0.0707141 0.012386352 -0.15513769 -0.27801082 -0.22862065 0.03154336 -0.24646285 0.32627067 -0.2995382 0.062448278 -0.26337492 -0.21387593 -0.3099737 -0.20889404 0.18842177
1509 0.27570367 -0.21369162 0.14932023 -0.3039783 0.3763504 -0.1566969 0.35967043 0.32621372 0.274693 0.31783646 0.2666308 -0.25381163 -0.21747434 0.030238274 0.3436963 -0.108008035 0.29340646 0.15567708 0.0054764375 -0.16511032 -0.3442936 -0.14782867 0.031311326 -0.3678009 0.15931824 -0.30127847 -0.05767576 -0.1885321 -0.26209766 -0.23828575 -0.20297389 0.19272336
885 0.14201328 -0.08119012 0.041937172 -0.06431135 0.09709162 -0.101116575 0.14963256 0.10033993 0.1100131 0.05212906 0.1747051 -0.16280754 -0.062906094 -0.013277688 0.2052286 0.025047649 0.09870369 -0.029295556 0.03236563 -0.04797477 0.0056621493 -0.08013805 -0.0073726345 -0.082063265 0.01338723 -0.14753668 0.0018968097 -0.13117576 -0.14901076 -0.19258961 -0.1570758 0.16273448
525 0.3455303 -0.25697824 0.19618185 -0.21172732 0.4386283 -0.1904771 0.32444745 0.34566945 0.28006417 0.3138734 0.1544377 -0.26561776 -0.35529467 0.0774861 0.27624148 -0.29479772 0.46682703 0.19906521 -0.008677126 -0.21092197 -0.28960508 -0.16696294 -0.038496863 -0.2832519 0.21128747 -0.2905196 -0.14798805 -0.29755518 -0.28547558 -0.49333 -0.209923 0.31526604
2312 0.27459812 -0.28131467 0.19921228 -0.30816638 0.25028688 -0.195752 0.38060454 0.3925448 0.28361565 0.32218674 0.3206597 -0.24834538 -0.21700425 0.051159125 0.29835165 -0.16101895 0.31782684 -0.0005314754 -0.08482571 -0.110804155 -0.3116228 -0.20088394 -0.0018532505 -0.34173694 0.1833309 -0.3000998 -0.025595117 -0.101720326 -0.33423856 -0.20923847 -0.25466275 0.23636974
14 0.21522182 -0.28688207 0.20072673 -0.25530487 0.20233054 -0.23580264 0.22057353 0.20763695 0.2445738 0.14430048 0.2937093 -0.1428127 -0.34148777 0.031087006 0.08614797 -0.09986016 0.26339948 0.09610848 0.0574852 -0.18567517 -0.20631886 -0.16628028 0.16458385 -0.29773664 0.17311276 -0.11071464 0.05048615 -0.07242666 -0.13231993 -0.24584028 -0.16234508 0.1518959
30 0.3076449 -0.29909688 0.08034822 -0.2474549 0.19328575 -0.23229873 0.27514923 0.1776392 0.20905179 0.30491072 0.12639782 -0.2507819 -0.26363564 0.021560544 0.12499492 -0.11277276 0.2253985 -0.04172519 0.1295083 -0.12665822 -0.25394237 -0.21289918 0.04232534 -0.14808531 0.15877692 -0.12675436 0.04344347 -0.104623154 -0.22572684 -0.12472189 -0.16780993 0.1440487
41 0.32108882 -0.22952633 0.10365883 -0.21384218 0.29815757 -0.08480668 0.29198715 0.1590338 0.2510196 0.23664555 0.12989563 -0.22563338 -0.2462727 0.12420986 0.09787067 -0.112448215 0.32322186 -0.038092755 -0.015670713 -0.18181232 -0.13376427 -0.14321971 -0.08558085 -0.20390274 0.18461123 -0.19464234 0.06612096 -0.20288312 -0.22122802 -0.3084587 -0.21225181 0.10132268
49 0.2332801 -0.1975768 0.12313289 -0.2363606 0.3152742 -0.26525578 0.30028185 0.12911531 0.0913327 0.18670544 0.1891904 -0.25016764 -0.27380034 -0.085110165 0.19067527 -0.14463814 0.20092411 0.12405419 0.08139225 -0.21063979 -0.2660838 -0.1859904 0.026272519 -0.20612076 0.19142519 -0.1844468 0.11072601 -0.14987311 -0.23636214 -0.11679441 -0.15980385 0.2042184
51 0.17581807 -0.168797 0.1343985 -0.24691397 0.27524143 -0.19512329 0.12739979 0.25775844 0.15837248 0.11122913 0.20871894 -0.1848796 -0.12080653 0.029090298 0.12232361 -0.050350316 0.19521858 0.16811933 -0.016876379 -0.06127062 -0.26374716 -0.17404479 0.049204014 -0.16414484 0.16990688 -0.17774099 0.0137373395 -0.23528364 -0.18107612 -0.04530925 -0.11623732 0.102566004
52 0.28488344 -0.12513249 0.24749263 -0.23140246 0.2733733 -0.2519974 0.29228106 0.19739981 0.24114044 0.2687585 0.122175395 -0.23496199 -0.25642288 0.14347878 0.19614325 -0.14894944 0.31308907 0.07767862 0.17989527 -0.19051051 -0.35843387 -0.31365168 0.007485648 -0.274396 0.20300128 -0.2862175 -0.013442284 -0.22851811 -0.19595297 -0.35339516 -0.2639315 0.1449453
654 0.12472277 -0.21300682 0.1580281 -0.12166171 0.2916701 -0.1831904 0.25510293 0.18177366 0.19019711 0.25191078 0.10301849 -0.15410092 -0.2222706 0.110714585 0.18188697 -0.04940344 0.20342956 0.017169617 0.018199308 -0.10508177 -0.19405563 -0.12562077 -0.007996226 -0.17483716 0.16516492 -0.18739988 0.08217975 -0.1485685 -0.10526189 -0.2873082 -0.1648138 0.16606219
58 0.24886571 -0.12766 0.0955491 -0.26813978 0.29480377 -0.18353228 0.26687858 0.18278225 0.20034264 0.17348908 0.20549661 -0.17508012 -0.29224327 0.02058705 0.19281256 -0.11905488 0.2838086 0.07039688 0.051611718 -0.19670798 -0.28676382 -0.19701932 -0.049786028 -0.12006593 0.15517935 -0.15920198 0.08968568 -0.10364095 -0.22438002 -0.29486498 -0.23640515 0.20123608
76 0.24190663 -0.28097716 0.20795058 -0.23020701 0.21581851 -0.31316504 0.20443942 0.17593913 0.2575274 0.146167 0.08401585 -0.2630655 -0.2783178 0.10027681 0.12553102 -0.049809776 0.26495022 0.031810686 -0.0022824537 -0.16558409 -0.21258081 -0.2153981 0.00958657 -0.23478599 0.1843458 -0.13402805 0.09940449 -0.05455827 -0.12186512 -0.20839263 -0.14840907 0.12982833
77 0.19207105 -0.2220362 0.08332545 -0.22731641 0.27747706 -0.11137024 0.2278248 0.23604073 0.2495046 0.22190918 0.22785985 -0.16921338 -0.21342908 0.006037256 0.1852562 -0.114010416 0.19623896 0.03474353 -0.06638499 -0.2432216 -0.210226 -0.13503501 0.16036575 -0.27961743 0.3045229 -0.22202004 0.030199286 -0.100349255 -0.17503159 -0.16553317 -0.12302882 0.22147673
1467 0.2229295 -0.09203957 0.3396138 -0.24104741 0.21263732 -0.42670012 0.50545824 0.27432072 0.3137001 0.3369026 0.17875837 -0.49010587 -0.502662 0.1828353 0.18323222 -0.057869233 0.26889312 0.08573357 0.3593869 -0.025432616 -0.2961166 -0.435345 0.111900926 -0.32099152 0.24614123 -0.5328497 0.19630472 -0.11249853 -0.40771788 -0.19751829 -0.42855102 0.12723964
397 0.19933929 -0.26662982 0.10699889 -0.3296193 0.34041825 -0.19513261 0.22196826 0.22264706 0.28539264 0.2811008 0.22161126 -0.24201576 -0.32280174 0.051003058 0.24806313 -0.31287912 0.36547017 0.06494796 0.10801027 -0.22571275 -0.24551827 -0.13867137 -0.08063924 -0.21945532 0.18707323 -0.2687444 -0.12614012 -0.24158838 -0.32552427 -0.2315774 -0.2280918 0.35311556
841 0.09880329 -0.1047548 0.05808653 -0.074435145 0.18551041 -0.18009809 0.0050782505 -0.017090857 0.16366361 0.13701537 0.18303761 -0.1640432 -0.25570953 0.093300216 0.123753145 -0.16797404 0.19673306 -0.024475215 0.1251656 -0.24069972 -0.19841555 -0.09698834 -0.14206325 -0.091521956 0.10569881 -0.13767084 -0.0024698665 -0.09674735 -0.1331308 -0.19294839 -0.133444 0.19766673
1746 0.19055803 -0.18381777 0.11604746 -0.23214665 0.26461193 -0.14058408 0.3580293 0.24689631 0.21541956 0.19081204 0.11553758 -0.21207912 -0.16834483 0.03969832 0.25752136 -0.11997875 0.20952334 0.18793336 0.08385155 -0.27177313 -0.21392879 -0.3688992 0.037193846 -0.2281834 0.14258486 -0.3031646 0.12793496 -0.13692358 -0.18515967 -0.24809311 -0.2845338 0.22490904
435 0.100702286 -0.23277478 0.11470538 -0.15797335 0.29358888 -0.22724377 0.14300382 0.1392807 0.25963458 0.158864 0.30265155 -0.17097333 -0.2545893 -0.0072802054 0.18948632 -0.27093738 0.31379664 0.1341123 0.06557943 -0.33284348 -0.23237725 -0.18773845 -0.09296687 -0.20124754 0.1363982 -0.24419041 -0.12526059 -0.19763918 -0.35488498 -0.30345878 -0.09095908 0.20009658
464 0.16175908 -0.3337764 0.07862951 -0.32272625 0.31273368 -0.26116082 0.23733893 0.24177589 0.3353787 0.15773664 0.28283814 -0.21963897 -0.16784514 -0.024284128 0.2568241 -0.27923107 0.32182562 0.15473215 0.06861698 -0.25279948 -0.41986185 -0.1904603 0.02953737 -0.2418101 0.2711277 -0.29224887 -0.13960522 -0.229787 -0.30701452 -0.2516665 -0.061955858 0.27496976
1663 0.36203474 -0.12187695 0.23297675 -0.15857853 0.24065992 -0.06266453 0.22351639 0.18710409 0.1969886 0.23056583 0.31320706 -0.3016486 -0.20659229 0.21621458 0.35593858 -0.459942 0.1655713 0.16126782 -0.063992694 -0.17059386 -0.31920934 -0.32081857 -0.15237956 -0.14850695 0.3884443 -0.32803527 0.12970468 -0.27633885 -0.23836637 -0.18404281 -0.18333144 0.15547526
485 0.18847409 -0.14162828 0.20026435 -0.22545156 0.21576579 -0.22071351 0.21880764 0.28745902 0.25990418 0.1780348 0.17570652 -0.2297327 -0.2323047 0.030436829 0.24723883 -0.20232159 0.2665277 -0.010598624 -0.08411843 -0.16578865 -0.24078895 -0.13847427 0.08274764 -0.23114862 0.17022488 -0.24789797 -0.0040535503 -0.16798095 -0.2108233 -0.096120246 -0.19461292 0.06362445
984 0.1476273 -0.12573561 0.18625714 -0.26970196 0.24901961 -0.12659188 0.15883133 0.09904541 0.22677772 0.19458096 0.21255071 -0.11166038 -0.18328065 0.024318192 0.16509709 -0.22165245 0.16465275 0.1461688 0.0040533273 -0.15567315 -0.21354361 -0.16884251 0.00029467716 -0.22315632 0.1781045 -0.21984348 -0.05549722 -0.15776797 -0.18199225 -0.14337087 -0.05071078 0.1873284
623 0.2257588 -0.30241394 0.12405247 -0.32885748 0.2548014 -0.08483468 0.26060912 0.36647287 0.26209 0.18493891 0.23913369 -0.3344889 -0.38329545 0.1061361 0.30107886 -0.05109665 0.3351153 0.08438507 -0.010315275 -0.18431357 -0.25967726 -0.20437393 0.07092812 -0.3376341 0.22054565 -0.21888234 -0.014216836 -0.095611386 -0.31847098 -0.31522915 -0.14695233 0.28520647
624 0.25305632 -0.2802231 0.088137954 -0.41881764 0.4345219 -0.053852495 0.34948397 0.4999929 0.3500417 0.17606758 0.25456232 -0.3861302 -0.3189769 0.21238609 0.25665453 -0.077074885 0.44874257 -0.018722428 0.009571793 -0.22136745 -0.3038252 -0.18969963 0.11663866 -0.3200913 0.29186907 -0.43882242 -0.024448607 -0.16708258 -0.4321279 -0.31954905 -0.13346921 0.43492526
531 0.16797274 -0.18191683 0.15718351 -0.3341594 0.28420183 -0.16313866 0.27386305 0.12255224 0.24701843 0.2452256 0.28589216 -0.27290967 -0.15327254 0.0150360335 0.19280851 -0.20358166 0.3299935 0.11676028 0.19054839 -0.16580479 -0.39097708 -0.27882117 -0.021927653 -0.20968167 0.2627227 -0.36942706 -0.103298806 -0.28964946 -0.28618318 -0.22323325 -0.018749202 0.2682474
856 0.081486925 -0.12988262 -0.031796057 -0.18453719 0.24138021 -0.13837813 0.05803846 0.107052855 0.2075161 0.2936397 0.096162826 -0.22798426 -0.18833552 0.10146092 0.18528944 0.003172108 0.13677877 -0.012528659 0.031909127 -0.2692859 -0.25435737 -0.11625642 -0.019504093 -0.28411007 0.107818484 -0.11191392 -0.053161845 -0.1965007 -0.13494095 -0.14164306 -0.1199869 0.11994092
2393 0.18394905 -0.14241986 0.0064015794 -0.25924468 0.31274247 -0.17527962 0.14295273 0.17181686 0.27694637 0.32059243 0.08216103 -0.24971744 -0.25932202 0.055494674 0.15723369 -0.12818225 0.31798768 -0.014519385 0.08812528 -0.31442052 -0.27669483 -0.23523782 -0.051977165 -0.2548338 0.09443619 -0.1346943 -0.057459 -0.1840383 -0.23120706 -0.17248237 -0.16133359 0.20100914
1311 0.16329819 -0.10895535 0.07437209 -0.21423225 0.20158571 -0.13751714 0.0751947 0.064242326 0.17470568 0.26782227 0.09038527 -0.15419547 -0.1924764 0.033917855 0.1939869 -0.018075654 0.15280679 0.09957541 0.12403884 -0.278088 -0.23677096 -0.10584619 -0.07703848 -0.19689357 0.0713891 -0.10136848 -0.07351386 -0.20307137 -0.19163448 -0.13980678 -0.12600821 0.121244915
0 0.14718431 -0.057968277 0.09546452 -0.13762814 0.20292115 -0.16715123 0.07474826 0.08314553 0.16755894 0.16456954 0.08081986 -0.10754833 -0.15354317 0.07030497 0.16123137 -0.053651996 0.16976012 0.032331087 0.09690426 -0.18098183 -0.19848561 -0.08933368 -0.098549426 -0.14129446 0.0808394 -0.0619321 -0.114166014 -0.22347715 -0.17979404 -0.123211 -0.21804267 0.15036894
496 0.23003303 -0.29571426 0.14054276 -0.2699235 0.38370067 -0.21037953 0.41012952 0.31173733 0.17533809 0.37448382 0.3175718 -0.33803672 -0.34078074 0.18611895 0.25631747 -0.19016899 0.23809111 0.223362 0.08068847 -0.20811658 -0.29476935 -0.31524548 0.12828629 -0.40780872 0.27643293 -0.26055017 -0.047768325 -0.21323363 -0.29084274 -0.3947991 -0.1076691 0.27035484
1036 0.14482062 -0.18014207 0.11097248 -0.11908685 0.24368313 -0.12376375 0.2623211 0.23766258 0.29645768 0.25500795 0.15023108 -0.2854882 -0.22550291 0.065261625 0.15735672 -0.08757726 0.23296784 0.15234539 0.018360518 -0.10026119 -0.22910237 -0.24418917 0.0019539448 -0.21447797 0.16955778 -0.2661952 0.12748685 -0.15561382 -0.23419854 -0.25721008 -0.16430847 0.19002886
1064 0.1638233 -0.09029097 0.018787434 -0.1502352 0.18494007 -0.08837338 0.3050695 0.29721457 0.35273147 0.18215907 0.29409522 -0.19657895 -0.2810868 0.117537744 0.2624591 -0.11826761 0.2906778 0.06537264 0.06433283 -0.16557378 -0.2967454 -0.2725226 -0.08522267 -0.21532157 0.2714314 -0.19914177 0.10087261 -0.17285344 -0.22070071 -0.18124767 -0.094548985 0.150837
2047 0.18220972 -0.15628327 0.04223227 -0.14729026 0.24651799 -0.11652901 0.2483335 0.14501952 0.1237056 0.16556175 0.22821635 -0.10254426 -0.18016076 0.038518008 0.11525869 -0.1260435 0.14254585 0.143016 0.04338671 -0.13103972 -0.17755833 -0.16058354 0.014543721 -0.20817761 0.1726983 -0.10653729 0.018017426 -0.07174413 -0.19089636 -0.1072875 -0.18095018 0.081982404
1174 0.29692042 -0.15298143 0.16639966 -0.15312298 0.14572866 -0.15323137 0.20554277 0.21335553 0.27329355 0.19162305 0.1472301 -0.21957847 -0.25268668 0.17843537 0.20583905 -0.1029009 0.30487636 0.07909329 0.09967835 -0.22272962 -0.25554106 -0.30563527 0.020419411 -0.1791926 0.23387724 -0.21490397 0.06827636 -0.058388665 -0.18083006 -0.12097539 -0.15386541 0.20537904
1176 0.1109321 -0.14845125 0.09782466 -0.20358063 0.3041032 -0.109637424 0.30723622 0.2657843 0.3078937 0.16742657 0.22620428 -0.27125677 -0.27148062 0.06862373 0.2582206 -0.20923561 0.24664672 0.20845889 0.059821337 -0.16879642 -0.2505817 -0.20005515 -0.12577857 -0.1738413 0.26249966 -0.25294828 0.07055634 -0.13729441 -0.17797227 -0.2742537 -0.13726552 0.17695898
1177 0.21033211 -0.15644784 0.11245887 -0.16614366 0.15488948 -0.1734422 0.24717604 0.22442324 0.26520145 0.20287976 0.2127704 -0.35065648 -0.25427383 0.097647384 0.24481939 -0.13003564 0.21381865 0.118654564 0.053181924 -0.1748331 -0.21174142 -0.19068941 -0.046077795 -0.14771979 0.19961289 -0.21956031 0.09590594 -0.1049638 -0.14296213 -0.23243469 -0.050624803 0.19507116
2113 0.27010056 -0.13731357 0.10964406 -0.031723943 0.17710528 -0.12769222 0.099415116 0.022722218 0.19525662 0.24230595 0.14381206 -0.20379956 -0.08299619 0.027281707 0.16064656 -0.17499694 0.14212704 0.005490567 -0.08473669 -0.16261397 -0.25252503 -0.18864954 -0.10324898 -0.12064254 0.21926829 -0.14436644 -0.08955095 -0.07583372 -0.16496643 -0.18972625 -0.04021517 0.020291267
2109 0.21674033 -0.085051 0.07295314 -0.044395078 0.10493363 -0.17090712 0.07238486 0.067194454 0.13300538 0.22856708 0.15705144 -0.12067284 -0.079105325 0.086076126 0.07306964 -0.07238726 0.1390301 0.090324044 -0.05113272 -0.075464636 -0.122241825 -0.18264495 -0.005912665 -0.15202904 0.15581706 -0.19299935 -0.014136628 -0.014484993 -0.052886464 -0.1530842 -0.08086141 0.12763122
1157 0.18962076 -0.1121702 -0.0088456655 -0.14334649 0.22152385 -0.06355239 0.1922614 0.053165067 0.2183864 0.136671 0.18679301 -0.23593701 -0.2468128 0.053650975 0.15479545 -0.17082627 0.08864355 0.042266104 0.032970253 -0.14435841 -0.14761321 -0.18104342 -0.04746773 -0.17893791 0.061309475 -0.09818334 -0.06849441 -0.08299325 -0.2143016 -0.16688552 -0.12122494 0.032556165
1673 0.30943364 -0.14088991 0.18616419 -0.123833686 0.1881604 -0.06360001 0.20378439 0.14142047 0.13472842 0.1784522 0.28430638 -0.2957423 -0.2841841 0.18150187 0.32070938 -0.42057183 0.21171203 0.2144256 -0.065226175 -0.20888245 -0.3300947 -0.3048014 -0.16988185 -0.18285657 0.43928552 -0.3019596 0.1505169 -0.24658686 -0.23060097 -0.21699631 -0.22714117 0.19351687
895 0.28326336 -0.22844803 0.05382799 -0.1407907 0.26439607 -0.1107057 0.26976538 0.2862962 0.17766798 0.15048054 0.17093869 -0.32932508 -0.26930276 -0.030979551 0.21010247 0.004323534 0.22793712 0.13586435 0.012045671 -0.10921081 -0.18722443 -0.12311857 -0.056569915 -0.22306806 0.25090015 -0.25706363 0.00031645212 -0.09677244 -0.2075925 -0.23884788 -0.16525695 0.17742781
1722 0.2280256 -0.19832487 0.17693514 -0.3128071 0.3587995 -0.22401665 0.3499138 0.30458486 0.23186168 0.24870723 0.1929391 -0.31183025 -0.28615057 0.021705942 0.37263468 -0.2602681 0.38982177 0.053267155 -0.009469605 -0.22192705 -0.27281418 -0.21380721 -0.043214805 -0.43223637 0.29985017 -0.3023418 0.13374954 -0.22269857 -0.2588851 -0.31148627 -0.30531257 0.2595915
1848 0.19078004 -0.13091856 0.1344127 -0.36491698 0.26149252 -0.16131681 0.19407341 0.3035421 0.20227943 0.26074645 0.1844626 -0.2357881 -0.2894453 -0.062178873 0.24160351 -0.09842181 0.29012656 0.044516034 -0.015020302 -0.24695933 -0.32668793 -0.14879182 -0.048342027 -0.2984437 0.20390084 -0.18216687 0.10814163 -0.104599886 -0.2558115 -0.24628401 -0.16350885 0.28183812
1832 0.2916527 -0.3418021 0.19356692 -0.28835464 0.30908823 -0.14408489 0.25742507 0.35106766 0.3721408 0.25714564 0.25053245 -0.24002896 -0.1683717 -0.054583464 0.3129581 -0.222181 0.34372294 0.22963107 0.045028724 -0.21003185 -0.3378977 -0.2570027 0.027458902 -0.38586685 0.3428323 -0.18176086 -0.006907917 -0.21107635 -0.20745249 -0.32639095 -0.18550402 0.1822802
1867 0.017653042 -0.030314872 0.004337894 -0.10541797 0.14846402 -0.025731022 0.040104646 0.123554625 0.12144609 0.0048778686 0.019799469 -0.015654188 -0.024576126 0.09715406 0.057436444 -0.10916227 0.065186396 0.10623496 0.01963189 -0.0979788 0.0033254884 -0.06496557 0.029659575 -0.08586949 0.115732916 -0.06314216 0.016411299 -0.026539687 -0.05752843 -0.06921112 -0.045292247 0.105320804
2330 0.35143262 -0.31125262 0.2408812 -0.3147179 0.33004817 -0.06060618 0.25125048 0.18958284 0.17901318 0.30380854 0.26627836 -0.3654044 -0.3060148 0.2887962 0.3708433 -0.30903858 0.18236473 0.24731708 -0.056630917 -0.15273586 -0.44115925 -0.21267112 -0.21940881 -0.19580856 0.35231143 -0.3410924 0.12537764 -0.24133691 -0.19912288 -0.23735076 -0.2672914 0.21355641
1607 0.25223365 -0.18756881 0.2446123 -0.21162175 0.2632953 -0.061370723 0.21559691 0.19858222 0.14497875 0.2263077 0.19509806 -0.29069626 -0.20426235 0.23594502 0.288732 -0.32515067 0.14300157 0.22680959 0.023505805 -0.16245203 -0.20610148 -0.1989654 -0.13960038 -0.112344004 0.37853387 -0.30737945 0.028810373 -0.31190678 -0.18375418 -0.2080536 -0.18991764 0.16790275
433 0.16916253 -0.2894771 0.17398104 -0.18092026 0.34739885 -0.21161664 0.25640234 0.26711404 0.21859178 0.14510621 0.32107195 -0.28016093 -0.23019685 0.07250612 0.2908134 -0.28570166 0.2932465 0.16972226 0.18553193 -0.25798967 -0.4125848 -0.22647454 -0.010866628 -0.22062497 0.2630602 -0.23939538 -0.045559905 -0.29627863 -0.26140666 -0.2990631 -0.041007813 0.26579985
437 0.3114464 -0.22398077 0.180698 -0.18507537 0.20075808 -0.075294696 0.23281664 0.1268097 0.21581107 0.12810306 0.17552549 -0.2625234 -0.24265501 0.086653255 0.1575605 -0.12623148 0.20831974 0.17885435 -0.025993336 -0.094952635 -0.18057701 -0.104868494 -0.15932655 -0.21459351 0.16493456 -0.21644045 0.002566834 -0.243491 -0.15059383 -0.23945348 -0.2384837 0.16521576
1638 0.33022025 -0.25041175 0.26414722 -0.22004312 0.28966933 -0.1086243 0.25331697 0.17798778 0.26268065 0.27685735 0.3367292 -0.39974174 -0.26996347 0.2709147 0.39817753 -0.47056568 0.16218401 0.3169029 -0.026951103 -0.20973189 -0.339556 -0.24624784 -0.26194382 -0.14412458 0.4251029 -0.32635075 0.15923023 -0.36491364 -0.25051644 -0.31325412 -0.24223761 0.23166552
1637 0.33105254 -0.27559617 0.27210638 -0.16328338 0.2775047 -0.097197756 0.29531476 0.18342622 0.25034377 0.19798623 0.41061926 -0.34644714 -0.29872307 0.3328412 0.41345412 -0.4444077 0.16560021 0.39152995 -0.009149306 -0.17090161 -0.28922033 -0.2816435 -0.20799576 -0.18337668 0.46370277 -0.31269863 0.12457884 -0.38886452 -0.19583672 -0.23083283 -0.2517606 0.19396643
1658 0.2764219 -0.26872316 0.27016875 -0.16194828 0.31807986 -0.049938444 0.17542584 0.17939124 0.23214804 0.19184402 0.1567333 -0.34210357 -0.18373719 0.15963416 0.27842698 -0.27433667 0.1735036 0.15852804 0.07539332 -0.17394021 -0.27997443 -0.2594895 -0.15115449 -0.14261623 0.3120236 -0.29623336 0.04250465 -0.270493 -0.21041417 -0.26199162 -0.2011221 0.15182525
1645 0.30761614 -0.26831856 0.13796566 -0.21378615 0.2777694 -0.030071927 0.2690213 0.24852334 0.2653918 0.22238258 0.23081179 -0.40716514 -0.36796403 0.25726983 0.39730307 -0.3802202 0.20366749 0.2577712 -0.043972597 -0.238345 -0.34338263 -0.34770158 -0.24713552 -0.22131196 0.44484434 -0.32228896 0.16564152 -0.24841756 -0.1900538 -0.22957014 -0.19893153 0.14833018
1646 0.2746139 -0.2143532 0.15041406 -0.22146627 0.3008823 -0.029121973 0.2539148 0.15050219 0.25650942 0.22033228 0.280836 -0.35529643 -0.29838428 0.16920862 0.34882894 -0.471949 0.14801379 0.2802187 -0.047462426 -0.13713932 -0.3348955 -0.24992257 -0.16987023 -0.16595337 0.31721812 -0.3032333 0.112824515 -0.30914637 -0.2487398 -0.25271505 -0.22963552 0.26452655
1648 0.3464248 -0.20841563 0.28474903 -0.19526818 0.30235022 0.010178771 0.2561789 0.18314229 0.19129764 0.22137931 0.2685605 -0.3899363 -0.31493646 0.30888066 0.42242432 -0.42583686 0.18461303 0.35671353 0.027472163 -0.17696041 -0.39323157 -0.28570274 -0.15788725 -0.14678594 0.40569574 -0.34342575 0.10342791 -0.31244263 -0.26446652 -0.15544249 -0.1761456 0.19507612
1647 0.3567292 -0.32217357 0.21657863 -0.30235082 0.34479934 -0.04972243 0.28008384 0.17769897 0.2939614 0.22561662 0.39956445 -0.41449437 -0.29024816 0.30491745 0.43560967 -0.45540258 0.2229461 0.3681821 -0.09579319 -0.27712512 -0.44157284 -0.32554966 -0.19276246 -0.25807935 0.48686412 -0.37646765 0.21943615 -0.27085358 -0.2003956 -0.27529213 -0.2170003 0.13028331
1653 0.3641169 -0.18509139 0.14354691 -0.26853704 0.27888224 -0.030975465 0.15691218 0.24581367 0.31562385 0.26444578 0.41998935 -0.40061498 -0.25678113 0.2983731 0.38837215 -0.31512976 0.17670058 0.3147014 -0.08487299 -0.19476217 -0.35698467 -0.26062888 -0.2024428 -0.24541596 0.3959886 -0.3138611 0.12135072 -0.2854717 -0.16347472 -0.28903905 -0.24382398 0.16796848
1660 0.31614843 -0.2673755 0.31123635 -0.25459388 0.28512874 -0.08685325 0.17626867 0.14831713 0.19580238 0.19085872 0.24745545 -0.3054528 -0.25078797 0.19053148 0.26895282 -0.3526863 0.121658504 0.221537 0.0037324592 -0.15609834 -0.25594875 -0.16188999 -0.18962754 -0.12465997 0.3461384 -0.32204154 0.10249752 -0.2800988 -0.19801229 -0.23695031 -0.18597198 0.1784789
2112 0.16628075 -0.17077142 0.011156576 -0.12345753 0.18729381 -0.13296086 0.20968923 0.12790321 0.20249298 0.22799028 0.20493184 -0.15817688 -0.32295188 0.08044402 0.1386088 -0.25257528 0.15821822 0.113502756 0.02155379 -0.14813232 -0.17320345 -0.09711292 -0.010087603 -0.31540316 0.18357638 -0.23302175 0.12060429 -0.1659491 -0.1311089 -0.21742001 -0.06283877 0.067913726
2130 0.1795334 -0.11630592 -0.0025805135 -0.10366401 0.20039913 -0.19059148 0.20968066 0.14957416 0.17292878 0.18793114 0.17062254 -0.12519263 -0.15592656 0.006062918 0.22003336 -0.19155733 0.1960173 0.051623188 -0.047160823 -0.050011836 -0.16504233 -0.10566794 0.007454467 -0.26391876 0.1818101 -0.19328564 0.071104854 -0.16177975 -0.12669007 -0.21510684 -0.07930796 0.1841429
2134 0.053042803 -0.062573016 0.020757692 -0.07649349 0.1457055 -0.15225548 0.2062542 0.16410077 0.16502587 0.23048367 0.11976985 -0.048768297 -0.22514644 0.014150671 0.11902836 -0.14711519 0.15683866 0.08951496 0.06588494 -0.116747536 -0.16956583 -0.08327709 -0.08289467 -0.28808433 0.09165983 -0.23007871 0.0995249 -0.21492665 -0.10978654 -0.13457768 -0.09532548 0.17892343
2148 0.23234458 -0.37417504 0.18638958 -0.22405563 0.3747341 -0.30532166 0.28091425 0.25517008 0.32005453 0.29525283 0.32693183 -0.2862525 -0.26137435 0.025317622 0.19690372 -0.21247922 0.38925537 0.020920685 -0.11633153 -0.18847784 -0.38472807 -0.12506655 0.17756861 -0.378234 0.2324958 -0.20046085 0.02774785 -0.17287055 -0.24197307 -0.37767056 -0.12998195 0.110474445
2126 0.21446261 -0.28013325 0.11044151 -0.20837177 0.25503793 -0.2124334 0.27401456 0.16882153 0.27560204 0.19026299 0.31853348 -0.18561539 -0.30546564 -0.093923844 0.28895578 -0.2899851 0.3355995 0.0043634023 -0.07996921 -0.123311155 -0.3013064 -0.24251609 0.1152758 -0.3714255 0.1831762 -0.12647714 -0.14188859 -0.19103229 -0.23735648 -0.30635267 -0.1522083 0.04678901
2139 0.17219426 -0.21474056 0.095625 -0.20858146 0.2503291 -0.19363473 0.3032276 0.30896547 0.29434672 0.13420421 0.33262125 -0.21541609 -0.30282557 -0.046918657 0.20899841 -0.2056458 0.23556405 0.042895377 -0.1428041 -0.23000151 -0.22464676 -0.20123824 0.108122736 -0.18308315 0.22479804 -0.14608154 -0.012397018 -0.24590206 -0.23841181 -0.2218786 -0.2126408 0.0164521
2153 0.19483829 -0.10822275 0.20547369 -0.07006282 0.18611576 -0.09705221 0.093817875 0.18089977 0.081397094 0.10871527 0.09132323 -0.081592895 -0.12470889 -0.06297442 0.041991387 -0.05376189 0.20070611 0.013882671 -0.09730851 -0.14703129 -0.19676302 -0.037098166 0.013827085 -0.16300929 0.21075234 -0.11751577 -0.0047658463 -0.12835594 -0.13183329 -0.19213997 -0.13620777 0.10944246
2174 0.23909327 -0.3681404 0.10714322 -0.15630177 0.34062225 -0.30640164 0.18624032 0.17356132 0.27315417 0.17105758 0.23036584 -0.21071567 -0.21848124 0.1720367 0.12870021 -0.2052377 0.2941866 -0.00084009103 -0.1575419 -0.17539518 -0.36951175 -0.13857256 0.08527685 -0.33750716 0.23971695 -0.14648438 0.1356634 -0.16218118 -0.19735518 -0.35348022 -0.14819242 0.08838136
457 0.20990491 -0.14419696 0.15124461 -0.2720156 0.3384869 -0.102264635 0.24576512 0.29047462 0.24492444 0.16757491 0.19753693 -0.21090183 -0.39864156 0.08895862 0.1997344 -0.173703 0.35581756 0.11709148 -0.01054805 -0.26401544 -0.21907444 -0.18237573 0.07116643 -0.28266582 0.3088033 -0.2402803 0.15220168 -0.19923835 -0.23059912 -0.3002278 -0.12808669 0.2496181
2197 0.22987756 -0.21145768 0.2697232 -0.17114495 0.2934396 -0.29751173 0.28112787 0.21866418 0.2985113 0.21099961 0.3600188 -0.26662943 -0.33809987 -0.010997622 0.21776856 -0.34042957 0.35412756 0.10200382 -0.15811357 -0.2786218 -0.38932562 -0.16174398 0.14063121 -0.35725275 0.16404098 -0.22521679 -0.0052436856 -0.27117077 -0.31069696 -0.33071256 -0.19995914 0.0239022
2199 0.15592588 -0.33589664 0.16574182 -0.17226626 0.3726968 -0.22221608 0.17642872 0.2764136 0.2211141 0.25736097 0.24037194 -0.14059088 -0.19225362 0.016993754 0.06768404 -0.1807988 0.2852459 0.1066152 -0.08591385 -0.13585049 -0.26665974 -0.17495896 0.09794046 -0.35741368 0.074681334 -0.19356291 0.055446237 -0.017270088 -0.27788118 -0.40480924 -0.042643502 0.039828323
2200 0.11787994 -0.2909614 0.13419825 -0.0734802 0.15295514 -0.10053498 0.16251089 0.13722312 0.14808032 0.11926352 0.14790274 -0.19036797 -0.15498626 0.07907032 0.09854366 -0.20872407 0.22586247 0.036653996 -0.0712917 -0.1897939 -0.28446597 -0.11522277 0.099273674 -0.2196202 0.14560483 -0.096236125 0.010089122 -0.09461542 -0.10719445 -0.27704826 -0.08242617 0.18416499
2252 0.18693796 -0.34645838 0.16192299 -0.12300508 0.2456433 -0.17643005 0.17794704 0.17782845 0.24536508 0.16739479 0.07667533 -0.20343153 -0.20163558 0.01828622 0.19363946 -0.2009109 0.24585462 0.024285708 -0.15377827 -0.1665339 -0.29601133 -0.0926984 0.08143246 -0.20888059 0.18492275 -0.11084301 0.08816154 -0.17447133 -0.14715293 -0.2891056 -0.08840958 0.14784674
2293 0.22849925 -0.2834709 0.26085392 -0.13170676 0.4060617 -0.26044312 0.19054769 0.2613606 0.2580772 0.21659361 0.24418826 -0.23511796 -0.19110203 0.04205576 0.16092052 -0.15704502 0.2801973 0.16972484 -0.04833437 -0.09711624 -0.18431853 -0.12832484 0.06920003 -0.41089362 0.14932176 -0.20685922 0.07863886 -0.14735496 -0.23232539 -0.3531349 -0.07540208 0.014415526
2296 0.26821923 -0.36281288 0.1905557 -0.14184073 0.3479806 -0.27713457 0.20265564 0.33469406 0.23240143 0.22569701 0.3005489 -0.21136072 -0.22990647 0.06625289 0.12595683 -0.27458653 0.3238812 0.099930204 -0.1957493 -0.12470124 -0.29911694 -0.16986822 0.04852444 -0.43702376 0.12249248 -0.26881582 0.013437384 -0.12628433 -0.3674745 -0.38371757 -0.116409115 0.06972712
2297 0.18546957 -0.27965087 0.31104383 -0.13636577 0.32582104 -0.23240703 0.16195276 0.2588011 0.18678752 0.26041362 0.29246986 -0.15076604 -0.18990755 0.08161212 0.12390702 -0.2223699 0.21868677 0.202401 -0.12276064 -0.16576628 -0.23968479 -0.08745851 0.05648382 -0.39143297 0.0780806 -0.17997828 0.066550046 -0.018289056 -0.2804466 -0.28248417 -0.098835394 0.0502311
2303 0.18726388 -0.2128425 0.2632541 -0.09885238 0.33201343 -0.18533078 0.13639323 0.25269982 0.16023232 0.23763743 0.26458216 -0.15435846 -0.18724453 0.020708783 0.14778735 -0.16571769 0.28455922 0.14116009 -0.15523487 -0.088680066 -0.2900381 -0.11916309 0.102057494 -0.34280112 0.09283382 -0.09576243 0.064950414 -0.06422669 -0.2722639 -0.2923033 -0.06304428 0.086737044
2288 0.2982496 -0.36398393 0.11089464 -0.26901075 0.40595493 -0.32380483 0.39585897 0.25567827 0.37175664 0.28773528 0.45041907 -0.22819999 -0.292754 -0.0067075896 0.2505874 -0.35384804 0.26160994 0.0486281 -0.12341652 -0.21716946 -0.35340208 -0.20965976 0.19211745 -0.33083865 0.18038686 -0.33286014 -0.023146937 -0.065068856 -0.25718835 -0.39893493 -0.26218247 0.044561915
2315 0.14112172 -0.21525036 0.1767145 -0.08157132 0.2298715 -0.20199719 0.15214506 0.15407096 0.19174951 0.14821455 0.26097602 -0.12215463 -0.17147848 0.10575029 0.07093873 -0.15302627 0.22523376 0.1070305 -0.0890063 -0.1858661 -0.2582201 -0.159855 0.08062608 -0.3155339 0.09519293 -0.131936 0.06115096 -0.09072279 -0.1399367 -0.341047 -0.11866831 0.123751305
1016 0.24694023 -0.1967793 0.14384568 -0.14044066 0.29341358 -0.116059445 0.16442253 0.1992764 0.19688329 0.15601224 0.15019749 -0.13105547 -0.16813987 0.12633216 0.2149503 -0.104285575 0.14707862 0.02898102 -0.0035097227 -0.11048768 -0.23011234 -0.101907134 -0.15171632 -0.19197233 0.18831462 -0.13848971 -0.020922579 -0.084023386 -0.22783677 -0.20960437 -0.17140324 0.09900935
1574 0.27001065 -0.23164244 0.17413579 -0.08017205 0.27407515 -0.15879142 0.19774888 0.18135504 0.21835138 0.14619732 0.22582978 -0.20101406 -0.17840151 0.014216469 0.28529447 -0.08795216 0.171451 0.013641195 -0.038682353 -0.118850105 -0.2077475 -0.19113751 0.013468147 -0.15055741 0.18883309 -0.20422171 0.16284753 -0.08405751 -0.22588858 -0.19675504 -0.16589044 0.092015654
1576 0.17614794 -0.17038397 0.13216835 -0.11918582 0.19038537 -0.15797377 0.17333876 0.17708744 0.18657222 0.1733932 0.14988348 -0.11493535 -0.10953849 0.047809426 0.12306683 -0.027369818 0.19140813 0.09723491 0.019639852 -0.11841732 -0.1936618 -0.14520568 -0.019923408 -0.11148171 0.21846828 -0.1117847 0.12203875 -0.023053115 -0.15376309 -0.091845326 -0.13047116 0.04873849
1583 0.2680927 -0.15988652 0.09963204 -0.12540594 0.3148067 -0.16060632 0.24499536 0.15906514 0.262336 0.22178422 0.1067911 -0.22223963 -0.14831698 -0.0146753695 0.18685566 -0.107768096 0.12438324 0.079606876 0.059893068 -0.17214826 -0.21572691 -0.13738726 -0.069583535 -0.12075497 0.18089065 -0.24955788 0.08562464 -0.081071936 -0.19317941 -0.21150002 -0.22376093 0.18169364
982 0.2886686 -0.14690629 0.14188881 -0.14629531 0.2522501 -0.23361163 0.22893421 0.32948205 0.15889221 0.19615828 0.18453306 -0.29603443 -0.21169184 0.05658917 0.16643898 -0.09216923 0.2559927 0.030480811 0.13963251 -0.12132268 -0.2875603 -0.24717021 -0.0973619 -0.32072803 0.2800055 -0.23324563 0.017236948 -0.14362791 -0.25179094 -0.3483218 -0.160562 0.18037267
42 0.23327531 -0.050035145 0.025871022 -0.104448244 0.15200749 -0.106049396 0.20682682 0.06518662 0.21338753 0.072317414 0.17740953 -0.15908045 -0.10177273 0.004615551 0.099192455 -0.119336 0.15925929 0.029924791 0.04708665 -0.20260926 -0.17006306 -0.11376619 0.011400381 -0.19314015 0.13348079 -0.19582267 0.01474838 -0.06920996 -0.13543786 -0.15652452 -0.12029976 0.18023245
47 0.34025127 -0.13926281 0.13111836 -0.39885864 0.37870833 -0.18048671 0.36248976 0.19330154 0.18057224 0.15231454 0.33810875 -0.19427423 -0.36617425 0.040792897 0.22770798 -0.15079819 0.2759403 -0.0076170913 -0.1238492 -0.21211728 -0.33403203 -0.28227803 -0.1074563 -0.22327086 0.2781264 -0.31061444 0.027701503 -0.17730948 -0.24747987 -0.2975205 -0.12225774 0.29273033
1641 0.4027719 -0.16107063 0.16961752 -0.20198464 0.27131373 -0.110273905 0.20615877 0.16102305 0.23056354 0.17219317 0.38988036 -0.3392751 -0.2840029 0.21886317 0.43556622 -0.40689334 0.16330183 0.27606314 0.031732325 -0.22549562 -0.3987943 -0.2820403 -0.12755346 -0.30562243 0.33653772 -0.34293145 0.09445308 -0.23967959 -0.26190877 -0.24726044 -0.25664252 0.16878422
497 0.31543675 -0.2134328 -0.025204664 -0.17681566 0.20128019 0.010560549 0.24442059 0.22530434 0.2558618 0.1572264 0.20149241 -0.3100414 -0.19015476 0.10417801 0.23649666 -0.17386226 0.16590478 0.10618488 -0.044832654 -0.17804705 -0.25519514 -0.1980706 -0.019705651 -0.27861723 0.28340322 -0.22338527 -0.010753023 -0.20087482 -0.2134253 -0.2320094 -0.21499963 0.12223737
32 0.17612156 -0.20684174 0.1995449 -0.29110992 0.42825922 -0.2562356 0.34294152 0.1509762 0.23767672 0.16334182 0.34615502 -0.16585258 -0.2811945 0.048411563 0.11565802 -0.14475113 0.2705112 -0.037212852 -0.023116885 -0.15841275 -0.3267492 -0.23685697 0.011306876 -0.29886523 0.2576618 -0.22261482 0.16315345 -0.123449214 -0.15114243 -0.26024097 -0.13673227 0.26413277
136 0.24046333 -0.21965797 0.18461101 -0.38568184 0.33474314 -0.116168596 0.32425296 0.20807412 0.23614134 0.25676754 0.20529369 -0.22533947 -0.32482588 0.06568573 0.11174886 -0.12538531 0.32988563 0.08218346 -0.013485864 -0.15574922 -0.27451473 -0.13788278 0.06189814 -0.23176931 0.20881198 -0.1894464 0.060621705 -0.11736752 -0.19036083 -0.21323372 -0.21946801 0.12374935
146 0.30008367 -0.12927333 0.20892069 -0.32364836 0.35646963 -0.17361459 0.36223036 0.24385066 0.25258407 0.246534 0.23095882 -0.20755969 -0.2715458 0.13677831 0.14538364 -0.1400013 0.26790437 0.13034384 -0.11561879 -0.26330343 -0.31504843 -0.20045264 -0.063925944 -0.28840733 0.24707676 -0.23493601 -0.007219105 -0.2225812 -0.23331709 -0.37456372 -0.16154268 0.30855706
1896 0.06258574 -0.1463225 0.032589052 -0.15688272 0.15838158 -0.12144506 0.20150991 0.24520013 0.15421046 0.12053167 0.19897576 -0.11390614 -0.13102044 0.08939493 0.18273915 -0.21557319 0.2209313 -0.0026714925 0.020570183 -0.031696185 -0.22552608 -0.17906679 0.025336746 -0.16730052 0.10529517 -0.15272428 0.022296978 -0.08399718 -0.15970322 -0.1624215 -0.15516244 0.061853256
2101 0.17909369 -0.25722843 0.09004193 -0.21422678 0.26336086 -0.155667 0.2596991 0.2318375 0.24596402 0.24983713 0.25287053 -0.2521753 -0.2012463 -0.019490607 0.29096243 -0.32216766 0.29231763 0.023300624 -0.08930038 -0.059860032 -0.21220611 -0.24659717 0.09447633 -0.23186031 0.19381928 -0.12285183 -0.06750455 -0.1267153 -0.20090139 -0.3139523 -0.19045906 0.04649645
1517 0.16727796 -0.10180112 0.17334199 -0.21676116 0.104348265 -0.11814417 0.2024443 0.20618743 0.33449075 0.1619078 0.15796651 -0.28330275 -0.2953157 0.1665601 0.20593579 -0.2272679 0.24586715 -0.009567829 -0.10658935 -0.13957469 -0.16447036 -0.16662414 -0.0053010415 -0.27022454 0.14661288 -0.26842076 0.013836306 -0.15953192 -0.22987664 -0.20412469 -0.05869393 0.1469726
510 0.2362238 -0.20201851 0.14919001 -0.22229205 0.33264613 -0.15295154 0.24514697 0.30411208 0.23422895 0.27400705 0.31237572 -0.3287342 -0.2932969 0.11996709 0.30939654 -0.3056184 0.296339 -0.0028635187 0.027938293 -0.16391504 -0.24121244 -0.20442829 0.0058189956 -0.3617698 0.23023263 -0.28207242 0.0809451 -0.18143885 -0.24899273 -0.3705994 -0.107362986 0.21880446
2147 0.20385723 -0.1388913 0.18376838 -0.2650355 0.14825535 -0.13459364 0.28848544 0.22084388 0.24290472 0.27482873 0.2084924 -0.23899983 -0.118979834 0.104845814 0.23405886 -0.15373532 0.1831778 0.07362665 -0.061658666 -0.07158241 -0.22879203 -0.13480476 0.034063566 -0.23854128 0.09401137 -0.17400974 -0.012506376 -0.05205461 -0.20959884 -0.13142602 -0.10800345 0.091157295
1621 0.3710317 -0.21472265 0.11456389 -0.27936998 0.29699177 -0.0048791687 0.24259031 0.1658026 0.3090006 0.17051278 0.29290658 -0.37162519 -0.3148957 0.19742095 0.34512788 -0.41198695 0.17250416 0.23358399 -0.113474354 -0.19844882 -0.28632045 -0.266757 -0.21377964 -0.23235895 0.43127576 -0.2966585 0.104202196 -0.30976123 -0.20301336 -0.29267165 -0.15104236 0.19630514
419 0.15820229 -0.2850905 0.08658132 -0.18239652 0.19895999 -0.15075049 0.24018393 0.24169792 0.32212374 0.17620616 0.2458473 -0.25279722 -0.13300323 -0.009424496 0.27916282 -0.2883561 0.23709548 0.21869889 0.085372455 -0.2762363 -0.30542535 -0.13426097 -0.019302683 -0.2400915 0.29544544 -0.33009583 -0.1445316 -0.21647628 -0.3483687 -0.23400426 -0.01031766 0.2094305
1525 0.3297781 -0.32091808 0.21086417 -0.2553522 0.458518 -0.21079704 0.2758217 0.22223933 0.37734756 0.3409212 0.27474615 -0.31563443 -0.33213648 0.081782244 0.28271127 -0.21822932 0.33261248 0.039688602 0.07384187 -0.21300815 -0.36064243 -0.22733301 -0.0064211222 -0.44801977 0.23003584 -0.3979182 -0.025490707 -0.1349596 -0.2395042 -0.39679185 -0.14711453 0.21682604
721 0.14821798 -0.14045213 0.14020205 -0.16987081 0.12609386 -0.046181843 0.1614858 0.18069257 0.16918015 0.18306625 0.21451025 -0.17767136 -0.09056305 0.056948446 0.22905779 -0.12769198 0.1839554 0.12151243 -0.050232682 -0.10014836 -0.14936031 -0.14255182 0.014973268 -0.13720182 0.0145790195 -0.21422862 0.0673237 -0.1544723 -0.0743769 -0.13083525 -0.17088945 0.11211686
793 0.15632598 -0.17578137 0.06567636 -0.17726506 0.24960229 -0.14103855 0.13102618 0.22101825 0.30238414 0.19815725 0.15502349 -0.10352919 -0.17809725 0.067032576 0.10134586 -0.14975931 0.22936524 0.1772767 -0.049049027 -0.15136778 -0.14323725 -0.15818024 0.011802755 -0.20389038 0.14532168 -0.14265259 0.041778214 -0.060830224 -0.08911879 -0.16211578 -0.027584061 0.059763823
918 0.23968317 -0.14560711 0.11271152 -0.16124925 0.1844424 -0.13792305 0.1256217 0.22538409 0.23862681 0.14133441 0.2674203 -0.185743 -0.109373555 0.18976067 0.18175295 -0.22631025 0.11087366 0.15703762 0.029305296 -0.19700107 -0.24117738 -0.101731755 -0.025639052 -0.16055517 0.17249385 -0.23153044 0.020657923 -0.16896796 -0.15802036 -0.23131368 -0.09539966 -0.024887482
1530 0.30505395 -0.112630665 0.120249026 -0.25698358 0.2618605 -0.06325166 0.1721212 0.18456471 0.2074914 0.16157481 0.28093404 -0.29484916 -0.14086358 0.021624813 0.28311893 -0.17180435 0.24502705 0.019623319 0.061285548 -0.110229015 -0.2512713 -0.15280196 -0.035266906 -0.11363459 0.28457922 -0.2224816 0.075929195 -0.15689054 -0.20746551 -0.10308626 -0.14252552 0.219668
1684 0.33134577 -0.1987352 0.17521642 -0.14805101 0.2921676 -0.050810546 0.27140734 0.12098678 0.21877429 0.17193551 0.39378667 -0.40106732 -0.3067782 0.20892242 0.2864247 -0.4090205 0.14863327 0.26063138 -0.069394186 -0.22742027 -0.26217204 -0.22187074 -0.15320684 -0.20204985 0.39787978 -0.32376707 0.26025134 -0.2457579 -0.2739686 -0.29997736 -0.20097002 0.15860161
