2405 64
1397 0.6440131983552427 -0.3812910452279078 0.11521519465259662 -0.4837152859551476 -0.09547266518158931 0.30087867093255766 -0.27700823288907017 -0.1274070434489818 -0.5654280835802583 0.33551996837997167 0.23813423419986499 -0.021400471431263106 -0.6693686790680167 -0.11740269516409305 -0.20559284833266936 0.08028261833689888 -0.559548516455105 -0.45257996307415593 -0.003022299664180453 -0.20164637078018965 0.12630129097648313 -0.5631059007280107 0.3291776440035753 0.002872066125633275 -0.5703211578847502 -0.4356933032472012 -0.057572045611649664 -0.07727889649233144 0.09594560716860095 -0.6118360549953267 0.29639525681914786 -0.06495758695851754 -0.5515989336759265 -0.43693472573053344 -0.009905117292022727 -0.13443370859843307 -0.03221650439433613 -0.6758011986024367 -0.04053421021343694 -0.16513007926104734 -0.5604881470414845 -0.44248961114064184 -0.0046818509658216635 -0.14110472925765516 0.1396072104673911 -0.4384762982897077 0.3935270804034026 -0.3217270836036455 -0.5656846480997867 -0.4550383914192717 0.0289311324342116 -0.16432800039489812 0.22597116420114324 -0.3670244920849374 0.25377516837056785 -0.44150703072423914 -0.5889153604068303 0.4784496082641129 -0.05738365698385357 0.1683658701602317 -0.30250291701898824 0.3059318332349174 -0.28365247583340203 0.3564599442676055
1470 0.24432519339875924 -0.484767354038716 0.19073887141037515 -0.44572089783936814 -0.37589803162618846 0.39487806110272816 -0.3994277514412691 -0.11613283148706846 -0.6472683623502028 0.22402503862948075 0.15237383895165044 -0.01461329260777894 -0.30282199536833715 -0.38905270732771813 -0.5077088022519952 -0.08120170076912422 -0.6744827030675069 -0.3620807224822329 -0.04864793124050618 -0.01637943320314374 -0.16707851317147374 -0.3314497923130878 0.5227939546033977 0.015748436926168712 -0.6424292082076756 -0.4005516417630469 -0.049811445761895105 -0.08908725149499697 -0.20990715223905998 -0.4004276890524667 0.4589806743419837 -0.03686149853615366 -0.6324857280254125 -0.4521061781262875 0.012420019504857207 -0.1648177262873793 -0.2524602708241999 -0.4689648858063987 -0.2721179751154357 -0.10261687442229668 -0.6137081483930164 -0.47140198161646646 0.03367186066430281 -0.19370101168761641 0.3168980023829989 -0.4678849321102364 0.1436427838335483 -0.15004899612158207 -0.6049457893079014 -0.4848660889830742 0.06769370283228747 -0.2008089002418042 0.3740340284188486 -0.4144517320108932 0.12859450930581004 -0.1607189333207685 -0.5943791869338572 0.49258654556391923 -0.09261557133282446 0.20440757538380366 -0.4213050850727997 0.3462165468773195 -0.21547190174606318 0.09959801132423171
362 0.282794498250514 -0.3687220861176908 0.25874633652814155 -0.726016243171365 0.020776353254644414 0.3958939354095168 -0.181215988912421 0.004375313332579516 -0.5054959339974722 0.25437896874299826 0.23126326905718342 0.20369192904229025 -0.5886368335864899 -0.14028655582246882 -0.4645796787542285 -0.052765347441722565 -0.5291900073404762 -0.07523934590669458 -0.3129960968790299 -0.36455264914424174 0.017077518237361162 -0.4883035622046738 0.4899845150556976 0.067933429279256 -0.5145032148413611 -0.10128299206623081 -0.12694618413596148 -0.2100201463456163 0.05517272261148236 -0.6660462302850007 0.46705756025745016 -0.00016464335721881796 -0.49142102843119695 -0.052155875038113864 -0.1814421586787531 -0.33202636342822395 -0.027696252595692854 -0.75573676236171 -0.19706162192783896 -0.04340455422673894 -0.46621200464968393 -0.05579598835275495 -0.08259601465665828 -0.25778466446084264 0.13982726366427337 -0.6194464028286125 0.499680849081527 -0.23089321981367975 -0.437812210724141 -0.05551802978598633 -0.06615877354770415 -0.28146014724510715 0.21004237037286544 -0.5089337960681066 0.4602061967162113 -0.4546650075350023 -0.4238491712364658 0.09036652029367027 0.025091551423900484 0.2556934733080038 -0.2598241545710664 0.3831629425437108 -0.5458360231956236 0.48365032590877866
226 0.6327103632929099 -0.01786601050475841 0.06600940120199772 0.020179092478979154 -0.7081536615591303 0.2753682031848974 -0.09528260323554862 -0.09058661515837421 -0.416916181232547 0.8387339497315238 -0.02005438516502406 0.21594966621852926 -0.20109710512620177 0.08623137581505752 -0.13044714034574487 -0.10381459627869156 -0.3973254720568716 -0.8145694903666573 0.24131800471711523 -0.10039313598901374 0.2252032038590128 -0.2167657426608588 0.04467089005216832 -0.1029392773750589 -0.45318715750020505 -0.7900369978034283 0.2127688481346328 -0.05057146622247091 0.21332547332101506 -0.25153661600264315 0.017549232150426797 -0.11639795590746145 -0.5152164742940714 -0.783483224328221 0.20407951575168365 0.041060641131637994 0.12466456972171426 -0.22839445953905887 0.05324794902907087 -0.08264967419667531 -0.5783737130069125 -0.7622651582475684 0.1675586818453142 0.026938957962400645 -0.0877227029483018 -0.08392594184385832 0.16563271184066 -0.11602166068429687 -0.6303197505494064 -0.7365113587140908 0.1500906040841573 0.0239775473333461 -0.05650486259983979 -0.046846569279463526 0.0979283818161625 -0.14889106697909513 -0.6792924125813103 0.7055805003140584 -0.13772738539013402 -0.007313939859753418 0.03963632770692448 0.02001892295845287 -0.07672524690998969 0.11763116134530587
750 0.09302171797816049 -0.6149380059453593 0.24428070630454016 -0.5625569773106452 0.10061961938881717 0.12860455301581306 -0.3271517721100992 -0.3215012780342811 -0.5710136658145653 -0.17372737880982578 0.32956696657887696 -0.18752897699704532 -0.5694641237873483 -0.22452025962765781 -0.2959355152274366 0.19417549843949589 -0.6205302732312511 0.15151633437806183 -0.18736136797086012 0.05757569882484518 -0.13873379698362587 -0.5990780555900467 0.3840249758161762 0.16717946031568365 -0.6083266567704689 0.16056908877713685 -0.24131451071152957 0.029274119319695525 -0.27396194966294507 -0.5998257998084499 0.30541006037242974 0.1301734776911004 -0.6006106881519102 0.18587454427864425 -0.18102112357559 -0.15027385915125777 -0.4190975875517746 -0.606015322112481 -0.06648178863507728 0.04527017114153029 -0.5943004753851486 0.20033784452017864 -0.1555967347138073 -0.17683273498522728 0.4829730270265694 -0.3928233271150038 0.39503377131692785 -0.08698701829731231 -0.5908412317289816 0.21771774966491708 -0.11157369275016735 -0.19723154912712595 0.5177580776554619 -0.30177795560603404 0.36668262313227007 -0.24198582584612388 -0.5933044445086044 -0.22542916705522237 0.0810316313508153 0.18141022608748322 -0.5273413610678748 0.1848151420675356 -0.4041788226095692 0.28651293667515126
489 0.03251384334894152 -0.4113186796559025 0.35531429379349944 -0.7567994368015315 0.07825119379261927 0.011204834696704856 -0.27287413973019586 0.22373436270647384 -0.7685352252584025 -0.20311619606228287 0.4136775299442975 -0.09601079060927534 -0.3960828177328497 -0.03608003851113468 0.1718263513078202 0.00652572249288234 -0.8881277234247463 0.09976122137013693 -0.34938625406032064 0.03128396233105462 0.24847148569566307 0.03841335388904116 0.07076427123205797 0.10003078389107407 -0.9126393206306201 0.07509186459567548 -0.327869273507659 0.09596920544209665 0.18310842874518002 -0.004465734127597253 0.015943988299607626 0.10459198432515002 -0.927220549042702 0.06379266745816313 -0.3144593725737627 0.1110619256168295 0.122240695926358 -0.04224989399117334 0.02469730373088104 0.08738021856186169 -0.9370094896432654 0.05919635653866396 -0.3019882792979191 0.09255361611844766 -0.09865020622739674 0.0075881523051982945 0.08484227701781803 0.04193160845249027 -0.9440975768860549 0.05728494828230202 -0.2905124350330863 0.07838160790092188 -0.08381276741360151 0.02615509678485416 0.08186377502198998 -0.021135324033099267 -0.950033550368344 -0.05403860551762693 0.27733701916452336 -0.07176137437629679 0.0758077146473036 -0.04347105519287391 -0.057503257040281704 0.03882522925780733
1462 0.9903215628857489 0.08202543004405434 -0.019132873950904662 -0.03650023896142865 -0.07053276141200869 0.05386481205304533 -0.0527356198659115 -0.013392631824917726 -0.3127780099758612 0.7987688428212109 -0.1406812147007422 0.17853747177770093 -0.28748033126295386 0.29503107045302357 -0.1718609434043826 0.11509544713669259 -0.2869486360504206 -0.7512973132645783 0.29626813013158515 -0.14520008508281435 0.34795567450354326 -0.33510952186087223 -0.09834971210551308 0.03620426464150021 -0.2875294244249319 -0.721598351251818 0.28925405361391465 -0.012241590845378654 0.3422721637298852 -0.41438320616098195 -0.14018132860598354 -0.06550118304036398 -0.2937123105806531 -0.7138626396777547 0.2883914895791106 0.08867150056438804 0.24066267436900307 -0.3800822079742572 0.27013404588238854 -0.19428719364350333 -0.30449070094742436 -0.7220013963291699 0.2799093128196099 0.08249910486699492 -0.17021967579664404 -0.02110257800465406 0.3485368357727136 -0.3872287286747467 -0.3214546685406873 -0.7413747543274303 0.2820823647818512 0.07362598767748595 -0.10755148065564604 0.005936724346816616 0.08268493733417275 -0.49355826260714597 -0.35064130093902723 0.7841691810975844 -0.299551675850303 -0.06055954641957645 0.0670552670450608 0.0033841621184928262 0.011521494359497446 0.4050803649910175
1713 0.08120473922454013 -0.7522925244609505 0.348390539515088 0.44309934165629805 -0.016818499910671598 -0.29276140358210956 0.14219034139254746 -0.059485786670803474 -0.5977825456601484 -0.20497956598021186 -0.1386253616333571 -0.39481945403599766 0.39557986188598804 0.37691091206981187 -0.24873317160084468 -0.2551990596372251 -0.73785510844441 0.046172923072264345 -0.24179392016308668 0.5401171142794131 0.21046224996844456 0.07159341945591403 -0.14533711179476785 -0.18084316607514261 -0.7711196496836288 0.02003944123142628 -0.2081779643362016 0.5556465676400913 -0.04617671853696969 -0.020318751066267217 -0.204739593622447 -0.09180572708241165 -0.6657425982863691 -0.14346345645552463 -0.38410828390640617 0.6087708192189606 0.10704969394541784 0.042481212418153745 0.005384670824453789 0.06906996690666298 -0.633488866859913 -0.21181567401964163 -0.4126484187409178 0.5876599847534671 -0.19304332334973504 -0.011757092474914896 0.02806742692736788 0.0033565259757877557 -0.5475732054202777 -0.26394119784304304 -0.44112305637374366 0.560034412126242 -0.3102195144629316 -0.1017312118762149 -0.003351531142125992 -0.1251955101927644 -0.4852941928327764 0.2957552385224043 0.4405990370174633 -0.4990622119163587 0.3595212460814393 0.17370494921260873 0.017050319396654443 0.2722280906690962
393 0.05684879997413543 -0.602427025813387 0.2744224467539372 0.598233753620497 0.06645663821615716 0.0317204423786789 0.05128317100480552 0.4388689490062492 -0.7768323575972366 -0.1517934146046906 -0.14039622216489941 -0.2519181320633837 0.3565565864858446 0.2010292240791627 -0.07010708970887082 -0.3433016904769506 -0.9415519301784446 0.10999382284143028 -0.028117606837883204 0.18770654212360743 -0.08989609713650407 -0.052342734635994495 -0.16474512921310552 -0.1655141933330469 -0.963184899956155 0.10052451717733533 -0.03720454289278425 0.14184544890008777 -0.09179266817662927 0.0077858917376365695 -0.1717217804823057 -0.051869804549839194 -0.9704420113738906 0.09929982869560308 -0.0572657951904118 0.0907723030759034 -0.09730395594858401 0.05705945540287136 0.1462198572240856 0.052524054835658716 -0.9693193598120017 0.10158991500930359 -0.06621012386521331 0.08352750177502409 0.07695693943090641 0.15912971332879794 0.05933826543246116 0.06303314899177552 -0.970718586554888 0.10336156414142503 -0.07265848890926956 0.07354274961146094 0.0590010931221376 0.16709706623359308 0.05101892060851662 0.04825486452770464 -0.9705029064581425 -0.10453982492214714 0.0768936702912674 -0.07099270232974329 -0.04007893350296335 -0.17047552986841802 -0.006883380555610693 -0.07434598256850511
445 0.09012065754293497 -0.5919495427571794 0.26515910426125183 0.01222047410645471 -0.1209569796820559 -0.5380505987578926 0.17147681896813718 -0.4873212268643918 -0.9079422668452407 -0.1247938133867434 -0.08339428980017724 -0.23909308004734378 0.08706499646321214 0.2701609912843424 -0.013622568339727258 0.12326551232794486 -0.9732908019353521 0.05385352796374591 -0.017286461138497057 0.11173916240833492 0.04140694882361036 -0.0701175767592815 -0.17045657261383612 0.03652255619144894 -0.9724166286155169 0.0568860465486435 -0.025160546595383842 0.1255171785427747 0.020484964849229893 -0.0489900048288706 -0.16723995116040782 0.06319341155245331 -0.9768758941016589 0.058027548690322714 -0.045766709783470014 0.09479116513636164 -0.006103139301967123 -0.004582775010286121 0.1683198754262323 0.05363304768635718 -0.9782655823581777 0.0619097191441414 -0.05145314442913053 0.08479705189692688 0.003688397238038273 0.12830130928585232 0.11317955713996114 0.006420948045769415 -0.9807309397467767 0.06462662240367385 -0.05803747365701712 0.06971341633026089 -0.002043257507233028 0.13702540025292773 0.06873964335541914 -0.04750411509360021 -0.9830445451069912 -0.06671363300988926 0.060709338195394 -0.06259341894456362 0.010409910530767313 -0.13758018201497982 -0.018319078613521528 0.0468710177501637
696 0.6673376426036054 -0.6026907912941362 0.2030850165211111 -0.07575329373951543 -0.1968554530375807 -0.2922527014125632 0.03162168436351222 -0.13884723119381168 -0.5256030045130025 0.2914114435821777 -0.17361694523833265 -0.09272730116734808 0.1280593424098055 0.06950558738364618 0.06073483873431538 0.7583935084430279 -0.6428103972763115 -0.31184964337194543 0.13641897430421956 0.1604395353106378 0.05318835672145566 -0.019846646456444045 -0.25998842705617803 0.6118633337371268 -0.6956194460897891 -0.319609141010219 0.18437905480738942 0.15783780662280172 0.01838853815909065 0.009210926814784361 -0.2710750260029855 0.530236291593047 -0.804427272100802 -0.2982605302101535 0.1744300519790409 0.19677098208431834 0.0017403939188985692 0.051476699954116065 0.2886551392039251 0.329875868467801 -0.855093341292829 -0.27801591402908166 0.178288230882954 0.20374534437790212 -0.025352208194986348 0.23547416271956803 0.2092602955633557 0.1354362710948937 -0.8822858725964038 -0.24792479557183944 0.1643921714068389 0.2016393622891433 -0.028330006594319068 0.24022746926471142 0.16664340655122586 -0.07835729132171998 -0.8823409266346788 0.22050303195410015 -0.15488990078204162 -0.18345182722100262 0.03775827118560986 -0.23072538561373893 -0.06088992900700622 0.23841135406162461
1610 0.9414322642565331 -0.0140607045351849 -0.033195656902362744 -0.022438663825117798 0.26247672889322454 -0.2043984769972292 0.01867807057122234 -0.02967325738468395 -0.37071391335110637 0.4996473084680267 -0.12657738957618123 -0.009343916322506599 -0.08962981417903765 0.22407638231843915 -0.03931888854368774 0.7328198370441424 -0.3362287068210298 -0.46871343316247993 0.20478067300642475 0.059045820630674414 0.19895881476824853 -0.19013749247872114 -0.3531987358206755 0.6491149499943599 -0.33005022037035886 -0.4788481849634726 0.2463353611362826 0.11993034586517623 0.21151884891361925 -0.27430269432931575 -0.43040384274691024 0.5305442586361768 -0.3357061945285453 -0.5003052052301931 0.2953357142090914 0.19393707359615073 0.1592040720756757 -0.21649548505835214 0.6452271535607239 0.1537106654207903 -0.3153205803597958 -0.4712714936407453 0.29831335570328926 0.17066288590794615 -0.1420269621423139 0.35413634066241784 0.5655297504309359 -0.30814173311996823 -0.2802515471397269 -0.40054425435857577 0.2880909099051375 0.12826802939834572 -0.10225593233268808 0.3587555785204933 0.18166452478936423 -0.699578780772166 -0.23797158812532945 0.28534787035454745 -0.2515473912338331 -0.08214061999428708 0.06797517723535622 -0.27744117173968874 0.03935933906686182 0.8418904670866574
889 0.3043179868906957 -0.7066491293168643 0.2657244821829611 0.38951454585127987 -0.13374373004389564 -0.2870970978369955 0.13433172786325479 0.259517527358313 -0.36728089766049477 0.11140422902096941 -0.13201198189203334 -0.09739187456472082 0.0555123125025679 0.08690475368737859 0.17586676630068912 0.8855610237774378 -0.3766514769727974 -0.09693852850199498 0.13678406600246484 0.1485499759591489 0.14444711340252317 0.15597630130884052 -0.3061279113197921 0.817955828444985 -0.3986202235399934 -0.10163930698676464 0.1883518783512037 0.17284271529653467 0.20143942048996452 0.11547681322533607 -0.3322623270346439 0.7753124182316323 -0.519625770261392 -0.11955152536979101 0.298980582452388 0.32443768791415845 0.3059272424697506 0.16087295266433319 0.43607663016312215 0.4597965611885831 -0.5621250101371512 -0.12412943121647431 0.370689887186704 0.3424029680258008 -0.44098991805895144 0.37426099388363837 0.2814986647776983 0.013102467888801159 -0.49998945413802387 -0.11091403349525877 0.39497741065147257 0.2818275396433369 -0.4701836361907094 0.2456789884752073 0.07685355145533675 -0.46361343855328296 -0.35291223703460156 0.08069526138927179 -0.32020903185675553 -0.16341726475652257 0.3878295595383204 -0.052865814055148196 0.05707880330057081 0.7636999737487097
1615 0.1474068156133369 -0.5149257617324803 0.19713048315865164 -0.008744036138188967 -0.17839975096544952 -0.5626774310138914 0.15844535505129323 -0.5483142456678962 -0.34204905191819623 0.03626294963952033 -0.11251589776066952 -0.13354076986010163 0.04349642356217449 0.24686228104038768 0.015120748931788058 0.8877685049550728 -0.4007990459221726 -0.07840062255223534 0.10193817235396367 0.13498571843946514 0.13868594469253678 -0.09150807429469607 -0.37005106933121396 0.8000347612299439 -0.4610450534501615 -0.055995079957337934 0.16804137963458354 0.16072698111836695 0.058947301746002025 -0.11949184112655088 -0.4503419619878373 0.7139117415863037 -0.6475173831308008 -0.0711390368415392 0.2409870034072855 0.2073733980501527 0.022047879688103584 -0.008240336424071883 0.6298623606816184 0.2780313083162828 -0.6932205689525616 -0.0786221825955002 0.2951039731639971 0.17926474435751796 -0.02864358212008799 0.43650375596618746 0.4137083550835874 -0.17756971814765152 -0.6762881485667014 -0.07974917332129869 0.3079610305504201 0.13741428299842992 -0.02195307212170458 0.35953066173097037 0.1078811670881344 -0.5302538520751688 -0.58887238675086 0.06561316114148863 -0.2815950503665741 -0.08978191538149924 0.023768326542586496 -0.22129665052811479 0.0567839107907695 0.7133064608431295
708 0.0747030896896444 -0.9222796571655147 -0.349232750177203 0.007039659426644898 0.07472993330464747 -0.07054840395454441 -0.06596695341113172 -0.08302609585972819 -0.7594598991578448 -0.35748357498800193 -0.2998971305501442 0.05578160433517817 -0.047318553562861285 0.08054104452490077 -0.18460699218162327 0.3994629293986462 -0.8416882026358516 0.38184219635915045 0.25488363864287383 0.031141645676074872 -0.06341833230941499 -0.17061088216079995 -0.11824400564073721 0.1808602566221887 -0.8947462993451119 0.3523338124706293 0.19507446276159668 0.027945363605711142 -0.0705342472454901 -0.09097428930084309 -0.10134794944421019 0.11371959736355965 -0.9221024900856076 0.31959664504668234 0.17461552244407508 0.015087978421430864 -0.06800342875057894 -0.024704976017525988 0.10743238795007586 0.009499175703540405 -0.9392448568314502 0.2910323368538479 0.14507841898729015 0.007817371175279766 0.03787601719707856 0.06664003269020288 0.06965651628909136 -0.035817621025356246 -0.9485988102652452 0.2693946071189176 0.12528233219732246 0.0018627176655626652 0.01599957703172066 0.06962488744082804 0.030127076893391082 -0.076658059995158 -0.9527023897439418 -0.251587808621581 -0.10434812427830982 0.005341771564699637 0.003950423343275343 -0.06792556741041851 -0.006507127385860315 0.11607253898268946
713 0.09987716561194797 -0.6536455512115185 -0.06997928614730872 -0.07284829942745873 -0.11294247332990263 -0.5108114159214906 0.10503904041023879 -0.5175428146768694 -0.4131641589264768 -0.09363109643651624 -0.23020245446441698 0.020876252829913934 0.0025370823030926304 0.1806519058821891 0.007676859222541262 0.8569709012166105 -0.5488319027497467 0.15403876262285063 0.2734160427710106 0.037864390536907655 0.10164152805882364 -0.019540638986826286 -0.33109197860255396 0.6917592229420023 -0.6717447080798301 0.20030875057452377 0.3144354455695647 0.04398127331908163 0.11540710772375246 -0.04360342385942953 -0.3068352113450497 0.5463181708218485 -0.8023085317275852 0.19977844389652955 0.34669223722380615 0.11063912064704537 0.11637892775762118 0.02987063936443826 0.3424028286834799 0.22864178071845415 -0.856159605665202 0.1724449879991181 0.33515346109823335 0.11013052435537342 -0.12740027337629983 0.22182170934582293 0.21755124955238853 -0.00571264255937768 -0.8716232996610259 0.1489434828265309 0.31403957524109727 0.11505494568792454 -0.12254248104465697 0.19842831678385742 0.11242050735568825 -0.19799328279086356 -0.8572098789520552 -0.1308704411502307 -0.2811344099778966 -0.10195931619844344 0.11791310570614462 -0.1592174940869533 -0.021721126101231905 0.3448280356745512
718 0.15580300295970473 -0.7527857281889445 0.15639343700864364 -0.20997200888302928 -0.06777379460299043 -0.5480258441414199 0.013860541748172951 -0.18808028166362992 -0.2602402659554214 -0.025763587990279405 -0.1225085424760848 -0.06490909224089154 0.025569536732737895 0.24682992982466934 0.021718693215805367 0.9221383796227046 -0.2509147914055122 0.008576507359975456 0.09839196252061191 0.1365093338904052 0.01351432058828588 -0.1177586254580627 -0.5623223947142076 0.76052365388574 -0.2935672297725726 0.018558953992138822 0.13625521031363544 0.130384384929841 -0.04597258383962372 -0.09692034039835122 -0.672187355830084 0.6438675364339823 -0.3523379716161849 0.029062309299082562 0.17929797996393004 0.13020206815194857 -0.10683889649859112 0.17176497133455076 0.863625945545851 0.19785212347317724 -0.3662320810051606 0.03843577238983214 0.20500758338803474 0.10739333899463357 0.10282206540624221 0.7861817417558337 0.365520461559159 -0.22039963637298915 -0.3448336629313461 0.0463122242058657 0.20964628080280417 0.08126572875523734 0.10041914550816766 0.7290505654790421 -0.012370892489964718 -0.5353853474675867 -0.2837653696118673 -0.051033993796299235 -0.18392529330597263 -0.04803729463492005 -0.0816553170518237 -0.5078074545187122 0.24361207498024895 0.7462263775483409
1630 0.0889876934638238 -0.4665094768753113 0.1286666572936615 -0.011069712999505163 -0.10235466914198127 -0.5682375718139066 0.1599544300278191 -0.6315192911945307 -0.30417453512461656 -0.012285382062192768 -0.11425105022280044 -0.12154021028310763 0.07707327093807405 0.22572048691397073 -0.01794848618475596 0.9068017539211843 -0.3527569518033904 0.0018184076457167118 0.12937078810477864 0.13807926463731846 0.07373901531729735 -0.09480670686771919 -0.41544703801925487 0.8079198888283057 -0.4086605981658963 0.0001353584852549373 0.1713275265996061 0.1478755991736203 0.037312368077101976 -0.10277608406161415 -0.4695954835307875 0.7411485199094721 -0.5667758801566247 0.012920886773905878 0.2660009403485403 0.19080630960476397 0.013221255489540796 0.028331538355960695 0.6739838841542307 0.34088539209594204 -0.6189105003511992 0.021663949715435345 0.31951599733330904 0.17229865144716425 -0.043619148504557594 0.5142603389506897 0.44888391297673896 -0.12976931198128225 -0.5868669238193935 0.02904448681972271 0.3306417511988548 0.13258556368974617 -0.04858162240881897 0.460222239489752 0.14278908406165763 -0.5415600852106488 -0.4754215840890803 -0.03241414276288237 -0.2881352496971178 -0.07636872385233792 0.04613353462217437 -0.30059989797195524 0.057925720992649914 0.7669586336956632
734 0.705621734132305 -0.4054124092323941 0.0199102142628489 -0.02886457418474659 -0.32379415922915383 -0.2771416028349591 0.040215149321839644 -0.3914610870544128 -0.3830125512280549 0.3015547089332743 -0.1876716812429558 -0.003398065924970985 -0.01783582390490895 0.24692214604386012 -0.024846766072781863 0.8156150511876353 -0.3667095173526633 -0.325367301987831 0.2195315226786442 0.032087227221203586 0.12399008634593293 -0.22356416866658463 -0.4550280831966154 0.661839507402322 -0.432118223285152 -0.3494217242551205 0.2840959251587044 0.07662709838206928 0.11941279141616513 -0.2607381510901146 -0.5227252386321056 0.49910982712679836 -0.49841359909205973 -0.3912542926450178 0.3262207404635804 0.106888154679463 0.0534095553836704 -0.10351264202242179 0.6803556624241123 0.06486631290787881 -0.5238634354045978 -0.3895971276737531 0.344278415609061 0.08601138294205171 -0.02222569403778834 0.42593636753609176 0.4074905841925499 -0.3160557653859159 -0.5267599594432099 -0.36784539592771953 0.34841475889008955 0.05716496729049773 0.007840382489004932 0.3888411668191365 0.043380305040474555 -0.5562483767600208 -0.4984018745443891 0.3162399959584784 -0.32986885881693745 -0.029517583659964708 -0.020843253161056383 -0.271166010952602 0.1382903956354126 0.6699353733168801
776 0.31585709256522454 -0.7308429299901064 0.09105326894610692 -0.10125817912639591 -0.06638829777864323 -0.4848942950191606 0.044893706206622225 -0.3255973953411067 -0.3549870342554466 0.01481866732791059 -0.14616177047514511 -0.06289615633734767 0.05725996836367697 0.2017308185004125 -0.052146952763022884 0.8954061040591478 -0.38430206034610065 -0.0537522118563544 0.1409919303731041 0.11004318315640271 0.020406594333422064 -0.1375944207735779 -0.468592843571182 0.7605961430209413 -0.444297513780705 -0.0762519571914432 0.1937104505906284 0.12096447750174756 0.0014253361014188628 -0.1576959484133549 -0.5390899984566615 0.6550886540175084 -0.5676551597030368 -0.10771242849026968 0.2698776883107551 0.13527703599130167 -0.023782412958532808 -0.003657481905196138 0.7154573994867095 0.2501470337149676 -0.6253960972400748 -0.1271050007192614 0.3085876523383631 0.12920560670637374 0.018554735483910158 0.510424473819895 0.4416630134595477 -0.157670457688217 -0.6345326730751546 -0.13236831309818042 0.31818749275376046 0.10409719827040202 0.025353562246579173 0.4669724121103737 0.13086289955016633 -0.48159762664024885 -0.5822222236523051 0.11556073863938059 -0.28958186781776724 -0.07079704864000214 -0.02763556674123692 -0.33732443200225865 0.06905579888898247 0.6629275355350485
814 0.4482337458787924 -0.5842648008875652 0.028131048952322386 -0.12619314028514067 -0.08581865168734566 -0.4862160851558962 0.0580083792241372 -0.44030579422388477 -0.31289519096436524 0.030028017217644067 -0.1567720991455863 -0.02386266318675266 -0.005724823912854944 0.2257966251017229 -0.019446709781331346 0.9081040336057271 -0.32476917110809034 -0.07421955714186372 0.1479839516118391 0.08279924263329876 0.07830331855504896 -0.13859569364935034 -0.47837024837655323 0.7785134602519108 -0.4072680080681289 -0.09398366788222225 0.2177459082469592 0.10774841912379439 0.07190731200880406 -0.17764203990896293 -0.5547516992030231 0.6494613412372303 -0.5143382593080355 -0.1329101944530416 0.2846567852604599 0.14200031826511 0.04014210673532767 -0.017211638966810144 0.7600279574848816 0.19247684024969686 -0.556090333114016 -0.13826927584650375 0.32510660533963587 0.12362891080057561 -0.0476842791607459 0.5259741830916885 0.4528568453247163 -0.2581952405396439 -0.5483363700334052 -0.14027893736477398 0.32981206531934415 0.09345624544206473 -0.03321583282359811 0.4680265587455057 0.08496218375747536 -0.5785916114824817 -0.4962261724490109 0.12278148279690018 -0.30185103379653033 -0.05506751303205101 0.018623308109051016 -0.3155118750193926 0.11615443241818892 0.728801339604738
818 0.2223938062540388 -0.7074578688307895 0.15401626449695532 -0.05400779114594381 -0.13666332831488462 -0.49526675139060305 0.09657925650924207 -0.38744410488249426 -0.3747552370672388 0.002367394511317481 -0.13122669574346815 -0.09777182620341429 0.130029506651165 0.14884036847094775 0.02434144814785693 0.8905725675510998 -0.4250173490704462 -0.0531755837598644 0.09271043639793017 0.13205520092875914 -0.03848320811229904 -0.018647449084688548 -0.4315945506236059 0.7761419125260055 -0.5197523609177687 -0.08429776442298502 0.16297435513583972 0.10879762843576765 -0.06968470341354766 -0.017209392062973294 -0.4842872545885749 0.6668339672111433 -0.6899775650301466 -0.14115490966737332 0.23518349376731934 0.10047101696236715 -0.08324789980345276 0.15500438067692682 0.5841896756451634 0.25761677402817923 -0.7600979073786561 -0.16784845238633767 0.29415328597403695 0.08724398958020212 0.048501893412273483 0.4823551229627392 0.2367168986533133 -0.09426882009385358 -0.7641088816734083 -0.16499611778183668 0.31420618955364193 0.06797657487711424 0.03324909648922546 0.4078538808117095 0.002938372410724513 -0.34366936033918755 -0.7002924342440674 0.1401589163384052 -0.2964348550199649 -0.045610094978785765 -0.026095134189049567 -0.27215078134127696 0.13957215340842974 0.5529599360320807
1401 0.5098158025879306 -0.01642774662165416 0.06484895263940829 0.01496752127264204 -0.7918832494864859 0.291033193764523 -0.10547104892708771 -0.11173638784768881 -0.371792082304719 0.8871199904246937 -0.1520233183757701 0.107407634079938 -0.14480537099878227 0.05201114988935817 -0.054803709318141554 -0.11603481890297508 -0.37219288816992685 -0.8299060959254961 0.2926874729694372 -0.09233538208474827 0.19932676404812175 -0.1323195744767754 0.051763237262983784 -0.1364459047971161 -0.38342156596753185 -0.8020042721748247 0.2987842585819342 -0.009702308880628839 0.22279668342837397 -0.19817418346570798 0.025178866772387263 -0.17568590643372434 -0.4142269401394331 -0.7987112235288208 0.28753630645638556 0.06844915244858868 0.15289479655669436 -0.20723433010745207 0.020414612185946954 -0.19072065092801482 -0.44483902507045453 -0.8015314512305463 0.2784437604594802 0.06470755693615333 -0.09329222350069719 -0.11111717556351286 0.08702465608209979 -0.22208967189411483 -0.4834804050462181 -0.7997272639213461 0.2640830526851681 0.06360249350106487 -0.04449867423819008 -0.1157537107906523 -0.017448077810382587 -0.1929102806801977 -0.5176704886400383 0.7955489060412609 -0.2660634771447811 -0.05421607706570935 0.00988772613947506 0.12102542266248907 0.01287833947962161 0.10236832868800143
220 0.42431889784139265 -0.11712982293100979 0.009107713640907691 0.06810600814528364 -0.8400893611543914 0.26481551455004787 -0.09442827723598772 -0.1293004551755692 -0.3991357938536409 0.8455475196114363 -0.21686637083721946 0.15610401368904267 -0.1995040883978903 0.10420220337550523 -0.056002089582529994 -0.02333044664046133 -0.3419742333190283 -0.7507598909366718 0.372694059330931 -0.14038459891034863 0.24679176412784415 -0.2895779757375684 -0.03228174782355416 -0.12247784419513337 -0.2934276291850939 -0.7391751046375239 0.3351585778619365 -0.03199825236033688 0.2772640894891147 -0.3483399225347548 -0.07284850221552715 -0.2250383287788473 -0.2948460278300382 -0.7240459073607678 0.3343664109409105 0.05136495901707901 0.18811411443353626 -0.335100739799257 0.1909355474501645 -0.3004135133169307 -0.2868396918493908 -0.7367388001499496 0.31708039394082377 0.0478658438900588 -0.12293412588159681 -0.046483392439964785 0.24828620512227814 -0.4395318777601478 -0.29159198053911406 -0.7528597200359216 0.31947548056067926 0.03449450041382093 -0.05967306236276437 -0.028909770104664504 -0.01464823388613558 -0.4902149382252615 -0.3058253441742645 0.7965177770586314 -0.3410289470619099 -0.013336112696004506 0.012479043523397411 0.05933068161472142 0.10303405162134535 0.37584547749392616
1412 0.9894907047476638 0.02707032030376338 0.02285741611279195 0.004377298162051964 -0.127548544681667 0.05793335465319291 -0.00010843784779350138 -0.002967183095101995 -0.5243892278509396 0.8395310779067179 -0.002454475299413003 0.09006832309359192 -0.0029227204604922183 0.008861151375908578 0.03261970951744255 -0.10456611268089457 -0.595419290533506 -0.7677619094737161 0.03373769786373884 -0.0547215021355836 0.20919902609879837 0.030860833387731844 -0.028771722866111658 0.07962668003863091 -0.6594591307855422 -0.69698503630618 -0.02521609816772629 -0.0029657069487166146 0.22055971891236623 -0.0025183078106830203 -0.0597095763529975 0.16267360564994587 -0.7030791888174239 -0.6364964047462482 -0.045004864437838514 0.09207316259350053 0.20099972465478907 -0.03870883948695491 0.09413443882713807 0.19821331883823518 -0.7532822214837556 -0.5869933317346538 -0.06559501159015423 0.08801156323608153 -0.18154588697870794 0.056115067073677985 0.16326032908672294 0.11486617257357852 -0.7945430101388722 -0.5459400279888431 -0.06866222484519743 0.08695850606756489 -0.15452286681203314 0.08838910358097217 0.16302438382262624 -0.010378259025578348 -0.8285351855446483 0.5105897483193274 0.06837892880138667 -0.07563131647764804 0.13132210970590916 -0.11893429290040483 -0.10005795287246282 0.0320830926061644
1413 0.4076505228829457 -0.0390705570712678 0.07683247444848126 0.057130972300649764 -0.8422540271238969 0.3028626756595414 -0.09455390876899417 -0.11432094060115933 -0.3760735840632523 0.89201390762175 -0.14034159373421 0.08216216213048361 -0.11446781245170119 -0.0021805432383891297 -0.03259512357380626 -0.14920920623171324 -0.3510212663534492 -0.8333104270627841 0.28696109986436924 -0.0925015921980145 0.17905533860788245 -0.16186697753132237 0.05228131104870577 -0.17458383985192952 -0.376465238766235 -0.809285503834315 0.2895105013434514 -0.01894739009255814 0.17336859919343894 -0.19432832442905978 0.034114214677663734 -0.22399021139346617 -0.41347854638233345 -0.8027259689460089 0.2888266614752219 0.034457001006338146 0.09963026771173691 -0.1959439612314972 0.009819909238587868 -0.22724816469910955 -0.4553366031728908 -0.8023881069627002 0.2764710034794296 0.029554283928968677 -0.03806812794995293 -0.10979005474705235 0.053298856952576294 -0.23492216905367747 -0.5003280538190991 -0.7937342735883373 0.26585602338775877 0.02505464778382968 0.008649955787867886 -0.11509302949631778 -0.052135715758919156 -0.17975322226373538 -0.5426708077433295 0.7815281776232881 -0.26290556249673463 -0.020527907330941755 -0.03855129956771803 0.12404194070382947 0.0378793430947011 0.08290911800094211
228 0.5775175798459792 -0.03578266808422135 0.08066834671697647 0.040226526692813874 -0.7564136030470942 0.264936736796007 -0.08188598319361753 -0.08949392381279588 -0.42704499503368315 0.8810976525406724 -0.12640016693568368 0.08472193303166786 -0.07615389946929929 -0.03892425752298235 0.008184565613601907 -0.10374579231770423 -0.4847089734666804 -0.8214402890349168 0.2574477916531049 -0.0600244072804443 0.053911318155380625 -0.03649926679282615 0.05170719487055866 -0.11618307532353186 -0.5438200218074614 -0.7858543677709334 0.2546758687494934 -0.019217029123409245 0.07721898640396535 -0.044455235283237214 0.06312666971255686 -0.09767081432391887 -0.6223753745930597 -0.7389661747422683 0.22798065597900402 0.011344403063466553 0.0564120679241394 -0.06835726296944271 -0.04047163677424699 -0.07057634528725988 -0.6858359344250317 -0.6911035425735497 0.201425021851343 0.015084130556805126 -0.05411073912311477 -0.06896676049593006 0.021879345213113462 -0.055157068290993656 -0.7405700730242127 -0.6416521242655272 0.17616605900499052 0.010222574927941833 -0.048812873377922054 -0.051338091004891506 0.013052086958171099 -0.05925271144464238 -0.7854867355452632 0.5940774774408496 -0.15657067631922478 -0.0033978849163634603 0.0370636800126746 0.03587751980464132 -0.010203501917977085 0.0528355232792661
233 0.3453784680136186 -0.0578077718398534 0.08215386730033687 0.06755769817692113 -0.8661983861672548 0.3072624309059961 -0.09159572757764202 -0.11383783157024714 -0.37818161912872655 0.8801301769971664 -0.14657254853149987 0.10861606735930697 -0.15753047790458818 0.02769947085855591 -0.054486982542519144 -0.1432362698453499 -0.3414955576959697 -0.8258429141379482 0.28852771835608787 -0.09838641356652186 0.15512095186375127 -0.1913795526539792 0.06215140080789186 -0.20948674207278797 -0.34145440470215516 -0.7954655708107184 0.30130710402770405 -0.03243465557888558 0.1819952644055735 -0.2416355456074592 0.03074330964161908 -0.2575854675431099 -0.3645254949526118 -0.7987092731827325 0.3070848049717324 0.017570111989486843 0.09640586662518984 -0.23046905166570028 0.019631545298378794 -0.2679167813246695 -0.3855139652803431 -0.8054730188770155 0.3066648670204804 0.010500354922894993 -0.039685823955608095 -0.12211792872486367 0.07448833610402203 -0.2939427409584142 -0.4120798840814269 -0.8131080421639189 0.30874748969411636 -0.002039376977210121 0.019100214533097345 -0.12455966803156114 -0.07352424558655983 -0.2289772164834467 -0.43982283857935245 0.8149930814771005 -0.3160853706849519 0.01669510232687972 -0.0579854770145272 0.15325702878066422 0.08058003343158618 0.09386312163249971
235 0.5059165840179386 -0.061899469691554417 0.09519011527003042 0.025921490653225285 -0.8016181868766494 0.2695012109536421 -0.09870008442166425 -0.07429304841630537 -0.4705661239721102 0.8395467159955662 -0.1746128617093365 0.04683251954465931 0.00871319045894594 -0.1592212408637418 0.09655728330656685 -0.07934271283483862 -0.5445969622760195 -0.7741486029683521 0.26515474043083437 -0.004165425278645138 -0.03749526648116588 0.100442465890571 0.11889033072521171 -0.09030064982359234 -0.6082825937991992 -0.7260905302991171 0.2762001232516997 -0.013225717048439153 0.026330739109273707 0.07177480383409279 0.1267668976077869 -0.06639746680860278 -0.685603510140384 -0.6677853807932519 0.25047533840650793 0.022963279029067356 0.031487925672095636 4.451492525354366e-05 -0.13460272322353398 -0.04044651041156888 -0.7446874432457778 -0.6133486473836023 0.2296724468156613 0.03770227935248314 -0.03905892335255311 -0.1008745516080729 -0.05770827059720998 -0.006452501778000972 -0.7959812222124836 -0.5630535343211656 0.19618305909685263 0.037251649804924944 -0.03339328836377569 -0.08836177712721636 -0.024129515968034677 0.0019960907041180016 -0.8350819374518825 0.5170820260939144 -0.1696747058818315 -0.02642229179660051 0.02562541629537534 0.0711339850317628 0.004115909961799259 0.006560961113109104
1450 0.5055548605873357 -0.0024196480350257466 0.057258998469153166 0.04779540708178105 -0.792048270686664 0.2980134434026205 -0.10951807387481828 -0.10343476371332114 -0.3348780381848912 0.8875571316958468 -0.1643519513307912 0.12568563653204598 -0.18254975567629264 0.10055307314037654 -0.06386656523491682 -0.09887528715620203 -0.2873701514677085 -0.80823975306239 0.3090975113950476 -0.12797989096607326 0.26761809087622146 -0.23239442447875566 0.005733977643182476 -0.1630560761827521 -0.2882910508770543 -0.7713403669289547 0.3139395058569345 -0.024129770359493097 0.2766737021366801 -0.3034434165101242 -0.030061401106088285 -0.23076420186198085 -0.29036202969161157 -0.7579984078975845 0.3125414703154586 0.06202303792479178 0.1991994138876099 -0.3116144736301261 0.12470025852639917 -0.29540673027577935 -0.29811901129319374 -0.7650108339577522 0.30957527593344714 0.052582092638352014 -0.13441289691672964 -0.09268786921698717 0.19857690452823482 -0.4014861095078965 -0.3086339072371011 -0.7828447885514649 0.31340790153628195 0.04083558256003725 -0.07418585319420898 -0.08418677977581439 -0.02689272710456603 -0.42272085034770235 -0.3272258106207106 0.821493012590577 -0.3357432348703354 -0.01806921868437376 0.027980326973146792 0.11565689086151502 0.08526673304313404 0.2891239385424356
236 0.27984244174184403 -0.08260621381672047 0.09774143992023172 0.0466512178644396 -0.8821073679318507 0.3121624275944805 -0.09970327090827676 -0.1327974549521455 -0.46875697548322576 0.8381877385072629 -0.09426838470209524 0.03306457815802415 -0.12074184070778453 -0.11875975677082051 -0.055510771625660586 -0.18964308734183744 -0.45785341857924394 -0.7827063522777772 0.23190731118885813 -0.06901649437814124 0.0684811381019929 -0.18376739457717248 0.16654943740487554 -0.23021272561462536 -0.4531872512671123 -0.7770406408811233 0.24692794670442925 -0.03699897519314625 0.0607780894883227 -0.20329836304201407 0.12914916002101423 -0.2584242956214781 -0.4890519884640065 -0.7635066745621388 0.25221019116445065 -0.03728222201911351 -0.016290203043434055 -0.21103089436023773 -0.08798863332645238 -0.245650884769909 -0.5219548160074158 -0.7590727237637334 0.25009966528740357 -0.040306787722188896 0.0732625252532107 -0.18568960024701064 -0.004840130821430303 -0.2175450258187447 -0.555213709503769 -0.7446062137513808 0.2508306896018781 -0.045672522075209686 0.11505438695237087 -0.19089845093026095 -0.0744071856773135 -0.13069487097072957 -0.5867097625303593 0.7247619422645409 -0.2563752699092023 0.044968533192348684 -0.14114301985919428 0.20080411740332577 0.03550218083915017 0.03517503564425391
1455 0.328401412290301 -0.026073622279746876 0.06710533165221153 0.028304585720403966 -0.8690739961540814 0.32126009904543446 -0.11244045796220681 -0.12258827391449137 -0.4150761327995236 0.8215029135109008 -0.11298660818745264 0.10202171970922413 -0.340731354797668 0.08189351907763989 0.07719118989375719 -0.030124371275980857 -0.4058274264949945 -0.7394771481103795 0.27476568046224203 -0.04861580095251791 0.4517209452979909 -0.03817370680068309 0.06116317354100181 -0.036986402304553676 -0.4045405307004213 -0.6822232728308499 0.25808527946003623 0.10279100728967516 0.4785538500918827 -0.19591664901185527 0.04254359019030207 -0.15664381414826228 -0.36042568920644463 -0.6804428389058315 0.2585325894545399 0.20793480077362406 0.33278670529018295 -0.28284249648928816 0.04184300415078453 -0.32329116648068973 -0.34354381812988566 -0.6593417350624938 0.24707362092896093 0.1911611815161826 -0.2778139172618317 -0.16563007046857472 0.14234656725752443 -0.47411149730218494 -0.31118237152350336 -0.6790655338632684 0.2625929856714856 0.14813672105286277 -0.2040345578142517 -0.17320226029944302 -0.07767160808984266 -0.5229473832665084 -0.30661150239594726 0.7107356472783868 -0.2837067797184385 -0.11561142705225594 0.16267637816509348 0.22901640688818042 0.11887387016169215 0.4625425080129424
1465 0.9945066323669794 0.0894806355759388 -0.027620916767111914 -0.005598804789612734 0.04234381621947475 -0.010905543051352913 -0.014760205685902621 -0.005071396624618913 -0.35927214644048044 0.8579207476980361 -0.13839187600716568 0.16124014551079288 -0.20777465168145182 0.18759478109027589 -0.10312395562946856 -0.027352542730843213 -0.3766408163684719 -0.8024117866336732 0.2382805041715834 -0.17529053286620425 0.28232583950344736 -0.20564543214368947 -0.06782074556807284 -0.01323153783825444 -0.42737316242966256 -0.7879357661393551 0.2367517133742097 -0.044179638723003775 0.2809138387601939 -0.2300870500664948 -0.07082955783626096 -0.04045655115512891 -0.49010840792444627 -0.7723505016789682 0.20536137443418165 0.02316824635918613 0.23302442284786673 -0.19809553738392788 0.15669960777110825 -0.04961248470422182 -0.5529519706268546 -0.7568358301818147 0.16923833789573933 0.018804914394212602 -0.18557500777526406 0.004692139287651474 0.20854199567199708 -0.12040988694061774 -0.6113617777285528 -0.7302558342841252 0.14003710897672694 0.010164319846236822 -0.15389937062249068 0.03460548456352165 0.11040442145793261 -0.19020461566625527 -0.6642520270712424 0.7013832169691454 -0.12683781095514743 -0.00012118569639711218 0.1303653328904455 -0.0449646257514519 -0.05615950840708779 0.16903299837239072
1466 0.9771875602767494 0.07153924409043963 -0.004734681689956656 -0.009798850564785046 -0.17416152027605114 0.06952735962499783 -0.052082531151595654 -0.04460151320079103 -0.4025607785639054 0.8219357413433231 -0.11034607591427917 0.14122751667748445 -0.26374225588256317 0.20991240898420674 -0.12309147889799704 0.03834422468876751 -0.3959431028770739 -0.7801667087916426 0.2586588865305814 -0.0905591907779474 0.2880771031810487 -0.2711199602023783 -0.05380604016512283 0.00860459215302031 -0.45951079241810755 -0.7571573413321409 0.2323454721209608 0.026784306940939098 0.2652457008116016 -0.2883043634381517 -0.08170536480435003 0.026651832777143808 -0.520839946151226 -0.7440470162057136 0.21140051612643543 0.10949425220765499 0.16569837752158234 -0.24459760091121555 0.17552843870547602 0.018613092283039194 -0.5850807982469461 -0.7236339109753963 0.17900261040726817 0.0996669970026175 -0.12094430723678486 -0.003079642352430932 0.26600435802312916 -0.08163117938466197 -0.6372697061026177 -0.7004093115883488 0.15488825132921114 0.0850597265371059 -0.09462645070836916 0.041638318865892476 0.16451494728390723 -0.1852984290121283 -0.6879529122668174 0.6717715861321625 -0.14108925539427447 -0.06293870559054933 0.08212075536099024 -0.06547807301638955 -0.09801694186449568 0.17589130314057952
1468 0.6022684765668699 0.00484680554520945 0.052722717066813536 0.04568355120795583 -0.7294961380955199 0.28002729867043075 -0.107434195222976 -0.10129417092708942 -0.36315389784686336 0.8867918647680357 -0.14016546514979886 0.11231914449524308 -0.15512274913130003 0.08113019034286932 -0.0960364779036412 -0.0979250072647322 -0.3311180665486969 -0.8435085426414493 0.27306891688545937 -0.11741205048758857 0.19148571229974218 -0.20324858073109642 0.007085599655690398 -0.11169141516082454 -0.36037712702534797 -0.8239630441236799 0.27846089069810015 -0.024427321305314727 0.20479072928941916 -0.2367429639072608 -0.023798540209468835 -0.12051233249038859 -0.38521719475476807 -0.8293761708171659 0.2787208018970939 0.052660940245653 0.13443237550125955 -0.21448321170982684 0.09771517687490248 -0.09829065381937217 -0.41717495165897633 -0.8325598598509039 0.2661665081957398 0.06536695811587813 -0.08735569004711885 -0.038286858491025366 0.17490263683131727 -0.1341784546328902 -0.44684803704415904 -0.8337145470227307 0.25712382798031463 0.07698590593499807 -0.04919226081199642 -0.0034497711346291493 0.0916492790826344 -0.1495861739718559 -0.4833917658163001 0.8286425714269771 -0.25239894814899183 -0.0797272807004529 0.026881695872199903 -0.021709049071795137 -0.06352132060316475 0.06628238596749166
243 0.25781142564511506 -0.06358275767458385 0.09008161101202457 0.07121391999431893 -0.8892845538148101 0.32283814947828443 -0.09192250304609538 -0.11315099518528869 -0.3809234888687011 0.8826325355416299 -0.13460998094663174 0.072839999077002 -0.11577575327976328 -0.05426954504294977 -0.026754951381482244 -0.1880599755539946 -0.3161805831284726 -0.8237405933452706 0.290836710240871 -0.10863283330707245 0.16642963276005274 -0.19563902594866442 0.06982350320380289 -0.23290645439151403 -0.3127993029595231 -0.7922949342982106 0.3014268185761189 -0.035185089611674096 0.19600834112671497 -0.24855164112756414 0.03241208341602204 -0.2847481069572002 -0.31870254585521357 -0.7910014048559475 0.3096622463862549 0.023610216085509773 0.1278133933385609 -0.25907001728023177 0.036056172188531035 -0.3025619452567531 -0.33144768694198806 -0.8023250789524732 0.3118110143088921 0.015864820145851277 -0.06781334552982199 -0.12771761737864598 0.09554343926264193 -0.3448189509512983 -0.34439782393917306 -0.8182686299236325 0.3192892777579091 0.0032712583425750195 -0.009690419512239134 -0.12955489628099848 -0.07687423070218952 -0.29509696948595726 -0.36235926486998604 0.8381894772873563 -0.335479214259032 0.017206978229169695 -0.03841701769937684 0.16016548688054605 0.09844417495882773 0.1283420196509091
245 0.4517685254299861 -0.04271202714146445 0.07721128222163716 0.07088777758924204 -0.8212019333913204 0.30180476311195803 -0.09251695159344962 -0.09526860070127723 -0.3919814703758745 0.8757774195487162 -0.14384169861614668 0.11216229336659146 -0.15433505739175962 0.05427182709773791 -0.06554359631175796 -0.1226088080131458 -0.3608933649499104 -0.824748835621112 0.28227662709071843 -0.09836481826644287 0.20575095706142385 -0.16666941915436814 0.053224067730234255 -0.16505954260129577 -0.37665614275192594 -0.8012988621026857 0.29039901919903355 -0.01761588715650734 0.21914710961372186 -0.20888705040986402 0.032906262984159815 -0.19663747420963745 -0.4012185820898528 -0.80353788446671 0.2908437863698154 0.058004662904317106 0.14379170553838236 -0.21526788535320485 0.016074853693016908 -0.19524638449064471 -0.4339240681852374 -0.8076539542302689 0.2806991765776276 0.05200505541639654 -0.08509321002640592 -0.11835693177973496 0.08417364344846463 -0.22265223960531677 -0.46637471151701576 -0.8086700634040901 0.2744511160770224 0.048530959348995324 -0.03194916991415861 -0.11961638863218657 -0.028950590934589147 -0.18628398019453096 -0.5023351185979507 0.80421911987694 -0.27286152625810567 -0.03911393015793866 -0.003758373905114739 0.13294748326701597 0.028003843278283893 0.08021439947691031
1535 0.10673207829489267 -0.6980652036347315 -0.33556877896098336 -0.05657925829571463 -0.10245975004877093 -0.3560050290384006 0.08138583206625857 -0.4915733742919659 -0.6510057210059592 -0.13050699884565825 -0.3094830759539711 -0.10195080433483411 0.07901702733228673 0.2653301734118273 -0.23261610164511298 0.5676545528643351 -0.6126108368976177 0.2092880572239897 0.2548809570253176 0.12859774476048078 -0.14586118558478514 -0.5992948183661845 -0.13781256664443184 0.3162004444992159 -0.5706506661786466 0.18992615436814292 0.2619257644150081 0.10668699168181106 -0.22391846424839154 -0.564015776766068 -0.24854263293892423 0.3581507187731054 -0.551285904263829 0.236071228384324 0.2854542714031005 -0.0268919562441745 -0.3432655762594002 -0.48990592506233827 0.42306150353908967 0.14603698669712645 -0.5149095481341864 0.24680882977148183 0.2960793995671003 -0.03806439145229844 0.37343166235740805 0.05901800322052431 0.6482318548895817 -0.14731863831059666 -0.4745814564163936 0.26347408099818304 0.30637945868309496 -0.07103747729211 0.38819033677169557 0.13937658784458185 0.44377168320198973 -0.48927321239859034 -0.430631014663337 -0.2674928008763839 -0.3004159568794125 0.07758603592380969 -0.3732174918621638 -0.2212359440691454 -0.31782726788465254 0.597899974226555
780 0.054215620234559204 -0.503449537114871 -0.016199507799385126 -0.02950556170568838 -0.13583761174703016 -0.565626842386497 0.156929887625607 -0.6159980979300603 -0.546584611967471 -0.18127046073791628 -0.3710588645813111 0.007155965429305792 -0.002964227263232667 0.2350359934275153 -0.29882282176716346 0.6213731644833229 -0.47179095226366813 0.11507706008039811 0.28503837110867647 0.0993694203171125 -0.07340502700715412 -0.5934417209726375 -0.17329488799905657 0.5342816864908012 -0.4552838145755826 0.18350798258290027 0.26146804440009136 0.08408302232349664 -0.2306421130230982 -0.6559876371974357 -0.24262904912203134 0.3757945658134286 -0.42826290209555656 0.1709613852073098 0.24570001941804048 -0.019736760021797962 -0.3780147236520531 -0.540763746679055 0.5083331389846079 0.1813337006969582 -0.38810203084044914 0.20230797544518694 0.23245082040675652 -0.057534503293148624 0.4553988028434375 0.07576694715145962 0.7136958903808621 -0.16915723423314077 -0.3514584149398599 0.2075106186974823 0.22707294263463979 -0.08187104957233658 0.48343913981983455 0.1897766269595853 0.48339399971077557 -0.5212993445753011 -0.31879154845621865 -0.21851638194065778 -0.21934230330465546 0.08958934405594561 -0.4818681446325619 -0.27820429512487044 -0.3280167205390825 0.6142440356066283
1550 0.08248406064481466 -0.6162271457608011 0.13582945071875197 -0.029113077080706335 -0.11482140252274821 -0.5100633851952882 0.15169833887711634 -0.5457126315334194 -0.6521934051394851 -0.19634552800460883 -0.12408106250186908 -0.387487178444574 0.23358525243452824 0.4605383487090005 -0.18834590447232286 0.261568254718749 -0.48680344171824397 0.09562269181905353 0.19046873939350367 0.18662977524941537 -0.10724052648938387 -0.6324715178527204 -0.2345555349419094 0.465008221278101 -0.4902799229479617 0.2544653428233467 0.2133714567875031 0.13417545546014545 -0.32279998759744105 -0.6138064396145209 -0.2960798225538703 0.25044184236601635 -0.41903871007028065 0.20946214695198745 0.21453751613115088 -0.02123458139968527 -0.41927604344217756 -0.5242531547274976 0.5099706831188443 0.15281049275162575 -0.3890031945761374 0.2651231240412924 0.23201735173369434 -0.06020245049090319 0.4718296467369983 0.10138243621226463 0.6788415388151151 -0.16493152647189974 -0.3550353352822479 0.25660045566143885 0.24105798658675964 -0.0838615438711261 0.47294804400640283 0.20116234213728082 0.46811664081273896 -0.5095930491953464 -0.32729921094320985 -0.2601681422762864 -0.24198173047398341 0.0869859084478482 -0.4449319737418932 -0.28596572878647397 -0.31183848857275454 0.618127782788641
2273 0.08293155564636741 -0.5504871734634972 0.3008603775382755 -0.07710864750422046 -0.10135295383087353 -0.3679733257310611 -0.01171432140037343 -0.6691857018886068 -0.5655541599731614 -0.10344262027035703 -0.09351662139492206 -0.2094581450976189 0.12474351436424475 0.11672395474450342 -0.6922379457606538 0.3293193645775005 -0.5878036984779362 0.1390071403614394 0.05854294583045643 0.1728133980478814 -0.22200410518923094 -0.7276549617472519 -0.010152595553250134 0.15166225192874355 -0.5130447235629235 0.17950252268808153 0.070480053932344 0.06499012307768488 -0.42576180769053557 -0.7100179432192433 -0.040823746098424846 0.09114618503367866 -0.5035272407858841 0.19294792284601206 0.08834740211694844 -0.09715917051079861 -0.5192117086687774 -0.5935569483965916 0.26017794925288534 0.049020753714533384 -0.4762570584688238 0.214843957180043 0.11681994463159945 -0.13220828449789548 0.5722985362092322 -0.13313765810248387 0.5748727796849397 -0.1420049118633003 -0.4710611168421428 0.2269303630978867 0.13574360447235928 -0.14390646413888 0.5928852932338414 -0.024911639136685693 0.44687304322303806 -0.3682927646190156 -0.47096036948538106 -0.24171868369472926 -0.15591801308853787 0.14567004160403507 -0.6022961430969409 -0.09122457591215385 -0.4006116656656455 0.3777114594415634
1616 0.046878770748582835 -0.4197237919723669 0.1323886491264327 -0.01651081297524687 -0.12735683756720945 -0.5924581551321854 0.16960509725807438 -0.6386255861372451 -0.22001082263978308 -0.02719149602725657 -0.11568817741388181 -0.07396095280072171 0.03013198226956403 0.19746091339145902 0.025107795865634042 0.9441783377341996 -0.2897204884171448 0.009986490417347433 0.12600065447679676 0.12656178826799847 0.08493905124855854 -0.057754744852493836 -0.3934739160621205 0.8477595660451482 -0.32840999166153506 -0.0017210607402777887 0.1801300627970377 0.13397985794222694 0.09721381063554663 -0.0852379883044911 -0.45422477479682677 0.7865813929922358 -0.47687798919816876 -0.010373422572191223 0.29680203491797397 0.20984727060943162 0.10359114922181695 0.03598409523940748 0.6946476603511225 0.38182600392088 -0.5151164117499508 -0.02568116540010624 0.3551549063341316 0.1979184881219533 -0.16908979986801181 0.5239867465285263 0.4886435793690869 -0.163593416861053 -0.4567849438174397 -0.03373912142368169 0.35018864597162686 0.1509409717326229 -0.168474289664245 0.4468121964385279 0.1491758534903492 -0.6281048970065104 -0.3300031471576214 0.031292651979290945 -0.27690856148581955 -0.08279530352493618 0.13443551974229584 -0.2650403245850646 0.05975348079430748 0.8453966631094914
2158 0.058004831548649015 -0.41307921413895005 0.12015861282066999 -0.039461311749013406 -0.140464713552745 -0.5864576762414168 0.15662572443652828 -0.6494699035923183 -0.2218475218638093 -0.025567854731598248 -0.11015297147987159 -0.07812476088426548 0.02376686871734981 0.19780355572617583 0.012654855219506505 0.9444795129546585 -0.28841992340791883 -0.014689999927319989 0.11549732638538765 0.12306798129969244 0.09160372236491224 -0.07146975470854112 -0.3680211938131545 0.8597523040825683 -0.3528910992382721 -0.011865428910537336 0.18628351731788806 0.13009775139795354 0.09418258466790182 -0.11889830952366 -0.4318721192910208 0.7836959967033245 -0.5139869527916654 -0.023427550812616948 0.29373422795035453 0.20037361600141143 0.09630320448513521 -0.018797730064397056 0.6720716634890426 0.3840979000843141 -0.5663011765541868 -0.026900429660094205 0.35168894117247695 0.17950200512655812 -0.13941715367497073 0.4628927830234933 0.5118477211066692 -0.16425072972080682 -0.5137718711950859 -0.025089810086147333 0.34475106531940264 0.13244482423274745 -0.12963955498842378 0.4024482218040763 0.17575796835631813 -0.623980919902231 -0.3885033376182472 0.01888932023407951 -0.2779158548902253 -0.07102517724635146 0.09818959858272146 -0.2488083698096894 0.03379880197015129 0.8329089931478274
1624 0.06788110665173828 -0.5642177192122745 0.221697275396735 0.08866662278656834 -0.16062350817071183 -0.5631569101578963 0.18056786049522594 -0.49445798577072647 -0.3931817809681582 -0.02219201605622561 -0.13489614532740518 -0.19257183619197424 0.15366167377207943 0.19640391205804827 0.046973154152165554 0.8516113171807788 -0.4875864418134074 -0.019518708380316028 0.11591040955926933 0.20431652156630625 -0.0032518818613296386 0.01260322189713602 -0.32522146515197886 0.7750868341162325 -0.5011942710988527 -0.08029399111262192 0.21942391358704075 0.1679005878146619 -0.027554288033727562 0.007313797551940925 -0.3953772895338575 0.7133609078606128 -0.7134037037424337 -0.07980904663078722 0.3139211082489513 0.18924858001211683 -0.0655017954258817 0.13520047422210116 0.48004113036026963 0.31195359278288487 -0.7504648908287526 -0.10913067108770723 0.3996127479205452 0.16240409571029807 0.011337420820407196 0.4219435909256189 0.23850352736039043 -0.061470660154522516 -0.7385365301669989 -0.08317616558336066 0.4143140721741988 0.11843370315074898 0.00577827777350021 0.3460797856262867 0.027744971867423886 -0.3760165377574281 -0.6103877512661999 0.05724246179232553 -0.37044310157782195 -0.06507524174121855 0.009386214551015203 -0.2106348645024041 0.09982001906858134 0.6544219064972346
2165 0.18124710602883368 -0.5535481524549593 0.30860943337587293 -0.3371448665980071 -0.0573079905058215 -0.3698699475976215 -0.05343839489505539 -0.5557731912095673 -0.36581890990340954 0.049492267102018 0.02543167796949823 -0.09141871927165657 -0.1048233032756214 0.12051421845224153 -0.10394475360907773 0.9046583745342491 -0.34528648780662125 -0.048695959445781874 0.020235135892705196 0.11721693687152514 0.09116413755858566 -0.17183284468773125 -0.26362023997659756 0.8700135725619951 -0.4034824600068428 -0.07244385195471267 0.06791465632071116 0.12685604336533043 0.060684647394265594 -0.2267654074371258 -0.33860864438343913 0.8009294263595519 -0.5623568556255614 -0.09624431075481577 0.1785965579147592 0.166250269485923 0.03247038938008945 -0.14402092490446683 0.66690709028146 0.38522006296479916 -0.5931808499665292 -0.10518267773950397 0.24470590671368017 0.13850759257991263 -0.07432429467676455 0.39110720565907925 0.5960552204582357 -0.21032588195587923 -0.5059428824950758 -0.09333431944688957 0.2642688040985544 0.09883317876161554 -0.08370478478556127 0.3555085124305913 0.2091883513868062 -0.6917744911888667 -0.3592155281766731 0.06783729656006317 -0.21630508925048403 -0.048233918206987025 0.07205144664821256 -0.21015896018251884 0.00788242924782017 0.8762577079894778
2167 0.18529010679155425 -0.45511307913541166 0.17219792010933696 -0.02907802657074612 -0.1690941940390543 -0.5673722965654767 0.14844400473229258 -0.5962400643173577 -0.2622210784636969 0.09981373665181753 -0.08492206920545718 -0.10362388221687859 0.010802118977685052 0.17210497070625375 0.011493681641275654 0.9345901485395745 -0.31229165451676066 -0.08664665863864233 0.08912765110603572 0.14444864844817884 0.062435861288859654 -0.10393818280760372 -0.3683707445468676 0.8460252601296937 -0.32841466926171287 -0.10471416373596788 0.15430283440644238 0.14593045312138916 0.06455037644853656 -0.1356974585659417 -0.44355455230234836 0.7853359121062023 -0.4584842604126825 -0.1267175971750299 0.2542461974089318 0.19919682954696338 0.051187348221193196 -0.0362892603903936 0.7190646377151148 0.3852574716622513 -0.4826214830812394 -0.13255671945611713 0.3194674712002036 0.18570488191820783 -0.11157956801173828 0.5134236497083564 0.5509095799861079 -0.18276827534937146 -0.42021551064005563 -0.11208921219820062 0.31721760207355876 0.1393868646900166 -0.11876598079845573 0.4471862822410508 0.18148406239238915 -0.6661695233878956 -0.29974793395231797 0.08159001153277058 -0.2547341526354899 -0.07731988310083406 0.10194695771792477 -0.2714660363755414 0.04608632843286341 0.8639533856093989
1631 0.04806646886828346 -0.4226023319585819 0.1348974466279389 -0.023181893736086832 -0.12899318222886907 -0.5982763599071919 0.17107416005011913 -0.6296998889690155 -0.24662049957904073 -0.03289333637337378 -0.1168017050998132 -0.08490243399901913 0.043039155699149345 0.19051964385063636 0.07228787568749244 0.9348099568408285 -0.3149082135275361 0.016559036054924505 0.10917328441530627 0.1418646398793568 0.0951677002984327 -0.02161277563812522 -0.4030028801127914 0.8346130292953862 -0.3758607727466391 0.0027754502812880073 0.17087110143042125 0.1530025826334286 0.09976666714628653 -0.03975329976197552 -0.4507448375556166 0.7690316193050896 -0.5375585910262133 -0.0011011584341200115 0.27112773794452016 0.2309338531357422 0.10192741352071145 0.07540239070129154 0.6614775028892512 0.36133315496628704 -0.5862177931765107 -0.009766059118125631 0.3351215601116778 0.21283742970427724 -0.15721431063049485 0.5146978598070363 0.4294495334834586 -0.15681187248301515 -0.5301286063137413 -0.013835776151943166 0.3364575275237405 0.162019551723814 -0.15045415223711517 0.43497991814759185 0.1145747385024343 -0.595270423654639 -0.3930668640767655 0.012207188941242689 -0.27423678740521773 -0.09025275437353728 0.11657522564970661 -0.2599762130018789 0.07823249155222385 0.8214014319248041
1640 0.05465779947267619 -0.45702466156215066 0.1656863484196252 -0.05122188357620188 -0.15416248676582173 -0.5603451911768427 0.18788424210243748 -0.6204933861370653 -0.29724963373867586 -0.03249912359301245 -0.048675107478113135 -0.08406628907326871 -0.028701489746709503 0.10301879149681817 0.10278021737738073 0.9376297964346408 -0.327346168639172 -0.006128410258366688 0.08815459520715611 0.14902411973014584 0.11844339306325043 0.013311746106607913 -0.318064579358802 0.8645556031627136 -0.37316244122270575 -0.013856274887593556 0.11382281830868045 0.16755458046245228 0.13941920648748019 -0.029036355586611436 -0.3572156258276189 0.8195387704596425 -0.5416235264846551 -0.029116137470020897 0.22470122658336464 0.27499238317057667 0.1456840736416857 0.05148320452367178 0.5689377482537401 0.4817885667160985 -0.6111066286648479 -0.03861908154434688 0.2897354462567605 0.2731406213606223 -0.21716375406480332 0.45145951278788476 0.4632409824818433 -0.030607702800893033 -0.5662807574447899 -0.0427578086493417 0.3115142611262798 0.22112126497403853 -0.2100925403618507 0.3952413453148829 0.19440422310729416 -0.5416775113612575 -0.41833927019788497 0.035179473167748485 -0.25836263498186907 -0.13099256898200443 0.16277923240824485 -0.24038814405109687 0.014903812873878498 0.8095299212831685
1659 0.0437111908086398 -0.42874115937859814 0.1460360103704184 -0.015367435714429311 -0.11095216702019149 -0.5917338283330166 0.16936846589434645 -0.6336897438399264 -0.2519410742361979 -0.04751773763742146 -0.1132561984786954 -0.09949079047014273 0.035090348450034524 0.24736620436084816 0.016553134206937672 0.921328930390228 -0.3403413684953328 0.058574903052447884 0.13343838239760955 0.1344840614348727 0.08953221251824944 -0.07206922658848869 -0.4262374785848175 0.8061988528250288 -0.3887035416635974 0.03770330758511733 0.18629736758998966 0.1405077845744386 0.0938735109797663 -0.08860057212814071 -0.467658074245131 0.7467747309239747 -0.5507286438686787 0.05332987247470927 0.2805888666417371 0.20425967427559233 0.07315003843203859 0.04387331948795621 0.6725801219954956 0.33728614278821933 -0.5971372569060808 0.042811807059668056 0.33933962853648936 0.18768188166315866 -0.13037870828841078 0.5021754464957631 0.44578376103458134 -0.1526971681163424 -0.5502241150598972 0.036193390989293556 0.34283929024880744 0.14570501658519694 -0.12718289284693332 0.4403117560751184 0.13430475182093893 -0.5736610791454283 -0.42221103037813934 -0.02735321158443656 -0.2861341298016828 -0.08288921436126133 0.10461244050834254 -0.2760408089697708 0.06119284759391339 0.8008491930605941
1662 0.06026898553624025 -0.5442343174224535 0.14827094424184897 0.01827031555052594 -0.0881148927560484 -0.5325680915313636 0.17277054415973778 -0.5971732683346119 -0.45075457169701844 -0.14027375923685298 -0.1333014913382588 -0.22521147269574288 0.1547122703644155 0.3000265180460224 -0.09546134046211054 0.7652381510889629 -0.36008318391965366 0.040518341542505505 0.1164057468041981 0.1712892443789123 0.03247742293753033 -0.10408904021447946 -0.41833184069965246 0.7993229768318898 -0.455777043784309 0.0601639820524627 0.17024239467968255 0.17092535438818687 -0.020342722693246256 -0.12658694200344392 -0.46825968390479444 0.7033807077826711 -0.5592256468670717 0.04040041050723382 0.27210257057913395 0.19257847092741182 -0.017062848966739798 0.02436029954156785 0.6753357826159987 0.3428486868084222 -0.6137748651607432 0.04228495627271671 0.3326754058202991 0.17439506562251197 -0.023312790096021323 0.4987429234848214 0.4568099206474891 -0.1498083419190402 -0.5509877238212473 0.027666597922710808 0.3432554835167815 0.13301915768749192 -0.049760333761753414 0.4452150864911738 0.1477386212114671 -0.5810416508552074 -0.42106542100562777 -0.021154320410281535 -0.28615839971283724 -0.07514438579219815 0.04724635754284954 -0.28389862237967367 0.05438075857973952 0.8055651336330184
2280 0.06002663430080941 -0.37856624141016343 0.18582807692798994 -0.030796910905508477 -0.15335118088153596 -0.5936390771558403 0.16802222136322728 -0.6429995914983069 -0.22121821877146505 0.023179386414389686 -0.0721241511978593 -0.11408557549797382 0.019614007093399947 0.18351673638756966 0.007186027059693259 0.9477304802594511 -0.2678964282068698 -0.06333941608372572 0.08777568992893393 0.13751516264997718 0.08426038129987663 -0.09233443763905465 -0.35432711134872596 0.8697306872563314 -0.30253201534798624 -0.06087132927780356 0.1436207743222441 0.15183171892974023 0.07674126722094632 -0.12084474517153126 -0.4359715578955626 0.8065515417177166 -0.43890365188444586 -0.08989643497657161 0.25668902886773803 0.21365428803790532 0.0622690628857474 -0.01413961713740883 0.7232192194139715 0.4007759956730664 -0.46580913459020956 -0.0953833515686789 0.3230292749849091 0.19952980719442207 -0.12989923564101719 0.5279509601562222 0.5479032999523051 -0.18428173016038069 -0.3998912999322444 -0.0886844368371204 0.3215186786140295 0.1457793943695487 -0.134544514497853 0.4543083368271762 0.17192280007056618 -0.6734540711174569 -0.28035012543433746 0.06691888624072798 -0.2538254102407248 -0.07922772917542481 0.1127264009275583 -0.2693643689987105 0.054038737545875945 0.8706530353541407
2307 0.07379156383437138 -0.38262705767897254 0.18301334789448026 -0.05356303854873718 -0.15503736101535373 -0.5859969416446504 0.1537734466915167 -0.6486240693944475 -0.20185239899315818 0.032079756320406765 -0.06957109076931974 -0.09466038172550582 -0.004385536907333466 0.1997381175959372 -0.010245914530591326 0.9510027583538212 -0.2603864132848116 -0.060718381549121785 0.0774642996215688 0.13227076154797274 0.09562198905650547 -0.11244055007413899 -0.3518108292784691 0.8714692307549843 -0.2902325796262846 -0.06794993208169116 0.1426121884146289 0.14913258819055855 0.07745903147700083 -0.1344293182342695 -0.43775531194757755 0.8080026206715762 -0.42491223121628213 -0.086246605155098 0.24457877180934934 0.21507514374459202 0.06302584439868941 -0.03074699550362372 0.7331277229625596 0.40440219190127985 -0.4485004847931689 -0.09739145299237767 0.3169102663472626 0.19835119236881005 -0.12378336136739672 0.5338319219527425 0.5599562524874319 -0.18904248582518454 -0.3845814158034422 -0.08636840806408065 0.3123223231181822 0.14502181012667373 -0.1271321764989211 0.4610726878869874 0.17606097077040012 -0.6828711405026875 -0.26834122416482187 0.06572999680689827 -0.247632593518014 -0.07740019913450033 0.10606059211923023 -0.2740274856636009 0.05511548639326258 0.87577521876039
16 0.16487230900685237 -0.6730737906617199 0.486120300905279 -0.02313533829520705 -0.44067104985040595 -0.23600720464373956 0.15481023927979845 -0.09531011599437018 -0.5176433779658454 0.1341289567554393 0.048727133154611295 -0.3454223746264352 0.629498952502065 -0.33866454002524116 0.16293033578201305 -0.23421124998605267 -0.42032513501627333 -0.3076061729240188 -0.06727033886217189 0.2075299298456549 -0.6530906850285964 0.48404542173437815 0.06379818974185561 -0.12733275616566606 -0.4121118525913875 -0.33786988714773086 0.01020646654679963 -0.007275158652049209 -0.5936767443211627 0.5899427663243412 0.11994352488950692 -0.031299632115719206 -0.39947034973665213 -0.3632246918255875 0.035541660901263206 -0.159645205468754 -0.4323895463590537 0.5785066960343384 -0.36857062731712564 0.15577688263220799 -0.39183300493670425 -0.36305367062657384 0.06707567733850225 -0.14204946735256227 0.3576909241183786 0.06400716618414119 -0.5935986726359233 0.4534122099663446 -0.39023749067283076 -0.36047732445122144 0.08144235610427684 -0.12324360294092461 0.2979406145057105 -0.008987424738912522 -0.2862353898976747 0.7246853623406734 -0.4067532502763413 0.3739312478539149 -0.10161469714812874 0.10485391918178463 -0.2775169498786688 0.04144645850638201 0.16411933146902183 -0.7534843746682742
11 0.24053308799395628 -0.6104785739025985 0.47952654556295765 0.15270904526769635 -0.3922811127164594 0.13061411553453303 0.32283576269921554 0.20255008203234673 -0.3931078913909608 0.1865086673679496 0.12662107438355913 -0.2825686298530732 0.5836506186087178 -0.5473879983134006 0.22409593495415253 -0.15589137982848147 -0.38095599327756785 -0.3211593816319291 -0.11766265403032777 0.17665374985105792 -0.6179467879391779 0.5441244759799009 0.09648998086471293 -0.13942073301261845 -0.3469861842517288 -0.3490898184121452 -0.02687647407799142 -0.03398323649797963 -0.5591494986582377 0.6386648435221302 0.18756524147717893 -0.011748080113799858 -0.309785567902506 -0.3712057801579864 0.014097479575310207 -0.16228403881096445 -0.38732584803548165 0.6150239561960706 -0.40877708014973146 0.21054653168892756 -0.2850235406304752 -0.3602311240860679 0.04284571809546689 -0.1474624388001507 0.31133238835011934 0.043361054869576726 -0.6246240589225226 0.5257860211246707 -0.25855175769232236 -0.35305439720740395 0.061337332955957585 -0.12633367452334962 0.24939658668680054 -0.02341974058766304 -0.27701080345479784 0.8057909086997149 -0.25078552784494623 0.35467599988814386 -0.07776614231371434 0.11452150394880223 -0.22865427698083968 0.05694173810021152 0.14436311983151248 -0.8460395712275126
48 0.2003676409377114 -0.6099572092201587 0.43448615792650086 0.010439275056760084 -0.457614536870914 -0.4042425760805815 0.11248266124727975 -0.11594109598780193 -0.39861011216727094 0.3191723941607512 -0.016772073191845913 -0.27331708199881427 0.4923770358350777 -0.5162681836423724 0.3728160419181815 -0.1276544067453982 -0.39167618478974875 -0.43031800752384614 0.013074655446160178 0.2069578721932968 -0.527293925068183 0.5634654823819916 0.09172129789300928 -0.12028566603914956 -0.35691701816693816 -0.4610413803374583 0.07010670093466943 0.027367298742236982 -0.46120764223665023 0.6409334061487088 0.17427981414254723 0.02248544441468772 -0.3317718282796227 -0.4576723902276029 0.08315867370214715 -0.0898206424769074 -0.3392826161593858 0.5853741223526804 -0.39716561959699226 0.22352681767182653 -0.30614109374107007 -0.441649636223286 0.09953938097340008 -0.07766055025752129 0.2739500707511121 0.03918439071190187 -0.5934706156576839 0.5162291649324738 -0.2848986360276151 -0.42422835448285756 0.10885349293492695 -0.07156563127771197 0.22620370318330738 -0.03229123992987083 -0.2628396049539601 0.7749818388166626 -0.2782081184545373 0.4212659574809462 -0.12291145216765764 0.0633484177431348 -0.20923277238488075 0.06593443656968226 0.13753451243162376 -0.811771854472485
68 0.5946630599099119 -0.46227408790156344 0.3943630708485923 -0.15791350994782796 -0.43116106858762726 -0.25000239725752965 0.041804724823390836 -0.04550718451506299 -0.5738747357217128 0.5819105802322581 -0.08382203455933233 -0.23252278761210252 0.39995747873962284 -0.2589948769125885 0.14456253190174567 -0.15169781600588797 -0.6444424372193327 -0.592232366998893 -0.020226334875551998 0.1445334862302068 -0.31493979847755604 0.31805743669994113 0.07303297877122672 -0.08351233221459278 -0.6344082422724511 -0.6183431231973139 0.058427890580217266 0.08474116995105382 -0.2654677190891059 0.3535075238019235 0.07236732642023759 0.06249296482717207 -0.6767256837702712 -0.572166495287591 0.020851410255916605 0.019853300366255835 -0.19355315643597304 0.2977864434049279 -0.17809214098850176 0.23660624426867477 -0.7048886646122674 -0.535955536825474 0.01681130568349315 0.05087120253947813 0.15341078427997315 0.06747619330553446 -0.2177742758524931 0.37080937579998663 -0.7453593598247316 -0.49073522216096005 -0.002646204164130005 0.051398989080838384 0.11304345915170123 0.06118889206382862 -0.02066134423856622 0.42897518886593367 -0.7799531401043572 0.4516217477271182 0.007201816637168283 -0.05781709757959738 -0.08891921598813743 -0.07841361965006326 -0.012417472020789294 -0.41243993133048484
67 0.20588384906447968 -0.665488362952069 0.3919494679526398 0.17196370463819688 -0.27146611882408245 -0.4318705865811869 0.19131311737362747 -0.18637170446694573 -0.5946354464435901 0.20828587251236758 -0.0090254847619821 -0.4464778559234237 0.5566088755307882 -0.18096098457391388 0.23568422875008052 -0.07412403119298604 -0.37523955329852876 -0.40886726042570837 -0.023845458649762813 0.22402175802150454 -0.5695922851531184 0.5382932748557526 0.05638958992229593 -0.1545758070156737 -0.36175018428388783 -0.456803067635257 0.051204487195048706 0.04073230625368381 -0.5175373704733985 0.6121197999384616 0.11616232207660561 -0.012548980217092994 -0.311938348501911 -0.47144725925899467 0.06632057530773171 -0.08984882408020059 -0.35832000381607076 0.5955388628539666 -0.3689318279610565 0.22088517964433044 -0.2831655082776355 -0.45805543899426787 0.08289962534307971 -0.07230719372569737 0.28463498662242165 0.06526069136759789 -0.5870949547265152 0.5176343422440945 -0.2553963462667504 -0.4394713629168455 0.08985657885000263 -0.05762686107004972 0.22319863699102846 -0.006667146928273957 -0.2575677653509327 0.7836066177997105 -0.24218658060785905 0.4288557541725236 -0.10329543798406024 0.04494026344916305 -0.19926412189861603 0.03852874049776464 0.1399879154443917 -0.8270136376799074
88 0.1602589678876593 -0.6666569588412405 0.4473177278675535 0.28909751271762885 -0.4232314378930982 -0.06575686943455163 0.09756615876328474 0.23075326580853858 -0.4833568722565068 0.15231406210766857 -0.009509095645633712 -0.34311328945761727 0.5966876768581888 -0.49510223312657753 0.13963727116483632 -0.06847215320504751 -0.5196268249903216 -0.28818532276778663 -0.036364043992065394 0.2250064707422786 -0.6303013960110779 0.426282120838766 0.11232736526201847 -0.05807920086687342 -0.5481480256290471 -0.3259129715755193 0.0183550524032354 0.0011190294994755995 -0.5535319349644412 0.5035027859344953 0.18070911816789703 0.020195864025849716 -0.5950629588128443 -0.3404541132932773 0.05201167058237117 -0.12477368600602368 -0.41829575686995224 0.45165782164917534 -0.3377316579537897 0.1367061971447988 -0.6418586730432532 -0.33489037037854197 0.07017015596940937 -0.10630486896319857 0.3477451707506366 0.0026775373217874992 -0.4609420335017319 0.3553025140322148 -0.6839012058266818 -0.31501043260897954 0.08376641589755054 -0.07965264560968946 0.2996095483004447 -0.052199245538293956 -0.20512879093997058 0.5339641824048802 -0.7454987231443146 0.297288502581643 -0.09108982085666258 0.057169359767036625 -0.27456696700641564 0.07086093721174339 0.09356283122154355 -0.5050972319101238
116 0.1619271372718639 -0.6025559870126517 0.46138002597846056 -0.043620355494454845 -0.6109037659726912 -0.13848616076733009 0.04641447359112964 0.03735625225269731 -0.37764240023311985 0.20491249224676916 -0.007132029656888211 -0.32232191927346443 0.6523604936018427 -0.5017242730072884 0.18471700224453108 -0.005742118153753251 -0.3862633217658211 -0.3356845440685557 -0.03326801186544311 0.22214162255142933 -0.6690696603588016 0.47153885403223883 0.0667327973347159 -0.1149195567945821 -0.3757839394407727 -0.38135589642014445 0.05357425753352807 0.0007769971449839005 -0.5983918570311734 0.5763967661673082 0.14083961122279037 -0.018478734545309548 -0.36277646219550264 -0.3923694072760291 0.07967995079220218 -0.14768474132432471 -0.4460898668668017 0.570507666209244 -0.3721111861328621 0.15276749642030416 -0.35050524181467996 -0.3879574614599285 0.1088260076484579 -0.13352337720057914 0.37079700341411576 0.04549076243356711 -0.5973108194841557 0.44791009039509483 -0.3380654381918359 -0.38401515524429286 0.12330478245098112 -0.11985232505300389 0.30951963909893837 -0.034955455601874526 -0.2926389168438442 0.7252679810464259 -0.3435454991220036 0.392179897032348 -0.14360430077882566 0.10948468437047708 -0.29061101138125567 0.07856175061891109 0.16251298388881588 -0.7606084068389208
119 0.0932993702318 -0.5815373536654911 0.14992647947375434 0.1446812661060391 -0.24746528589111136 -0.5312635323527696 0.32067681910487233 -0.40420945678733894 -0.605924502703235 -0.03454908149402694 -0.15175155413994165 -0.28978475981141566 0.4664608845938206 0.17970790675877216 0.2872370387255357 0.4384886677730963 -0.6092628957127845 0.01605655466790464 0.15913897542535324 0.22537462279695492 -0.39157814691998394 0.2593603291422674 -0.5714934500852961 0.07222179650977714 -0.665796230793317 0.018081106050971824 0.22203446105292285 0.04551307447345387 -0.39463822763441103 0.3730082008077005 -0.45681912020562854 0.03820410523263315 -0.6928274829723778 0.03820383549186088 0.25878093518696094 -0.06225887434517097 -0.2826477379572208 0.554134404938089 0.24252860950460345 -0.04372638796247022 -0.7415855952059518 0.054805688984301035 0.28250986730262695 -0.05697480218184864 0.20739234860767877 0.4699278132328262 -0.3121837369226725 0.05183403053190213 -0.7802369779346594 0.0700838363098137 0.29599007381246917 -0.0436594673182938 0.14743096220461274 0.37043808849110466 -0.32163802325785035 0.1854479906677938 -0.8243318231444468 -0.0892797312155489 -0.3009216235681755 0.033480264251504535 -0.11061944384848184 -0.253176358582662 0.35361107320896973 -0.139483699125206
493 0.057957991587838556 -0.5587712770721017 0.38015204354567456 -0.41098829423542305 0.11566338354194786 0.44134294766032633 0.3775447459092756 -0.14243218040262115 -0.6122265958427707 -0.12446456113238948 0.665619297100716 0.1273121406010797 0.1431741098216304 -0.22664275736762957 -0.09788507232100047 -0.26264517123660974 -0.6618521705206925 0.03211835083962179 -0.6337933253441788 -0.2522438200556749 -0.22027098770816883 0.04875742169397039 0.1790829924802254 -0.11239163455271545 -0.6787913528559566 0.007813447854698327 -0.6122867550193661 -0.2911781472490143 -0.1828005466221121 0.06821038339038751 0.17598762835460535 -0.10227963595751939 -0.7163528129987855 0.01215509729590855 -0.5548408983483901 -0.35668771968772245 -0.10278344405460846 0.05534207780903546 -0.18960916380315282 -0.045139030963226086 -0.7483699087107921 0.023804922348295187 -0.5116844848484579 -0.35255127702603445 0.10526458870925781 -0.09280207420785813 -0.17361636357377233 0.05853964577004714 -0.7765066452851092 0.03380354927517286 -0.4744311693564481 -0.34252197588559763 0.09592739716895786 -0.0952393767239066 -0.09224521398067255 0.1634219310688035 -0.8015752768717992 -0.0346418403590815 0.4517610900595548 0.3188300404262032 -0.09491334954511392 0.08908770766490576 0.03363755167997601 -0.18016573695511365
167 0.19212506155593637 -0.5706067823506841 0.4099862066680618 0.010677094747419968 -0.5106329504972169 -0.3810027017954009 0.11982711954789357 -0.2214171699737424 -0.5386128084962346 0.25037292210185785 -0.01659222715926764 -0.40884092822039686 0.5572866343739804 -0.2769727606845916 0.2842449571351779 -0.10819397923107141 -0.42288825334515734 -0.39833011472154156 0.018690256376802914 0.2257923918291767 -0.5656141758725864 0.5111464784471188 0.059298711618781426 -0.1626673274529063 -0.39899067238791036 -0.433023361487717 0.06653621730301586 0.04591053595528339 -0.521388796435463 0.5996473461900125 0.12383159194141966 0.0022104806567857685 -0.37109622808512066 -0.43926037300407517 0.09399448757294315 -0.09756812464498826 -0.3818117612884674 0.5729526234104713 -0.37068736062623675 0.19879477485408995 -0.347600894495635 -0.4369214785179902 0.10803763043090525 -0.08069285228894807 0.3121642313152711 0.05478605566263935 -0.570820982055394 0.4937663020027072 -0.3315276283119567 -0.4284649180271924 0.11895821881969662 -0.06887522866084148 0.254414326731129 -0.019736885396459212 -0.2525510107107107 0.747471861300313 -0.32925355000923245 0.43896407789977143 -0.13468298122704647 0.05537614843228245 -0.23198981895642903 0.04853809215462763 0.12634579748661934 -0.7781761573323515
181 0.22103686193241587 -0.4953264919205357 0.40364218563647597 -0.08701671450061862 -0.6411028384953429 -0.27464932817718074 0.08458928965973868 -0.20419353202486795 -0.560812739789526 0.2612040244267898 0.17579938432183578 -0.3903493599805108 0.08996595074046546 -0.21905385296291524 0.5765911051770811 -0.2131847011115512 -0.49792832916489976 -0.42114963477174505 -0.02580720540231876 0.25533307993819293 -0.4591101055121658 0.5065161781481896 0.018777767719997878 -0.20284486267955898 -0.53004750140387 -0.4716440324770787 -0.010258719786316997 0.12733349004135894 -0.3868415815417132 0.5623622091264173 0.06278294596659241 -0.10219164397848496 -0.5283453888663927 -0.4963349192886137 0.04113523877162177 0.004110907722654858 -0.31831588121341575 0.5336448103598592 -0.27562778897043855 0.10354384876885207 -0.5455723696322016 -0.4975964626172076 0.0472491187662386 0.026951768924253938 0.2569709437328958 0.10233487669250987 -0.49655976565092874 0.35876396006073746 -0.5507495499786241 -0.48557515117650235 0.06007282911103251 0.034600646123045906 0.21605209087607186 0.03654564669852085 -0.24636465856828607 0.5893862239590613 -0.5708976996373718 0.4703483617226785 -0.0652945354997156 -0.05358473605521549 -0.1952157024280855 -0.0034497221657293514 0.15374156951024895 -0.6196418268776992
15 0.16906979123902816 -0.6079182359259996 0.5071202424187806 -0.2230519092223732 -0.4864981987991789 -0.23891414761846932 0.03352885997152691 0.006563369735742236 -0.48723176523226325 0.11876767842963569 0.3476374686260285 -0.3829489049570905 -0.12771238996478254 -0.474453978408238 0.48938236882234 0.009254027039800562 -0.3840524814730673 -0.3622631797306719 -0.08679470483018342 0.2272113757597826 -0.5950782935503347 0.52992426090884 0.10715947289761629 -0.12525853119982203 -0.40108822600029087 -0.3994166867707591 -0.061326263544417926 0.0577958507222484 -0.4962883817470789 0.617183651130003 0.21213590145911973 0.01654740356708803 -0.34732956204606635 -0.41416679381712235 0.026583851705634754 -0.10765831277667394 -0.39088708533789257 0.5793382982313995 -0.4095288336416244 0.19847313642211062 -0.3333816008148656 -0.4057870966204991 0.04906272673480917 -0.0899468111273147 0.3143339380048273 0.0187239040012836 -0.6080429558737066 0.4947962359572776 -0.3091553280386713 -0.3970753966385554 0.07913661689276065 -0.0837763011014324 0.25881375079311547 -0.04933297774174503 -0.27699308329661465 0.7663743023376582 -0.30969070899873935 0.4050928639346484 -0.09960183132185133 0.0731711028730513 -0.23912820648511063 0.08857101535977721 0.14459890940387807 -0.7992377198001349
64 0.1664224412099763 -0.5633531188341758 0.512355967587053 -0.2763571499409596 -0.4988375386426604 -0.23684873390646274 -0.05322718034079777 0.09102514639795739 -0.35365755257770654 0.29068034768042067 0.02009780373830052 -0.32230510995425826 0.5586937297729315 -0.51018465899921 0.3067381601306104 -0.1401120855364203 -0.36118727017089747 -0.3769950123298849 -0.05424541126511179 0.22735117847783853 -0.6006838844272521 0.537368022181431 0.10325485064583798 -0.11198352151371373 -0.3330780259638953 -0.41516509923627515 0.03071506177607997 0.0179870561540059 -0.5400217719971147 0.6277605518954114 0.17217859758208576 0.008816210913071281 -0.3227812497940997 -0.42177149039732303 0.05508204042838976 -0.11973913221954398 -0.3918028011061609 0.5854828584637235 -0.4033897561800764 0.20378095054844514 -0.3030714212517756 -0.41254970089919196 0.08525603405101763 -0.10465383743772073 0.3155184894396393 0.037993517750436856 -0.6045906873552006 0.5031939159706806 -0.2884128609473039 -0.4010127733817483 0.10010068665271592 -0.09288792140608453 0.25597097610823405 -0.037673350841258495 -0.27371215045633596 0.7716862707943811 -0.286492179052418 0.4065522107558493 -0.1203829371614001 0.08381818596814997 -0.23507520191335077 0.07396321168868672 0.14467860874561606 -0.8058890645406827
66 0.16831251150694318 -0.6277186137601221 0.531150425906043 -0.21613697450555885 -0.43736987528798643 -0.21812455994899826 0.09911221946796356 0.010502866773872481 -0.3983935071228187 0.19788512452120027 0.09564093695483196 -0.2938063399901859 0.5820101527307701 -0.5310482032698661 0.25849746736042517 -0.13815130844831466 -0.43181579162159217 -0.31132986909872723 -0.08887478800415466 0.1987385078491052 -0.596548481064537 0.5370750500642366 0.1147266508034663 -0.10831070215738545 -0.40110120560804097 -0.36007438415346305 -0.020140488302557203 -0.005514636874020693 -0.5357623320173694 0.6242618936030628 0.1792046369318633 0.013027668091789409 -0.4060732868135481 -0.371717556298245 0.003559804741276685 -0.13344624987259066 -0.3776859068748449 0.5747737454235935 -0.40403992003188294 0.20700292413813615 -0.3954515562892947 -0.37370596153385155 0.028624068834795614 -0.12016618328529774 0.30663899654510807 0.029079055626549454 -0.5872937584926279 0.49891446920058297 -0.3965593567090443 -0.37391341472501227 0.04164070771699689 -0.10147336033032507 0.2508478601295515 -0.043666454618908064 -0.2504523553280652 0.750560359344506 -0.41773408657483463 0.3970442580794595 -0.05820557258710006 0.085927516322603 -0.2343239564201249 0.07353223849822596 0.1139370422602261 -0.7640590991854672
73 0.25450374320350766 -0.4114815295366173 0.356947642341567 -0.1477137387701529 -0.7794641167812242 -0.0476106180199947 -0.03590687110718061 -0.07456167822991336 -0.45080664960282585 0.33236054702279244 -0.03806488529307491 -0.3295366383999022 0.5392974516756047 -0.44088060331077406 0.2782688728772307 -0.11668541701714355 -0.405851262193785 -0.4591597954525078 0.03978294562882251 0.20870982357239068 -0.5314446530139728 0.49875515049687774 0.12880699843214313 -0.17757589866813334 -0.4319905005607485 -0.5064778952947576 0.09481142346332179 0.034545402424115655 -0.47314327320236294 0.538615064570379 0.16890971554731848 -0.06465695160000867 -0.4274781382153419 -0.5309470015800365 0.1207792073268602 -0.08247677818144356 -0.34821275139665203 0.4906923837753145 -0.37660169406409827 0.10053713392146366 -0.43820438891645475 -0.5383519413366644 0.1364757871937567 -0.06860941724789152 0.29003312080758364 -0.0008869163724025919 -0.5248282341088618 0.36777239573448967 -0.43698145953447964 -0.5380561675453358 0.14787675814694784 -0.0527585695684596 0.2436467931191172 -0.06553475805320551 -0.24749209147941673 0.6082605220392019 -0.4512134660297405 0.5390894163163316 -0.1591074867220257 0.037642966554551134 -0.22776901922583012 0.0899408433517317 0.11886025563549335 -0.636365447078537
92 0.17254594441873472 -0.5884492935681349 0.49872325841657594 -0.23582248396755112 -0.5120630847911993 -0.23882141216912958 0.016932847082618895 0.009338228251527487 -0.4890709508703103 0.14125337566348745 0.3011782833146314 -0.40048826542948923 0.002661912179202723 -0.5267967720146994 0.4606691757025164 -0.004457080593601016 -0.38444931066821797 -0.38615504510403864 -0.08110597255869527 0.2307615826431082 -0.5713405964966826 0.5424944072106415 0.1117697263850144 -0.10015583389196425 -0.40402341331475805 -0.40678735788632364 -0.06231521090380962 0.06814766434343013 -0.48484355543064883 0.6153945273291369 0.21691101920207848 0.04390614457380775 -0.35888466551538906 -0.4245683861789821 0.017675963444225402 -0.0908973863630216 -0.37606222738246325 0.5691942987009834 -0.41046931595554165 0.22017879077104152 -0.35386080332394404 -0.41707454181009673 0.034726565420018486 -0.0661464388619331 0.301476127068667 0.015012229091819922 -0.5844888513354203 0.5123569392277395 -0.3376363333524525 -0.41393301417953005 0.06278098468184785 -0.05738711521868143 0.2460613112019533 -0.04894909288744383 -0.2466801580782204 0.763958866816396 -0.34621206510016717 0.4253609169332765 -0.08099551762659918 0.042121455414819674 -0.22720703098994544 0.07737138360782368 0.11131734621055299 -0.7879529731797965
172 0.18085898517559804 -0.5724934600376503 0.48044135680366806 -0.4327361567863874 -0.41264748824799485 -0.17117608302250395 -0.11221051764255198 0.09636589516968162 -0.45284749679220426 0.17781886838940542 -0.009156358493562682 -0.39717619728835907 0.6342809722554537 -0.38557228187916903 0.22608519845033528 -0.05817190750939409 -0.3532971567572214 -0.3567009388887799 -0.04909212861243966 0.23543383469224274 -0.6287163539841435 0.5193977407950366 0.0908509383022888 -0.1295927147374508 -0.342211694765626 -0.37983368931476363 0.04187497927386536 0.017644706424490116 -0.580481448569833 0.6156698502923108 0.14325464458117895 -0.004764974964535196 -0.31543145339289297 -0.4041287803024642 0.06061548540185696 -0.12738149515375416 -0.4144727125850574 0.5927721370242307 -0.39473320961665737 0.19570871743339488 -0.2972986256600729 -0.3934842897328363 0.09062582887359645 -0.11484092730205656 0.33643849585418467 0.05012090976142434 -0.6094140732468071 0.4982907602115967 -0.2774908036248963 -0.3851537991557003 0.10491324575649663 -0.10233176259726838 0.27077038278112026 -0.02950686930327851 -0.282866500149628 0.7739354712724429 -0.274211365182988 0.3868292463587239 -0.1223006490441419 0.09233665579536604 -0.24797526567700603 0.06813953862316634 0.15429101958192876 -0.8134785226242562
186 0.7857349831463577 -0.448012857871728 0.1772516924069689 0.11196674209079827 -0.2855716784590859 0.030174436426965167 0.16740197574255594 0.1657262803899914 -0.6301250008611867 0.5146642709942935 -0.20122808886777097 -0.08681946634892583 0.39077604134852156 -0.31058794733119943 0.1341405707041522 0.1512227751922613 -0.601098452312285 -0.5232461534723833 0.2265036946002257 0.059080113352878126 -0.37764100397704253 0.40694952847254545 0.04244203107225806 -0.008818017488928758 -0.5612555101035747 -0.5897296212808149 0.3296298456182761 -0.01423988554927429 -0.2392474607284203 0.3958011027117639 0.1125710559421327 -0.04221982580264701 -0.5331808550154157 -0.6342680055633421 0.3369724659825818 -0.043172218195187816 -0.1411232433293149 0.33565205311564467 -0.25502290267391753 -0.019830235820388845 -0.5046968635512943 -0.6579424697909158 0.35450994575230926 -0.032100744198948566 0.10303222180070944 -0.02620813714470028 -0.4010171632386048 0.11648069607347239 -0.47948449272993243 -0.6808882428087533 0.3565838634606763 -0.030018801478214827 0.09013846879338551 -0.09769628578009609 -0.2775057309856678 0.289402320951413 -0.46030879281588205 0.6914446961390124 -0.36800839811602243 0.040011514880984284 -0.09217282197910986 0.16086788851662054 0.19876224031579734 -0.3148145647645275
63 0.2620532735881762 -0.6863276875824584 0.1205900115343275 0.0813687652652501 -0.6518422250863346 0.02891399783261828 0.004248431114841724 0.11561663104280964 -0.7199007384665081 0.16540333106353722 -0.04013547736893283 -0.1610618504274832 -0.013476550004442405 -0.5293083907270751 0.3821197176332543 -0.021643015581906237 -0.7122488682713892 -0.2905064944009653 0.1731398023700479 0.13491114809300184 -0.3135528665480644 0.4633170102220236 0.21307054699597458 0.041856985483060286 -0.7497714334832782 -0.31873216612996136 0.1770395402963849 0.02782537175249525 -0.1744447042965141 0.42472821799274957 0.29621897970270344 0.07459661998044786 -0.7855252679509825 -0.3066584137061974 0.20534815156987277 0.005708023185298038 -0.08314813074615564 0.2721998621313207 -0.39001534953034245 0.11658420292528264 -0.8210346071522184 -0.2873147135854886 0.18906547262002327 0.03966906481079606 0.031738530594540085 -0.16413367254862873 -0.34973577805739825 0.2361582739047698 -0.8513248227924349 -0.26357493099774315 0.1830582088671712 0.06351776805542014 0.014614413243413029 -0.20474304223492387 -0.13714047326763673 0.3275495127891856 -0.8876574847946834 0.2397536866641722 -0.1761460143377838 -0.08135283329198112 -0.014605215220186657 0.21073303468219065 0.024405593245496442 -0.2678045936266533
436 0.11667693531756435 -0.7863838500007391 -0.43976085856359665 0.04944004325481949 -0.10846601408569578 -0.30708733537542454 0.17487112122728377 -0.18842925946461075 -0.6383319285291144 -0.20497388244790363 -0.4148011961799686 0.27032509061672916 0.024688404428553492 0.03357500652993275 0.4824670304739316 -0.26621633250838045 -0.6111526623770179 0.3273992514308196 0.5168293742604003 -0.14841486116674152 0.11828677053250217 0.43117397865987594 0.042246312398752046 -0.16874557609250837 -0.5721901878004542 0.37776256719699786 0.487527608452649 -0.11057835101048956 0.32167517032768395 0.39442343731819013 0.06560544439426237 -0.12897384869983083 -0.5770053761867766 0.38864331435924065 0.47626340814293594 0.025672576291781594 0.3905549168624139 0.2767336127536144 -0.24361072230134098 0.008627596002558588 -0.5818415518620643 0.39486931791290136 0.43713458642939745 0.05816639356376383 -0.4401788572238688 -0.045553447741570816 -0.30383529314380586 0.1513942733292522 -0.5937190278384858 0.38528295207795465 0.40957625341445686 0.07261620426833862 -0.45478598232988177 -0.11303092240973302 -0.15118756271154885 0.28907608699794984 -0.6079722304494952 -0.3803935494765716 -0.3667599906716664 -0.06995195241666427 0.4615746362037627 0.15453661446062247 0.06314875047707995 -0.3245672094221679
100 0.20473333343967517 -0.2698096235464962 0.18971200617347095 0.07629635408954033 -0.8916805806476502 0.2109752828550214 -0.0195030668584218 0.05907666874398296 -0.4569321204782183 0.40804744708469143 -0.09588636223932964 -0.21771625165686279 0.42229705953568303 -0.5192004829313724 0.3223109839228018 0.12777886827640714 -0.5109203370574417 -0.5055065122962052 0.16002157803947936 0.18949572999292102 -0.41587095396923895 0.4761733299497586 0.1421328277749825 0.04490664584894217 -0.5211945438656549 -0.5702838545424435 0.22015420037621358 0.0388033473886755 -0.3203711197300433 0.469095404131438 0.16755013587377995 0.04896734029317973 -0.5229074461632758 -0.6039327039005604 0.2549027369113056 -0.033932530005057596 -0.21509667041097993 0.38629919498214366 -0.3139390435385184 0.04068047818448647 -0.5300395752032512 -0.6196888787693197 0.27645364108796944 -0.03048866096381174 0.16495754618825678 -0.03430473653097753 -0.43897364842601583 0.19131622284704602 -0.5364156593131243 -0.624459079020178 0.29423186834039416 -0.031129318017627416 0.13682086313004832 -0.11497339617769332 -0.2728695972467054 0.35828902406821284 -0.5600444824786347 0.6332633174398681 -0.31647981031808325 0.037964536591071726 -0.13361720110991643 0.18167541818162714 0.17161488800567798 -0.32158325246136205
101 0.2037826420295456 -0.3442790864571159 0.24830566432283183 -0.07530311247379133 -0.866553914886346 0.132853221251727 -0.03966008691741545 0.049796540608342287 -0.3945356327807014 0.3005532829446444 -0.05983136317060715 -0.24017687187664383 0.5008239318052067 -0.5820919073418764 0.31693411910868 -0.05139845967828407 -0.49738788744571943 -0.449813715698126 0.13590806202573588 0.19836952238853836 -0.42239283624970403 0.5338184046181086 0.1701784320881513 0.010627600096369878 -0.486451148116565 -0.5022494681479159 0.184623626923587 0.04140368837746108 -0.33809690203719084 0.5584172221248359 0.21718347393349646 0.04475078467410087 -0.4986092415554638 -0.5321582805384362 0.21307378322978013 -0.023193472920375355 -0.21012430273638366 0.45213646565158944 -0.39790596949292084 0.12389208075352139 -0.5092767001711828 -0.5540751432389306 0.23122571156343724 -0.011358718574653617 0.14308810545205025 -0.06035310149928891 -0.5028911361881268 0.32097886300005507 -0.521702397132682 -0.5686907417046451 0.24762004078072156 -0.0013339602443290612 0.10098309800023743 -0.14106747579829448 -0.2490054454309903 0.5009976590914779 -0.5509376762719859 0.5882462961739592 -0.2696329961164844 -0.0008337357358452345 -0.08761248003877681 0.19254634501330165 0.12216190437611157 -0.4669665423499729
107 0.17591429000829584 -0.24245055025634477 0.15764568438688417 0.13098176547173274 -0.8990592778969619 0.2442443035706345 0.0014145159508834738 -0.01728128191672982 -0.4682023143434386 0.41876902752176665 -0.064713973411548 -0.14274522015464677 0.3170855709265832 -0.5925456420855764 0.34069233254814785 -0.11458680333559168 -0.5255026535219282 -0.4936349666203923 0.11248361812505892 0.1519544369522105 -0.39019300849392624 0.457040246175296 0.24505746966416161 -0.15244419200288073 -0.5364371154812467 -0.573417571882858 0.1584548800369902 0.004451588996093728 -0.2766628695472122 0.43171781560136185 0.2817055488143087 -0.12656662992874565 -0.5612577488817535 -0.58278341802942 0.18582278239866246 -0.06227102555610789 -0.1993090017027822 0.31538167830848324 -0.40321286128147477 -0.07193849618051253 -0.5847909847104202 -0.5820729069186689 0.18980780019673946 -0.05209089412763571 0.15384975414073113 -0.1496129714741028 -0.4706906221544367 0.11343157893426771 -0.6189506843818706 -0.5601488264189993 0.20185079856580812 -0.04559856074644936 0.13715715171526444 -0.2264075323165079 -0.29773999448961264 0.3187299949265216 -0.6586297662801464 0.5403338034031457 -0.2154979486220474 0.037922900382528074 -0.13427221718334859 0.2864571600278193 0.16769866191456104 -0.3133035677892073
458 0.14161702794624634 -0.8545268503536135 0.32239178532859164 0.2901660869079604 0.023182137563632837 -0.17567620962558703 0.16798104220897994 -0.044480169845930395 -0.707045383400872 -0.13578905108922174 -0.1377268987754017 -0.23521203704143376 0.36828603361806206 0.02486163006396724 -0.2857045629338388 0.4352872131266372 -0.8185404276665951 0.06620212233155984 -0.014603368613848854 0.12424157373276244 -0.46518458137922003 -0.13636911679193564 -0.19771552718725938 0.18940686312066612 -0.8731038896416549 0.04254168259119193 0.040437312484051975 -0.04103469929059574 -0.41499187063629644 -0.014942462082961669 -0.18883424669292032 0.15639973707370736 -0.9145470786195508 0.03699147437635283 0.03822909997776709 -0.16094778667172016 -0.3040901567576868 0.1020966559198721 0.15887382943974646 0.08206200962984236 -0.9399103337523085 0.04060842102368275 0.04332730796876193 -0.13900983067046174 0.24006361937177886 0.17970641656664318 0.018077817877274787 0.058879427718269615 -0.9559906476435596 0.04660789620030217 0.03490850465923995 -0.12586134375236882 0.1924566211681832 0.16900147445405467 0.005984375895986182 0.034828751444038714 -0.9669008414572464 -0.05269502109453846 -0.02756377798507209 0.10832898138085649 -0.15714212414623543 -0.15531382249992753 0.02625924009960684 0.018041317744337818
1443 0.9302746912768776 0.08360194751494654 -0.04692483578599099 -0.02032742932995743 0.3264135391205134 -0.12571747993086968 0.03372467478844371 0.03868503035772276 -0.447558728804675 0.8582470197722368 -0.14081130285578852 0.12084890469907637 -0.12186588994385873 0.10981410836811101 -0.02969594587587793 0.029642432659133616 -0.44352179024827876 -0.8099749570967714 0.2819932019770234 -0.1069227959400903 0.2168540353334259 -0.08937799361855212 -0.02993423990015583 -0.019135911163980408 -0.46535320860994567 -0.7943985444153535 0.2652127822165089 -0.0015017994455639578 0.24317220510723672 -0.14330321111886044 -0.04667151363676306 -0.013802419199564478 -0.5067074175782659 -0.7782117925961783 0.24423574732447645 0.08057174852828039 0.20265105524536597 -0.14629131821890465 0.09389353866436852 -0.014369945099239025 -0.5543117286925269 -0.7626585244465307 0.20427996478320318 0.07990363700204901 -0.17269681856406538 -0.01797312435515546 0.1648515551043767 -0.07518196421612154 -0.6018206480739707 -0.7405838717729043 0.1764156015014077 0.06648044283157868 -0.15123452348240335 0.0021753486561638512 0.10252187848484123 -0.14289147590639573 -0.6489307875200777 0.7163436914783974 -0.1590584006308199 -0.04821042785238958 0.13217279801239637 -0.01310703329565991 -0.06431807151819446 0.12782202995833924
