2405 128
1397 -0.5236437 0.25205895 0.16641073 0.499482 -0.009056086 -0.50020677 -0.14237668 -0.005103719 0.31335425 0.29519448 -0.44647786 -0.16928639 -0.286819 0.17941901 0.40614668 0.19322264 -0.21294497 -0.017112171 0.23657435 -0.41524178 0.075509034 0.11282865 0.27935472 0.019931968 -0.20184225 -0.23326069 0.12042819 -0.08812214 -0.21646023 -0.20200084 0.04488084 -0.20252903 -0.037351105 -0.06327758 -0.02380875 0.2587936 -0.28828788 -0.23549686 -0.07418515 0.08120245 0.009818423 0.17234279 -0.30235234 -0.1364317 -0.07317856 -0.022362424 -0.22361954 0.42004478 0.2212064 -0.035295695 -0.21017584 -0.31695879 0.02882251 0.11385319 0.19781478 -0.2983401 0.17186631 -0.019005068 -0.25777265 -0.31383443 0.20639518 0.021608237 -0.46845442 -0.33288845 0.34647578 -0.2736458 -0.03491644 0.009858979 0.23332915 0.035447862 -0.22282723 -0.24453843 -0.10159698 0.3994942 0.2525483 0.3584412 0.027725436 0.08546041 -0.48452824 0.05353681 -0.10271541 0.0728839 -0.35450613 0.10438119 0.018019814 0.24971822 -0.5691833 -0.30786702 0.1844814 -0.35197437 0.39993253 -0.35546574 -0.31466022 0.15598278 0.6835357 0.019408789 0.008664182 -0.20011368 -0.26099464 0.022792285 -0.168072 0.028648019 0.28793436 -0.10798852 0.21122654 -0.5365665 -0.21151985 0.3372759 0.2867069 -0.13408515 0.08172978 -0.122294486 -0.030628953 -0.26463318 0.17683373 0.2976543 0.040391684 0.2868617 -0.26682094 0.7485247 -0.30968583 -0.2638695 -0.09825198 0.19979127 -0.11298707 -0.39106607 0.34494856 0.07047472
1470 -0.25810352 -0.049538717 -0.18877359 0.1731412 -0.038936358 -0.33940363 0.13737352 0.15314513 0.29854825 0.39072666 -0.31423554 -0.16031583 -0.4101763 0.27215618 0.259322 0.082611404 0.17730534 0.15298104 -0.18707235 -0.04998384 0.10466145 0.2637962 -0.18043879 0.109760344 0.46990633 -0.34668022 0.29815394 -0.15611102 -0.28247714 0.12454956 0.2697395 -0.30530939 0.02754135 0.0988942 -0.048651896 -0.402639 -0.111576825 -0.34751233 -0.1785168 -0.074429475 -0.36814412 -0.15122499 0.027736252 -0.10433819 -0.22666311 -0.012331097 -0.20837466 0.5639373 -0.030086977 -0.2572264 -0.17678085 -0.7456735 0.027158828 -0.052199047 0.13363358 -0.2145572 0.28085092 0.022988176 -0.26619163 -0.08559996 0.364058 -0.051747724 -0.11999506 -0.106891535 0.29877138 -0.41487977 -0.15269433 0.21411315 0.13975517 -0.2824831 -0.17644411 -0.3195097 -0.35985065 0.40437856 0.24255756 0.42794356 0.09817783 -0.09008412 -0.032113064 0.07748887 -0.45290282 0.16639297 -0.2204703 0.09954513 0.13400194 0.19089584 -0.35624748 -0.5099205 0.08416495 -0.2514783 0.049315248 -0.15714729 -0.3741655 0.42449263 0.22081742 0.2847567 0.10353699 -0.18136005 -0.39377794 0.10167527 -0.26330307 0.081565745 0.23383144 0.11058408 0.101741746 -0.3436355 -0.22258806 0.22886983 0.48765704 0.30745685 0.28582564 -0.19531168 0.06821043 -0.20334896 0.022509152 0.13536207 -0.067276254 0.17906392 -0.35741982 0.68021524 -0.31462443 -0.4506663 0.09174783 -0.07498473 0.34875423 -0.57131433 0.60026723 0.01723349
362 -0.46864697 0.34417805 0.19878821 0.40686262 -0.13736941 -0.41845727 -0.145432 0.1118631 0.3949532 0.22304825 -0.3095764 0.095633775 -0.12959799 0.07982583 0.33857244 -0.047989316 -0.1198021 -0.03526166 0.19594255 -0.76552296 -0.17047936 -0.32045045 0.60969865 -0.029802999 -0.21575569 -0.16598228 0.032725252 -0.061720707 -0.3258678 -0.2280773 -0.19934839 -0.06508597 -0.12981014 0.019564291 0.26524764 0.39411286 -0.79241955 -0.10966504 -0.09777382 0.15788639 0.15298241 0.17275923 -0.24920526 -0.2628821 -0.111993246 -0.008262893 -0.38387018 0.42225802 0.13169836 -0.40466228 -0.40043616 -0.09160842 -0.04569692 0.056866508 0.14106435 -0.1971231 0.060139958 -0.010307146 -0.2500032 -0.056372833 0.28565958 0.3674791 -0.23613603 -0.28163826 0.33285674 -0.1124584 -0.23249367 -0.23606873 0.095527835 0.37292427 -0.23790988 -0.31090203 0.14009927 0.36799514 0.32519907 0.6148185 0.12082427 0.047042843 -0.71469784 0.07728935 0.019730205 0.23441745 -0.48652282 0.2100837 0.036124058 0.31639943 -0.73523164 -0.18532276 0.06258067 -0.49324462 0.2333197 -0.32581487 -0.18418248 -0.3068537 0.80963796 -0.02907589 -0.11933141 0.16315612 -0.49649706 0.033728678 0.085121654 0.093138225 0.53120154 -0.1772219 0.23045826 -1.0668232 -0.3770071 0.5905448 0.4716054 -0.36788046 0.08869316 -0.04678834 0.09865577 -0.39151302 0.25153026 0.5498435 -0.025936658 -0.050113153 -0.29069903 0.71081805 -0.1832756 -0.27408475 -0.24245414 0.23990464 -0.24497537 -0.13562031 0.4341674 0.17328973
226 0.02629598 0.25082776 0.2900347 0.20401116 -0.19924237 -0.27088994 -0.25867957 -0.14482951 0.103563234 0.0551589 0.041804038 -0.03403382 -0.1830724 0.14389804 -0.036087528 0.20362426 -0.052904345 -0.06778932 -0.18044344 -0.36240223 -0.036974248 0.12482298 0.19929726 0.015168753 -0.14225176 0.0633416 -0.1947612 -0.19023259 0.06417802 0.17461933 0.07163544 -0.037503194 -0.117954284 -0.110774964 -0.05864107 -0.021474129 -0.053966403 -0.49090388 -0.071200706 0.106041364 -0.092724055 -0.24425784 -0.23739214 0.11805564 0.19784367 0.0016868823 -0.3152596 0.38778126 0.20908499 -0.25756532 0.18696308 -0.21373355 -0.18972443 0.09081475 -0.29066807 -0.12344221 -0.22541048 -0.21236423 0.17676438 -0.3421026 0.32211408 0.40285867 0.15314202 -0.62599295 -0.30559608 -0.41936782 0.2695133 -0.044425145 -0.2446794 -0.17849305 -0.33661884 -0.16702116 0.2349976 0.008249102 0.22335765 0.50918263 -0.09242351 -0.08075122 -0.057493847 0.019059459 -0.08242452 0.41396794 -0.5077467 0.13109457 0.6004248 0.09312413 -0.0959571 0.1291549 -0.11708313 -0.4626247 -0.044250045 -0.40009636 -0.1843274 0.27947438 -0.030533869 0.011310449 0.11118191 0.03175913 0.13381328 0.022688078 -0.21331982 0.10957062 0.39940232 0.22778529 -0.23320106 -0.43545267 0.04411364 0.12721026 0.14172553 0.0075312736 -0.08736535 0.37259954 -0.31418622 -0.00053986866 0.061280783 0.35145473 0.23393808 0.13752455 0.10297218 0.70225227 -0.053115267 -0.25942338 -0.17289683 -0.29075083 0.0022717535 -0.48287943 0.008180773 0.19513215
750 -0.36275643 0.100834996 0.31575003 0.59715986 0.0061455853 -0.4249018 -0.09335026 0.6154047 0.23796515 0.39650524 -0.05585881 -0.15713969 -0.16391216 0.520894 0.44304073 0.03708617 0.028050626 0.23765942 0.3311656 -0.39399642 -0.14430057 0.24025856 -0.34333596 0.027679648 -0.056372136 -0.20738524 0.22810636 0.19915487 -0.31495413 0.05208427 0.14910874 0.092338905 -0.18904816 0.14447519 -0.08435316 -0.121866696 -0.39974385 -0.11580464 -0.044208348 -0.15591666 -0.20512465 0.06289302 0.15079576 0.076320186 0.044708617 0.06401766 -0.0030116483 0.16264343 -0.16042906 -0.1255891 -0.13741852 -0.07184516 0.03491959 0.40521008 0.18708284 -0.16806561 0.07992941 -0.11117405 -0.36897725 -0.114368506 0.40892836 0.027812684 -0.16994429 -0.15564714 0.10534709 -0.63811064 -0.029515255 0.117734075 0.7535391 -0.3085747 -0.00049730524 -0.13646625 -0.22541195 0.23470607 0.0719576 0.3872759 0.035580587 -0.041968085 -0.15367876 0.058751326 -0.283901 0.21830925 -0.27837974 0.28532097 -0.16566107 0.25968814 -0.58060956 -0.12522459 0.23123017 0.00324286 0.27984086 -0.23367609 -0.40017575 -0.016187811 0.5976381 -0.09603496 0.15238549 -0.35223228 -0.44927123 0.37685964 0.009950546 -0.11700815 0.050368704 -0.14368594 0.014060394 -0.27057198 -0.09937938 0.20883888 0.4875202 0.06775622 0.37062034 -0.016110837 -0.07213094 -0.41282296 0.026664032 0.13720855 0.03190235 0.19397758 0.008432738 0.30666086 -0.3878738 -0.41666844 0.16407718 0.08779085 0.28142786 -0.3262824 0.20872858 -0.23954196
489 0.03052473 0.105812944 0.1388416 0.27990913 -0.12693638 -0.079091 -0.17657927 0.34651923 0.32645738 -0.38674372 -0.038753666 -0.22327864 -0.2988964 -0.20694298 0.034127314 -0.09322424 0.131947 -0.085767865 0.28197488 0.04490422 0.11654412 0.17089638 0.07292766 -0.06907882 -0.059822347 0.3113756 0.1622784 0.07971651 0.11735699 -0.043100744 0.2854327 0.036740493 -0.2271262 0.089105435 -0.25262314 0.19730955 -0.15021427 0.15490961 -0.2246434 -0.030368181 0.18710072 -0.1922706 0.24129033 0.23683439 -0.03909215 0.088902704 -0.09198852 0.13773507 -0.12164506 0.21067517 -0.16425362 -0.07325652 -0.16836353 0.06341553 0.30500317 -0.2095902 -0.04167095 -0.29566616 0.30801377 0.2938637 0.44640842 0.25339958 -0.12910107 0.029433709 0.073822856 0.0043290285 -0.03852496 0.22810264 0.26325524 0.12295819 -0.09629892 -0.026872085 -0.15940765 0.1411594 -0.028240422 -0.10818053 0.18565571 -0.30646503 -0.013220201 -0.2379451 0.32032606 0.040168457 0.068327695 0.4071392 0.26990592 0.23210885 0.058817644 0.15798135 0.33053666 -0.17593804 0.05411612 -0.2182608 -0.04032527 -0.21502888 0.12929715 0.30982 0.10641853 0.430052 -0.2881144 0.03856981 -0.09415004 0.4974909 0.12982175 0.04342037 0.10139228 -0.37489212 -0.1483843 0.14873232 0.20679985 -0.09594395 -0.13295795 -0.014902587 -0.16542538 -0.06924531 0.19424324 0.19610752 0.26262093 0.014460219 -0.14540532 -0.031374678 0.070419066 -0.15460403 0.41031364 -0.20887253 0.3393368 -0.15417798 0.11722495 -0.016224258
1462 -0.06288006 -0.0962542 0.45594767 0.437983 0.034647334 -0.56700534 -0.08974182 -0.005668793 0.37373653 0.05116646 0.14268443 0.3238106 -0.4110638 0.093441755 0.1738469 0.378993 -0.119483255 0.1445957 0.060149465 -0.32991052 0.0685672 0.51474524 -0.113870785 0.08276664 -0.066528976 -0.23271038 0.037697047 -0.31067997 -0.03743314 -0.4001609 0.2933071 -0.27631617 -0.21786292 -0.0040392703 0.09744775 0.08597174 0.043668624 -0.10122817 -0.1217419 -0.0049920655 0.30692804 -0.111273035 -0.33576104 -0.01953197 0.17497683 0.2729098 -0.12580474 0.19623375 -0.11033346 -0.10221746 0.00416381 -0.060856536 -0.18003653 0.057372466 -0.2588411 -0.24622208 0.35633346 -0.11717201 -0.061825454 -0.42707765 0.33865836 0.43278843 -0.19440353 -0.5044717 -0.064974725 -0.19410938 0.1479733 0.21361412 -0.12974294 0.10291776 0.010567963 -0.724757 0.34653232 -0.17539063 0.21035345 0.24176428 -0.059941288 -0.08074157 -0.28719416 -0.15797798 -0.19979577 0.17486162 -0.2944517 -0.12885913 0.5264731 0.35734156 -0.07178928 0.596967 0.064501666 -0.30101666 0.3921141 -0.08016761 -0.17138073 0.12336769 0.14447495 0.33165565 0.07827213 -0.051908046 0.07109628 0.09836406 -0.04195799 -0.00043449237 0.26256382 0.6323432 0.021876225 -0.19481663 -0.12073787 0.1839647 0.28376976 0.049805127 0.042412154 0.41281158 -0.07432391 -0.44669 0.0925378 0.30034256 0.17084521 0.022255044 -0.102108456 0.8776314 -0.08397901 -0.27679875 0.081076145 0.09634629 -0.26940855 -0.37177685 -0.0105035575 0.37353292
1713 0.21789652 -0.3982749 -0.5125886 0.15713578 0.48525727 -0.20761377 -0.10263792 0.5276634 0.06414033 -0.1241744 0.5964623 -0.26353857 -0.15692903 -0.048832983 -0.00052525266 0.22130723 -0.008871587 0.50150335 0.42918053 0.19057086 -0.3019013 -0.28882003 -0.061613906 0.19608139 0.14948577 -0.067646675 -0.082932875 0.24477819 0.70749384 -0.010331586 -0.10066265 0.42635188 -0.1278004 0.41338792 -0.1434694 -0.014236905 -0.16278121 -0.015525384 0.15676108 -0.31375507 0.36374325 -0.7619494 0.09856779 -0.38425964 0.7182846 -0.47626388 0.24212584 0.23953725 -0.1329852 -0.17146495 -0.062449854 0.10688558 -0.1336912 0.19893609 0.20240334 0.21634607 -0.37566712 -0.15933461 0.27980456 -0.24444446 -0.14089416 -0.024446782 -0.016903143 0.08529594 0.13637877 -0.045191616 0.3694742 0.00029982292 0.30287308 0.30122396 0.020448865 0.09834896 0.16945137 -0.30559036 -0.08719804 -0.4369075 0.23803073 0.33005297 -0.07695245 -0.3871132 0.301141 0.1806234 -0.53447443 -0.20017709 -0.047556862 -0.45241126 0.15674694 -0.093755096 -0.12500678 -0.038977396 -0.06056077 -0.09047872 -0.26057643 0.5058403 -0.18829933 0.17024451 -0.4508196 0.16519998 -0.11855064 -0.131551 -0.076814264 0.343356 -0.06400513 -0.09974924 0.32464936 -0.22141224 0.11526677 0.3306887 0.6116782 0.14157851 -0.069955915 -0.50662285 0.41820088 -0.4489553 -0.03924256 0.10471016 0.09702029 -0.057084285 -0.1854873 0.5288027 -0.45511314 -0.42986608 -0.0067312596 -0.47378978 -0.118365854 -0.06522756 0.27158564 0.2862953
393 -0.047814492 -0.17688313 0.047565613 0.2856601 0.19414222 0.11026354 -0.107590415 0.07611536 0.21581091 0.21508887 0.19655888 -0.0858616 0.025874065 -0.22425623 -0.068026856 0.17709048 -0.075070724 0.39181978 -0.014479828 0.1746294 -0.2573971 -0.018893978 0.19779693 -0.020984111 -0.25725552 0.08750794 0.2061392 -0.42260337 0.1262013 0.36011744 0.4225771 0.019915573 -0.02485833 0.17667308 -0.08990999 -0.032198824 -0.22493142 0.28581974 0.0008260533 -0.022169571 0.081361875 -0.010460851 -0.08146385 -0.17708203 0.24693877 0.15943128 0.28095728 0.114069276 -0.0046670884 -0.20842928 -0.021075001 -0.10114431 0.052144643 -0.09586465 -0.23261772 0.12958279 -0.27116376 -0.13952896 0.060291603 -0.20570879 0.23645724 -0.15155049 0.06077917 0.13574861 0.2688031 -0.62059444 -0.13842286 -0.12148865 0.22448845 -0.23106027 0.051652312 0.23527558 0.1770768 -0.24762437 -0.10402462 -0.39511946 0.05169062 0.4912207 0.12505397 -0.16907872 0.095615074 0.3418993 -0.22806053 -0.10856063 0.4322709 0.08361206 -0.05306756 0.10890768 -0.15931484 -0.12353945 0.115228646 -0.24260984 -0.046877604 -0.056322068 -0.23908849 0.28404373 -0.1324539 0.017560676 -0.43095872 -0.20290278 0.33950502 0.36352313 0.12218595 -0.17084837 -0.2813316 -0.15295129 -0.0073480117 -0.06949503 -0.032135308 0.09832742 -0.21301733 -0.23853067 0.019780107 -0.013906529 -0.38524294 0.0030913774 0.020476734 0.1256572 -0.19491318 8.293924e-05 -0.07741344 -0.027887193 -0.3786167 0.23372109 0.020030865 -0.24291421 -0.13391106 0.11530954
445 0.037594147 0.0803684 -0.35888243 0.0913389 0.39645752 -0.21826749 -0.15039384 0.31638697 0.010390616 -0.023305349 0.12446359 0.02876552 -0.07000807 -0.12843755 0.04873331 -0.111693814 -0.011295197 -0.17576015 0.16201997 -0.3378867 -0.31978482 -0.038199488 -0.28294006 0.3484 -0.08666612 0.16753364 -0.16251588 -0.26801038 0.10642037 -0.0028143572 0.05759555 0.11142902 0.26698413 -0.07459078 -0.39404392 -0.120895706 -0.1542326 0.039761458 -0.2559612 -0.16850221 -0.085075624 0.06612876 0.2965358 -0.11956315 0.12037251 -0.30649695 0.37428936 0.04692275 -0.1378646 0.00023324274 0.023838358 -0.09310833 0.055716977 -0.024397325 -0.00016587786 -0.07119495 -0.059662435 -0.39084145 0.24624962 -0.5782422 0.264433 0.15902995 0.35760614 -0.025221223 0.19554262 -0.1310871 0.14886858 0.1320483 0.3249253 0.124669604 -0.045253992 0.1936601 0.015083482 -0.3819278 0.26892725 -0.044833217 -0.3198843 0.12722339 0.13246696 0.021192675 -0.06808751 0.12810978 0.24990715 -0.051607028 -0.05410132 0.24859701 -0.024378253 -0.30263644 0.02848648 -0.26265076 0.15163812 -0.46501422 -0.062441863 0.16247027 0.19274978 0.14755079 -0.33042532 -0.050766367 -0.18962277 -0.08835692 -0.024163954 0.012168883 -0.049049042 0.22826535 0.19642702 0.052269053 -0.011642059 0.13212207 0.46127886 0.012502683 0.011516241 -0.15447626 -0.02390488 0.035059176 -0.19959642 0.10314118 0.32033584 -0.14246958 -0.020723931 0.2656935 -0.0103523 -0.13578601 0.02597335 -0.2652973 0.15707709 -0.0917746 0.0063525136 -0.0571518
696 -0.26911148 -0.12052958 0.12661082 0.35343063 -0.04680741 -0.12397307 -0.0945569 0.12004753 0.14049782 -0.16321452 0.72101617 -0.12319952 -0.026032813 -0.3659048 0.55221623 -0.26641098 -0.31804588 0.063886695 0.031903584 0.17672576 -0.17365825 0.49630708 -0.17201999 0.06372293 -0.027318517 -0.11785563 -0.31032988 -0.11305527 0.2646674 -0.17616025 0.47451827 -0.1578469 0.25566027 -0.19074167 -0.17137876 -0.2051225 -0.094126105 0.00446121 0.30928585 0.003670486 0.06754651 0.42796898 -0.07916338 -0.15301941 0.26633513 0.15632606 -0.4235184 -0.08707708 -0.36872348 0.178653 -0.22354195 -0.020914188 -0.09842416 -0.17601597 -0.26283863 0.10817493 0.20960315 0.13805473 -0.364273 -0.32762656 0.33619782 -0.0971972 -1.3182479e-05 -0.1557529 0.49536142 0.05979593 0.07759743 0.3969761 -0.3202161 -0.07012086 -0.16467598 -0.30677554 -0.0004556334 -0.09616918 -0.21723908 0.07182973 0.1541451 -0.32548162 -0.13676195 0.08283056 0.057364684 -0.07206417 -0.16073474 -0.18977699 0.34392744 0.095215805 -0.30080774 0.07452558 -0.3012724 -0.25466532 0.09358433 -0.30067375 -0.19977358 0.100287125 -0.21872863 0.39470336 -0.012468864 -0.06178875 -0.201222 -0.12533364 -0.14349355 -0.19913034 0.045844007 0.6040172 -0.0983072 -0.050380256 0.3424916 0.375355 0.32805416 -0.116956316 0.24167825 0.3748305 -0.3340139 -0.23846637 -0.07342704 0.032052863 0.27147362 0.41354516 -0.31059587 0.21181217 0.41452488 -0.44468036 -0.16377178 -0.32196394 -0.3724036 -0.31021538 -0.15803082 0.31252217
1610 0.18614122 -0.05242604 0.3492656 0.48106134 -0.17105843 -0.08451364 0.0638716 0.25274086 0.22063334 -0.18203117 0.46998006 0.06789562 -0.1857099 -0.21985953 0.013054288 0.40193257 -0.457823 0.49008912 -0.022859018 0.052196536 -0.015656017 0.5260491 0.049665138 -0.12820475 -0.29677162 -0.11616966 -0.5093228 -0.32863596 0.4790889 -0.07605277 0.7428847 -0.17260921 0.26753423 -0.08008536 -0.15655163 -0.4593073 0.12885405 0.09417516 0.15657806 0.060588013 0.25973842 0.29456 0.51220334 -0.190124 0.107512 0.14116581 -0.07363852 0.14330494 -0.26032022 -0.07448556 0.020287935 0.16469248 -0.016243627 0.23662575 -0.4254976 0.09413348 0.33493978 0.070764825 -0.23253962 -0.45053035 0.17865779 0.1367924 -0.10283472 -0.44103882 0.31480747 -0.027041033 -0.19088103 0.7296553 -0.061963476 -0.19067743 -0.6492026 -0.57276934 -0.1861225 0.12906204 0.0832274 0.1081132 0.2447853 -0.50737137 -0.46849492 0.09087597 -0.058729175 0.0065644574 -0.27690104 -0.061545443 0.25542906 -0.11879313 -0.2307693 0.07545848 -0.11194522 -0.005812106 0.36413103 -0.5276942 -0.06368618 0.3448239 -0.11131184 0.1287506 -0.28372848 -0.34308848 0.01967529 -0.29936275 -0.63418895 -0.41273507 0.13587284 0.2669199 -0.12370941 -0.18170007 0.4937797 0.037239537 0.56305903 -0.28858873 0.5154173 0.6698845 -0.5722598 -0.23376235 -0.0069078817 -0.037716515 0.1543222 0.08738262 -0.5609573 0.5145114 0.65684664 -0.47886163 -0.045363 -0.16972224 -0.5590424 -0.093661085 -0.061351057 0.5980255
889 -0.13473046 -0.049597606 -0.19292176 -0.052361313 0.013191623 0.0005911422 -0.2409517 -0.064922005 -0.09061917 0.35584873 0.6820116 0.28016564 -0.42818797 -0.1806434 0.30704957 0.3536489 -0.09212764 -0.18257284 0.19346817 0.15700378 -0.48444518 0.47809243 0.3259438 0.5986574 -0.34066594 0.021394048 -0.23227888 0.107195616 0.23999624 -0.2607345 0.48448575 -0.5282695 -0.020650899 -0.018322207 -0.38919783 -0.29494175 -0.21203636 -0.04033164 0.022813099 0.06483929 0.5648016 0.07906666 0.110759385 -0.46860275 0.38647476 -0.026545404 -0.028806262 -0.083117865 -0.79527956 -0.14316118 -0.34927958 0.046091147 -0.041714076 -0.35053617 -0.42768586 -0.12993696 0.24675013 0.4326442 -0.33871502 0.36492705 0.5034272 0.15447418 0.34818673 -0.099449575 0.56222945 0.05714786 -0.23874375 -0.1143372 -0.0433677 -0.07150257 0.5939418 -0.22234069 0.28694862 0.13472043 -0.25830245 -0.20875716 0.392752 -0.49529967 -0.09143039 -0.17039874 0.3246488 -0.20094723 0.055771723 -0.43112892 0.6519485 0.12699452 0.069185 0.23702422 -0.47016868 -0.12647283 0.17966287 -0.08561609 -0.53667283 0.4935351 -0.095513366 0.4603388 -0.21311773 0.03491239 -0.19356546 0.09004826 -0.10772601 -0.26034102 0.27131397 0.31728193 0.11015176 -0.18503504 0.3679747 0.27684003 0.08475755 -0.30383712 0.46338162 0.11854299 -0.47656506 -0.27873427 -0.27922928 0.0030422835 0.49618626 0.11110584 -0.24814461 0.26717767 0.55753964 -0.6110838 0.11163586 0.25697866 -0.36887735 0.008653002 0.13696595 0.31102586
1615 -0.2049725 -0.20929523 0.5921643 0.35694897 0.32892665 -0.4429688 -0.09466545 0.20604558 0.3023251 -0.0043757055 0.7825257 0.34265843 0.20452742 0.03623394 0.33353108 -0.26320875 0.07871186 0.30249918 -0.118564814 0.23962764 -0.43486935 0.3770914 -0.37339568 0.36693582 -0.032105982 -0.13513207 0.118606985 -0.33261427 -0.10127836 -0.33133805 0.5822045 0.18217725 0.36027864 0.4133163 -0.02832773 -0.048382767 -0.2917665 0.006832357 -0.46642473 -0.19100307 -0.0008819487 0.092323616 0.28127387 -0.6924 0.20902644 0.2750643 0.049821693 0.21865794 -0.16461837 0.03427984 -0.06100258 0.1726313 0.045743346 -0.10750407 -0.043374445 -0.37561843 0.09358865 0.22498141 -0.02048714 -0.42505595 0.1332142 -0.0065035606 -0.25514528 -0.23165448 -0.057070285 0.5359051 0.089392364 0.1823017 -0.09501422 -0.16000667 -0.0451694 -0.062518395 0.038283125 -0.18548824 -0.0997058 0.14432544 -0.006506183 -0.04684832 0.008851984 -0.021077469 -0.049044132 -0.06459356 0.046017483 -0.46006867 0.2655219 0.27295277 -0.230808 0.105684675 -0.102724485 -0.21074666 -0.02026692 -0.2638098 -0.20387271 0.21632884 -0.0893617 0.18951955 -0.095494986 -0.07940382 -0.06108059 -0.06473853 -0.25503182 -0.26177657 -0.051208735 0.4345537 0.41405016 -0.11678733 0.08556972 -0.04660863 0.16661784 0.09934497 0.21676078 -0.05843211 0.06565559 -0.49053517 0.0145165 0.14146754 0.40400147 -0.20080996 -0.02137681 0.41694346 0.6141234 -0.22041696 0.026506107 -0.5253954 0.3494159 0.22330767 -0.05193879 0.43706053
708 -0.33784792 -0.20270687 0.16110082 0.44228843 -0.016976686 0.044086266 0.36584955 0.4070797 0.04545276 -0.121409945 0.22838594 0.05251587 0.0009663431 -0.2820163 -0.25557604 -0.12359074 -0.04374739 -0.00012051614 -0.07498016 0.022250662 -0.20526832 0.015409698 -0.10406203 0.24518937 -0.3474311 -0.12459661 0.41511598 -0.13884136 0.15811792 0.1805281 0.25633666 -0.048300494 -0.29717454 0.34049982 0.045503307 -0.20357923 -0.44613284 -0.41758952 -0.067183055 0.09479154 -0.07636602 0.19342078 -0.4252912 -0.02812814 -0.18070154 0.24086168 0.14735721 -0.21594465 -0.12170033 0.114382744 0.26366615 -0.22623608 0.24239108 0.19188692 -0.14585958 -0.17290516 0.19615941 0.027144674 0.18446803 -0.019354196 0.31426853 -0.009298948 -0.45922625 -0.05351644 0.18128641 -0.09729213 0.24974123 -0.012151068 0.23769112 0.2247917 0.15275395 0.15459979 0.34846404 -0.2009923 -0.3420793 0.02177316 0.10530903 -0.0839051 0.013901913 -0.2829042 0.11068881 0.11361749 0.006405677 0.0970434 0.17569263 0.059855215 -0.07418236 -0.014406712 0.30727595 -0.15170588 0.047414657 -0.04315829 -0.17265913 0.32913464 0.104685366 0.23417394 0.1425973 0.12907887 0.06959458 0.020334572 -0.22508712 -0.2179539 -0.23930763 -0.061029278 0.114918455 -0.13414541 -0.3176893 0.02200281 0.22345646 -0.5769181 0.43723103 -0.32170814 -0.31174722 0.13429998 -0.5250304 -0.18110386 0.20431529 0.0017162067 -0.16419438 0.04854241 -0.005754433 -0.037299637 -0.024858449 -0.3961014 -0.28570572 0.026090762 0.12054761 0.12762918
713 0.011050527 0.2311908 0.61732215 0.8714875 -0.13800523 -0.32120618 0.15018098 0.27102467 0.32217285 0.14478818 0.19084792 0.27497962 0.34011954 -0.28949884 -0.03682504 -0.02374267 -0.052958407 0.0016645824 -0.27427685 0.16651084 -0.36451828 0.18033119 -0.34650016 0.11873547 -0.18858029 -0.28639126 0.17944548 -0.22331227 -0.18465193 -0.051154647 0.2738643 0.041476775 0.067127354 0.26601583 -0.22204028 -0.31165 -0.28301203 0.24330862 -0.15480812 -0.20547232 0.11046376 0.036596615 0.036744967 -0.5593419 0.36765346 -0.06473148 -0.0785455 0.02809743 -0.4212675 0.16869362 -0.20806186 0.23478666 0.37962607 0.118524194 -0.046095207 -0.1216032 0.4921618 0.24392465 -0.21081495 -0.508831 0.3911529 -0.036815602 0.037812497 -0.22128147 0.05717306 0.4597285 0.093118 0.17769592 0.059183918 -0.24442048 -0.21559277 0.3228293 0.05965751 -0.1890496 -0.1355827 -0.11444282 -0.23018205 0.013900082 0.056927867 0.03978196 0.20924078 -0.37670013 -0.017227914 0.009885833 0.2654256 0.003884485 -0.09647933 0.3639078 0.08597356 0.14873727 -0.10100165 -0.2559839 0.091006935 0.45917997 -0.31098425 -0.11110192 -0.03923505 0.14956336 -0.11561591 0.09043733 0.07214089 -0.26155764 -0.29808548 0.17561434 0.27633706 -0.33020872 -0.2086424 -0.16849929 0.17558312 -0.14385273 0.073304296 0.029178571 -0.1909286 -0.40890723 -0.12351369 0.117180295 0.5757107 -0.047342166 -0.1479865 0.036488045 0.36014593 -0.5435435 0.13726176 -0.4445268 0.16610378 -0.21195316 -0.10061555 0.11566895
718 -0.35488212 -0.036189847 0.38876498 0.55588466 0.16652583 -0.16119783 0.11475548 0.40035304 0.32659313 -0.034416422 0.42004663 0.6168521 0.23662105 -0.5119023 -0.089114465 -0.18169297 -0.11071549 0.03776665 0.35097793 0.06596251 -0.45256484 0.07266463 -0.034302182 -0.009652697 0.13790156 -0.020557402 0.07967211 -0.16034366 0.24086662 0.073048264 0.172958 0.18508269 0.12526761 0.16005135 0.097689494 -0.021310495 -0.13622154 -0.23529792 -0.21861723 -0.1290189 0.07223816 0.33827287 -0.014961701 0.010937314 0.5196417 0.25373438 0.16552146 0.15706062 -0.22776724 0.17021376 -0.01670254 0.11173913 0.10285348 -0.112152874 -0.5439351 -0.14033629 0.32880148 0.09320343 -0.11034027 -0.10180465 0.2766574 -0.4465675 -0.43009603 -0.1686744 -0.22522335 -0.07346834 0.23784225 0.33668447 -0.14968497 -0.2544768 0.04515963 -0.090057954 0.33930618 -0.20043723 0.22317286 -0.04122025 0.08131722 -0.10547183 -0.1052582 0.22526306 0.2987499 -0.37470087 -0.06078596 0.2571437 0.67662346 0.06544969 -0.17258053 0.2552667 -0.0058797323 -0.09254266 -0.07094205 -0.4274277 -0.07993362 0.33124077 -0.10285005 0.32712102 0.0074607683 -0.030968295 -0.3663413 0.095390484 -0.35644457 -0.26486585 -0.12801449 0.0761233 0.16276675 -0.31253973 -0.0015250196 0.038792368 0.58746696 -0.45791826 0.47566384 -0.21620896 -0.034167722 -0.33104834 -0.32285392 -0.09563286 0.48202685 -0.03291323 -0.116351835 0.22801034 0.33588782 -0.15520053 0.008982044 -0.12879756 -0.35557088 0.048058935 -0.3600916 0.1398696
1630 -0.39116746 0.098550975 0.52456987 0.42073143 0.009447711 -0.49685028 0.016506623 0.22918184 0.28031456 0.11522115 0.65652186 0.116778165 0.30251104 -0.23724642 0.258853 0.07037867 -0.009308832 0.28039688 -0.23015742 0.04454059 -0.40605462 0.23589805 -0.1394583 0.24143966 -0.10350562 -0.1412742 0.00020398627 -0.3558358 -0.23697287 -0.48271948 0.5405708 0.09551408 0.37029445 0.21090208 -0.06778518 -0.24655274 -0.39041916 0.19204748 -0.2832458 -0.13005231 -0.022717902 -0.06886897 -0.19445463 -0.73260856 0.24041785 0.09933538 0.029682798 0.025971148 -0.29482403 0.29352635 -0.18408307 0.27625152 -0.18365383 -0.055312466 0.027102675 -0.24681103 0.32141885 0.4415094 -0.19481012 -0.3420344 0.21973176 0.1318492 -0.3021353 -0.43155083 -0.02401689 0.31166345 0.11826218 0.20497115 -0.13676037 -0.49878556 0.11545079 0.19799753 -0.17704381 -0.32249963 -0.13610797 0.020475442 -0.09411233 0.017204402 0.25190857 -0.3404134 0.3778949 -0.17131339 0.040579554 -0.14177336 0.22739032 0.17811333 -0.18473014 0.10755474 -0.05761022 -0.17725854 -0.12695451 -0.4019521 -0.22814 0.37142393 -0.18616742 -0.091414176 -0.21300398 0.20408565 0.23724134 0.1291006 -0.15369444 -0.18124907 -0.2729277 0.2329782 0.3290187 -0.20967372 0.30523577 -0.2714508 -0.10785383 -0.02886469 0.46667972 -0.10832384 -0.2885058 -0.5062401 -0.06116128 0.11065725 0.5875513 -0.17420605 0.09380407 0.19884457 0.5781621 -0.3603386 0.15153591 -0.07954603 0.28990296 0.06089241 0.124816515 0.5740678
734 0.015903382 0.097194 0.37970692 0.44133002 0.014164221 -0.095104545 0.043533053 0.5280975 0.112541735 0.1289247 0.36374155 0.49655896 0.07619466 -0.27872935 -0.021253383 0.1710334 -0.076754265 -0.04792448 0.015627231 0.07865173 -0.22526099 0.49627605 0.030198727 0.3398573 -0.09345027 0.13452111 -0.32798427 -0.38474095 -0.12107813 0.23104627 0.4715419 0.18884146 0.1514803 -0.09103502 -0.21041325 -0.12685855 -0.13509053 -0.2258868 0.19539599 -0.2300459 0.07916598 0.22951949 -0.16377728 -0.13854986 0.47100115 0.12244726 0.04817454 -0.19228901 0.018285945 -0.013150404 -0.27738458 -0.11697641 0.1866572 -0.09876954 -0.34394363 -0.23502633 0.37111905 0.38229248 0.0881814 -0.21315138 0.43713102 0.030853499 -0.13745919 -0.41130197 0.045009445 0.43775243 0.12370189 0.38781396 -0.24519993 -0.32550937 -0.09422144 0.058460906 0.16849434 -0.09599295 0.24307354 0.38006836 -0.10241236 -0.061347976 -0.20211992 0.30528283 0.3132471 -0.282965 -0.1674226 -0.06910236 0.7357071 -0.18626694 0.036426224 0.36406374 -0.2373721 0.081720315 0.18653387 -0.3003874 -0.08824709 0.33687866 0.009283403 0.055244274 -0.10801682 -0.1807858 -0.2568269 0.18936907 -0.45466128 -0.052047107 0.11791397 0.19604506 0.21342036 -0.3757087 -0.32355917 0.0753049 0.34978825 -0.42441314 0.41061717 -0.3619894 0.11975434 -0.095890544 -0.07939711 0.41374955 0.49326956 -0.100450665 -0.20820329 0.34823394 0.07565609 -0.24351524 -0.10082143 -0.17558011 -0.6221624 -0.15646724 -0.3052045 0.05002331
776 -0.05987886 -0.17551988 0.21193306 0.42410016 0.094817325 -0.1358474 0.18531974 0.37240937 -0.034844328 -0.32255563 0.09593975 0.30626523 0.17113926 -0.2023587 -0.028349213 -0.09299015 -0.15406755 -0.040974706 0.10736186 0.17857143 -0.15760903 0.08175603 -0.0037667248 0.39180896 0.12997125 0.18181296 -0.087073445 0.029618891 -0.3407633 0.43660122 0.58151656 0.07251466 0.29362124 0.259441 -0.37975216 -0.03199059 -0.19915628 -0.35523298 0.36152124 -0.18142244 0.037980165 0.3420401 0.09285602 -0.28940886 0.45386913 0.39835045 -0.18360937 -0.17125241 -0.000440288 0.09718854 0.13943309 0.10684486 0.1642356 0.08930144 -0.29488412 0.02678935 0.6293809 0.4364774 0.13367246 -0.19208366 0.25736815 -0.26081437 -0.20340699 -0.056473985 -0.038799673 0.075869426 0.16587502 0.42575085 -0.1886233 -0.65584624 0.011873781 -0.049411252 0.19403753 -0.19693966 0.169087 0.25158426 0.069085345 0.06696479 0.012249741 0.137742 0.12434752 -0.21450482 -0.32987112 0.35914376 0.5725019 -0.17349645 0.1336452 0.57901496 -0.4445872 -0.12493361 0.47267184 -0.37244827 -0.280785 0.5314161 0.097605154 0.28612944 -0.06573203 0.23579551 -0.39350796 -0.100167155 -0.46821856 -0.3939512 -0.03498966 0.24383369 0.025237616 -0.42211625 -0.061735578 0.14621079 0.273123 -0.20866035 0.5259813 -0.24552524 0.23033153 -0.32796055 -0.14565273 0.21956517 0.4068829 -0.042358898 -0.049376015 0.21257058 -0.32412073 -0.2311474 0.066995926 -0.0456249 -0.36003295 -0.075093575 0.1923195 0.15542062
814 -0.47647753 -0.066799864 0.3669385 0.38240933 0.16928464 -0.32637838 0.1647981 0.22169189 -0.10097883 -0.009391459 0.14188431 0.44287083 0.06727524 -0.20218836 0.10957245 0.07185205 -0.12993997 0.16585125 0.033951532 0.3943579 -0.2888598 0.31471026 0.03063743 0.2742999 -0.1212972 -0.0066751465 -0.24649647 -0.21996605 0.00713261 0.14621037 0.4758117 0.05736838 0.122606516 -0.06671834 -0.16420214 -0.027166056 -0.06291143 -0.25739443 0.077966765 -0.16151957 0.29674855 -0.035125118 -0.0033132054 -0.2917987 0.29935837 0.2790428 0.051760525 -0.07483821 -0.138309 0.45565557 -0.07476662 0.0016966366 0.15397266 0.058345027 -0.32224897 -0.059787147 0.35119778 0.47201008 -0.11999245 -0.31538743 0.47276792 -0.017357124 -0.352826 -0.22562188 -0.17674305 0.06892748 0.026286403 0.47476232 -0.18520144 -0.42895132 -0.20746541 0.021664694 -0.026533412 -0.15214983 0.5910428 0.29422572 0.08379842 -0.03905596 0.32001472 0.115608566 0.1261897 -0.28921935 -0.39139828 0.12649536 0.48562127 -0.1057713 -0.28105146 0.28668052 -0.1649379 -0.08492937 -0.005784419 -0.432046 -0.39349324 0.48240486 0.018215712 0.06295043 -0.080846965 0.14880869 -0.34525147 -0.035796523 -0.3897031 -0.49806082 -0.20694467 -0.09339483 0.30064374 -0.10035655 0.011311898 0.10670347 0.26841295 -0.5767221 0.5989356 -0.042685673 -0.33437347 -0.20942646 -0.040508747 0.16038734 0.60593563 -0.12012925 -0.19849014 0.3626346 0.13685398 -0.32528466 0.049620118 -0.008976151 -0.47964182 -0.13757384 0.10179956 0.12750697
818 0.03698129 0.060508344 0.15695068 0.38920364 0.14721695 -0.14771117 0.022257626 0.32738 0.049710963 0.09646673 0.33056453 0.5740227 -0.06138525 -0.43091533 -0.07287695 -0.15632711 -0.07320259 0.087618046 0.029905131 0.20117748 -0.1815919 0.3758946 0.14945407 0.33681816 -0.3106154 -0.033786297 0.017170286 0.037077848 -0.002149935 0.31651196 0.5702896 -0.042676855 -0.26144108 -0.18526092 -0.33787233 -0.034408107 -0.049313113 -0.26964116 -0.0348324 -0.37212372 -0.2055421 0.11068194 -0.10961625 -0.17018367 0.5197585 0.316442 0.23324575 -0.23949766 -0.18941699 0.14940725 -0.08750982 -0.096737415 0.12132609 -0.119708516 -0.46168375 -0.024406198 0.47553137 0.3006104 -0.11537592 -0.15966983 0.2417768 0.056368973 -0.1985011 -0.30492404 -0.008166699 0.016107185 0.044608414 0.44441992 0.051227026 -0.5083242 -0.37276936 -0.11870286 -0.1315067 -0.15071225 0.020564483 0.6261936 -0.06376163 0.024345357 -0.08060962 0.03292426 0.47249046 -0.18013659 0.022943832 0.11093381 0.50730574 -0.23781408 0.13776322 0.27881104 -0.17946221 0.037570614 0.14050642 -0.36757916 0.07295809 0.34111518 -0.1561461 0.08957076 -0.055686608 0.117127955 -0.4706123 -0.090283215 -0.6249576 0.0152739715 -0.15282719 -0.177635 0.34732503 -0.03327352 -0.09498072 0.1154599 0.40026692 -0.4566122 0.32819358 -0.49253574 0.112741046 -0.024631342 -0.084079415 0.23199809 0.3466763 -0.091050155 -0.19218546 0.30481142 -0.18260033 -0.39669374 -0.16143641 0.22719985 -0.50907797 0.18602474 -0.2170142 0.17787169
1401 0.33700296 -0.14201987 0.11612057 0.30433977 -0.01055646 -0.26277766 -0.3951444 -0.038177207 0.29425967 0.16654934 -0.13296065 0.19840585 -0.30710825 0.0044922526 -0.09004965 0.27636203 -0.12349919 -0.047547206 -0.1229257 -0.14114667 0.19736393 0.025745075 -0.07797518 -0.15166898 -0.09154081 -0.40981618 -0.055911332 -0.19517925 0.2576302 -0.009057457 -0.018605813 0.11966762 -0.41727465 0.084449664 0.014528475 -0.36699402 -0.17377043 -0.46330157 0.27245036 0.05461341 0.22607443 -0.17576604 -0.062152207 -0.39349934 -0.12579681 -0.21708386 -0.17296012 0.37110245 0.077460855 0.032821067 0.36257386 0.1642091 -0.102471136 0.10261922 0.06766289 0.014242726 0.04259466 -0.19937404 0.42584312 -0.53264475 0.22942893 0.060136266 -0.0055453605 -0.63486946 -0.005102049 -0.38410437 -0.11979788 0.0046682926 0.020613527 -0.11675222 -0.28170916 -0.10675591 0.05492551 -0.24723646 0.74407035 0.23110965 -0.013887441 -0.069978334 -0.33433062 -0.07210446 -0.081696205 0.1873942 -0.07328545 -0.09378095 0.8009365 -0.028893797 0.35950673 0.11385565 0.27536878 -0.4450175 -0.22270542 -0.27057746 -0.04211646 0.26013514 -0.16402511 0.10725922 0.0860453 0.23745036 0.08359034 0.25411233 0.0016770664 0.20672557 0.272419 0.45983773 -0.04062402 -0.30305195 0.180517 0.23319481 -0.020093283 0.08786318 0.03188711 -0.0009035158 -0.21215191 -0.21537304 0.3240534 0.011701811 0.15961555 0.10816418 -0.18372567 0.5853959 -0.15005605 -0.25945824 -0.16154714 -0.5996504 -0.4151869 -0.21912849 0.16022907 0.5045092
220 -0.2665174 -0.20681581 0.03158411 0.3288871 -0.04892471 -0.12721583 -0.5887669 -0.18458715 -0.058581315 0.25892788 -0.38375887 0.32428652 -0.3914888 -0.14378393 0.1738096 0.17531303 -0.18394504 0.1693697 -0.1220591 0.009263441 -0.017517071 0.097593345 -0.06446489 -0.15636538 0.11070554 -0.06578921 0.25258994 -0.09981338 0.20821561 -0.10487477 0.016156211 0.27217126 0.24515627 0.41267776 0.30733007 -0.3226331 0.07844264 -0.64123005 0.14469902 -0.18878621 -0.16237977 0.081919424 -0.32506016 -0.0015731971 0.25084037 -0.20761158 -0.17206448 0.50380987 -0.06259408 -0.11455396 0.41973865 0.049027767 0.20420262 -0.09401974 -0.30379757 -0.121198244 0.03661829 -0.13641815 0.28063625 -0.31445023 0.25357932 -0.26303464 0.07475168 -0.2750406 -0.46253726 -0.3191304 -0.061846353 0.2267758 -0.013830083 -0.40882254 0.19456196 0.22784588 0.3086434 -0.62621033 0.6622757 0.25677523 0.04331583 0.11379936 -0.23840494 -0.19970417 -0.07939377 -0.042452935 -0.20452914 -0.17346472 0.9457445 0.37540987 -0.23177277 0.0315423 -0.17056172 -0.48795888 -0.11944888 0.07493372 -0.09402048 0.3415364 -0.0077599473 0.3855818 0.4688914 0.022415508 -0.028813371 0.13797462 -0.060588554 -0.12389858 0.5083056 0.47058392 -0.109774075 -0.15897039 -0.19772734 0.22845636 -0.043719385 -0.069228016 0.016780782 -0.21464781 -0.29108348 -0.24670379 -0.053897742 0.10760236 0.39728197 -0.20540391 0.21621169 0.79138744 0.0033026328 0.103056155 0.025936939 -0.44665188 -0.21165895 -0.050285965 -0.016895851 0.18787545
1412 0.12453263 -0.078165375 0.35496077 0.52964914 0.098531164 0.13432711 -0.09569511 -0.16840224 0.06257709 -0.09188236 -0.063226685 0.35513476 -0.45829624 0.051577386 0.55926687 0.5162448 -0.13850369 0.29615146 -0.008625794 -0.2970649 0.19974563 0.22211333 -0.0011352134 0.33348745 0.007966038 -0.26209846 -0.11083107 -0.2049362 -0.14130768 -0.009771481 0.023582572 -0.10661033 -0.13671193 -0.091470554 -0.2281985 -0.24092427 -0.4673488 -0.37691104 0.1927649 -0.05084155 0.123755604 -0.095736116 -0.38339272 -0.14934042 0.24706438 0.20379665 0.06559039 0.19340788 0.2724184 0.17100756 0.20527747 0.14032006 -0.014852118 -0.014467797 -0.045577202 -0.31031758 0.002568189 0.27451932 0.26935962 -0.09016249 0.26448143 0.22782306 -0.06686067 -0.25145867 0.44493437 -0.30124608 0.14693959 0.17589372 -0.41584167 -0.071912766 -0.17464498 -0.2312893 0.4116173 0.083192624 0.09499417 0.041052453 -0.27717483 0.14888819 0.15801735 0.021393318 -0.13888787 0.6037963 -0.22955506 -0.041795224 0.44650447 0.13081306 0.23449592 0.074652165 -0.19201607 -0.11758626 0.21963619 0.0045844796 -0.072324984 0.19626406 0.33243078 -0.16342334 0.14659101 0.258849 0.23014192 0.0091133425 -0.056635167 0.2928915 0.42105612 0.26599103 -0.34749028 -0.12917785 -0.02624525 0.40686285 0.4432054 0.010587996 -0.24694833 0.3347438 0.19326355 -0.14547943 -0.017660234 0.17146362 0.27093247 0.13435464 -0.13861193 0.42331252 0.0029642899 -0.0046994397 0.012517369 -0.26135132 -0.06522015 -0.36615855 -0.007259387 0.3860234
1413 0.39849496 0.037569445 0.23988973 0.24153578 0.11216521 -0.30468422 -0.24224482 -0.21771996 0.280959 0.045609113 0.03723116 0.3146914 -0.0018852374 -0.023660352 -0.054273296 0.11873294 0.15279199 -0.15606001 -0.3312046 -0.19509976 0.07272528 0.1226693 0.044830736 0.14195192 0.06638475 0.005838836 -0.019632274 -0.1729583 0.37614542 -0.21780513 0.02572675 -0.121875525 -0.026587628 0.036025878 -0.08560058 -0.23426932 -0.26541412 -0.5879042 0.24190739 -0.074063875 0.18636188 -0.25133663 0.13002935 0.11096788 0.027348405 0.03597328 -0.20840923 0.44458374 -0.071284436 -0.09814462 0.21825543 -0.026527124 -0.04888285 0.10308301 -0.18780708 -0.18469167 0.031183593 -0.06610161 0.119015 -0.6259211 -0.102341674 0.3827639 0.3186522 -0.4790769 -0.016327035 -0.268012 0.46016228 -0.16434027 -0.030038286 -0.36047822 -0.30866542 -0.17507437 0.29186606 -0.4132747 0.2617128 0.33294094 0.13170248 -0.07170047 -0.05624237 -0.101470605 -0.23076476 0.28411376 -0.285793 -0.046190426 0.5659722 0.023337005 0.3453923 -0.056562766 0.17435852 -0.2951112 -0.16367716 -0.12756087 -0.3434169 -0.034957305 -0.06915049 0.29711595 0.25875303 0.21973859 0.14995946 0.20961842 -0.06388731 0.061934665 0.8006765 0.6191765 -0.07961002 -0.31283438 0.17414834 0.32828894 0.23444006 0.102144435 0.17335054 0.39504606 -0.25466356 0.01515903 0.13191955 0.36102018 0.22591566 0.107289664 -0.11863908 0.7370282 0.051344313 -0.12497958 -0.100519754 -0.28574377 -0.16817169 -0.375666 0.1273516 0.26587784
228 0.13434044 -0.1640681 0.45720407 0.18186894 -0.13546062 -0.04175983 -0.30322996 -0.27108428 0.13420942 -0.0153889395 0.26991722 0.18951285 -0.42631713 0.00082681334 -0.09644036 0.09396337 -0.27675807 -0.3386018 -0.22455016 -0.37961724 -0.094693184 0.17233953 -0.23032926 0.009571699 -0.20885928 -0.076643065 -0.19622232 -0.18790129 0.10397298 0.06875776 0.039344598 0.10417057 0.10680853 0.11166152 -0.09671576 -0.042604554 -0.17733246 -0.49422005 -0.09265264 0.039788544 -0.030573096 -0.36067772 -0.14576718 -0.33450258 0.28165925 -0.0012098436 -0.09295999 0.3982156 -0.012847947 0.11732475 0.19861813 -0.042511273 -0.25977567 0.27104047 -0.23697329 -0.25106055 0.10448027 -0.0426712 0.062163454 -0.39150015 -0.12918492 0.062684804 0.017456956 -0.52329296 -0.10546589 -0.525618 -0.048945505 0.083773404 0.1406793 -0.08910667 -0.22401866 0.04953928 0.1624553 -0.27628714 0.400062 0.2209317 0.164697 -0.16252984 0.040498793 -0.075090386 -0.5057617 0.3951038 -0.36256424 -0.071053416 0.49088874 0.04856144 -0.040815048 0.058852307 -0.010113056 -0.16671462 -0.19832574 -0.16534947 -0.13207813 0.602289 0.004713632 0.2315966 0.13037558 0.20606391 0.33629718 -0.097124144 -0.050595284 -0.07705039 0.42897972 0.26745808 -0.30313975 -0.18436137 -0.21501723 0.100441016 0.004126266 0.11405455 -0.2906924 0.32149494 -0.11347795 -0.0023627968 -0.028778646 0.4448169 0.08087095 0.08138636 -0.16243684 0.63905627 -0.062346283 -0.3947541 0.21928409 -0.3275227 -0.09375645 -0.16157702 0.02652628 0.40886968
233 0.10556807 -0.1888752 0.23529719 0.103513785 0.17069815 -0.15699944 -0.20977053 0.100408755 0.014249984 0.1967142 0.40907377 -0.01263914 -0.15881318 0.24586964 0.19478616 0.25358766 0.04511533 0.08274169 -0.13776055 -0.3281786 -0.17464648 0.057308912 0.115546875 -0.17765088 -0.048081055 0.05747984 -0.037821423 -0.15319265 0.22187616 -0.063557364 -0.20697197 -0.069682986 -0.09125505 0.29450548 -0.0038946066 -0.24577796 -0.14692345 -0.4693563 -0.023793476 -0.26887077 0.1016136 -0.255332 0.016749559 0.04504435 0.035245977 0.058242794 -0.06717757 0.29662758 -0.113114245 -0.18714786 0.0406748 -0.19896294 -0.10916944 0.17601225 -0.44907355 0.13206029 -0.15696305 0.09945959 0.07424075 -0.48968327 0.30464298 0.38540637 0.26360175 -0.6201966 -0.11126585 -0.32705656 0.22395979 -0.016419517 -0.23792112 -0.2748618 -0.15905611 0.1119903 0.30615243 -0.17276385 0.34377733 0.5014165 -0.22519156 -0.1176641 -0.39896113 0.05320347 -0.021529898 0.23702283 -0.141845 -0.03069077 0.662731 -0.11904144 -0.15858261 0.06249861 0.014064663 -0.273673 0.21055254 -0.186174 -0.38090968 0.46686354 0.002951846 0.36746368 0.22556548 -0.11271274 -0.011613248 0.19165604 0.12502176 0.12111112 0.483276 0.3576595 -0.18729074 -0.3966041 -0.08094066 0.030813813 -0.13117357 0.28711027 -0.089789666 0.08935554 -0.34613094 -0.021652726 0.04901582 0.50552434 0.06026835 0.16311158 0.049870573 0.615855 -0.06921185 0.19787268 0.09551445 -0.5695755 -0.05180135 -0.353408 0.0067297467 0.34608096
235 0.12843701 -0.033033695 0.060454346 0.09671302 -0.13724183 -0.17391825 -0.31604844 -0.18489265 -0.012279488 0.32594773 0.11361275 0.21091717 -0.32953805 0.059124053 -0.124662854 -0.1084622 -0.041942675 -0.18907626 0.18198116 -0.33969092 -0.22263992 0.028143644 -0.038562562 0.022892008 -0.062390957 -0.041591886 -0.074706785 -0.15346761 0.14610696 0.19076952 0.09371064 -0.21198837 -0.21527302 0.063225105 -0.07891212 -0.2303215 -0.10901742 -0.5030759 -0.012550814 0.28224707 -0.088014096 -0.41063756 -0.087651566 -0.056581344 0.3209169 -0.038302172 -0.08003633 0.14739284 0.08266076 0.04935968 0.098495275 -0.2183108 -0.43535724 0.15879738 -0.28267664 -0.15542977 0.22491975 0.023745703 0.00485943 -0.22793339 0.2768838 0.4509175 0.34107235 -0.4866687 -0.014425788 -0.45672193 0.04835447 0.1229363 -0.05262588 -0.20753984 -0.075319074 -0.01488258 0.10793209 -0.32472974 0.420367 0.10087299 0.09658257 -0.40393245 -0.5455594 -0.23383789 -0.45175356 0.4846333 -0.23400228 -0.17216723 0.7429062 0.18559699 0.18511917 0.07705743 -0.10306588 0.050199185 -0.022686062 -0.03274277 -0.29221067 0.4827405 -0.39834687 0.13969415 0.073858604 -0.052116614 0.11595236 0.28611025 0.22812162 -0.021609148 0.3743378 0.46666917 -0.21470188 -0.37769032 -0.085523136 -0.044397563 0.32513636 -0.015057638 -0.16705102 -0.07462705 -0.087386586 -0.0018578933 -0.19988695 0.6074876 0.081594676 0.1392825 -0.2837043 0.24807732 0.029673832 -0.2578394 0.14569181 -0.28396702 0.07984134 -0.058942497 0.25325152 0.27820894
1450 0.5267958 0.037640385 0.16728057 0.34966442 -0.052752025 -0.34716827 -0.17680018 -0.29592842 0.4087018 0.08347817 0.21209258 0.39698648 -0.023949139 0.2855178 0.021117136 0.063209206 0.36677784 0.10253037 -0.16792782 -0.21965961 -0.10684316 0.12554526 0.15874314 -0.11723648 -0.027335482 0.11619845 -0.5109544 -0.3443755 0.17279395 -0.027504193 0.4213333 -0.045959763 -0.32144782 0.00793588 -0.41240478 -0.3806561 -0.11031388 -0.609016 -0.055156562 -0.08806482 -0.02613 -0.030306356 -0.3744566 -0.37707347 0.2810697 0.07819808 -0.18882458 0.44736207 0.16247359 0.027354417 0.2524713 0.017353902 -0.06617263 0.29769713 -0.1552349 0.14785773 0.22908317 0.010012595 0.32587 -0.6260143 -0.12773523 0.14033268 0.16780825 -0.3747226 -0.07914726 -0.4888407 0.4703898 -0.22207446 0.033646166 -0.0940842 -0.45191157 -0.36897868 0.4696766 0.18936713 0.47439754 0.24208754 0.11083817 -0.40399954 -0.39213678 0.077165745 0.050841335 0.043479092 -0.22144684 -0.19549218 0.765553 -0.23549877 0.20629762 -0.06724287 0.17977674 -0.2834374 -0.17169107 -0.23202714 -0.16576731 0.061097953 0.113912486 0.35602453 0.10126268 0.15470871 0.06600399 0.21356407 0.4135683 0.06218513 0.27500626 0.21857922 -0.10083986 -0.30373105 -0.024807276 0.1714073 0.44709927 0.043626208 -0.062326882 0.23148654 -0.17956205 -0.031346302 -0.018137615 0.21091703 0.1767428 0.05583023 -0.14673607 0.55992436 0.13893251 -0.15862468 -0.060704824 -0.38494986 -0.2552796 -0.5262384 -0.06608563 0.4183863
236 0.09846462 -0.18716364 0.36486143 0.028497713 -0.098401204 -0.22086847 0.025322352 -0.021422299 0.074375935 0.3634613 0.048789445 -0.04790477 -0.38168496 -0.015176064 0.020678738 0.1377981 0.17191884 -0.0854972 -0.08003118 -0.09440512 0.09070095 0.14872068 -0.057027843 0.2365631 0.31650338 0.23008585 0.06106933 -0.21554494 0.39287826 -0.39981866 -0.19749066 -0.063290514 0.19467336 0.08702452 0.039844636 -0.32195464 -0.25854912 -0.4700378 0.028689766 -0.17707488 -0.2163448 -0.42536664 -0.0152799385 0.03720219 0.028748695 0.030934809 -0.12884642 0.11214316 -0.07687351 -0.13379706 0.5290106 -0.20296693 -0.2842281 0.19387373 -0.37344855 0.15999058 0.06185043 -0.045537565 -0.03236171 -0.3624357 0.2515312 0.43137187 0.527355 -0.44694975 0.040973857 -0.32548633 0.013736743 -0.15384814 -0.0052171214 -0.43295306 -0.3162907 0.22183926 0.48612854 0.03733507 0.48577014 0.52278566 0.09131091 0.25646847 -0.18444318 -0.1308696 -0.2828753 0.26855317 -0.15510964 0.32809916 0.5402655 0.24270019 -0.40283084 -0.15417467 -0.06658213 -0.2848129 -0.109787226 -0.15685755 -0.2256851 0.48720637 0.05601041 0.40165505 0.37266523 0.0022497103 -0.14902155 0.03875417 -0.04861381 -0.09149322 0.6337149 0.11116443 0.077474065 -0.3190161 -0.093757875 0.07839843 0.03839926 0.5011307 0.050804928 0.016963739 -0.08200352 -0.002650255 0.21611749 0.30617613 0.40423968 0.5362867 0.1578657 0.31073332 -0.119034834 -0.13009422 -0.050155234 -0.6585807 0.27158105 -0.35075477 0.22902058 0.06210266
1455 0.5893995 -0.15539171 0.12992696 0.21891315 -0.06454527 -0.30308717 -0.02476393 -0.016928226 0.5616053 0.062801406 -0.2537645 0.122789316 -0.3686908 0.2825334 0.11757032 0.27931702 0.4087825 0.10102334 0.116856486 0.092726976 -0.04541057 0.29983884 0.21772517 0.023994321 0.13655783 -0.22625844 -0.49820969 -0.052366138 0.10105452 -0.08575402 0.25770336 0.016889535 -0.456899 0.39175612 -0.38318965 -0.25331715 -0.28495482 -0.8844223 -0.0021684542 -0.3748949 0.1988879 -0.084677055 -0.17227909 -0.5837229 0.032881726 -0.4268511 0.18710479 0.22611031 0.07288349 -0.06808755 0.36797783 0.021500278 0.0044448073 0.123875745 -0.008574108 0.1928924 0.21892355 0.22512524 0.24280024 -0.80386233 -0.2722083 0.24268183 0.43110302 -0.14937842 0.055503998 -0.31975284 0.4812596 -0.18222497 0.23020366 0.030532088 -0.45340523 -0.24485204 0.053575784 0.009543898 0.6167891 -0.30176112 0.27127382 -0.3265769 -0.18872993 -0.06862312 -0.010494092 -0.028524881 -0.08710096 -0.17670771 0.3322214 -0.03714176 0.43274862 -0.032359816 0.045399476 -0.43948352 -0.47735646 -0.6472273 -0.14643551 0.09454263 -0.03403678 0.5608856 -0.0854629 0.4952038 -0.074415594 0.1194577 0.3216323 0.07617877 0.4112962 0.48621526 0.046890054 -0.38754773 0.109740295 0.25402874 0.23875833 -0.08036656 0.11547428 -0.0406885 -0.3946181 -0.17734216 0.2797914 0.005674469 -0.050729807 -0.22253393 -0.4458578 0.6512187 -0.30561876 0.0846218 -0.22989425 -0.44821164 -0.5819972 -0.11932563 0.50361013 0.30228078
1465 0.35821846 -0.22771029 0.5751498 0.2911665 -0.23781474 -0.15965429 -0.3213814 -0.43275174 0.10579947 0.038906384 -0.090270154 0.16313966 -0.15819731 0.21389982 -0.07272492 0.26787084 0.22719641 0.062507175 -0.09493648 -0.26644114 -0.039588943 0.22118898 -0.101953834 0.17769176 -0.08732665 0.005437489 -0.32563516 -0.2966379 0.015360045 -0.08910228 0.14362484 -0.12579003 -0.06277696 -0.13732198 -0.21314456 -0.07500646 -0.22813824 -0.3662202 -0.08597877 0.14970963 0.10060265 -0.11603512 -0.16423726 -0.02911788 0.19031256 0.08805777 0.19584714 0.10660826 -0.094701044 0.053942837 -0.047578517 -0.029928051 0.21863171 0.25850835 -0.43552044 -0.09404218 -0.05970107 -0.016079377 0.14982 -0.45484746 0.042608775 0.3139888 -0.16916086 -0.62143695 0.23323995 -0.06444461 0.096931726 0.27145097 -0.47965512 0.016785188 -0.05557241 -0.33602372 0.11344747 -0.1664641 0.21677618 0.02255985 -0.21008815 0.19958793 -0.32401544 -0.004922481 -0.2436254 0.45408633 -0.111037366 -0.007304996 0.6373667 0.14501806 0.13638262 0.2653769 -0.23284231 -0.2264129 0.14636494 -0.19621357 -0.27997908 0.31392387 0.15789181 0.20746824 -0.13350378 0.22896911 0.13383387 0.18953499 -0.23652783 0.13363265 0.17008215 0.15661651 -0.15934892 0.05365454 -0.026264131 0.3887516 0.09924969 0.09249995 -0.06932819 0.32306862 -0.21815792 -0.23436221 0.16708054 0.193813 0.3966805 0.024691042 -0.06028034 0.6339255 0.12755854 -0.20460851 0.25823647 -0.28713498 -0.28989157 -0.42776003 0.11415327 0.47785825
1466 0.24306408 -0.017570172 0.1684045 0.3510563 0.040767107 -0.25386724 -0.2052186 -0.20413831 0.24940792 -0.04181104 0.014393741 0.2856089 -0.124666 0.32476363 -0.038877867 0.30338803 -0.07334694 0.34299412 -0.3666525 -0.22966401 0.0137425205 -0.06627594 0.08866029 0.037715886 -0.13007838 0.26935145 -0.3572846 -0.3824777 0.18373494 -0.2507425 0.47466972 0.0013070459 -0.018010639 -0.090402685 -0.107888184 -0.28267023 0.010961125 -0.4438953 0.027430588 -0.10461641 0.09231731 0.2649245 -0.049875677 -0.19639349 0.12611115 -0.06998748 -0.0584182 0.06047495 -0.16994925 -0.07593398 -0.2551984 0.0010318508 -0.2547801 0.3633636 -0.39650297 -0.16067314 0.12770592 0.034501746 -0.08324895 -0.43676236 0.00085108896 0.20401366 -0.07317372 -0.6120977 -0.07588542 -0.101787224 -0.32805753 0.19191475 -0.15959609 -0.058350183 -0.25921768 -0.6548682 0.30492067 -0.19348192 0.34450296 0.13605474 -0.026756166 0.17965256 0.00025990672 -0.10049034 -0.079858355 0.426901 -0.3195477 -0.06991649 0.43862885 0.17815226 0.2544366 0.20410484 -0.20564283 -0.33939442 0.21068338 -0.18177128 -0.14915472 0.26304835 0.28817788 -0.01865886 0.2059012 -0.030491231 0.078910984 0.3147901 -0.039017204 -0.12095585 0.24576156 0.3700846 -0.29726088 -0.14909154 0.089477934 0.12629938 0.42037016 0.11501093 -0.09772942 0.38960177 -0.12834774 -0.12637752 -0.040484276 0.33962363 0.070351504 0.093497336 0.12937492 0.46806788 -0.09248423 -0.06013888 -0.054189883 -0.6225858 -0.23648942 -0.36515778 0.018648878 0.47721234
1468 0.48384827 0.064503625 0.1721396 0.392022 -0.24691267 -0.01750751 -0.19692084 -0.27758268 0.16773702 -0.041020814 0.08992691 0.48978743 -0.40307355 -0.22470516 -0.022063915 0.33320177 0.2559531 -0.10451498 -0.33103886 -0.42515805 0.11556962 0.17219016 -0.058312323 -0.10314715 -0.00945973 0.20332466 -0.17179543 -0.22444348 0.1243351 -0.5357405 0.5149419 -0.19134358 0.07058543 0.09596444 -0.16965456 -0.09900386 0.18234067 -0.5725044 0.21554694 0.2153619 0.12548582 -0.16175938 -0.16219185 -0.17706856 0.06419336 -0.063542604 -0.014860162 0.7808686 0.13207409 0.13724756 0.35749105 0.06962156 0.1724943 0.2683283 -0.19562654 -0.23740801 0.33435148 0.36873108 0.058071155 -0.32832116 0.38853708 -0.12544434 0.2097021 -0.51939344 0.11276855 -0.30347237 -0.15800014 -0.051619455 -0.044783212 -0.24866676 -0.000113819304 -0.48255557 0.37547606 -0.2694767 0.415952 0.10204135 -0.13044067 -0.091093354 -0.30980587 0.23930208 -0.09552102 0.3564056 -0.3566736 0.09515891 0.5877204 0.16372561 -0.06480972 0.25000077 -0.08562477 -0.40026632 -0.08335819 -0.36322668 0.035165932 0.31097716 -0.16802144 0.26579422 -0.07656796 0.10356258 -0.027227776 0.083182864 0.030446956 0.051641736 0.49172273 0.34295347 -0.08133527 0.0045699384 0.1635638 0.14376709 -0.16107558 0.21863022 0.044596527 0.14959571 0.04188945 -0.14842065 -0.32893774 0.32426587 0.23247956 -0.090067446 0.13437574 0.69107014 -0.055384137 -0.03247602 -0.17576447 -0.433264 -0.16291925 -0.61260533 -0.12487441 0.29968426
243 0.28504673 -0.15940799 0.3500087 0.08927708 0.015301548 -0.18329044 -0.09019328 0.11197901 0.17894247 0.28281665 0.009193848 0.4068296 -0.18045422 0.21406959 0.0046147495 0.3315607 0.008405321 -0.09748443 -0.08213444 -0.19149055 0.15447226 -0.22881281 0.13268995 -0.046454985 0.17932127 -0.24043684 -0.057076294 -0.23506331 0.4492578 -0.17234544 0.07883391 0.17052504 -0.12818535 0.1088503 -0.017791174 -0.16185032 -0.18388432 -0.4656365 0.17830391 -0.27009457 0.07583077 -0.31104144 0.04677297 -0.07361604 0.09330869 0.08502217 -0.12293641 0.39670396 0.22676146 -0.0063834507 -0.07217144 -0.033351887 -0.06548378 0.20332442 -0.3450458 -0.15434465 -0.07336862 -0.06610321 0.3156286 -0.40159813 0.26347086 0.26225194 0.35244757 -0.46754083 -0.051817086 -0.45961204 0.2330589 -0.025910964 0.20170718 -0.28582683 -0.093348116 -0.088688105 0.2608952 0.049988154 0.33642578 0.3079297 0.17709756 0.030089874 -0.43096352 0.2202417 -0.12950651 0.28795135 -0.28761145 0.0066769486 0.9218275 0.20875563 -0.0019194976 -0.009888526 0.1285364 -0.2944351 -0.31799152 -0.014284796 -0.28266382 0.32162333 0.1585542 0.14307797 0.29211465 0.099506296 0.0498196 0.22084977 0.0037222537 -0.05094544 0.6465402 0.2663218 -0.18878978 -0.1370982 0.0009460553 0.2964262 0.17863941 0.24644029 0.29222292 0.0887161 -0.31566733 0.034729317 0.08306858 0.18114907 0.32906353 0.25110576 -0.10417079 0.42283592 -0.05666799 -0.1270698 0.09799817 -0.60054666 -0.19311589 -0.27797604 0.24540184 0.2744952
245 0.36131305 -0.04287172 0.252801 0.075231686 -0.08074337 -0.46618485 -0.16973586 -0.12065458 -0.06868036 -0.10070481 0.13044721 0.25478768 -0.17995882 0.07330547 0.14169858 0.23453933 0.20777737 -0.23433866 -0.12643507 -0.18808095 0.123974495 -0.17615195 0.39326167 0.35333762 -0.11804545 -0.09728542 -0.06763495 -0.34436083 0.13732772 -0.105253905 0.24488997 -0.17463684 -0.20625071 -0.2632739 0.005551072 -0.12878586 -0.36529383 -0.5395808 0.066901796 0.068890534 0.09568738 -0.1893343 -0.16402508 -0.2961639 -0.06903533 -0.09643502 -0.26671594 0.16301136 -0.048503704 0.025607852 0.43511462 -0.13574725 0.18401612 0.022002378 -0.4361429 0.16335253 0.062336065 -0.05429805 0.4274868 -0.4482267 0.22623019 0.21683827 -0.058027454 -0.48967084 -0.055704348 -0.4134998 0.0008928528 0.24147867 -0.14953543 -0.16044477 -0.09546498 -0.1757449 0.5972684 -0.0087492885 0.25602624 0.14748082 -0.03793515 -0.04513608 -0.13412595 -0.036154747 -0.048325073 0.11550207 -0.36027202 -0.12568368 0.7533774 0.12549615 0.12400666 -0.017567275 0.06558177 -0.104383476 0.11228085 -0.11181079 -0.25124496 0.34031475 0.22122067 0.28518263 0.40147203 0.11725784 0.24144217 0.12463984 0.12038956 0.035502277 0.33181566 0.11987986 -0.038249243 -0.16962408 -0.10175115 0.046143252 0.14023311 0.38265455 0.051010307 -0.19890252 -0.22401546 0.2018931 0.29805005 0.42966163 0.1749689 0.18525773 0.06681256 0.53508115 0.20199065 -0.02824417 0.056989353 -0.5450625 -0.05895429 -0.4484485 0.3032565 0.48095667
1535 0.11571703 0.35010654 0.32206675 0.3856678 0.042976152 0.022362791 -0.23980077 0.44932243 0.034789555 0.039332286 0.14337079 0.36871576 -0.045559242 -0.1520288 0.29538104 -0.14791352 -0.5218476 0.028842669 0.36718473 -0.021281872 -0.3231058 0.40463862 -0.36293533 0.13279398 -0.23022379 0.06358221 0.049613312 0.058672387 0.016690437 0.3298085 0.3564249 0.32563865 0.008092227 -0.117124595 -0.31145403 -0.33985892 -0.48062372 0.15292709 -0.08024032 0.08829768 -0.18987024 0.56920403 0.03482751 -0.14569288 0.0971196 -0.35678327 0.33459124 -0.031257786 -0.4054435 -0.43425164 0.21521926 -0.10600527 -0.22752441 0.27714112 -0.21548739 0.15354487 0.13769682 -0.9857456 -0.21231441 -0.355709 0.52563876 0.20874894 -0.070494115 -0.00846272 0.10612359 0.012992332 0.0054248585 0.056036763 0.78506637 -0.50275326 0.18353929 -0.10960215 -0.2202153 -0.25353953 -0.2824428 0.24639702 -0.13837019 0.0077614854 -0.0076095713 -0.10971837 0.033458438 0.1538983 -0.396747 -0.3784832 0.038138017 -0.15420853 -0.14082564 -0.00729239 -0.10966665 -0.6548377 0.5944631 -0.23781838 -0.083577685 0.04866565 0.04512506 0.13958305 -0.05076635 -0.38376546 -0.15096366 0.11581279 -0.35585645 -0.06789913 0.08364703 0.13988532 -0.16910484 0.32155442 0.47427905 0.104139216 0.2561229 0.10355386 0.88044786 0.2952737 -0.27900797 -0.6118071 -0.011826238 0.057922713 0.15635702 0.008859615 -0.13911116 0.15265036 0.08372799 -0.74317867 0.54833955 -0.48718783 -0.14777744 -0.2467617 -0.15257712 0.0420407
780 0.46729216 0.46195307 0.6248079 0.5702474 0.33887464 0.022754455 0.0005232415 0.6293391 0.28261685 0.037670273 0.20041774 0.5175487 -0.10941936 -0.3237673 0.23142591 -0.095408626 -0.078381665 0.29905754 0.64364153 0.2854428 -0.43729943 0.5055979 -0.43735525 0.24557494 -0.19035663 -0.12719011 -0.043140642 0.023867724 -0.3004119 0.14203465 -0.0036521668 0.44556546 0.17694321 0.3403717 -0.0979366 -0.6402459 -0.6735106 0.417909 -0.21475054 0.19119304 -0.340135 0.43756214 0.1850598 -0.19201587 0.103417225 -0.2950869 0.52307886 -0.13500306 -0.54978746 -0.5144515 0.4388916 -0.88635314 -0.50943816 0.15555191 -0.6672392 -0.124658905 -0.24006906 -1.3734357 -0.30802557 -0.34653983 0.71247494 0.26874784 0.24823059 -0.074325375 0.154487 0.24923672 0.2813568 0.008109353 1.0642494 -0.44084397 0.28828576 0.22711141 -0.13552818 -0.3349165 -0.13126272 0.18415079 -0.1729421 -0.084334426 -0.021923384 0.20130672 -0.15838757 0.058908798 -0.10592222 -0.64133763 0.41699728 0.089492664 0.01599535 -0.021473734 0.23338863 -0.5371655 0.50170964 -0.49997717 -0.20152445 -0.25757048 0.15433404 0.44796965 0.16126522 -0.17504387 -0.3286955 0.22385919 -0.57570356 -0.086246386 0.13524769 0.19550368 -0.26456928 0.0048794295 0.8436073 0.04371217 0.2928773 0.3339507 1.0395371 -0.28445858 -0.4254577 -0.70087403 0.28965923 -0.009644934 0.28943598 0.029042354 -0.38953432 0.088128634 -0.0653345 -1.2311505 0.5502094 -0.33615723 0.13179868 -0.49815592 -0.41446224 0.1920177
1550 0.02569918 0.34935588 0.030228602 0.12314641 0.12181398 0.09607718 -0.50139785 0.46731645 -0.12164122 0.019162724 0.09886086 0.2702547 -0.044067428 -0.14931935 0.18269162 -0.0012904734 -0.6640271 0.102550924 0.31936345 -0.14588894 -0.54661363 0.23531723 -0.5130113 0.29362977 -0.22599299 0.22703329 -0.11839511 0.09862555 0.00221291 0.09364236 0.29763585 0.086223476 -0.13648862 -0.0016174787 -0.41346553 0.019058201 -0.58447164 0.069181524 -0.27131382 0.11109141 -0.06902671 0.44745842 0.29373065 -0.062139686 0.42171773 -0.32141298 0.41173688 0.095960274 -0.44075617 -0.3674392 0.32195082 -0.010524917 -0.20363727 0.32319573 0.06894785 -0.0028634458 0.15100262 -0.66088045 -0.09091575 -0.6084663 0.3852207 -0.025974654 0.02939514 0.050688133 0.5605174 -0.003741181 0.38202414 0.36238012 0.6584596 0.09294471 0.08213196 0.056117814 -0.14634925 -0.35321167 0.061424296 0.23754643 -0.23690131 -0.08773162 0.0052963155 -0.08499862 0.21823798 0.13004504 -0.28409132 -0.1324417 0.04931343 0.1435169 -0.056838714 -0.24858928 -0.20976825 -0.25322258 0.3519031 -0.13216211 -0.13910438 -0.093655966 0.23157568 0.14570656 0.06783463 -0.10343658 -0.19017377 0.230603 -0.19178516 -0.1144699 0.06528732 0.36984456 -0.2089915 0.35485142 0.19560224 0.297079 0.43132046 0.16953649 0.5197486 -0.22126245 -0.34540358 -0.20106237 -0.050013255 0.05044979 0.012640559 -0.28446543 -0.24916045 0.3253374 -0.19066471 -0.59807664 0.2914292 -0.11725055 -0.03623317 -0.30607253 -0.16571034 0.039364636
2273 0.23914115 0.006205366 0.29821652 0.6429891 0.12348576 0.11573121 0.0015923559 0.5095745 0.2817999 -0.2814132 0.3149899 -0.02380586 0.089423046 0.30102172 0.23972392 0.08035492 -0.08838274 -0.18782467 0.17229833 -0.3406729 -0.3302282 0.31568578 -0.36859953 0.099084586 -0.2531102 -0.060637563 0.26809376 0.08089924 0.021581393 0.39079165 0.52257687 -0.023792945 0.18928476 -0.07437441 -0.3807233 -0.27228674 -0.2717091 -0.028054578 0.16914214 -0.23868658 0.2550585 -0.15496369 0.056678545 -0.15923382 0.036051966 -0.26875728 0.015217658 0.013114604 -0.30316824 -0.45328605 0.1852853 0.21532571 -0.3082201 0.27065352 0.003236229 -0.011284009 -0.1502926 -0.46005794 0.101012796 -0.15480587 0.57829297 0.31357172 -0.036195256 -0.49319386 -0.2870702 -0.12949373 -0.065853864 -0.05869344 0.74997646 -0.45624575 -0.05332495 -0.0062331357 -0.14486226 -0.10446961 -0.23830104 0.13668281 0.0035715501 -0.017188942 0.031000411 -0.35759848 -0.3707594 0.56218004 -0.41021192 0.05992632 -0.0070400224 0.009663212 -0.41981372 -0.08257447 -0.049217485 -0.17687395 0.3844507 -0.061580997 -0.080939524 -0.22008355 0.4563269 -0.07661316 -0.034185454 -0.6566162 -0.5297755 -0.13358022 -0.0045743124 -0.18113206 0.05361015 -0.057749376 0.23361902 0.14882137 0.013694936 -0.1105896 0.3564664 0.17134386 0.641558 0.03981445 -0.13841794 -0.29188648 0.15842888 0.29771796 0.6752077 0.16667956 -0.10296429 0.1348382 -0.11427214 -0.59658283 -0.07646026 0.1394711 0.008773906 0.01676535 0.08379125 -0.113282904
1616 -0.12804136 0.039199088 0.45742342 0.5095614 0.09489962 -0.50369537 -0.012414938 0.1716703 0.29886994 0.064416155 0.6323226 0.2297021 0.18216321 0.06159016 0.40320596 -0.046965178 0.23394132 0.10660809 -0.0035506326 0.12511455 -0.57108516 0.15542893 -0.033876088 0.38866636 0.03789934 -0.30964413 0.31444216 -0.26114205 -0.26038462 -0.59083664 0.5376967 0.058975 0.3746797 0.5034035 -0.2457698 -0.093752675 -0.48076245 0.33939207 -0.34577975 -0.27910307 -0.006556587 -0.041091297 -0.20421033 -0.616427 0.51558346 0.14729911 0.12007191 0.029645192 -0.23469014 0.4164224 0.08480096 0.14909634 -0.12260729 -0.108769365 -0.066931635 -0.27122003 0.35267207 0.24753332 -0.24698818 -0.34871712 0.008626563 0.032386556 0.03939248 -0.3448935 0.10575595 0.18238506 0.14629893 -0.0034047747 0.059562385 -0.497167 -0.24842414 0.23130342 -0.10270435 -0.11626093 -0.17506893 0.22184794 0.076637946 0.16724974 0.30751932 -0.11550173 0.12883016 -0.014898279 0.18114708 -0.43914628 0.3104089 0.24218534 0.21386366 0.26505104 0.4355948 -0.06323763 -0.28832477 -0.42616445 -0.18013455 0.14297651 -0.02486146 -0.49639064 -0.12052292 0.1576567 -0.103670634 -0.16932699 -0.12905821 -0.13569398 -0.3112894 0.3054843 0.19907527 -0.10302502 0.10975119 -0.077643506 0.20872891 0.20331976 0.5331173 -0.120531745 -0.20961414 -0.511238 -0.02103534 0.5216389 0.68981886 -0.42044136 0.12275956 0.05424653 0.4677018 -0.3818452 0.30017877 -0.36578986 0.28247598 0.1581651 -0.22018997 0.57279146
2158 -0.28890738 -0.24593489 0.40068716 0.412575 0.2963876 -0.29450214 -0.016296875 0.4353484 0.37598112 -0.05120625 0.80696857 0.35429153 0.20878407 -0.09945698 0.31278077 -0.23900588 0.0039400184 0.17651506 -0.30535296 0.19205675 -0.44648084 0.02671962 -0.0033858684 0.31916773 0.06895542 -0.5775745 0.13520935 -0.34559053 -0.19071136 -0.50523657 0.64070153 -0.038513787 0.1291246 0.44458854 0.2020792 -0.2441386 -0.38012516 0.142344 -0.51550955 -0.3899119 -0.059335858 0.07686022 -0.043755807 -0.49106476 0.22028667 0.00269097 -0.20368382 -0.003721248 -0.41911697 0.0337018 0.0061308807 0.14666706 -0.22011149 0.093628414 0.08179843 -0.09463165 0.3749633 0.22206736 -0.08254027 -0.49189085 0.47779015 0.20877758 -0.23955436 -0.2774436 0.017985256 0.6264493 0.16543436 0.41219833 -0.17107387 -0.4429556 -0.116041526 -0.08544375 -0.18477525 -0.2711616 -0.21481237 0.30766976 -0.008342838 -0.124214694 0.043609753 -0.37859955 0.018340064 -0.23967353 0.0669807 -0.40151614 0.19022332 0.33504948 -0.14120226 -0.34169856 0.17880684 -0.20966654 0.094937146 -0.07537185 -0.026527803 0.32851472 -0.11648482 -0.023007398 -0.47076342 -0.066921495 -0.074207306 -0.29125407 -0.17829086 -0.19899608 -0.15989797 0.8012773 0.17570016 -0.18999721 0.34347713 -0.19448377 0.25197002 -0.16618583 0.3715839 0.10071492 -0.35114112 -0.5168157 -0.13176033 0.27057812 0.70462114 -0.215485 -0.13212612 0.45266086 0.5128958 -0.3046609 0.033485018 -0.26121733 0.43784967 -0.051317602 -0.26227158 0.4951202
1624 -0.16072378 0.09601865 0.37239537 0.040270217 0.1010332 -0.2717015 0.20994374 0.26858234 0.48615804 0.4316482 0.88299805 0.085247666 -0.20795538 -0.13645113 0.6457293 -0.022926113 0.27845952 0.06621234 -0.027755987 0.41344264 -0.5105358 -0.21535923 -0.11325327 0.6148899 -0.04505194 -0.24339034 0.37669718 -0.18222016 -0.23027235 -0.4286889 0.4091025 0.107121594 0.13564476 0.38212574 0.02271079 -0.16139752 -0.42187774 0.26018897 -0.5387825 -0.08817613 -0.15239285 -0.25440675 0.0046539526 -0.6463218 0.543905 0.15306829 -0.010855694 0.17245156 -0.15502611 0.09405471 0.33694 0.10500989 -0.09238694 0.12124381 0.11275796 0.035180684 0.33649218 0.23418812 0.2244796 -0.15253134 0.16118018 0.081887946 -0.16734162 -0.20676522 0.10859822 0.26918852 0.40694955 0.12194315 0.2498 -0.44530398 -0.2744527 0.07741349 -0.0077335117 -0.4860764 -0.111092165 0.079759404 0.12081478 0.28416735 0.044123434 0.0024905985 0.09252765 0.17341281 0.30674082 -0.44174856 0.061404187 0.29304758 0.039956175 -0.24409214 0.27742285 -0.026987711 -0.0450074 -0.4841554 -0.09863355 0.3622174 -0.23563592 -0.3313439 -0.23751926 0.32768688 -0.05217785 -0.12368184 -0.22044073 -0.21125245 -0.21404013 0.39614925 0.05755592 0.008474821 0.12736635 -0.19547135 0.21223259 -0.0018059693 0.1508864 0.016036838 -0.17243849 -0.5088093 -0.16478224 0.2590473 0.27144414 -0.31549144 0.10463592 0.29921398 0.2617668 -0.3846177 0.023785207 -0.14263323 0.20351292 0.54879653 -0.15249528 0.6512883
2165 -0.34244004 -0.5458966 0.13302231 0.45897064 0.110234156 -0.38807008 -0.18877311 0.32596442 0.24725594 0.067447275 0.8086686 0.16347554 0.18168816 -0.0991726 0.27512437 -0.14063616 0.2979291 0.5204865 -0.19258133 0.39928576 -0.312929 0.4902065 -0.0901016 0.35200047 0.13451262 -0.38750944 0.21063024 -0.2796219 -0.4165367 -0.7601267 0.62408054 -0.07431251 -0.10495968 0.5829127 0.2747376 -0.24144423 -0.29294148 0.1641171 -0.43808386 0.09213873 -0.10868653 0.1931122 0.16039337 -0.3606657 0.044333827 0.068401754 -0.36649343 0.25072408 -0.3305032 0.09211694 -0.14448734 -0.20952356 -0.10007838 -0.21247718 -0.20168164 -0.24821804 0.34329337 0.11422205 -0.049664386 -0.48420396 0.45628005 0.21538259 -0.1569275 -0.115231305 -0.06385932 0.3344498 -0.058931395 0.52272904 0.0064539113 -0.18748324 -0.030771626 -0.087808035 -0.17559613 -0.07294218 -0.3673646 0.15335763 -0.021331092 -0.16949674 -0.0003591449 0.09914449 0.161549 0.050479416 -0.118985295 -0.6707396 0.22237842 0.44387993 -0.108164154 -0.0674506 0.11438153 -0.127338 0.142264 -0.20094049 -0.6365072 0.20026813 -0.336198 0.00048664244 -0.39728162 -0.11600789 -0.017390143 -0.17338431 -0.35189044 -0.04211895 0.05147475 0.32519287 0.43747038 -0.03807046 0.2745128 0.33472896 0.17144929 0.054808054 0.44265622 0.3181779 -0.38974103 -0.26564342 0.074956074 -0.0972742 0.280167 0.13271777 -0.46960402 0.35927778 0.63058543 -0.45608774 -0.13751885 -0.4464827 0.28883776 -0.40949386 -0.19898498 0.5237049
2167 -0.60142106 -0.20783642 0.35793382 0.47624037 0.25837305 -0.41412753 0.06752416 0.32054365 0.5731171 0.0903828 1.1498259 0.20981652 0.29278466 -0.20749767 0.587199 -0.36043608 0.05892202 0.31030604 0.1910092 0.179422 -0.14065681 0.36788043 -0.05128305 0.21819146 0.18216282 -0.18107957 0.008739861 -0.32624185 -0.20111339 -0.49238622 0.5350784 0.19814615 -0.0032351622 0.48069713 0.25964224 -0.33683643 -0.33535132 0.24505472 -0.30924383 0.005497806 -0.18897088 0.27068496 0.14788575 -0.23787001 0.27297154 0.06666338 -0.24368322 0.03450282 -0.3584148 -0.10075862 -0.019982962 0.09330278 -0.13585776 -0.33058408 0.1835159 -0.18008783 0.22440144 0.06078949 0.08231289 -0.57874185 0.2812752 0.017653061 0.0059125735 -0.2355907 0.020666854 0.44620797 0.15191372 0.73387897 -0.31279656 -0.34530312 -0.05219106 -0.31431058 -0.46738982 -0.06754331 -0.25832725 0.3177149 -0.088075906 0.014205856 -0.24863757 -0.19432883 0.15411144 0.16514292 0.14403442 -0.3172345 0.32107186 0.2687563 -0.118887365 0.043699156 0.08929319 -0.32148924 0.20434125 -0.1986407 -0.07328439 0.28052923 -0.15409708 0.2044044 -0.34875065 -0.1769913 0.12803201 -0.16868906 -0.022486426 -0.04733382 -0.13520996 0.53270924 0.31020784 -0.23327883 0.5081136 -0.03336337 0.37851927 -0.113080926 0.44464862 0.27017394 -0.41196898 -0.5123321 -0.18366013 0.019456545 0.41721815 0.064842284 -0.39083177 0.6325555 0.6868355 -0.29271406 -0.19380133 -0.45620987 0.3414872 -0.19369707 -0.25670174 0.47633776
1631 -0.07599039 -0.044573728 0.2612994 0.16776773 0.23001808 -0.4062959 -0.07599304 -0.020816756 0.26849428 -0.008676607 0.63942957 0.0920875 0.24920063 0.007780201 0.47518003 -0.2558529 0.21287362 -0.028681993 -0.06949852 -0.060340274 -0.5379305 0.27704397 0.071329005 0.6872608 -0.32697132 -0.38716525 0.4240624 -0.3265535 -0.23590632 -0.3930617 0.4934733 0.13466267 0.08592867 0.42385787 -0.15872976 -0.30019593 -0.42531425 0.023790933 -0.4764523 -0.37350735 0.059110776 -0.038487386 0.07258603 -0.7043547 0.32198545 0.1702557 0.0077362834 -0.08887378 -0.43853742 0.28836435 0.0033843198 0.030428587 0.1273218 -0.008177408 -0.025731971 -0.32570335 0.31414852 0.41914475 -0.4612402 -0.18274231 0.18268934 0.0032683138 -0.13103124 -0.26538417 0.0068643033 0.29534465 -0.00839695 -0.09560976 0.050679386 -0.44678038 -0.22846839 0.0677647 -0.059786256 -0.17782405 0.031451337 0.008241054 0.15881342 0.0023061591 0.13741799 -0.21098326 0.2081437 -0.1081623 0.1912613 -0.5323889 0.5645245 0.1211899 -0.10179627 -0.1175666 0.3375238 0.031333063 -0.06361451 -0.47280753 -0.07595897 0.32287034 -0.099401474 -0.3754564 -0.5281694 0.36992878 0.020944843 -0.23818973 -0.07922381 -0.10002674 -0.09303282 0.2966367 0.34272698 -0.22626726 0.30864063 -0.19782175 0.2256161 -0.3317696 0.29644528 -0.13083948 -0.54497975 -0.7619097 -0.012982426 0.5364653 0.47939947 -0.2854265 0.30761075 0.1411383 0.48233563 -0.33520728 0.07007591 -0.11456389 0.30389038 0.10146736 -0.1719338 0.4780891
1640 -0.04553739 -0.07022551 0.70851135 -0.00027780238 0.22195245 -0.30173707 -0.14583136 0.008115929 0.42477536 -0.04362024 0.37294224 0.12879795 0.19242613 0.22905256 0.42909732 -0.07437043 0.38162848 0.2391886 -0.03714834 0.07642065 -0.4805655 -0.073034346 -0.020815836 0.4246078 0.030024124 -0.20799421 0.52559566 0.09002248 -0.25876367 -0.2773291 0.58465844 -0.1396083 0.30438566 0.26238298 -0.11690868 0.011312643 -0.3914438 0.10484326 -0.44689596 -0.3307276 -0.35580888 0.030374426 0.1126002 -0.7520164 0.3161014 0.12077366 0.21586834 0.095826015 -0.40301347 0.17092934 -0.07014788 0.19266352 -0.086683035 0.225329 0.27479202 -0.2360669 0.1975219 0.26859397 0.055004332 -0.22155012 0.37273267 -0.07922609 -0.38913456 -0.40104055 -0.15436032 0.25323132 0.091718934 0.3173921 -0.16914761 -0.47975063 -0.403724 0.20841493 0.24172324 -0.21510597 -0.14990385 0.10979413 0.0136195775 -0.15386046 0.29456258 -0.45125192 0.32177675 -0.051998124 0.18440017 -0.40281096 0.121911064 0.2788854 0.0029973874 0.117015064 0.28657153 0.009761379 -0.09926842 -0.45583028 -0.14952926 0.7785415 0.039741766 -0.26226023 -0.29268524 -0.031939402 -0.021150282 -0.22480328 -0.15430729 0.09373956 -0.4449614 0.6782068 0.17604157 -0.3336482 0.13720952 -0.2282275 0.0067363717 0.08160976 0.28081515 0.09462998 -0.319877 -0.34350494 -0.046090137 0.17634034 0.500683 -0.26568455 -0.02582666 0.06510226 0.58799595 -0.14095254 0.31498104 -0.16570233 0.21062878 0.1269379 -0.07214932 0.5639451
1659 -0.13203086 -0.11631611 0.5596919 0.46627805 0.16336517 -0.4325617 -0.024710894 -0.059388414 0.34895262 -0.20584816 0.56477034 0.12312316 0.21085817 -0.021574838 0.30893227 0.21259958 0.18640988 -0.12791993 -0.050111737 -0.13531439 -0.57627046 0.12002188 -0.3139308 0.37923056 -0.28400978 -0.2704535 0.20880234 -0.4448097 -0.3911447 -0.37088 0.520463 0.2019396 0.20446077 0.33227265 -0.10856849 -0.41944146 -0.40759048 0.29714802 -0.466898 -0.3067192 0.002646323 0.31837422 -0.14988986 -0.4955941 0.23234414 0.23320867 -0.093774535 -0.0014831088 -0.4157037 0.22174264 -0.05555226 0.013034277 0.2217348 -0.14034575 0.23634884 -0.18357325 0.4321553 0.20901904 -0.09319466 -0.15524268 0.10269461 -0.19752347 -0.15318666 -0.3916099 -0.046022803 0.3362232 0.16162594 -0.1256297 0.06613862 -0.669837 -0.15776327 0.5620231 0.11513834 -0.1598042 -0.08409817 0.046464346 -0.23596695 0.030383145 0.3244583 0.09216611 0.2878645 -0.06456808 0.030958757 -0.39733335 0.1503943 0.21310633 -0.2583851 0.08868048 0.2610328 -0.061694607 -0.21560034 -0.289204 -0.106220745 0.38975942 -0.19481012 -0.32474494 -0.1484234 0.42208433 -0.21825282 -0.044080365 -0.0958944 -0.102558106 -0.1619648 0.54658014 0.2979907 -0.23572558 0.10727112 -0.15494128 -0.0037049858 0.2623227 0.08879776 -0.052265547 -0.26246962 -0.75327235 0.14976455 0.43102816 0.57568586 -0.1441829 0.15619434 -0.01604043 0.41066346 -0.4658425 0.09240886 -0.24204291 0.385589 0.09671674 -0.12449827 0.33970463
1662 0.08876079 -0.15850578 0.4460157 0.3069789 -0.004489824 -0.2730314 -0.17774512 0.2815841 0.36946908 0.118953615 0.50670356 -0.1433013 0.302504 -0.08758476 0.38274783 -0.0901334 0.18348718 0.062419057 0.0022837683 -0.052063096 -0.3833716 0.05754532 -0.20587723 0.3005858 0.076306134 -0.43867502 0.21286967 -0.43814483 -0.31681573 -0.38940096 0.5295033 0.018257236 0.2447403 0.31989768 -0.2706525 0.042267386 -0.53861153 0.27642405 -0.40444785 -0.59075767 -0.098711975 -0.0021688943 -0.044590604 -0.62954825 0.5229137 0.15752791 0.25082693 -0.13583814 -0.18719916 0.124939315 -0.08812418 0.12930593 -0.16829756 0.22921996 -0.019844132 -0.011971008 0.19731492 0.1518603 -0.30495432 -0.33758342 0.052496202 -0.22138888 -0.22320196 -0.14316082 -0.023818506 0.36761704 0.02940927 0.08711265 -0.18168412 -0.31335342 -0.11667414 0.2195277 -0.037504368 -0.32102928 0.038024537 0.052943107 -0.08898227 0.06227195 0.12689571 -0.48008552 0.37953687 0.107963376 0.19120081 -0.19427283 0.23252793 0.11739844 -0.13560782 0.017583195 0.3248728 -0.22588125 -0.24287471 -0.22854033 -0.23082563 0.14225383 0.09873887 -0.18841042 -0.37793094 0.0791153 0.03824759 0.036307875 -0.06583652 -0.15903452 -0.17151251 0.17534794 0.36986405 -0.015205214 0.116997056 -0.07155729 0.2646758 0.22559443 0.32354778 0.053795777 -0.36837578 -0.594586 0.035078857 0.07041653 0.17807281 -0.23882231 0.1817684 0.13702938 0.1399701 -0.14990519 0.17064916 -0.2647778 0.48958212 0.099253364 -0.06291734 0.4355165
2280 -0.16817649 -0.038173534 0.2721407 0.23211724 0.28161246 -0.27843487 -0.06968591 0.48083082 0.3698564 0.2728361 0.9805987 0.20183317 0.32934928 -0.22414069 0.6621606 -0.23572913 0.17049962 0.25865012 -0.14443406 0.4359908 -0.37230763 0.10999349 -0.12662053 0.4156728 0.015954448 -0.2981821 0.17220284 -0.39632627 -0.3827103 -0.7016359 0.48347577 0.0045239897 0.058212876 0.46151772 0.29826868 -0.27511892 -0.18095742 0.40078133 -0.6966296 -0.016870309 -0.01061337 0.08164406 0.022533106 -0.5559276 0.35996372 0.28792155 -0.18185131 0.20958494 -0.28607267 0.00022861258 0.10289427 0.11304861 -0.06370478 -0.11215924 0.028843801 -0.3375898 0.33620948 0.25012636 -0.05064879 -0.50151825 0.47406885 -0.052999526 -0.14986718 -0.30579165 -0.14681607 0.4108499 0.12108004 0.28447816 -0.11567163 -0.33763126 -0.09863569 -0.12484129 -0.17243618 -0.19775425 -0.28562745 0.28158915 0.09768844 -0.0037129642 0.019917078 -0.069644205 0.021221826 0.2724368 0.12206594 -0.596517 0.27984345 0.52558225 0.037219107 -0.1982251 0.1901391 -0.37127233 0.17912777 -0.39865482 -0.06054605 0.1670313 -0.15692082 0.0703722 -0.42173976 -0.106251836 0.004134124 -0.111651205 -0.17344315 0.0126837585 0.059292834 0.5209857 0.11493429 -0.2398471 0.20380443 0.0042917053 0.38406622 -0.21195069 0.7309436 0.07869974 -0.33651537 -0.40784535 0.10798788 -0.034392472 0.49828967 -0.1176229 -0.011719151 0.50134885 0.76070815 -0.40113223 -0.029075015 -0.43887606 0.3687245 -0.14649425 -0.23632717 0.5266222
2307 -0.43233103 -0.21356733 0.3307652 0.36385322 0.23422195 -0.30402428 0.034808528 0.36931443 0.6042407 0.089117944 0.93777907 0.23285837 0.5361954 -0.18642841 0.5547324 -0.103974506 0.10188595 0.47568318 -0.34167832 0.28212133 -0.20857811 0.38452196 -0.0723685 0.40193382 0.00051844283 -0.5497546 0.105315566 -0.3025642 -0.3003754 -0.3952045 0.67733514 0.14558896 0.07767427 0.786773 0.05096593 -0.3052055 -0.2528939 0.38865313 -0.437691 0.05228489 -0.0118990475 0.08174936 0.07045714 -0.5056039 0.24264596 0.16803755 -0.08150911 0.0939417 -0.30910307 0.04118215 0.036526814 -0.042772926 -0.092071265 -0.09057451 -0.042981982 -0.35435137 0.39504164 0.1694631 -0.041476347 -0.5888675 0.38445073 0.21034932 -0.0917277 -0.2586105 -0.16963816 0.41643342 0.1339086 0.3173857 0.020157272 -0.38028035 -0.07023963 -0.1892417 -0.30967233 -0.050831158 -0.17160937 0.182139 0.06377842 -0.039342564 -0.01373511 -0.36346614 0.018040126 0.0005888981 -0.01703401 -0.48676878 0.2832471 0.17291196 0.010626476 -0.07924136 -0.016252577 -0.3739181 0.06357963 -0.09752176 -0.25987124 0.060743127 -0.24554121 0.03153393 -0.3097161 0.07184935 0.13438101 -0.061771728 -0.27836913 -0.07944625 -0.16597171 0.8117613 0.35705644 -0.08562371 0.49941635 -0.061263442 0.5407817 -0.17971651 0.3841679 -0.05759106 -0.405203 -0.3652058 0.053473417 -0.057946585 0.43951955 0.0519762 -0.49168652 0.59333557 0.7087783 -0.3716782 -0.070044726 -0.5358444 0.4224048 -0.04416953 -0.304051 0.59435326
16 0.21391544 -0.09472056 -0.014946222 -0.029661536 -0.07097288 0.35778219 -0.51021874 0.54688644 0.107337624 -0.008155169 0.4652366 0.011572344 -0.04017801 -0.052174535 -0.20727973 -0.045792155 0.18829714 -0.0057333005 -0.021383077 -0.27236676 0.16112162 -0.39511976 0.3816305 0.18332896 -0.1860221 -0.2930307 -0.036231186 -0.10056776 0.48773214 -0.07997552 -0.092039265 0.039705902 0.024165275 -0.058342505 -0.38972643 0.027045403 -0.37981626 0.04297776 0.6324407 0.044724267 -0.30601388 -0.47915202 -0.08005311 0.19012631 0.06408856 -0.22485504 0.21540327 0.33204833 -0.10839088 0.023189634 -0.5314474 -0.4124224 -0.08212683 0.3017794 -0.21842162 0.04391963 0.112921685 -0.06991189 -0.08367421 0.0016024157 0.45480478 0.47465914 -0.34527513 -0.38565224 0.20324343 -0.19173649 0.5536618 0.734087 0.104135476 -0.64479584 -0.21476895 0.33287686 0.10790302 0.04257796 0.2569457 -0.25596362 0.13515319 0.07980521 -0.248026 -0.1246072 0.23439316 0.1940456 -0.022345815 -0.15167679 0.1911762 0.4153286 -0.09159993 -0.42064217 -0.12777296 0.030107295 -0.061690778 0.18072984 -0.11812549 0.047487836 -0.20811258 0.2842566 0.014595326 0.23965582 -0.18659946 0.07153709 -0.1339556 -0.30267844 0.1085858 0.3320902 0.31697652 -0.12884186 0.37847158 0.09336323 0.42843142 -0.078531705 -0.062218964 -0.16856565 0.3209471 0.22906823 -0.26155856 0.14382738 -0.34195393 0.0032922719 -0.25001 0.29379436 0.14824659 -0.39391232 0.15321518 0.20765777 -0.07650892 -0.15722063 -0.17945735 -0.08878654
11 0.08935067 -0.14020586 0.0075983554 0.09109551 -0.2366986 0.12385711 -0.58866686 0.62156284 -0.12829913 -0.11592936 0.30693886 0.08562914 0.06076115 0.05003542 0.043295212 -0.0029178052 0.52399546 0.1943349 -0.29279354 -0.40467364 0.080399625 -0.21461964 0.091497995 -0.13311239 0.024866752 -0.08491476 -0.11066161 -0.061110605 0.18755314 -0.073081546 -0.048124764 0.15094645 0.34667915 -0.0367646 -0.33196652 0.08800395 -0.3794881 0.017275125 0.36513725 -0.12392141 0.08925035 -0.6534738 -0.18050691 -0.0012694062 0.09671746 0.0064093913 0.3469629 0.2167861 -0.06927874 -0.026134314 -0.38762462 -0.08873451 -0.1769675 0.29410207 -0.30768263 0.16885346 0.18258533 -0.03757256 -0.08693292 0.02253134 0.47369394 0.64185196 -0.3749098 -0.28003752 0.19406247 -0.4323811 0.23540236 0.7754639 -0.28846183 -0.3322276 0.0846929 0.071317725 0.4288256 -0.03811789 0.26357207 -0.1881276 0.033387583 0.24442005 -0.24372856 -0.0068470244 0.23814571 0.4887619 0.022174368 -0.34193963 -0.08864495 0.2974544 -0.08351902 -0.61631614 -0.20788668 0.1697472 0.0830957 -0.04690329 0.11639636 0.09428409 -0.16262326 -0.06854471 0.07416975 0.59689075 -0.4226842 -0.035863955 -0.14506507 -0.20314986 -0.035465572 0.22452228 0.38707677 -0.26725295 0.49543786 0.20058043 0.33054826 -0.18511388 -0.21444699 0.0800202 0.34589893 0.2993583 0.0043468354 0.16212212 -0.45642734 -0.017126312 -0.34540567 0.33405223 0.198055 -0.45947036 -0.059982233 0.26032153 -0.03376668 -0.280567 -0.14912254 -0.1202627
48 -0.12862003 -0.27427578 -0.01563634 -0.028111137 0.32852367 0.32824084 -0.3061976 0.424464 0.0052057444 0.2210738 0.34533826 -0.06364448 -0.051051814 -0.20162623 -0.17531334 0.18412803 0.32538727 -0.24409114 0.1699545 -0.5965822 0.20235331 -0.1738653 -0.0120503735 0.040351562 0.039770488 -0.17293827 0.11000899 -0.07243227 0.3608114 -0.24945804 -0.196571 0.10120126 -0.044829648 -0.054672174 -0.73047626 0.050110146 -0.2752721 -0.30324748 0.22702295 -0.030347345 -0.65801823 -0.5210642 -0.3937137 0.11739272 -0.014446423 0.04643812 0.22054607 0.25987294 0.19272302 -0.14786361 -0.31997982 -0.42842093 -0.23664625 0.27982184 -0.3839713 -0.039898593 0.21819443 -0.04085464 -0.023276996 -0.2539653 0.509957 0.24286804 -0.30726412 -0.37098217 0.34140965 -0.4416889 0.18512554 1.3086063 -0.20583831 -0.25296733 -0.1650865 -0.064258315 0.1128376 -0.295951 -0.15156868 -0.21839848 -0.15391573 0.2823367 -0.22176215 -0.3390123 0.16692428 0.020247784 0.1990577 -0.14094272 0.18185054 0.13431185 0.10705823 -0.26366732 -0.20008604 0.11333006 0.2826463 -0.039378885 0.2092202 -0.20500337 -0.08457433 0.5171453 0.040571436 0.17333739 -0.33918846 0.24005188 -0.20026617 -0.20408379 0.28716257 0.38041234 0.24324013 -0.20600933 0.6365613 -0.18113421 0.2659292 -0.33199143 -0.26841295 -0.25935563 -0.013863153 -0.1736391 0.029325994 0.30892152 -0.24097158 -0.109870195 -0.49752542 -0.032646015 -0.20277311 -0.4516949 0.28122175 -0.38737205 -0.064979784 -0.24194512 0.022717234 0.28646788
68 0.33436313 0.20239872 0.066549234 -0.03928334 0.20579934 -0.112093836 -0.5840181 0.17264347 -0.03857647 -0.13222088 0.34434864 0.03726017 -0.3317305 -0.17114717 0.16296919 0.14560647 0.22671849 -0.06256225 0.13622816 -0.51916796 0.014660888 -0.19813417 0.08953989 0.0367342 0.3583845 -0.102489 -0.054993097 -0.29527923 -0.016114706 -0.22109447 0.24527793 0.06113141 0.2308437 -0.09560799 -0.24749959 0.14376761 -0.2912055 -0.06577562 0.2851507 0.027958052 -0.19483791 -0.14263758 -0.23283519 0.0757985 0.022102758 -0.028381435 0.21213911 0.1495748 0.30442387 0.1577629 -0.06393645 -0.4471776 0.13367909 0.29304394 -0.23013987 0.0316403 0.28807378 0.08162677 0.0019287255 -0.34008953 0.4817944 0.44760764 -0.2661234 -0.6365875 0.30105194 -0.6325781 0.082327336 0.89597034 -0.42764565 0.041733205 -0.10700938 0.13337561 0.1926541 0.061300714 0.049214825 -0.27510658 0.019714793 0.5002028 -0.07152592 -0.16785474 0.023566252 0.41543123 -0.13514726 -0.09058535 0.20384713 0.08205417 -0.04720176 -0.42413256 0.2486455 0.04125095 -0.12950704 0.17947021 0.017381642 0.19201605 -0.13168794 -0.046067864 0.03826489 0.50065446 -0.31997693 0.28539228 -0.35618296 -0.14517191 0.33522463 0.33965868 0.098453484 0.24952696 0.41217217 -0.053016152 -0.007282328 -0.11605963 -0.37209702 -0.0894995 0.09218928 -0.1102843 -0.08825601 0.30910778 0.031198988 0.11727275 -0.19360115 0.27623463 0.13742805 -0.16766503 0.11021567 -0.258457 0.099588454 -0.16281126 0.04299656 0.19715635
67 -0.11868028 -0.27226493 -0.18277708 -0.09996489 -0.0438291 0.13148096 -0.5590024 0.49069524 -0.027292764 -0.028460858 0.3729897 -0.16589992 -0.26465735 0.043261603 0.02151718 0.0190074 0.1366723 -0.050859418 0.025149161 -0.60468584 -0.0074310154 -0.3907444 0.101724 0.15746339 0.13481748 -0.06306091 -0.03241064 -0.23452662 0.1825537 -0.28911185 -0.11945285 0.10175153 0.14189611 0.015732417 -0.69183093 -0.13123116 -0.16536807 -0.198539 0.31729147 0.015967293 -0.46435514 -0.11888375 0.07351894 0.14008746 0.35599524 -0.1613679 0.3277851 0.047212094 -0.055002872 -0.09891886 -0.5692124 -0.46752718 0.051530905 0.22854163 -0.2174459 -0.12906551 0.14457688 -0.41739956 -0.012545654 -0.4189538 0.7606156 0.30204105 -0.009870206 -0.17746851 0.265275 -0.18159032 0.39679605 1.0405545 -0.29896158 -0.25623292 -0.17361164 0.2436053 0.04018991 -0.3901832 0.19718724 -0.19213484 -0.46139166 0.19441517 -0.016188253 -0.16435528 0.094590485 0.18895331 -0.047061604 -0.29311636 -0.009496431 0.3437289 -0.05795017 -0.28063047 -0.06513424 -0.18222362 0.02971704 -0.001786174 0.41994953 -0.12321058 -0.18518345 0.29339126 -0.16646712 0.28095722 -0.15443484 0.2240636 -0.1571203 -0.20959271 0.118514486 0.52404195 0.22429997 -0.047397707 0.30887318 -0.05763628 0.4860906 -0.08582125 -0.25587022 -0.22982806 0.24877779 -0.2597587 -0.5195247 -0.030293226 -0.09757565 -0.3087324 -0.47735664 0.26706704 -0.045534346 -0.23889162 0.15527 -0.04473612 -0.06322645 -0.14789931 0.006401121 0.123287514
88 0.039238263 -0.34817523 -0.16207914 -0.1857907 -0.13855498 0.13424894 -0.20719971 -0.17431875 0.19315055 0.04057065 0.30124107 -0.06367709 -0.39527225 -0.56272966 0.045641366 0.06559396 0.44045728 -0.44476286 0.1705931 0.0020897621 0.30695018 0.15237138 0.06181103 0.34451 0.23417328 0.20096143 -0.07249983 -0.19539516 0.07748077 -0.214985 0.24344699 -0.53548867 -0.14863844 -0.12526521 -0.5109438 -0.35806128 -0.34661844 -0.040710572 0.35296094 0.08472152 0.012839762 -0.1048893 0.07315911 0.17939821 0.22025083 -0.22323363 0.26364216 0.24081263 -0.33301637 -0.26793227 -0.4545458 0.10082915 0.20001625 0.06052152 -0.32724378 -0.18396544 0.22278008 0.1799993 0.02578106 0.16935918 0.48100826 0.54900026 -0.33424237 -0.38915572 -0.10781131 -0.51776713 0.423801 0.3780279 0.16195205 -0.3070186 -0.1539494 0.13003054 0.06883091 -0.3469912 -0.070490345 -0.23374055 0.18724427 0.11143823 -0.356369 0.026597027 -0.041723263 0.662929 0.09631484 -0.3394631 0.18963014 0.12991911 -0.21417037 -0.10431398 0.05191799 0.015357181 -0.43467015 0.34814197 -0.100265294 0.50091606 -0.06998712 0.25111508 0.25068092 0.20984344 -0.36235628 0.10017119 0.15485878 -0.16179462 -0.016536118 -0.04511992 -0.09661768 -0.2099753 -0.24202707 -0.11350799 -0.12713595 0.18744966 0.016979747 -0.067707 0.21443577 -0.20428649 -0.2776394 -0.13573378 -0.18750021 0.20156516 -0.47411773 0.44356915 0.17442836 -0.2651892 0.12550637 0.07307078 -0.04742386 0.03684804 -0.057369437 0.3608134
116 0.06410018 0.264434 0.441581 0.06231863 -0.17067389 0.28033242 -0.32526034 0.5013436 0.14606777 -0.24174179 0.36252275 0.015895061 0.028802602 0.14413849 -0.2227149 0.02262747 0.4258234 -0.09930245 0.044116568 -0.46333313 -0.047970563 -0.37974116 0.063677676 -0.059073485 0.0923118 -0.23796898 0.08260618 -0.33216205 0.3209202 -0.010879601 -0.0444151 -0.29249892 -0.03361507 0.060832847 -0.45954973 -0.10580391 -0.103140175 -0.21170297 0.5817954 -0.14746977 -0.15953317 0.028748397 0.050923903 0.0014509083 0.13426316 -0.2985048 0.20503213 0.15538971 0.30927035 -0.043637674 -0.43323636 -0.48120108 -0.33815157 0.27998117 -0.26697809 0.06330736 -0.25338867 0.3928702 0.09621087 -0.027131505 0.29616776 0.6340646 -0.2963531 -0.59139055 -0.01764248 -0.2577188 0.32896703 0.5499803 0.0077005825 -0.32317096 -0.20513837 0.35748553 0.12857692 -0.24001989 0.36547723 -0.2566939 0.50750995 0.38747302 0.057803042 -0.15826273 0.014261875 0.6061115 0.16977331 -0.14316179 0.0999911 0.20348859 0.28140756 -0.1823488 0.07735479 0.33633775 -0.036484875 0.25026733 0.0066258637 -0.15626015 -0.096095674 0.2878244 -0.1503646 0.27625018 -0.47812152 0.18500333 -0.2746218 -0.41625085 0.1211444 0.56224227 0.03603015 -0.2552997 0.17342469 0.13541885 0.18828246 -0.012054246 -0.19047947 -0.09194736 0.21169056 -0.07474411 -0.3876267 0.31372333 -0.25651875 0.19583921 -0.049813665 0.3203671 -0.13599034 -0.6147165 0.3350449 0.026608353 0.016169168 -0.09437215 -0.11470155 0.2578532
119 0.1202275 0.067000754 -0.124821916 0.06697807 -0.4167227 0.18821871 -0.3515695 0.26522836 0.044619743 0.15794694 0.7305763 0.08952438 -0.08001547 -0.17254835 -0.017327104 0.16266619 -0.07121207 0.13116077 0.26024076 -0.3467926 -0.2069119 -0.015405706 0.16482505 -0.010184625 -0.20252897 -0.32155526 0.0012422487 -0.19277686 0.37320703 -0.01523203 0.20093995 0.053228017 -0.08467367 0.41781923 -0.011371482 -0.6564582 -0.097687185 -0.0038326832 0.21952994 -0.20902158 -0.4185651 -0.019289477 0.1829904 -0.23063241 0.23569879 0.4241051 0.09160067 0.21630147 -0.12652479 0.06032682 -0.3240399 0.1720283 -0.010891567 -0.120221935 -0.14665747 -0.28948823 0.3528319 -0.10208919 0.09945833 0.020671595 -0.02583068 0.28328127 0.029000232 -0.33358076 0.124716535 0.1966772 0.24222772 0.2722774 -0.054383915 -0.34948844 -0.2932897 0.19302975 0.26102668 -0.37541026 -0.18501945 0.16931689 0.2681476 0.02888012 -0.10418255 0.033606227 0.61013633 -0.13268942 0.4142915 0.3064631 0.4003492 0.14472015 -0.051594686 -0.32830012 -0.13620825 0.19603866 0.15252972 0.40164605 -0.12159731 0.31480992 -0.020497017 0.16236395 -0.18923707 -0.21044129 -0.53326774 -0.15241298 -0.38514188 0.027042622 0.012455978 0.022802342 -0.07598472 -0.16924599 0.078731716 0.103168584 0.28012896 -0.022289513 0.3633379 -0.0915596 0.33778828 0.20088013 -0.68955797 0.06329333 0.39771158 -0.21315618 -0.21692805 0.06323163 0.31411314 -0.28827402 -0.1634485 -0.045690637 -0.39792582 0.10180571 -0.3166212 -0.18830676
493 0.10137012 -0.26414463 -0.2489576 0.50133765 -0.33438694 -0.011783113 -0.053728268 0.30090538 -0.22651154 -0.124672 -0.036941078 0.17052709 -0.08589555 -0.021149727 -0.08085355 -0.21874022 0.24887945 0.23913558 -0.09713042 -0.18578137 0.1404984 -0.084738635 0.20426688 -0.08274135 -0.28829226 0.26220882 0.0074925683 0.044050634 0.02906069 0.18670847 0.19063239 0.3853683 0.28712654 0.20182589 -0.13839759 -0.025823578 -0.57158196 0.11524147 -0.23228827 0.011611412 0.009450297 -0.47941136 -0.04472066 -0.20620692 -0.18935964 -0.22502531 0.6334328 0.5081925 0.1770819 0.258855 0.13639463 -0.3468209 -0.20441586 0.050869174 -0.104693316 0.19512384 0.1635724 -0.08665377 -0.28323048 0.3601802 0.08084504 0.61338717 -0.31517863 0.11916624 0.34385112 0.1062378 -0.045875456 0.28554645 0.122409925 -0.374504 0.28723073 0.16427985 0.23992912 -0.043323934 0.35903436 0.2142826 0.018007254 0.039796438 -0.19781213 -0.27443382 -0.08942196 0.26243782 0.27511725 0.03213161 -0.41191545 0.3596561 -0.019739017 -0.16371205 -0.23093279 -0.037938092 -0.17239527 -0.170845 -0.012618023 0.09795721 0.4536206 -0.07914028 0.17469175 0.5352536 -0.17732392 -0.44181406 0.37682474 -0.053635754 0.29538506 0.2839883 0.23163317 -0.46127743 0.3091321 0.045458645 0.38236186 5.9249687e-05 0.07416131 0.111740954 0.18507537 0.24663967 -0.05131824 0.014375162 -0.36903897 0.026767163 -0.6279052 0.03644116 0.42674476 -0.46285358 -0.055236563 -0.14334434 0.19485891 -0.31748018 -0.16335653 0.18762603
167 0.23602621 -0.25016472 -0.318186 0.121612296 0.12650727 0.2573264 -0.47340018 0.44795007 0.15766735 0.15138592 0.43127966 0.09615292 -0.16670005 0.01692176 -0.013056047 0.1705712 0.39436996 -0.032218512 -0.027032873 -0.7707365 0.023521168 -0.21175537 -0.02115711 0.0026550707 0.20506702 -0.07839624 -0.10682055 0.009275534 0.24332634 -0.38622165 0.0013439048 0.04535203 -0.16780572 -0.13836826 -0.7293436 -0.19566822 -0.1980499 0.24058206 0.31301576 0.1444898 -0.11080511 -0.36063915 -0.13533722 0.17477061 0.15045582 -0.23795684 0.01140018 0.14063802 0.03533748 -0.12535398 -0.36816406 -0.44532302 -0.23399478 0.17784418 -0.31285724 -0.12402831 0.22913213 -0.025667682 0.269614 -0.044337064 0.5708406 0.4250913 -0.08195997 -0.52661616 0.21895872 -0.31297493 0.18475707 1.0028137 -0.18815263 -0.11699393 -0.01792272 0.37483022 0.0083489455 -0.37037832 0.17440857 -0.15309156 -0.335818 0.37133464 -0.19683997 -0.28991684 0.109291516 0.2929997 0.12953188 -0.27005008 0.2987395 0.3215418 0.16693375 -0.57335675 -0.004806057 -0.067890145 0.055169843 0.0070005003 0.053146046 0.1359135 -0.13069771 0.39432344 -0.21179909 0.08531295 -0.14914513 0.1417625 -0.2547117 -0.33084124 0.01851512 0.2988755 0.2601211 -0.008933074 0.005182045 -0.07326322 0.14918382 -0.092447355 -0.28590897 -0.26320183 0.07617342 0.048184026 -0.10686773 0.07317827 -0.25585324 -0.033217333 -0.25625348 0.24602124 0.11941626 -0.32055295 0.15897003 -0.08280209 -0.009102299 -0.18875553 0.041435953 0.06456526
181 -0.20376994 0.15539037 0.0010795512 0.32279164 -0.19990791 0.38877723 -0.42438588 0.37480086 -0.12200514 -0.011612057 0.2770829 0.10677488 -0.14028895 -0.07749055 -0.21266305 0.06826521 0.32384858 -0.10412805 0.2973391 -0.5533109 0.30058953 -0.101433426 -0.0074280268 0.048732545 0.21210362 -0.11851971 -0.2591375 -0.29735786 0.23294672 -0.19650409 -0.021759769 0.0017007735 0.110551685 -0.19015478 -0.3295289 -0.063380964 -0.48441356 0.1378642 0.17049833 0.10021771 -0.024323711 -0.41029274 0.012306898 0.10118373 0.043589067 -0.0466838 0.08280429 -0.08633192 0.3071784 -0.2921414 -0.19637106 -0.50342005 -0.11998141 0.15213725 -0.15846077 -0.29639366 0.14841466 0.08986302 0.45759365 0.17306623 0.46463397 0.5243732 -0.02562238 -0.60662544 0.37024885 -0.51810354 0.12056644 0.7805745 -0.042822123 -0.14266764 -0.030742135 0.022939986 0.06392248 -0.20613573 0.18683542 -0.29029438 0.061701156 -0.02752348 0.102640815 -0.15908568 0.23215863 0.343325 0.022944791 -0.23257755 0.48999855 0.026869996 0.23018527 -0.5974332 -0.11864793 0.30689368 -0.11584344 0.021455692 0.16072099 -0.16948664 -0.105744325 0.38960046 -0.13086966 0.1743002 -0.22843593 0.23163025 -0.2689812 -0.24259552 0.176463 0.37172112 -0.10217103 -0.13675784 0.14850955 -0.11263358 0.0026798574 -0.002885484 -0.25465006 -0.36770937 -0.038843412 -0.20620528 0.0066480874 0.122918546 -0.09180995 0.045144442 -0.33423838 0.1907761 0.06036749 -0.62338364 0.091250636 -0.16666576 0.18599138 -0.10076989 -0.10722912 0.20418261
15 -0.065780416 0.17560598 -0.15289712 -0.03261152 -0.031403203 0.3266544 -0.5683362 0.53975487 0.041850973 -0.21288909 0.035018638 -0.06953141 -0.1668511 -0.27964506 0.15300398 -0.11775675 0.31046155 -0.13015865 0.27305877 -0.48581657 -0.014585614 -0.2177517 0.2646649 0.012081152 0.15395673 -0.0791414 -0.056272008 -0.18632227 0.38824525 -0.11275519 0.045119073 -0.2743146 -0.06850404 0.14351742 -0.47829306 0.02677367 -0.28965154 0.16832267 0.2587509 0.08013776 -0.19175246 -0.22226472 0.12261711 0.104428686 0.20906019 -0.35884374 -0.005297392 0.06624226 0.20383768 0.1753902 -0.2226279 -0.60602516 0.053157333 0.3642301 -0.21733941 -0.17111595 -0.083027035 0.21543959 0.14258245 0.0413144 0.44047165 0.7122585 -0.39774805 -0.34872875 0.118623435 -0.07965866 0.26857916 0.80888927 -0.021842591 -0.30023876 -0.06655311 0.41727346 0.039203096 -0.0636975 0.4873887 -0.41061035 0.184919 0.14736998 -0.09935336 -0.30902925 0.05364689 0.48817784 0.137424 -0.20165369 0.3024636 0.3129243 0.025865555 -0.3951909 0.026527703 -0.0004826708 -0.04266173 0.12956518 -0.060991026 -0.117874086 -0.03826798 0.3262908 0.0042886087 0.2607032 -0.17009912 0.03337215 -0.51142925 -0.28421238 0.22050776 0.32075065 0.047306776 -0.19717257 0.31282306 -0.006547125 0.22983219 -0.07230293 -0.34537157 -0.15571344 -0.031223113 -0.0006342685 -0.21335457 0.19286309 -0.22439046 0.21671428 -0.13301139 0.41628107 -0.084690936 -0.40244675 0.26142868 -0.13642919 0.28429803 0.05778078 -0.29175675 0.13025327
64 0.056401398 -0.03843349 -0.17618592 0.09696874 0.058230594 0.19427189 -0.3246021 0.2935368 -0.08747449 -0.092706755 0.28698394 -0.08792647 -0.23474953 -0.34375283 -0.023922918 0.12783583 0.5806217 -0.20677677 0.28588474 -0.4614291 0.08009499 -0.24332675 -0.094062574 0.19458608 0.25235716 0.018472293 -0.19074275 -0.05652001 0.22403464 -0.21807425 -0.033890117 -0.3207201 0.06549632 -0.037118766 -0.33615956 0.02209608 -0.16417281 0.1514747 0.3021795 0.06288776 -0.049011763 0.015146691 0.19519952 0.22519162 0.10129619 -0.23706785 0.07111723 0.30722952 0.20279767 -0.19781192 -0.38714707 -0.61145437 -0.03506013 0.4610961 -0.19461465 -0.1179707 0.07101284 0.1757741 0.24704868 -0.22272992 0.5514532 0.5689761 -0.35374403 -0.53135467 0.20340899 -0.44953886 0.176136 0.7043826 0.032375466 -0.32426843 -0.20999025 0.37524515 0.10282698 -0.14621468 0.15620929 -0.20392329 0.45364445 0.33388603 -0.0320348 -0.11995667 -0.0005279234 0.6560153 0.25770786 -0.13862552 0.4092627 0.14941806 0.20795615 -0.28729755 0.015145525 0.18234763 -0.24118438 0.18077119 -0.023959545 -0.010359214 0.03313641 0.37461048 -0.15874599 0.2688764 -0.31208494 0.3484896 -0.21379837 -0.34099093 0.14736658 0.3115457 0.06802128 -0.08956468 0.2616124 -0.068205155 0.0257166 0.014453997 -0.31329677 -0.37222415 0.045699704 -0.19706997 -0.23586628 0.21824072 -0.26359424 0.1213218 -0.351598 0.31149337 -0.12455531 -0.458386 0.3059294 0.06399668 0.21549758 0.07635309 -0.2374501 0.29562575
66 0.12933981 0.06800871 0.1630271 0.22922309 -0.18340278 0.25548366 -0.55611426 0.7745319 0.18562141 -0.070619136 0.2653648 -0.00981406 -0.06689642 -0.14129202 0.12803821 -0.18247934 0.5964011 0.01564782 -0.045913927 -0.33096448 0.09586004 -0.029626902 -0.07707706 -0.25072756 0.07616967 -0.06726184 -0.26185194 -0.31342962 0.31911448 0.05670487 -0.056719486 0.05265051 0.20876664 -0.098641865 -0.38736823 0.15172525 -0.37278792 -0.104572125 0.31826174 0.21538557 -0.13127965 -0.5526309 -0.14848804 -0.19964558 -0.024780326 -0.2308853 -0.044998527 0.20110703 0.05664543 -0.30624717 -0.29276893 -0.42335278 0.1141353 0.2593507 -0.0500412 0.0736194 0.08647486 0.33229336 0.020376164 0.1278876 0.25162178 0.6207183 -0.25705084 -0.18292819 0.13085978 -0.39106396 0.14630108 0.88540655 0.016901338 -0.40942574 0.0063584433 -0.13480264 0.05561415 -0.0024940984 0.30142385 -0.39531082 -0.044641145 0.13322636 0.028789803 -0.27874547 0.0018611809 0.65953875 -0.109570615 -0.16634938 0.17702192 0.08449171 0.07870205 -0.4123456 -0.049147397 0.31783763 0.040900394 0.12022392 0.22793788 0.15334862 0.0052573406 0.0665914 0.039592568 0.47085688 -0.5350251 0.030602131 -0.25839755 -0.1320055 0.10241136 0.33663118 0.37077636 -0.0075515523 0.5234836 0.18474235 0.39014858 0.04586274 -0.16563368 -0.07448548 0.07982921 0.069930054 -0.27127233 0.17788872 -0.2430508 0.007334965 -0.22232297 0.038943954 0.1047101 -0.3633357 0.026806027 0.088302195 0.15764439 -0.14633405 -0.116734296 0.093207814
73 0.2049431 0.16510278 0.008819877 0.046826918 0.25922796 0.377555 -0.38201353 0.5690425 0.10478085 0.06693111 0.34941143 -0.0301609 -0.3741065 0.007881235 0.09305716 0.105705775 0.41043976 -0.23659897 0.1471358 -0.40258405 0.049627997 -0.017712338 -0.13174966 0.021282852 0.24305567 -0.23963927 -0.049923703 0.032705 0.20782802 -0.2843796 -0.12306232 -0.068925835 -0.056718044 -0.014694582 -0.6707157 -0.06367583 -0.45991373 0.30864704 0.03497809 0.03154628 -0.119644605 0.018385991 -0.116988406 0.0783586 0.12657334 -0.1657532 -0.08947891 0.2144958 0.3265398 -0.16089575 -0.20470679 -0.5146105 -0.34530953 0.12664908 -0.40565598 0.21471478 0.060697913 0.17106135 0.17565854 0.04291181 0.22045408 0.46831152 -0.061705574 -0.7006796 0.22310264 -0.3662574 0.039443403 0.6831735 -0.07320685 -0.07990714 0.18315351 0.22703125 0.07186563 -0.3299664 0.1665781 -0.22808294 0.13409194 0.34523526 -0.25304383 -0.357544 0.049754977 0.5857725 -0.004788322 -0.10115206 0.3777065 -0.013658906 0.36386856 -0.4891835 -0.031740446 0.053981703 0.10400145 -0.18746136 0.07223038 0.004243413 -0.041960683 0.4705256 -0.21833396 0.091114275 -0.04039372 0.13056026 -0.38023412 -0.45398158 0.090851344 0.29407763 0.07932443 -0.23548475 0.1257892 -0.094576254 0.13824113 0.0020316707 -0.5101946 -0.15933001 -0.06484021 -0.13277724 -0.26027775 0.27545348 -0.13486516 0.16751967 -0.09316962 0.38301584 -0.02430124 -0.20147158 0.50153816 -0.17525886 0.024371723 -0.024010647 0.07395796 0.2792874
